FANN_FLO_2.1
num_layers=35
learning_rate=0.700000
connection_rate=1.000000
network_type=1
learning_momentum=0.000000
training_algorithm=2
train_error_function=1
train_stop_function=0
cascade_output_change_fraction=0.010000
quickprop_decay=-0.000100
quickprop_mu=1.750000
rprop_increase_factor=1.200000
rprop_decrease_factor=0.500000
rprop_delta_min=0.000000
rprop_delta_max=50.000000
rprop_delta_zero=0.100000
cascade_output_stagnation_epochs=12
cascade_candidate_change_fraction=0.010000
cascade_candidate_stagnation_epochs=12
cascade_max_out_epochs=150
cascade_max_cand_epochs=150
cascade_num_candidate_groups=2
bit_fail_limit=3.49999999999999980000e-001
cascade_candidate_limit=1.00000000000000000000e+003
cascade_weight_multiplier=4.00000000000000020000e-001
cascade_activation_functions_count=10
cascade_activation_functions=3 5 7 8 10 11 14 15 16 17 
cascade_activation_steepnesses_count=4
cascade_activation_steepnesses=2.50000000000000000000e-001 5.00000000000000000000e-001 7.50000000000000000000e-001 1.00000000000000000000e+000 
layer_sizes=56 1 1 1 1 1 1 1 1 1 1 1 1 1 1 1 1 1 1 1 1 1 1 1 1 1 1 1 1 1 1 1 1 1 1 
scale_included=0
neurons (num_inputs, activation_function, activation_steepness)=(0, 0, 0.00000000000000000000e+000) (0, 0, 0.00000000000000000000e+000) (0, 0, 0.00000000000000000000e+000) (0, 0, 0.00000000000000000000e+000) (0, 0, 0.00000000000000000000e+000) (0, 0, 0.00000000000000000000e+000) (0, 0, 0.00000000000000000000e+000) (0, 0, 0.00000000000000000000e+000) (0, 0, 0.00000000000000000000e+000) (0, 0, 0.00000000000000000000e+000) (0, 0, 0.00000000000000000000e+000) (0, 0, 0.00000000000000000000e+000) (0, 0, 0.00000000000000000000e+000) (0, 0, 0.00000000000000000000e+000) (0, 0, 0.00000000000000000000e+000) (0, 0, 0.00000000000000000000e+000) (0, 0, 0.00000000000000000000e+000) (0, 0, 0.00000000000000000000e+000) (0, 0, 0.00000000000000000000e+000) (0, 0, 0.00000000000000000000e+000) (0, 0, 0.00000000000000000000e+000) (0, 0, 0.00000000000000000000e+000) (0, 0, 0.00000000000000000000e+000) (0, 0, 0.00000000000000000000e+000) (0, 0, 0.00000000000000000000e+000) (0, 0, 0.00000000000000000000e+000) (0, 0, 0.00000000000000000000e+000) (0, 0, 0.00000000000000000000e+000) (0, 0, 0.00000000000000000000e+000) (0, 0, 0.00000000000000000000e+000) (0, 0, 0.00000000000000000000e+000) (0, 0, 0.00000000000000000000e+000) (0, 0, 0.00000000000000000000e+000) (0, 0, 0.00000000000000000000e+000) (0, 0, 0.00000000000000000000e+000) (0, 0, 0.00000000000000000000e+000) (0, 0, 0.00000000000000000000e+000) (0, 0, 0.00000000000000000000e+000) (0, 0, 0.00000000000000000000e+000) (0, 0, 0.00000000000000000000e+000) (0, 0, 0.00000000000000000000e+000) (0, 0, 0.00000000000000000000e+000) (0, 0, 0.00000000000000000000e+000) (0, 0, 0.00000000000000000000e+000) (0, 0, 0.00000000000000000000e+000) (0, 0, 0.00000000000000000000e+000) (0, 0, 0.00000000000000000000e+000) (0, 0, 0.00000000000000000000e+000) (0, 0, 0.00000000000000000000e+000) (0, 0, 0.00000000000000000000e+000) (0, 0, 0.00000000000000000000e+000) (0, 0, 0.00000000000000000000e+000) (0, 0, 0.00000000000000000000e+000) (0, 0, 0.00000000000000000000e+000) (0, 0, 0.00000000000000000000e+000) (0, 0, 0.00000000000000000000e+000) (56, 8, 2.50000000000000000000e-001) (57, 16, 2.50000000000000000000e-001) (58, 15, 2.50000000000000000000e-001) (59, 17, 5.00000000000000000000e-001) (60, 17, 2.50000000000000000000e-001) (61, 3, 2.50000000000000000000e-001) (62, 5, 5.00000000000000000000e-001) (63, 3, 5.00000000000000000000e-001) (64, 11, 2.50000000000000000000e-001) (65, 5, 5.00000000000000000000e-001) (66, 5, 5.00000000000000000000e-001) (67, 11, 2.50000000000000000000e-001) (68, 16, 2.50000000000000000000e-001) (69, 5, 2.50000000000000000000e-001) (70, 17, 5.00000000000000000000e-001) (71, 5, 2.50000000000000000000e-001) (72, 17, 5.00000000000000000000e-001) (73, 11, 2.50000000000000000000e-001) (74, 17, 5.00000000000000000000e-001) (75, 5, 2.50000000000000000000e-001) (76, 5, 2.50000000000000000000e-001) (77, 8, 2.50000000000000000000e-001) (78, 10, 7.50000000000000000000e-001) (79, 16, 2.50000000000000000000e-001) (80, 11, 5.00000000000000000000e-001) (81, 11, 2.50000000000000000000e-001) (82, 16, 1.00000000000000000000e+000) (83, 11, 2.50000000000000000000e-001) (84, 5, 5.00000000000000000000e-001) (85, 11, 2.50000000000000000000e-001) (86, 5, 2.50000000000000000000e-001) (87, 5, 2.50000000000000000000e-001) (88, 5, 2.50000000000000000000e-001) (89, 11, 5.00000000000000000000e-001) 
connections (connected_to_neuron, weight)=(0, -1.03258436145777500000e+000) (1, 6.44905459192176230000e-001) (2, -1.06634102380817940000e+000) (3, 8.64325478089602310000e-002) (4, -4.64124182548630030000e-001) (5, 1.93609238330083530000e-001) (6, -4.65615955356862900000e-001) (7, 3.24269547130691230000e-001) (8, -1.07199833601860920000e+000) (9, 5.17072949939203610000e-001) (10, 5.34869352959636000000e-001) (11, 3.65754877894041650000e-001) (12, 9.77591139980876770000e-001) (13, 7.46241264394103540000e-001) (14, 4.67909688230988720000e-001) (15, -8.09303149712820140000e-001) (16, -8.57554233022573280000e-001) (17, -6.58364225082993750000e-001) (18, 9.85578829131315560000e-001) (19, -1.36171023903623260000e+000) (20, -2.30253802928423790000e+000) (21, 1.46989916241486860000e-001) (22, 5.36184646263516030000e-001) (23, 1.13880931100618100000e+000) (24, -2.28809093888734470000e+000) (25, 1.93663145153883010000e+000) (26, -6.47157548449364270000e-002) (27, 1.76960391329672160000e+000) (28, -1.49651782662363920000e-001) (29, -2.50019183514302440000e-002) (30, 1.96444298293103920000e+000) (31, -1.71760444079313720000e+000) (32, -3.35882782392084990000e-002) (33, 6.91754469428220230000e-003) (34, -6.45037137805214850000e-002) (35, 2.06020747705626620000e-001) (36, 5.25338239023275880000e-002) (37, -9.91700879066628400000e-001) (38, -2.97043121174254740000e-001) (39, -2.06506317137409260000e+000) (40, 6.82128305700006710000e-001) (41, -5.02615579697115230000e-001) (42, 5.65589825595026020000e-001) (43, -1.11995724929664010000e+000) (44, 5.77626077228934220000e-001) (45, -1.08889778367402790000e+000) (46, 6.57820480739910400000e-001) (47, -1.40749312348564110000e-001) (48, -1.02077749875837240000e+000) (49, -3.82820635084709260000e-001) (50, 8.43144982703580960000e-001) (51, -7.32956603184890530000e-001) (52, 6.72378794768412340000e-001) (53, 5.54949386606175210000e-001) (54, -3.49876530494290350000e-001) (55, -2.26000980489502760000e-001) (0, 1.20462186525960520000e+000) (1, -1.38234827542772580000e-001) (2, 7.27808606327572720000e-001) (3, 2.26671036425351380000e+000) (4, -1.39615336328602460000e-001) (5, 1.48379881465806830000e+000) (6, 3.65544299871849280000e-001) (7, 1.06764132501878910000e+000) (8, 1.65551932580766880000e+000) (9, -7.14633812090481320000e-002) (10, 3.31470913208293740000e-002) (11, 3.06007742830650190000e-001) (12, 6.70686707477141760000e-001) (13, 1.53390882480786160000e+000) (14, 1.46404390164881630000e+000) (15, 1.76613919588049960000e-002) (16, 1.65749964916339600000e+000) (17, -7.65512263051346010000e-001) (18, 2.61008822402817750000e+000) (19, 1.97762476741835090000e+000) (20, 1.43385833083941390000e+000) (21, 2.81012624685617140000e+000) (22, 2.40850850638829340000e+000) (23, 2.49830381436356900000e+000) (24, 8.24396697768019850000e+000) (25, 3.35139654973609340000e+000) (26, 1.52281155976055540000e+000) (27, 3.96750479970704670000e+000) (28, 1.01164017102603710000e-001) (29, 1.27714013841697780000e+000) (30, -5.48094697324820520000e-001) (31, -1.52838204278870270000e+000) (32, 2.36095671539638260000e-001) (33, 3.78120451805465880000e-001) (34, 1.64037847513911110000e+000) (35, 6.29523552049620410000e-001) (36, 6.01125345985751400000e-001) (37, 1.42029443568085930000e+000) (38, 6.11314942500843280000e-001) (39, -2.90648469555326580000e-002) (40, 1.45458031395122210000e+000) (41, 1.05962355026725970000e+000) (42, 3.11242128035512160000e-001) (43, -2.98918507872860010000e-001) (44, 5.05916934406139610000e-001) (45, 2.68632182446188010000e+000) (46, 7.84357298298287050000e-003) (47, -1.08963294049294470000e-001) (48, -8.35276538866351890000e-001) (49, 1.26384293645416460000e+000) (50, 9.80853125649866380000e-001) (51, 1.50224073097107610000e+000) (52, -1.40312916333955620000e+000) (53, 1.10464748318618130000e-001) (54, -2.22799042419359730000e+000) (55, 2.79757963578427530000e-001) (56, 5.38536947970165070000e+000) (0, -1.44969032258664250000e-001) (1, 1.77998997632511770000e+000) (2, 6.66546015836015910000e-001) (3, 2.07304241155694990000e-002) (4, 1.65403161315888500000e+000) (5, 3.06136512664097580000e-001) (6, 1.35914468098090850000e+000) (7, 1.67017673357821430000e+000) (8, 1.92953756556097100000e+000) (9, 5.94422618384267690000e-001) (10, 1.45329794763886160000e-001) (11, 2.96107443572449110000e-001) (12, 1.88243292845135790000e+000) (13, 1.07703215994196100000e+000) (14, 1.10130120531255990000e+000) (15, 1.13322307279748520000e+000) (16, 1.17783995262276960000e+000) (17, 6.03127396700135420000e+000) (18, -1.12618915232206800000e+000) (19, 2.27014921437931470000e+000) (20, -8.96494150070855090000e-001) (21, 1.27401508116172500000e+000) (22, 2.85436273778025030000e+000) (23, 1.59659785872594880000e-001) (24, 2.91668836542866130000e-001) (25, -5.51351264261216570000e+000) (26, 1.99959240178010610000e+000) (27, 4.37098313043678300000e-001) (28, 5.35491166842809820000e+000) (29, 6.87525197356961940000e-001) (30, 2.27199768862675410000e+000) (31, 3.07498295779325790000e+000) (32, 3.62520310923067300000e-001) (33, -2.00238052953206370000e-001) (34, -3.94901432191201720000e-001) (35, -1.78279331793999630000e-001) (36, 1.33380071773462270000e+000) (37, 2.94337154206254550000e+000) (38, 3.40004935508244510000e-001) (39, 3.19077938846050790000e-001) (40, 1.80883468160823630000e+000) (41, 3.20470249157693790000e-001) (42, 1.47668233231202930000e+000) (43, 1.37039172407437810000e+000) (44, 2.74434679934241200000e+000) (45, 2.57767757663768380000e+000) (46, 1.09274255219689140000e+000) (47, 5.24963950105469810000e-001) (48, -1.32312727478925800000e+000) (49, 8.50618110741203080000e-001) (50, 1.99249687901545890000e+000) (51, 4.87485761154751670000e-001) (52, 1.09810855571002960000e+000) (53, 1.95720752796252610000e+000) (54, -1.93029334824295140000e+000) (55, -9.93664144512074630000e-001) (56, 1.23926754092807530000e+000) (57, -1.64372735020779690000e+000) (0, 7.77332199721669670000e-001) (1, 1.64665407337938950000e+000) (2, 1.00944741300936270000e+000) (3, 1.67275750928090390000e+000) (4, 9.03331687104851120000e-001) (5, 3.42156472158330500000e-001) (6, 2.00128236930830590000e+000) (7, 1.20278178248334840000e+000) (8, 6.15496826197553530000e-001) (9, 2.39955320871738340000e+000) (10, 1.72463605582005640000e+000) (11, 7.02508995970263280000e-001) (12, 9.13690615057896060000e-001) (13, 9.30731515711213240000e-002) (14, 8.06104637616439360000e-001) (15, 1.33943337847398160000e+000) (16, 7.95614657371743640000e-001) (17, 1.76028790392430560000e+000) (18, -5.60761736731507860000e-001) (19, 4.13148735384040010000e-001) (20, -1.15171055908813380000e+000) (21, 8.81529682462480760000e-001) (22, 1.47469598608708470000e+000) (23, 1.86625397831052390000e+000) (24, 7.38629073907423490000e-001) (25, 1.94455176040944180000e+000) (26, 1.30526735504038820000e+000) (27, 5.13207536334202800000e-001) (28, 2.21228143531987210000e+000) (29, -4.73836587739504340000e-002) (30, 8.77558830952361530000e-001) (31, 1.82200338803027080000e+000) (32, 8.05855883539546850000e-001) (33, 1.68466210374898780000e-001) (34, 4.19030235399505960000e-001) (35, 1.34714241380160150000e+000) (36, 5.96785071189416150000e-001) (37, 2.71526875850903250000e+000) (38, 2.01067094925128440000e+000) (39, 2.45958962507026060000e-001) (40, 1.73158456875509280000e+000) (41, 1.77971996498685070000e+000) (42, 5.98932868030624070000e-001) (43, 2.30650362165541530000e+000) (44, 1.52920931988554480000e+000) (45, 2.07495791337035400000e+000) (46, 1.30808016343813800000e+000) (47, -1.93568819617311680000e-001) (48, -2.57155501353875240000e+000) (49, 8.98765370444345240000e-001) (50, 1.07092542783557840000e+000) (51, 5.56977429608590540000e-001) (52, 1.27019802985870390000e+000) (53, 1.56655403916740670000e+000) (54, 7.52194071996902360000e-001) (55, 8.13069751769429640000e-001) (56, 1.12179384889851660000e+000) (57, 1.04204685919706290000e+000) (58, 9.89474621916264450000e-001) (0, 3.00507791365173530000e-001) (1, 1.13596907485531970000e-001) (2, 5.29158954720295500000e-001) (3, 2.73670360254078830000e+000) (4, 4.06942231256322510000e-001) (5, 3.16777853164086020000e-001) (6, -1.11379293449418020000e-001) (7, -4.61932631012185730000e-002) (8, -1.43309441061316240000e-001) (9, 4.54308945140394220000e-001) (10, -5.41592296089062340000e-001) (11, -2.68688565987807880000e-001) (12, 1.45354494374518140000e-001) (13, -4.10332648716338120000e-001) (14, 1.43127375210952200000e+000) (15, 1.38806434695925750000e+000) (16, 1.25562107025400670000e+000) (17, 4.53694449833553000000e-001) (18, 6.61084025001553500000e-001) (19, -2.40014520379950500000e+000) (20, 1.69825886008391010000e+000) (21, 1.89809691721355420000e+000) (22, 1.28928157156162060000e+000) (23, 1.88299520169176190000e+000) (24, 1.42845569289473430000e+000) (25, 1.82764829798287410000e+000) (26, 1.01336687827217700000e+000) (27, -6.24665625334710370000e-001) (28, 6.12649172877085310000e-001) (29, 5.75375673931812550000e-001) (30, 3.58657772502798010000e-001) (31, 1.72524822831801730000e-001) (32, 1.31313474265244050000e+000) (33, 6.10385872461552820000e-002) (34, 2.52493110926881260000e-001) (35, 1.40128723740370460000e+000) (36, 1.32552856056297430000e+000) (37, 1.58562414821220630000e-001) (38, 8.70955627768283840000e-001) (39, 1.42152150546695920000e+000) (40, 6.28064808531645590000e-001) (41, 9.23075600748542450000e-001) (42, -5.54432802907199940000e-003) (43, 2.18180502754756920000e-001) (44, 8.04132863107310250000e-001) (45, 3.23192712375517700000e+000) (46, 1.74132996163195640000e-001) (47, 1.72736598302593520000e-001) (48, -5.44952837373197550000e-001) (49, 1.33825153862491520000e-001) (50, -1.16358834485925750000e-001) (51, 1.32993474820071620000e-001) (52, 4.64123060181799610000e-003) (53, -1.93892204599594050000e-001) (54, -2.35948432219683450000e-001) (55, 2.23346089346708550000e-001) (56, 2.04148877877215050000e+000) (57, 6.02354173328235710000e-001) (58, 2.05081447664868490000e+000) (59, 1.41464984655417350000e+000) (0, 9.12306378364732140000e+000) (1, -7.77261097781270730000e-001) (2, -2.72707342184863850000e+000) (3, 5.49928079082251530000e+001) (4, -1.37687154333657100000e+000) (5, -7.76317597351175110000e-001) (6, 1.45553849771707600000e-001) (7, 1.00446805492132210000e-001) (8, -5.67450693208634840000e-001) (9, -1.25113565740725470000e+000) (10, 9.42580176613305620000e-001) (11, -6.80296475183575830000e-001) (12, 2.40053484562311350000e-001) (13, -7.24573564115822300000e-001) (14, -3.50435691285789830000e-001) (15, 4.18827359698801420000e-001) (16, -3.62825124831832050000e-001) (17, -5.72926382506149450000e-002) (18, -8.11714097376119660000e-001) (19, 4.74986006851765950000e-001) (20, -3.43008989677550290000e+002) (21, -1.17543265483052140000e+000) (22, -5.98652119501799530000e-001) (23, -2.62140305514342480000e-001) (24, 2.13815464797583120000e-001) (25, 6.91887485488471450000e-001) (26, 7.06911392855916530000e-001) (27, -1.35264202963969130000e+000) (28, -9.29026285827840200000e-003) (29, 6.25542541193929380000e-001) (30, -1.46654340780049410000e+002) (31, -7.11006625986401630000e-001) (32, 3.70149341080426350000e-001) (33, 1.54475397776339170000e-001) (34, -7.11756024350258420000e-001) (35, -5.04514215354653910000e-001) (36, 3.92650128438149060000e-001) (37, -7.24698861461043340000e-001) (38, 5.28211942076772360000e-001) (39, -2.53048188719682270000e+000) (40, -1.03343152008569340000e+000) (41, -9.32817751873195160000e-001) (42, -1.63522802697171410000e-002) (43, -6.04476058721452940000e-001) (44, -6.61298404779195770000e-001) (45, -6.15865852711731690000e+000) (46, 6.30767819140195750000e-001) (47, 6.72940289697621870000e-001) (48, 1.65616428637915230000e-001) (49, -7.57563978087629650000e-001) (50, -5.64694151613771900000e-001) (51, -1.21730537419757320000e+000) (52, -3.14814034689995530000e-001) (53, -5.51847403387677460000e-001) (54, -9.07754512488048840000e-001) (55, 3.12324616260915180000e-001) (56, 1.18459880942344790000e+000) (57, -6.69280224320324970000e-001) (58, 2.09008674891445080000e+000) (59, 8.43935813914206690000e-001) (60, 8.97625726341423460000e-001) (0, 1.00923647738629960000e+000) (1, -2.39135605155642030000e-001) (2, 2.24232647991368720000e-001) (3, 4.06474151051793460000e-001) (4, -8.13618602347285450000e-001) (5, 2.79223528509058020000e-001) (6, 1.76589484123568230000e-001) (7, 1.33509969646550620000e-001) (8, -5.83208515775322840000e-001) (9, -1.23336596030802910000e+000) (10, 7.51015166620940920000e-001) (11, 8.18765750145532540000e-002) (12, 4.43696234528662580000e-001) (13, -5.77815614326717460000e-001) (14, 5.70375015696344970000e-001) (15, -2.87179455744035080000e-001) (16, -5.94451753600056980000e-001) (17, 3.02490532244640560000e-001) (18, 6.06320365749501320000e-001) (19, -7.44218207157028800000e-001) (20, -1.53761066747428160000e-003) (21, 5.24679297611813640000e-001) (22, 5.61093330051928960000e-001) (23, 3.38152091806453060000e-001) (24, 7.54304362514834490000e-002) (25, 4.19618745842277100000e-001) (26, 5.43731179707909520000e-001) (27, 3.17032264316292330000e-001) (28, -6.47918185655255160000e-002) (29, 3.07750992623675890000e-001) (30, 3.64262838648366340000e-001) (31, -6.11893118615982720000e-001) (32, 5.31926419614182740000e-001) (33, -3.93455835758738520000e-002) (34, -4.23981170124203610000e-001) (35, 4.13360888383903610000e-001) (36, 7.78406650104311320000e-001) (37, 9.50416521250986520000e-001) (38, 7.15322875430051910000e-001) (39, -4.50587928445577160000e-001) (40, 4.50683589211197110000e-002) (41, -3.67599954165616470000e-001) (42, -8.51806006241210280000e-001) (43, 6.23487341345212110000e-001) (44, 2.24616516366229580000e-002) (45, -5.16256906509772960000e-001) (46, 7.75398602745087650000e-001) (47, -5.97952570431648730000e-001) (48, -3.58262027470629910000e-001) (49, -4.56092548190550670000e-001) (50, 3.76835358486957480000e-001) (51, -5.53618174672874550000e-001) (52, -4.87577934808955340000e-001) (53, 5.22214052817679960000e-001) (54, -1.63370579681392650000e-001) (55, -1.17394732126645060000e+000) (56, -4.92354282726358060000e-001) (57, 1.10258932911400410000e-002) (58, 6.60075891625394600000e-002) (59, 3.37426733452886780000e+000) (60, 7.44699257040030150000e-001) (61, -7.54722339582675430000e+000) (0, -1.76851548038296100000e+002) (1, -1.06113743106870870000e+000) (2, -6.35555022803183540000e-001) (3, 1.07397687649115990000e+001) (4, -7.38870721305657900000e-001) (5, -5.88342441747874530000e-001) (6, 8.10986342584875560000e-001) (7, 7.08882818686548450000e-001) (8, -2.27319058438659880000e-001) (9, -8.60718911659125400000e-001) (10, -6.15195747035976240000e-001) (11, -4.61827389966032380000e-002) (12, 5.20991158875517060000e-001) (13, 3.26712545473281270000e-001) (14, -1.75929648161762630000e-001) (15, 5.18079299450256550000e-001) (16, -9.17027786768942370000e-001) (17, -9.27240242689969520000e-001) (18, 1.08303893212902610000e+000) (19, 4.78365684808603140000e-001) (20, -3.93971112553434520000e+002) (21, 2.91633419277120500000e-001) (22, -4.03100799574493680000e-002) (23, -1.89974078030308210000e+000) (24, 6.98016105485604670000e-001) (25, 4.85859973807317320000e-001) (26, -7.92620333794264550000e-001) (27, -1.04731580339811960000e+000) (28, -1.35566411345839000000e+000) (29, -3.26742384372558160000e-002) (30, 4.20352147911311390000e+000) (31, -1.36232785021802180000e+000) (32, -3.69389269839289770000e-002) (33, 1.16519101695745160000e-001) (34, -4.68791476387639850000e-001) (35, 4.52376298269438590000e-001) (36, -4.94090555905493940000e-001) (37, -7.49022336298729610000e-001) (38, 4.71375213557701680000e-001) (39, 1.74769768382541020000e-001) (40, -1.12734394043537980000e+000) (41, -2.52572923047772290000e-001) (42, -9.02913648038440540000e-001) (43, -5.34899793478324280000e-001) (44, 7.44150061033438730000e-001) (45, 1.21261365028524430000e+001) (46, -8.52216987164785780000e-001) (47, -4.73245096589742730000e-001) (48, -3.82670017317022440000e-001) (49, 5.19542682850555490000e-001) (50, 4.32577249732428890000e-001) (51, 7.73451920372828060000e-001) (52, 5.15068675781721110000e-001) (53, -1.47512865236042860000e+000) (54, -1.20016151264080320000e+000) (55, -5.99640374072258560000e-001) (56, 1.19408453303689410000e+000) (57, -2.15404081328243680000e-001) (58, 6.41039083256391030000e-001) (59, -5.67308050776693330000e-001) (60, 4.06319746871384450000e-001) (61, -2.75912460885512410000e-001) (62, -1.07685672547078100000e+000) (0, -3.95901045435645970000e-001) (1, 3.09820150098918940000e-001) (2, 7.87694706442258360000e-001) (3, -2.04163253247183760000e+000) (4, -8.07328307717979140000e-001) (5, 9.94707646030315580000e-001) (6, -5.83968811176159730000e-001) (7, -3.29900336433961220000e-001) (8, 2.41273765585586330000e-001) (9, 3.01984995995403630000e-001) (10, 9.16397821785672200000e-001) (11, 9.25367646038856350000e-001) (12, 9.85879542755620920000e-002) (13, 7.17968810846421610000e-001) (14, 9.20929382797705530000e-001) (15, -1.38409416989222210000e-001) (16, -6.31422571855752790000e-001) (17, -4.23806767209450760000e-001) (18, -4.68028556680278650000e-001) (19, 1.11232458751330990000e+000) (20, 1.05899573204215320000e+000) (21, -2.75184212659704770000e-001) (22, 7.03392683820071810000e-001) (23, 1.55745080759781880000e+000) (24, -2.07678683209802670000e+000) (25, -2.70103623242989170000e-003) (26, 1.69279457437994640000e+000) (27, -1.45654895666872310000e-001) (28, 7.63805008564151230000e-001) (29, 5.00490673893621230000e-001) (30, -1.24635535397451910000e+000) (31, 1.44759553640180160000e+000) (32, -8.85532009296501110000e-001) (33, -3.02071681753602770000e-001) (34, -7.61633590123632740000e-001) (35, -3.95766120611840240000e-001) (36, -1.64904034440091270000e-001) (37, 1.76115773181024590000e-001) (38, -1.61619014333120980000e-001) (39, 2.06815020428138790000e-001) (40, -3.46297818113727950000e-001) (41, -6.36682507225924570000e-001) (42, 1.73531837514019790000e-001) (43, -8.77251349311986670000e-001) (44, -1.45457945428592470000e-001) (45, -2.76536204777445840000e-001) (46, -2.67159794319366540000e-001) (47, -5.30197628313594400000e-001) (48, -6.52961428804171990000e-002) (49, 6.25827533269901930000e-001) (50, -7.73925951854887770000e-001) (51, -5.25729179532707260000e-001) (52, 1.23122029909316640000e+000) (53, 8.32580689319191710000e-001) (54, -8.58433472305526250000e-001) (55, 6.93157340591507910000e-001) (56, -6.36772747972866320000e-001) (57, 5.38244302895701020000e-001) (58, -5.34808565909815510000e-001) (59, -3.17725702320682980000e+000) (60, -1.73167778833572040000e-001) (61, 5.93589586348569750000e+000) (62, -1.06968091950418010000e+000) (63, 9.63441918496001120000e+000) (0, 1.05074446316913800000e-001) (1, 7.65574212553927550000e-001) (2, 4.42614345335299310000e-001) (3, -5.03615907311417250000e-001) (4, -7.34866769609632040000e-001) (5, 2.43867730316046970000e-001) (6, -8.50789209809898030000e-001) (7, 9.10469428330308750000e-001) (8, 1.07367047648575140000e+000) (9, -5.07109045764563280000e-001) (10, -1.64517661438495060000e-001) (11, 6.67316971455099860000e-002) (12, 4.20499247043150890000e-001) (13, -3.41415564026090410000e-001) (14, -2.02692571278129700000e-001) (15, 4.57715438176711510000e-001) (16, -3.85623278530633550000e-001) (17, -1.05577188010864220000e+000) (18, -1.96365309004802620000e-001) (19, -4.08413847149879610000e-001) (20, 2.53848603979026590000e-001) (21, 1.59830846065940970000e-001) (22, -6.71148493581434470000e-001) (23, -3.28257942641797810000e-001) (24, 8.69170000506905850000e-001) (25, 8.46414683662673920000e-001) (26, -5.12990553769281150000e-001) (27, -1.14321307712711960000e-001) (28, -4.59919246440712080000e-001) (29, 4.85094101165708450000e-001) (30, -2.15706684351813870000e-001) (31, -9.97330210765050350000e-001) (32, 1.03844955909142490000e+000) (33, -5.04651790519538790000e-001) (34, -3.72386686604679830000e-001) (35, 2.95446253078838320000e-001) (36, -6.38766997986877420000e-001) (37, -2.22637779666314290000e-001) (38, 2.55365866450644350000e-001) (39, 3.07351486217191450000e-002) (40, -4.57001670928870670000e-001) (41, 1.32320296165417890000e-003) (42, 6.11236526327371760000e-002) (43, 7.65431338422649210000e-001) (44, 6.09228701021367390000e-001) (45, 1.13182294523863100000e+000) (46, -4.68950647822977020000e-001) (47, 5.62664654602357820000e-001) (48, -9.66642274395935610000e-002) (49, 5.82837712583045840000e-001) (50, 6.15303430904178830000e-001) (51, 6.80359693374957830000e-001) (52, -2.38372152896576960000e-001) (53, -1.15705849106120470000e+000) (54, 6.89777945114856680000e-002) (55, -2.55123851911059240000e+000) (56, -6.20254558221295380000e-002) (57, 1.05201592574666480000e+000) (58, 8.53569572942757260000e-001) (59, 1.65224611534359990000e+000) (60, 7.57273151269714000000e+000) (61, 2.49162374027663600000e+001) (62, 9.93372632217603970000e-001) (63, 9.79589196336099230000e+001) (64, 1.37322413010580060000e+000) (0, 1.05184240850715470000e-001) (1, 1.59284587943536670000e-001) (2, 1.02911144045208470000e+000) (3, 6.91517418275086610000e-001) (4, -4.01650865093245550000e-001) (5, -5.03225420789437990000e-001) (6, 1.11770449283935220000e+000) (7, -2.51439408736410910000e-001) (8, -6.78130200752392160000e-001) (9, 8.30129703852145240000e-001) (10, -8.09862235581197520000e-001) (11, -6.70519633257074530000e-001) (12, 6.38816727698207080000e-001) (13, -9.61071708931640900000e-002) (14, -8.50504159037228650000e-002) (15, 7.23521991828121490000e-001) (16, 5.78834553454815400000e-002) (17, -1.79077583218302280000e-001) (18, 1.99591898764201050000e-001) (19, -7.30519028783706110000e-001) (20, -5.93818505985051970000e-002) (21, -1.03124997078781200000e-001) (22, -1.19323197876451400000e+000) (23, 1.02651277616919010000e+000) (24, 2.51784729522697020000e+000) (25, 4.48485247836237440000e-001) (26, 1.45574525664076030000e-001) (27, 1.42120286586430210000e+000) (28, -1.27514455543202230000e-001) (29, -1.01999012309231360000e-001) (30, 6.04094811948870710000e-001) (31, -1.34195460233332730000e+000) (32, -3.95810794464821420000e-001) (33, -4.78159855322172980000e-001) (34, -2.59645691417061560000e-001) (35, 5.96446954032510470000e-001) (36, 3.55204140870962190000e-001) (37, -8.58008540298533730000e-003) (38, -1.25288478110602340000e-001) (39, -4.59637270783445300000e-001) (40, -1.91800668856019010000e-001) (41, 5.64328705444210650000e-001) (42, 3.99791284625774180000e-001) (43, 7.13854181254054980000e-001) (44, 1.57335442845802890000e-001) (45, -4.72736227042008290000e-001) (46, -7.82817831730370560000e-001) (47, 7.61042246342010120000e-001) (48, 9.69513862295335200000e-001) (49, -1.06032699839494290000e-001) (50, -5.06949367254209470000e-001) (51, 9.05632894470428830000e-001) (52, -4.04207689314484250000e-001) (53, -6.76667280080060830000e-001) (54, -7.95782393414377620000e-001) (55, -2.00985180671826220000e+000) (56, -3.24468596342010610000e-002) (57, 1.28141368495232650000e+000) (58, 7.91351555004940700000e-001) (59, 7.61124524838352250000e-001) (60, 4.87862375514163920000e+000) (61, 1.02657326952307320000e+002) (62, 9.77112554617917680000e-001) (63, 4.20144299272708850000e+002) (64, 8.45944090854070520000e-001) (65, -2.15562085574085290000e-001) (0, 9.28753256134400410000e-001) (1, -4.58865198255105130000e-001) (2, 4.23215232767579110000e-001) (3, 3.06317531032022580000e-001) (4, 6.29672280020361240000e-001) (5, 1.39947814000199940000e-002) (6, 7.49945996010490500000e-001) (7, 5.19122674524368330000e-001) (8, -1.27927762194117610000e-001) (9, -2.12635815570570870000e-001) (10, 6.84567781091222770000e-002) (11, 1.37640815547842990000e-001) (12, -2.00742952670132060000e-001) (13, -6.65408663196472290000e-001) (14, 1.16392028663726400000e-001) (15, -6.08319726976147670000e-001) (16, -2.93278717585651490000e-001) (17, -1.74578790279350530000e-001) (18, 3.45337975671479450000e-001) (19, -6.61199033223128230000e-001) (20, 1.00147008491140950000e+000) (21, -4.36647129772015250000e-001) (22, -1.54867073369233330000e+000) (23, -2.16384441408064040000e-001) (24, -1.45474665725665000000e-001) (25, 7.79779341156595640000e-002) (26, -1.85055135128039120000e-001) (27, 1.02587922128395580000e+000) (28, -1.03960093479369360000e+000) (29, -2.93068085194912680000e-001) (30, -5.13917835611468530000e-001) (31, -7.51598997383792430000e-001) (32, 4.46740808460349640000e-001) (33, 3.99907105688805780000e-001) (34, 3.97490445052902370000e-001) (35, -9.92382327413175000000e-001) (36, -8.76720122488167110000e-001) (37, 6.24580097676535770000e-001) (38, -9.86534026553174460000e-001) (39, -1.18526039891741660000e+000) (40, 5.87695930194270450000e-002) (41, 2.62398989770740000000e-001) (42, 6.45510901341522450000e-001) (43, 6.33584190115760280000e-001) (44, 2.31683663719728370000e-001) (45, -4.57208529344203580000e-001) (46, -1.02420127419550750000e+000) (47, -7.02725150898552810000e-001) (48, -5.54269510876884810000e-001) (49, -1.59821053582654390000e-001) (50, -8.56753376057354580000e-001) (51, 8.00944234157399460000e-001) (52, 4.41954935286475060000e-001) (53, -9.05398089101392300000e-001) (54, 3.09308707978337040000e-001) (55, 8.98837102839210260000e-001) (56, -6.72657977175882490000e-001) (57, 2.78412707803936990000e+000) (58, -7.18051495417327270000e-001) (59, 2.83476176610817500000e+000) (60, 6.22119755562563490000e-001) (61, 3.27715690266567710000e+001) (62, 1.67801594245548300000e+000) (63, 1.24456162401844780000e+001) (64, -1.56362386669403500000e+000) (65, -2.06363474329845140000e-001) (66, -1.85558030303471240000e+000) (0, 5.38008013255644180000e-001) (1, 4.63515867435048580000e-001) (2, -2.02459657102994240000e-001) (3, 2.25127986197469630000e+000) (4, -1.91823171973974640000e-002) (5, 1.63385788975780090000e+000) (6, 9.61574985501930550000e-001) (7, -9.47896866329993180000e-002) (8, 1.15159598668250540000e+000) (9, 6.29485178528366270000e-001) (10, 6.55742421549034950000e-001) (11, -5.50416229032004710000e-001) (12, 9.44307080455964040000e-002) (13, 5.30666940346006030000e-001) (14, 5.66178926195416430000e-001) (15, 1.31634380932663620000e+000) (16, 1.50117244715999480000e+000) (17, 3.90978851878732550000e-001) (18, 6.97221099806641600000e-001) (19, 1.18645497853562270000e+000) (20, 5.31009303827195580000e-001) (21, 1.06608823041502320000e+000) (22, 1.14409641955802810000e+000) (23, 3.27674471686061960000e+000) (24, 4.10575739944489430000e-001) (25, 6.39535920153657680000e-001) (26, 1.54000382953224250000e+000) (27, 3.43811691538022310000e+000) (28, 4.56595726923456510000e-001) (29, 3.61241820180208170000e-001) (30, -1.12968092770896200000e-001) (31, 2.78820615747506160000e-001) (32, 1.29169199475435590000e+000) (33, 4.28051761947682420000e-003) (34, 7.49002198716410050000e-001) (35, 1.68602271102200160000e+000) (36, 6.66035189489007640000e-001) (37, 1.14492960127851440000e+000) (38, 6.39827170110506720000e-001) (39, 3.78386546491413840000e-001) (40, 1.63840298290093320000e+000) (41, 3.92223836178484890000e-001) (42, 8.25621464051673800000e-001) (43, -2.89237397475832440000e-001) (44, 1.72118939535390590000e+000) (45, 2.27069483431199040000e+000) (46, 1.56671471083183520000e-001) (47, 1.41187965150962170000e+000) (48, -1.16542534855975620000e-002) (49, 1.48020577927241350000e+000) (50, -1.38871260588760700000e-001) (51, 1.39379371129470230000e+000) (52, -4.94400365676480820000e-001) (53, 3.63808611289554610000e-001) (54, -1.22146096608951820000e-001) (55, -9.70683812693468710000e-001) (56, 1.82376533132652900000e+000) (57, 2.39500034602375990000e+000) (58, 4.59159185676858430000e+000) (59, 1.98053445622045650000e+000) (60, 3.37939786198822700000e+000) (61, 3.55844119566009850000e+000) (62, 4.80488432749041650000e+000) (63, 6.96881152416844070000e+000) (64, -2.40669243455972380000e+000) (65, 3.60429146326446140000e+000) (66, 6.18821308644927730000e+000) (67, 6.18283729861143530000e+000) (0, 8.16366765541154840000e-001) (1, -3.67454072175881940000e-001) (2, -7.40231707978072480000e-003) (3, -5.50595778571132180000e-001) (4, 4.34320626317141800000e-001) (5, 7.83770995562268370000e-001) (6, 6.43230710211245560000e-001) (7, -2.87930222282848760000e-001) (8, 9.39042394686510960000e-001) (9, -5.33625085803692390000e-001) (10, -3.06133960883797350000e-002) (11, -1.13074140992805390000e+000) (12, 2.71527176171293520000e-001) (13, 7.04292109236595350000e-001) (14, 7.21330402954152850000e-001) (15, -5.23992369158405750000e-001) (16, -5.41664077984180590000e-001) (17, -4.13734937622452670000e-001) (18, -5.36331935339919070000e-001) (19, -1.14121532793454740000e+000) (20, 6.14459315218933710000e-002) (21, -1.11968129404486490000e-001) (22, -6.69579819041421050000e-001) (23, -3.94620194807605990000e-002) (24, -5.99047693291977710000e-001) (25, 2.26254481477103830000e+000) (26, -8.51490928910255680000e-001) (27, 5.78312075864603200000e-001) (28, -8.09121336936659110000e-001) (29, 6.80429608116071560000e-001) (30, -1.69676347263544640000e-001) (31, -1.49349319101788190000e+000) (32, 3.64605932573284720000e-001) (33, -6.36383227411192130000e-001) (34, 1.62806941624410060000e-001) (35, -8.24530607508791870000e-002) (36, -2.98395328642878650000e-001) (37, 6.73763652332537880000e-001) (38, 9.48915984668846860000e-001) (39, 5.41458393812987330000e-001) (40, -8.12248058327977860000e-001) (41, 1.00394838468301680000e+000) (42, -2.67888625517765490000e-001) (43, 1.08775253552801530000e+000) (44, -6.94215663312316660000e-001) (45, 4.67393563166708330000e-001) (46, -6.32433747213509530000e-001) (47, 4.91381391876984170000e-002) (48, -2.11053959805260510000e-001) (49, 2.21805124401671880000e-001) (50, 1.08889541564654540000e+000) (51, 6.34805473452105250000e-001) (52, 2.14831260098021890000e-001) (53, -4.11880725239408720000e-001) (54, -3.85373346534020130000e-002) (55, -2.58245861477513290000e+000) (56, -1.94076335321679840000e-001) (57, -6.97068048182342000000e-002) (58, 5.84710522784140710000e-001) (59, 1.29650988469664870000e+000) (60, 4.15593526294627760000e+000) (61, 3.08574939079618920000e-001) (62, 9.88686281112161720000e-001) (63, 1.13273481851182760000e+000) (64, 2.40582668019812700000e+000) (65, 3.98428702363803070000e-001) (66, 5.46460783306664920000e-001) (67, 3.14374701376837300000e+000) (68, 1.17479595108128690000e+000) (0, -5.92610468062605310000e-001) (1, 1.73134822341754770000e+000) (2, 1.31442078782095640000e+000) (3, 2.82913147096312490000e-001) (4, 4.52227404238144500000e-001) (5, 8.10304604662922090000e-001) (6, 2.10666701944033850000e+000) (7, 7.87722606098769100000e-001) (8, 1.27706524512835000000e+000) (9, 2.16240734466014840000e+000) (10, 1.42594917564372660000e+000) (11, 4.25726721293941620000e-001) (12, 4.71302239131616900000e-001) (13, 5.35093733445577540000e-001) (14, 1.18590892437280540000e+000) (15, 1.00436069645295790000e+000) (16, 9.50051371533543470000e-001) (17, 1.60159117966593720000e+000) (18, -6.15385318536835200000e-001) (19, 1.38662076473734210000e+000) (20, -3.26953200281382820000e+000) (21, 8.35817931912984510000e-002) (22, 4.10081223333031450000e+000) (23, 3.44843547766768270000e+000) (24, 1.75783794192570260000e+000) (25, 1.11545819547762640000e+000) (26, 9.33711388350646600000e-001) (27, 3.21022762270041580000e-002) (28, 1.70331018483679660000e+000) (29, 1.15135824340174710000e+000) (30, 1.34700349541139230000e+000) (31, 2.11093438207108310000e+000) (32, 2.18372346547333200000e+000) (33, 1.30675466709598240000e+000) (34, 5.78888087503312220000e-001) (35, 4.37876406407665340000e-001) (36, 2.39770385434783660000e-001) (37, 1.95155742719890650000e+000) (38, 1.84568299210829780000e+000) (39, 1.07639617139639650000e+000) (40, 1.72583391738774840000e+000) (41, 1.20034790733206400000e+000) (42, 1.28506914595647430000e+000) (43, 1.23756276819320400000e+000) (44, 8.21785013395115670000e-001) (45, 2.74355378838435460000e+000) (46, 4.99793834054672760000e-001) (47, 3.00602206555911860000e-001) (48, -3.37967569306732770000e-001) (49, 4.78309363717996980000e-001) (50, 1.44474590702291960000e+000) (51, 1.61181469695950770000e+000) (52, 1.14946535144448480000e+000) (53, 1.63911002890065550000e+000) (54, -1.04585568440042100000e+000) (55, 1.94655599930437210000e-001) (56, 2.26907774435893380000e+000) (57, 2.16635058143752300000e+000) (58, 2.20335916716877110000e+000) (59, 3.08804170629587870000e-001) (60, 5.00260540281469820000e-001) (61, 1.53463254086849510000e+000) (62, 1.46206625217735710000e+000) (63, 5.72443283720467270000e-001) (64, 1.90277913276837070000e+000) (65, 2.50689736829308750000e+000) (66, 3.74731130668592490000e+000) (67, 3.01158036268821010000e+000) (68, 2.10024605945131590000e-001) (69, 3.50750087155844850000e-002) (0, -8.54707128423965900000e-001) (1, -7.60041523088763050000e-001) (2, -3.55701339956096820000e-001) (3, -1.57822850749823470000e-001) (4, -6.75436160592198490000e-003) (5, 1.00891672957447210000e+000) (6, -9.40298546158351150000e-002) (7, -7.61187981995741780000e-001) (8, -7.60202693888133720000e-002) (9, -6.82511138327223240000e-002) (10, 8.79235748625681770000e-001) (11, 4.20300129357856100000e-001) (12, 1.81788952311852690000e-001) (13, 8.36593960200352480000e-002) (14, 5.20794810294624490000e-001) (15, 1.12845179674726400000e+000) (16, 3.48536462855107700000e-001) (17, -1.24227782042997030000e-001) (18, -2.98042932741436120000e-001) (19, 8.11338759167790640000e-001) (20, -1.00336524048791560000e+000) (21, 3.30674544597803350000e-002) (22, 1.23635392675422720000e+000) (23, 1.46643959914442080000e+000) (24, 2.07563876939070580000e-001) (25, -1.00629193078438890000e+000) (26, 1.26469463771585970000e-001) (27, -3.21514619586248440000e-001) (28, 9.48072365390697840000e-001) (29, 2.75373652618717890000e-002) (30, 1.58811774165464630000e-001) (31, 1.07886420519640390000e+000) (32, 8.23730440610539130000e-001) (33, -4.59158859291814160000e-001) (34, 9.25250299549069950000e-002) (35, -2.32932818359894630000e-001) (36, -2.77854165012531020000e-002) (37, -3.84519835912628230000e-001) (38, -2.54213328133476950000e-003) (39, -3.80343945926867210000e-001) (40, 8.56702269102228460000e-001) (41, 1.37026057320663330000e-002) (42, -4.87601773742059150000e-001) (43, -8.86544549474264420000e-001) (44, -7.07634932657257710000e-002) (45, 3.39959711569814920000e-001) (46, 8.29966248509588890000e-001) (47, -1.51630526527617240000e-001) (48, -2.87935345657633570000e-001) (49, 1.99454882753433340000e-001) (50, 1.06746677144178360000e+000) (51, -2.93113508461523730000e-001) (52, 6.58960777348298390000e-001) (53, -2.22136210271640040000e-001) (54, -4.17855406411059890000e-001) (55, -2.77106318852353530000e+000) (56, -2.58033869303322450000e-001) (57, -3.67405542407808540000e-001) (58, -6.26919071115929590000e-001) (59, 3.80397239534507970000e+000) (60, -5.46835644724251830000e-001) (61, 1.01887606486873830000e+000) (62, -6.55935519641941410000e-001) (63, 2.21291363638344270000e+000) (64, 4.80015094281040280000e-001) (65, -1.25325373026938800000e-001) (66, 5.62965540127899570000e-001) (67, 5.64348357081541210000e-002) (68, -5.68020063586197960000e-002) (69, 4.11148524697537880000e-001) (70, 6.83291918593154700000e+000) (0, -6.43934754659734270000e-001) (1, 8.75623495045901870000e-001) (2, 8.82934590874957960000e-001) (3, 2.14235888512719000000e+000) (4, 2.15378551205062200000e+000) (5, 2.10952292927499170000e+000) (6, 2.17082881053766920000e+000) (7, 1.14305604143246550000e+000) (8, 7.46855604889135600000e-001) (9, 7.99888896300575360000e-001) (10, 1.93266351133077440000e+000) (11, -5.89127959951544140000e-002) (12, 1.41150451179162740000e+000) (13, 4.75828748075851460000e-001) (14, 8.00167231032248850000e-001) (15, 7.17486325816282800000e-001) (16, 1.89217755325477520000e-001) (17, 1.28161174490996670000e+000) (18, 6.07247610388672930000e-002) (19, 7.54399829044594460000e-001) (20, -1.70071634628446880000e-001) (21, 1.39889524432653830000e+000) (22, 1.89098238371875630000e+000) (23, 5.47644497250320230000e+000) (24, 2.17097002508175100000e+000) (25, -1.50393253382183260000e+000) (26, 3.19366965147144290000e+000) (27, 8.36456087782778130000e-001) (28, 3.59589975558854700000e+000) (29, 1.12879216217508050000e+000) (30, 9.44836877377481680000e-001) (31, 1.28057432520070690000e+000) (32, 8.20789572642099840000e-001) (33, 1.93338514094514140000e-001) (34, 8.83814066952175790000e-001) (35, 3.88862909238717080000e-001) (36, 9.31745711276180110000e-001) (37, 1.80187585474956610000e+000) (38, 2.88612857782775070000e-001) (39, 1.68133205784457630000e+000) (40, 1.99047008240217460000e+000) (41, 1.51276609340611490000e+000) (42, 1.47211268966533430000e+000) (43, 2.43055860842446240000e+000) (44, 2.33510845143769070000e+000) (45, 2.92210884355647240000e+000) (46, 1.03384477365954710000e+000) (47, 6.64701118973139220000e-001) (48, -9.72360119593246420000e-001) (49, 6.89242990497589190000e-001) (50, 2.23699871861295450000e-001) (51, 1.03416376973226210000e+000) (52, 2.29569951907225480000e-001) (53, 1.62850506781446320000e+000) (54, 1.31198492314788970000e+000) (55, -1.69826457044356750000e+000) (56, 2.45662763465509130000e+000) (57, 2.11951859127290860000e+000) (58, 2.49590157298074990000e+000) (59, 4.90317459104038960000e-001) (60, 1.96619475618769870000e+000) (61, 1.09882312667327200000e+000) (62, -6.18264800158131680000e-001) (63, 6.36895443864380790000e-001) (64, 1.29548014353706020000e+000) (65, 2.16724069072823420000e+000) (66, 3.86173119249399480000e+000) (67, 1.27013737005247070000e+000) (68, 1.28554884462590140000e+000) (69, 4.92509034883752580000e-001) (70, 9.04826929484444650000e-001) (71, 1.73194645528291470000e+000) (0, -5.28879834915589990000e-001) (1, -2.56979460244542820000e-001) (2, -5.66201785535724980000e-001) (3, 1.76108465170672690000e-001) (4, -6.29044073075650800000e-001) (5, -7.51719957016188990000e-001) (6, -4.60442516380002220000e-001) (7, 4.29025662410375600000e-001) (8, -7.06286319576094220000e-001) (9, 4.88403870599999120000e-001) (10, 7.28820892809817750000e-004) (11, -4.73493195522226180000e-001) (12, 5.94621110266441090000e-002) (13, 4.01815485875340190000e-002) (14, -7.45400858127169610000e-001) (15, 5.05241773192182000000e-001) (16, -8.28321712007189960000e-001) (17, -1.52494094606703770000e-001) (18, 5.44696201899161790000e-001) (19, -7.53661954952351440000e-001) (20, -1.45704245727215580000e-001) (21, 9.51309815073253740000e-001) (22, 8.55441472255517590000e-001) (23, 1.36732162679906940000e-002) (24, 2.57695287074639940000e-002) (25, 6.25571056080400420000e-001) (26, 6.94085749721985000000e-001) (27, 6.90319693560062730000e-001) (28, -1.76848151386214820000e-001) (29, 2.89880503440221320000e-001) (30, -2.67100560222661430000e-001) (31, -1.19840971690278270000e-001) (32, 5.60845774073612580000e-001) (33, -3.59736010921973050000e-001) (34, -3.66875666323252750000e-001) (35, 4.63964199536167350000e-001) (36, 8.52620461983142560000e-001) (37, -1.44184222604164440000e-001) (38, -4.79595294071280820000e-002) (39, 4.03434045743455260000e-001) (40, 1.82150057647870840000e-002) (41, 7.67217442815482650000e-001) (42, 8.73457422800766660000e-001) (43, -1.07559583485533930000e-001) (44, -1.17810925568384130000e-001) (45, -6.28726944931433880000e-001) (46, 4.80083061087285480000e-003) (47, 1.91827215540645860000e-001) (48, 8.45217969318719620000e-001) (49, 2.48356015653975610000e-001) (50, -1.78487807856375330000e-001) (51, 1.03015632404182590000e+000) (52, -5.41075398575117110000e-001) (53, 3.55450764142642590000e-001) (54, 7.25045106264412260000e-002) (55, -1.45834640965861690000e+000) (56, 2.41201332464136940000e-001) (57, -8.16188958775503790000e-001) (58, 2.37442208466481090000e-002) (59, -1.68062326842645300000e-001) (60, 4.01034091454462250000e+000) (61, 2.02504581636379970000e+000) (62, -1.50672163406810840000e+000) (63, 5.35025462457710500000e+001) (64, -5.56448044098236890000e-001) (65, -2.53671541308017280000e-001) (66, 1.24586759761976200000e+000) (67, 1.02613199078567940000e+000) (68, -1.30984800432367490000e-001) (69, 2.24406135333596170000e+000) (70, 8.10057074580872840000e-001) (71, 1.98676163379806780000e+000) (72, 3.08620712639128760000e+000) (0, -1.09314995437729680000e-001) (1, 2.09681039974489010000e+000) (2, 1.13446589747883890000e+000) (3, 6.66809453682322250000e-001) (4, 1.80953162995912490000e+000) (5, 2.46796325912141540000e-001) (6, 2.33753583226996040000e+000) (7, 2.33918495573286520000e+000) (8, 2.28016912964978280000e+000) (9, 1.89367842222462520000e+000) (10, 1.38170542462572740000e+000) (11, 3.79878089875906210000e-001) (12, 9.76761301154251080000e-001) (13, 3.60477686360109070000e-001) (14, 1.31381906673215700000e+000) (15, 1.47292615752832630000e+000) (16, 1.53011644423183140000e+000) (17, 1.24247077496101040000e+000) (18, -1.81078868202909620000e+000) (19, 1.74897139817624820000e+000) (20, -2.61727497914604080000e+000) (21, 9.99948402657137030000e-001) (22, 2.05249901536420780000e+000) (23, 2.84029082162696640000e+000) (24, 1.63787971664558560000e+000) (25, 1.38155168129255880000e+000) (26, 6.85843983279809440000e-001) (27, 4.18374301640967120000e-001) (28, 8.02804255938186830000e-001) (29, 8.36954213666996520000e-001) (30, 7.96525944642548110000e-001) (31, 2.07398591080691960000e+000) (32, 9.18514396836888620000e-001) (33, 2.95418676512927750000e-001) (34, -1.25349566579586400000e-001) (35, 1.73736648180084650000e+000) (36, 3.30203959275571560000e-001) (37, 1.95810366283166500000e+000) (38, 6.95492088390325720000e-001) (39, 1.45747824224355900000e+000) (40, 1.94299365340201110000e+000) (41, 5.69731658862968060000e-001) (42, 3.81784649828473210000e-001) (43, 1.10337089524041600000e+000) (44, 2.06594640312910330000e+000) (45, 2.71565382540934190000e+000) (46, 1.28965632194053930000e+000) (47, 9.84609440479437550000e-001) (48, -1.02438556628508630000e+000) (49, 7.10559208350527880000e-001) (50, 1.42232278409980630000e+000) (51, 4.99282886588678860000e-001) (52, 1.53495980589038190000e+000) (53, 1.96097297893993130000e+000) (54, -1.33732803977995540000e+000) (55, -9.72089844099338740000e-001) (56, 2.46879612776360350000e+000) (57, 4.91984534645983850000e-001) (58, 2.52756634204691190000e+000) (59, 1.95709327458457820000e+000) (60, 1.12349345667042670000e+000) (61, 8.13965540047801970000e-001) (62, 2.25536493906848530000e+000) (63, 2.07377126258827800000e+000) (64, 3.26010305805429960000e+000) (65, 4.66999360629213270000e-001) (66, 3.64840791141380550000e+000) (67, 1.83387768122817980000e+000) (68, 1.38085829661767720000e+000) (69, 6.85228048400678190000e-001) (70, 1.12718174178165450000e+000) (71, 4.04624333413421470000e-001) (72, 1.48486411301969240000e-001) (73, -3.95447313772953060000e+000) (0, -4.51656008879450570000e-001) (1, 9.32758713694592730000e-001) (2, -8.81073965940766590000e-001) (3, 2.12250537296772290000e-001) (4, 2.62869255294042260000e-001) (5, 3.52240926719220470000e-001) (6, 5.04407775174901540000e-001) (7, -3.74622111509283820000e-001) (8, 3.92671296584537250000e-001) (9, 6.58226703627225910000e-001) (10, 5.64204107839829660000e-001) (11, 3.72643072709571310000e-001) (12, -8.35323370109063430000e-001) (13, -1.14534030589770590000e+000) (14, 2.42956996830413880000e-001) (15, 9.45999467745948230000e-001) (16, -3.03642802767982610000e-001) (17, 4.96717495446586500000e-001) (18, -1.49221835003182260000e-001) (19, -3.84828031250060210000e-001) (20, -1.13591458914857290000e+000) (21, -1.01664187058690850000e+000) (22, -2.96865122748313730000e-001) (23, 6.74034675681771890000e-001) (24, -5.23646441142251310000e-002) (25, 2.36370118882998530000e+000) (26, -2.31030040358804340000e-001) (27, -1.01967864313733680000e-001) (28, -1.36419743775326400000e+000) (29, 5.93157731038772280000e-002) (30, 2.30929726122679170000e-001) (31, -9.42541765844281950000e-001) (32, -9.69485497414482530000e-001) (33, -1.68619957716684620000e-001) (34, -7.49384904527261030000e-001) (35, 8.37471534700158120000e-001) (36, -8.46645830962395730000e-002) (37, -1.01376271477685220000e+000) (38, 4.30801311299881530000e-001) (39, -2.63774629058923630000e-001) (40, -7.65393375249713430000e-002) (41, -1.87959794576863260000e-001) (42, -6.71810006415055840000e-001) (43, -5.21853025464616320000e-001) (44, -2.34048704692765980000e-001) (45, 6.70647676328331030000e-002) (46, 8.71291028222954120000e-001) (47, -4.60359106901817310000e-001) (48, 1.56694699260297390000e-001) (49, 5.60067693168138760000e-001) (50, -4.89299672458445250000e-001) (51, 9.67579330456444180000e-001) (52, -1.84265541007887920000e-002) (53, 9.42336961579649300000e-001) (54, -6.08461794784342040000e-001) (55, 1.97363933774410580000e-001) (56, -7.53147656300311890000e-001) (57, -5.81305405023055610000e-001) (58, 5.71137259047563070000e-001) (59, 1.39887743781402670000e+000) (60, 8.11590034598343780000e-001) (61, 3.28545783269655130000e+000) (62, 1.45653160532346030000e+000) (63, 1.35738616014156220000e+000) (64, 1.06786784966726640000e-001) (65, 1.68371881302900770000e+000) (66, -1.10126452038763700000e+000) (67, -3.62795659202515270000e-001) (68, 2.48457216426639160000e+000) (69, 1.77089766944212030000e+000) (70, -2.98391483034880280000e-001) (71, 5.41218837181718790000e-002) (72, -1.30316771994713610000e-001) (73, -9.16785866922509180000e-001) (74, 6.87390948405418030000e-001) (0, -7.22206067738969230000e-001) (1, 8.18907751152087470000e-001) (2, 2.82925026931699080000e-001) (3, 6.71380084326407170000e-001) (4, 2.68906804231690280000e-001) (5, 6.63331440653545960000e-004) (6, 2.19633371173583420000e-001) (7, -6.92149159790313990000e-001) (8, 2.56972057148921960000e-001) (9, 4.04687377241187700000e-001) (10, 4.85737557222835130000e-001) (11, -6.07162705790503800000e-002) (12, 5.01318628527385730000e-001) (13, 4.12641355055539230000e-001) (14, 3.40099415065886590000e-001) (15, -8.17787129365790460000e-001) (16, -7.63312638661887370000e-001) (17, -8.94755590032717430000e-001) (18, 1.27124379343326930000e-001) (19, -1.69123114394971760000e+000) (20, -7.32969999588326540000e-001) (21, 2.07665586679658360000e-002) (22, 1.26106049269272490000e+000) (23, -2.12044729817182420000e-001) (24, 2.94714863981992140000e+000) (25, 1.03155410617143970000e+000) (26, -1.70571923400934020000e-001) (27, -7.65885485079553450000e-001) (28, 2.18674354437677580000e-001) (29, -5.62990201455006890000e-001) (30, 6.80907152081850380000e-001) (31, -5.60002348676967850000e-001) (32, 7.11704982685439690000e-001) (33, -7.14434183302929400000e-001) (34, 2.61506444742198250000e-001) (35, 3.64613693018570330000e-001) (36, 5.71813148342714460000e-001) (37, -2.53861232047725260000e-001) (38, 6.35673312087838060000e-001) (39, -9.62433997735924200000e-002) (40, -2.14486832020494230000e-001) (41, -5.64639650112387590000e-001) (42, -5.83457066384244770000e-001) (43, 1.30545454824639000000e-001) (44, -3.32045942353335570000e-001) (45, -6.12000349450714310000e-002) (46, 9.88838824240500240000e-002) (47, -5.79730243217727480000e-001) (48, 4.96466942882185900000e-001) (49, -1.35179283171438850000e-001) (50, 3.91683262504384680000e-001) (51, 3.97333594418122100000e-001) (52, 4.99871312945023920000e-002) (53, 5.27800158310722800000e-001) (54, 6.54802532596231110000e-001) (55, -1.09947158429644510000e+000) (56, -9.53352915134697000000e-002) (57, -1.94405405190560490000e+000) (58, -8.09827864111454100000e-002) (59, -8.35238728510357190000e-001) (60, 1.28773313608505150000e+000) (61, 2.29574596479186930000e+001) (62, -1.16325796496152400000e+000) (63, 1.11532708822644440000e+001) (64, 2.25919135067195850000e+000) (65, 2.80435721553020170000e+000) (66, -1.93610579029267620000e-001) (67, 3.36458886608046370000e+000) (68, 2.70203166042588890000e+000) (69, 3.69480510843320920000e+000) (70, -9.73977057718080630000e-002) (71, 3.63226696387465690000e-001) (72, -5.05289759717198690000e-001) (73, -1.63791226068217450000e+000) (74, 1.57909639347411000000e+000) (75, -5.76915015585013460000e-001) (0, 2.79942465742405220000e-001) (1, 1.12367656650917660000e+000) (2, -1.03639150764150780000e+000) (3, -6.65033897575923790000e-001) (4, -3.27277543647977500000e-003) (5, -1.93884275538949640000e-002) (6, 1.28617426629229700000e+000) (7, 2.48122847439629060000e-001) (8, -7.70717014542171290000e-002) (9, 9.15013247686576440000e-001) (10, -1.27253454051972720000e-001) (11, -8.02139493959628390000e-002) (12, -1.09499309213971660000e+000) (13, -4.48705489393967540000e-001) (14, -7.53494025158390920000e-001) (15, -1.09289189284153630000e+000) (16, 8.79268495943000940000e-001) (17, 1.53886970350252430000e+000) (18, 1.85769509174267160000e+000) (19, -5.58689291192517420000e-001) (20, 1.04593935475162580000e+000) (21, -3.82853672363613510000e-001) (22, -2.05020660006526030000e+000) (23, 8.68224790487028720000e-001) (24, -1.48692970640621120000e+000) (25, -4.45651010113324250000e-001) (26, 1.65103263577099560000e-001) (27, -1.82529656019132800000e+000) (28, 5.42607628615734080000e-001) (29, 1.13495643989415180000e+000) (30, 1.15772209347113160000e+000) (31, 8.92897623655217600000e-002) (32, -6.64074137131494990000e-001) (33, 1.50678490253708470000e-001) (34, 6.81121642340142830000e-001) (35, 1.32896129356578370000e+000) (36, -1.79056600537005780000e+000) (37, 2.61546115711470960000e-001) (38, 1.03194741308129910000e+000) (39, -9.55182341040324400000e-001) (40, 5.37918760870144670000e-001) (41, 1.31317851584816040000e-001) (42, -1.04895745614222880000e+000) (43, 9.72563195586777400000e-001) (44, 1.13719002681751880000e+000) (45, 5.17882132793191910000e+000) (46, -4.31008492321090900000e-001) (47, -1.70063294725405490000e+000) (48, -9.19314807055018330000e-002) (49, -1.37107860007928630000e+000) (50, 9.54558119269143250000e-001) (51, -1.14741621480915560000e+000) (52, 1.00822167373881680000e+000) (53, 1.58065206066705870000e+000) (54, 1.55522933409022950000e+000) (55, -3.52483391919960550000e-002) (56, 2.40550107887428190000e+000) (57, 3.54330049284338380000e+000) (58, 3.80548275233399650000e+000) (59, 9.60103700168694290000e-001) (60, -3.62240409638470640000e+000) (61, -5.78540111495555110000e+000) (62, 1.71065341031343210000e+000) (63, -3.93228764856713430000e-001) (64, 5.24812151072322570000e+000) (65, -1.11018171307494340000e+000) (66, 3.49668099554265530000e-001) (67, 2.73879863074282690000e+000) (68, 1.34537350067054410000e+000) (69, 5.97467324873972940000e+000) (70, 7.25157628674560350000e-001) (71, 2.80979462783477850000e+000) (72, 7.13827503436695100000e-001) (73, 5.10570323596201450000e+000) (74, -4.42531170278720300000e-001) (75, 2.05284617749161670000e+000) (76, 2.98328427617002090000e+000) (0, 1.61525788825420480000e+001) (1, 1.06172095808037670000e-001) (2, -2.34728934759459880000e+000) (3, -4.86608628961826070000e+001) (4, 1.40839082856732550000e-001) (5, -2.10171580391875730000e+000) (6, -5.49651958442291950000e-002) (7, 1.56527407364455280000e-002) (8, -5.79234159420148220000e-001) (9, -1.03895692656034110000e+000) (10, -2.83189527248137120000e-001) (11, -2.86921575370789750000e+000) (12, 9.17462420262738500000e-002) (13, -3.36351293508240270000e+000) (14, -7.62198813288260220000e-001) (15, -2.36737167003876230000e-001) (16, 1.23515547534129020000e-002) (17, -3.19835953629800600000e+000) (18, -6.44772402685215740000e-001) (19, 1.28532955070739390000e-001) (20, -5.23516471647456520000e-001) (21, -6.31212481344857250000e+001) (22, -1.20081418911270110000e+000) (23, -7.60128395123454140000e+000) (24, 4.47261852720171380000e-001) (25, 1.81635104864696140000e+000) (26, 8.46929230098167780000e-001) (27, -2.46238866479296890000e+000) (28, -1.67791858195321650000e+000) (29, 3.84540911769818640000e-003) (30, -4.11935978324784670000e+001) (31, -6.69242220432065250000e+000) (32, -4.33183426946480380000e-001) (33, -1.61515357801691410000e-001) (34, -1.61143143626303570000e-003) (35, 4.90916577151861210000e-001) (36, -1.38797504599071050000e+000) (37, -1.45245704430227330000e+000) (38, -3.30273833911188030000e-001) (39, -2.03605684164631430000e+000) (40, 3.87140203624302790000e-001) (41, -1.54194922938723740000e+000) (42, -1.01991321362698510000e+000) (43, -1.33263626296112720000e+000) (44, -3.01165002014126990000e-001) (45, 8.66763741589471690000e+000) (46, 3.09011086516410850000e-001) (47, -6.47513881880254270000e-001) (48, -3.32084955720339450000e+000) (49, -3.13343921450142230000e-001) (50, -1.87809673816999180000e+000) (51, -4.67272630877696990000e-001) (52, -1.62620326840201450000e-001) (53, -3.49826479770316290000e+000) (54, -3.34235592879841810000e+000) (55, -3.00316273348972640000e+000) (56, -2.14315450028238900000e-001) (57, 1.07736644139228250000e+000) (58, 3.02254771233474710000e+000) (59, 1.79329331412428060000e+000) (60, 2.00769265835383100000e-002) (61, 1.86545200568489730000e+000) (62, 1.29152892324276600000e+000) (63, 6.85499306603981280000e-001) (64, 1.54569674684645550000e+000) (65, 7.27462913381069500000e-001) (66, 3.90765043094176920000e-001) (67, 3.57699530205315640000e+000) (68, 9.25334675423624130000e-001) (69, 1.02844501041766970000e+000) (70, 9.67448644875371970000e-001) (71, 2.01115636726722610000e-001) (72, 4.70244781170972790000e-001) (73, 3.74615735922595360000e+000) (74, 1.37414376145589400000e+000) (75, 4.01932037754483760000e+000) (76, 4.03549279704893400000e+000) (77, -1.42613113194459020000e+000) (0, -7.08923232771638410000e-002) (1, 1.69641268855051330000e+000) (2, 5.35197504926926640000e-001) (3, 2.10425478064298850000e+000) (4, 2.46347153372553910000e+000) (5, 1.20851796415715550000e+000) (6, 1.69266573715691890000e+000) (7, 3.82517655250757070000e+000) (8, 1.54165556217036090000e-001) (9, 3.81435800600705170000e+000) (10, 1.46842296767893750000e+000) (11, 9.32300313314818330000e-001) (12, 1.04838156536104200000e+000) (13, 1.23616484455788030000e+000) (14, 1.01097446979764420000e+000) (15, 1.19106110632782160000e+000) (16, 4.34401277854315700000e-001) (17, 1.61895369716441650000e+000) (18, -2.38023265971146050000e+000) (19, 3.10408663548695230000e-001) (20, -5.79770697229779760000e+000) (21, 1.18778491271497980000e+000) (22, 4.15411940744078660000e+000) (23, 4.23771163820410020000e+000) (24, 7.24789489316879140000e-001) (25, 1.02484488376228740000e+000) (26, 2.27370136618860210000e+000) (27, -1.01336310096698120000e-001) (28, 1.16396784629412430000e+000) (29, 4.45083476768169170000e-001) (30, 1.02760120588819180000e+000) (31, 4.21095377048102830000e+000) (32, 6.78748997982607350000e-001) (33, 1.66933114789518640000e+000) (34, 5.14599616877213560000e-001) (35, 1.55401453757907770000e+000) (36, 1.10664349914471430000e+000) (37, 2.40692820895955610000e+000) (38, 2.34203902122684230000e+000) (39, 9.99516492512938390000e-001) (40, 2.08729575371141030000e+000) (41, 2.57089731812586700000e+000) (42, 1.30508243604615130000e+000) (43, 3.38567957026090350000e+000) (44, 2.33413551742843460000e+000) (45, 4.07262374640730450000e-001) (46, 1.39584101579365960000e+000) (47, 8.22164444776895430000e-001) (48, -2.46320042594503990000e-001) (49, 1.05030899992968460000e+000) (50, 1.75772863883257790000e+000) (51, 9.79878525423542260000e-001) (52, 2.91119080161242260000e+000) (53, 8.80723040361672930000e-001) (54, -2.24110883260147760000e+000) (55, 1.91558376068058940000e+000) (56, 2.49738586210742050000e+000) (57, 1.86363196762057390000e+000) (58, 1.65115590003256020000e+000) (59, 7.23206082221201200000e-001) (60, 4.80734814418239620000e-001) (61, 9.19471527726739350000e-001) (62, 1.09771088253404630000e+000) (63, -3.72102376720692850000e-001) (64, 2.52740513017912210000e+000) (65, -5.26552549312794940000e-001) (66, 3.72454264311000620000e+000) (67, 3.10842478763420970000e-001) (68, -2.57553110258105460000e-001) (69, -2.44072323759217530000e-001) (70, 1.24674045747733200000e+000) (71, -6.05947677628232540000e-001) (72, 8.82600212596460600000e-001) (73, 8.46807244488911870000e-001) (74, 1.36027121884157070000e+000) (75, 4.49234047447721720000e-001) (76, 8.25547993477219520000e-001) (77, 2.75252456886907910000e+000) (78, -5.88300114973091120000e-002) (0, 5.92396081491481930000e-001) (1, -4.92227871814672150000e-001) (2, -3.29249639670747380000e-001) (3, 3.41489036786888740000e-001) (4, -9.04249554950965480000e-002) (5, 1.90185381242336970000e-001) (6, 6.39158997484844730000e-001) (7, 5.86114069481260990000e-001) (8, 3.82117305637712570000e-001) (9, 4.62142148791353010000e-001) (10, 4.74223666205527310000e-001) (11, -9.65805552239930140000e-001) (12, 4.37769774841177850000e-001) (13, 5.18035675529021740000e-001) (14, -4.65619223247721760000e-001) (15, 4.65589480910244270000e-002) (16, 6.96835961476260650000e-002) (17, -2.43465049141615430000e-001) (18, 5.28382893507045370000e-001) (19, 2.82537031538404370000e-001) (20, 1.25611352493141900000e-001) (21, -1.21834664080642900000e+000) (22, -5.19354703472227670000e-001) (23, 7.15632674846534260000e-001) (24, 1.22696012706898210000e+000) (25, -6.05247365896257050000e-001) (26, 3.70849576114246130000e-001) (27, -2.68447012345083670000e-001) (28, -7.60233745971339970000e-001) (29, 8.07460914317328030000e-001) (30, 3.50805028784701660000e-001) (31, -6.74043547652564580000e-001) (32, -1.14586590323315130000e+000) (33, -4.32337228520301380000e-001) (34, 1.77159132807870680000e-001) (35, -4.66888816714401240000e-001) (36, -1.87120128721706390000e-001) (37, -7.62119196136684440000e-001) (38, -4.05308638884933510000e-001) (39, -3.59726164191656870000e-001) (40, -1.30154384023200390000e+000) (41, 2.13281542116507350000e-001) (42, -1.03204085312363070000e+000) (43, 2.91577376312705080000e-001) (44, 6.45112496198743670000e-002) (45, -4.78822449335952300000e-001) (46, 4.68121632840374280000e-001) (47, 9.16878153645172440000e-001) (48, 2.56958127017630320000e-001) (49, 1.88753197186775970000e-001) (50, -4.34566858560215710000e-001) (51, 6.92471816440138440000e-001) (52, -8.60494129734945990000e-001) (53, 5.39449180392833180000e-001) (54, 5.56453302561839670000e-001) (55, 5.70053132253724560000e-001) (56, 8.15551251800256450000e-001) (57, -5.38755133647181310000e-001) (58, 1.46527889880074720000e+000) (59, 2.97097017655847480000e+000) (60, -5.56467416122486180000e-001) (61, 1.71650149525410570000e+001) (62, 8.86832637308052730000e-001) (63, 2.35161848271802260000e+001) (64, 2.53741736927716090000e+000) (65, 2.23830496779204660000e-001) (66, 1.50446351430486720000e+000) (67, 8.73159531115927480000e+000) (68, 2.38214698544635390000e-001) (69, -4.36297008606140800000e-002) (70, 5.76449586591062160000e-001) (71, 8.24751871147500700000e-001) (72, 1.43673827264609090000e+000) (73, 2.89017536872122880000e+000) (74, -6.40216954328801880000e-001) (75, 1.00025079742166970000e+000) (76, 3.31261042174662990000e+000) (77, -2.59952202643937870000e-001) (78, -8.14319354553971200000e-001) (79, 4.75573846278470570000e+000) (0, -5.19980402564399480000e-001) (1, 9.46237291651375270000e-001) (2, 2.85427363011269640000e-001) (3, 1.82171032498664040000e-002) (4, -3.11540576614975530000e-001) (5, -9.89443208267794640000e-001) (6, -4.34913091641736250000e-001) (7, 8.30994798706358310000e-002) (8, 7.97993060644076490000e-001) (9, -3.32805618609752270000e-001) (10, 2.01812914328917790000e-001) (11, 6.43218293742155000000e-001) (12, 1.17255761881483810000e+000) (13, 1.06374359764267830000e+000) (14, -8.58003417027053820000e-002) (15, 7.21362459144730630000e-001) (16, -2.59573932486815320000e-001) (17, 1.93811133129485750000e-001) (18, -1.79280938122153930000e-001) (19, 7.48131738764412860000e-001) (20, -7.39527923005356190000e-001) (21, -2.15075948712791620000e-001) (22, -5.60016013010618210000e-001) (23, -6.13817485087783670000e-001) (24, -1.41244433714711510000e+000) (25, -1.67342110379119970000e+000) (26, 1.85793609232342590000e-001) (27, -3.12076764725230490000e-002) (28, -1.77573419617298060000e-001) (29, -9.21489373236372030000e-001) (30, -3.17427596233399310000e-002) (31, 9.00689776590828380000e-001) (32, 8.16523382417218110000e-001) (33, -3.92299577295391610000e-001) (34, 6.77014461033316080000e-001) (35, 4.14137498478366120000e-001) (36, -5.33737913832731730000e-001) (37, -8.28931941952369970000e-001) (38, -7.39043752624236740000e-002) (39, 1.02697801081678530000e-001) (40, -1.64471820922630850000e-001) (41, 6.58829377904785460000e-001) (42, 1.47636408024830270000e-001) (43, -1.32572876322317960000e-001) (44, -9.82394022085007030000e-001) (45, -1.64364067363336930000e+000) (46, 2.08634536283334340000e-001) (47, 1.27509172508508200000e+000) (48, 2.75203880201368050000e-001) (49, -7.11551452306365520000e-001) (50, -2.21733133973975790000e-001) (51, -7.00453688573615120000e-001) (52, -3.58001093874241450000e-001) (53, 6.04451493865276630000e-001) (54, -6.71241716485811990000e-001) (55, -7.86671157934760170000e-001) (56, 3.18527168664854090000e-001) (57, -7.71546690183016800000e-001) (58, 1.60193040882796200000e+000) (59, 1.49021181118193020000e+000) (60, 1.79566150270984990000e+000) (61, -2.83631690126401460000e+000) (62, -3.95509094745492170000e-001) (63, 2.35744860010455140000e+001) (64, -7.53979191939814910000e-002) (65, 1.60781924126462780000e-001) (66, 2.77265452738160350000e+000) (67, 7.62128841468709070000e+000) (68, 1.96012392336500750000e-001) (69, 7.14260840887891990000e-002) (70, -3.96328195369809790000e-001) (71, -1.14692379733467580000e+000) (72, -4.94595649238794010000e-001) (73, 5.17050895243555080000e+000) (74, 8.62782595524288820000e-001) (75, 6.54189957031417360000e-001) (76, 3.89364420459483140000e+000) (77, -1.03638485742806070000e+000) (78, -1.66168424630552700000e-001) (79, 1.43458231748201140000e+000) (80, 1.23138760815445390000e+000) (0, 1.53725111942946050000e+000) (1, 2.69008919038967450000e-001) (2, 8.04488753241443950000e-002) (3, 7.57044692090075410000e-001) (4, 1.00771262117515370000e+000) (5, 5.45065357291372730000e-001) (6, 1.06498696671399330000e+000) (7, 1.72762234242133080000e+000) (8, 5.10958772668859250000e-001) (9, 1.88336410945224440000e+000) (10, 4.84181941412551890000e-001) (11, 3.38120120341944160000e-001) (12, 1.88081795392174330000e+000) (13, 1.02307283616330640000e+000) (14, 1.35788643033407920000e+000) (15, 1.06454581848044240000e+000) (16, 9.70150654821138600000e-001) (17, 1.81104519731033410000e+000) (18, 1.17781256310590290000e+000) (19, 1.71568050977563160000e+000) (20, 1.46664328324174860000e+000) (21, -4.03389292549891640000e-001) (22, 7.68992529208685880000e-001) (23, -1.82767462196791830000e+000) (24, 1.22258882424702530000e+000) (25, 1.30781317702134130000e+000) (26, 9.68449630689873890000e-001) (27, 1.85687855286996960000e+000) (28, -7.80323157438018030000e-002) (29, 7.52747658645228750000e-001) (30, 7.51505000577080580000e-001) (31, -1.75575803194872690000e+000) (32, 6.11271475317666570000e-001) (33, 9.06366741907507990000e-001) (34, 1.84610912629153770000e+000) (35, 3.91995365358150990000e-001) (36, 6.15786026274016460000e-001) (37, 8.78433278049569940000e-001) (38, 6.65035173910539900000e-001) (39, 1.61385537486457810000e+000) (40, 1.52444183814187580000e+000) (41, 1.89124994929802500000e+000) (42, -2.35235240254550070000e-002) (43, 1.25003415617898010000e+000) (44, 5.48614774645037050000e-001) (45, 9.80404020094416740000e-001) (46, 5.19829250858760750000e-001) (47, 2.13431946142942050000e+000) (48, 2.23872351353207270000e+000) (49, 1.43089165988460240000e+000) (50, 4.79723094408951610000e-001) (51, 1.39400672955486280000e+000) (52, 1.66239036916797330000e+000) (53, -2.23274434736382590000e-001) (54, 2.10163302479106620000e+000) (55, 8.84459406857390220000e-001) (56, 3.73927187549563110000e+000) (57, -5.63938007519533130000e-002) (58, -5.71372905224393990000e-001) (59, 1.84179428567245900000e+000) (60, 9.08123836498639370000e-001) (61, 2.98612455002998220000e+000) (62, 1.58539913240715150000e+000) (63, 9.97026162524681130000e-001) (64, 1.04481777526145340000e+000) (65, 2.27315876872561250000e+000) (66, 4.04427165559898680000e+000) (67, 2.81163900068916520000e+000) (68, 1.59248776971648610000e+000) (69, 4.97959017122323880000e-001) (70, 2.22077201018492070000e+000) (71, 1.54683950140650280000e+000) (72, 4.56813011201346650000e-001) (73, 1.16644349422798870000e+000) (74, 2.51903923942006710000e+000) (75, -2.26290298529960190000e-002) (76, 3.22311154306989780000e+000) (77, 8.19498840564005790000e-001) (78, 1.86864151892984490000e+000) (79, 1.73980711614680180000e+000) (80, 4.04987051870130790000e-001) (81, 1.40912204631045990000e+000) (0, 1.19339536081950510000e+000) (1, 1.00164934768144160000e+000) (2, -4.89963132145693540000e-001) (3, 9.62141688037384870000e-001) (4, -6.72914815344843210000e-001) (5, -1.25329696658339240000e+000) (6, -1.02036359542945280000e+000) (7, 8.20477400318841980000e-001) (8, -3.36804098098500760000e-001) (9, -4.26762419801073050000e-001) (10, -7.70579672612370150000e-001) (11, 3.47819069222776720000e-001) (12, -6.57342079644753330000e-001) (13, 5.66526311525101020000e-001) (14, -4.37204606331853050000e-002) (15, 1.11096077714509290000e+000) (16, 3.93864209323569800000e-001) (17, -3.34889342463420280000e-001) (18, 5.37115049976801330000e-002) (19, -3.55651623852704240000e-002) (20, -9.13993845063699600000e-002) (21, 7.11108199649220670000e-001) (22, -1.74284217626808070000e-001) (23, -1.85885519243791040000e+000) (24, 1.13442456768820080000e+000) (25, 1.36975089722798440000e+000) (26, -3.41206685588503920000e-001) (27, 2.39122609963684980000e-001) (28, 9.82122061827633620000e-001) (29, -2.95103916490634110000e-001) (30, 6.81668848087725430000e-001) (31, 7.39966063977223090000e-001) (32, 4.44838172670724560000e-001) (33, -5.30369249760946350000e-001) (34, 6.52139311738674230000e-001) (35, -4.89803506905682250000e-001) (36, -4.22281113778012140000e-001) (37, 3.16256344266228510000e-001) (38, -2.71790565212565000000e-002) (39, -6.69126081708568240000e-001) (40, -7.36623128559916050000e-002) (41, 8.59766356706682000000e-001) (42, 4.28919758683230230000e-001) (43, -4.61642710817622810000e-001) (44, 7.31502130294748640000e-001) (45, -7.09309725576406590000e-001) (46, -6.03102256192053490000e-001) (47, 6.30603652864807130000e-001) (48, 4.66302430246895270000e-001) (49, 6.19450244884667960000e-002) (50, 7.65158286531820610000e-001) (51, 4.33692103362854800000e-001) (52, -2.32289498634342450000e-001) (53, -3.80086772079020810000e-001) (54, 7.14134089436162080000e-001) (55, -2.24581007261978010000e+000) (56, -9.36050799492096690000e-001) (57, 7.79157274127170170000e-001) (58, 1.64968406668692110000e-001) (59, 4.57715013859526200000e+000) (60, 1.32357320032537370000e+001) (61, -5.86739749843384220000e+000) (62, -1.15182895631588260000e+000) (63, 4.16937414896785730000e+001) (64, 1.83131197207754530000e-001) (65, 6.98958038333135410000e-001) (66, 1.05699724815115630000e+000) (67, 3.49275119031082550000e+000) (68, -1.13314525793413350000e+000) (69, 1.83736611007584340000e-001) (70, -9.40127767631866730000e-002) (71, -5.65769938874203790000e-001) (72, -8.00395252411355150000e-002) (73, 3.24409063973181530000e-001) (74, -1.29811333070436260000e+000) (75, -8.62596765847189580000e-001) (76, 3.06615404109005270000e+000) (77, -1.59343818411265280000e+000) (78, -5.57469527541621600000e-001) (79, -1.67476899638449720000e+000) (80, 3.12344552622460010000e+000) (81, 2.46646650118397300000e+000) (82, -1.32085061567056220000e+000) (0, -3.54002897190501150000e-001) (1, 6.30395553129210250000e-001) (2, -3.93841359765721990000e-001) (3, 1.50795892844186290000e+000) (4, 8.07879433410425780000e-001) (5, -4.81180771007726080000e-002) (6, -3.32195410598574600000e-001) (7, 8.28057910658611120000e-001) (8, -7.90100992630807800000e-001) (9, 6.21769021683931890000e-001) (10, -7.34465034074712090000e-001) (11, -4.92207949263171460000e-001) (12, 2.56714408290634300000e-001) (13, 5.41243772498900540000e-001) (14, -8.17629367814272760000e-001) (15, 2.66550223427719450000e-001) (16, 2.33087031777159950000e-001) (17, -4.95228562789032100000e-001) (18, 2.54152229381068070000e-001) (19, -2.07247854745422070000e-001) (20, -1.10507858352408080000e+000) (21, 5.20648102578611270000e-001) (22, 6.05784381756045210000e-001) (23, 1.40232974303285760000e+000) (24, 1.18079494986936820000e+000) (25, -7.91000413843306990000e-001) (26, 3.97640933127162370000e-001) (27, 1.07904253021934920000e-001) (28, -8.65455855530386730000e-001) (29, 2.59575736815166320000e-001) (30, 3.80353556542379400000e-001) (31, -4.96022833901865020000e-001) (32, -5.10884615769948700000e-001) (33, 4.23552693965551580000e-002) (34, -1.95761707829676110000e-002) (35, 1.20350176919631990000e+000) (36, 1.06261566437748000000e+000) (37, -7.53356089271652100000e-001) (38, -3.52495845037530470000e-002) (39, 8.91611269702914160000e-001) (40, 8.04115130870573070000e-001) (41, 5.96807067249619520000e-001) (42, -1.87436153848940830000e-001) (43, -8.49174428388284390000e-001) (44, -9.03135201288893690000e-001) (45, 6.06330995350068070000e-001) (46, 2.84078996440022550000e-001) (47, 8.46451025385006940000e-001) (48, 2.19751672739775810000e-001) (49, -9.43207272455877930000e-002) (50, -7.89724156453404210000e-001) (51, -2.19419078991388180000e-001) (52, -9.29655424752317220000e-001) (53, -3.03300543787126290000e-001) (54, 2.17546119159859270000e-001) (55, 2.71113816680263810000e-002) (56, 9.82420222563469170000e-001) (57, -1.23479275047686140000e+000) (58, 6.96796655368124300000e-001) (59, 1.30386134131917020000e+000) (60, 1.77182818901702780000e+000) (61, 3.37639843827183700000e+001) (62, 1.24831664022353790000e+000) (63, 3.64232561620480410000e+001) (64, 1.32071523178767820000e+000) (65, 3.69692351704120510000e-001) (66, 1.40668917103671950000e+000) (67, 3.10561774322810800000e+000) (68, 7.04605310519754170000e-001) (69, 3.22840880315435990000e+000) (70, 1.56318308379080470000e+000) (71, -2.34363587305467390000e-001) (72, -8.79106227000148510000e-001) (73, -2.78367271751982170000e-001) (74, -5.95313805682879620000e-001) (75, -2.37085964449769450000e-001) (76, 1.43330693092907580000e+000) (77, 2.17287975907449880000e+000) (78, 1.28194993538069780000e+000) (79, 1.38542725725376510000e+000) (80, 1.07647431072486670000e+000) (81, 5.85163326013652950000e-001) (82, 1.96388814636392790000e-001) (83, 9.63722126272907100000e-001) (0, -3.68734802889707280000e-001) (1, -5.21359419739057310000e-001) (2, -3.87516911614991080000e-001) (3, 1.85527697482402120000e+000) (4, -1.69707945096781750000e-001) (5, -8.66783214679758830000e-001) (6, -4.96491792036795170000e-001) (7, 6.04756490468257520000e-001) (8, 5.99682372886072180000e-001) (9, 6.88134788775871580000e-003) (10, 1.10050274625054030000e-001) (11, 5.34135563371503030000e-001) (12, 9.47935133879756140000e-001) (13, -7.74354472864869910000e-001) (14, 3.59257260723587990000e-001) (15, 4.23379225169391300000e-001) (16, -5.38397049614253940000e-001) (17, 1.60678781912578140000e-001) (18, 3.23609446661825840000e-001) (19, -3.49494246055807420000e-001) (20, -7.26848446233524740000e-001) (21, -5.84101673170602130000e-001) (22, -6.55049132822008610000e-001) (23, 2.24848999416485850000e-002) (24, -4.16061847135850650000e-001) (25, 1.31757340886195640000e+000) (26, -7.10149655744484630000e-001) (27, -3.73679091646000330000e-001) (28, -5.58353459133268060000e-001) (29, 2.64568703566313070000e-001) (30, -7.73233234500177450000e-002) (31, -2.85201963118766440000e-001) (32, -5.08840601999928420000e-001) (33, -7.72902112439361240000e-001) (34, -8.77305433913731720000e-001) (35, 8.41666383578542620000e-001) (36, 8.55387475034321330000e-001) (37, -5.75875926785539120000e-001) (38, 6.34063555510674950000e-001) (39, -1.13332289402820520000e-001) (40, 7.35305381864924450000e-001) (41, 1.90961977656222550000e-001) (42, -5.24369344178427070000e-001) (43, 6.98670462216709480000e-002) (44, 8.33519812022128440000e-001) (45, -1.78701578034781190000e+000) (46, -2.50131012426723850000e-003) (47, -4.61279399463118300000e-001) (48, 5.27547244909440270000e-001) (49, -6.85497725005742580000e-001) (50, 1.05125075230236710000e+000) (51, -2.29258515573256630000e-001) (52, -6.83477619358277220000e-001) (53, 1.00526785576763070000e+000) (54, -2.78114252756471840000e-001) (55, -2.86994087181902450000e-001) (56, 6.06131006026326210000e-002) (57, -7.14093612147367550000e-001) (58, 1.11518427486330850000e+000) (59, 2.66516705709175120000e+000) (60, -1.03909979951210070000e+000) (61, 7.71764383526644960000e+000) (62, -1.05611506121525050000e-001) (63, 4.31861795633495050000e+001) (64, 2.49189210413834860000e+000) (65, 9.60780942214048970000e-002) (66, 2.25848547853319030000e+000) (67, 5.15251435676024540000e+000) (68, -1.00067996013120290000e+000) (69, -1.37065525588239150000e-001) (70, -1.34717903235527990000e+000) (71, 2.16706496572041880000e-001) (72, -6.65214126490538130000e-002) (73, 3.67441395865018090000e+000) (74, -1.73562209414271920000e+000) (75, 4.94478688523803440000e-001) (76, 2.45326288535186120000e+000) (77, 7.23996850705578620000e-001) (78, -5.99021820909414470000e-001) (79, -8.56817260710218240000e-001) (80, -4.66074159809182260000e-001) (81, 5.32454185162693340000e+000) (82, -2.96880659925624530000e+000) (83, 2.41809319287907120000e+000) (84, -6.85452388356018850000e-001) (0, -2.15210589183454790000e-002) (1, 5.01874485555989680000e-001) (2, 7.25205292465132320000e-001) (3, -1.34918903517101340000e-001) (4, 1.79854402234989360000e-001) (5, -7.17355611623447850000e-001) (6, 4.66251600035386850000e-001) (7, -9.73770524760105980000e-002) (8, 4.54089023646728320000e-001) (9, -5.45208184426229980000e-001) (10, 1.84953925785113690000e-001) (11, 5.53928775400569400000e-001) (12, 5.67928861904223870000e-001) (13, -1.59402920022568420000e-001) (14, -6.73491018808792030000e-001) (15, 5.22315716924848350000e-001) (16, 1.10880365734569810000e+000) (17, -9.67346494123049520000e-001) (18, -4.00230486102550240000e-001) (19, -3.65600836689449760000e-002) (20, -2.21378853151274900000e-001) (21, 5.83299583414803150000e-001) (22, -7.80994216982105800000e-001) (23, -2.69766779444950640000e-001) (24, 2.32714413935541530000e+000) (25, 1.34895609512758610000e+000) (26, -1.13566610136884220000e-002) (27, 7.49358108542838570000e-002) (28, -7.07685394138117150000e-001) (29, 4.42641620715024780000e-001) (30, -5.26849901450878730000e-001) (31, -4.77563890978129400000e-001) (32, -1.03463420602836040000e+000) (33, -1.76618168261081200000e-001) (34, 6.60070367246440030000e-002) (35, 3.28366695109449710000e-001) (36, 7.06368522096046950000e-001) (37, -7.07025274491249410000e-001) (38, 6.46136326257740090000e-001) (39, -5.26047734210708050000e-001) (40, 5.66487831909924910000e-001) (41, -7.71520120731245320000e-001) (42, -1.20746467696002950000e+000) (43, 9.22150497503091530000e-001) (44, 5.77789656785237190000e-001) (45, 6.23277353487072360000e-001) (46, 4.73893749422946490000e-001) (47, -2.48288803905277800000e-001) (48, -6.60442343054706730000e-001) (49, 5.64796376307529770000e-001) (50, -4.18619470240280470000e-002) (51, -1.00713697676016770000e+000) (52, -1.70749249060893750000e-001) (53, 7.75280760946525980000e-001) (54, -3.99718731825583540000e-001) (55, -5.66406738630550020000e-001) (56, -7.17625147221758300000e-001) (57, -8.97996870182677710000e-001) (58, 1.27644847208673370000e+000) (59, -6.62054805124422050000e-001) (60, -1.50174353866924440000e+000) (61, 7.07443459068544200000e+001) (62, 1.50334226212303300000e+000) (63, 5.11851070646580770000e+001) (64, -1.22630281057825360000e+000) (65, -9.68491936490832320000e-001) (66, 1.25877049519361470000e+000) (67, 4.98837016793491370000e+000) (68, 3.74335009417859550000e+000) (69, 4.59076526456088010000e+000) (70, 1.24121818307187510000e+000) (71, 1.72061115952489870000e+000) (72, 6.47101721797114340000e-001) (73, -1.01528039323764620000e+000) (74, 8.31834711641605050000e-001) (75, -2.42581180713839340000e+000) (76, 2.56100340215601110000e+000) (77, 2.11138573216416290000e+000) (78, 3.01061410296735850000e+000) (79, 3.73687990902528400000e+000) (80, 1.67113062794720600000e+000) (81, -2.08573868940818660000e+000) (82, 7.19316134788436480000e-001) (83, -3.83204284944193400000e-001) (84, 7.59511944163582360000e-001) (85, 1.35034986082034130000e+000) (0, 1.80076784581741590000e-001) (1, 6.25107631953050970000e-001) (2, -6.81931235604067760000e-001) (3, 1.52606459796453310000e+000) (4, 8.85267321937665110000e-001) (5, 3.96268883484670380000e-001) (6, 2.00083930137923280000e-001) (7, 3.03736901303626350000e-001) (8, -6.14713356225717210000e-001) (9, -8.19801120745905610000e-001) (10, 3.62514327685542650000e-001) (11, -9.91191892347938890000e-002) (12, 1.27533144670092890000e-002) (13, -9.40618870714806320000e-001) (14, 5.40384969063428700000e-001) (15, -8.52643589961541440000e-001) (16, 4.20301237275633570000e-001) (17, 9.94655811605341330000e-001) (18, 1.57423016906906830000e-001) (19, -1.18624376184597980000e+000) (20, -1.90048965238149380000e-001) (21, -1.58441376427674730000e+000) (22, -7.53615578030063930000e-002) (23, 1.43160449615436280000e+000) (24, 1.06006362391457350000e+000) (25, 7.29764071077847690000e-001) (26, 8.87998973885944790000e-002) (27, 1.88568513706332360000e+000) (28, -1.71342770447206190000e-001) (29, 1.25277716184738310000e+000) (30, 8.69773522099896220000e-001) (31, -2.80632825151585660000e-001) (32, 4.47835016581497660000e-001) (33, 1.82430812119296130000e-001) (34, -6.22221978857091410000e-001) (35, -3.01777866931465850000e-001) (36, 6.18657462049352900000e-001) (37, 5.93436972109233740000e-001) (38, 8.23138761295469150000e-001) (39, 1.15673212602057100000e+000) (40, -5.34493200317630590000e-001) (41, 8.13841643739680150000e-001) (42, -1.31065632924939610000e-001) (43, 2.06094048874168130000e-001) (44, -6.41435350529378830000e-001) (45, -9.66030503389398440000e-001) (46, -1.21847007952219240000e-001) (47, 2.52642761881274380000e-001) (48, 8.13742609450681220000e-001) (49, -2.25047749760815010000e-001) (50, 3.98352249212203800000e-001) (51, -2.70282863143971100000e-001) (52, -4.55746152203502010000e-001) (53, -7.25403574592902610000e-001) (54, -1.30677399727716550000e-001) (55, -2.78075683587611480000e+000) (56, 4.01989631162137430000e-001) (57, 8.10082739645552440000e-001) (58, 1.46083961948485540000e+000) (59, 1.44728101094493720000e-001) (60, 9.92391363308808170000e-001) (61, 2.45191439126936310000e+000) (62, -3.07227303445887110000e-001) (63, 1.69097250445622890000e+000) (64, 3.04275207667082980000e+000) (65, 1.27712556389192130000e-001) (66, 5.81058398403194840000e-001) (67, 2.53248225802345230000e+000) (68, 1.06894236533084790000e+000) (69, 9.13156879071951750000e-001) (70, 1.65527139814234920000e-001) (71, 1.11926688215639950000e-002) (72, 6.78487212297852920000e-001) (73, 3.05816192721756640000e-001) (74, -9.36883944461809670000e-001) (75, -1.00313410801124440000e+000) (76, 2.67865731277614970000e+000) (77, 5.25207645675389800000e-001) (78, -3.25753634186794980000e-001) (79, 2.34301696232652730000e+000) (80, -1.66607392885263490000e+000) (81, -1.63966841970474620000e-001) (82, 1.67570735075794850000e+000) (83, 7.67255901423978370000e-001) (84, -1.15468674615509740000e+000) (85, 6.05827303801828920000e-001) (86, -5.32798354290212490000e-001) (0, -5.09337033750491770000e-001) (1, 5.14754834163891010000e-001) (2, 4.44796706653892650000e-001) (3, 6.56182188377023690000e-001) (4, 1.44015120363327390000e-001) (5, 1.04571011427625950000e-002) (6, -9.65284049016750910000e-001) (7, -1.06883152676378780000e+000) (8, -3.43981239459628220000e-001) (9, 8.08797308119100670000e-001) (10, 2.83068353582144720000e-001) (11, 7.09409568722408900000e-001) (12, 1.00135226761075940000e+000) (13, -1.03343435120937600000e+000) (14, 1.02604648173777500000e+000) (15, -5.27181493673799740000e-001) (16, -3.20690391276725940000e-001) (17, 6.15381099671446270000e-001) (18, 6.07128099421744170000e-001) (19, -3.40222387396207690000e-001) (20, -4.60000377744748000000e-001) (21, -8.01602841994267790000e-001) (22, -1.77986947299974660000e-001) (23, 8.67292502542370780000e-001) (24, -6.54138449441044930000e-001) (25, -2.10526333853824990000e-001) (26, 2.96918203564715990000e-001) (27, 1.01027014443872250000e+000) (28, -7.17106525666668100000e-001) (29, 1.02901312754205400000e+000) (30, 8.41346353955270130000e-002) (31, -1.80608250700858370000e-001) (32, 1.88753468033008190000e-001) (33, 1.40594884729083550000e-001) (34, -4.95129454511302800000e-001) (35, -1.66478022574909730000e-001) (36, 5.71536055455886370000e-001) (37, 6.97499964692080750000e-001) (38, -2.82589823173891030000e-001) (39, 6.70299617165427850000e-001) (40, 1.45907274169634580000e-002) (41, 1.84668720985149000000e-001) (42, -1.65978332684802340000e-002) (43, -9.88233891998073770000e-002) (44, 8.72754743491078290000e-001) (45, -1.18297634037850850000e+000) (46, 5.42138931087254750000e-001) (47, 3.14991861550661880000e-002) (48, -3.30097284750568150000e-002) (49, -4.78401743412273370000e-001) (50, 8.17285366121219270000e-002) (51, -7.55551757657178860000e-001) (52, -2.91022840281431050000e-001) (53, 2.98085220843332440000e-001) (54, 2.62286008477426220000e-001) (55, -1.78199014846419330000e+000) (56, 1.19607042916742580000e+000) (57, 9.15147320384910980000e-001) (58, 8.85678087301963400000e-001) (59, -1.06715360648361050000e+000) (60, 1.74416904863663280000e+000) (61, 3.49682918415875220000e+001) (62, 3.79089526177322060000e-001) (63, 2.63125865945049710000e+001) (64, 1.45882306615597980000e+000) (65, 1.92373385566738220000e+000) (66, 1.11170855735932220000e+000) (67, 2.53977905143696030000e+000) (68, 1.73517286394636220000e+000) (69, 9.77020880713007740000e-001) (70, 8.18488739185366240000e-001) (71, 3.90383261652729810000e+000) (72, 1.71173918566552690000e+000) (73, -2.64574283920194940000e-001) (74, 1.33016630435457990000e+000) (75, 1.34080699480100550000e+000) (76, 1.12063676145827680000e+000) (77, 1.50088437062170280000e+000) (78, 4.65396567582821240000e+000) (79, 1.64612064821775190000e+000) (80, 2.58190371073554870000e+000) (81, 3.75937317236459380000e+000) (82, 1.00321490498469990000e+000) (83, 3.10112058146857180000e+000) (84, -7.17567260256466440000e-001) (85, 1.11949255425032600000e+000) (86, 1.47763833275802450000e+000) (87, 3.37166491136886660000e+000) (0, -1.85698782771062330000e-001) (1, 4.02958551209168850000e-001) (2, -1.52753985323541260000e-001) (3, 9.49363421939655950000e-001) (4, -9.61541252712764390000e-002) (5, -2.91394184560937910000e-001) (6, 2.81350349189953690000e-002) (7, -2.55405883754277590000e-001) (8, -2.03327809533236090000e-001) (9, -6.04528105961181670000e-001) (10, 3.98730257148920480000e-002) (11, 8.69943322294779720000e-002) (12, 6.68817540973451810000e-001) (13, 6.54095276245164610000e-001) (14, -2.32618581454076380000e-001) (15, -1.18104419591462920000e-001) (16, 2.01527543865200720000e-001) (17, 7.05647595234356330000e-002) (18, -6.45408777466246360000e-001) (19, -6.53744652365869430000e-001) (20, -2.30118013630094960000e+000) (21, -1.11747604804341600000e+000) (22, 3.65323436634384930000e-001) (23, -1.31399660756998180000e+000) (24, 1.63786157223276910000e+001) (25, 4.77894407438374370000e+000) (26, -1.24491886937727100000e+000) (27, 6.87404109348379700000e-001) (28, -2.52748164950217790000e-001) (29, 5.77987215249408770000e-001) (30, -5.28961548337436920000e-001) (31, -2.57269094589296990000e+000) (32, -1.49964771628709190000e-001) (33, 3.02034892314456850000e-001) (34, 1.46341799105848800000e-001) (35, 5.00182594535472870000e-001) (36, -7.53613510022140970000e-002) (37, 5.41801031819252100000e-001) (38, 1.11057597771474300000e+000) (39, -1.14073161798024740000e-001) (40, 4.16658126799769990000e-001) (41, -6.52026825585724340000e-003) (42, -1.67427291128955300000e-001) (43, 5.42744778798510340000e-002) (44, 3.37168676922539990000e-001) (45, 2.50076065822512240000e-001) (46, -1.77178024357864980000e-001) (47, 1.83540552047974060000e-001) (48, 1.25888213755874020000e+000) (49, 9.28414409060421390000e-001) (50, 6.51685765302207900000e-001) (51, -1.11701831605431930000e-001) (52, -1.12194892157405830000e+000) (53, 1.88193319157013470000e+000) (54, 1.25607099349585650000e+000) (55, -2.20539723852211710000e-001) (56, 5.14928285139198660000e+000) (57, 6.87158329053578230000e+000) (58, 3.62094246618881450000e+000) (59, 4.82566176137690570000e+000) (60, 7.71225195265915970000e+000) (61, 1.17367277284407650000e+002) (62, 3.58737787403619150000e+000) (63, 1.42839189539854810000e+003) (64, -2.80647696094908030000e+000) (65, 1.20588175567506320000e+000) (66, 4.88001324324689630000e+000) (67, 1.16973939501885390000e+001) (68, 7.80300816613193170000e-001) (69, 1.00437816086833710000e+001) (70, 5.98657088625273000000e-001) (71, 1.34936398299337680000e+000) (72, 8.38610119700680110000e-001) (73, 6.69370931583756420000e+000) (74, 7.27444788465644530000e-001) (75, 5.56058765744003660000e+000) (76, 5.09663185127480570000e+000) (77, -1.46057616064832280000e-001) (78, -2.69968562218880100000e-001) (79, -1.16262992257353430000e-001) (80, 4.17280267744263080000e+000) (81, 4.89545957496553330000e-001) (82, -1.14000233077114380000e-001) (83, -5.74817562180678870000e-003) (84, 4.13545735051899070000e-001) (85, 2.84839837205009430000e+000) (86, 1.26387468591072280000e+000) (87, 1.02571840042061150000e+000) (88, 9.55160358929969530000e-001) 
