FANN_FLO_2.1
num_layers=7
learning_rate=0.700000
connection_rate=1.000000
network_type=1
learning_momentum=0.000000
training_algorithm=2
train_error_function=1
train_stop_function=0
cascade_output_change_fraction=0.010000
quickprop_decay=-0.000100
quickprop_mu=1.750000
rprop_increase_factor=1.200000
rprop_decrease_factor=0.500000
rprop_delta_min=0.000000
rprop_delta_max=50.000000
rprop_delta_zero=0.100000
cascade_output_stagnation_epochs=12
cascade_candidate_change_fraction=0.010000
cascade_candidate_stagnation_epochs=12
cascade_max_out_epochs=150
cascade_max_cand_epochs=150
cascade_num_candidate_groups=2
bit_fail_limit=3.49999999999999980000e-001
cascade_candidate_limit=1.00000000000000000000e+003
cascade_weight_multiplier=4.00000000000000020000e-001
cascade_activation_functions_count=10
cascade_activation_functions=3 5 7 8 10 11 14 15 16 17 
cascade_activation_steepnesses_count=4
cascade_activation_steepnesses=2.50000000000000000000e-001 5.00000000000000000000e-001 7.50000000000000000000e-001 1.00000000000000000000e+000 
layer_sizes=56 1 1 1 1 1 1 
scale_included=0
neurons (num_inputs, activation_function, activation_steepness)=(0, 0, 0.00000000000000000000e+000) (0, 0, 0.00000000000000000000e+000) (0, 0, 0.00000000000000000000e+000) (0, 0, 0.00000000000000000000e+000) (0, 0, 0.00000000000000000000e+000) (0, 0, 0.00000000000000000000e+000) (0, 0, 0.00000000000000000000e+000) (0, 0, 0.00000000000000000000e+000) (0, 0, 0.00000000000000000000e+000) (0, 0, 0.00000000000000000000e+000) (0, 0, 0.00000000000000000000e+000) (0, 0, 0.00000000000000000000e+000) (0, 0, 0.00000000000000000000e+000) (0, 0, 0.00000000000000000000e+000) (0, 0, 0.00000000000000000000e+000) (0, 0, 0.00000000000000000000e+000) (0, 0, 0.00000000000000000000e+000) (0, 0, 0.00000000000000000000e+000) (0, 0, 0.00000000000000000000e+000) (0, 0, 0.00000000000000000000e+000) (0, 0, 0.00000000000000000000e+000) (0, 0, 0.00000000000000000000e+000) (0, 0, 0.00000000000000000000e+000) (0, 0, 0.00000000000000000000e+000) (0, 0, 0.00000000000000000000e+000) (0, 0, 0.00000000000000000000e+000) (0, 0, 0.00000000000000000000e+000) (0, 0, 0.00000000000000000000e+000) (0, 0, 0.00000000000000000000e+000) (0, 0, 0.00000000000000000000e+000) (0, 0, 0.00000000000000000000e+000) (0, 0, 0.00000000000000000000e+000) (0, 0, 0.00000000000000000000e+000) (0, 0, 0.00000000000000000000e+000) (0, 0, 0.00000000000000000000e+000) (0, 0, 0.00000000000000000000e+000) (0, 0, 0.00000000000000000000e+000) (0, 0, 0.00000000000000000000e+000) (0, 0, 0.00000000000000000000e+000) (0, 0, 0.00000000000000000000e+000) (0, 0, 0.00000000000000000000e+000) (0, 0, 0.00000000000000000000e+000) (0, 0, 0.00000000000000000000e+000) (0, 0, 0.00000000000000000000e+000) (0, 0, 0.00000000000000000000e+000) (0, 0, 0.00000000000000000000e+000) (0, 0, 0.00000000000000000000e+000) (0, 0, 0.00000000000000000000e+000) (0, 0, 0.00000000000000000000e+000) (0, 0, 0.00000000000000000000e+000) (0, 0, 0.00000000000000000000e+000) (0, 0, 0.00000000000000000000e+000) (0, 0, 0.00000000000000000000e+000) (0, 0, 0.00000000000000000000e+000) (0, 0, 0.00000000000000000000e+000) (0, 0, 0.00000000000000000000e+000) (56, 15, 7.50000000000000000000e-001) (57, 5, 2.50000000000000000000e-001) (58, 3, 2.50000000000000000000e-001) (59, 5, 2.50000000000000000000e-001) (60, 5, 2.50000000000000000000e-001) (61, 11, 5.00000000000000000000e-001) 
connections (connected_to_neuron, weight)=(0, 1.93475326477377440000e+000) (1, 1.91257973335225890000e+000) (2, 1.22584711493298610000e+000) (3, 2.70175187935382910000e+000) (4, 6.50525869048022120000e-001) (5, 1.65819543520545120000e-001) (6, 2.30430732443490350000e-001) (7, 5.24962246729553720000e-001) (8, 2.05887855016714430000e+000) (9, 9.57491057315269960000e-001) (10, 5.32446769253097200000e-001) (11, 7.89246323548474570000e-001) (12, 9.33133001190479590000e-001) (13, 2.01194133835524050000e+000) (14, 1.39644643909591060000e+000) (15, 3.34405617381484550000e-001) (16, 9.96360965692750900000e-001) (17, 1.19772133020616510000e+000) (18, -7.78486858763017600000e-001) (19, 8.70145129208953820000e-001) (20, -5.18488528114554930000e-001) (21, 1.42210287425018070000e+000) (22, 7.29880796784407320000e-001) (23, -4.77087772937777270000e-001) (24, -1.14945050771666150000e+000) (25, 1.03938735202692790000e+000) (26, 8.30616296897182300000e-001) (27, 3.24783861268670780000e+000) (28, -3.66411836502949060000e-001) (29, 1.32107189402357660000e-001) (30, 2.86046997844031160000e+000) (31, -1.09854885160463310000e+000) (32, 1.90782882739617250000e+000) (33, 1.92683029159827710000e+000) (34, 9.44388357584738270000e-001) (35, 1.96264970360697230000e-001) (36, 5.54434117985220130000e-001) (37, -3.89832455838702520000e-001) (38, 7.75600217371373630000e-001) (39, 1.55432075484785900000e+000) (40, -4.05284529252639080000e-001) (41, 1.71950373719970460000e+000) (42, 2.49115136613199480000e-001) (43, 1.82175851663323130000e+000) (44, 1.24482710283205860000e+000) (45, 1.10312177480315190000e+000) (46, -5.41402478601720310000e-001) (47, 7.81558455620638750000e-001) (48, 1.97198697844498190000e+000) (49, 1.01990973517099400000e+000) (50, 2.14535071274876320000e+000) (51, 1.51718192292204870000e+000) (52, 1.81144037381879300000e+000) (53, 1.53260293129004090000e+000) (54, 1.61171371326046620000e+000) (55, -1.23147567395759010000e+000) (0, 1.27424071754707770000e-001) (1, -3.74282113246386830000e-001) (2, -2.22546191533584880000e-001) (3, 2.18238491412599240000e-001) (4, 8.20728858119162740000e-001) (5, -3.23151104685891030000e-001) (6, 6.27739147467855200000e-001) (7, 5.93372061506111730000e-002) (8, -6.22103046668241900000e-001) (9, -7.52814354895638280000e-002) (10, 2.76859420521061110000e-001) (11, 8.55460036074735200000e-001) (12, -1.02341277104377530000e-001) (13, 9.61847165301140670000e-001) (14, 8.72630701699440010000e-001) (15, 4.82543055943025160000e-001) (16, 4.75275682731673420000e-001) (17, -8.83864085144568800000e-002) (18, -1.04542690152786610000e+000) (19, -6.86685062401558350000e-001) (20, -5.84001855704031960000e-001) (21, 4.03103298622497890000e-001) (22, 5.37595382853932490000e-001) (23, -1.08717227628834840000e+000) (24, 3.42781865835753870000e-001) (25, -1.39263938241200940000e+000) (26, 8.93221662986763980000e-001) (27, -2.34476093557894540000e+000) (28, -3.75900096078939650000e-001) (29, 2.04235739280787920000e-001) (30, -1.01666641760449950000e+000) (31, 6.08220408437294860000e-001) (32, 5.85171926687384600000e-001) (33, 5.96726235899614270000e-001) (34, -1.19177952899850250000e+000) (35, -1.37447795042449920000e-001) (36, -1.64943899082974270000e-001) (37, 3.07960655251236120000e-001) (38, 3.13871331617948500000e-001) (39, -1.10441213782818440000e+000) (40, -1.15652814177979520000e+000) (41, 4.52207493560691290000e-001) (42, 6.44536843929923390000e-001) (43, 3.71204818156285870000e-001) (44, 6.86703833014221670000e-001) (45, -8.68694172331501590000e-001) (46, 2.99766399525383750000e-001) (47, -6.88623779807829960000e-001) (48, 6.00287171496344670000e-002) (49, 1.64037367559869180000e-002) (50, 8.31597205506103390000e-001) (51, -1.46708799779967480000e-001) (52, 1.04841413611339500000e-001) (53, 1.26793240471043680000e+000) (54, -4.06847984756129100000e-001) (55, -4.17586957562102900000e-001) (56, 5.77041356379396350000e-001) (0, -5.91137491952676950000e-001) (1, 9.89027067686074730000e-001) (2, -4.43718774882993330000e+002) (3, 1.01424082735639920000e-001) (4, 7.58977434474537580000e-001) (5, 6.14772254033915670000e-001) (6, -5.62996182357572760000e-001) (7, -7.83108594201302190000e-001) (8, -6.10878983584960730000e-001) (9, 7.67558146862714480000e-002) (10, 1.35152189835491610000e-002) (11, 4.09855510721208790000e-001) (12, -6.98169206494320680000e-001) (13, 7.01567564269090500000e-001) (14, 2.18663371182347020000e-001) (15, -4.42845377741225550000e+002) (16, -1.74420704911954070000e+000) (17, 4.74650103155319030000e-001) (18, 5.51237839485430590000e-001) (19, 2.60730948488062550000e-001) (20, -6.77655359390127330000e-001) (21, -1.41392448036321030000e-001) (22, -5.95326227104898020000e-001) (23, -1.70328397010837480000e+001) (24, -1.67268925472112760000e+000) (25, -8.40603224691185310000e-001) (26, 6.75893969295749410000e-001) (27, -7.33861816525972930000e-001) (28, -3.99229201930048830000e+000) (29, 7.32128421900007380000e-001) (30, -4.44244928919736140000e+002) (31, -7.40484240137128660000e-001) (32, 1.31063827851621680000e-001) (33, -1.04225990213040820000e+000) (34, 7.45429200018726260000e-001) (35, -9.68577118852089410000e-001) (36, -4.44565570468523670000e+002) (37, -4.44245918745084510000e+002) (38, -8.51468407323089930000e-001) (39, -4.44174960640423250000e+002) (40, -4.44716333241897250000e+002) (41, 8.24615227888308430000e-001) (42, -3.29149943805212950000e-001) (43, -4.28318070895010010000e-001) (44, 4.33696079366519600000e-001) (45, -4.44459287971742470000e+002) (46, -7.24446014102805960000e-001) (47, 2.54166506805951210000e-001) (48, 6.17618001910478780000e-001) (49, 6.64827146960024100000e-001) (50, 6.57334744013816090000e-001) (51, 6.81963498303675860000e-001) (52, 1.14400729940870540000e+000) (53, -2.40708071210592590000e+000) (54, -4.64756016531872430000e-001) (55, -7.51365470220034640000e-001) (56, 1.80039399257767770000e+000) (57, 1.05914332139132570000e+000) (0, 3.06458157764224410000e-001) (1, 3.09933116877911030000e-001) (2, -3.27286123772195430000e-003) (3, 6.81727266056888830000e-001) (4, -5.63532568731901050000e-001) (5, -8.30132086576342520000e-001) (6, -3.54703521180638360000e-001) (7, -8.96704511698113490000e-001) (8, 8.76902181826055730000e-001) (9, 2.18845780328781850000e-001) (10, -4.95026308115392500000e-001) (11, 9.50189721824610590000e-001) (12, -6.90293590566060100000e-001) (13, -2.85635568631582640000e-002) (14, 2.26981230197067450000e-001) (15, -4.93792704072627260000e-001) (16, 2.87730452625130970000e-001) (17, -9.58618176397874830000e-001) (18, 8.27331222083413140000e-001) (19, 9.68752088518357920000e-001) (20, 4.39877072686241210000e-001) (21, -6.69927114945658820000e-001) (22, 9.76327003220905930000e-001) (23, -2.66407707566830410000e-001) (24, -1.75791704905148640000e+000) (25, 1.41317517148390070000e+000) (26, -2.82436149127696770000e-001) (27, 3.72845319973806320000e-001) (28, -4.37664044009435230000e-002) (29, 1.09054040567087120000e-001) (30, -2.12271693167887080000e-001) (31, -3.88357791679110680000e-002) (32, 3.61121866161353500000e-001) (33, 7.53170431271638070000e-001) (34, 7.03038140732722140000e-002) (35, 1.50471594369690070000e-001) (36, -2.93755434528950590000e-001) (37, -2.26920628447672660000e-001) (38, -5.81182361268249850000e-001) (39, 8.90312163732890350000e-001) (40, 4.45959881742004740000e-001) (41, 3.93519996622377630000e-001) (42, 5.39690641403955060000e-001) (43, 5.65384304821958120000e-001) (44, 2.13609310511605060000e-001) (45, 3.62348818402753180000e-001) (46, -8.30366874580959370000e-001) (47, -1.73562919625502400000e-002) (48, -5.01932465703355810000e-001) (49, 6.85078518639270050000e-001) (50, 3.77294046286956590000e-002) (51, 1.00427593578003020000e-001) (52, -2.86581521474136350000e-001) (53, 1.18457396849246920000e+000) (54, 3.95614351709274890000e-001) (55, -2.35583235017786570000e+000) (56, 3.25012283922146590000e-001) (57, 1.87319965446906860000e+000) (58, -3.42322964007924700000e+000) (0, 5.15510137986979200000e-001) (1, -3.44524000997952660000e-001) (2, 7.30232770685275920000e-001) (3, 8.32995053757582760000e-001) (4, -2.89564937302279280000e-001) (5, 6.06706811617228610000e-001) (6, -3.32545784988161340000e-001) (7, 6.54301707570363430000e-003) (8, 1.89932175175425240000e-001) (9, 1.49237450846500000000e-001) (10, 7.70277377332023840000e-001) (11, -2.18653360422224720000e-001) (12, -2.27723516378486230000e-001) (13, -4.75820849985455350000e-003) (14, -5.29320752734662500000e-001) (15, 7.06133310723033420000e-001) (16, 7.06034493426619950000e-001) (17, 1.33766514294223700000e+000) (18, 3.62391306561780200000e-001) (19, -4.36776389330031930000e-001) (20, 1.83186893653308150000e-001) (21, -3.71342103479583460000e-001) (22, -1.78674096473363070000e-002) (23, -2.28461580821033620000e-003) (24, 1.12532770019766690000e+000) (25, -3.13091444726502800000e-001) (26, 5.93018964364845140000e-001) (27, -9.07826407623407720000e-001) (28, -2.75395473109322940000e-001) (29, 6.14795660047818940000e-001) (30, -8.60034589664947950000e-001) (31, 1.93332744614397840000e-001) (32, -4.20922591837466500000e-001) (33, -4.92231742592344870000e-001) (34, 8.04226986663685030000e-002) (35, -8.45707210565890160000e-001) (36, 9.01821564547886980000e-001) (37, 7.68757413618560200000e-001) (38, 5.90837692919395810000e-001) (39, -2.63006608010574270000e-003) (40, 5.05533777889464850000e-001) (41, -3.37241160786979800000e-001) (42, -6.83431364886256440000e-001) (43, 8.87970314906418980000e-001) (44, -4.16059951214744260000e-001) (45, -4.62940562667401250000e-001) (46, 2.09476752774113400000e-001) (47, -4.20219746907954310000e-002) (48, -4.67616423066147590000e-001) (49, -3.33436345392183610000e-002) (50, -9.41117616357339260000e-002) (51, -6.92729731460446030000e-001) (52, 8.48057815378207790000e-001) (53, -6.62792121098643720000e-001) (54, -6.27436321967662190000e-001) (55, -8.81677216987469920000e-001) (56, -4.04151326531828390000e-001) (57, 6.21521034643968460000e-001) (58, 4.49841760604452800000e-001) (59, -9.63697778433310060000e-002) (0, 2.17689393173515430000e-001) (1, 3.83804547485174950000e-001) (2, -2.97203451433900260000e-001) (3, 3.25782597823279160000e+000) (4, 3.27191570341290650000e-001) (5, -8.87907094082043270000e-001) (6, 2.58564951728852190000e-001) (7, 2.16038278403892610000e-001) (8, -4.09473876756600300000e-001) (9, 6.99739632355571430000e-002) (10, 2.24513700696489930000e-001) (11, -6.03929376460924710000e-001) (12, -4.88328261093339820000e-002) (13, -5.22880425319370180000e-001) (14, 2.43952821299245860000e-001) (15, -1.86525223494183630000e-001) (16, 2.25218313969267340000e-001) (17, 7.70625365019891530000e-003) (18, 3.62405986908453490000e-001) (19, 2.24893144869424740000e-001) (20, -6.80396513303114010000e-001) (21, -5.80821890242096850000e-001) (22, -4.95642954752697540000e-001) (23, 4.65241026629039540000e-001) (24, 2.44868763752317650000e+000) (25, -8.02272457648982700000e-001) (26, -2.83626502837788670000e-001) (27, -7.90368877661412280000e-001) (28, -1.81189379872137790000e-001) (29, -4.34789924022700450000e-002) (30, -3.14910260985470150000e-001) (31, 2.62739709071856970000e+000) (32, 4.02570987725345280000e-001) (33, -7.99431558110976210000e-001) (34, -7.01729486337635820000e-002) (35, 9.06971743178499600000e-002) (36, -1.26018146148669850000e-001) (37, 1.31004894210683780000e+001) (38, 3.25346062975456600000e-001) (39, -2.64608542555678060000e-001) (40, 1.61735999762748160000e-001) (41, 3.75372028105753820000e-001) (42, -1.36344452175694440000e+000) (43, 2.96579392736405430000e-001) (44, 2.74561988098517170000e-001) (45, -8.34550506371981470000e-001) (46, 1.64021338282703570000e-001) (47, 2.78987325350680490000e-001) (48, -4.86745007363323380000e-001) (49, -5.36285945705460290000e-002) (50, -5.09982049479030140000e-001) (51, 2.99452089704378870000e-001) (52, 1.35223878373673220000e+000) (53, 4.85700280465355130000e-001) (54, -3.66762904124727060000e-001) (55, 2.96864199040816290000e-001) (56, 2.44718500851425970000e+000) (57, 3.58268641783381000000e+000) (58, 1.50000000000000000000e+003) (59, -1.96889160363768990000e-001) (60, 1.24373029371428050000e+000) 
