FANN_FLO_2.1
num_layers=14
learning_rate=0.700000
connection_rate=1.000000
network_type=1
learning_momentum=0.000000
training_algorithm=2
train_error_function=1
train_stop_function=0
cascade_output_change_fraction=0.010000
quickprop_decay=-0.000100
quickprop_mu=1.750000
rprop_increase_factor=1.200000
rprop_decrease_factor=0.500000
rprop_delta_min=0.000000
rprop_delta_max=50.000000
rprop_delta_zero=0.100000
cascade_output_stagnation_epochs=12
cascade_candidate_change_fraction=0.010000
cascade_candidate_stagnation_epochs=12
cascade_max_out_epochs=150
cascade_max_cand_epochs=150
cascade_num_candidate_groups=2
bit_fail_limit=3.49999999999999980000e-001
cascade_candidate_limit=1.00000000000000000000e+003
cascade_weight_multiplier=4.00000000000000020000e-001
cascade_activation_functions_count=10
cascade_activation_functions=3 5 7 8 10 11 14 15 16 17 
cascade_activation_steepnesses_count=4
cascade_activation_steepnesses=2.50000000000000000000e-001 5.00000000000000000000e-001 7.50000000000000000000e-001 1.00000000000000000000e+000 
layer_sizes=56 1 1 1 1 1 1 1 1 1 1 1 1 1 
scale_included=0
neurons (num_inputs, activation_function, activation_steepness)=(0, 0, 0.00000000000000000000e+000) (0, 0, 0.00000000000000000000e+000) (0, 0, 0.00000000000000000000e+000) (0, 0, 0.00000000000000000000e+000) (0, 0, 0.00000000000000000000e+000) (0, 0, 0.00000000000000000000e+000) (0, 0, 0.00000000000000000000e+000) (0, 0, 0.00000000000000000000e+000) (0, 0, 0.00000000000000000000e+000) (0, 0, 0.00000000000000000000e+000) (0, 0, 0.00000000000000000000e+000) (0, 0, 0.00000000000000000000e+000) (0, 0, 0.00000000000000000000e+000) (0, 0, 0.00000000000000000000e+000) (0, 0, 0.00000000000000000000e+000) (0, 0, 0.00000000000000000000e+000) (0, 0, 0.00000000000000000000e+000) (0, 0, 0.00000000000000000000e+000) (0, 0, 0.00000000000000000000e+000) (0, 0, 0.00000000000000000000e+000) (0, 0, 0.00000000000000000000e+000) (0, 0, 0.00000000000000000000e+000) (0, 0, 0.00000000000000000000e+000) (0, 0, 0.00000000000000000000e+000) (0, 0, 0.00000000000000000000e+000) (0, 0, 0.00000000000000000000e+000) (0, 0, 0.00000000000000000000e+000) (0, 0, 0.00000000000000000000e+000) (0, 0, 0.00000000000000000000e+000) (0, 0, 0.00000000000000000000e+000) (0, 0, 0.00000000000000000000e+000) (0, 0, 0.00000000000000000000e+000) (0, 0, 0.00000000000000000000e+000) (0, 0, 0.00000000000000000000e+000) (0, 0, 0.00000000000000000000e+000) (0, 0, 0.00000000000000000000e+000) (0, 0, 0.00000000000000000000e+000) (0, 0, 0.00000000000000000000e+000) (0, 0, 0.00000000000000000000e+000) (0, 0, 0.00000000000000000000e+000) (0, 0, 0.00000000000000000000e+000) (0, 0, 0.00000000000000000000e+000) (0, 0, 0.00000000000000000000e+000) (0, 0, 0.00000000000000000000e+000) (0, 0, 0.00000000000000000000e+000) (0, 0, 0.00000000000000000000e+000) (0, 0, 0.00000000000000000000e+000) (0, 0, 0.00000000000000000000e+000) (0, 0, 0.00000000000000000000e+000) (0, 0, 0.00000000000000000000e+000) (0, 0, 0.00000000000000000000e+000) (0, 0, 0.00000000000000000000e+000) (0, 0, 0.00000000000000000000e+000) (0, 0, 0.00000000000000000000e+000) (0, 0, 0.00000000000000000000e+000) (0, 0, 0.00000000000000000000e+000) (56, 14, 7.50000000000000000000e-001) (57, 8, 5.00000000000000000000e-001) (58, 5, 5.00000000000000000000e-001) (59, 14, 5.00000000000000000000e-001) (60, 5, 2.50000000000000000000e-001) (61, 11, 7.50000000000000000000e-001) (62, 8, 2.50000000000000000000e-001) (63, 11, 2.50000000000000000000e-001) (64, 3, 2.50000000000000000000e-001) (65, 8, 5.00000000000000000000e-001) (66, 16, 5.00000000000000000000e-001) (67, 7, 5.00000000000000000000e-001) (68, 11, 5.00000000000000000000e-001) 
connections (connected_to_neuron, weight)=(0, 1.09314486273235880000e+000) (1, 3.63334944175065620000e-001) (2, 1.56141176685362360000e+000) (3, 7.42520770576291400000e-001) (4, 4.37559068837643730000e-001) (5, 1.37593733983310680000e-001) (6, 3.17126788135127290000e-001) (7, 4.54295881261558400000e-001) (8, 3.14393702584977670000e+000) (9, 1.21621414023891930000e-001) (10, -1.30522303579865990000e-001) (11, 8.56925086037716000000e-001) (12, -2.60385071798480030000e-002) (13, 1.69376570723344980000e+000) (14, -3.58349130669168070000e-001) (15, 3.94404550197804130000e-002) (16, 2.07580641874059070000e+000) (17, -7.17373996751201390000e-001) (18, 3.44158306123949380000e-001) (19, 5.05681342852860480000e-001) (20, 2.80457999342792210000e+000) (21, 1.97655309488711840000e+000) (22, 1.99772381041690680000e+000) (23, -4.42307366266912720000e+000) (24, -1.43094133275091600000e+000) (25, 6.22473106004496570000e-001) (26, 1.79398434463147210000e-001) (27, -4.38922866172418940000e+000) (28, 1.91201606995185760000e+000) (29, -3.80051691047086230000e+000) (30, 4.24107175357947900000e-001) (31, 1.46563652632001100000e+001) (32, 8.05101895291798430000e-001) (33, 2.01058659506898860000e-001) (34, -1.53762524716829780000e+000) (35, -3.08956622620283430000e+000) (36, -3.30393802671252620000e-001) (37, 4.45321068802357780000e-001) (38, 1.24856678390081280000e+000) (39, 3.81799144032158800000e-002) (40, 1.08714144088465030000e+000) (41, -3.41612318245253400000e-001) (42, 2.23157655469338160000e-001) (43, 3.49387600488470060000e-001) (44, 1.36204613898628440000e-002) (45, 2.63031405534688250000e+000) (46, 1.12464679690518320000e-001) (47, 6.00621708721362670000e-001) (48, 1.50050881198088470000e+000) (49, 6.18025568017244950000e-001) (50, 7.99740976922673990000e-001) (51, 1.03256487863275460000e+000) (52, -4.37828454016563780000e-001) (53, 1.84346868048393330000e+000) (54, 1.38240302295085020000e-001) (55, -6.11281176394342760000e-001) (0, 1.38090599584162850000e+000) (1, 2.27325025127853660000e+000) (2, 3.41117066445319030000e-001) (3, 3.33072396604135730000e-001) (4, 1.31360097182684270000e+000) (5, 1.60935005545385800000e+000) (6, 1.86825332301438470000e+000) (7, 2.30524470156293760000e+000) (8, 6.85002901459524250000e-001) (9, 9.74189596161037950000e-001) (10, 4.41583324919944730000e-001) (11, 2.57332755859669770000e+000) (12, 1.15571664998193850000e+000) (13, 1.39215399463786650000e+000) (14, 1.35849145773451460000e+000) (15, 1.32324309555466480000e+000) (16, 1.71222355105392540000e+000) (17, 2.17616152594334000000e+000) (18, 2.10447963345235590000e+000) (19, 1.05168028583356880000e+000) (20, 6.24092397299560450000e-001) (21, 8.38272017532517340000e-001) (22, 4.24252481801209110000e-001) (23, 1.49831420777689010000e+000) (24, -1.10173626013606700000e+000) (25, 2.89895590793011580000e-001) (26, -1.89191731714345930000e+000) (27, 1.09953251342083160000e+000) (28, 8.42444124879418440000e-001) (29, -3.95234885227619180000e-001) (30, 2.66932767036105470000e+000) (31, 8.89846279731802410000e-001) (32, 8.36938931313367830000e-001) (33, 7.70433035170446700000e-001) (34, -1.47604548984461890000e+000) (35, -6.72622470514834590000e-001) (36, 1.40362758241596320000e+000) (37, 2.01072381180480740000e+000) (38, 5.67657425560780030000e-001) (39, 7.42675051876601100000e-001) (40, 6.09293197715912170000e-001) (41, 8.31841926757503570000e-001) (42, 7.23515227522027020000e-001) (43, 2.97454774406530060000e-001) (44, 2.05512302016492580000e+000) (45, -1.77873456475081150000e+000) (46, 3.72006142247725320000e-001) (47, 2.16123897043641210000e+000) (48, 1.83005673604729500000e-001) (49, 6.69413287597732890000e-001) (50, 2.00458539312999800000e+000) (51, 4.73516365510901430000e-001) (52, -4.38406962553764320000e+000) (53, 1.59266556231327170000e+000) (54, 5.23243780513843900000e-001) (55, 4.29117157150782750000e-001) (56, 2.57658504317012670000e+000) (0, 4.54164230912071850000e-002) (1, 1.36182687483798470000e+000) (2, 4.61514253912152230000e-001) (3, 8.66105365058298830000e-001) (4, 1.24515176794144300000e+000) (5, 1.55699108144289780000e+000) (6, 1.17944695190160600000e+000) (7, 1.80903926191113450000e-001) (8, 2.65736892733546350000e+000) (9, 1.23345945601382500000e+000) (10, 6.16283448033370320000e-001) (11, 1.79684170317300130000e+000) (12, 3.43477581119056300000e-001) (13, 1.70533586285345760000e+000) (14, 7.08908726920323580000e-001) (15, -6.22969858148047170000e-001) (16, 2.75248479551705280000e-001) (17, 1.12593451900536490000e+000) (18, 1.14494201281872860000e+000) (19, 2.68723035036611970000e+000) (20, 6.29351050315275500000e-001) (21, -4.11719766464680030000e-002) (22, -1.74210521936282450000e-001) (23, 4.57585492461847880000e-001) (24, -1.73892103064777380000e+000) (25, -1.59311948879663530000e+000) (26, -6.60266594495273030000e-001) (27, 1.97425251971717250000e+000) (28, 2.76800964308039180000e+000) (29, 1.21417361538833090000e+000) (30, 2.60196644089136160000e+000) (31, 3.13715263393804560000e+000) (32, 1.60607348007740010000e-001) (33, 7.84623651318049120000e-001) (34, 1.40929293718572320000e+000) (35, 1.42042847235488320000e+000) (36, 7.78691413980392880000e-001) (37, 2.03508910148300570000e+000) (38, 1.29377638213756250000e+000) (39, 1.94637600463536400000e+000) (40, 1.50107832603751050000e+000) (41, 9.26922362398014070000e-001) (42, 1.48683720987718980000e+000) (43, 6.64502117440649440000e-002) (44, 1.13855995073887240000e+000) (45, -5.26287157653713680000e+000) (46, 5.25249173181819410000e-001) (47, 4.97029396826710930000e-001) (48, 1.15760012037894460000e+000) (49, 6.25527744348589460000e-002) (50, 6.40020953498569800000e-001) (51, 1.35025368857966570000e+000) (52, -7.32496896502387160000e+000) (53, 1.77725633344651750000e+000) (54, 1.72184936984572730000e+000) (55, -7.82448752651565100000e-001) (56, 8.26839107549774740000e-001) (57, 1.62993591492384950000e+000) (0, 7.92765638523219800000e-001) (1, 1.32553468270775300000e+000) (2, 1.33884302582150230000e+000) (3, 2.83939174239590590000e-001) (4, 1.28467876181771690000e-001) (5, 1.02410886627281280000e-001) (6, 1.43019796056027660000e+000) (7, 1.51396589595382940000e+000) (8, 2.62373310120641530000e+000) (9, 9.72366082039612060000e-001) (10, 7.45253609836750370000e-001) (11, 4.22651881291266630000e-001) (12, 9.37602699793883780000e-001) (13, 1.29412358191670140000e+000) (14, 1.82727165579994580000e+000) (15, 7.97077008016178480000e-002) (16, -3.15913169907008130000e-001) (17, 3.98701744385419280000e-001) (18, 2.75450308599311770000e+000) (19, 7.24494257529387370000e-002) (20, 7.98287548209823280000e-001) (21, 6.34298579918989640000e-001) (22, 1.95211011845262020000e+000) (23, 5.13979568326176850000e-002) (24, 5.68262341357953370000e+000) (25, 3.46211437116171840000e+000) (26, -1.14973978972956710000e+000) (27, 1.27891754523768840000e+000) (28, 7.44986775814920680000e-001) (29, -6.56027421601143020000e-001) (30, 3.86818850261849640000e-001) (31, 8.53607068048363840000e-001) (32, 1.64717370412976850000e+000) (33, 8.43693659457739330000e-001) (34, -2.51969928071996520000e+000) (35, -1.68574492289768880000e+000) (36, 1.03735308462778030000e+000) (37, 2.64787046558425560000e-002) (38, 2.33442096630410910000e-001) (39, -1.50010376659834700000e-002) (40, 4.91711016964059610000e-001) (41, 1.08194418915032130000e-001) (42, 1.68081769302948050000e+000) (43, 1.52261010012584410000e+000) (44, 3.88851206169006700000e-001) (45, -2.96959704774603320000e+000) (46, 1.37242482620199110000e+000) (47, 9.47616987628365910000e-002) (48, 6.52251894263053300000e-001) (49, 5.37917086746843130000e-001) (50, 9.72173617898570040000e-001) (51, 1.47373186025602430000e-001) (52, -1.08255253627989630000e-001) (53, 1.31661037360974740000e+000) (54, 1.52751144603061470000e+000) (55, -1.76666505862381640000e+000) (56, 4.06178855897142820000e+000) (57, -1.52868878682108660000e-001) (58, 1.24066561902049410000e-001) (0, 1.96723312370762940000e-002) (1, -2.40146071696811930000e-001) (2, 2.71275879413988900000e-001) (3, 1.66127057278812640000e-002) (4, 2.74120779195642540000e-001) (5, 4.91894781151418380000e-001) (6, 5.32033291643769150000e-002) (7, -1.06674448987484880000e+000) (8, 3.05789839759580960000e-001) (9, 7.63411095319157630000e-001) (10, -1.13284246395884010000e+000) (11, 8.35426651605003180000e-001) (12, -7.70492996556400020000e-002) (13, 1.97836946542913060000e-001) (14, -5.06366141374870250000e-002) (15, 2.25812613550142840000e-001) (16, 2.76522391121843070000e-001) (17, 9.27614274404337800000e-002) (18, -8.28823276636870690000e-002) (19, 4.60525549462730550000e-001) (20, 5.91573574584148280000e-001) (21, 1.24820697122288900000e-001) (22, -5.07108862426367210000e-001) (23, -4.48976307460587090000e-001) (24, 8.30739684617782800000e-001) (25, 2.26880857220004420000e-001) (26, 7.97854486578900460000e-001) (27, 3.37873266204444860000e-001) (28, 6.07847479472715000000e-001) (29, -4.23231233833504580000e-001) (30, -4.06816981527069910000e-001) (31, 7.45294023493532800000e-001) (32, -6.65246693464153990000e-001) (33, -1.12771427440108360000e-002) (34, 4.61000538323859230000e-001) (35, 6.60438168453837520000e-001) (36, -6.26630545529368920000e-001) (37, 6.25790388742303640000e-001) (38, -1.09643677529105500000e-001) (39, -7.96748149022618150000e-001) (40, -8.73925641458639710000e-001) (41, 3.76899219769826650000e-001) (42, 8.07535739293885000000e-001) (43, -9.56722854217672560000e-001) (44, -2.06864839117200690000e-001) (45, 9.18607827870826070000e-001) (46, -1.25753542455071200000e-001) (47, -4.80642699804920140000e-001) (48, -2.04574874944244980000e-001) (49, 3.39713973922938780000e-002) (50, -4.41999432900382350000e-001) (51, 2.18922637356287280000e-001) (52, -1.30650234304337840000e+000) (53, -1.16267600755563940000e-001) (54, 6.96069624784155240000e-001) (55, -7.84854504048539960000e-002) (56, 1.74945272661040650000e+000) (57, -4.47344627478682370000e-001) (58, -1.35727554679058120000e-001) (59, 3.06223667207009110000e+000) (0, 9.09118751265124430000e-001) (1, -5.17370805548626690000e-001) (2, -5.62749163046463610000e-001) (3, -6.24959294948711160000e-001) (4, -3.55382056705637380000e-001) (5, -6.53694317149121070000e-001) (6, -5.65380407296105500000e-001) (7, 2.69037263203428470000e-001) (8, -1.44845546971859180000e+000) (9, -4.37326520480199380000e-001) (10, 1.08324013097758230000e+000) (11, -5.97691533437810560000e-001) (12, -2.93485168166442380000e-001) (13, -1.72197340066755520000e-001) (14, -4.67397883333249610000e-001) (15, 9.73475913811602140000e-001) (16, -8.17082055317360670000e-001) (17, 4.49208998561792360000e-001) (18, 6.84574128728542840000e-001) (19, -3.67608081907074720000e-001) (20, 2.80825596798679080000e-001) (21, 1.10710082697158740000e+000) (22, -2.36988171345012410000e-001) (23, 3.74169195522429550000e-001) (24, -1.15764742261781820000e+000) (25, -1.79475177879188190000e+000) (26, -4.25472389953569840000e-001) (27, 1.74970012091956060000e+000) (28, 5.47823856320247880000e-001) (29, 1.41428453397809430000e+000) (30, -3.29887854681358620000e-001) (31, -4.63771962424385290000e-001) (32, 6.38163242224619620000e-001) (33, 4.17093052357562280000e-001) (34, 2.49490476305115840000e-001) (35, 4.69793145701875140000e-001) (36, -1.96630320310576590000e-001) (37, 4.70076853610591480000e-001) (38, 7.09415501510601730000e-001) (39, -4.96842759460194630000e-001) (40, 1.12099656203390770000e+000) (41, -6.85519842835265900000e-001) (42, -4.99829177217680500000e-001) (43, -4.04561264704896730000e-001) (44, 2.43727199468777800000e-001) (45, 7.77452587721860880000e-001) (46, 5.28402767810986270000e-001) (47, 7.90733478559058400000e-001) (48, 1.33134883833494160000e-003) (49, 9.18891944192365750000e-001) (50, -4.48791229642207300000e-001) (51, 7.64901506915704240000e-001) (52, 8.97260512859288980000e-001) (53, 8.64220371531200130000e-001) (54, -4.82416793925342150000e-001) (55, -3.67974439900352170000e-001) (56, 2.38788792624570290000e+000) (57, -2.20243363220022390000e-001) (58, 9.19403084108001420000e-002) (59, 1.80165315247626710000e+000) (60, 1.96702154990923780000e+000) (0, 1.65416404393681300000e+000) (1, 1.72704046788339480000e+000) (2, 1.88215416678349000000e+000) (3, 2.22435923681541370000e+000) (4, 2.25162507129197960000e+000) (5, 1.96934905247001460000e+000) (6, 1.82674295478272700000e+000) (7, 9.28164082620693280000e-001) (8, 1.12458915550051670000e+000) (9, 9.50524080796120830000e-001) (10, 1.31092458843287130000e+000) (11, 2.05073212287742110000e+000) (12, 2.30678498527913380000e+000) (13, 2.07951343478201520000e+000) (14, 2.36169360125267900000e+000) (15, 2.00093805401670410000e+000) (16, 2.13502279297744880000e+000) (17, 2.34965071293051460000e+000) (18, 1.30703453571637400000e+000) (19, 1.17367049102052800000e+000) (20, 8.94381786957777060000e-002) (21, 5.30312710130438570000e-001) (22, 1.02929171174656810000e+000) (23, 4.78102070370826360000e-001) (24, -1.75243145981211130000e+000) (25, -8.53789763146674760000e-001) (26, -8.90338388027419380000e-001) (27, 1.37354478965527930000e+000) (28, 1.76538948682048250000e+000) (29, 1.42863673808802050000e+000) (30, 1.93465091750823380000e+000) (31, 1.44784256690402140000e+000) (32, 9.70382148906988930000e-001) (33, 7.79504058870632230000e-001) (34, -5.31410509197640430000e-001) (35, 1.71989113586073740000e+000) (36, 2.14350410093674930000e+000) (37, 2.33505601181013530000e+000) (38, 9.58633966770772730000e-001) (39, 1.49320766622031090000e+000) (40, 8.81988072620057410000e-001) (41, 1.32131982491182140000e+000) (42, 2.53558630163427430000e+000) (43, 1.48183643110450800000e+000) (44, 2.54036648892860880000e+000) (45, -3.69232507260998650000e-001) (46, 8.26382862073322900000e-001) (47, 1.47583890986371370000e+000) (48, 1.16544710406983090000e+000) (49, 1.61810277898393550000e+000) (50, 9.45970919895657850000e-001) (51, 1.51651555698253660000e+000) (52, 1.50974272919433950000e+000) (53, 1.90250591520302210000e+000) (54, 1.48793040793452390000e+000) (55, 1.79953994480956330000e+000) (56, 1.36745021145761370000e+000) (57, 3.17379075456003800000e-001) (58, 1.63124846921668090000e+000) (59, 1.18007946521111130000e+000) (60, 1.28410662883764730000e+000) (61, 1.34921479351574320000e+000) (0, 3.54399068991726850000e-001) (1, 2.95137506405255880000e-001) (2, 1.14880219047500250000e+000) (3, 1.02238286211461480000e-001) (4, 1.34906974523055800000e+000) (5, 4.29791287127777090000e-001) (6, 2.00617189091466780000e-001) (7, 4.56296208486849100000e-001) (8, 1.39109269474111730000e+000) (9, -1.49103792728608210000e-001) (10, -3.16929592349147800000e-001) (11, -5.92008017461797330000e-002) (12, 7.19297560464659870000e-001) (13, 3.65880719133941880000e-001) (14, 1.91351050355836020000e-001) (15, 4.60629853026516050000e-001) (16, 1.68271768116018140000e+000) (17, 1.76630848584274580000e+000) (18, 1.18146936705000230000e+000) (19, 2.46658156633719510000e-001) (20, 7.55382642878417720000e-002) (21, 1.45717114284503360000e+000) (22, 6.89245192229648310000e-001) (23, 1.02491910041547760000e+000) (24, -5.10449608726975090000e-001) (25, -9.56434442704423350000e-001) (26, -6.82973193780532370000e-002) (27, 9.15829080971025780000e-001) (28, 9.18271982480668100000e-001) (29, 7.36462498382313150000e-001) (30, 4.71901766729105830000e-001) (31, 1.42936803507169350000e+000) (32, -2.83434199739174330000e-001) (33, 7.10334524286194590000e-001) (34, -3.89087650272631480000e-001) (35, 2.88442566139853750000e-001) (36, 2.47850102948909080000e-001) (37, 1.23859921640304770000e+000) (38, 5.69088406778421320000e-001) (39, 1.15881556821278030000e+000) (40, 7.27413134028568000000e-001) (41, 1.46954516417627420000e+000) (42, -2.61131776778889210000e-001) (43, -2.97973449587694280000e-001) (44, 7.41268122093417750000e-001) (45, -1.14254788316975310000e+000) (46, 1.74008680713213200000e+000) (47, 4.99129204670502480000e-001) (48, 1.13262419505087450000e-001) (49, 1.38691905353498850000e+000) (50, 1.53322644081600970000e+000) (51, 8.69489738911754520000e-001) (52, -1.53451823359524120000e+000) (53, 6.99866988803854780000e-001) (54, 2.92249041974905030000e-001) (55, -1.01755963552078080000e+000) (56, 1.78145454622633030000e+000) (57, 4.51641070387673520000e-002) (58, 1.96673180472503020000e+000) (59, 1.05825094150795170000e+000) (60, 1.06640460384338140000e+000) (61, 8.10980236572775630000e-001) (62, 9.64254029781570150000e-001) (0, -4.08607659111519880000e+000) (1, -2.89868307433287950000e+000) (2, -3.63015383331592910000e+000) (3, -3.10676410042150050000e+000) (4, -2.54916753824589650000e+000) (5, -2.98432637199810810000e+000) (6, -2.40356762099189320000e+000) (7, -3.69717902279306450000e+000) (8, -2.51461374698208710000e+000) (9, -3.75107686819181650000e+000) (10, -2.71755097094363410000e+000) (11, -3.42504626604598660000e+000) (12, -4.26449486856516290000e+000) (13, -3.47057471215173900000e+000) (14, -3.50512850341554930000e+000) (15, -1.12595764426212060000e+001) (16, -2.79931302168204740000e+000) (17, -3.22402662589091450000e+000) (18, -1.77669028001077510000e+001) (19, -1.94223493855614810000e+000) (20, -2.80818013486940290000e+000) (21, -9.13035817018286090000e+000) (22, -2.80442266912847950000e+001) (23, -3.68047200878144350000e+000) (24, -4.39807404619767000000e+000) (25, -8.74616583555158300000e+000) (26, -3.04550101654631520000e+000) (27, -5.53353689437603440000e+000) (28, -3.39831120748947810000e+000) (29, -3.69550670395636290000e+000) (30, -2.97571170773533610000e+000) (31, -2.71202664306786460000e+000) (32, -2.87135547824662750000e+000) (33, -1.10616564857471040000e+001) (34, -2.18161963129322390000e+000) (35, -3.45882185299641560000e+000) (36, -3.04586079736553470000e+000) (37, -3.31055349479218910000e+000) (38, -2.40628144693117460000e+000) (39, -4.20264488204200590000e+000) (40, -4.27055364275518650000e+000) (41, -3.35649919906653430000e+000) (42, -3.64201893277139190000e+000) (43, -4.27131098952893940000e+000) (44, -4.20359156550919710000e+000) (45, -1.07972846412402020000e+001) (46, -2.88202144531031480000e+000) (47, -2.50776591461406890000e+000) (48, -4.68399562627862220000e+000) (49, -3.65117020628757330000e+000) (50, -1.94736101344113250000e+000) (51, -2.45279516128583450000e+000) (52, -1.49914636562756930000e+002) (53, -3.55249438817934890000e+000) (54, -1.84676011699428240000e+000) (55, -4.03180007232957130000e+000) (56, -2.15936669418791280000e+000) (57, 2.58975425020582110000e+000) (58, 1.35087871439962510000e-001) (59, -8.98652943094430780000e-001) (60, -4.60643824851906690000e-001) (61, 2.35576945320143020000e+000) (62, -6.07364415762505330000e-001) (63, -3.64776345741013360000e-001) (0, 1.13810109730872040000e+000) (1, 1.46767276958740990000e+000) (2, 8.23651914376248520000e-001) (3, 2.59954785281621660000e+000) (4, 1.73098574506061450000e+000) (5, 2.55306077605150740000e+000) (6, 9.77877798621782480000e-001) (7, 6.00059160504904600000e-001) (8, 1.00100738681751110000e+000) (9, 2.41225098150204210000e+000) (10, 1.39576592838370830000e+000) (11, 6.40017153721433200000e-001) (12, 2.32726550039257200000e+000) (13, 1.17333823708792710000e+000) (14, 2.48711914343181340000e+000) (15, 4.19727635539143770000e-001) (16, 1.06077790460288690000e+000) (17, 7.20751039363176860000e-001) (18, 1.17286046315853420000e+000) (19, 1.32574134372690940000e+000) (20, 1.75365888898755110000e+000) (21, 2.01288389013541740000e+000) (22, 7.40382572085586890000e-001) (23, 1.71378233577810430000e+000) (24, -1.61144948170003350000e+000) (25, -6.80024611844227240000e-001) (26, 5.62835280429955790000e-001) (27, 2.18735570194870730000e+000) (28, 1.26490632323858910000e+000) (29, 2.03509685040284440000e+000) (30, 1.79132794166213280000e+000) (31, 2.13129780579310250000e+000) (32, 1.30282370020319220000e+000) (33, 8.44338874862128440000e-001) (34, 2.26714030495199170000e-001) (35, 6.59710541167661920000e-001) (36, 1.40729476455512530000e+000) (37, 2.58430864080179520000e+000) (38, 7.80896497020479140000e-001) (39, 2.23508117318910800000e+000) (40, 1.50896407848955570000e+000) (41, 1.33836078382188430000e+000) (42, 8.30081319748797290000e-001) (43, 2.51615294665011600000e+000) (44, 2.29553215528780850000e+000) (45, -4.90226378605473110000e+000) (46, 1.32513439386043590000e+000) (47, 2.37720912205936720000e+000) (48, 2.12024710776965590000e+000) (49, 2.41838460625473450000e+000) (50, 6.56769982890772260000e-001) (51, 2.44209707308215360000e+000) (52, -2.66411674344242040000e+000) (53, 1.12902792859618750000e+000) (54, 1.99676579984554190000e+000) (55, 7.55928837057248670000e-002) (56, 1.84795929988220680000e+000) (57, -6.24718536011284460000e-002) (58, 1.30858697897692240000e+000) (59, 1.29991957616030820000e+000) (60, 1.54327837076877160000e+000) (61, 1.53607024542556990000e+000) (62, 1.17512818716091230000e+000) (63, 5.46027478475688220000e-001) (64, 1.34037605006073930000e+000) (0, -8.63047684231077360000e-001) (1, -3.88672536443863510000e-001) (2, -1.05649697002920170000e+000) (3, -1.48412830801334270000e-001) (4, 1.51385955021222510000e-002) (5, -6.79416551444973370000e-001) (6, -1.56862449972069930000e+000) (7, -1.02254516348440980000e+000) (8, -5.59766929060148350000e-001) (9, -8.25865388630717570000e-001) (10, -1.20605287754387130000e-001) (11, -3.61371736778181960000e-001) (12, -1.15436178553611120000e+000) (13, -3.53775744575702210000e-001) (14, -1.61790529354877410000e+000) (15, -2.50209927897619870000e-001) (16, -1.62265601274813860000e+000) (17, -9.91887188917843550000e-001) (18, -6.05885101029433270000e-001) (19, 8.86035280613126420000e-001) (20, -3.40328815134458900000e-001) (21, -1.72125381320231960000e+000) (22, -5.87030485575082310000e-001) (23, -1.28966226833401330000e+000) (24, -1.22462593338349770000e+000) (25, -9.07404576711261960000e-001) (26, -2.62294485944324090000e-001) (27, -2.41522256255045750000e-001) (28, -9.64269674638871030000e-001) (29, -6.65789332434510860000e-002) (30, -1.53340583472274350000e+000) (31, -1.37745555913827020000e+000) (32, -9.06057528715990990000e-001) (33, -3.61883500544015690000e-001) (34, 7.20153815326770170000e-002) (35, 5.41259752584577260000e-001) (36, -5.67426264185286630000e-001) (37, -5.43485906539164160000e-002) (38, -1.34058997815120140000e+000) (39, -7.01209783958066520000e-002) (40, 3.11643549346453070000e-002) (41, -1.49191622038162650000e+000) (42, -9.52487891024446980000e-001) (43, -1.66731277322216530000e+000) (44, -8.47718696947794450000e-001) (45, 3.70850743922696100000e+000) (46, -1.95349936491055920000e-001) (47, -3.84681932316397300000e-001) (48, -7.27113772206593350000e-001) (49, -4.92301557912668660000e-001) (50, -7.23571727054237670000e-001) (51, -1.10235724603373410000e+000) (52, -9.47388372577546710000e-001) (53, -6.99306229159646240000e-001) (54, -3.39138370925155920000e-001) (55, -2.17912358830037080000e+000) (56, 7.18857372162516880000e-002) (57, 5.60567756310936110000e-002) (58, 2.55016895700480470000e-001) (59, 4.22280437742256380000e-001) (60, 1.71282914398029760000e+000) (61, 1.80347766801171620000e+000) (62, -4.65192134923183730000e-001) (63, 1.99117163851362200000e+000) (64, 1.37759063575163410000e+000) (65, 1.35523929063125560000e+000) (0, 1.69365793344800530000e+000) (1, 3.50807021564574170000e+000) (2, 1.58326675295134240000e+000) (3, 2.19340007642054190000e+000) (4, 2.80048812594500560000e+000) (5, 2.68781298998979110000e+000) (6, 3.05978051369779940000e+000) (7, 1.95504394703780470000e+000) (8, 1.77924281993651000000e+000) (9, 3.39634672779825710000e+000) (10, 1.58840565273308370000e+000) (11, 2.85073514603314180000e+000) (12, 1.83913320751630870000e+000) (13, 1.76839403150838970000e+000) (14, 2.91145029530630640000e+000) (15, 2.09753739036855440000e+000) (16, 2.30011155090064930000e+000) (17, 3.02469642012615880000e+000) (18, 2.51522700139488760000e+000) (19, 3.10120892798763890000e+000) (20, 1.66726555926029740000e+000) (21, 3.15234415297632250000e+000) (22, 2.88689777412687620000e+000) (23, 2.85530305695024510000e+000) (24, 2.43188309221764330000e+000) (25, 2.82770526182607940000e+000) (26, 2.19587436150063950000e+000) (27, 3.43028884364062180000e+000) (28, 1.81083753711314110000e+000) (29, 3.23488376552009170000e+000) (30, 1.85480367969026030000e+000) (31, 1.88151326991387810000e+000) (32, 3.57157686603491390000e+000) (33, 3.07297670079165330000e+000) (34, 1.74733088672396900000e+000) (35, 3.33823275001955410000e+000) (36, 1.89356747927845630000e+000) (37, 2.53586650878892520000e+000) (38, 2.16161502962236480000e+000) (39, 3.28639964975186770000e+000) (40, 3.59593905759279810000e+000) (41, 2.37453043292512420000e+000) (42, 2.70576741762229430000e+000) (43, 2.51721420587742010000e+000) (44, 2.26210906979863720000e+000) (45, 1.74498348805823530000e+000) (46, 2.78595963150032990000e+000) (47, 2.83347859367964050000e+000) (48, 1.77480179543377070000e+000) (49, 1.66434717172992590000e+000) (50, 1.89401158172873020000e+000) (51, 3.32846249611352760000e+000) (52, 2.79243083863289290000e+000) (53, 3.22397153388478940000e+000) (54, 3.14726869640176330000e+000) (55, 3.43479331135054310000e+000) (56, 2.28538164055760970000e+000) (57, 4.30415570923127600000e-001) (58, 7.38300428445176740000e-001) (59, 2.52507007729116850000e+000) (60, 2.37629575644940160000e+000) (61, 2.05747969679440330000e+000) (62, 2.05925144518139320000e+000) (63, 3.88814738359622590000e+000) (64, 2.03317628702959530000e+000) (65, -8.51239306377243880000e-002) (66, 1.53406711278503800000e+000) (0, 1.44567092785473280000e+000) (1, 3.20288296401685500000e+000) (2, 1.49348376347509700000e+000) (3, 1.44268020515391760000e+000) (4, 2.79235345065839850000e+000) (5, 1.87570864165892750000e+000) (6, 1.45066381595250340000e+000) (7, 1.87835863336910600000e+000) (8, -2.67465936398677420000e+000) (9, 1.51772079394894790000e+000) (10, 3.24151095865637680000e+000) (11, -1.23873681123186310000e+001) (12, 1.38087776457816160000e+000) (13, -8.98931940049335940000e+000) (14, 1.42357009744727980000e+000) (15, -9.94594692960541240000e+000) (16, -1.71020728987667380000e+000) (17, 1.50345643384113940000e+000) (18, -5.92066199410794610000e+000) (19, 1.20049664288203730000e+002) (20, -2.04830167555743290000e+001) (21, -1.79160933595350760000e+001) (22, 5.11670107023624370000e-001) (23, 1.92840749142632080000e+001) (24, 1.91852764041057600000e+001) (25, 2.27023724858233070000e+001) (26, -1.99437732050181980000e+000) (27, 3.61204679596685140000e+000) (28, -1.68592069568063560000e+000) (29, -6.89399513456827420000e+000) (30, 2.72340452638749620000e-001) (31, 2.07018333079294830000e+001) (32, 1.53780960110270600000e+000) (33, -3.20382992621831650000e+000) (34, -8.93980209101552960000e+000) (35, -6.88411964613986790000e+000) (36, 1.54730456505833950000e+000) (37, 1.51179641712132940000e+000) (38, 2.77320780006916710000e+000) (39, 1.45073679195818040000e+000) (40, 1.41927932589896730000e+000) (41, 3.75339881108433150000e+000) (42, 1.90692703175757950000e+000) (43, 1.42449492334893790000e+000) (44, 2.00076311433795610000e+000) (45, 2.07018867448804840000e+000) (46, 1.51609243914507700000e+000) (47, 3.23872569266184440000e+000) (48, -1.63800042642821320000e+001) (49, 1.46423560425349990000e+000) (50, -8.78151400365918100000e+000) (51, 1.56636795113763360000e+000) (52, -2.47665807538379500000e+001) (53, 1.95922341225056250000e-001) (54, -3.05048393814789710000e-001) (55, 1.53010696426917780000e+000) (56, -5.36418393844186740000e+001) (57, 1.24111737649348970000e+001) (58, 8.66595997006333790000e+001) (59, -4.06285273752879800000e+001) (60, -7.08230228496507520000e-001) (61, -2.84344096844523410000e+001) (62, 1.54813246151106630000e+000) (63, -1.07516605050425880000e+002) (64, 2.41140393560279730000e+002) (65, 3.06165040395451450000e+000) (66, 2.38013108914507750000e+001) (67, 1.50000000000000000000e+003) 
