FANN_FLO_2.1
num_layers=64
learning_rate=0.700000
connection_rate=1.000000
network_type=1
learning_momentum=0.000000
training_algorithm=2
train_error_function=1
train_stop_function=0
cascade_output_change_fraction=0.010000
quickprop_decay=-0.000100
quickprop_mu=1.750000
rprop_increase_factor=1.200000
rprop_decrease_factor=0.500000
rprop_delta_min=0.000000
rprop_delta_max=50.000000
rprop_delta_zero=0.100000
cascade_output_stagnation_epochs=12
cascade_candidate_change_fraction=0.010000
cascade_candidate_stagnation_epochs=12
cascade_max_out_epochs=150
cascade_max_cand_epochs=150
cascade_num_candidate_groups=2
bit_fail_limit=3.49999999999999980000e-001
cascade_candidate_limit=1.00000000000000000000e+003
cascade_weight_multiplier=4.00000000000000020000e-001
cascade_activation_functions_count=10
cascade_activation_functions=3 5 7 8 10 11 14 15 16 17 
cascade_activation_steepnesses_count=4
cascade_activation_steepnesses=2.50000000000000000000e-001 5.00000000000000000000e-001 7.50000000000000000000e-001 1.00000000000000000000e+000 
layer_sizes=56 1 1 1 1 1 1 1 1 1 1 1 1 1 1 1 1 1 1 1 1 1 1 1 1 1 1 1 1 1 1 1 1 1 1 1 1 1 1 1 1 1 1 1 1 1 1 1 1 1 1 1 1 1 1 1 1 1 1 1 1 1 1 1 
scale_included=0
neurons (num_inputs, activation_function, activation_steepness)=(0, 0, 0.00000000000000000000e+000) (0, 0, 0.00000000000000000000e+000) (0, 0, 0.00000000000000000000e+000) (0, 0, 0.00000000000000000000e+000) (0, 0, 0.00000000000000000000e+000) (0, 0, 0.00000000000000000000e+000) (0, 0, 0.00000000000000000000e+000) (0, 0, 0.00000000000000000000e+000) (0, 0, 0.00000000000000000000e+000) (0, 0, 0.00000000000000000000e+000) (0, 0, 0.00000000000000000000e+000) (0, 0, 0.00000000000000000000e+000) (0, 0, 0.00000000000000000000e+000) (0, 0, 0.00000000000000000000e+000) (0, 0, 0.00000000000000000000e+000) (0, 0, 0.00000000000000000000e+000) (0, 0, 0.00000000000000000000e+000) (0, 0, 0.00000000000000000000e+000) (0, 0, 0.00000000000000000000e+000) (0, 0, 0.00000000000000000000e+000) (0, 0, 0.00000000000000000000e+000) (0, 0, 0.00000000000000000000e+000) (0, 0, 0.00000000000000000000e+000) (0, 0, 0.00000000000000000000e+000) (0, 0, 0.00000000000000000000e+000) (0, 0, 0.00000000000000000000e+000) (0, 0, 0.00000000000000000000e+000) (0, 0, 0.00000000000000000000e+000) (0, 0, 0.00000000000000000000e+000) (0, 0, 0.00000000000000000000e+000) (0, 0, 0.00000000000000000000e+000) (0, 0, 0.00000000000000000000e+000) (0, 0, 0.00000000000000000000e+000) (0, 0, 0.00000000000000000000e+000) (0, 0, 0.00000000000000000000e+000) (0, 0, 0.00000000000000000000e+000) (0, 0, 0.00000000000000000000e+000) (0, 0, 0.00000000000000000000e+000) (0, 0, 0.00000000000000000000e+000) (0, 0, 0.00000000000000000000e+000) (0, 0, 0.00000000000000000000e+000) (0, 0, 0.00000000000000000000e+000) (0, 0, 0.00000000000000000000e+000) (0, 0, 0.00000000000000000000e+000) (0, 0, 0.00000000000000000000e+000) (0, 0, 0.00000000000000000000e+000) (0, 0, 0.00000000000000000000e+000) (0, 0, 0.00000000000000000000e+000) (0, 0, 0.00000000000000000000e+000) (0, 0, 0.00000000000000000000e+000) (0, 0, 0.00000000000000000000e+000) (0, 0, 0.00000000000000000000e+000) (0, 0, 0.00000000000000000000e+000) (0, 0, 0.00000000000000000000e+000) (0, 0, 0.00000000000000000000e+000) (0, 0, 0.00000000000000000000e+000) (56, 14, 2.50000000000000000000e-001) (57, 15, 1.00000000000000000000e+000) (58, 3, 2.50000000000000000000e-001) (59, 14, 7.50000000000000000000e-001) (60, 15, 5.00000000000000000000e-001) (61, 15, 7.50000000000000000000e-001) (62, 14, 1.00000000000000000000e+000) (63, 3, 7.50000000000000000000e-001) (64, 5, 5.00000000000000000000e-001) (65, 5, 2.50000000000000000000e-001) (66, 5, 2.50000000000000000000e-001) (67, 5, 5.00000000000000000000e-001) (68, 5, 2.50000000000000000000e-001) (69, 5, 2.50000000000000000000e-001) (70, 5, 2.50000000000000000000e-001) (71, 5, 2.50000000000000000000e-001) (72, 5, 2.50000000000000000000e-001) (73, 5, 2.50000000000000000000e-001) (74, 5, 2.50000000000000000000e-001) (75, 5, 2.50000000000000000000e-001) (76, 5, 5.00000000000000000000e-001) (77, 5, 2.50000000000000000000e-001) (78, 5, 2.50000000000000000000e-001) (79, 5, 2.50000000000000000000e-001) (80, 5, 5.00000000000000000000e-001) (81, 5, 5.00000000000000000000e-001) (82, 5, 2.50000000000000000000e-001) (83, 5, 2.50000000000000000000e-001) (84, 5, 2.50000000000000000000e-001) (85, 5, 2.50000000000000000000e-001) (86, 5, 2.50000000000000000000e-001) (87, 5, 2.50000000000000000000e-001) (88, 5, 2.50000000000000000000e-001) (89, 5, 2.50000000000000000000e-001) (90, 5, 2.50000000000000000000e-001) (91, 5, 5.00000000000000000000e-001) (92, 5, 2.50000000000000000000e-001) (93, 11, 2.50000000000000000000e-001) (94, 11, 5.00000000000000000000e-001) (95, 5, 2.50000000000000000000e-001) (96, 16, 2.50000000000000000000e-001) (97, 3, 7.50000000000000000000e-001) (98, 5, 2.50000000000000000000e-001) (99, 10, 1.00000000000000000000e+000) (100, 10, 2.50000000000000000000e-001) (101, 10, 5.00000000000000000000e-001) (102, 5, 2.50000000000000000000e-001) (103, 5, 2.50000000000000000000e-001) (104, 5, 2.50000000000000000000e-001) (105, 5, 2.50000000000000000000e-001) (106, 5, 2.50000000000000000000e-001) (107, 5, 2.50000000000000000000e-001) (108, 5, 2.50000000000000000000e-001) (109, 5, 2.50000000000000000000e-001) (110, 5, 2.50000000000000000000e-001) (111, 5, 2.50000000000000000000e-001) (112, 11, 5.00000000000000000000e-001) (113, 5, 2.50000000000000000000e-001) (114, 5, 2.50000000000000000000e-001) (115, 5, 2.50000000000000000000e-001) (116, 5, 2.50000000000000000000e-001) (117, 5, 2.50000000000000000000e-001) (118, 11, 5.00000000000000000000e-001) 
connections (connected_to_neuron, weight)=(0, 4.92227761808002740000e+000) (1, 1.07970573278557100000e+000) (2, 6.88189379937596660000e-001) (3, 1.81335369530546050000e+000) (4, -3.42541273291950110000e-001) (5, 4.63268080204789710000e+000) (6, 1.04809694004890240000e+000) (7, 6.81059599161124570000e-001) (8, -3.41988379914044010000e+000) (9, 7.91055120624719170000e-001) (10, 9.74004277558339290000e-001) (11, 5.60203480032584470000e-001) (12, 4.95380591186368500000e+000) (13, 1.67140572476221450000e+000) (14, 1.97156508521123250000e+000) (15, 2.85410318374662440000e+000) (16, 1.95032351035695810000e+000) (17, -2.92461676961640870000e+000) (18, 7.89159736187733960000e+000) (19, 2.34356693710438570000e+000) (20, -1.31635621399184630000e+000) (21, -2.19628749999962470000e+000) (22, 4.97958331527773620000e+000) (23, 3.22800287120124600000e-001) (24, 1.05106661864235780000e+001) (25, 3.69762733063387830000e+000) (26, 5.54557055344239740000e+000) (27, 5.60090623582244710000e+000) (28, -1.57063930251291330000e+000) (29, -2.00018444083958170000e+000) (30, -4.07759995405075770000e+000) (31, 1.56008486300563080000e+000) (32, 2.19908870917691070000e+000) (33, 1.88608008495330700000e+000) (34, -4.15806629107308150000e-001) (35, -6.68501325353511880000e+000) (36, 4.37010689699155460000e+000) (37, 1.18617331384910310000e+000) (38, -4.82781238454390580000e+000) (39, 1.42358127054351340000e+000) (40, 2.22777172467151810000e+000) (41, 5.80385110174754140000e-001) (42, 2.62086776274410790000e+000) (43, 1.03375955398996310000e-001) (44, -8.34993464041469820000e-002) (45, -4.35077687714750640000e-001) (46, 1.69964662387733600000e+000) (47, 1.17604783368328070000e+000) (48, 1.79613425889880430000e+000) (49, 3.35476527705836740000e+000) (50, 1.51507419422289560000e+000) (51, 5.36989826107790780000e-001) (52, -2.43873486727947060000e+000) (53, 1.87301390224942320000e+000) (54, -1.54638363345964420000e-001) (55, 1.14958141707296010000e+000) (0, 1.37975758511328010000e-001) (1, 2.11606500550853840000e+000) (2, 6.90785271705497080000e-001) (3, 2.63026996766342840000e-001) (4, 1.52663030268173920000e+000) (5, 1.80269435640055440000e+000) (6, 1.25990210795611350000e+000) (7, 1.48922682012318150000e+000) (8, 9.75203852437423020000e-001) (9, 7.31135096471571600000e-001) (10, 1.20859555430377520000e+000) (11, 4.91591404741395800000e+000) (12, 4.85468341525184420000e-001) (13, 1.62057839590428500000e+000) (14, 3.91557485144943980000e-001) (15, 9.04164580007731480000e-001) (16, 2.13393426473868870000e+000) (17, 2.31544968460675720000e+000) (18, -4.13355593482753580000e-001) (19, -6.63672170614108550000e-001) (20, -3.29085522653033720000e+000) (21, -1.82192256069103120000e-002) (22, 1.47399385983107360000e+000) (23, -5.79860995623285860000e-001) (24, 2.36952000489376950000e-001) (25, 6.29292012917516130000e-001) (26, 5.46210624699956520000e-001) (27, 2.43717825355954920000e+000) (28, 1.49044462436564500000e-001) (29, -6.28102003531647050000e-004) (30, 2.72632511152654630000e+000) (31, 2.14720181319711220000e+000) (32, 6.96149564627916330000e-001) (33, 8.33028111220502690000e-001) (34, 1.22562731279331510000e-001) (35, -1.36895926109156680000e-001) (36, 2.03832335014574940000e+000) (37, 5.13776826017337980000e-001) (38, 1.23292920577682220000e+000) (39, 7.62333852359923790000e-001) (40, 8.87379350012992290000e-001) (41, 8.42923729459947530000e-001) (42, 3.23799298539536540000e-001) (43, 8.88403236179466370000e-001) (44, 1.93121283797891110000e+000) (45, 8.39922504937654300000e-001) (46, 1.88816529354814030000e+000) (47, 1.00038699167170340000e+000) (48, -1.28449617550976350000e+000) (49, 1.77056921420736300000e+000) (50, 2.48240203369945210000e+000) (51, 1.51375822314329930000e+000) (52, 3.01415165474257480000e+000) (53, 8.24227820081351430000e-001) (54, -2.24066490974683760000e+000) (55, 1.34899601563265100000e+000) (56, 1.23695737777907190000e+000) (0, -2.25226830546783830000e-001) (1, -3.99584679239315730000e-001) (2, 5.93798553874956840000e-001) (3, -1.45622021543079680000e+000) (4, 1.32122732215372070000e+000) (5, 5.37298262907936470000e-001) (6, 1.37372376400783190000e+000) (7, -3.89650094112926450000e-001) (8, -3.46614115840575510000e+000) (9, 1.09395643212589170000e+000) (10, 1.67558479687010100000e+000) (11, -9.20095694087592840000e-001) (12, 8.31449697029690740000e-001) (13, 1.39139894931100930000e+000) (14, -1.92459319746252080000e+000) (15, -8.93146779559804140000e+002) (16, -2.03155145541915520000e+000) (17, -2.69652565798697230000e-001) (18, -1.67661982096707880000e-001) (19, -2.30599626908173090000e-001) (20, -8.72936316972067950000e+000) (21, -8.53436559006629620000e-001) (22, 4.60309570609129080000e-001) (23, -3.01470365086210590000e+000) (24, 9.33653023254994220000e-001) (25, -2.11307973465523660000e+000) (26, 1.21116711370185050000e+000) (27, -3.90980021864786930000e+000) (28, 6.39812930628651110000e-002) (29, -1.41410123739620960000e+000) (30, 1.51640901443222690000e+000) (31, -8.28638139764909410000e-001) (32, -1.93436772277767230000e+000) (33, -8.80137175590880120000e-001) (34, -2.80090137561423400000e+000) (35, -2.24831462287625740000e+000) (36, 4.40790291441883530000e-001) (37, -1.16895971864630450000e+000) (38, -6.56755742383513110000e-002) (39, -2.72113033695778660000e-001) (40, -1.88431967860072550000e+000) (41, 5.33078888514285200000e-001) (42, 1.01371357589516590000e+000) (43, 5.30923517232138380000e-001) (44, 4.01282223318798650000e-001) (45, -4.10243573949437110000e-001) (46, 4.15555932090927780000e-001) (47, 9.80727402314517160000e-001) (48, -1.54863858163480920000e-001) (49, 1.94811062495808000000e+000) (50, 5.23322118790714550000e-001) (51, -1.31114893781035140000e+000) (52, -8.94087732281598160000e+002) (53, 6.10311873762506700000e-002) (54, -1.55585388595433270000e+000) (55, -3.18105274904940800000e+000) (56, -2.27286954817381480000e+000) (57, 4.40068102289622940000e+000) (0, -1.34376717736172390000e+000) (1, 8.29537737914056050000e-001) (2, 1.48579236998050730000e+000) (3, 1.05033006566258670000e+000) (4, 1.10325335059172700000e+000) (5, 1.57590944518278440000e+000) (6, 1.15104367030196290000e+000) (7, 7.58483669149574320000e-001) (8, 7.33472894649887070000e-001) (9, 1.18764841952953850000e+000) (10, -6.41630045097696720000e-001) (11, -8.44041289801756970000e-001) (12, 6.30180921924402670000e-001) (13, 1.29680078534928840000e+000) (14, 1.49130885547378390000e+000) (15, 3.95928552683029360000e+000) (16, 1.36038549961463300000e+000) (17, 1.27905170884345210000e+000) (18, 1.94671568335475010000e+000) (19, 1.28741605231211190000e+000) (20, 2.14031149049393530000e+000) (21, 3.59058023075577280000e+000) (22, 1.79369125785142750000e+000) (23, 7.55096164522653600000e-001) (24, 1.78364528162289380000e+000) (25, 2.10557507994705550000e-001) (26, 3.79200266464948000000e+000) (27, 2.49397344402859170000e+000) (28, -2.25147441529259410000e+000) (29, 4.85838949860115840000e+000) (30, 2.21867224907610660000e-001) (31, 6.20019392030645910000e+000) (32, 1.20735607670098370000e+000) (33, 2.76913762003572650000e+000) (34, -1.40326149493575230000e+000) (35, 6.00153885896068840000e+000) (36, 1.33387172836637210000e+000) (37, 1.09123399476268150000e+000) (38, 6.34713581684225310000e-001) (39, 2.24970707448341710000e+000) (40, 6.73218885093541440000e-001) (41, 2.91363449560417710000e-001) (42, 4.82677644957371640000e-001) (43, 1.16018973972276180000e+000) (44, 6.50891608355005920000e-001) (45, 8.15191628730278840000e-001) (46, 8.93264268928085080000e-001) (47, -4.96585193996688860000e-002) (48, 1.16847997219443210000e+000) (49, 4.18631260461082680000e-001) (50, 1.24594645307186450000e+000) (51, 1.40816280527246240000e+000) (52, 1.08191294053668980000e+000) (53, 2.67565573480552390000e+000) (54, 1.94400968490922010000e+000) (55, -2.03036479961270230000e+000) (56, 1.59610181429314420000e+000) (57, 9.39848749857949690000e-002) (58, 5.17031330189183350000e+000) (0, 2.46636296041934290000e+000) (1, 4.94456765609405600000e-001) (2, 1.30553104037794920000e+000) (3, 2.01723023998348740000e+000) (4, 6.43602491503162620000e-001) (5, 1.48733801379879900000e+000) (6, 1.05625142341799220000e-001) (7, 9.07044717682453760000e-001) (8, -1.19070275110070110000e+000) (9, 2.06870975262900240000e+000) (10, 4.62119579854524880000e-002) (11, 1.38762515934412490000e+000) (12, -3.28071378056633890000e-001) (13, 2.21807125243828730000e+000) (14, 9.25318581222395080000e-001) (15, 5.01686872942972650000e-001) (16, 1.34187280162007050000e+000) (17, 3.35087869244879930000e-001) (18, -7.12608680042480510000e-002) (19, 2.14090126393075010000e+000) (20, 3.69231802751829010000e+000) (21, -4.27934407046990730000e+000) (22, 2.03562114044272850000e+000) (23, 8.54407432424093670000e-001) (24, 6.18490214456361320000e-001) (25, 6.84857939352998370000e+000) (26, 2.45737778237790170000e-001) (27, -5.27727197288808350000e-001) (28, 4.69157820678008970000e+000) (29, -1.59233543005986220000e+000) (30, 5.37211455085676890000e+000) (31, 1.93320633390694050000e-001) (32, 1.98557248216385540000e+000) (33, -1.37029704863757670000e+000) (34, 2.90349719571189980000e+000) (35, -6.46197093773720700000e-001) (36, 4.47689754041711630000e-001) (37, 1.20278171385353590000e+000) (38, 1.12946159812564640000e+000) (39, 8.83454703730707560000e-001) (40, 6.75990322891460990000e-001) (41, 3.31197692636195920000e-001) (42, 7.26659829272007120000e-001) (43, 8.78114059403986350000e-001) (44, 5.61331168241400170000e-001) (45, 8.88096037774387110000e-003) (46, 1.32788415666309790000e+000) (47, 4.01844193155776960000e-001) (48, -5.78878145126753080000e-002) (49, 6.93547104050344140000e-001) (50, 2.29148325384059340000e+000) (51, 1.59187985286845520000e+000) (52, -1.74748195671701770000e+000) (53, 5.50146891547419800000e-001) (54, 3.69096070461562810000e+000) (55, -1.14504882711188240000e+000) (56, -8.68425917671867280000e-001) (57, -1.04922526931417380000e-001) (58, -6.61152198055440120000e-001) (59, 2.16013438386998890000e+000) (0, 2.66547182310219010000e+000) (1, 2.05966320225082940000e+000) (2, 2.21677229757364550000e+000) (3, 6.29652922802903970000e-001) (4, 1.75831110988923340000e+000) (5, 2.97371654910867810000e-001) (6, 2.69340615319496430000e-001) (7, 3.95790735601430580000e-001) (8, 1.83987956918793130000e+000) (9, 9.71248224688755270000e-001) (10, 1.44738921538527340000e+000) (11, 2.12608474988813520000e+000) (12, 8.23631049852441840000e-001) (13, -4.02197112943251890000e-001) (14, 6.32722707760819510000e-001) (15, 1.80323025022984230000e+000) (16, 1.79796186151104420000e+000) (17, 9.90523648061349960000e-001) (18, 2.75390883180155700000e-001) (19, 2.18834599993184130000e+000) (20, 1.21614376444194040000e+000) (21, -2.31252495314924020000e+000) (22, 1.41990789309293870000e+000) (23, -7.34156038164832660000e-002) (24, 6.82198210692305660000e-002) (25, -3.00768483337633060000e-001) (26, -8.80477881832535280000e-001) (27, -5.24771677271650190000e-001) (28, 1.74890410200732570000e+000) (29, 1.06346153954523090000e+000) (30, 1.16235640907968900000e+000) (31, 3.69745617034674590000e+000) (32, 1.33676849055785940000e+000) (33, -6.11746662451812750000e-001) (34, 1.39314431343334680000e+000) (35, 1.46524051412304220000e+000) (36, 1.11518742716861310000e+000) (37, 1.97588427844806520000e+000) (38, 1.90071007351883110000e+000) (39, 1.17531679722381190000e+000) (40, 2.78444464148321520000e-001) (41, 2.20879610470877720000e+000) (42, 1.98014727096985040000e+000) (43, 1.93887026297748260000e+000) (44, 4.04994558856241080000e-001) (45, 3.24959329736222680000e+000) (46, 7.32308955348365930000e-001) (47, 1.46133563563947440000e+000) (48, 9.83998708728718310000e-001) (49, 6.02856653279372430000e-001) (50, 6.36831122302242810000e-001) (51, 6.84721106027552210000e-001) (52, 1.37739823268701090000e+000) (53, -1.47217206806241880000e-002) (54, -6.71703227511727730000e-001) (55, 1.67206418636936950000e+000) (56, 7.18685693776630270000e-001) (57, 3.64635071099531420000e-001) (58, 1.79540936752064670000e-001) (59, 2.61663141492155530000e+000) (60, 4.27634592166214400000e+000) (0, 9.67335054767046290000e-001) (1, 2.64180515899387740000e+000) (2, 2.87587500409618760000e+000) (3, 1.23952210407822180000e+000) (4, 1.20631376111082990000e+000) (5, 2.27542269989194600000e+000) (6, 1.70382579325621090000e+000) (7, 2.18170014343192520000e+000) (8, 1.67034346715264040000e-001) (9, 1.76377752491730510000e+000) (10, 1.88473475546772670000e+000) (11, 2.17027590315876000000e+000) (12, 2.98105921115626460000e+000) (13, 2.40802200921320430000e+000) (14, 2.93383613633284580000e+000) (15, 3.21332283982675150000e+000) (16, 6.04202487564030170000e-001) (17, 3.60129009572841730000e+000) (18, -9.42281462824865910000e-001) (19, 8.28792163649576860000e-001) (20, 4.31822259044423260000e+000) (21, 1.62538802225572420000e+000) (22, 3.68641962687419870000e+000) (23, 1.07690320150480030000e+000) (24, 1.93802086636950110000e+000) (25, 2.35035802706916290000e+000) (26, 2.31089773788554220000e+000) (27, 2.31947059075050530000e+000) (28, 3.15989696846047210000e+000) (29, 6.13170511564726020000e-001) (30, -1.76786311539174810000e+000) (31, 1.37595809294128290000e+000) (32, 1.78634658169119390000e+000) (33, 6.43382599975136690000e-001) (34, 2.28298823302522490000e+000) (35, 1.87134374262100400000e+000) (36, 1.44048504967636680000e+000) (37, 5.12030093342226780000e+000) (38, 2.19780583692674860000e+000) (39, 1.47197105662566390000e+000) (40, 1.60490941586556630000e+000) (41, 1.40743480153250760000e+000) (42, 1.81173037564056160000e+000) (43, 8.53542810158144150000e-001) (44, 1.35686202844435310000e+000) (45, 1.71908700912987530000e+000) (46, 1.90957712342110190000e+000) (47, 9.84534025662986640000e-001) (48, 8.72979164872623060000e-001) (49, 2.89116455171486740000e+000) (50, 1.34777729465963230000e+000) (51, 1.11073187210365920000e+000) (52, 4.36756697908605230000e+000) (53, 1.65952069117182700000e+000) (54, 7.13730856838729390000e-001) (55, -9.07568124196244550000e-001) (56, 1.19758402478346370000e+000) (57, 5.44868367358502860000e-001) (58, 5.04258924143359980000e+000) (59, 2.29204342740110830000e+000) (60, 2.97455843155662960000e+000) (61, -4.77087193820221810000e-002) (0, 4.54241945987458870000e-001) (1, -3.97140430929376230000e-001) (2, -3.10766909533974290000e-001) (3, -2.28014122134383430000e-001) (4, 1.05597898793575440000e+000) (5, 1.11622052618899880000e+000) (6, 9.64518239063172910000e-002) (7, -8.64340185496993150000e-002) (8, -8.02816758762697650000e-001) (9, 3.65113993756060300000e-001) (10, 2.86005935071542260000e-001) (11, 8.16752080515345650000e-001) (12, 3.65798070881381500000e-001) (13, -6.98698536579105190000e-001) (14, -7.46757470726053030000e-001) (15, 9.04031743926948290000e-001) (16, 6.24529582861892700000e-002) (17, -4.32347520604507980000e-001) (18, 8.24388612235429030000e-001) (19, -7.01818219586466000000e+000) (20, -3.59162727891257380000e+000) (21, -3.12766036083034830000e-001) (22, 5.97153810615373560000e-002) (23, -8.55926668541229900000e-001) (24, -2.10052777188072390000e-001) (25, -3.09034469952772370000e+000) (26, 2.86123672924500250000e-001) (27, -3.33431532341346730000e+000) (28, -7.11386303854932960000e-001) (29, 3.53125935695570360000e+000) (30, 7.93744932731272110000e-001) (31, -4.26572825781154020000e-001) (32, -1.21348163685605990000e+000) (33, 1.12815140641524060000e-001) (34, -7.86594203290444830000e-001) (35, 3.32236392326885490000e+000) (36, -6.33223625872188170000e-001) (37, -1.11332124632200100000e+000) (38, 9.30009957037675470000e-002) (39, 1.05080055392989660000e+000) (40, 1.64963721159536720000e-001) (41, -4.65487633240177890000e-001) (42, -5.75914357058491480000e-001) (43, -6.36414067505757910000e-001) (44, -6.17835788055163930000e-001) (45, -7.19398744750932130000e-001) (46, 6.61944627644715840000e-001) (47, -6.85102773837471650000e-001) (48, -2.14343232513279910000e-001) (49, 2.19439015141786880000e-001) (50, 1.02568068252839910000e+000) (51, -9.82355245046975360000e-001) (52, 1.69605203469465300000e+000) (53, 1.11766900221396040000e+000) (54, 3.70819533538591870000e-001) (55, -1.65476300672152440000e+000) (56, -1.17690657873857750000e+000) (57, -1.02646636810242320000e-001) (58, 1.31154958573616760000e+000) (59, -5.19038433831556790000e-001) (60, 1.76485269715532840000e+000) (61, 1.02593084429599800000e+000) (62, 1.23330929376995460000e+000) (0, 3.79195799642213730000e-001) (1, -2.17929658337056410000e-001) (2, 7.02117188440947060000e-001) (3, 3.58130888996982590000e-001) (4, 6.19455427222688870000e-001) (5, -5.07287831269211060000e-001) (6, 6.73281434199523130000e-001) (7, 1.57402307315324560000e-001) (8, 4.71468489862185540000e-001) (9, -5.07936805032434660000e-001) (10, 5.99389896876263540000e-001) (11, -1.05807018518750140000e+000) (12, -9.29711885518163860000e-001) (13, -1.53388837473042680000e-002) (14, -4.89340150832560330000e-001) (15, -3.95330234830301660000e-001) (16, 2.64062206584248060000e-001) (17, 1.00742296999465590000e-001) (18, 9.07940585510962020000e-001) (19, 6.21978867479282270000e-002) (20, 9.25974741663843750000e-001) (21, 6.29406515526004660000e-002) (22, -1.43764388295049200000e-001) (23, 3.01315612670824350000e-001) (24, 4.45399206930667260000e-001) (25, 1.88072268496575320000e-002) (26, 1.37671701701573080000e-001) (27, -2.17964927358291290000e-001) (28, -2.23418567224875250000e-002) (29, -6.94256495341012750000e-001) (30, -5.23384238808499160000e-001) (31, 2.98730493360918390000e-001) (32, -8.92086053664225140000e-002) (33, 2.76691169212634540000e-001) (34, 2.36647379889441380000e+000) (35, -7.25193761547492270000e-001) (36, 2.65458326883374620000e-001) (37, 7.94792498189799800000e-001) (38, -6.75650135182587760000e-001) (39, -6.38757012847171460000e-001) (40, 6.83158879399287320000e-001) (41, -5.04725844736502950000e-001) (42, 4.58377695261788900000e-001) (43, 8.35438260705381880000e-002) (44, -1.40788925929683890000e-001) (45, 5.02039821589851610000e-001) (46, 3.70797963015904240000e-002) (47, -2.38549159565048800000e-001) (48, 1.05517719566792480000e+000) (49, 3.55426448805566060000e-001) (50, -9.96039843526218880000e-001) (51, 4.21811130223375850000e-001) (52, 1.96719466555338840000e-001) (53, -3.76957405639680280000e-001) (54, 2.85309640717073210000e-001) (55, -2.31883750729508890000e+000) (56, 1.56637640992070360000e-001) (57, -4.17649609643584650000e-002) (58, -2.02365481989879870000e+000) (59, -9.51238513197938220000e-003) (60, 4.62241664730556400000e-002) (61, -6.65144255567469140000e-002) (62, 1.08725193068506380000e-001) (63, 4.60839581962033850000e+000) (0, -1.31369126696329410000e+000) (1, 3.41996335316455730000e-003) (2, 1.13169181096670650000e+000) (3, 1.56328168267506870000e-001) (4, -1.75200093947869260000e-001) (5, -8.29336819582241970000e-003) (6, -4.60270878523778070000e-001) (7, -3.92680303785550970000e-001) (8, 3.59869438511750460000e-001) (9, -4.01004579636206780000e-001) (10, -7.80223542424138830000e-001) (11, -1.49146463024817290000e+000) (12, -4.32987924994250180000e-002) (13, -6.72630985884371310000e-001) (14, 8.11803984622244350000e-001) (15, -3.16036406966993920000e-001) (16, 3.22336048145519250000e-001) (17, 1.22347924632547800000e+000) (18, -5.08554577365510460000e-001) (19, -9.33512628245077160000e-002) (20, 1.07331231363342080000e+000) (21, 8.56597200017223280000e-001) (22, -9.32640313866641370000e-001) (23, -3.40068394358517820000e-001) (24, -5.80543985169358230000e-001) (25, 3.52924244082833020000e-001) (26, -2.85646625608137750000e-001) (27, -3.44681142164873560000e-001) (28, -5.62561398457355200000e-002) (29, -1.65532875922816560000e+000) (30, 2.02812808711739680000e-001) (31, 3.82600785648786970000e-001) (32, -3.14759506037219530000e-001) (33, 1.00422903971883270000e+000) (34, 2.38006280480249810000e+000) (35, 1.77034447759310380000e-001) (36, 5.73831884106098980000e-001) (37, -1.01995971182802840000e+000) (38, -1.44762346847093580000e-001) (39, -2.35031543720859240000e-001) (40, -4.11696070427708890000e-001) (41, 3.67495174290009270000e-001) (42, -8.43607540500450840000e-001) (43, -2.65512484314576190000e-001) (44, 1.10965769034857040000e+000) (45, 1.48759171508241110000e-001) (46, 2.36648997343052610000e-001) (47, -3.61238856909038730000e-001) (48, 8.92178518671924440000e-001) (49, -1.60376530436154550000e-001) (50, -5.31515716104995070000e-002) (51, 1.00732117776992580000e+000) (52, -1.26882547415124590000e-001) (53, 1.29419136060477970000e-001) (54, 8.37990729207463540000e-001) (55, -6.40790116603014440000e-001) (56, 7.61345432198370230000e-002) (57, -1.76360606322882970000e-001) (58, -2.41591654791518270000e+000) (59, 1.22734701083080750000e-001) (60, 8.91953393826246250000e-002) (61, 3.74665375363955820000e-002) (62, 1.44643865605400460000e-001) (63, 6.07871495825244250000e+000) (64, 4.26178122684765180000e-001) (0, -6.04119119265546960000e-001) (1, -5.64411109156373380000e-001) (2, 2.70799588147849070000e-002) (3, 9.62099158946425840000e-001) (4, -4.26895239933010870000e-001) (5, -9.06670911995135050000e-001) (6, -3.33421705502976120000e-001) (7, 3.81079973955596230000e-001) (8, -9.53481067990075150000e-002) (9, 2.39723549172022570000e-001) (10, 3.63739264509668430000e-001) (11, 2.14055054657463270000e-001) (12, -1.10325645893936340000e-001) (13, -5.09290909720745310000e-001) (14, 1.27989060192258440000e+000) (15, -3.64263272322747430000e-002) (16, -4.18240385064909850000e-001) (17, -8.73858626993433640000e-001) (18, 5.60496478513168640000e-001) (19, 5.37138827911591360000e-002) (20, -7.26242178545730560000e-002) (21, -3.25254314740625120000e-002) (22, 2.40532675002699310000e-001) (23, -1.14676048193459400000e-001) (24, -5.21120520175887280000e-001) (25, -2.87025995746505000000e-001) (26, 1.25358602348009610000e-001) (27, 4.50115909292608670000e-002) (28, 2.59852199488495530000e-001) (29, -1.07673391358504890000e+000) (30, -2.18071092362870870000e-001) (31, 1.69990858297045580000e-001) (32, -7.66782572086317280000e-001) (33, -2.70939204689121080000e-001) (34, 7.03490868168180410000e-001) (35, 6.84781030615908670000e-001) (36, 8.78205962667450660000e-001) (37, 3.28808021444401550000e-002) (38, 4.56588174337591970000e-001) (39, 4.86610907758654120000e-001) (40, -6.79622710508642540000e-001) (41, -3.52712544902630600000e-001) (42, -4.73366003036457090000e-001) (43, 6.78705749601426380000e-001) (44, -5.06389436123719010000e-001) (45, -1.60613656875977400000e-001) (46, -2.14669424744329870000e-001) (47, -5.34970122164786570000e-001) (48, 1.13738571557077610000e+000) (49, -5.69036952112532800000e-001) (50, 5.31875944878574590000e-001) (51, -8.52127242841510670000e-002) (52, 2.31512396445513390000e-001) (53, -2.67821490496189140000e-001) (54, -1.77495212819360370000e-001) (55, 3.91886169177365350000e-001) (56, 1.45624515353011100000e-001) (57, 9.44398311069677840000e-002) (58, 5.30707646042487990000e-001) (59, 1.21745951363319350000e-001) (60, 1.09032965796169320000e-001) (61, -1.08752862686477160000e-001) (62, 3.32027835260542340000e-002) (63, 8.32573216128829400000e-001) (64, 9.16637245057124740000e-001) (65, 2.05156415700092380000e+000) (0, -6.13040854442266220000e-002) (1, 4.79483645146256080000e-001) (2, 1.31330902458032140000e-001) (3, 1.94505780904146270000e-002) (4, -9.39552971799684670000e-001) (5, 5.31207945964951370000e-002) (6, 4.64937249885612910000e-001) (7, -8.38149009523814330000e-001) (8, -5.41584419569819620000e-001) (9, -7.69795644627056520000e-001) (10, 4.56652757891298940000e-001) (11, 8.90732523182897310000e-001) (12, -5.35512144835752710000e-001) (13, 4.42411920136244810000e-001) (14, 9.38361990914359570000e-001) (15, -2.28035405603770060000e-001) (16, -3.46489455632717940000e-001) (17, -8.78781400488330980000e-001) (18, 2.71835023047609090000e-001) (19, -2.10096233590484250000e-002) (20, -1.16706756765462980000e-001) (21, -1.05544162838638890000e-001) (22, 4.98887031550188100000e-001) (23, 2.96360367325147200000e-001) (24, -2.73239953059232600000e-001) (25, -6.51959078924504660000e-001) (26, -3.32674657442285360000e-001) (27, 1.30457816456543640000e-001) (28, 3.47599908766420050000e-001) (29, -1.04844019791841010000e+000) (30, 4.30958058373504480000e-001) (31, -6.97874264028231270000e-001) (32, 4.49532079577126150000e-001) (33, 1.03146913909178270000e-003) (34, -2.04293152596209920000e-001) (35, 5.58129647617937150000e-001) (36, -4.39642595586022480000e-001) (37, 8.44115684104233130000e-002) (38, 8.94317256517398910000e-001) (39, -4.07133227508188530000e-001) (40, -5.58897698580608000000e-001) (41, -9.36719167276971460000e-001) (42, 4.06224827816430780000e-002) (43, 9.33719107753337660000e-001) (44, 8.08963535335013860000e-001) (45, -3.34707224627921020000e-001) (46, -6.67245541438439620000e-001) (47, 1.84603344020924850000e-001) (48, 3.77891538914450540000e-001) (49, 5.68453446743715560000e-001) (50, 5.58060830738557830000e-001) (51, 2.61296083868161330000e-001) (52, -2.06165362766727170000e-002) (53, 1.01139416485451450000e-001) (54, -7.64549087947789090000e-001) (55, -7.19599342372589050000e-001) (56, -1.30383696226964310000e-003) (57, 9.84157905434335650000e-002) (58, -1.82515497040017350000e+000) (59, -2.65438067524515170000e-002) (60, 6.98557059095265830000e-002) (61, -1.22013416160304060000e-001) (62, -1.71296901689318100000e-001) (63, 1.35076712726589140000e+000) (64, -6.31360941629706840000e-003) (65, 3.44845372605202670000e+000) (66, -8.05246135032570700000e-002) (0, 5.82611205395927810000e-001) (1, -6.96541083855543310000e-002) (2, -3.68115612004966400000e-001) (3, 5.33919404025438250000e-001) (4, -7.11746063260088380000e-001) (5, -9.24109266292810760000e-001) (6, 3.39709206817839170000e-001) (7, 8.33551445274744780000e-001) (8, -5.28032145805847010000e-001) (9, -9.47325649348313540000e-001) (10, 3.45941125656431810000e-001) (11, 1.48089557362519760000e+000) (12, -7.29249188754180210000e-001) (13, 4.80616133483546810000e-001) (14, 4.62378313282173160000e-001) (15, -5.82911090195153410000e-001) (16, -5.81496911759095570000e-001) (17, -8.01884368179725860000e-001) (18, -3.90090015042566240000e-001) (19, 1.94979523515859200000e-001) (20, -7.28762572981788260000e-001) (21, -5.35521274278634350000e-003) (22, -4.90328445759960550000e-002) (23, 5.45322617359507930000e-001) (24, 3.67247577141928350000e-001) (25, -4.53187661890345480000e-001) (26, 1.94132405536521610000e-001) (27, 6.34743933030410410000e-002) (28, -1.34042944142624770000e-001) (29, -1.16700323810097540000e+000) (30, 3.97687348969449070000e-002) (31, -3.75539022765919940000e-001) (32, 7.94415382753142160000e-001) (33, 8.22786083253314370000e-001) (34, 9.24575780999441600000e-001) (35, -4.87583278545900780000e-001) (36, 7.57487579801369600000e-001) (37, 1.04515141023493000000e-003) (38, 7.77434362535221580000e-001) (39, -1.07632997752685780000e+000) (40, -8.19007759639861050000e-001) (41, -7.90402132625373840000e-001) (42, -5.62451953552720320000e-002) (43, 1.09225158832609360000e-001) (44, -5.68425205116843910000e-001) (45, -3.45022144042849370000e-001) (46, -5.60355466270652110000e-002) (47, -2.01510278628437190000e-002) (48, -5.46935296950949110000e-001) (49, 2.92081971995524940000e-001) (50, 7.10423372829658510000e-001) (51, 8.27199754710092220000e-001) (52, -9.13586891626885780000e-003) (53, 5.10147306725679890000e-002) (54, -5.46600484360642240000e-001) (55, 2.12810458540118850000e-001) (56, 2.01483304615450410000e-001) (57, 5.10057303125677620000e-002) (58, -2.44928081166274540000e+000) (59, -7.10701535489919460000e-002) (60, -1.44703523406678270000e-001) (61, -7.52313346920248510000e-002) (62, -1.12573321182478480000e-001) (63, 2.93716752340614430000e+000) (64, 8.98803967222649320000e-001) (65, 2.26968976641281680000e+000) (66, 1.63011697518603870000e+000) (67, 1.95045932159949640000e-001) (0, -5.75411750344701270000e-001) (1, 9.51490188764916450000e-002) (2, 3.41008382034677370000e-001) (3, 1.15686422346179300000e+000) (4, 7.12310948757645220000e-001) (5, 1.62533081449333930000e-001) (6, -1.35188296144528430000e-001) (7, 6.83036906283488570000e-001) (8, 2.60541734223804940000e-001) (9, -4.98920975116541710000e-001) (10, -3.94613704084618320000e-001) (11, -5.95869061221281800000e-001) (12, 1.05909718963384750000e+000) (13, -1.87049249941968120000e-001) (14, 1.39305604009034940000e-001) (15, 1.48687930858573860000e+000) (16, 1.22100908083271160000e+000) (17, 4.54550449464186600000e-001) (18, -2.37310186670755210000e-001) (19, -8.47579925126789450000e-002) (20, 1.16026412513488510000e-001) (21, -3.23674790752393420000e-001) (22, 1.59163993061015780000e-001) (23, -4.52832060790003650000e-001) (24, -4.20183807044135330000e-001) (25, 1.74263109074417500000e-001) (26, -9.90418648605142730000e-001) (27, 5.05412639233470480000e-002) (28, 8.11605022422412230000e-002) (29, 1.17728678567805600000e-001) (30, 1.31959994994832190000e-001) (31, -7.46020832178240330000e-001) (32, -1.68748593526931720000e-001) (33, -3.29025374438022380000e-001) (34, -5.68912436438444580000e-001) (35, 4.27914698959221850000e-001) (36, 9.01939501061684190000e-001) (37, -1.94845463051296990000e-001) (38, 6.56083687433826500000e-001) (39, 1.07168715601107300000e-001) (40, -2.29316044178365150000e-001) (41, -5.40013021356863130000e-001) (42, -6.39285805693537880000e-001) (43, 7.67427128772535490000e-001) (44, -3.65000416812202740000e-001) (45, 4.37268350864660150000e-001) (46, 1.15953855637580370000e-001) (47, 4.39276870746168830000e-001) (48, -5.28772454643077210000e-001) (49, 3.78967504736383300000e-001) (50, 6.60899292608187360000e-001) (51, -5.25854791537956780000e-001) (52, -8.56093891395400960000e-002) (53, -3.75284098189760500000e-001) (54, -5.39389340661910470000e-001) (55, -2.59933565727416040000e+000) (56, -5.01744321200014660000e-001) (57, 2.41761681769214340000e-002) (58, -3.73862006610868530000e-002) (59, -6.31801003356421700000e-002) (60, 1.52942353828100170000e-001) (61, -1.80682065596638080000e-001) (62, 1.89422962889134070000e-001) (63, -3.52247423836254470000e+000) (64, -9.93785892559485680000e-001) (65, 3.07247250055369630000e-001) (66, 4.15663224829594920000e+000) (67, 7.07891012704780710000e-003) (68, 3.20066817246337940000e+000) (0, -5.53077096313100760000e-001) (1, 4.26966477675853260000e-002) (2, -5.41634651867524130000e-001) (3, -3.71717682260031200000e-002) (4, -5.41893156629718490000e-001) (5, -7.60759172832038420000e-001) (6, 1.11933416624681640000e+000) (7, -6.93599148346897010000e-002) (8, 7.57688060478499350000e-001) (9, -4.74786677154654000000e-001) (10, 2.42904353912029640000e-001) (11, -3.73848649312926940000e-001) (12, 1.81204045720715660000e-001) (13, 3.60207527593843450000e-001) (14, -2.91466689578996910000e-001) (15, 9.96759902671621620000e-001) (16, 5.56422685877442920000e-001) (17, 6.65836311694854470000e-001) (18, -3.94433806122928670000e-001) (19, -1.29418698930264640000e-001) (20, 7.25623685951707790000e-001) (21, -6.46401859156427870000e-002) (22, 2.53967335307597460000e-001) (23, -7.73300957253958980000e-002) (24, -1.00649943914839710000e-001) (25, -8.15210206637581180000e-002) (26, -9.10601901150864260000e-001) (27, -5.03964682887041920000e-002) (28, -3.47421431929467100000e-002) (29, 4.39984543397924750000e-001) (30, -1.30487993663655180000e-001) (31, -2.35752174143422700000e-001) (32, 2.25404300365439680000e-001) (33, -5.91963871550776120000e-001) (34, -5.54715103536314920000e-001) (35, -7.92900697098032760000e-002) (36, 1.02790492954038480000e+000) (37, -2.56270027724979370000e-001) (38, 5.26059344825755340000e-001) (39, 1.03952546272253170000e+000) (40, -2.72865958858787950000e-001) (41, 1.12019267752706610000e+000) (42, -1.07974229714789260000e-001) (43, -5.23634535340269940000e-001) (44, 2.50980828206458670000e-001) (45, 6.15067880576528060000e-001) (46, -5.59620168442052310000e-001) (47, -7.58990997349365700000e-001) (48, 3.43251104641451920000e-001) (49, 3.72438404454015050000e-001) (50, -2.52423243013437770000e-001) (51, 8.78022403887839700000e-001) (52, -2.38791243353058260000e-002) (53, 9.24522095005078230000e-002) (54, -5.67577059136766260000e-001) (55, -2.06528842805481320000e+000) (56, -9.92504813273240860000e-002) (57, -6.34091409860125940000e-002) (58, -1.56546435238929040000e+000) (59, -1.03978901952406460000e-001) (60, 8.48003806918973400000e-002) (61, -5.52967090023716510000e-002) (62, 1.05627988547051480000e-001) (63, 1.54969077950347710000e+000) (64, -4.84424187899833100000e-001) (65, -2.21729099733801590000e+000) (66, 4.72242036949194070000e+000) (67, 4.82562518971331400000e-001) (68, 2.39279131790796250000e+000) (69, -1.10609392914813330000e+000) (0, 4.02378766512049120000e-001) (1, -6.79460726582541640000e-001) (2, 2.79560771120096200000e-001) (3, -4.30993603458987300000e-001) (4, 1.76173649144637730000e-001) (5, -8.29463124080753070000e-001) (6, -1.27627496267120140000e-001) (7, 1.14212947207456960000e+000) (8, -2.03883770573018600000e-001) (9, 5.74457459713336620000e-001) (10, -4.53504332014765530000e-001) (11, 3.55075975827524370000e-001) (12, -1.40548410289194680000e-001) (13, -5.45468271069577740000e-001) (14, 9.17612046785292620000e-001) (15, 1.25816787706324470000e+000) (16, 1.36060815671856460000e-001) (17, 1.19417197077827520000e-001) (18, -1.23782375778380120000e+000) (19, -1.54674100399261970000e-002) (20, 3.04165275964836500000e-001) (21, 3.72653723515857570000e-001) (22, -3.50981593611224390000e-001) (23, -4.69523404479527340000e-001) (24, -8.28551492990518110000e-001) (25, 4.51964513088394080000e-001) (26, -4.27071826213155700000e-001) (27, -1.60126952675474720000e-001) (28, -1.84108331744142790000e-001) (29, -1.11012123938044990000e-001) (30, 5.44103669926589430000e-001) (31, -1.93364867608800510000e-001) (32, -8.48534565917576260000e-001) (33, -4.18135662238507950000e-001) (34, 8.28281769563858630000e-002) (35, 3.99709585274221420000e-002) (36, 2.63401078254724530000e-001) (37, 3.56278722475299740000e-001) (38, 6.39098871844185120000e-001) (39, 1.42593742322191210000e-001) (40, -2.51081727012419650000e-001) (41, 4.09415957669829630000e-001) (42, 2.50449445646117100000e-001) (43, -4.79996636379139810000e-001) (44, -6.88279870689157750000e-001) (45, -3.86402871772370480000e-001) (46, -4.60058358666254830000e-001) (47, -4.70279356315886740000e-001) (48, -7.66442421019056690000e-001) (49, 2.35103982579375560000e-001) (50, 7.08832523611254930000e-001) (51, 1.12249701600162270000e-001) (52, -2.44761222477912070000e-002) (53, 6.01398893091880220000e-001) (54, 4.40569979061199770000e-001) (55, 4.80109220686940620000e-001) (56, 4.90172273580384220000e-002) (57, -4.93254450765662000000e-002) (58, -1.14390305571982430000e-001) (59, 6.44540659235337820000e-002) (60, -9.95335655519039710000e-002) (61, 8.02715437593816000000e-002) (62, 1.02468541168969860000e-003) (63, 1.09585248204040050000e+000) (64, 1.52771514257532350000e+000) (65, -1.98223504697384190000e+000) (66, 1.93410635504100510000e+000) (67, -3.18075945390774380000e-001) (68, 1.26789178904894830000e+000) (69, -3.68144441631397480000e-001) (70, 1.63199462762828530000e+000) (0, 2.93704664017171320000e-001) (1, -5.99891622018130510000e-001) (2, -7.24449424640961210000e-002) (3, -8.10063233241124950000e-001) (4, -6.23190231977277310000e-002) (5, -4.43522866861071870000e-004) (6, -2.57568599573283930000e-001) (7, 7.85975074880053250000e-001) (8, 2.35733965255383340000e-001) (9, -7.55812160625273450000e-001) (10, 7.95356268232283310000e-002) (11, 1.97965415314985630000e-001) (12, 1.01490567576318090000e+000) (13, -2.04330857320691100000e-002) (14, -5.52762810059392760000e-001) (15, 1.58466943913773110000e-001) (16, 2.64217904373187540000e-001) (17, 1.41520166199447180000e-001) (18, -3.98359865430367720000e-001) (19, 3.21839477760470450000e-001) (20, 5.52891772745702890000e-001) (21, 3.88208787655546120000e-001) (22, 2.79754658576997000000e-001) (23, 3.31292108123439230000e-001) (24, -4.83320876905994070000e-001) (25, -3.90337815557083300000e-001) (26, -8.11873002815215790000e-001) (27, 5.94303374349718850000e-002) (28, 1.17997104882091270000e-001) (29, -5.78508622868991410000e-001) (30, 6.43490035662504650000e-002) (31, -5.79773171177610960000e-001) (32, 1.00192879240750460000e-001) (33, -8.12302267968253860000e-002) (34, -4.74603102073782530000e-001) (35, 6.14964696403772160000e-001) (36, 5.05696379575071640000e-002) (37, 5.61166792801009120000e-001) (38, 5.14348719033380640000e-001) (39, -1.23918281286944880000e-001) (40, -9.03151078650297760000e-001) (41, -1.16190860840783710000e-001) (42, 7.99100927421049320000e-001) (43, 4.20690913608279820000e-001) (44, 8.46456844011507780000e-001) (45, 3.77411333341531600000e-001) (46, -2.64818812195881380000e-001) (47, -4.77262072794927940000e-001) (48, -1.00237889455747990000e+000) (49, 3.61109614205878500000e-001) (50, 3.51970275758789030000e-001) (51, -6.17758301572793100000e-001) (52, -4.72426989809173080000e-001) (53, 5.73466960473967610000e-001) (54, 7.13586350927288840000e-001) (55, 6.90997511788389030000e-002) (56, -2.43125302807355730000e-001) (57, 8.22215445201056610000e-002) (58, -1.02531443889672280000e+000) (59, -1.21962878127012690000e-001) (60, -1.76818397554219970000e-002) (61, -2.36937313400854000000e-002) (62, -1.42397055803785020000e-002) (63, -9.30241193914621680000e-001) (64, -4.99019610602697620000e-001) (65, 7.57034701501696720000e-001) (66, 4.17836801721915750000e+000) (67, 1.08813218494467940000e+000) (68, 1.36866305266548840000e+000) (69, -5.22677740042332250000e-001) (70, -8.57902940327151640000e-001) (71, 1.05384841979223420000e+000) (0, 3.05169992403285000000e-002) (1, -7.06963870016215220000e-002) (2, 2.94975654866694030000e-001) (3, -3.57142484017359260000e-001) (4, 1.87150940835695890000e-001) (5, 6.17693092402522680000e-001) (6, 3.40995842425252940000e-001) (7, 8.15142046855296340000e-001) (8, 1.21423287079918880000e-002) (9, 5.12987802706496130000e-001) (10, 6.02532871620640570000e-003) (11, -3.97785685637520150000e-001) (12, -6.30465071399409490000e-002) (13, -7.73757316751988670000e-001) (14, 8.95545351932113820000e-001) (15, 1.61872083446734450000e-001) (16, 8.94586777626824810000e-001) (17, -2.29650445140707950000e-001) (18, -5.05174191933626230000e-001) (19, -3.05421537443910410000e-002) (20, 6.66491621393248360000e-001) (21, 2.02482653691557210000e-001) (22, -3.23145584996811920000e-002) (23, -6.03454331562782300000e-002) (24, 2.23044199766998940000e-001) (25, 6.23016365052216690000e-001) (26, -3.97183997973830690000e-001) (27, 2.79207555008471500000e-002) (28, 2.85471995610098670000e-001) (29, 5.44016374767338220000e-002) (30, -3.64367974094151950000e-001) (31, 1.32668166394330160000e-001) (32, -5.66891413235598510000e-002) (33, 6.98500459422406240000e-001) (34, 9.99782152386677340000e-002) (35, 5.00524641056680710000e-001) (36, -1.55905558940967780000e-001) (37, -1.83175424443759250000e-001) (38, 5.25339030129833960000e-001) (39, -2.69437032119393070000e-001) (40, 2.14875685969772300000e-001) (41, -1.48369903171331060000e-001) (42, -4.02407542107995230000e-001) (43, -3.42390273435471630000e-001) (44, -5.71378867077757870000e-001) (45, 6.54581110918577570000e-002) (46, 1.43098802687429500000e-001) (47, 2.46878209660658690000e-002) (48, -7.04066660499833690000e-001) (49, 6.85158608540184950000e-001) (50, -2.00908282383870230000e-001) (51, 2.94011910756207740000e-002) (52, -9.98797948847166270000e-002) (53, -1.03988374823069570000e-001) (54, 9.39721276128177240000e-001) (55, -2.10866851178242600000e+000) (56, -2.43154197366962820000e-003) (57, -5.08891842266556570000e-002) (58, -4.34076783022755320000e-001) (59, 1.86602564355340710000e-002) (60, -3.75433631190886870000e-002) (61, 1.01398143267273940000e-002) (62, -6.06732814535549360000e-003) (63, 1.09250667317556750000e+000) (64, -1.05554149513906310000e+000) (65, 2.51165276993530970000e-001) (66, 9.72052557247260920000e-001) (67, 3.85064426186156940000e-001) (68, 3.12737152307794640000e+000) (69, -1.95939888305277000000e+000) (70, 1.30178160208007960000e+000) (71, 2.56787877671393260000e+000) (72, -1.39494099235764460000e+000) (0, 2.99845891596991930000e-001) (1, 4.08516091670645120000e-001) (2, 1.62812461463452630000e-001) (3, 4.91524252498367010000e-001) (4, 2.91042081781216210000e-001) (5, -5.41920328583171070000e-001) (6, 4.86967953738834950000e-001) (7, 6.26367911879783800000e-001) (8, -6.73802719807096990000e-002) (9, -4.52347794421474670000e-002) (10, -8.30467859276632910000e-001) (11, -4.19997828885760450000e-002) (12, 5.74575751296846900000e-001) (13, -1.29497916370050010000e-001) (14, 3.62101797861997530000e-001) (15, 7.69055373682372530000e-001) (16, 5.57713084761068070000e-001) (17, 3.18181907159555850000e-001) (18, -7.21867069844729590000e-001) (19, -3.47560843692373280000e-001) (20, 5.96730804879208710000e-001) (21, -2.33513653713801650000e-002) (22, 7.43692992845460670000e-002) (23, -5.12597297372973440000e-001) (24, -5.69333067062174790000e-001) (25, -1.12355542982703640000e-001) (26, -1.35580927145222870000e+000) (27, -1.00804764656741730000e-002) (28, -5.31777198132060260000e-001) (29, 9.89664440558179370000e-001) (30, 9.95783444064599900000e-002) (31, -8.03269775062073750000e-002) (32, 2.20843874067086750000e-001) (33, 8.37636299999556580000e-001) (34, -8.61523283541884120000e-001) (35, 8.19032227820362110000e-002) (36, 3.15351491548983560000e-001) (37, 4.34651098755285570000e-001) (38, 6.30248924452326050000e-001) (39, -3.88486424505088750000e-001) (40, -7.96942498058469950000e-001) (41, -4.30184083524297770000e-001) (42, 5.19305414129678340000e-001) (43, 7.61308840536064070000e-001) (44, -9.20633514798003370000e-001) (45, 3.67712235659406130000e-003) (46, -3.40475321466702010000e-001) (47, 2.43605868866265700000e-001) (48, -7.04765224474109390000e-001) (49, 1.50568017512010420000e-002) (50, -5.56452661208299170000e-001) (51, 1.63585793543334720000e-001) (52, -2.23601547952475050000e-001) (53, -1.75037958273602830000e-001) (54, 6.29103089715262850000e-001) (55, -9.24445687425886730000e-001) (56, -1.78590066182116480000e-001) (57, -5.94881864609358440000e-002) (58, 1.85902087803089570000e+000) (59, 5.72805222180759950000e-002) (60, 9.68405804654552810000e-002) (61, -1.25905022343629910000e-001) (62, 1.33361697433945740000e-001) (63, -1.68068181572466750000e+000) (64, -7.54304128921013730000e-001) (65, -7.40608355100292210000e-001) (66, 6.33076220803843360000e+000) (67, 1.95163218066901730000e+000) (68, 1.55768392883160820000e+000) (69, -1.73326350517323240000e+000) (70, -6.24450192119850090000e-001) (71, 2.70868905277636470000e+000) (72, -1.45668672313061800000e+000) (73, -2.61134228304472280000e+000) (0, -2.18300948926940600000e-001) (1, 4.84890097233410310000e-001) (2, 1.09020213835738940000e-001) (3, -1.44171659622720330000e-001) (4, -9.37523501050875120000e-001) (5, 1.04137183790994970000e-001) (6, -2.56853265217071860000e-001) (7, 3.33154126847907570000e-001) (8, 1.01674743203784730000e+000) (9, 8.79937374491198800000e-001) (10, -4.30951148461372610000e-001) (11, 2.85519035838725400000e-001) (12, -4.39871028666252440000e-001) (13, -2.71565091132944520000e-001) (14, -6.02151416612237030000e-001) (15, -2.98409324992255920000e-001) (16, -3.04084185744153970000e-001) (17, -3.73063044786465350000e-001) (18, 1.29202956138014050000e-001) (19, 4.00354326942446850000e-002) (20, 9.12162229464110190000e-001) (21, 2.34201013942428320000e-001) (22, 2.63812559008564040000e-001) (23, 5.52130215582612230000e-002) (24, -1.50373625254012710000e-001) (25, -4.67543393857226990000e-001) (26, -7.51879980487101250000e-002) (27, -1.03040364602445330000e-001) (28, 2.77119842307178680000e-001) (29, 7.47280376354792830000e-001) (30, -4.78105473757205470000e-001) (31, 1.01414465404190550000e+000) (32, 1.73314866545347560000e-001) (33, -3.38313178698254720000e-001) (34, -4.89262953182653340000e-001) (35, 9.44251393767693710000e-002) (36, -8.28599552829432210000e-001) (37, 3.33250138186053480000e-001) (38, -9.64690675372305910000e-001) (39, 9.58869460066809070000e-001) (40, 6.96610528474643550000e-001) (41, 4.31935402045604600000e-001) (42, -1.97084401343049300000e-001) (43, -1.93334745253427000000e-001) (44, 4.22536125782705770000e-001) (45, 5.66476332139417500000e-001) (46, -8.14400282552208090000e-001) (47, -4.21768373947677690000e-001) (48, 1.35581436075391020000e+000) (49, -3.75776811540151690000e-001) (50, -1.24145798894854210000e-001) (51, 1.08626472608107650000e+000) (52, 1.69628406175221460000e-001) (53, 3.68901048092108000000e-001) (54, 1.43341345463179360000e-001) (55, -1.94887572718921050000e+000) (56, 4.73797707001236080000e-001) (57, -7.72049920420614520000e-002) (58, 4.67412190409471280000e-002) (59, 8.31585788092116390000e-002) (60, -8.41086309092220350000e-002) (61, 7.82777466496232050000e-003) (62, 2.69382433375046480000e-003) (63, 4.75003097785067750000e+000) (64, 9.07773917353892460000e-001) (65, -2.58904825040227670000e+000) (66, -4.18702831056840200000e-001) (67, 6.58656413761142700000e-001) (68, 1.03326291717646330000e+000) (69, 1.54914807132379790000e+000) (70, -3.80453256658219360000e+000) (71, 4.22331028329196780000e-001) (72, -1.34724310028339110000e+000) (73, 3.29359120311573590000e+000) (74, 2.62007194951021600000e+000) (0, 8.82795073794968470000e-001) (1, 6.08439652127532700000e-001) (2, -7.72963795985265600000e-002) (3, -1.19039643006514790000e-001) (4, -8.26697068008591550000e-001) (5, -2.35799198927183010000e-001) (6, -5.28530618467490250000e-002) (7, -4.16837156519797860000e-001) (8, -4.00844530047939460000e-001) (9, 2.10528801474012870000e-001) (10, 8.08097594244708620000e-001) (11, -9.39270416270317350000e-002) (12, 6.87892601122109810000e-001) (13, 6.45908758151656490000e-001) (14, 7.73313637084386610000e-001) (15, -6.52111387564034310000e-001) (16, 4.33049642459140020000e-001) (17, -4.88817717669282950000e-001) (18, -8.21800476703229200000e-001) (19, 2.41482036694877220000e-001) (20, -8.07835992943696350000e-001) (21, -6.38522193360837710000e-001) (22, 3.30501193098035660000e-001) (23, 2.37454965056290570000e-001) (24, -3.78901741151544290000e-001) (25, 3.15520902080677970000e-002) (26, -7.38272047288889980000e-002) (27, 4.68145912269081810000e-001) (28, 1.17702200541379320000e+000) (29, -8.66795037414459070000e-001) (30, -2.63242213110336490000e-002) (31, -5.57746611173496000000e-001) (32, -4.87248333240101030000e-001) (33, 6.85445990057447220000e-001) (34, -4.29911971596093570000e-001) (35, 3.93255442082436900000e-002) (36, -5.55724213924840980000e-002) (37, 6.53747523417328780000e-001) (38, 4.29846484367532200000e-001) (39, 6.41192565315452660000e-002) (40, 9.79818145340716540000e-001) (41, -6.26853831155023470000e-001) (42, -6.91749872960557680000e-001) (43, 3.59459039956826970000e-002) (44, 1.05747279318797990000e+000) (45, -1.37255244850604110000e-001) (46, 2.81813676242137430000e-001) (47, -8.28141860751428820000e-001) (48, -5.86736437232217800000e-001) (49, 6.61912812166694840000e-001) (50, 9.23819813331663850000e-001) (51, -4.68533461604207890000e-001) (52, -3.94666542135905630000e-001) (53, 1.53739536316976540000e-001) (54, -3.64066499593886650000e-002) (55, -2.58081436744029610000e+000) (56, 1.59252953740327030000e-002) (57, 7.80310018176225830000e-002) (58, -2.86099924813219350000e+000) (59, 1.63830923923913850000e-002) (60, 4.65750679948575970000e-002) (61, -1.57848737397650540000e-001) (62, -7.30341503362100100000e-002) (63, 3.43648596672029740000e+000) (64, 1.74612758987799220000e+000) (65, 1.66628927341126150000e+000) (66, -1.65017963110917140000e+000) (67, -2.03784309851648300000e+000) (68, 1.55748430888074640000e+000) (69, -1.25345068701504100000e+000) (70, 1.67743960716114350000e+000) (71, -8.15210593909885370000e-001) (72, -9.49373216763569670000e-001) (73, -3.78348080650167840000e-001) (74, 8.25501925443466790000e+000) (75, -1.12969812078248520000e+000) (0, -1.10783590318740130000e-001) (1, -3.10278982213878400000e-001) (2, 3.68848830466505850000e-001) (3, -6.87773498781443780000e-001) (4, 4.47257593937187950000e-001) (5, -1.76304715042894490000e-001) (6, -1.13460049916439750000e-001) (7, 1.29729546209956780000e-001) (8, 5.63492637132832150000e-001) (9, -5.05432585387007970000e-001) (10, -1.05526262747186970000e-001) (11, 1.65918427517118850000e-001) (12, -4.48979218764905150000e-001) (13, 5.65073427274158440000e-001) (14, -5.53836105524515010000e-001) (15, 7.27561581259935920000e-002) (16, -5.84714045306287460000e-001) (17, 3.02368321328708440000e-001) (18, 6.12595685654977240000e-001) (19, 3.85117413225057660000e-001) (20, -8.40141966860125540000e-001) (21, -2.51069038911676480000e-001) (22, -2.69545081451811090000e-002) (23, 4.51133996432867500000e-001) (24, 1.41177442039900640000e+000) (25, -3.72974469343317350000e-001) (26, 9.94085872142947300000e-001) (27, -1.11621424092595190000e-001) (28, 1.34947111526853010000e-001) (29, -3.84425556411649580000e-002) (30, -3.88130818021386710000e-001) (31, 1.80041430532670240000e-001) (32, -4.67431091771122020000e-001) (33, -8.50570318188268340000e-001) (34, 6.19892729134425500000e-001) (35, -9.28536075197268220000e-001) (36, 2.63546197582948450000e-001) (37, -2.15945899728275880000e-001) (38, 1.87368724265931320000e-001) (39, -6.10700364653384400000e-001) (40, 5.52109582762223220000e-001) (41, -1.07709811903659650000e+000) (42, 8.84229739640448040000e-002) (43, -7.93213228505420980000e-001) (44, 5.66373145778880650000e-001) (45, 5.04844884417907090000e-001) (46, 4.30487796361935680000e-001) (47, 5.51844621398888240000e-001) (48, 4.52411073389823500000e-001) (49, 2.76510567789219720000e-002) (50, -2.93698081646655730000e-001) (51, 8.01574392329366670000e-001) (52, 8.59361827483297170000e-002) (53, -4.39731313952745230000e-001) (54, -8.28739092362968390000e-001) (55, 8.40575319101499190000e-001) (56, 8.99403352687209310000e-002) (57, 2.92166577047482110000e-002) (58, -3.60408674393778880000e+000) (59, -1.14808678087394100000e-001) (60, -1.03896901721966630000e-001) (61, 2.61238947343606780000e-002) (62, 2.05171273525464950000e-002) (63, 2.12138734212506020000e+000) (64, 4.25791758776987440000e-001) (65, 1.17541907833440810000e+000) (66, -5.15286307583291330000e+000) (67, -1.48921386893606040000e-001) (68, -2.79741829621568130000e+000) (69, 3.64147638146395810000e-002) (70, -1.65071910640796360000e+000) (71, 8.10533159643557990000e-001) (72, 1.23332234442969080000e+000) (73, 7.35312786258266240000e-001) (74, 2.78445877131555490000e+000) (75, -1.03639077779410390000e+000) (76, 6.06331491850227170000e+000) (0, 4.19421922980300070000e-001) (1, 7.89058981918383530000e-001) (2, -3.41569556296121780000e-003) (3, 5.16316119035806540000e-001) (4, 9.78300323658038210000e-001) (5, -6.56957649541760390000e-001) (6, -8.08092828669127040000e-002) (7, 9.42940289703096120000e-004) (8, -3.60501058994971260000e-001) (9, 8.38062155620121430000e-001) (10, 2.14924331443666070000e-001) (11, -8.84328364619331950000e-001) (12, 1.18227770257330200000e+000) (13, -5.31023692423989170000e-001) (14, -7.40426359603546410000e-001) (15, 3.45320822550841680000e-001) (16, 7.15728685673720830000e-001) (17, -8.97715817546793360000e-002) (18, -4.40305234207744700000e-001) (19, -2.36209472684964510000e-001) (20, -8.90184427776482320000e-001) (21, -7.44163833819351030000e-001) (22, 1.47648724515126730000e-001) (23, -4.31830005786411450000e-001) (24, -1.08869116994615990000e-001) (25, 2.46505054126579890000e-001) (26, -2.30669225809687290000e-001) (27, 5.40267812051035360000e-001) (28, 3.94814778844093050000e-001) (29, 1.37860497202944220000e-001) (30, -3.38785306370737230000e-001) (31, -1.77155152346837350000e-001) (32, -2.53611984066040240000e-001) (33, 4.14476246365741760000e-001) (34, 1.77349788590774410000e-001) (35, -7.95335188083758910000e-001) (36, 1.39411376262078880000e-003) (37, 2.84060345315547640000e-001) (38, -1.64895039844823180000e-001) (39, -3.82955005622006020000e-001) (40, -7.09803854377199280000e-001) (41, -6.17645702598697330000e-001) (42, 8.81853411742706820000e-001) (43, 6.68904968055437200000e-001) (44, -5.74942244559143220000e-001) (45, -9.59810663678141300000e-002) (46, -2.66295173638164910000e-001) (47, -1.55755637480712140000e-001) (48, 4.46323628155925810000e-002) (49, -3.99891833460433050000e-001) (50, 3.51572118586116140000e-001) (51, 1.24920190449488230000e+000) (52, -1.50052530050586520000e-001) (53, -5.51869286412894790000e-001) (54, -4.62414020139045810000e-001) (55, -6.69808423022871690000e-001) (56, -2.28345430918190820000e-001) (57, 2.78772177379530940000e-002) (58, -1.52634746663404060000e+000) (59, 9.96890757181208560000e-002) (60, 2.43517208930600250000e-001) (61, -1.84474184723408180000e-001) (62, 1.14206854546838170000e-001) (63, 2.50422228314607140000e-001) (64, -6.87513456112052060000e-001) (65, 1.57896318713290240000e+000) (66, 3.64896233995567960000e-002) (67, -2.29052164954217760000e-001) (68, 2.12222656714978440000e+000) (69, -6.73832345421374160000e-001) (70, 1.92386767716084870000e+000) (71, 2.81786625877482430000e-001) (72, 3.36404327523694700000e-001) (73, -2.94982488852467830000e+000) (74, 1.84004554753675320000e+000) (75, 1.27188810354541880000e+000) (76, 7.99552945230778580000e-001) (77, 2.00585889397209720000e+000) (0, -2.90881705842456870000e-001) (1, -9.48865388253018030000e-001) (2, -6.56525466861294090000e-001) (3, 4.76579353240186240000e-001) (4, 6.77935804214917730000e-001) (5, -8.28467124820445710000e-001) (6, -1.43244899170797470000e-001) (7, -8.17796331332806710000e-001) (8, -1.41452835276286940000e-001) (9, 7.61955621636031920000e-001) (10, 3.72790647598363330000e-001) (11, 1.33134546695353160000e-001) (12, -3.51857697391662170000e-001) (13, 6.04120078167844630000e-001) (14, 9.97500669325336430000e-001) (15, -2.09410663579519760000e-001) (16, -4.12758074810647070000e-002) (17, -4.18085558576288750000e-002) (18, 3.90272041422169540000e-001) (19, 2.31024330832166220000e-001) (20, -7.09957987849470620000e-001) (21, -3.95569826538688160000e-001) (22, 4.82040643077767280000e-001) (23, 1.24036322407446910000e-001) (24, -7.38927387396830780000e-002) (25, -1.99500855774491730000e-001) (26, 7.43908669130254330000e-001) (27, 4.97569271648704180000e-001) (28, -2.29268635751553660000e-003) (29, -6.46882238485807390000e-001) (30, -4.20033094076363740000e-001) (31, -6.27456071482006410000e-002) (32, -2.62077821282627520000e-001) (33, -3.31741834209238860000e-001) (34, -6.51558442269256910000e-002) (35, -2.62230667544321970000e-002) (36, 8.56881662000677500000e-001) (37, -1.97146842077495640000e-001) (38, 4.13412684258695710000e-001) (39, -1.74021610586175430000e-001) (40, -5.17205910351958510000e-001) (41, 2.76403985386084740000e-001) (42, 1.08862354497047780000e+000) (43, 7.60143683152006980000e-001) (44, 8.71397487652907230000e-002) (45, -9.62343716169042700000e-003) (46, -9.35549788717058850000e-001) (47, -2.00235649659093460000e-001) (48, -4.09250830881507790000e-002) (49, 3.33437103172033120000e-001) (50, -2.50022335562898380000e-001) (51, -7.20357513886892620000e-001) (52, 2.63378301408404130000e-001) (53, 1.31735434124249710000e-001) (54, -9.60691917916723370000e-001) (55, 3.51968370210219980000e-002) (56, -5.14921673708839190000e-002) (57, 1.38180081567331720000e-001) (58, -8.68260687808782850000e-001) (59, -3.19159421117304260000e-002) (60, -2.57635081418642020000e-002) (61, 7.69265506924803330000e-002) (62, -8.26304580014922680000e-002) (63, -1.31337967512982570000e+000) (64, -3.97207593734411390000e-001) (65, 9.92975672390945970000e-001) (66, 1.63187654830948970000e+000) (67, -1.15496858382757650000e-001) (68, -6.33102244049322920000e-001) (69, 9.12647143591243770000e-001) (70, -1.17372573875502330000e+000) (71, 3.15598616241638210000e-001) (72, -6.65837765258557760000e-001) (73, 1.42569703418080090000e-001) (74, 2.51596424655390210000e+000) (75, 7.85708990645144430000e-001) (76, 1.17067405299157600000e+000) (77, 2.75401551608674740000e+000) (78, -3.25656263724335090000e-001) (0, 3.36968303729319350000e-001) (1, -2.41019336694582750000e-001) (2, -8.67276274816893070000e-001) (3, 7.20155995522323680000e-001) (4, 4.64796639933035720000e-001) (5, 7.44933181129031840000e-001) (6, 5.84634607907962290000e-001) (7, 2.53547572423944470000e-002) (8, -5.42172425720773950000e-001) (9, -7.63664087037297930000e-001) (10, -1.10026818165490770000e-001) (11, 4.30669159160424530000e-001) (12, -1.38136974335276110000e-001) (13, -8.67761620042880320000e-002) (14, 1.07609603525761390000e+000) (15, -6.81724184362327730000e-001) (16, -7.16859579596003100000e-001) (17, 6.09935934363857180000e-001) (18, 5.95143504786608480000e-002) (19, 1.54971775085432580000e-001) (20, 5.91360231181632500000e-001) (21, 7.72564289162455950000e-002) (22, 9.11810644236924070000e-002) (23, 2.67422422742565610000e-001) (24, -1.21925380886572520000e+000) (25, -6.73611389385160080000e-001) (26, -2.39999898760103050000e-001) (27, 7.37005412177797800000e-001) (28, -2.55162681725846880000e-001) (29, -7.39200898894040390000e-001) (30, 7.24338866839848490000e-001) (31, -2.95541060837829440000e-001) (32, -4.21153911511830630000e-001) (33, 6.80047591605329130000e-001) (34, 8.86702870326669060000e-001) (35, -1.36023012969493070000e-001) (36, 5.85866046319584390000e-001) (37, 6.31519742171487650000e-001) (38, -7.88682745834363600000e-001) (39, 6.32424390389808800000e-001) (40, -3.29661376009064370000e-001) (41, 9.67607406069430630000e-002) (42, -4.87851199715133580000e-001) (43, 5.84365043509488920000e-001) (44, -7.46247878783375120000e-002) (45, -7.03895075181198870000e-001) (46, -3.12914631087054140000e-001) (47, -3.25095357348029800000e-001) (48, -4.64908431175187630000e-002) (49, -6.49942168488268130000e-001) (50, -6.69605186083977010000e-001) (51, 5.49065597087424860000e-001) (52, -1.73970844069427990000e-002) (53, 5.48939422833542690000e-001) (54, 2.12620072314793930000e-001) (55, -9.17643974162823730000e-001) (56, 2.66804829983910030000e-001) (57, -6.07318258339486120000e-004) (58, -2.11689062945624860000e+000) (59, 2.37010554075927080000e-002) (60, -2.98907929910387820000e-002) (61, 1.77296035176367740000e-001) (62, -5.15795749483159770000e-002) (63, 4.00599611173435120000e+000) (64, -5.82997270812466550000e-001) (65, 1.12493536092173330000e-001) (66, 2.79994089169449230000e+000) (67, 1.13689972075776450000e+000) (68, -1.97281022078128310000e-001) (69, 2.07688467857225630000e+000) (70, -7.83952784348615260000e-001) (71, -2.05529062469586020000e+000) (72, -1.16065067881276620000e+000) (73, -1.70100664542829800000e-002) (74, -1.47704690260348780000e+000) (75, 2.44229883757632930000e+000) (76, 2.37100026094957750000e+000) (77, 9.19065972682190590000e-001) (78, -3.78218170401780010000e+000) (79, -7.50669626602202820000e-001) (0, 3.46950491984019890000e-001) (1, 5.03228928015058360000e-001) (2, -8.59854101343544010000e-002) (3, 1.73811154609832150000e-001) (4, 6.65838916463540990000e-001) (5, 8.34254697570950050000e-001) (6, 8.15080143224311220000e-001) (7, -1.20967471135585170000e+000) (8, 5.64293605841128090000e-001) (9, 3.10627167349495470000e-001) (10, 6.38165756572107450000e-002) (11, -6.59725472420913840000e-001) (12, 5.46062940538396440000e-001) (13, 8.97874232171962110000e-002) (14, 5.07421287921426710000e-001) (15, -1.32091213148868670000e+000) (16, -1.65211924289237730000e-001) (17, 4.11658511547360550000e-001) (18, -1.34961532011625720000e-001) (19, -4.11708001731400930000e-002) (20, -1.38839287302694290000e-001) (21, -2.69068217730368760000e-001) (22, 6.70849326736637660000e-001) (23, 2.40487830964577240000e-001) (24, -2.13294590332572390000e-001) (25, -5.95946994031168240000e-001) (26, -3.49483401878258710000e-001) (27, 2.38437771955549160000e-001) (28, 1.44524919337171680000e-001) (29, -1.70973629516398380000e-002) (30, -6.87480824996792170000e-002) (31, -3.21849717817076610000e-001) (32, 5.42972377541698320000e-003) (33, 7.68003385364027240000e-001) (34, -6.07574666053348090000e-001) (35, 5.45146097341468670000e-002) (36, 1.05138008913863680000e-001) (37, 1.92243798595010760000e-001) (38, 3.52011304888284310000e-003) (39, 2.25901247812460990000e-001) (40, -8.11899017489229440000e-001) (41, 4.74031320034174090000e-001) (42, -1.66390783237918780000e-001) (43, 6.70236933482512790000e-001) (44, -1.37428089783110250000e-001) (45, 5.83676354906882410000e-001) (46, -1.13544529908942570000e+000) (47, -2.19864635098974860000e-001) (48, -1.82879731842181260000e-001) (49, 5.19846837175719430000e-002) (50, 1.90026864568632120000e-002) (51, 1.47431182641123590000e-001) (52, -4.40759645174711890000e-001) (53, -7.80249576755128460000e-002) (54, 1.57970049107852810000e-001) (55, -1.72387395086599680000e+000) (56, -2.42016459838332370000e-001) (57, 1.00168746694462190000e-001) (58, -2.65601026476563580000e+000) (59, -7.95686576476110350000e-002) (60, 1.81618499597024140000e-001) (61, -2.81234056223889920000e-002) (62, 3.13494525819626650000e-002) (63, 1.54396800134924040000e-001) (64, -1.06627710497514800000e+000) (65, 4.83538694650325060000e-001) (66, 5.04148484125920170000e-001) (67, 4.21775437213743660000e-001) (68, 2.37700966702179710000e+000) (69, 2.66382703905971500000e-002) (70, -5.36328189520020810000e-001) (71, 6.46586074804607950000e-001) (72, -2.17478287838525870000e+000) (73, -8.17608429777417630000e-002) (74, 1.88845005928516720000e+000) (75, 7.37591158481417100000e-001) (76, 2.97315451777517210000e+000) (77, -3.26446892241003150000e-001) (78, -5.42839213753367520000e-001) (79, -1.85801794016767310000e+000) (80, -5.02557141433396690000e-001) (0, 7.92312469360646340000e-002) (1, -2.68004170693930450000e-001) (2, 1.32317365337363210000e-001) (3, -5.68744539009818250000e-001) (4, 4.75349586844108110000e-001) (5, 6.12343711747177940000e-001) (6, -1.27286709523993570000e-001) (7, -4.30942348322058020000e-001) (8, -5.11668398751118800000e-001) (9, -3.99555926035478280000e-002) (10, 1.98605883342315440000e-001) (11, -4.95047673807208270000e-001) (12, -7.13298628437750940000e-001) (13, -6.75092271634432970000e-001) (14, -3.61036722100284090000e-001) (15, -6.84666071260870090000e-001) (16, 2.60045234102190880000e-001) (17, 3.42606561388299420000e-001) (18, -4.63038506800705390000e-004) (19, -1.31498982177133620000e-003) (20, 2.83744784820771030000e-001) (21, 9.19454302579320040000e-001) (22, -1.64761119549317350000e-001) (23, -6.33773966920181060000e-001) (24, -6.51362514275529490000e-001) (25, 1.41788327597071800000e-001) (26, 1.19254164207198810000e-001) (27, -9.88166341575705960000e-002) (28, 3.99757878200712400000e-001) (29, -4.47127081971293750000e-001) (30, 4.43258625820571180000e-001) (31, -1.80912448694963150000e-001) (32, 2.37957706673158770000e-002) (33, 1.26016079396364340000e+000) (34, 9.36213998253899170000e-002) (35, 5.90612197981696170000e-001) (36, 5.45318343674386920000e-001) (37, 5.31111938786188010000e-001) (38, 8.42305144360505740000e-001) (39, 6.73640849864608260000e-001) (40, 1.07690155488494200000e-001) (41, -8.36345710735230340000e-001) (42, -1.03067843773027930000e+000) (43, -2.18336180389418410000e-001) (44, 6.65801704339088030000e-001) (45, -4.04467752823990940000e-001) (46, -5.77653387319852500000e-001) (47, -7.36361370660624460000e-001) (48, 1.85888213733060050000e-001) (49, 6.44327913337855330000e-001) (50, 7.91636151165105660000e-001) (51, -2.65552936459602930000e-001) (52, 1.24445136570576820000e-001) (53, 4.79901145285794640000e-001) (54, 2.40719484884823750000e-001) (55, 4.30261811631321770000e-001) (56, -2.74276118237904320000e-001) (57, 4.06030557557566510000e-002) (58, -8.53750259707562580000e-001) (59, 1.46556997676958930000e-001) (60, 1.23548206386585020000e-001) (61, 1.48939905449486570000e-001) (62, -4.80080016159772290000e-002) (63, -9.96736254291856080000e-001) (64, 1.24310910287192320000e+000) (65, -5.56777789952415670000e-002) (66, -1.62627246665282900000e+000) (67, -1.25443473152997840000e+000) (68, 4.54142679084094780000e-001) (69, -4.99908435281004480000e-001) (70, 1.05851878615445380000e+000) (71, 5.83192089803790000000e-001) (72, -3.49501150165466850000e-001) (73, -1.83578686164395030000e+000) (74, 1.10298581550566150000e+000) (75, 1.29441001593985660000e+000) (76, 1.99677577074063620000e+000) (77, 1.69939667660613220000e-001) (78, 1.23921878147065370000e+000) (79, -1.98150459510172960000e+000) (80, 4.15453793613895840000e-001) (81, 2.55111799784387780000e+000) (0, 6.03676917143657340000e-001) (1, -2.75938340692721770000e-001) (2, 6.93969553896337410000e-001) (3, 6.21495362237155850000e-001) (4, -3.41738018477250550000e-001) (5, 2.70070182484853540000e-001) (6, -5.01453702606444280000e-001) (7, 1.40836184559314210000e+000) (8, -9.16130586974366200000e-002) (9, -4.21150557962660930000e-001) (10, -1.03083390841019030000e+000) (11, 2.64281127471727160000e-001) (12, -2.36889243179766730000e-001) (13, -5.78933884654686650000e-001) (14, -3.25018534883738440000e-001) (15, 7.31314274747399960000e-001) (16, 1.89363333891320040000e-001) (17, 6.28570891769714420000e-002) (18, -1.39646357173152190000e-002) (19, 1.68914705925874290000e-001) (20, 6.97234723155836120000e-001) (21, 6.61914595991719980000e-001) (22, -2.98454637386984580000e-001) (23, 3.23750243239218980000e-002) (24, -6.68663361049301050000e-002) (25, 2.49406731522151450000e-001) (26, 4.37772731086834360000e-002) (27, -3.27775995074253650000e-001) (28, 7.55881873824132970000e-001) (29, 6.98241529724125230000e-001) (30, 6.46312025148464420000e-001) (31, -4.08221872228175800000e-001) (32, -1.57312070095386000000e-001) (33, -9.94862941313023770000e-001) (34, -1.23839638570820140000e+000) (35, 4.80557843315251860000e-001) (36, -3.52047998074629000000e-001) (37, 8.59335970093386140000e-001) (38, 6.66590160685028440000e-002) (39, -5.99686139689339580000e-002) (40, -4.31775973283393010000e-001) (41, -1.05033202645852040000e-001) (42, -4.42118546585622440000e-001) (43, -5.23261245802032930000e-001) (44, 5.87210371465774970000e-002) (45, -2.60876875271623840000e-001) (46, -3.84012799414080120000e-001) (47, 1.02461724262431320000e+000) (48, -3.10883562749411540000e-001) (49, 3.03496308980593650000e-001) (50, 1.44755009161529970000e+000) (51, -4.87570747969030220000e-001) (52, 1.33753599169572580000e-002) (53, 7.95948567077034870000e-001) (54, 2.77007493135867760000e-001) (55, -1.09152019127522240000e+000) (56, 1.04921724141078430000e-001) (57, -7.01126372137884780000e-002) (58, -9.75875931693029110000e-001) (59, -2.74046195732625780000e-002) (60, -1.39252333060133520000e-001) (61, 1.61635787073650170000e-001) (62, -2.28676455726844560000e-001) (63, 7.86588125263794070000e-001) (64, 4.43623978957040200000e-001) (65, -2.79297224538071260000e-001) (66, -8.82259950233184320000e-002) (67, -3.22892996184117950000e+000) (68, 1.71850554455194500000e+000) (69, 9.87024028021406650000e-001) (70, 5.53946008136042560000e-001) (71, -7.30529410220746470000e-001) (72, -3.65770946167109420000e-001) (73, 7.04208518922473240000e-002) (74, 6.88799501088996680000e-001) (75, -1.38791933131612490000e+000) (76, 1.67351654390213790000e-001) (77, -2.41638224841988250000e+000) (78, 3.04095944109227250000e+000) (79, 1.07516947138662710000e+000) (80, 3.18965970690889560000e-001) (81, 3.33370429679973860000e+000) (82, 6.60810736579386830000e-001) (0, -6.62325392292666740000e-001) (1, -5.58102465950160660000e-001) (2, 1.48757232686393910000e+000) (3, 1.55940846046454060000e-001) (4, 9.30959747158766170000e-001) (5, 4.20899180876848630000e-001) (6, 2.24923447563355530000e-001) (7, -6.95764658642167740000e-001) (8, -1.66713934006222000000e-001) (9, 6.20266414152120200000e-003) (10, -5.76537563732020590000e-001) (11, -3.83668162944732110000e-001) (12, 6.00343421807557480000e-002) (13, 3.79742969045200440000e-001) (14, 1.51430821165677480000e+000) (15, 1.30612223064682930000e-001) (16, -4.15225602326638910000e-001) (17, 3.18596532043381790000e-001) (18, -2.19996802012069390000e-001) (19, 3.64096219525340490000e-001) (20, -5.15148112354202550000e-001) (21, -2.93187558085498010000e-001) (22, 1.43112599310208590000e-001) (23, -8.86921807209011260000e-002) (24, -1.17987795005832450000e+000) (25, -2.08026116306005260000e-001) (26, 1.43805500535364640000e-002) (27, 2.09763224052252640000e-001) (28, 5.58869305897607080000e-001) (29, -3.16523233847779030000e-001) (30, 2.05744454829255320000e-001) (31, -7.65129570692212440000e-001) (32, 2.23504633381983980000e-001) (33, -7.80636357361828900000e-001) (34, 7.63529973414043610000e-001) (35, -1.12988625592110200000e+000) (36, -6.59154377550758670000e-001) (37, -2.84783261547286610000e-001) (38, -2.46796816933086080000e-001) (39, -1.15085756820315190000e+000) (40, 7.62854485337178260000e-001) (41, 5.38664283478709320000e-001) (42, 7.17851651285139950000e-001) (43, -2.32163625155067140000e-001) (44, 4.32440505843811380000e-001) (45, -1.10412566821729980000e-001) (46, -5.02770894097470110000e-001) (47, -4.40442950120089660000e-001) (48, 9.96558713650093490000e-002) (49, 6.25984743769753100000e-001) (50, 4.43655386679630390000e-001) (51, -5.72175007166785150000e-001) (52, -2.66370519592682540000e-001) (53, 5.29693328191044640000e-001) (54, -2.30091665791556490000e-001) (55, -2.04845665430065880000e+000) (56, -1.77928917591813010000e-001) (57, 1.67680205730334320000e-001) (58, -1.99106787099077230000e+000) (59, 4.54706136947329170000e-002) (60, 2.77527966697858060000e-001) (61, -1.57583557226312340000e-002) (62, 7.89775904822596770000e-002) (63, 2.78155300660627380000e-001) (64, 8.58084281467904830000e-001) (65, -4.20507220901888200000e-002) (66, -5.75819573171494460000e-001) (67, -6.39492335945797460000e-001) (68, 1.72623002378277920000e+000) (69, 1.32807475287784030000e+000) (70, 3.73941631793487940000e-002) (71, -7.07726391219961170000e-001) (72, -5.86367154861366590000e-001) (73, -7.67835658688069360000e-001) (74, 4.05154605621041420000e+000) (75, 7.66982587646132920000e-001) (76, -1.37535732049242520000e+000) (77, 7.17416867359526260000e-001) (78, -1.81621999627171450000e+000) (79, 5.37329917699614470000e-001) (80, -2.21223502516431150000e-002) (81, 8.86683062764117900000e-001) (82, 1.69810090283364450000e+000) (83, 1.50365567014712220000e+000) (0, 5.77132011552900500000e-001) (1, 6.16868393964842720000e-001) (2, 4.86107676926776920000e-001) (3, -3.52790320916787530000e-001) (4, 3.69021462825488370000e-001) (5, 7.27215946434211950000e-001) (6, -5.17259748346506900000e-001) (7, 7.08250427007992340000e-001) (8, -4.31133866043247380000e-001) (9, -1.77773157408529560000e-001) (10, 1.16109454279583710000e-002) (11, 3.94092107378304860000e-001) (12, 6.84361931752886180000e-001) (13, 7.19699955897028620000e-001) (14, 9.32422855797234720000e-001) (15, 1.40764018142817780000e-001) (16, -2.54133672218201710000e-001) (17, 5.56077388953377800000e-002) (18, -1.10210769935745430000e-001) (19, -9.03525511352518130000e-002) (20, -6.66592945284809830000e-001) (21, 4.46588889537538230000e-001) (22, 1.22731751422041530000e-001) (23, -2.52924113739637860000e-001) (24, 3.71186345629717080000e-001) (25, -2.16505122373554600000e-001) (26, 1.77733019177399060000e-001) (27, -1.29353147760994940000e-001) (28, -1.07637393753432270000e-001) (29, 8.60800153594282190000e-002) (30, 2.16077910784010420000e-001) (31, -2.89965191503614330000e-001) (32, 6.61613995894335010000e-001) (33, -4.38921483928825240000e-001) (34, -3.52442071521540000000e-001) (35, -4.40940900953810720000e-001) (36, 7.34957028661069490000e-001) (37, 5.23142803724946590000e-001) (38, 5.52117526199021460000e-002) (39, -7.12649333248912000000e-001) (40, 8.41594157668772880000e-001) (41, -8.63362206006300760000e-001) (42, -3.91047890253917230000e-001) (43, 1.12457940702063030000e-001) (44, -5.83057844819868220000e-001) (45, -1.48314186356532680000e-001) (46, -5.03531582483409460000e-001) (47, 8.26408245129248260000e-001) (48, 1.56139754049171210000e-001) (49, 2.81492885192167750000e-001) (50, -4.62234282107003680000e-001) (51, -6.17793369149545410000e-001) (52, -1.80619570417178720000e-001) (53, 4.82269479926613120000e-001) (54, -8.74359802660940930000e-001) (55, -2.44843029776423910000e+000) (56, -3.65342900762178010000e-001) (57, 4.92884795529613810000e-002) (58, -9.02079886208803860000e-001) (59, -1.40384440017542970000e-001) (60, 1.26794521239654010000e-001) (61, 6.39275749497370260000e-002) (62, -1.55611684200204080000e-001) (63, -2.95971369144710070000e+000) (64, -7.21102118890559060000e-002) (65, 1.42885047066466300000e+000) (66, -6.60701076557075770000e-001) (67, 1.05820356216410810000e-001) (68, -2.95032354459648700000e-001) (69, 1.50908442281703240000e+000) (70, 1.87460836445909740000e+000) (71, -2.50638603202117500000e+000) (72, 5.63367442409143240000e-002) (73, -2.66670118991611330000e+000) (74, -3.89756116079509220000e-001) (75, 1.15555051254992390000e-001) (76, -8.87037371840002750000e-001) (77, 1.12482141291202580000e+000) (78, 6.26964312270622660000e-001) (79, 1.70677889661377540000e+000) (80, 4.71907054090452420000e-001) (81, 1.01632965160040210000e+000) (82, -3.03730198946741000000e+000) (83, 4.70785340320717970000e+000) (84, 1.74943404243348160000e+000) (0, 5.00047445939419410000e-001) (1, -7.73133609106974260000e-001) (2, -7.18464657945431240000e-001) (3, -2.71274709686604280000e-001) (4, 2.74604096945712080000e-002) (5, -6.84165767018902640000e-001) (6, 9.35651665113712670000e-001) (7, -4.18578506105461710000e-001) (8, -4.56352738691507550000e-001) (9, -5.11663537825901350000e-001) (10, 6.93817578272812760000e-001) (11, -5.31330868659800280000e-001) (12, -6.28379577634035290000e-001) (13, 3.43431872800220860000e-001) (14, -6.53008545114044050000e-001) (15, 2.25273978701073160000e-001) (16, -2.28562631463140630000e-001) (17, -7.80561568766567790000e-001) (18, -2.36862730050477340000e-001) (19, 1.65962926273147850000e-001) (20, -1.05287993156000170000e+000) (21, -7.27881375245490570000e-001) (22, 5.58057768842252000000e-001) (23, -6.49226990623342490000e-002) (24, -5.18997449856330670000e-001) (25, -2.16082080252726630000e-001) (26, 8.32219105753140560000e-002) (27, -4.20733680689430180000e-001) (28, -2.40982434745388520000e-001) (29, -9.13782875551755190000e-001) (30, -2.63568929610833200000e-002) (31, -2.93288685248352670000e-001) (32, 9.84690283507025140000e-001) (33, -2.74326804422107720000e-001) (34, -1.44019501446022550000e-001) (35, 5.32128529341558900000e-002) (36, 8.90470167247650270000e-001) (37, 4.20796334260534920000e-001) (38, -9.43627950201702680000e-002) (39, -3.85790974188538690000e-001) (40, 8.33390975045422140000e-001) (41, 7.03766876109402250000e-001) (42, -1.87021025648909020000e-001) (43, 4.27017471138699870000e-001) (44, -8.57957388270252250000e-001) (45, -2.40221549627695790000e-001) (46, -4.91086037966042550000e-001) (47, -1.06307645393870050000e+000) (48, 1.02849569609616550000e+000) (49, -2.38684651971327350000e-001) (50, 7.39237060294481880000e-001) (51, 9.89402250024814080000e-001) (52, 3.31530198166840320000e-001) (53, -5.42748880288113190000e-001) (54, -7.57835772868831080000e-001) (55, 6.99648582924073610000e-001) (56, 3.61469749350816010000e-002) (57, 1.05681809314560410000e-001) (58, -7.83434315231842370000e-001) (59, 1.12948277089551800000e-001) (60, 3.01222955203261530000e-001) (61, -2.54555099161583480000e-001) (62, 9.67843182188741630000e-002) (63, 7.28126683201718140000e-001) (64, 5.07614103168915530000e-001) (65, 1.67538066917037520000e+000) (66, 2.29232398621912720000e-001) (67, -1.63045141180243940000e-001) (68, -1.21138298501263080000e+000) (69, 2.25575185615270350000e+000) (70, -1.31737744430175100000e+000) (71, 8.96105079007967630000e-002) (72, 1.43045687118815380000e+000) (73, -2.97953460883933420000e+000) (74, -5.70102324469295650000e-001) (75, 2.73963102783926100000e-001) (76, -1.44647520583298020000e-001) (77, -3.71611006362355890000e-001) (78, 1.84220892538963230000e-001) (79, 2.35396403765925990000e-001) (80, 1.00851795403042340000e+000) (81, 2.26327209782749210000e+000) (82, 6.27081404424139180000e-001) (83, 1.17559861257330820000e+000) (84, 1.46383604398708260000e-001) (85, 1.17583896320592940000e+000) (0, -1.13352937579957970000e-001) (1, -2.54280473728613290000e-001) (2, -8.43433923072476890000e-001) (3, -6.69559219588828250000e-001) (4, -5.82108028718347660000e-001) (5, -2.24802232091078050000e-001) (6, 8.66098786340240290000e-001) (7, -7.72814656797551460000e-001) (8, -1.15199216964719460000e-001) (9, 9.74632633507857120000e-001) (10, 6.09401330792275870000e-001) (11, -3.44894559277949100000e-001) (12, 7.52007816711489310000e-001) (13, 5.52093496579924920000e-002) (14, -7.49192221270769230000e-001) (15, 7.78973325910963580000e-001) (16, 8.68698218729346720000e-001) (17, -1.01796992880746570000e+000) (18, -9.69600097197114010000e-002) (19, 2.03709517480884670000e-001) (20, -3.76629678113156340000e-001) (21, -1.88068927509077330000e-001) (22, 3.72981170899565780000e-001) (23, -2.04235879529745340000e-001) (24, 4.90872271748763540000e-002) (25, 4.41170904472921400000e-001) (26, 8.10575235525558960000e-002) (27, -3.28534605878505800000e-001) (28, 3.91909390048453040000e-001) (29, 4.26936655699897800000e-001) (30, -2.33954246873474580000e-001) (31, -8.21042320281307050000e-002) (32, -6.15583454332769010000e-002) (33, -9.40158154024654640000e-001) (34, -2.83279664773688710000e-001) (35, -5.15207942517028390000e-001) (36, 9.26033499434069760000e-001) (37, -1.52183770745678540000e-001) (38, 9.58623857410583200000e-002) (39, 9.69981475840613010000e-001) (40, -2.16432585525162370000e-001) (41, -2.15968992830983340000e-001) (42, -6.92210803554221380000e-001) (43, 4.25331813447838600000e-001) (44, 1.27321398706246230000e-001) (45, 1.45060377951083010000e-001) (46, -7.09737827907062080000e-001) (47, 3.63914680838457570000e-001) (48, 3.67798271860231230000e-001) (49, -2.92603448095287820000e-001) (50, 6.52121297705493760000e-001) (51, 4.31481666602358540000e-001) (52, 2.11127431832825370000e-001) (53, -3.97945161569269510000e-001) (54, -7.63439691053454880000e-001) (55, 3.54690394096415340000e-001) (56, -1.56615751653356420000e-001) (57, 1.50283265535413570000e-001) (58, -1.40301053994029520000e+000) (59, 1.03869938084186800000e-002) (60, 7.15046911820497460000e-002) (61, -2.35177635256091260000e-001) (62, -8.06810636170134380000e-002) (63, -1.11001905978780920000e+000) (64, -3.29269947370619710000e-001) (65, 3.20300526810519460000e+000) (66, -5.98958103854683510000e-001) (67, -1.14922561666805170000e+000) (68, 1.68923183266401770000e+000) (69, -1.17938571349599290000e+000) (70, 2.61880359168186240000e+000) (71, -2.52513771961347190000e+000) (72, -2.93422709928961300000e-001) (73, 1.61490862101419300000e-001) (74, -2.85103925034053130000e-001) (75, -6.35670255330816450000e-001) (76, 6.52878618503804580000e-001) (77, -3.14593406900286640000e-001) (78, 7.85427708528886210000e-001) (79, 9.19880309737040460000e-002) (80, 7.78666543561786000000e-001) (81, 9.45307143911040260000e-002) (82, 5.72836714919135350000e-001) (83, 1.19844926564660460000e+000) (84, 9.06762000887394780000e-001) (85, 3.20886292867700260000e-001) (86, 6.28783367606845500000e-001) (0, 4.38347395414933010000e-001) (1, -3.91629068486905390000e-002) (2, -5.50718649631318340000e-001) (3, -2.86107125795093900000e-001) (4, 9.14322092331375650000e-002) (5, -6.28914344448462840000e-001) (6, 1.49365200336254920000e-001) (7, 3.57953430939127240000e-001) (8, 5.20611592849357760000e-001) (9, -4.73246328553382110000e-001) (10, -8.37634291346600950000e-001) (11, -3.28866171697806410000e-002) (12, 6.69588837607154490000e-001) (13, 7.38649482920770260000e-001) (14, -7.57839702783964400000e-001) (15, 4.79692998863713640000e-001) (16, 6.58526454577413540000e-001) (17, -4.47965454875602240000e-001) (18, 3.10427953537576800000e-001) (19, 3.04477413137071270000e-001) (20, -7.22180586368985860000e-001) (21, 4.18571613821176540000e-002) (22, -1.37553389742050200000e-001) (23, -1.41915239551180880000e-001) (24, 2.99249086712004180000e-001) (25, 3.96401940963040100000e-001) (26, 2.95807981825491670000e-001) (27, -3.78815592180549280000e-001) (28, 3.21136241873874070000e-001) (29, 1.15749301232617260000e-001) (30, -5.89415156528038550000e-001) (31, -3.66453945303817310000e-001) (32, -7.18888391213810400000e-002) (33, -2.41200412110525590000e-001) (34, -1.10795585420688260000e-001) (35, -1.25255152835279830000e-001) (36, 6.60466492354130240000e-001) (37, 7.71905928536840590000e-001) (38, 1.88002122116537770000e-001) (39, 1.08696728114565190000e+000) (40, 5.09763890395991460000e-001) (41, -4.26799743852732670000e-001) (42, -4.13064124917278290000e-001) (43, -2.35508151704714650000e-001) (44, -1.82910006247433000000e-001) (45, 7.10663860063488690000e-001) (46, 2.46850212314064370000e-001) (47, 5.99017578737859880000e-001) (48, 5.84248051726104780000e-002) (49, -2.57337039807829570000e-001) (50, 1.70812716405713240000e-001) (51, 1.83557582363140240000e-001) (52, 2.10535676712130630000e-002) (53, -4.61213492748725250000e-001) (54, -2.57708789570181730000e-001) (55, -1.33703683806495670000e+000) (56, -3.46766922891326600000e-001) (57, 1.24781339210098860000e-001) (58, -7.62543736073044150000e-001) (59, 3.79778214535787740000e-002) (60, 1.27797398276767140000e-001) (61, -1.38669272378138720000e-001) (62, 1.80732973172801070000e-001) (63, -2.29844134556589810000e+000) (64, 7.63123776745005760000e-001) (65, 1.72569063756385740000e+000) (66, -2.83632795173533880000e+000) (67, 2.43021680885229930000e-001) (68, 9.13191004058492260000e-003) (69, -2.41163184088735780000e+000) (70, 2.09886287167835690000e-001) (71, -6.68295202868459780000e-001) (72, 5.92951333757346170000e-002) (73, 1.18704325043127490000e+000) (74, 1.08860737985654810000e+000) (75, 1.22679896862640540000e+000) (76, 1.46121589843247800000e-001) (77, 9.41619668397111640000e-001) (78, -5.97587007713622080000e-002) (79, 1.22494341719247830000e-001) (80, 8.00582069889948400000e-001) (81, 1.29733646883869990000e+000) (82, -2.07363780303617350000e-001) (83, 1.51206826250414260000e+000) (84, 8.60415950597338440000e-001) (85, 3.29287804713011610000e-001) (86, 1.41259409349071880000e-001) (87, -7.44259222891933910000e-001) (0, 2.94824754752532060000e-001) (1, 4.68641831324996610000e-002) (2, -6.53897205470756910000e-001) (3, 9.47911620653715260000e-001) (4, 8.36472996963265160000e-001) (5, -9.61914722414339950000e-001) (6, -4.23951199926413040000e-002) (7, 4.14197948197165040000e-001) (8, 2.10517367941449540000e-001) (9, -1.94762221230715290000e-001) (10, 5.89987812452061440000e-001) (11, -2.05699295354764490000e-002) (12, -2.93027288962340930000e-001) (13, 2.19204463589285220000e-001) (14, -8.57436215330808490000e-002) (15, 2.18229042758682130000e-001) (16, 3.63852045519999640000e-002) (17, -3.84554419603788390000e-001) (18, 4.17771047155310880000e-001) (19, 4.21441405319704500000e-002) (20, -1.14013739365596400000e+000) (21, -2.94471668729577420000e-001) (22, 2.71485728405040430000e-001) (23, 5.74445052065888470000e-001) (24, 1.78448396031737300000e+000) (25, 3.25781846200579820000e-001) (26, 8.97572491261910740000e-001) (27, -6.69730172388662420000e-002) (28, -6.30648618720619230000e-002) (29, -7.88805514824748260000e-001) (30, -6.24519214259093290000e-001) (31, -1.52549377256436200000e-003) (32, -6.50255032024913190000e-001) (33, -2.64573629377092560000e-001) (34, 1.29109360615517410000e+000) (35, -4.64595855428349470000e-001) (36, 8.23301696677399390000e-001) (37, -4.56806018679595750000e-001) (38, 5.01343979579970570000e-001) (39, -6.11676846857635130000e-001) (40, -6.07217550962077180000e-002) (41, -5.55443721091514080000e-001) (42, 5.50809116811394770000e-001) (43, -8.52341372007426660000e-001) (44, -9.91539054726919060000e-001) (45, 3.46356416346494500000e-001) (46, 8.44707287229223610000e-001) (47, 4.01386302383950400000e-001) (48, -5.74107588862013300000e-001) (49, -3.82827055998603140000e-002) (50, -3.52155896118000910000e-001) (51, 1.17129805098807350000e+000) (52, 2.40886882993793210000e-001) (53, -5.68459984386799680000e-001) (54, -1.80713632451239310000e-001) (55, -5.96525907970542280000e-001) (56, 6.69966514186438320000e-002) (57, -3.10466909849246470000e-002) (58, -1.02191209059388390000e+000) (59, -1.25998078398194460000e-001) (60, -2.55834474387587850000e-002) (61, -4.78967170068148560000e-003) (62, 2.55812334696021850000e-002) (63, -1.97186860770737490000e-001) (64, -8.93330509227346360000e-001) (65, 6.34387917995396730000e-001) (66, -1.90708533667012350000e+000) (67, 1.46702676697745620000e+000) (68, -1.08086559482071640000e+000) (69, -2.58588909236873000000e-001) (70, 1.55566434013500630000e+000) (71, -1.28591902255166650000e-001) (72, 1.22571028306682850000e+000) (73, -3.64193398235598620000e+000) (74, 2.20089720891820040000e+000) (75, -9.22644722000219190000e-001) (76, 9.93890713721596760000e-001) (77, 5.42532963325173760000e-001) (78, 1.11637825424036150000e+000) (79, -1.00971947906637490000e-001) (80, 4.52640341394487110000e-002) (81, 4.98641495734501280000e-001) (82, 1.64485224094116230000e+000) (83, 1.31285749644592940000e+000) (84, 1.24909402093672030000e-001) (85, -2.25322381473469150000e+000) (86, 2.80295939038016750000e-001) (87, 1.01722155448684550000e+000) (88, 1.35038550614731290000e+000) (0, -7.01334795641926130000e-001) (1, -1.96567844726179080000e-001) (2, 8.54888155023929790000e-001) (3, 2.90623087211898220000e-001) (4, 8.99296681770696830000e-002) (5, -1.49490541225729440000e-001) (6, -4.49159114600755420000e-001) (7, -3.59122369242164340000e-001) (8, 5.96126316852257590000e-001) (9, 7.72775916524823690000e-001) (10, -3.63358609937710240000e-001) (11, -3.12304478733465730000e-001) (12, 3.33393076675939870000e-001) (13, 2.26649844127277650000e-001) (14, 4.45038292623976870000e-001) (15, -4.51080731719289140000e-001) (16, -1.16482761748224690000e-001) (17, -8.21719088418478960000e-001) (18, -4.20148823171205670000e-001) (19, -3.89595505953770420000e-002) (20, -4.51345325292776930000e-001) (21, 8.76666139831035750000e-002) (22, -2.72072041016810600000e-001) (23, -3.20132408480217620000e-002) (24, -1.00031601823542260000e-001) (25, 2.95662560764648640000e-001) (26, 4.01104363296971160000e-002) (27, -2.77892129148251450000e-001) (28, 2.24260248987065840000e-001) (29, 2.16921580889551690000e-001) (30, -1.06186709435704030000e+000) (31, 4.34967947139392240000e-001) (32, -5.90585093820082170000e-001) (33, 6.31843658049821790000e-001) (34, -1.01817362915592180000e-001) (35, 3.42679216638385950000e-002) (36, -7.94127123517879730000e-001) (37, -6.80464370233617280000e-001) (38, 5.50046364799133710000e-001) (39, -6.63410916911444710000e-001) (40, -4.82235177099569890000e-002) (41, -8.85450732401300010000e-001) (42, 1.26024481752923130000e-001) (43, 1.12112251957908840000e+000) (44, -4.37691958556611640000e-001) (45, 6.30555140223568180000e-001) (46, -9.82837811394536300000e-002) (47, -2.72793814361328660000e-001) (48, 7.73951404435273880000e-001) (49, -4.69666205268189470000e-001) (50, -2.96733454322024580000e-001) (51, 4.98925123838162510000e-001) (52, -2.50000206422955410000e-002) (53, -2.80159842421959680000e-001) (54, 3.14832334598041050000e-001) (55, 4.70332111357166020000e-001) (56, 1.64077492473654830000e-001) (57, 6.43928270087357760000e-002) (58, 1.55433155776849840000e+000) (59, 1.76534324032364690000e-001) (60, 9.70697985991444550000e-002) (61, -1.68073011542224700000e-001) (62, 1.42217669292176440000e-001) (63, 2.78311528505231000000e-001) (64, 1.34730633128446350000e+000) (65, 2.72432896653490300000e-001) (66, -2.78898160880595960000e+000) (67, 1.03317688517632500000e+000) (68, 4.03064172087687180000e-003) (69, -9.82554218560982430000e-002) (70, 1.65864507998442590000e+000) (71, -1.92754358678779160000e-001) (72, -1.13074235809095910000e-001) (73, -1.32035267108036480000e+000) (74, 2.31124525639692950000e+000) (75, -1.39088953046778640000e+000) (76, -1.15336302783927550000e+000) (77, -2.98332806774962600000e-001) (78, -1.33838819590807650000e-001) (79, 2.79166682832991010000e-001) (80, 1.18079557199412570000e+000) (81, 5.50943755780127640000e-003) (82, 1.23130747204605660000e+000) (83, 6.32864549143954620000e-001) (84, -7.92920152157571500000e-001) (85, 1.38449067341568590000e+000) (86, 9.57604997116608620000e-001) (87, 1.04236786261514420000e+000) (88, 2.63023758801940870000e-002) (89, -8.15005299077420030000e-001) (0, 9.81120349336035650000e-001) (1, 1.07380226399630500000e+000) (2, 6.85516407535666890000e-001) (3, -6.48406297692480590000e-001) (4, -6.55489462101170430000e-001) (5, -1.03629141657079220000e-001) (6, 1.16529344330661730000e-001) (7, -7.06474019464703450000e-001) (8, 1.85324881044049010000e-001) (9, -4.23782907590540990000e-001) (10, 6.31349905491353390000e-001) (11, -6.56617851334482580000e-001) (12, 4.24889034653503080000e-001) (13, 8.93594295851074860000e-001) (14, -2.46410406387502750000e-001) (15, -4.26962059733454860000e-001) (16, 1.63307608568197930000e-001) (17, 8.14030846776313540000e-001) (18, 8.49270935036017920000e-001) (19, -2.30113431781343050000e-001) (20, 1.31601626369000360000e-001) (21, 7.80043465426862870000e-001) (22, -2.82289527849976460000e-001) (23, 2.65442772829989290000e-001) (24, 9.17123068241072150000e-001) (25, 3.55284175419080530000e-001) (26, 9.48222229987525810000e-001) (27, 2.63091349219964800000e-001) (28, 7.47361774383903170000e-001) (29, -8.31449354761950170000e-002) (30, 1.29424121938731100000e-001) (31, 2.14489420539609600000e-003) (32, -4.10419034396971580000e-001) (33, -3.87918396332830820000e-001) (34, 4.42951610756025790000e-001) (35, 6.25888475294458240000e-002) (36, -6.49893820194891860000e-002) (37, 1.01071850863264000000e+000) (38, -1.90291147415906110000e-001) (39, 4.11320742829933070000e-002) (40, 6.74859842660162970000e-001) (41, 4.16636867245483490000e-001) (42, 3.92936429939411520000e-001) (43, -5.65800092402747090000e-001) (44, -2.73181716945027020000e-001) (45, 1.10965444990166650000e-001) (46, 2.52709828421106790000e-001) (47, 3.15824230058771360000e-001) (48, 8.16876575511681360000e-001) (49, -3.58002979712140180000e-001) (50, -4.54520823252466340000e-001) (51, -4.18574159546613700000e-001) (52, 2.16657350287766230000e-001) (53, 2.75064576992156810000e-001) (54, -8.43777066165969810000e-001) (55, -2.21056582635725940000e+000) (56, 3.69865341881973060000e-002) (57, -1.19841308584176410000e-001) (58, -2.00625837939579150000e+000) (59, -1.06736478339535160000e-001) (60, -1.72810991592635310000e-002) (61, 2.54670119516286430000e-001) (62, -2.52276057401715940000e-001) (63, 1.60672469715902480000e+000) (64, -1.10042316891123030000e+000) (65, -1.79393114965859350000e+000) (66, -1.03398008981673750000e+000) (67, -2.48700764240454620000e+000) (68, 1.51324311733361580000e+000) (69, 4.23305548400074620000e-001) (70, 2.84888185916818190000e-001) (71, -6.73731645949924960000e-001) (72, 1.34312006142191700000e+000) (73, -4.80342284896564940000e-001) (74, 2.36600030042703490000e+000) (75, -6.73059756514819830000e-002) (76, -4.40263024810183460000e-002) (77, 1.53270610660314930000e+000) (78, -6.91229662515987530000e-003) (79, 8.34715608445978360000e-001) (80, -1.59813108398185470000e-001) (81, 1.42943384569345410000e+000) (82, 1.00558603715748900000e+000) (83, 1.83524085944552880000e-001) (84, 1.20944469098776120000e+000) (85, -2.60178976038528910000e+000) (86, 2.17160243133708160000e+000) (87, -5.91469065781932840000e-002) (88, -5.31590031938680260000e-001) (89, -1.81404303298782280000e+000) (90, 3.81040308081522560000e-001) (0, -6.10126820323255490000e-001) (1, -5.20203651171715080000e-001) (2, 3.75325447876224410000e-001) (3, 5.16862969276558950000e-001) (4, -3.26964625203749300000e-001) (5, 1.10375471016291970000e+000) (6, -2.33024159002027030000e-001) (7, -4.34583653424001960000e-001) (8, -1.82165952902679200000e-001) (9, -4.48565500655877860000e-001) (10, 3.49574961332668130000e-001) (11, -7.07274105989202650000e-002) (12, -9.27467025306390910000e-001) (13, -5.41590438521241110000e-001) (14, 3.55298090295407210000e-001) (15, 1.08263522061508910000e-001) (16, 3.26365943335987230000e-001) (17, -4.06002680674974470000e-001) (18, 6.72099360136498620000e-001) (19, -2.61065089049207810000e-002) (20, -4.15470511820618060000e-001) (21, -4.25528670709815760000e-001) (22, 5.79679954632954740000e-001) (23, 1.79605938599067010000e-001) (24, -4.17766236149187330000e-002) (25, 4.44183513754239310000e-001) (26, 5.39945359782100790000e-001) (27, 2.77407231538862010000e-002) (28, 7.39000101390535740000e-001) (29, 5.79831633028181860000e-001) (30, -1.00071301912450870000e-001) (31, -5.30996417883001780000e-001) (32, 3.10746332083369710000e-001) (33, -4.68031356440462230000e-001) (34, -6.30035008573880620000e-001) (35, -1.50460916510133600000e-001) (36, -7.25263328643760420000e-001) (37, -4.55958344123785160000e-001) (38, 7.22833688594471720000e-001) (39, -1.60134864553251380000e-001) (40, -5.96866230561858280000e-001) (41, 8.64759039535265450000e-001) (42, -3.43594632565637660000e-001) (43, 4.69526063810837560000e-001) (44, -3.34601219296987770000e-001) (45, -1.16018255486653330000e-001) (46, 3.84728857988977710000e-001) (47, 2.81452837690720710000e-001) (48, 2.18763006031870680000e-001) (49, 5.19854558673178760000e-001) (50, 2.76150602059015650000e-001) (51, -4.47022090296370690000e-001) (52, 4.26164619549180330000e-001) (53, -3.00899406905107300000e-001) (54, -4.44288051827088080000e-001) (55, 2.12246591676437980000e-002) (56, -1.42289717252081400000e-002) (57, 7.39074561437712270000e-002) (58, 6.41288467093352470000e-002) (59, -2.28245799621555890000e-002) (60, 1.55654845630059880000e-001) (61, 7.24109482961737130000e-002) (62, -7.27136424761644220000e-002) (63, -1.19009899544339490000e+000) (64, -2.75528518158760840000e-001) (65, 2.06580782057503410000e+000) (66, -3.66759944542866470000e+000) (67, -2.73397837768094950000e-001) (68, 2.09595787804229070000e+000) (69, -3.58902557495148320000e-001) (70, 4.17981300268944810000e-001) (71, -6.14871616548188670000e-001) (72, 1.49556469212602460000e+000) (73, -4.60320151516314270000e+000) (74, 1.19725404701618230000e+000) (75, 2.11401567012805100000e+000) (76, 4.29065039870064220000e-001) (77, 8.36696255062136850000e-001) (78, -1.90315313299511580000e-002) (79, -9.07319874305547030000e-002) (80, -6.26818555493812380000e-001) (81, 3.24671527621441850000e+000) (82, -1.42580473649803110000e-003) (83, 6.31201121944011350000e-001) (84, 2.00710762043605520000e-001) (85, -9.64143682882445340000e-001) (86, 2.01534686749750900000e+000) (87, -6.57342173383411390000e-001) (88, -1.84012257399682240000e-001) (89, -3.59459038365655690000e+000) (90, 1.52529561727009620000e+000) (91, 1.78530849271758860000e+000) (0, -6.13726415820076700000e-001) (1, -3.60007824014596360000e-001) (2, 5.20074544371829870000e-001) (3, -6.41880133938652950000e-001) (4, 8.69594327137673150000e-001) (5, -8.08413596690267800000e-001) (6, 1.51996775191351270000e-001) (7, 6.03233501418302740000e-002) (8, -3.04263569414323260000e-002) (9, 8.28463194211157220000e-001) (10, 