FANN_FLO_2.1
num_layers=60
learning_rate=0.700000
connection_rate=1.000000
network_type=1
learning_momentum=0.000000
training_algorithm=2
train_error_function=1
train_stop_function=0
cascade_output_change_fraction=0.010000
quickprop_decay=-0.000100
quickprop_mu=1.750000
rprop_increase_factor=1.200000
rprop_decrease_factor=0.500000
rprop_delta_min=0.000000
rprop_delta_max=50.000000
rprop_delta_zero=0.100000
cascade_output_stagnation_epochs=12
cascade_candidate_change_fraction=0.010000
cascade_candidate_stagnation_epochs=12
cascade_max_out_epochs=150
cascade_max_cand_epochs=150
cascade_num_candidate_groups=2
bit_fail_limit=3.49999999999999980000e-001
cascade_candidate_limit=1.00000000000000000000e+003
cascade_weight_multiplier=4.00000000000000020000e-001
cascade_activation_functions_count=10
cascade_activation_functions=3 5 7 8 10 11 14 15 16 17 
cascade_activation_steepnesses_count=4
cascade_activation_steepnesses=2.50000000000000000000e-001 5.00000000000000000000e-001 7.50000000000000000000e-001 1.00000000000000000000e+000 
layer_sizes=56 1 1 1 1 1 1 1 1 1 1 1 1 1 1 1 1 1 1 1 1 1 1 1 1 1 1 1 1 1 1 1 1 1 1 1 1 1 1 1 1 1 1 1 1 1 1 1 1 1 1 1 1 1 1 1 1 1 1 1 
scale_included=0
neurons (num_inputs, activation_function, activation_steepness)=(0, 0, 0.00000000000000000000e+000) (0, 0, 0.00000000000000000000e+000) (0, 0, 0.00000000000000000000e+000) (0, 0, 0.00000000000000000000e+000) (0, 0, 0.00000000000000000000e+000) (0, 0, 0.00000000000000000000e+000) (0, 0, 0.00000000000000000000e+000) (0, 0, 0.00000000000000000000e+000) (0, 0, 0.00000000000000000000e+000) (0, 0, 0.00000000000000000000e+000) (0, 0, 0.00000000000000000000e+000) (0, 0, 0.00000000000000000000e+000) (0, 0, 0.00000000000000000000e+000) (0, 0, 0.00000000000000000000e+000) (0, 0, 0.00000000000000000000e+000) (0, 0, 0.00000000000000000000e+000) (0, 0, 0.00000000000000000000e+000) (0, 0, 0.00000000000000000000e+000) (0, 0, 0.00000000000000000000e+000) (0, 0, 0.00000000000000000000e+000) (0, 0, 0.00000000000000000000e+000) (0, 0, 0.00000000000000000000e+000) (0, 0, 0.00000000000000000000e+000) (0, 0, 0.00000000000000000000e+000) (0, 0, 0.00000000000000000000e+000) (0, 0, 0.00000000000000000000e+000) (0, 0, 0.00000000000000000000e+000) (0, 0, 0.00000000000000000000e+000) (0, 0, 0.00000000000000000000e+000) (0, 0, 0.00000000000000000000e+000) (0, 0, 0.00000000000000000000e+000) (0, 0, 0.00000000000000000000e+000) (0, 0, 0.00000000000000000000e+000) (0, 0, 0.00000000000000000000e+000) (0, 0, 0.00000000000000000000e+000) (0, 0, 0.00000000000000000000e+000) (0, 0, 0.00000000000000000000e+000) (0, 0, 0.00000000000000000000e+000) (0, 0, 0.00000000000000000000e+000) (0, 0, 0.00000000000000000000e+000) (0, 0, 0.00000000000000000000e+000) (0, 0, 0.00000000000000000000e+000) (0, 0, 0.00000000000000000000e+000) (0, 0, 0.00000000000000000000e+000) (0, 0, 0.00000000000000000000e+000) (0, 0, 0.00000000000000000000e+000) (0, 0, 0.00000000000000000000e+000) (0, 0, 0.00000000000000000000e+000) (0, 0, 0.00000000000000000000e+000) (0, 0, 0.00000000000000000000e+000) (0, 0, 0.00000000000000000000e+000) (0, 0, 0.00000000000000000000e+000) (0, 0, 0.00000000000000000000e+000) (0, 0, 0.00000000000000000000e+000) (0, 0, 0.00000000000000000000e+000) (0, 0, 0.00000000000000000000e+000) (56, 14, 5.00000000000000000000e-001) (57, 11, 1.00000000000000000000e+000) (58, 15, 5.00000000000000000000e-001) (59, 16, 7.50000000000000000000e-001) (60, 16, 7.50000000000000000000e-001) (61, 5, 1.00000000000000000000e+000) (62, 14, 2.50000000000000000000e-001) (63, 16, 5.00000000000000000000e-001) (64, 11, 5.00000000000000000000e-001) (65, 17, 2.50000000000000000000e-001) (66, 3, 2.50000000000000000000e-001) (67, 5, 2.50000000000000000000e-001) (68, 14, 5.00000000000000000000e-001) (69, 11, 2.50000000000000000000e-001) (70, 11, 2.50000000000000000000e-001) (71, 17, 5.00000000000000000000e-001) (72, 16, 2.50000000000000000000e-001) (73, 15, 5.00000000000000000000e-001) (74, 15, 2.50000000000000000000e-001) (75, 15, 5.00000000000000000000e-001) (76, 15, 2.50000000000000000000e-001) (77, 15, 7.50000000000000000000e-001) (78, 14, 5.00000000000000000000e-001) (79, 16, 7.50000000000000000000e-001) (80, 5, 7.50000000000000000000e-001) (81, 11, 2.50000000000000000000e-001) (82, 14, 7.50000000000000000000e-001) (83, 5, 2.50000000000000000000e-001) (84, 14, 1.00000000000000000000e+000) (85, 14, 5.00000000000000000000e-001) (86, 15, 5.00000000000000000000e-001) (87, 5, 2.50000000000000000000e-001) (88, 14, 7.50000000000000000000e-001) (89, 11, 2.50000000000000000000e-001) (90, 14, 5.00000000000000000000e-001) (91, 5, 2.50000000000000000000e-001) (92, 15, 2.50000000000000000000e-001) (93, 14, 2.50000000000000000000e-001) (94, 15, 5.00000000000000000000e-001) (95, 14, 2.50000000000000000000e-001) (96, 15, 2.50000000000000000000e-001) (97, 15, 5.00000000000000000000e-001) (98, 15, 5.00000000000000000000e-001) (99, 15, 2.50000000000000000000e-001) (100, 14, 7.50000000000000000000e-001) (101, 15, 2.50000000000000000000e-001) (102, 3, 2.50000000000000000000e-001) (103, 15, 5.00000000000000000000e-001) (104, 11, 5.00000000000000000000e-001) (105, 15, 2.50000000000000000000e-001) (106, 17, 7.50000000000000000000e-001) (107, 5, 2.50000000000000000000e-001) (108, 17, 2.50000000000000000000e-001) (109, 14, 5.00000000000000000000e-001) (110, 14, 2.50000000000000000000e-001) (111, 3, 2.50000000000000000000e-001) (112, 15, 7.50000000000000000000e-001) (113, 5, 2.50000000000000000000e-001) (114, 11, 5.00000000000000000000e-001) 
connections (connected_to_neuron, weight)=(0, 1.66672776098474620000e+000) (1, 9.90939796247174760000e-001) (2, 2.10941672361405570000e+000) (3, 2.93718894444485230000e-001) (4, 2.17377756107061510000e+000) (5, 1.48488041363317770000e+000) (6, 8.93292413379918710000e-001) (7, 3.79501244381575060000e-001) (8, 1.03042207406644960000e+000) (9, 8.99695224464602370000e-001) (10, 1.45659911412592910000e+000) (11, -3.99075671016495770000e-001) (12, 7.99539932985886440000e-001) (13, 3.27242950001174480000e-001) (14, 1.65892127886329320000e+000) (15, 1.35868663914992390000e+000) (16, 1.83047043401090700000e+000) (17, 1.58908688925199230000e+000) (18, 5.67158438411761720000e-001) (19, 4.37932747900902530000e-001) (20, 2.92776713903120990000e-001) (21, 2.96420436337672450000e-001) (22, -7.17719786570152780000e-001) (23, 7.85082823658329490000e-001) (24, 2.16288505203321830000e+000) (25, -2.89122337330194210000e-001) (26, 1.53374493929791260000e+000) (27, 1.86713288085064470000e+000) (28, 4.04995649439547190000e-001) (29, -5.45623159919566780000e-001) (30, 9.25773861904435110000e-001) (31, 1.44343604781435330000e+000) (32, 8.51188157535236690000e-001) (33, 1.09726324044009620000e+000) (34, 1.14969387615680580000e+000) (35, 1.42546826777279280000e+000) (36, 1.11624605593398460000e+000) (37, 1.16768806464966390000e+000) (38, 1.28327917079801890000e+000) (39, 1.29748942592350370000e+000) (40, 4.74427956122984110000e-001) (41, 1.51276328400243760000e+000) (42, 6.52709120541217550000e-001) (43, 1.49542086861943170000e+000) (44, 6.35489217162710120000e-001) (45, 1.23400370311066080000e+000) (46, 1.69167632205904050000e+000) (47, 5.43654508901163510000e-001) (48, 1.38249629511689240000e+000) (49, -2.07437975268980640000e-001) (50, 6.13345417450556260000e-001) (51, 7.65624236049209150000e-001) (52, 1.28796825593226050000e+000) (53, 2.14735917097961160000e+000) (54, 2.08167210112540110000e+000) (55, -7.14370850972752660000e-001) (0, -4.79212382297779740000e-001) (1, -4.07048311386012320000e-002) (2, -4.44658343894674570000e-001) (3, -6.40606938475014490000e-001) (4, 6.63607323595827750000e-001) (5, 1.40500133809589170000e-001) (6, 1.10264708232893040000e-001) (7, -3.45419680087609090000e-001) (8, 1.51538414146296830000e+000) (9, -1.67660844974285820000e-001) (10, 6.84343932165682570000e-001) (11, -1.82495449257118110000e-001) (12, 1.94857294489193560000e-001) (13, 2.52355493921157970000e-001) (14, -8.82315491871179860000e-001) (15, 6.61334890088169150000e-001) (16, 1.37702002419210630000e-001) (17, -9.00426028538744010000e-002) (18, 2.82635151011344950000e-001) (19, -5.07190283507702120000e-001) (20, 2.98974034048723860000e-001) (21, -2.86271286964168430000e-001) (22, 2.91394723697256610000e-001) (23, -1.07009730732251600000e+000) (24, 2.11912392242006450000e-001) (25, -7.62352142150954930000e-001) (26, -4.23525782768228660000e-001) (27, -9.46577614127762760000e-001) (28, 4.97491887077934740000e-001) (29, -4.28837568125421180000e-001) (30, 3.48004582681856970000e-001) (31, -4.68576724566593880000e-001) (32, -9.55024568909050520000e-001) (33, 4.70596382250646320000e-001) (34, 6.96495064238585430000e-001) (35, -1.51818730856422800000e-002) (36, 1.18735117795197430000e+000) (37, 2.96978965938975770000e-001) (38, -4.33951022353204980000e-001) (39, -4.25675229345852830000e-001) (40, 8.20145439480927000000e-001) (41, 2.78493122605585170000e-001) (42, 4.22517157653518220000e-001) (43, 1.53156093715510930000e+000) (44, 1.12696633005732600000e-001) (45, 9.74187428256226950000e-001) (46, -7.47416364908101820000e-001) (47, 4.32969178292779750000e-001) (48, 9.28578091812771180000e-002) (49, 1.38221371723178970000e+000) (50, 8.23465642951731520000e-001) (51, 5.00385165717250220000e-001) (52, 8.48229478550513450000e-001) (53, -3.83464028132861070000e-001) (54, 6.35490819310108200000e-001) (55, -2.57777571817065440000e+000) (56, 7.90878625809361690000e-002) (0, 1.42645924649386770000e+000) (1, 1.30235651251395800000e+000) (2, 1.88409527447310140000e+000) (3, 1.28921265469743380000e+000) (4, 5.06522529793347660000e-001) (5, 7.60965161318886470000e-001) (6, 1.53993366541277620000e+000) (7, 7.16915516791925000000e-001) (8, 1.52463820360850800000e+000) (9, 7.67860231773055960000e-001) (10, 5.47392006503834460000e-001) (11, 5.97895873776368550000e-001) (12, 1.08660691839670530000e+000) (13, 1.91781203828574190000e-001) (14, 8.70083483747105870000e-001) (15, 1.01032244192656730000e+000) (16, 1.61255494325025310000e+000) (17, 1.75207732688217170000e+000) (18, 7.34628279621323820000e-001) (19, 1.15774964068957060000e+000) (20, 7.73278284949598160000e-001) (21, 2.10221608067900070000e+000) (22, 2.04002197080806050000e+000) (23, 1.68961352699996750000e+000) (24, 1.31673440276667720000e+000) (25, 1.99204833152683650000e+000) (26, 9.88151566502755930000e-001) (27, 2.22769937498901230000e-001) (28, 2.59867586659553630000e+000) (29, 5.12729633308279360000e-001) (30, 1.77101370398067530000e+000) (31, 8.26981996719784340000e-001) (32, 1.75770936489770400000e+000) (33, 5.73587078860874140000e-002) (34, 1.95850700754139310000e+000) (35, 1.23623009888231380000e+000) (36, 6.27709923794605220000e-001) (37, 1.45810132527697520000e+000) (38, 7.92673367584733390000e-001) (39, 1.15385162371329830000e+000) (40, 1.84178265542486200000e+000) (41, 1.08351021853947230000e+000) (42, 1.25352700030139590000e+000) (43, 1.83334480875624360000e+000) (44, 1.34208048755741880000e+000) (45, 1.71493664759340310000e+000) (46, 2.42693845939962930000e-001) (47, 1.68117507897714140000e+000) (48, 1.27270842845885190000e+000) (49, 2.47458951314822610000e+000) (50, 1.11788654539704700000e+000) (51, 1.11630253915408840000e+000) (52, 3.33508545509871020000e-001) (53, 1.05816020980448420000e+000) (54, 1.21304480294924270000e+000) (55, 1.29744057790575760000e+000) (56, 6.54597987251235410000e-001) (57, -7.00676491581660680000e-001) (0, 1.90485978834971290000e+000) (1, 1.27140494453077380000e+000) (2, 3.35409285176652530000e-001) (3, 1.00258642492649060000e+000) (4, 7.65373748268486920000e-001) (5, 6.03448275404535160000e-001) (6, 5.35865912422884840000e-001) (7, 8.98238413936048860000e-001) (8, 1.53918535753518990000e+000) (9, 1.35898757977929810000e+000) (10, 3.38505263249315290000e-001) (11, 1.24533797515667010000e-001) (12, 6.01954574758157830000e-001) (13, 5.92729749666028430000e-001) (14, 9.83681115082659870000e-001) (15, 7.71361364042077780000e-001) (16, -7.45084813469021510000e-003) (17, 2.35145255647040670000e-001) (18, 2.09354502699364620000e+000) (19, 1.01425087384959120000e+000) (20, -2.00886466692407680000e+000) (21, 4.11950222578004120000e-001) (22, 3.48886161431172810000e+000) (23, 3.29802582798074670000e-001) (24, 1.21598905025583390000e+000) (25, 1.54852417400627160000e+000) (26, 3.94896688960974570000e-001) (27, 1.02185211500534030000e+000) (28, 5.93510315813154940000e-002) (29, 1.34702034054156370000e+000) (30, 1.73404392631222070000e+000) (31, 9.54494923767051140000e-001) (32, 1.60242932049228630000e-001) (33, 4.31853721667466270000e-001) (34, 1.93534079802491310000e+000) (35, 2.09251930586328830000e+000) (36, 1.67122515046563370000e+000) (37, 5.79249164035637860000e-001) (38, -1.24449924693669390000e-001) (39, 1.34553740291791280000e+000) (40, -3.47180757152761930000e-002) (41, 1.25080269279184030000e+000) (42, 1.64085419828605610000e+000) (43, 1.89983970072965010000e+000) (44, 1.25175386884483000000e+000) (45, 1.07611439345968150000e+000) (46, 2.53742783066484060000e+000) (47, -2.69076569560640520000e-001) (48, 8.60385767869662810000e-001) (49, 5.08920550000359180000e-001) (50, 2.22148363615411540000e-001) (51, 1.44468460808370440000e+000) (52, 2.36794373903669890000e+000) (53, 1.75349605294235840000e+000) (54, 1.16656435712085280000e+000) (55, -1.06829126520365540000e+000) (56, 6.56144831433225550000e-001) (57, -1.48109928141461830000e-002) (58, 2.71205596248375210000e+000) (0, 8.31746701784242260000e-001) (1, 2.05289358196564730000e+000) (2, 5.94992835569451480000e-001) (3, 3.84994201983516860000e-001) (4, 1.25036665075684960000e+000) (5, 2.20240837781535870000e+000) (6, 6.47748006986331500000e-001) (7, 1.59401534111394060000e+000) (8, -2.52993354452258760000e-002) (9, -1.66513814398227180000e-001) (10, 6.12033100759299290000e-001) (11, 8.60857916997771810000e-001) (12, 6.37640268687414860000e-001) (13, 4.10033789546222100000e-001) (14, 1.35832976192907080000e+000) (15, 6.98813709458003810000e-001) (16, 1.98793417963318130000e+000) (17, 6.95666911475121160000e-001) (18, 1.02229202397055490000e+000) (19, 1.94422658851309560000e+000) (20, 1.20620306259558820000e+000) (21, 7.26884264431551520000e-002) (22, -8.21468828856300460000e-001) (23, -1.14097351530493290000e-001) (24, 7.85979548694623390000e-001) (25, 1.38196453957179410000e+000) (26, 2.75522034021961490000e-002) (27, 6.82089152407708950000e-001) (28, 1.60198123705962470000e+000) (29, 1.65257861753796930000e+000) (30, 3.78051853048993580000e-001) (31, 1.63455691593310080000e+000) (32, 1.85117923425716000000e+000) (33, -5.45630900341002150000e-001) (34, 1.48611074869052940000e+000) (35, 2.37390094166492820000e+000) (36, 1.92535616589090460000e+000) (37, 1.76072282636458270000e-001) (38, 1.16485541275920720000e+000) (39, 2.10288868090722090000e+000) (40, 1.56088945890516630000e+000) (41, 2.19284759048404430000e+000) (42, 1.04111060276372690000e+000) (43, 1.14921235520264360000e+000) (44, 1.47150543807229470000e+000) (45, 2.27169852269434360000e+000) (46, -2.64315929249160750000e-001) (47, 1.28970893037753780000e+000) (48, 3.67774058857708030000e-001) (49, 1.19005877643942460000e+000) (50, 1.74983755588903290000e+000) (51, 1.03887988223434100000e+000) (52, 8.65313905647483560000e-001) (53, 7.89116587051263860000e-001) (54, -2.69173162532347550000e-003) (55, 1.49051807219368060000e+000) (56, 1.98783266358212930000e+000) (57, 8.70903192571786500000e-001) (58, 7.71933673549865640000e-001) (59, 1.32738514112754210000e+000) (0, -3.17229226624068450000e-002) (1, -3.57798960299163420000e-001) (2, 5.62441509754481370000e-001) (3, -2.50797094131127050000e-001) (4, 6.17720577426855040000e-001) (5, -1.51123056007787640000e-001) (6, 3.07708741018540680000e-001) (7, 7.70339322329901880000e-001) (8, -7.64657203388879190000e-002) (9, 3.88625051444930810000e-001) (10, 2.81508778238317820000e-001) (11, 2.72119573573847250000e-001) (12, 4.58065630517640150000e-001) (13, -9.98269001728162460000e-001) (14, -8.37313967110827620000e-001) (15, 2.26778954241971060000e-001) (16, 6.03207772602656460000e-001) (17, -1.73896838107097300000e-001) (18, -7.83302431452913450000e-001) (19, 3.86110670920480010000e-001) (20, -4.73802552522591350000e-001) (21, -3.05415081853579240000e-001) (22, 6.98361698261334100000e-001) (23, 5.07353839076396860000e-001) (24, 1.58763495337949530000e-001) (25, -3.39031859670858800000e-001) (26, 1.25443491871029680000e+000) (27, 8.75765607060952860000e-001) (28, 5.96700435981728510000e-001) (29, 6.38085376801006630000e-001) (30, -6.47022928917364130000e-001) (31, 5.64712969572050310000e-001) (32, -7.07004728080943280000e-001) (33, 4.98819990074404700000e-001) (34, -5.24093871762297380000e-001) (35, 8.86975606193737410000e-002) (36, -8.87808797234907800000e-001) (37, 1.28337909802349300000e-001) (38, 6.23570547411077420000e-001) (39, 1.24488129067147640000e-002) (40, 1.41571542428567900000e-001) (41, -4.14343744040024610000e-001) (42, -7.63831895834357210000e-002) (43, -1.15229161782840240000e+000) (44, -1.07699788917273390000e+000) (45, -1.94897427839684810000e-001) (46, 5.79231395956553490000e-001) (47, 8.37954288364967880000e-001) (48, -7.33085156695339140000e-001) (49, -1.76565423026940670000e-001) (50, 3.71606873573496920000e-001) (51, 2.82969596510514620000e-001) (52, 1.39944893061580080000e-002) (53, -7.70814807713236630000e-001) (54, -5.42840179819751860000e-001) (55, 9.31821898737683950000e-001) (56, 6.46906835857811170000e-001) (57, 1.51421983404094980000e+000) (58, 2.80930750058378860000e-001) (59, -1.33423730239794550000e+000) (60, 1.67312137383170100000e+000) (0, 1.11120753251316560000e+000) (1, -1.72426413383013140000e-002) (2, 2.50829157779794700000e-001) (3, 2.67070787389064310000e-001) (4, 9.91182151614691920000e-001) (5, 1.03357713616808480000e+000) (6, 1.43183945612527360000e+000) (7, 1.83145661308640490000e+000) (8, -3.86242593858182100000e-001) (9, 1.63843275360063130000e+000) (10, 2.39070514909556390000e-002) (11, 1.26871024203396910000e+000) (12, 1.53460911714436900000e+000) (13, 6.96939147201167900000e-001) (14, 1.23934280204190970000e+000) (15, 1.07842572577128280000e+000) (16, 3.91093947859189940000e-001) (17, 1.27348680489540130000e+000) (18, 1.29143742185682640000e-001) (19, 6.33974356022065530000e-001) (20, -2.28055928981964230000e+000) (21, 1.68897884210926710000e+000) (22, 1.99971103148464420000e+000) (23, 1.36862441058176040000e+000) (24, 8.67278231196008780000e-001) (25, 1.11885285171321010000e+000) (26, 1.68813723858695170000e+000) (27, 8.03242797558915480000e-001) (28, 4.34393622948350270000e+000) (29, 1.39087801455417300000e+000) (30, -9.33125050031802100000e-002) (31, 1.05064743662675460000e+000) (32, 9.97342814936535200000e-001) (33, 1.65771162994151560000e+000) (34, 1.18420719713921780000e+000) (35, 1.50938661695066090000e+000) (36, -1.41471070708329360000e-002) (37, 1.95513487665146050000e+000) (38, -8.36123557996560070000e-002) (39, 6.85951668343609880000e-001) (40, 8.25769096145056890000e-001) (41, 2.06004618463459600000e-001) (42, 4.52848731476725580000e-002) (43, 8.33029822809141060000e-001) (44, 1.27707341285607320000e+000) (45, 1.17175041388917540000e+000) (46, 9.99700933254371260000e-001) (47, 1.16272682466310060000e+000) (48, 2.59380466779371230000e+000) (49, 7.51376033228820630000e-001) (50, -1.09539002973203100000e-001) (51, 1.07204114948178280000e+000) (52, 3.17326909819966070000e+000) (53, 1.35349748221376290000e+000) (54, 1.74246890579929100000e+000) (55, -5.46129584649345130000e-001) (56, 2.00040844159391580000e+000) (57, 1.10736119852112440000e-001) (58, 8.85087804075498810000e-001) (59, -9.51640359260833570000e-002) (60, 1.99650415451149430000e+000) (61, 1.75262583614651720000e+000) (0, 2.41580997555103230000e+000) (1, 9.33639945565960310000e-001) (2, 1.59486438364691500000e+000) (3, 1.60028042443590170000e+000) (4, 4.90321824252518070000e-002) (5, 1.33660312426028290000e+000) (6, 1.15032126048195950000e+000) (7, 4.68340961598969370000e-001) (8, 5.42132569216200570000e-001) (9, 1.56984491919792360000e+000) (10, 1.48145729878696050000e+000) (11, 1.26641053504289490000e+000) (12, 1.27487955735022630000e+000) (13, 1.69012142017518220000e+000) (14, 1.08097028087794240000e+000) (15, 2.02408074580320330000e+000) (16, 7.80113378566250960000e-001) (17, 1.07790564509761460000e+000) (18, 1.16146721135497640000e+000) (19, 3.92530423136829800000e+000) (20, -7.40623329664120140000e-001) (21, -1.54030160334639030000e+000) (22, 1.18428312121998340000e+000) (23, 1.39006896231204440000e+000) (24, 2.28040004832064500000e+000) (25, 2.68527404250817390000e-001) (26, 1.85659599785552410000e-001) (27, 2.46169249252701670000e+000) (28, 3.42940508772972620000e+000) (29, -1.01922430816358860000e+000) (30, -3.92505803285933260000e-001) (31, -9.52641388578274600000e-002) (32, 1.91680392449924190000e+000) (33, 1.82924898992951030000e+000) (34, -8.00747987766530780000e-001) (35, -1.18749298832619820000e+000) (36, 1.41425403464191810000e+000) (37, 4.25887377223676030000e-001) (38, 6.54938065575257130000e-001) (39, 1.88884203949563600000e+000) (40, 1.53894061363970320000e+000) (41, 1.27504950674841160000e+000) (42, 1.58076580029402150000e+000) (43, 1.50227938161700610000e+000) (44, 9.94229010273260600000e-001) (45, 8.52516590826874920000e-001) (46, 1.26920713603339760000e+000) (47, 9.93299271356184680000e-001) (48, 2.19974787234836280000e+000) (49, 6.42763638435482620000e-002) (50, 2.63969192036520320000e+000) (51, 2.24732018470228030000e-001) (52, -3.38193469761275620000e-001) (53, 2.43436493171795650000e+000) (54, 5.77313404066189690000e-001) (55, -7.49462574144138970000e-001) (56, 5.89959910282848780000e-001) (57, -9.00127909265559860000e-001) (58, -1.80349875717932620000e-001) (59, 9.96098452215269600000e-001) (60, 1.96380507590257230000e+000) (61, 1.82842647877150720000e+000) (62, 6.41588063668446560000e-001) (0, -6.48910327477100870000e-001) (1, -8.10392931870896120000e-001) (2, -1.52073177983700600000e-001) (3, 2.28247168100885520000e-001) (4, -3.51844126718119430000e-001) (5, -6.20289094617215260000e-001) (6, -5.59135012537768210000e-001) (7, -5.59038209742804050000e-001) (8, 3.22617341617787710000e-002) (9, 1.09849814361387790000e+000) (10, 7.57150402337626760000e-001) (11, 9.30612096449420780000e-002) (12, 8.63176716717057200000e-001) (13, -2.83567976123697390000e-001) (14, -7.13829106216629650000e-001) (15, -1.05460312032269240000e+000) (16, 3.84133087390406030000e-001) (17, 2.48939993358718000000e-001) (18, -1.62375629550891940000e-001) (19, 2.43194393314873800000e-001) (20, -1.69693460178622500000e-001) (21, 3.07644416858006140000e-001) (22, 2.66380280596933750000e-001) (23, 2.87135637403104330000e-001) (24, -3.42112844000452830000e-001) (25, -1.96605852531232190000e-001) (26, 9.15677167989211170000e-001) (27, 1.01710427204852770000e-001) (28, 5.98870831260738030000e-001) (29, -7.13227861255053440000e-001) (30, 6.24846684062555380000e-003) (31, -2.72864910855764640000e-001) (32, -8.71877631672150900000e-002) (33, -1.19792345096811380000e+000) (34, 4.97390956589025820000e-001) (35, -6.63306086418505300000e-001) (36, 2.52048164283882940000e-001) (37, -7.50207445957539520000e-001) (38, -2.64346970076241530000e-001) (39, -8.12037779078244480000e-001) (40, -1.74471978842241670000e-001) (41, -3.86516873817717380000e-001) (42, 4.60697200452818420000e-001) (43, 5.03107575952747470000e-001) (44, 1.71610008084712770000e-001) (45, -1.46176804522927810000e-001) (46, 1.79825155221740890000e-001) (47, 8.46706658333912230000e-001) (48, 2.84980940088559450000e-001) (49, 5.56893058965137970000e-001) (50, 6.53837993089007140000e-001) (51, -2.82709455257766140000e-001) (52, -7.29105062735462940000e-001) (53, 6.26016782659221230000e-001) (54, 1.09643686018709940000e-001) (55, -3.04041389385140690000e-001) (56, 3.48296163027985660000e-001) (57, -1.11670139581568240000e-001) (58, -8.79398597928996580000e-002) (59, 8.34267535667183480000e-001) (60, -1.72523887377921130000e-002) (61, 2.61419327006784890000e-001) (62, 1.18348592552219540000e+000) (63, 8.56415706079368010000e-001) (0, -2.47884507398423940000e+000) (1, 1.27937483040587070000e+000) (2, 8.23165710481506220000e-001) (3, 1.42143980248535120000e+000) (4, 9.52695510667661340000e-001) (5, 1.51588590806651040000e+000) (6, 3.00923935406271880000e-001) (7, 5.23320300145435960000e-001) (8, 1.52237399001233120000e+000) (9, 1.37300224144141340000e+000) (10, 1.64468988745617080000e+000) (11, 1.59304083828795260000e+000) (12, 1.85927185095273510000e+000) (13, 4.23353731849186070000e-001) (14, 1.00669294936257230000e+000) (15, 1.45043641101979510000e+000) (16, 1.84090635637128000000e+000) (17, 2.26283291186107820000e+000) (18, 1.37653468075766310000e+000) (19, 4.23968555797363860000e+000) (20, 2.89530286300936270000e+000) (21, 1.60130193687537910000e+000) (22, 1.21080333492191920000e+000) (23, 2.38077958177289470000e+000) (24, 1.59376822696610600000e+000) (25, 9.77887455409753640000e-001) (26, 1.96421258853094270000e+000) (27, 1.72026445117288400000e+000) (28, 2.95921565936156620000e+000) (29, 2.67026509723824750000e-001) (30, 1.71253385096945030000e+000) (31, 1.88454498473747050000e+000) (32, 2.57924051611213660000e+000) (33, 2.05821937661141830000e+000) (34, 1.46314857421245170000e+000) (35, 5.82560421995656610000e-001) (36, -1.48666029973439250000e-001) (37, 3.35102992582765100000e+000) (38, 9.58373958604271990000e-001) (39, 9.57662822326627470000e-001) (40, 1.18576949884324170000e+000) (41, 1.14225531622476220000e+000) (42, 8.25779465275519320000e-002) (43, 2.07768451062685910000e+000) (44, 1.02918625913037820000e+000) (45, 1.24748961379542280000e+000) (46, 1.02936910959815970000e-001) (47, 8.21351013988571090000e-003) (48, 1.85002703625455810000e+000) (49, 2.20528416689843350000e+000) (50, 1.39379434091692310000e+000) (51, 8.46776073078457480000e-001) (52, 2.03373729192220190000e+000) (53, 1.08335871633672220000e+000) (54, 9.87588809430105630000e-001) (55, 1.05310615109944080000e+000) (56, -2.24929630767861320000e-001) (57, 4.34299778984351460000e-001) (58, 2.43473456262187900000e+000) (59, 1.86573079299564530000e+000) (60, 8.83147661862802800000e-001) (61, 2.67495295238297980000e+000) (62, 1.22450878148340680000e+000) (63, 1.03351631817107670000e+000) (64, 2.36617194975127500000e+000) (0, 7.94287705563813960000e+000) (1, -1.71496316384168400000e-001) (2, 8.81329293334423560000e-001) (3, -9.79598738736647050000e-001) (4, -3.59495218616935560000e-001) (5, 9.59241088204002000000e-001) (6, 7.98223378806873220000e-001) (7, 2.44606234774259080000e-001) (8, -1.44121692799785620000e+001) (9, -3.79968177959105090000e-001) (10, 2.81915216219935430000e-001) (11, -2.58159737687398190000e-001) (12, -3.22023372420480460000e-002) (13, -2.45707636818813300000e-001) (14, 2.94924208068871320000e-001) (15, -1.86757362125514810000e+000) (16, 6.11065640658454590000e-001) (17, 3.75522860585172920000e-001) (18, 1.39390748022247100000e-001) (19, -8.88182406830699820000e-001) (20, 6.12462009096818790000e-002) (21, -4.50775262384145110000e-001) (22, 2.73131148276990530000e-001) (23, -7.85009280330675520000e-001) (24, 5.22364950630438970000e-001) (25, -2.42240536820885180000e+000) (26, -4.02674493563279720000e-001) (27, -3.36205671396957950000e-001) (28, -5.55987856919405110000e-001) (29, -1.24979319190142340000e+000) (30, -6.68355309498289140000e-001) (31, -7.99234983033690010000e-001) (32, -7.35158400198676950000e-001) (33, 1.62600842635904240000e-001) (34, -4.33682976373253480000e-001) (35, -1.02549590276875870000e+000) (36, -4.00098032040837830000e-001) (37, 3.33983098644970780000e-001) (38, -9.66893396203108440000e-001) (39, 3.35313300020792850000e-001) (40, -1.07423306518798920000e+000) (41, 3.86494381528613480000e-001) (42, 1.27548513701916830000e-001) (43, -5.95458815238436930000e-002) (44, 5.65410974020815470000e-002) (45, -5.01283843543169070000e-002) (46, -2.87284286786594510000e-001) (47, 1.12583297479505170000e+000) (48, 3.82851403529489220000e-002) (49, -3.41659678444520550000e-002) (50, -9.20563134819210370000e-001) (51, -5.44686231765488030000e-001) (52, -4.94627536565142240000e+002) (53, -1.31788621380457690000e-002) (54, -4.02708287193396690000e-001) (55, -1.86532282626617210000e+000) (56, -5.13355177753688660000e-001) (57, 2.40799279737272830000e-001) (58, -3.03569797587245060000e-001) (59, -7.37209066427745860000e-001) (60, 1.28564078898418010000e+000) (61, -2.72088365026122710000e-001) (62, 9.35544455452342770000e-001) (63, -7.14179860449647290000e-002) (64, 8.00560687267731660000e-001) (65, 1.02606149193090210000e+000) (0, 4.45899585015541560000e-001) (1, -6.74292081190218220000e-001) (2, 1.61659306756239300000e-001) (3, -6.09452127350005310000e-001) (4, 4.05289633662901490000e-001) (5, 7.16597039977107220000e-001) (6, -8.90280867359911960000e-001) (7, 5.90695296682451150000e-002) (8, -5.42299952287689240000e-001) (9, 4.29954189543372720000e-001) (10, -2.34589845388064960000e-001) (11, 8.07394116140330300000e-001) (12, 2.41470861391182900000e-001) (13, -5.96088342491335910000e-001) (14, -4.80218314320291610000e-001) (15, -9.86738903530084420000e-001) (16, -4.74633677797730690000e-001) (17, 8.50068983176555440000e-001) (18, -2.49555710723021520000e-001) (19, -3.76398173888549180000e-001) (20, 9.22112820840161660000e-001) (21, 3.23995179424310390000e-001) (22, 8.81614593662925830000e-001) (23, 4.99486762273134600000e-001) (24, -1.51543180417249960000e-001) (25, 7.90205938853749230000e-001) (26, 1.07773827284437980000e+000) (27, 6.29218635756763840000e-001) (28, 3.94435106507588260000e-003) (29, -3.03259591650329790000e-001) (30, -2.70489234792537060000e-001) (31, -7.77096226834335320000e-001) (32, 8.66934746982087390000e-001) (33, 2.16560331979756690000e-001) (34, 3.52473809661945750000e-001) (35, -3.89684827952974770000e-001) (36, -5.98961304148640460000e-001) (37, 7.35296400218780290000e-001) (38, -4.36197807866986200000e-001) (39, 1.15835209158530430000e+000) (40, -8.39687526213447670000e-001) (41, 1.03216064977678060000e+000) (42, 4.63014540870692550000e-001) (43, 4.53853093483701790000e-001) (44, -8.96650604392442820000e-001) (45, -4.20129919310280820000e-001) (46, 4.49155736898447510000e-001) (47, 1.00991210669385320000e+000) (48, -9.98857965791825730000e-001) (49, -8.11178832172397610000e-001) (50, -1.12841433386117090000e-001) (51, 3.88446078415517480000e-001) (52, -1.46497700077120120000e-001) (53, 9.84099037866496440000e-001) (54, 8.71891884383518280000e-001) (55, -1.53692837314351900000e+000) (56, -5.49203426155956060000e-002) (57, 4.62241765764962510000e-001) (58, -5.86534143932086680000e-002) (59, -5.88525149778639010000e-001) (60, 9.47714825001579330000e-001) (61, 1.32786652243606460000e+000) (62, -8.12705522831187880000e-002) (63, -3.67716632709804370000e-001) (64, -1.50931193768943980000e-001) (65, 7.57703733985479740000e-001) (66, -9.89204975770619170000e-001) (0, 1.19822389594060510000e+000) (1, 1.18473415328426750000e+000) (2, 1.18506864301633170000e+000) (3, 1.38662833544854070000e+000) (4, 6.16175144697919010000e-001) (5, 1.20173972615643860000e+000) (6, 1.12167982852647930000e+000) (7, 1.01635063037669340000e+000) (8, 3.78703452750800250000e-001) (9, 9.13223066633530810000e-001) (10, 3.32962308726788670000e-001) (11, 7.26607291357456720000e-001) (12, 3.52714039897561340000e-001) (13, 7.85817525674023630000e-001) (14, 9.73773976967413080000e-001) (15, -4.24736192537642610000e-001) (16, 1.63895429823408030000e+000) (17, -1.49958290472142290000e-001) (18, 1.18768739831454600000e+000) (19, 8.62670778940041070000e-001) (20, 2.89185175558307960000e+000) (21, 1.48318048175068630000e-001) (22, 5.54253268523039470000e-001) (23, 6.76536814711177880000e-001) (24, 2.13183213316532430000e+000) (25, 9.51186627990805670000e-001) (26, 1.43942930702322560000e+000) (27, 1.87735275788576120000e+000) (28, 1.22871363024724500000e+000) (29, 1.19033492829032420000e+000) (30, 9.21767560713437790000e-001) (31, 5.62191441992839770000e-002) (32, 9.07125127775861520000e-001) (33, 1.11340980974129080000e+000) (34, 2.18757958686515640000e+000) (35, 1.16733503943680490000e+000) (36, 7.38120419625692640000e-001) (37, 2.10130918544388970000e+000) (38, 1.23491076852654840000e+000) (39, 1.12179284856723970000e+000) (40, 1.61491176266040410000e+000) (41, 8.98017257420196530000e-002) (42, 7.20393985951295220000e-001) (43, 1.10251658738957440000e+000) (44, 1.62907516660439230000e+000) (45, 2.39354362628918430000e+000) (46, 3.42929630215142720000e-001) (47, 6.77897105925009070000e-001) (48, 1.37837190448673460000e+000) (49, 1.79770429458150580000e+000) (50, 9.18181169806795010000e-002) (51, 2.40128351023804030000e-001) (52, 2.33195162226831740000e+000) (53, 9.85147066050069190000e-001) (54, 8.99378707493593610000e-001) (55, 1.98424423201263410000e+000) (56, 9.26654783548864550000e-001) (57, 3.29278487657416020000e-001) (58, 1.58867154501407600000e+000) (59, 1.26735241947978760000e+000) (60, 1.88296877349914100000e-001) (61, 5.89063414756501260000e-001) (62, 1.16476957501440400000e+000) (63, 9.30613318843175000000e-001) (64, 1.02954610573532350000e+000) (65, 1.44002515220591660000e+000) (66, 1.43592071449486740000e+000) (67, 7.61132894272976480000e-001) (0, -6.98759870597598810000e-001) (1, -8.66074269427477780000e-001) (2, -3.15526326468804850000e-001) (3, 4.82198894952196310000e-001) (4, 8.71394170766124240000e-001) (5, -7.42055385618251790000e-001) (6, -3.97410618704154340000e-001) (7, -7.05247912508891960000e-001) (8, -1.58140111148048960000e-001) (9, 9.14849052204047660000e-001) (10, -9.35671191449866100000e-001) (11, -2.04991545164748960000e-001) (12, 6.97398766698633210000e-001) (13, 5.71325314364449440000e-001) (14, 1.45133397524366740000e-001) (15, -7.99676478014385160000e-002) (16, 1.98375122899574320000e-001) (17, 3.14009094522780970000e-001) (18, 2.57012324041887670000e-001) (19, -6.33198514922218680000e-001) (20, 3.44684459779675540000e-002) (21, 5.50697158710666050000e-001) (22, 3.87533041079553660000e-001) (23, -6.78536849679393430000e-001) (24, 1.76163223380605860000e-001) (25, -1.36666093246836980000e-002) (26, 8.23866546555344860000e-001) (27, 1.32461062481593280000e+000) (28, -4.84938047862130290000e-001) (29, 3.92255386607206320000e-001) (30, -8.49488833237238340000e-001) (31, -9.25981508193718380000e-002) (32, 1.18921433586981720000e-001) (33, -3.21500693661433520000e-001) (34, -8.34393315131771620000e-001) (35, -1.96990000349701490000e-001) (36, 6.86305785154153080000e-001) (37, -7.65787768673028670000e-001) (38, -5.29259136962254130000e-001) (39, -4.64336480957988180000e-001) (40, 2.44509823908336060000e-001) (41, 4.99842075539853600000e-002) (42, -3.27829701887894900000e-001) (43, -6.75558162696444090000e-001) (44, 5.17538248664667420000e-002) (45, -7.06165919795100460000e-001) (46, 1.56394567629710740000e-001) (47, -4.30986474390545720000e-001) (48, -5.52832152364641780000e-002) (49, 5.75491698314146370000e-001) (50, 1.66057813682064930000e-001) (51, -1.01601843213877240000e+000) (52, -5.75035483072232620000e-001) (53, 3.50630786039831610000e-001) (54, 1.14703701464529480000e+000) (55, 2.52907831771770060000e-001) (56, 1.48041966635098830000e+000) (57, 5.56016422350167680000e-001) (58, -6.72247587630825040000e-001) (59, 1.22038195526390010000e+000) (60, 2.88806007297266960000e-001) (61, 4.44785045765113800000e-001) (62, 1.26798418248590440000e+000) (63, 4.14686510367208940000e-001) (64, 4.10672904639450480000e-002) (65, 8.37392853143285040000e-001) (66, 3.81222225933426750000e-001) (67, 7.98650378447518290000e-001) (68, 1.21639206324336510000e+000) (0, 9.55522165003559460000e-001) (1, -8.84070757948365870000e-002) (2, -9.23109154984841030000e-001) (3, -3.02405318896772300000e-001) (4, 4.11048364525099910000e-001) (5, 4.94160751432780990000e-001) (6, 1.05106965631569630000e+000) (7, -1.22028038102272010000e+000) (8, 6.40956213004769680000e-001) (9, -2.59085443352422560000e-001) (10, -8.77194556523221420000e-001) (11, 3.47207034103457770000e-001) (12, 1.30604957326707880000e-001) (13, 6.11851704031133760000e-001) (14, 3.93720658193787540000e-001) (15, -1.06639937198591650000e-001) (16, -1.18778522690656650000e-001) (17, 1.58283164936838840000e-002) (18, -6.91548510370344040000e-001) (19, -3.00006321332373370000e-002) (20, 1.75012833493011170000e-001) (21, -8.71077109544875160000e-001) (22, 7.52620918978437640000e-001) (23, 6.74090061550672860000e-001) (24, 8.99718128580435760000e-001) (25, 2.07678801561436870000e-001) (26, -9.81982091785101320000e-002) (27, -1.52469641216633510000e-001) (28, -8.88835307824706770000e-001) (29, -1.56038319729681850000e-001) (30, -3.91388049358107060000e-002) (31, 6.87544757377882430000e-002) (32, 4.93285528452988180000e-001) (33, -8.37504403090044260000e-001) (34, 5.80211580242936260000e-002) (35, 7.06740112060156990000e-002) (36, -1.06549777923021960000e+000) (37, -2.49801533469974770000e-001) (38, 4.25208468018386080000e-001) (39, -3.36166919176603630000e-001) (40, 2.06821535135249590000e-001) (41, 8.94712273886251190000e-001) (42, 3.99819374047063800000e-001) (43, -7.18677423746288290000e-001) (44, 8.78517763139712300000e-001) (45, 3.07836197244599370000e-001) (46, -3.24234933522645930000e-001) (47, -2.40820241814702990000e-001) (48, 7.01208748311671790000e-001) (49, 2.21154613082526150000e-001) (50, -3.72075990161837230000e-001) (51, 6.65087483084507380000e-001) (52, 1.80772622896124490000e-002) (53, 5.32013712767914870000e-001) (54, 4.14941341918137970000e-001) (55, -2.47060076932058030000e+000) (56, -9.70686261730153710000e-002) (57, 1.38212503321567790000e-001) (58, -1.84540395366495940000e-001) (59, 3.43074735662676270000e-001) (60, 4.63984419673145850000e-001) (61, 3.68900161094910140000e-001) (62, -7.77048580796098070000e-001) (63, 9.47846028112032330000e-001) (64, 1.28269480037260240000e+000) (65, 1.38462248056901660000e+000) (66, -3.06985364733185380000e-001) (67, -2.72656105675129820000e-001) (68, 9.25815503394040030000e-002) (69, 5.95848607831338530000e-001) (0, 6.65768903205435910000e-001) (1, 1.09713035458383450000e+000) (2, 3.30482866817150720000e-001) (3, 1.12834843140281890000e+000) (4, 1.72567965430631070000e+000) (5, 1.57342661392537790000e+000) (6, 8.08367055362979920000e-001) (7, 9.40974755481994500000e-001) (8, 8.38321836075345270000e-001) (9, 1.29345328323775320000e+000) (10, 1.74448688499534170000e+000) (11, 9.80385071503454690000e-002) (12, 1.19244724261928110000e+000) (13, 7.25883149772945770000e-001) (14, 5.28918538910337690000e-001) (15, -4.66214213568835190000e-002) (16, 8.07755468605439670000e-001) (17, 1.46494687867239650000e+000) (18, 9.17907927670297500000e-001) (19, 1.58812424138778230000e+000) (20, 3.22175619440148700000e+000) (21, 1.59771290646177970000e+000) (22, 1.70233434382073230000e+000) (23, 1.96906046131743160000e+000) (24, 1.05019673607237560000e+000) (25, 4.18722493729486360000e+000) (26, 1.15990083513478020000e+000) (27, 1.03374127252465090000e+000) (28, 3.25741744585287800000e+000) (29, -2.71162812494744330000e-001) (30, 2.25261876874772730000e+000) (31, 1.58569511724433480000e+000) (32, 1.04958516752068110000e+000) (33, 9.16988323884386450000e-001) (34, 4.05802382144694660000e-001) (35, -2.99642268073815720000e-001) (36, 8.21125835987161050000e-001) (37, 2.22651197112123270000e+000) (38, 1.69436659336519390000e+000) (39, 1.44656573356593610000e+000) (40, 1.37841382223833510000e+000) (41, 9.33031993660699440000e-001) (42, -1.12775001988008640000e-002) (43, 1.87022122475971900000e+000) (44, -1.69555377295062590000e-001) (45, 1.89683252909008050000e+000) (46, -1.60093668581089510000e+000) (47, 1.29510294515499360000e+000) (48, 1.35371073987232230000e+000) (49, 2.35855013175616080000e+000) (50, -1.47655656213808910000e-001) (51, 6.65271460513585100000e-001) (52, 1.52539095900528100000e+000) (53, 8.45351217390026720000e-001) (54, 6.58291514697105670000e-001) (55, 1.75258715762011860000e+000) (56, 2.21349866166771300000e+000) (57, 3.01061782912247770000e+000) (58, 2.63455306484543470000e+000) (59, 1.41607699294380440000e+000) (60, 2.61619576250056520000e+000) (61, 1.78756875481462400000e+000) (62, 1.19755398647107800000e+000) (63, 2.56351685078668190000e+000) (64, 1.97616489755575620000e+000) (65, 1.45711238213076480000e+000) (66, 1.50365044413688480000e+000) (67, 9.86278719366162630000e-001) (68, 1.53563205838195320000e+000) (69, 3.07016798341636780000e-002) (70, 1.45192044897399920000e+000) (0, -1.99369540065836760000e+000) (1, 1.26335555695683690000e+000) (2, 1.91177495368799730000e+000) (3, 2.11672134765382090000e+000) (4, 1.90007225539515940000e+000) (5, 6.28798363001735750000e-001) (6, 4.15055919102813030000e-001) (7, 4.40211345091299890000e-001) (8, 1.48551226599333060000e+000) (9, 3.89253333354697250000e+000) (10, -6.55817664912707880000e-001) (11, 9.63267040606539250000e-002) (12, 3.15603091923177640000e+000) (13, 1.11474511230035000000e+000) (14, 1.65932674922356570000e+000) (15, 1.28290808318071630000e+000) (16, 2.45588570487193670000e+000) (17, 2.95812277944016430000e+000) (18, 6.83264586299504930000e-001) (19, 3.38958353767738750000e+000) (20, 2.64116066888980510000e+000) (21, 2.39528257503394440000e+000) (22, 1.86552572474264870000e+000) (23, 3.13134576440793830000e+000) (24, 1.75771581166469540000e+000) (25, 1.04999649622736290000e+000) (26, 2.18735724524509840000e+000) (27, 1.14378833185627560000e+000) (28, 6.30403595696465760000e-001) (29, -8.03290176944662650000e-001) (30, 1.11886219976028500000e+000) (31, 5.99926734874113080000e-001) (32, 1.52397268045302670000e+000) (33, 8.28025259987622890000e-001) (34, -7.98807966614308200000e-001) (35, -3.63964069770097260000e-001) (36, 1.71659149606896650000e-001) (37, 2.99771619637813160000e+000) (38, 1.21457942888834940000e+000) (39, 1.77337364516618770000e+000) (40, 2.38410947973448950000e+000) (41, 1.95114926247838170000e+000) (42, 1.91134201086144720000e+000) (43, 5.78174850373624590000e-001) (44, 1.34363590787579380000e+000) (45, 2.15879322711146320000e+000) (46, -3.99296303749906430000e-001) (47, -4.84021726761693920000e-001) (48, 2.27421851852148740000e+000) (49, 3.57543699364388520000e+000) (50, 9.34698662331991730000e-001) (51, 2.11410365104080580000e+000) (52, 3.25318246946449670000e-001) (53, 2.17681370742098060000e+000) (54, 2.43866223155911800000e+000) (55, 1.88055403615277220000e+000) (56, 6.10632669383497690000e-001) (57, 1.42011640556440910000e+000) (58, -3.70428425415064270000e-001) (59, 7.03263379719952450000e-001) (60, 2.65113978322537300000e-001) (61, 2.44300097936124200000e-001) (62, 1.19311935076583200000e+000) (63, -7.74877732150722310000e-001) (64, -7.96457767643383720000e-001) (65, 7.41883658693627380000e-001) (66, -3.63197055059950590000e-001) (67, 5.59896530645905060000e-001) (68, -2.74259216476289590000e-001) (69, -6.56735371262303410000e-001) (70, 8.04810779609955840000e-001) (71, 4.76321777805982560000e-001) (0, 2.54569554998422640000e+000) (1, 1.77980188703729270000e+000) (2, 4.34363369789038940000e-002) (3, 1.19315863426585200000e+000) (4, 1.04483439373678710000e-001) (5, 3.05133366432754630000e-001) (6, 2.68936188070833530000e-001) (7, 1.21905314059903950000e+000) (8, 1.72371759349889330000e+000) (9, 1.05697192394617720000e+000) (10, 3.33718255188393380000e-001) (11, 2.27426120100727270000e-001) (12, 1.17293976377434860000e+000) (13, 1.65327118569011860000e-001) (14, 5.68859920921236830000e-001) (15, 1.64721264187577020000e+000) (16, 1.98115910493707230000e+000) (17, 3.21788376362317830000e-001) (18, 4.54649367466464730000e-001) (19, 1.11311881840554920000e+000) (20, 1.09169940911975830000e+000) (21, 9.80719894435723160000e-001) (22, 5.81590985640245810000e-001) (23, 1.99876744786757410000e+000) (24, 2.03975850820377900000e+000) (25, 4.61276997824061010000e-001) (26, 7.56675161106649260000e-002) (27, 1.18469322941138430000e+000) (28, 9.62155785377484920000e-001) (29, 6.77325736045696900000e-001) (30, 1.44458386871792420000e+000) (31, -4.28726208289493930000e-001) (32, 2.08531524151170400000e+000) (33, 2.15782645472177670000e+000) (34, 2.04659245664119330000e+000) (35, 2.07183573056516450000e+000) (36, 8.96453155116658680000e-001) (37, 1.65014476176804290000e+000) (38, 4.30661591311172070000e-002) (39, 1.85322408193589030000e-001) (40, 2.68470490872128430000e-001) (41, -5.38286028286721900000e-001) (42, 1.04588091840491800000e+000) (43, 1.30589686668419170000e+000) (44, 2.82806379761209150000e-001) (45, 2.47604315228877560000e+000) (46, 1.57154637793469740000e+000) (47, 1.22990135904979690000e+000) (48, 1.38437281430263370000e+000) (49, 7.52347242685745680000e-002) (50, 1.79906214216801400000e+000) (51, 1.77778448055174200000e-001) (52, 1.78019807705361100000e+000) (53, 7.16338579198561360000e-001) (54, 1.11357493874559710000e+000) (55, 2.09541343937292930000e+000) (56, -8.15955263434948310000e-002) (57, 3.31624250954928310000e-001) (58, 7.15652711885025880000e-002) (59, 2.37184357784084690000e+000) (60, 1.76812456245292830000e+000) (61, 1.89874315014477400000e+000) (62, 2.61078198296098070000e-001) (63, 7.81372532780965080000e-001) (64, 2.21589192737310730000e+000) (65, 1.78243449478717820000e+000) (66, 3.49835674008750620000e+000) (67, 9.13486511460264380000e-001) (68, 2.21355693440364740000e+000) (69, 1.55672399906620030000e+000) (70, 1.41261381259456400000e+000) (71, 1.43313415819481720000e+000) (72, 1.98153557796126110000e+000) (0, 2.82881708421396950000e+000) (1, 4.36011577856443510000e-001) (2, 1.61559691998894510000e+000) (3, 1.06734325004200680000e+000) (4, 7.65449005994010330000e-001) (5, 7.20449887086037300000e-001) (6, 1.92379863066643190000e+000) (7, 2.08169108362845500000e+000) (8, -1.12196800610814180000e+000) (9, 5.71511705844496290000e-001) (10, 1.96790656575537360000e+000) (11, 9.18716385752941570000e-001) (12, 1.25858526201098280000e+000) (13, 1.54600278057009090000e+000) (14, 1.82410954559001140000e+000) (15, 1.00027405070776280000e+000) (16, 6.56388247891976360000e-001) (17, 9.01678237831091130000e-001) (18, 5.53953043874645830000e-001) (19, 1.39353324777004950000e+000) (20, -4.15065979514275870000e-001) (21, 1.80237238001964160000e+000) (22, 3.19584341656425770000e+000) (23, 1.82514459928141550000e+000) (24, 3.55435566871162490000e+000) (25, 2.55161345922508920000e+000) (26, 4.48390133080388940000e-001) (27, -3.78851958523077630000e-001) (28, 8.54653945348649250000e-001) (29, 1.93902588168665040000e+000) (30, 9.78243855423044150000e-001) (31, 1.25208669745118730000e+000) (32, 1.89928076862398760000e+000) (33, 9.58253771245781700000e-001) (34, 2.23154741985087180000e+000) (35, 2.57609399996097950000e+000) (36, 6.50780557823058440000e-001) (37, 2.51270344578000330000e-002) (38, 8.93454609392809960000e-001) (39, 1.96586283157279200000e+000) (40, 8.65692445784055690000e-001) (41, 2.46820551475316870000e-001) (42, 1.09560227165730170000e+000) (43, 2.42167149504843460000e+000) (44, 2.21040317203003320000e+000) (45, 1.58214089420385220000e+000) (46, 9.34429914853604720000e-001) (47, 2.23366082999634320000e+000) (48, 1.55074832614784500000e+000) (49, 1.18725256951491160000e+000) (50, 2.72292033879735830000e-001) (51, 1.38255058271298650000e+000) (52, -2.35178480362879440000e-001) (53, 4.50977865161537320000e-001) (54, 1.36360084722126970000e+000) (55, -9.05469519914355430000e-001) (56, 1.20065412927448900000e+000) (57, 1.84969255461826120000e+000) (58, 1.66594232122739870000e+000) (59, 7.99747034213340260000e-001) (60, 4.62599717532673540000e-001) (61, 1.68956538277365740000e+000) (62, 8.41437021040921660000e-001) (63, 1.59877664843982450000e+000) (64, 9.34922347440648950000e-001) (65, 1.17958632894216200000e+000) (66, 2.12043621880436330000e+000) (67, 1.22121868023295320000e+000) (68, 2.20057714036837520000e+000) (69, 1.09664308111875770000e+000) (70, 2.43125267045508190000e+000) (71, 1.22308967503842060000e+000) (72, 1.45617850921987340000e+000) (73, 1.13606405003935750000e+000) (0, 8.02064408147128320000e-001) (1, 6.11725756331668700000e-001) (2, 7.58662704675156290000e-001) (3, 1.60424207835669970000e+000) (4, 9.82290832878408350000e-001) (5, 7.45969228235250360000e-001) (6, 1.43829885750500860000e+000) (7, 2.00158694650640680000e-001) (8, 1.94036512861583030000e+000) (9, 1.94016281546993910000e+000) (10, 2.04801475586415730000e+000) (11, 1.85858196949613540000e+000) (12, 8.38404512528053480000e-001) (13, 9.28655322746099520000e-001) (14, 3.35512642501933520000e-001) (15, -7.66910999470538440000e-003) (16, 1.88116990074717140000e+000) (17, 1.93295859558619630000e+000) (18, 1.20386095274245640000e+000) (19, 1.29835570301546870000e+000) (20, -5.43907766002088790000e-001) (21, 6.35487843657101260000e-002) (22, 2.53492892920093520000e+000) (23, 2.15573100453261170000e-001) (24, 3.09125933847330670000e-001) (25, 2.07122682693579210000e+000) (26, 5.90082278094639090000e-001) (27, 1.81192116676502280000e+000) (28, 1.23524983262168410000e+000) (29, 1.60201279002463330000e+000) (30, 2.53984926152745590000e-001) (31, 1.04807643122688440000e+000) (32, 9.84189227835239100000e-001) (33, 1.35736926804577500000e+000) (34, 1.13476547954010610000e+000) (35, 1.56622161417176860000e+000) (36, 1.92626605161762820000e+000) (37, 1.97483083754025170000e+000) (38, 1.06778599422659770000e+000) (39, 1.50627367543195150000e+000) (40, 1.11629384733599020000e+000) (41, 8.88008927009750980000e-001) (42, 9.78801218785289700000e-001) (43, 6.07307874766861210000e-001) (44, 1.55053301168013190000e+000) (45, 2.95636742666649740000e-001) (46, 1.24839941371638630000e+000) (47, 1.72111505516064980000e+000) (48, 9.82914071640039520000e-001) (49, 1.82185712827819150000e+000) (50, 9.19882500219874170000e-001) (51, 1.15426672148235250000e+000) (52, 2.26915901191003840000e+000) (53, 1.19654608800508910000e+000) (54, 9.05032267406076010000e-001) (55, -1.43749400060848690000e+000) (56, 7.81270408661769560000e-001) (57, 1.03107767363727440000e+000) (58, 2.78003380190802950000e-001) (59, 6.79108861501836050000e-002) (60, 6.66812569172430480000e-001) (61, 1.33809358043097390000e+000) (62, 2.97698019296649070000e-001) (63, 1.14110978348826710000e+000) (64, 3.03803658041386260000e-001) (65, 1.24957105040957870000e+000) (66, -3.34920761284093550000e-002) (67, 1.62394365982847180000e+000) (68, 9.46007836808606120000e-002) (69, 1.32903659401033990000e+000) (70, 1.49758871387929250000e+000) (71, 2.22782489460779080000e-001) (72, 4.74048905999293720000e-001) (73, 1.87423948557011030000e+000) (74, 1.72815410088039600000e+000) (0, 2.72115821908271590000e+000) (1, 4.04650996962837460000e-001) (2, 1.20199628040584020000e+000) (3, 2.16266512049555540000e+000) (4, 5.99164972845273260000e-001) (5, 2.05689547782713510000e+000) (6, 1.94447771647251800000e+000) (7, 8.05701513671288950000e-001) (8, -6.65165402703723370000e-001) (9, 1.70884163825587910000e+000) (10, 6.94870025119505910000e-001) (11, 1.13646437889103160000e-001) (12, 9.50555072178742580000e-001) (13, 1.77062999716784650000e+000) (14, 1.91065527367249870000e+000) (15, 3.19278028709077450000e-001) (16, 1.84325144109578170000e+000) (17, 2.47753130903081510000e-001) (18, 1.00549327985519500000e+000) (19, 7.31729866266917160000e-001) (20, -3.08751978427062660000e+000) (21, 2.81318511263314710000e+000) (22, 4.22808069288067310000e+000) (23, 9.71480642549484630000e-001) (24, 1.46957346365065230000e+000) (25, 1.47949593093466850000e+000) (26, 1.24204459737513790000e-001) (27, 1.51093319413613980000e-001) (28, 2.48510776894815730000e+000) (29, 2.06948946721916820000e+000) (30, 4.72586619655631590000e-001) (31, 1.79528607336966250000e+000) (32, 9.61131906255511590000e-001) (33, 6.84488171707736900000e-001) (34, 8.46727451177746730000e-001) (35, 2.36995288581186790000e+000) (36, 1.96496234761803060000e-001) (37, 3.55387673933739050000e-001) (38, 4.82392702495284150000e-001) (39, 1.35248355321238110000e+000) (40, 1.92655009615777790000e+000) (41, 2.05925457948901740000e+000) (42, 2.08561257334197860000e+000) (43, 8.50647823523057460000e-001) (44, 2.19444753629641780000e+000) (45, 5.41719470805511190000e-001) (46, 6.75194606642656740000e-001) (47, 9.97897124758217900000e-001) (48, 1.44116999636768360000e+000) (49, 2.13157883805068460000e+000) (50, 8.67124704526789140000e-001) (51, 2.36173495371844840000e+000) (52, -2.43407299771085840000e+000) (53, 5.75759631290537310000e-001) (54, 1.58543872266614590000e+000) (55, -1.63440287675398600000e+000) (56, 1.98982345390765000000e+000) (57, 1.03397698419163330000e+000) (58, 1.32084193716712250000e+000) (59, 1.86862889125171240000e+000) (60, 4.92655378184230390000e-001) (61, 1.22759439229274610000e+000) (62, 7.42974233582396890000e-001) (63, 2.81600336071227200000e-001) (64, 2.07057059901205290000e-001) (65, 1.98785400648783890000e+000) (66, 5.57315591406668310000e-001) (67, 8.49178613073049650000e-001) (68, 7.72094667267967940000e-001) (69, 1.46499745220676100000e+000) (70, 1.65810672699767440000e+000) (71, 1.75212353430696280000e+000) (72, 1.14413838319634680000e+000) (73, 4.96580884287135700000e-001) (74, 9.73099988936702910000e-001) (75, 1.48537330193962940000e+000) (0, 1.38614483115056750000e+000) (1, 3.59485258361839420000e-001) (2, 4.99755420905428130000e-001) (3, 6.68727107090397620000e-001) (4, 1.66804010128309500000e+000) (5, -1.58119471968490660000e-001) (6, 7.47038502316482940000e-001) (7, 3.51569576271828890000e-001) (8, 6.14200417833573260000e-001) (9, 6.49235394542448480000e-004) (10, 1.47140567113754160000e+000) (11, 1.44530418083403460000e+000) (12, 2.40797592897578350000e-001) (13, 6.07823173243128960000e-001) (14, 8.97023650481877270000e-001) (15, 1.57985659504737510000e+000) (16, 8.26087706603967240000e-001) (17, 1.98722889442286530000e+000) (18, 3.94805905133375770000e-001) (19, 9.35045652510672840000e-001) (20, 1.45197674662678120000e+000) (21, 1.75732907005711870000e+000) (22, 7.79130186130446930000e-001) (23, 9.01820901633251020000e-001) (24, 3.19526125211601450000e-001) (25, 1.78943568679065730000e+000) (26, -3.18866338122617500000e-001) (27, 1.33220070576192580000e+000) (28, 1.90640213390861260000e+000) (29, 2.29234857093268030000e+000) (30, 7.81499663863922110000e-001) (31, 7.62654530712747690000e-001) (32, -1.26558238503185760000e-001) (33, 1.46979753190447030000e+000) (34, 2.11037218798536850000e+000) (35, 2.19197736235781450000e+000) (36, 4.48255134572576320000e-001) (37, 4.88011834918166960000e-001) (38, 1.21386998396208850000e-001) (39, 6.02726551995482640000e-001) (40, 5.59550170632881930000e-001) (41, 8.21185515108346810000e-001) (42, 5.11447948770146100000e-001) (43, 2.93013669511801240000e-001) (44, 1.03646262785784570000e+000) (45, 2.35524883763935710000e-001) (46, 8.42251196460438890000e-001) (47, 8.29943059753783350000e-001) (48, 2.46663370398307260000e+000) (49, 5.37870489459809530000e-001) (50, 1.47347696730551150000e+000) (51, 7.35952388763415510000e-001) (52, 1.76158109348664180000e+000) (53, 7.12735630985240510000e-001) (54, 1.21393698333388690000e+000) (55, 2.29774242120492110000e-001) (56, 5.69269013457389230000e-001) (57, 1.25444035344188660000e+000) (58, 3.93419432602311990000e-001) (59, 1.27463129856059920000e+000) (60, 1.73936928348383750000e+000) (61, 1.07907346333533010000e+000) (62, 2.17244947819086680000e+000) (63, 2.08762725003739820000e+000) (64, 2.15700401893071360000e+000) (65, 2.23038064752868960000e+000) (66, 1.20763885489992310000e+000) (67, 6.81175066468283630000e-001) (68, 1.74708268218757960000e+000) (69, 1.49610861583411530000e+000) (70, 8.77416247950065680000e-001) (71, 1.52232251457962020000e+000) (72, 1.87660666204294970000e-001) (73, 8.49246617470814310000e-001) (74, 1.23362211525588130000e+000) (75, 1.70503130915739120000e+000) (76, 2.07868328028842960000e+000) (0, 1.48285879424964500000e+000) (1, 8.75923342879891380000e-001) (2, 1.07922425128760160000e+000) (3, 4.84771425216241110000e-001) (4, 4.26312882673342550000e-001) (5, 1.79885066696919370000e+000) (6, 1.84701968637407890000e+000) (7, 1.76442037571592890000e+000) (8, 8.98687837207174380000e-001) (9, 7.65855211128688850000e-002) (10, 4.47811636304639490000e-001) (11, 2.04266480286012970000e+000) (12, 6.77434565833441970000e-001) (13, 1.43465018536918840000e+000) (14, 1.40171323265422100000e+000) (15, 1.63706229538156190000e+000) (16, 8.17138969575102900000e-001) (17, 2.28505055498271490000e-001) (18, 4.62885700639044250000e-002) (19, 1.33094665135604570000e+000) (20, -3.11540056017058360000e-001) (21, 8.22300768035311380000e-001) (22, 1.68763525095099820000e+000) (23, 2.51279310596945420000e-001) (24, 1.45031778246098480000e-001) (25, 2.06800974893821540000e+000) (26, 4.85054808832710070000e-001) (27, 5.60846702483838390000e-001) (28, 1.15274069682539840000e+000) (29, 1.86906809837784580000e+000) (30, 1.33861968005888570000e+000) (31, 2.03039949129513310000e+000) (32, 1.20610154832575200000e+000) (33, 7.69317051074947300000e-001) (34, 5.46408726587116920000e-001) (35, 9.75755861235835130000e-001) (36, 1.67860758040955390000e+000) (37, 3.39014390989062550000e-001) (38, 2.54315171641354750000e+000) (39, 3.58600307543898160000e-001) (40, 4.26800519095923590000e-001) (41, 1.60640675513195250000e+000) (42, 1.92041382818240570000e+000) (43, 2.00189332540191020000e+000) (44, 1.10434679994299860000e+000) (45, 9.37154521532225890000e-001) (46, 3.66858664331158880000e-001) (47, 1.43322036232530060000e+000) (48, 5.98908506158206790000e-001) (49, 1.76835644125370360000e+000) (50, 1.31926051474951160000e+000) (51, 1.12110323193228530000e+000) (52, 3.02382692125506440000e+000) (53, 8.86177676320514920000e-001) (54, 1.84572428851454710000e+000) (55, -1.78360509400335880000e+000) (56, 8.03196869708033720000e-001) (57, 1.33861425659720150000e+000) (58, 5.71360069579393890000e-001) (59, 1.47431801144443810000e+000) (60, 1.85949610640065540000e+000) (61, 2.89235967002444520000e+000) (62, 1.67127120686112950000e+000) (63, 2.44079993716904960000e+000) (64, 2.05083801088723840000e+000) (65, 2.27828913478985930000e+000) (66, 7.88558274994347830000e-001) (67, 2.72215563821648220000e+000) (68, 2.26364898923054140000e+000) (69, 2.42401934754859250000e+000) (70, 1.57410038173808960000e+000) (71, 2.01552621258558370000e+000) (72, 8.54550437087524430000e-001) (73, 1.45808329898183380000e+000) (74, 2.08088037389067760000e+000) (75, 1.83316802206990890000e+000) (76, 9.03365396669878140000e-001) (77, 1.66484032877940270000e+000) (0, 1.51013489572023070000e+000) (1, 1.79160754119917080000e+000) (2, 9.11886675987889530000e-001) (3, 8.81903964050860020000e-001) (4, 8.08697201251656780000e-001) (5, 4.53761282683169510000e-001) (6, 1.65188215546090400000e+000) (7, 2.04934026698974710000e+000) (8, 1.62322753569904290000e+000) (9, 1.43999748165204910000e+000) (10, 1.40295139818120100000e+000) (11, 1.63175829748393890000e+000) (12, 2.25412780503456170000e+000) (13, 1.66893872671060590000e-001) (14, 1.10940549096964620000e+000) (15, 2.03186656735898150000e+000) (16, 1.47895961261253220000e+000) (17, 1.56293252505653600000e+000) (18, -6.30402623226022500000e-002) (19, 1.65701935105049940000e+000) (20, 4.86280830839318110000e-001) (21, 8.40753215085188300000e-001) (22, 2.88970724375882910000e+000) (23, 1.17255847983708520000e+000) (24, 1.34862071978386180000e+000) (25, 1.82000505423871490000e+000) (26, 1.02721227403938700000e+000) (27, 9.16558923214173650000e-001) (28, 1.14263866717439020000e+000) (29, 1.86963989301851760000e+000) (30, 1.12331394129634130000e+000) (31, 9.15423097399124640000e-001) (32, -6.29887093167161020000e-002) (33, 1.30000418854800340000e+000) (34, 2.05158970933220660000e+000) (35, 2.00436756936663900000e+000) (36, 1.28924310047929980000e-001) (37, 7.09628932926099850000e-001) (38, 4.40838058970718650000e-002) (39, 6.55666373996328320000e-001) (40, 1.16742127148578970000e+000) (41, 4.99922183355105910000e-001) (42, 1.38850280065589440000e+000) (43, 1.22599018438562420000e+000) (44, 4.80986758485233370000e-001) (45, 1.15596508449156990000e+000) (46, 1.14507957664486870000e+000) (47, 4.86327765153717780000e-001) (48, 1.40840467431125620000e+000) (49, 2.13559057906303940000e+000) (50, 1.08396724043122840000e+000) (51, 6.32236939592683570000e-001) (52, -3.26142504475692650000e-001) (53, 1.84939161320338190000e+000) (54, 1.57623182358017020000e+000) (55, 7.48268500624970410000e-001) (56, -1.33577530039473590000e+000) (57, -1.03320617369284840000e+000) (58, -9.54830475518906650000e-001) (59, 7.59644222500900360000e-002) (60, 1.28078811273294700000e+000) (61, 1.34592399625097460000e+000) (62, 7.32844696150110470000e-002) (63, 2.10520472065826560000e+000) (64, 1.47743928165135730000e+000) (65, 2.86540321601179930000e-001) (66, 7.65122324995146760000e-001) (67, 1.67446849185589790000e+000) (68, 2.12107393194009040000e+000) (69, 7.25849444988946320000e-001) (70, 7.80717082376306770000e-001) (71, 1.53180213197605350000e+000) (72, 9.35132637343247250000e-001) (73, 1.31010645137258730000e+000) (74, 5.54721301312145030000e-001) (75, 4.68115241361136140000e-001) (76, 9.65420583271246610000e-002) (77, -1.11657076886569700000e-001) (78, 1.15376796524627730000e+000) (0, -9.89881887483512690000e-001) (1, -5.36022673779981830000e-002) (2, -4.61662878965533980000e-001) (3, 1.55831366268877390000e-001) (4, 4.56727337619097900000e-001) (5, 9.55281231863291950000e-001) (6, -7.26882651733948840000e-001) (7, 1.00164434342090310000e-001) (8, -3.85530506345043600000e-001) (9, 2.61174096918209530000e-001) (10, 5.06467890795836540000e-001) (11, -1.95920589572467940000e-001) (12, -5.18696117953526550000e-001) (13, 6.64151083756105990000e-001) (14, -3.02917221793130690000e-001) (15, -8.06340197198888940000e-001) (16, -6.12877447421308120000e-001) (17, -9.55353483375129540000e-002) (18, 2.54793380035102320000e-001) (19, 5.26933357374652300000e-001) (20, -6.89695884732360990000e-001) (21, 1.11510417633876790000e+000) (22, -6.98888392472505000000e-001) (23, 8.99738677852892850000e-001) (24, 3.02576761640391320000e-001) (25, -4.13306623481694560000e-001) (26, -1.06204115748721950000e+000) (27, 3.19340742748554670000e-001) (28, -3.68068698981008410000e-001) (29, 1.99446598406056750000e-001) (30, -6.60419186065885620000e-002) (31, 9.16807896928836020000e-001) (32, 7.84963101964287420000e-001) (33, 1.03841298829647030000e+000) (34, -2.16481168401669890000e-001) (35, 1.90380929041411660000e-001) (36, -1.09195519917311500000e-001) (37, 7.14210918535776230000e-001) (38, -7.67706651309298050000e-001) (39, -4.94839371108490690000e-001) (40, 1.23374588327792560000e+000) (41, -1.15112697576760570000e+000) (42, 7.50628568120983440000e-001) (43, -8.58360264205621280000e-001) (44, 2.87585896738832110000e-001) (45, -1.13948481330015410000e+000) (46, 2.39070767381585480000e-001) (47, -4.04406846005070210000e-001) (48, 7.21336774960223690000e-002) (49, 2.00770833751290040000e-001) (50, -6.96728049379207180000e-001) (51, 4.26965605351916800000e-001) (52, 3.53001543826729320000e-001) (53, -1.50188348718749120000e-003) (54, 6.47321465695423260000e-001) (55, -1.79129438578015580000e+000) (56, -3.11864706999947890000e-001) (57, 7.88867694357597290000e-001) (58, 1.15713639564138310000e-001) (59, 5.64089704061611630000e-001) (60, 1.04807401467382410000e+000) (61, -4.50500802390076950000e-001) (62, -3.78903385783536660000e-001) (63, 7.54851090704677490000e-001) (64, 5.27180466228604820000e-001) (65, -4.08474203620470930000e-001) (66, -6.73846966924153130000e-002) (67, 2.01843235809373110000e-001) (68, 9.40919428275881710000e-001) (69, 1.10855964886126510000e-001) (70, 1.28837722931940560000e+000) (71, 1.79972055550522180000e-001) (72, 4.47236704687866750000e-001) (73, 3.25848972846318620000e+000) (74, 2.79901555277184740000e-001) (75, 1.21336938486640620000e+000) (76, 6.16870865233375980000e-001) (77, 9.58937968105054720000e-001) (78, 1.50548938217750130000e+000) (79, 3.75751068776837780000e-001) (0, 5.24336378360021340000e-003) (1, 7.51052602545479680000e-001) (2, 4.54216202280810280000e-001) (3, 9.12556989596322810000e-001) (4, -3.04622795913854110000e-001) (5, 3.08069583142623170000e-001) (6, -1.19302760686704530000e-001) (7, -1.33440353336472860000e-001) (8, 3.30825875477016250000e-001) (9, 5.44649293268105460000e-002) (10, -1.13005069911610720000e+000) (11, -5.70449623158063470000e-001) (12, -7.28589184085068790000e-001) (13, -8.72757449511433080000e-001) (14, 2.21364235598406410000e-002) (15, -5.65915496506231510000e-002) (16, -7.24882977497463220000e-001) (17, 5.70258969605921930000e-001) (18, -1.33256276513128660000e+000) (19, -6.28885616089382320000e-001) (20, -3.07931959420348960000e-001) (21, -3.44225748331017730000e-003) (22, 7.83066886823531540000e-001) (23, 5.98403851913896890000e-001) (24, 1.68422549553168130000e-001) (25, -6.78630591226662360000e-001) (26, -8.99232353493590430000e-001) (27, 3.44799178244581730000e-001) (28, -8.89030870115024020000e-001) (29, 8.86794069383128210000e-001) (30, -4.14095993161682390000e-001) (31, -9.01627592706242040000e-001) (32, 2.71550523733998240000e-002) (33, -5.76598704409409750000e-001) (34, -6.99814603889898770000e-002) (35, -5.00470749195713880000e-001) (36, 6.94825708761908630000e-001) (37, -4.57271310925153110000e-001) (38, 3.92486209766511940000e-001) (39, -1.14819095502747100000e-001) (40, 4.09471621734537050000e-001) (41, -7.65269755267289130000e-001) (42, 8.88686332034393730000e-001) (43, -9.57413772551089390000e-001) (44, -5.94317766048325200000e-001) (45, 6.29726908972732540000e-001) (46, 5.14443163017023750000e-001) (47, 2.74390205726585730000e-003) (48, 2.05187692464659700000e-001) (49, 5.66152708418156460000e-001) (50, -8.34281295274145960000e-001) (51, 6.68188371213017550000e-001) (52, 2.15514238424395110000e-002) (53, 6.77546998948697300000e-001) (54, -1.11010804134108780000e-001) (55, -1.49204711446673830000e-001) (56, -4.11374992982077150000e-003) (57, 7.06210587967692980000e-001) (58, 1.51119358433410400000e+000) (59, 1.13654867835855900000e+000) (60, 4.37758916102057300000e-001) (61, 8.09088550059409270000e-001) (62, 4.33339091627859830000e-001) (63, 2.44654938097711440000e-001) (64, -1.18845126831757250000e+000) (65, 2.70074551284893350000e+000) (66, -1.82201900390860320000e-001) (67, 1.05322666199668680000e+000) (68, 1.86149663430705780000e+000) (69, -2.57366162352791360000e-001) (70, 4.62399984899669820000e-001) (71, 6.45391482897600180000e-001) (72, 1.73091283051111990000e-001) (73, 2.88539981803185430000e+000) (74, 1.17575960863824090000e+000) (75, 3.23999123535957940000e-001) (76, 5.45471302771243010000e-001) (77, 4.18483307131176320000e-001) (78, 5.09030741516962040000e-001) (79, -8.00275549433442260000e-001) (80, 8.42189961989273870000e-001) (0, 5.12474784158932770000e-001) (1, 1.46556540210221840000e+000) (2, -1.82346733710782200000e-002) (3, 1.66390533950577720000e+000) (4, 6.70365414458552800000e-001) (5, 1.12869150876870260000e+000) (6, 1.61677865858144230000e-001) (7, -6.73814431614439770000e-001) (8, -5.93737531519068610000e-001) (9, 9.81113440329110410000e-001) (10, 3.61001337127735580000e-001) (11, 1.48733958955588020000e-001) (12, 1.83932701412671400000e+000) (13, 1.30508331657276000000e+000) (14, 6.99538420202928220000e-001) (15, 2.87080634654911570000e-001) (16, 1.21819423572964070000e+000) (17, 6.74675815262648750000e-001) (18, 1.33440679882414120000e-001) (19, 7.86290378785706290000e-001) (20, 2.67563471573192050000e+000) (21, 1.57221531021076900000e+000) (22, 3.32174607760363230000e-001) (23, 5.43738682058947930000e-001) (24, 5.40831625185687280000e-001) (25, 3.94999055864308220000e-001) (26, 1.44346206723793840000e+000) (27, 1.04408804910865040000e+000) (28, 1.05306916798772510000e+000) (29, 1.74111876238019710000e+000) (30, 1.09611512907147990000e+000) (31, 1.45128459290819830000e+000) (32, 1.50204004139338850000e+000) (33, -5.05042612514055470000e-001) (34, 1.21232125203648830000e+000) (35, 9.53195209157287500000e-001) (36, 1.92668614075157580000e+000) (37, 2.42596653116643380000e+000) (38, 3.17692500996050460000e+000) (39, 2.93701907555580070000e-001) (40, 1.39438738489222950000e+000) (41, 6.02304883302561930000e-001) (42, 8.70956111654981550000e-001) (43, 1.03858308939290840000e+000) (44, 3.29003415463411040000e-002) (45, 2.59994250757946970000e-001) (46, 6.58062756510228050000e-001) (47, 1.52200175700148050000e+000) (48, 9.80028380744600520000e-001) (49, 3.63094891962493620000e-001) (50, 1.96146710166068750000e+000) (51, 5.02904919632031660000e-001) (52, 1.35974111638290100000e-001) (53, 3.14039357875297960000e-001) (54, 1.58851836119162090000e+000) (55, 2.34803447340867720000e-001) (56, 2.78069184023266300000e+000) (57, 1.19212770218440570000e+000) (58, 1.08397224963300780000e+000) (59, 7.64968607429896360000e-001) (60, 1.65851824239542260000e+000) (61, 1.14328477809089860000e+000) (62, 1.76652272432000030000e+000) (63, 2.28784016144107620000e+000) (64, 1.46900806660410570000e+000) (65, 9.69077664755225050000e-001) (66, 6.85073044752665620000e-001) (67, 1.93451513051515330000e+000) (68, 7.42742208656861580000e-001) (69, 2.17038353089216200000e+000) (70, 7.93780764777909040000e-001) (71, 6.59945221763757030000e-001) (72, 1.85584261521622550000e+000) (73, 4.78289066231686540000e-001) (74, 2.50302422897424210000e+000) (75, 1.76953291267514930000e+000) (76, 1.29012904765316950000e+000) (77, 1.44348443628647140000e+000) (78, 2.42312846414419570000e+000) (79, 9.72794658330223270000e-001) (80, 9.19034763364347420000e-001) (81, 1.41776042083278920000e+000) (0, -2.63286050994785910000e-001) (1, 1.25416187983290070000e-001) (2, -6.67309022078510170000e-001) (3, -2.46881243651552090000e-001) (4, -8.68061982897816110000e-001) (5, 1.06097730023518030000e+000) (6, 8.23832290658200180000e-001) (7, 6.40678087975314110000e-001) (8, -6.29840943853736230000e-001) (9, -1.25330148104978730000e+000) (10, 1.15892608286043280000e-001) (11, 1.60110403349194770000e-001) (12, -5.69184955281483270000e-001) (13, 4.40191104073689650000e-002) (14, 8.57739324460743080000e-001) (15, -3.48652380545212470000e-001) (16, -1.28414571437843460000e-001) (17, 9.47746085183563540000e-002) (18, -2.27183998933376750000e-002) (19, -5.49183683801392040000e-001) (20, -6.39538059050124840000e-001) (21, -4.65145323532334400000e-001) (22, 8.06876200245603280000e-002) (23, 2.68959472168891930000e-001) (24, -5.01450265049513620000e-001) (25, -6.61550391391522830000e-001) (26, -8.53453170339316000000e-001) (27, 2.54360672956688130000e-001) (28, -7.95326450622298900000e-001) (29, -1.01761457622120650000e+000) (30, 1.23581173647023060000e+000) (31, -3.40242800335681380000e-001) (32, 9.58762657840741880000e-001) (33, -2.19398634880206580000e-001) (34, 9.85787976114477080000e-002) (35, 9.39642316902212230000e-002) (36, -3.88269422373043070000e-001) (37, 7.35525675407007080000e-001) (38, -8.44532754194411090000e-001) (39, 7.48587826360432640000e-001) (40, -3.16463641642877770000e-001) (41, 1.43115543286757460000e-001) (42, -5.54816180528207470000e-001) (43, 9.20692167839479380000e-001) (44, -7.45334611629420270000e-001) (45, -4.55558020410748220000e-001) (46, 1.31095190969541030000e-001) (47, -2.71062838321273540000e-001) (48, 3.01222861333706850000e-001) (49, 1.13390866370250200000e+000) (50, -2.07057375677997950000e-001) (51, -2.35735174343682320000e-001) (52, 3.51600764396938380000e-001) (53, 6.76727835771969380000e-001) (54, -2.70497433318191200000e-001) (55, -2.91594377175607660000e-001) (56, -2.43382705472719980000e-001) (57, 5.97199210212839560000e-002) (58, -3.96325034137119780000e-001) (59, 5.35988323099165130000e-003) (60, -6.36354246947587800000e-001) (61, 1.07704135755835900000e-001) (62, -7.24099519707571580000e-001) (63, 6.22271817475886560000e-001) (64, 9.49740867486283840000e-001) (65, 1.57081383701765610000e-001) (66, 3.96174234577515330000e-001) (67, 1.01698850682131890000e+000) (68, -9.92783088494805570000e-001) (69, -1.46439613462248620000e-001) (70, -1.51328642040051610000e+000) (71, -2.28714356272362470000e-001) (72, -7.22427241279333890000e-001) (73, 3.52986420453372180000e+000) (74, 3.24033164789385260000e-001) (75, -4.86169228840267480000e-001) (76, -9.21427331109056950000e-001) (77, -5.27900213580337230000e-001) (78, 1.03162904141866880000e+000) (79, 1.80017803780387730000e-001) (80, -1.66927763981916780000e-001) (81, -9.78869823139194790000e-001) (82, -1.34327479366045880000e+000) (0, 1.46973574250910930000e+000) (1, 5.16338613196350550000e-001) (2, 2.01848692144649400000e+000) (3, 4.31111058864106830000e-001) (4, 1.75804307664070740000e+000) (5, 1.37772463908159740000e+000) (6, 7.46961170965928180000e-001) (7, 2.79191738914371790000e+000) (8, 2.81630376125711250000e+000) (9, 2.06382006181987610000e+000) (10, 1.43530834107973650000e+000) (11, 2.57113047266807900000e+000) (12, 1.65775721477737690000e+000) (13, 2.46399821714609320000e+000) (14, 8.12833563457305840000e-001) (15, 1.28410050150585310000e+000) (16, 8.34652970715315080000e-001) (17, 1.00274994597440710000e+000) (18, 2.62938514836855130000e+000) (19, 2.92858208966907710000e+000) (20, 4.22933180295354820000e-001) (21, 3.48707070513464830000e-001) (22, 3.39109643368049740000e+000) (23, 4.50768769253322040000e-001) (24, 1.31068068701036020000e+000) (25, 1.98268623092253860000e+000) (26, 1.69296725836320780000e+000) (27, 1.34089390754942310000e+000) (28, 1.29073737099260890000e+000) (29, 7.98975947402589700000e-001) (30, 1.63715501467329010000e+000) (31, 1.26710803463088380000e+000) (32, 9.83225824838800060000e-001) (33, 1.60048843000866040000e+000) (34, 5.74459727888783740000e-001) (35, 1.08034625788874260000e+000) (36, 2.77767467914937600000e+000) (37, 1.33815687277328220000e+000) (38, 2.84707696485120950000e+000) (39, 2.14697416205690580000e+000) (40, 6.51595937382725370000e-001) (41, 2.34508251808028120000e-001) (42, 1.07562167395345500000e+000) (43, 2.09478483169901210000e+000) (44, 7.29481205316487080000e-001) (45, 8.54372181887984140000e-001) (46, 8.38047443744953100000e-001) (47, 3.42618807158078910000e-001) (48, 2.73939346591245150000e+000) (49, 1.27023247653895100000e+000) (50, 1.16320190314896870000e+000) (51, 1.36810732330551210000e+000) (52, 2.86653995892333310000e+000) (53, 1.52658473282182320000e+000) (54, 3.22567218894479040000e-001) (55, 1.38448251603759660000e+000) (56, 3.29555920947301240000e-001) (57, 1.66799643051798550000e+000) (58, 7.65484357576502570000e-001) (59, 1.28949073157124270000e+000) (60, -9.73553470468959130000e-002) (61, 2.28886439187837270000e-001) (62, 1.11804113064207170000e+000) (63, 1.89202844005799150000e-001) (64, -3.94698482811809800000e-001) (65, -5.95719926264727690000e-001) (66, 7.81865561914736330000e-001) (67, -1.97608906512370150000e-001) (68, 5.27211974152004490000e-001) (69, 4.82599244346483210000e-001) (70, 5.16962458547301500000e-001) (71, 9.40101418511316120000e-001) (72, 9.02036267633655960000e-001) (73, 1.90847180268558890000e+000) (74, -1.17867468671766300000e-001) (75, 8.98683865971969360000e-001) (76, 1.32978982581232170000e+000) (77, 5.97225593471074400000e-001) (78, 8.47366332843074500000e-001) (79, 1.41872122497980360000e+000) (80, -4.92490768230696980000e-001) (81, 1.22412470420646960000e+000) (82, -1.91150253770262370000e-001) (83, 2.22084662844641350000e+000) (0, -2.08619048232914550000e-001) (1, 1.45153513683388340000e+000) (2, 8.29637180536637930000e-001) (3, 1.65909834960871480000e+000) (4, 6.03405767722306030000e-001) (5, 9.42485676072190360000e-001) (6, 2.14579972190778670000e+000) (7, 1.03675507313921720000e+000) (8, 1.98880991736956460000e+000) (9, -3.88184405045367410000e-002) (10, 5.37591178534037820000e-001) (11, 4.91037746451679080000e-001) (12, 2.29014651619111800000e-001) (13, 6.62323090446455430000e-001) (14, 2.01370442461734590000e+000) (15, 3.12698284914251890000e-001) (16, 7.74997233595110860000e-001) (17, 5.23909833550974650000e-001) (18, 9.81733986080101980000e-001) (19, 6.15251151618769420000e-001) (20, 4.50174674261135180000e+000) (21, 7.63556295121480040000e-001) (22, 7.15222198123674490000e-001) (23, 1.48842141324240870000e+000) (24, 9.10403664654625970000e-001) (25, 1.56864125918068860000e+000) (26, 8.62518407601329810000e-001) (27, 1.33759638596500690000e+000) (28, 1.74213522074476850000e+000) (29, 1.27937445977637740000e+000) (30, -3.07802121409807460000e-002) (31, 1.49967242748453300000e+000) (32, 6.61079323511105100000e-001) (33, 9.64895845997617680000e-001) (34, 5.65453151404440860000e-001) (35, 3.68958680879373220000e-001) (36, 6.77160082746647850000e-001) (37, 1.45918734423729710000e+000) (38, 4.86879493002206450000e-001) (39, 1.60671281807602130000e+000) (40, 8.80861549735302170000e-001) (41, 2.09930293380355240000e-001) (42, 1.59023645695650200000e-001) (43, -1.15666278367571570000e-001) (44, 1.99492688334039270000e-001) (45, 2.92406127336469700000e-001) (46, 1.01316148622228710000e+000) (47, 9.55093546635888190000e-001) (48, 1.12611141073179670000e+000) (49, 7.15938533698456280000e-001) (50, 1.54150392592245680000e+000) (51, 1.55575490188016660000e+000) (52, -5.16491689477782010000e-001) (53, 1.32033877869219250000e+000) (54, 1.70019078777153610000e+000) (55, -1.14512606601463170000e-001) (56, 6.49327643250854570000e-001) (57, 1.79146095018657460000e+000) (58, 1.70247266761047070000e+000) (59, 9.48118969121322870000e-001) (60, 1.01066202466560170000e+000) (61, 7.68104178586237810000e-001) (62, 1.68929785124675690000e+000) (63, 6.78099107897396800000e-001) (64, 1.62945993200674870000e+000) (65, 1.89203188620689680000e+000) (66, 1.62348904250839050000e+000) (67, 8.28369813552483070000e-001) (68, 5.03594202879999900000e-001) (69, 3.65385693684700590000e-001) (70, 5.98528110747877600000e-001) (71, 6.14455014333842310000e-001) (72, 1.87405811068067800000e+000) (73, 2.25621256132691880000e+000) (74, 8.45397814873390160000e-001) (75, 1.57813155123263660000e+000) (76, 1.46384526167578530000e+000) (77, 2.52501366587413070000e-001) (78, 1.10351635979800840000e+000) (79, 3.81254912249758550000e-001) (80, 8.06407832671891460000e-003) (81, 2.87570044209750530000e-002) (82, 1.17534150937411060000e+000) (83, 1.97636209585747100000e+000) (84, 6.13699381893597850000e-001) (0, 1.45094533496829880000e+000) (1, 1.13865028564186700000e+000) (2, 7.13236541683980100000e-001) (3, 6.50265935108244040000e-001) (4, 1.38089228512744320000e+000) (5, 1.85945564727497790000e+000) (6, 9.46624850159505370000e-001) (7, 1.71951657023888970000e+000) (8, 1.91907331972727110000e+000) (9, 1.55056690502560660000e+000) (10, 8.32267383246814370000e-001) (11, 1.68964853472470630000e+000) (12, 7.01226311045786810000e-001) (13, 1.90273270515670810000e-001) (14, 4.59850849800339520000e-001) (15, 1.37486707596901850000e+000) (16, 2.03603094399608950000e+000) (17, 1.71495380158803720000e-001) (18, 1.45925625799038270000e+000) (19, 9.64044160367350410000e-001) (20, 2.09218211541682920000e+000) (21, 1.04176082495544640000e+000) (22, 4.42060510164716650000e-001) (23, 2.10819335013849510000e+000) (24, -4.69940379847001430000e-001) (25, 1.30248794371665770000e+000) (26, 1.10759395556869630000e-001) (27, 3.67830631925039790000e-001) (28, 2.20747268270288280000e+000) (29, 7.23833609454077380000e-001) (30, 1.32460283426469070000e+000) (31, 1.27998277141696560000e+000) (32, 3.36113318093474110000e-001) (33, 1.16381990525298670000e+000) (34, 2.71128459135371760000e+000) (35, 1.02296373866208930000e+000) (36, 1.42401830304205460000e+000) (37, 1.80860672456593870000e+000) (38, 1.81630766498147740000e-001) (39, 1.51933984590606920000e+000) (40, 1.08873701120878510000e+000) (41, 1.22252228146801370000e+000) (42, 1.90950046875253440000e-001) (43, 5.16342472595742950000e-001) (44, 7.57583830974776660000e-001) (45, 1.86267379559580570000e+000) (46, -9.37992863648711480000e-001) (47, 1.57438745675194740000e+000) (48, 9.94290714683185420000e-001) (49, 8.34710513220955130000e-001) (50, 6.17577631443917420000e-001) (51, 4.81732447739112280000e-001) (52, 1.10921960219133100000e+000) (53, 9.63935103641564870000e-001) (54, 1.84116884131984750000e+000) (55, -1.80266574266945170000e-001) (56, 2.04145711019609570000e+000) (57, 1.82196464848707930000e+000) (58, 9.57080399604576910000e-001) (59, -5.31277184787359720000e-002) (60, 7.33781817084297790000e-001) (61, 7.28101638268333180000e-001) (62, 1.79483190915897910000e+000) (63, 9.32746802351662960000e-001) (64, -2.36749928398214440000e-002) (65, 1.45920164039146800000e+000) (66, 5.69448178549489810000e-002) (67, 1.93519509572188130000e+000) (68, 1.08776559286264570000e+000) (69, 3.47537602280774790000e-001) (70, 3.96895657950915970000e-001) (71, -8.07349709456477020000e-002) (72, 5.60802497825627630000e-001) (73, 2.89931475259335910000e+000) (74, 2.53491914384633640000e-001) (75, 1.59397679229753740000e+000) (76, -4.92677030076171640000e-001) (77, 1.11996914589744480000e+000) (78, -5.86851812945403340000e-001) (79, -2.93096201678870070000e-001) (80, 1.27236522063849630000e+000) (81, 1.44710403557574120000e+000) (82, -2.16217545407145130000e-001) (83, 2.39048431636214430000e+000) (84, -6.28097656847691810000e-001) (85, 1.33840866803044080000e+000) (0, -6.53097355778714970000e-001) (1, -8.50551141310781360000e-001) (2, 2.37474680953029870000e-001) (3, -1.74748187151368360000e-001) (4, 3.18408684272284030000e-001) (5, -5.32659235415362310000e-001) (6, -3.99742417820513010000e-001) (7, -3.93283942420517780000e-001) (8, -4.62510141074472030000e-001) (9, -2.88197618378156990000e-001) (10, -7.48957860248463890000e-001) (11, 4.31240243590228610000e-001) (12, -5.24027949764232730000e-001) (13, -2.11978897092090060000e-001) (14, 2.84513998542292030000e-001) (15, -4.24347959594812200000e-001) (16, -8.33156015036119910000e-001) (17, 1.03621706549018340000e+000) (18, -9.88940681278123980000e-003) (19, -4.42133523691570330000e-001) (20, -2.32466597455210450000e-001) (21, -8.61065472228773170000e-001) (22, 6.53330121376135330000e-001) (23, 9.84519809926308160000e-001) (24, -1.21091667320556280000e-001) (25, 8.93963212846482950000e-001) (26, -1.04074475463296400000e+000) (27, 4.55379350338403100000e-001) (28, -7.95315403287491370000e-002) (29, -3.82495747220262080000e-001) (30, 3.79719534055293460000e-001) (31, 2.76600603361235670000e-002) (32, 1.81501315912368070000e-001) (33, 3.24064606774913000000e-001) (34, -5.73430176250358640000e-001) (35, 1.37414497682443890000e+000) (36, 8.00886765175651380000e-001) (37, 1.10839220247317140000e-001) (38, 9.73570669661726010000e-001) (39, -7.51950717977514340000e-001) (40, 1.45915116458394390000e-001) (41, -3.27231052307405900000e-001) (42, -5.14503191753996720000e-001) (43, -3.73344265409404690000e-001) (44, 8.37249375540571770000e-001) (45, -4.66750448650699260000e-001) (46, -6.01214903514200870000e-002) (47, 5.35051634024586330000e-001) (48, -4.91489185589351950000e-001) (49, -3.22200593514381240000e-001) (50, 5.22656892294959150000e-001) (51, 8.90159481844366020000e-002) (52, 4.57922238150487440000e-001) (53, 2.76361260229332490000e-001) (54, -5.87040668499504540000e-001) (55, 1.17210227276363500000e+000) (56, -2.14610617882222240000e-001) (57, 7.69228103818370150000e-001) (58, 8.60059401563341150000e-001) (59, -2.95708398465045540000e-001) (60, 1.29906597384679550000e-002) (61, -2.66457386577541980000e-001) (62, 4.87911579228944350000e-001) (63, 9.42074383037423190000e-001) (64, 4.75627260521647060000e-001) (65, 1.10301228228441480000e+000) (66, 1.48728657954662030000e-001) (67, -4.14525927816706440000e-001) (68, 7.35471555922798670000e-001) (69, 6.53042903606073750000e-001) (70, 1.16721211422263550000e+000) (71, 2.12497222094961300000e-001) (72, 6.79098657802269750000e-001) (73, 2.60054093208947280000e+000) (74, -1.11165958448230850000e-001) (75, 5.58396189583050930000e-001) (76, 4.02651487028791670000e-001) (77, 3.32438867745263040000e-001) (78, 9.76063623491105430000e-001) (79, -9.88892888811547520000e-002) (80, -4.57871212902857090000e-001) (81, -3.09146078490262650000e-001) (82, 2.08262916189719730000e+000) (83, 1.80576519597813050000e+000) (84, 9.60161915088632470000e-001) (85, 9.00592595061494440000e-002) (86, 7.07335868062865640000e-001) (0, -1.06923372244612510000e-001) (1, 5.19700269032755680000e-001) (2, 5.86069160016574720000e-001) (3, 6.34851196545194950000e-001) (4, 1.14129380152317020000e+000) (5, 8.67045810989337640000e-001) (6, 1.56163530084057170000e+000) (7, 1.58529640846958690000e+000) (8, 1.87064158330520100000e+000) (9, 1.01405584238112480000e+000) (10, 1.74066355104223990000e+000) (11, 9.50716538818842440000e-001) (12, 1.12984161454069840000e+000) (13, 5.34194062924528340000e-003) (14, 7.43866656460294150000e-001) (15, 2.25144969818581810000e-001) (16, -5.01119255676326650000e-002) (17, 1.72749247559287290000e+000) (18, 9.76336361919085130000e-001) (19, 6.33040959340604670000e-001) (20, 1.25511581879342460000e+000) (21, 1.72337644517924640000e+000) (22, 1.13287644231746110000e+000) (23, 1.86812698267812860000e+000) (24, 1.28560306374691820000e+000) (25, 1.56329482019789270000e+000) (26, 1.11440114373603530000e+000) (27, 4.36186532239667750000e-001) (28, 6.36676793026207610000e-001) (29, 1.84656513747592780000e+000) (30, 3.40642999278513210000e-001) (31, 1.11973018956065530000e+000) (32, 1.63647516138457830000e+000) (33, 1.87993078740285120000e+000) (34, 1.33181296433973580000e+000) (35, 8.20029745790743170000e-001) (36, 2.20384455108841440000e-001) (37, 1.09593186623657160000e+000) (38, 1.45102751457795140000e+000) (39, 6.29494405459933740000e-001) (40, 1.86387611185359670000e+000) (41, 2.10004782629190110000e+000) (42, 1.17443359883735960000e-001) (43, 1.88948358345556430000e+000) (44, 1.90382418239791430000e+000) (45, 5.49616290005772950000e-001) (46, 1.14197090126986070000e+000) (47, 7.38641494137500240000e-001) (48, 9.70650873790382060000e-001) (49, 1.34018264715696870000e+000) (50, 6.83796779780771910000e-001) (51, 4.53072602152087060000e-001) (52, 1.38015384822793340000e+000) (53, 1.06235024162599460000e-001) (54, 1.83176736235428630000e+000) (55, -2.98274613279364280000e-001) (56, 8.04478450379765060000e-001) (57, 1.31793537093147510000e-001) (58, 9.94438893027598910000e-001) (59, 7.84389070474365900000e-001) (60, 1.78776901722674640000e+000) (61, 1.23015583650788310000e+000) (62, 1.40186063532233880000e+000) (63, 2.27158864890990960000e-001) (64, 1.68593469776699090000e-001) (65, 5.61334044511742850000e-001) (66, 1.89169086902008910000e+000) (67, 9.86191649556755310000e-001) (68, 7.17224566841210160000e-001) (69, 1.01786384316668150000e+000) (70, 7.71711027946400560000e-001) (71, 4.28050614924604060000e-001) (72, 1.07604585713604490000e+000) (73, 1.15722071204388240000e+000) (74, 1.32784820736878210000e+000) (75, 1.01586001715266660000e+000) (76, 1.43925673830975320000e+000) (77, 2.00094160943129480000e+000) (78, 1.49751289284548110000e+000) (79, 2.22839542704234340000e-001) (80, 1.74903107229535530000e+000) (81, 5.07053486678126110000e-001) (82, 8.85297603902704680000e-002) (83, 7.90086277460792410000e-001) (84, 1.66681965335381530000e+000) (85, 1.12648012296049970000e+000) (86, 6.93717550613158540000e-001) (87, 8.65855548676820570000e-001) (0, -1.67358260433506050000e-001) (1, 7.46158002176581130000e-001) (2, -2.07714848663071110000e-001) (3, 1.04008101791370940000e+000) (4, 7.57571215463989980000e-001) (5, 7.21912007567207970000e-001) (6, -8.87588227567488340000e-001) (7, -3.50529420387348520000e-001) (8, -6.83616565104150140000e-001) (9, 1.02503480361469530000e-002) (10, -2.51619353271273880000e-001) (11, 8.17009765216157540000e-001) (12, -1.04808320308470780000e+000) (13, -2.19484634215248550000e-001) (14, -3.78148026770558370000e-001) (15, 2.15684668801448650000e-002) (16, -7.42740034795805860000e-001) (17, -4.26507597073298720000e-001) (18, 3.01553364091106610000e-001) (19, -9.35942790950476720000e-001) (20, -2.33521515427864260000e-001) (21, 1.19305480462750730000e-001) (22, -1.54404211166054020000e-001) (23, -3.92300030464790840000e-002) (24, 3.14344753514885940000e-001) (25, 2.86417187227651360000e-001) (26, 5.60142731533470380000e-001) (27, 6.24115675725275270000e-001) (28, -3.47573581671592800000e-001) (29, -6.96350793451760430000e-001) (30, 1.32367217574945990000e-001) (31, -5.88001450244475810000e-001) (32, -9.62479294455796250000e-002) (33, 8.92067615341754830000e-001) (34, 5.28944331387404270000e-001) (35, -1.08370480333110650000e+000) (36, 2.15009080267246800000e-001) (37, -6.05410721328316080000e-001) (38, -7.27476776297958370000e-001) (39, 2.87226721296266090000e-001) (40, -3.16272248527438020000e-001) (41, 8.11364995503985890000e-001) (42, -8.68301958879546090000e-001) (43, 9.60239993040714950000e-001) (44, 4.72933332498310650000e-001) (45, -9.04388073318167920000e-002) (46, -9.87691031088940190000e-001) (47, -2.33838957224400230000e-001) (48, 3.61379034516817470000e-001) (49, 5.10966578290800060000e-001) (50, 7.49191342418428220000e-001) (51, 3.06106269098764590000e-001) (52, -2.68172463834622950000e-001) (53, -9.43340506372214230000e-001) (54, 3.44284294362022070000e-001) (55, 9.26997699055592260000e-001) (56, -9.22109874825059350000e-001) (57, 7.70459320637126160000e-002) (58, 1.25919034208669880000e+000) (59, 9.81143502697231270000e-001) (60, -9.61202546172669650000e-001) (61, -1.15511178989126590000e+000) (62, -5.29694245452041880000e-002) (63, 5.08653252774385000000e-001) (64, 3.94762501027508210000e-001) (65, -4.06035251440695190000e-001) (66, -1.18586723626677550000e+000) (67, 6.78239716944850410000e-001) (68, 4.61840312860759720000e-001) (69, 3.11074832393117060000e-001) (70, 1.35785894002672560000e+000) (71, 7.25363698808078720000e-001) (72, -9.08493057935547020000e-001) (73, 3.48354048662813080000e+000) (74, -2.08650997176412940000e-001) (75, 3.14017550593360950000e-001) (76, 1.09071102763028050000e+000) (77, 4.76544191587790770000e-001) (78, 8.91749042932840960000e-001) (79, 2.99124892581766170000e-001) (80, -1.19717323161892250000e+000) (81, -7.64133613151285130000e-003) (82, -2.21347726594263470000e-001) (83, 2.85745794970483890000e+000) (84, 1.94533289158369900000e-001) (85, 5.18841634836612830000e-001) (86, 6.50120377447910960000e+000) (87, -1.41146939420673110000e+000) (88, 1.00048019677449940000e+000) (0, 1.22099866315251980000e+000) (1, 5.56953336447450040000e-001) (2, 1.07647334896954880000e+000) (3, 4.14439817507702870000e-001) (4, 7.81058218555313210000e-001) (5, 1.04856059609501790000e+000) (6, 1.82396783490960450000e+000) (7, 7.11460623157295970000e-001) (8, 1.83767926441015890000e+000) (9, 7.15946429315703960000e-001) (10, -7.44482366935239610000e-002) (11, 6.25066702985828000000e-001) (12, 2.16312243684465870000e+000) (13, 3.42473844742205270000e-001) (14, -6.43314163652732310000e-002) (15, 1.44623891876016390000e+000) (16, 1.91222240828306010000e+000) (17, 5.46320737701600610000e-001) (18, 1.94085367080052390000e-001) (19, 6.25485305440336430000e-001) (20, 2.68180361752510370000e-001) (21, 1.79075166492959360000e+000) (22, 1.04606962669235950000e+000) (23, 2.47356292243939930000e-001) (24, 1.72442350947087910000e+000) (25, 1.31536912425067110000e+000) (26, 1.61414314431913790000e+000) (27, 8.25923088648979230000e-001) (28, 4.67735010178977360000e+000) (29, 2.47641857598923390000e+000) (30, 1.95802983363491310000e+000) (31, 1.10735594832406800000e+000) (32, 2.49342954619603080000e-003) (33, 1.91762307800883370000e+000) (34, 1.36012666790761360000e+000) (35, 1.11502737328239900000e+000) (36, 8.31784159842032580000e-001) (37, 9.44658434233925590000e-001) (38, 8.03251525670058860000e-001) (39, 7.49982548083599430000e-001) (40, 8.53814796627450630000e-001) (41, 5.65948445458521300000e-001) (42, 9.25908216764770090000e-001) (43, 1.93299680342359960000e+000) (44, 9.36534366224563650000e-001) (45, 6.42120155423974490000e-001) (46, 1.43940147151558760000e+000) (47, 3.87827028440415720000e-001) (48, 3.70230198032342030000e-001) (49, 4.58344930257096660000e-001) (50, 2.68597780820716560000e-001) (51, 1.30114665478602800000e+000) (52, -2.96119358525809280000e-001) (53, 1.47572112996716400000e+000) (54, 6.08807189050249660000e-001) (55, 3.17333427620567630000e-002) (56, 7.00811785410303640000e-001) (57, 1.47591184919402550000e+000) (58, 1.87196071299110130000e+000) (59, 1.90039660625558150000e+000) (60, 9.36654397165016530000e-001) (61, 8.80985901034816000000e-001) (62, 6.80158255791371010000e-001) (63, 9.07573521237733600000e-001) (64, 1.31266274022849050000e+000) (65, 2.85903816660011630000e-001) (66, 8.01223511553049610000e-001) (67, 1.85391857963480410000e+000) (68, 2.24852848984899940000e+000) (69, 1.06429336960435680000e+000) (70, 1.27635076718890320000e+000) (71, 1.46765432891397140000e+000) (72, 1.90800597883216900000e+000) (73, 2.14181574779016290000e+000) (74, 4.69797620899911120000e-001) (75, 4.36818007907907590000e-001) (76, 2.26110819542617450000e+000) (77, 2.18104413483611380000e+000) (78, 9.99767952641314460000e-002) (79, 1.80371926067591050000e+000) (80, 1.12578912115528970000e+000) (81, 1.22672491712607260000e+000) (82, 1.58617978920061580000e+000) (83, 1.80373934752232120000e-001) (84, 3.93022828157603030000e-001) (85, 1.15811679193131330000e+000) (86, 1.28143654633136190000e+000) (87, 4.41711335165906220000e-001) (88, 8.78805528951899560000e-001) (89, 7.61978027545972550000e-001) (0, 5.87961676542819830000e-001) (1, -6.60054183327538180000e-001) (2, -8.48953573369127910000e-001) (3, 6.39189036434752780000e-001) (4, 9.74655074581780130000e-001) (5, 8.98916345073356720000e-001) (6, 1.51959670785592110000e-001) (7, 1.15266044014474750000e-001) (8, 3.29362127859377240000e-001) (9, -2.32834235098475340000e-001) (10, 6.93684483561978760000e-001) (11, -6.26781446567675430000e-001) (12, 1.12269358675985290000e+000) (13, 9.43887702518893530000e-001) (14, -1.26680772261398900000e-001) (15, -9.46695458740200220000e-001) (16, -3.45068282049784850000e-001) (17, 1.21035187032123330000e+000) (18, 9.44371536980485320000e-002) (19, -5.70210676823601050000e-001) (20, 5.33116988258944930000e-001) (21, -3.87079332385117820000e-001) (22, 3.28030437383412980000e-003) (23, 5.27537973617873580000e-001) (24, 2.04105888116644930000e-001) (25, -7.37189972268317060000e-001) (26, 6.55160273914239260000e-001) (27, -1.24101192740739690000e-002) (28, 6.03244213199913950000e-001) (29, -3.01272225306416060000e-002) (30, 1.77109836436376090000e-001) (31, -7.28024171965836460000e-001) (32, -9.37274322849636520000e-001) (33, -4.68174738116404530000e-001) (34, -2.53713531688342540000e-001) (35, 5.25262689446175820000e-001) (36, 3.94139987596699550000e-001) (37, -4.04858883926065560000e-001) (38, -4.69156266562712750000e-001) (39, -7.36045928503491490000e-001) (40, 2.11109689294015520000e-001) (41, -6.94663788267422260000e-001) (42, -4.86962526719622940000e-002) (43, 1.22000138220229700000e+000) (44, 5.85533153145231690000e-001) (45, 2.62878593470357640000e-001) (46, -4.96762270960523220000e-001) (47, -2.91330875184893870000e-001) (48, 5.04939166283162880000e-002) (49, 7.08659177376831370000e-001) (50, 5.07619576443105290000e-001) (51, -4.94438082580974330000e-001) (52, 2.97700633313718930000e-001) (53, -2.44046752420235440000e-001) (54, 2.84609919743719910000e-001) (55, -2.14565675573708380000e+000) (56, 1.10696937699880860000e-001) (57, -1.94178458329923230000e-001) (58, -7.94992700857282130000e-001) (59, 2.95399599024487810000e-001) (60, -5.13888790818860300000e-001) (61, -3.36417733990934160000e-001) (62, 8.68922707769265390000e-001) (63, 4.01610446405273440000e-001) (64, 1.82328192381563230000e-001) (65, 3.73585294105312830000e-001) (66, -5.61117951734166790000e-001) (67, 4.25046086170654370000e-001) (68, -5.69231949930950390000e-001) (69, 7.45275697568231890000e-002) (70, 8.56289094311036950000e-001) (71, -7.18398747822828060000e-002) (72, 3.16075787576147740000e-001) (73, 3.23216571891476480000e+000) (74, -7.10874599740501710000e-001) (75, 1.01922880047862360000e+000) (76, 5.50997463481793790000e-001) (77, 5.57880542911802000000e-001) (78, 2.03522115867991900000e-001) (79, 9.87484992870038990000e-001) (80, 3.54362499109727840000e-001) (81, -7.45745031125773280000e-001) (82, 1.38552292301681580000e+000) (83, 1.22184228167888300000e+000) (84, -7.63572169734806020000e-001) (85, 6.11599058140453460000e-001) (86, 2.51604332768982180000e+000) (87, -4.91398176070371560000e-001) (88, 2.11221522577137400000e+000) (89, 4.01969068965994380000e-002) (90, 9.12017723628112730000e-001) (0, 7.97605393269043670000e-001) (1, -2.74098538255251820000e-001) (2, 1.52859944536972800000e+000) (3, 4.70886006488132890000e-001) (4, 1.00379774847265790000e+000) (5, 2.53634125467914810000e-001) (6, 1.22921743552457710000e+000) (7, 1.48127793990100170000e+000) (8, -1.24852963871421200000e-001) (9, 2.15108450693117350000e+000) (10, 1.56549644329753780000e+000) (11, 6.62841957450370670000e-001) (12, 1.65183280806988870000e+000) (13, 1.38541883277013190000e-001) (14, 1.67954671437719980000e+000) (15, 1.33754683583577180000e+000) (16, 4.86441442848051690000e-001) (17, 1.41026182711404170000e+000) (18, -2.59291080374303480000e-001) (19, -3.02747831984217560000e-001) (20, -1.33712034640283290000e+000) (21, 3.55281112296858770000e-001) (22, 5.09585124623568840000e+000) (23, 4.22384804991852380000e-001) (24, 1.95317705707580380000e+000) (25, 5.86925305711830100000e-001) (26, 3.80467319012783630000e-001) (27, 2.00599355593916370000e+000) (28, 1.45062899190907050000e+000) (29, 1.58504511724911360000e+000) (30, 4.63759959538690260000e-001) (31, 1.68983242179490720000e+000) (32, 5.40951416932063170000e-001) (33, 2.23245271835070240000e+000) (34, 2.62313413538129980000e+000) (35, 2.90034144926667010000e+000) (36, 8.39735816713772730000e-001) (37, 9.35009227151498590000e-001) (38, -2.53081966744316770000e-001) (39, 1.19474545164207950000e+000) (40, 2.14552702265310110000e+000) (41, -1.04919570682131820000e+000) (42, 1.68537740172975540000e+000) (43, 1.24894068749259570000e+000) (44, 2.07551754488212970000e+000) (45, 2.92090084741889190000e-001) (46, 1.95699009287705270000e+000) (47, 2.44031719702993310000e-001) (48, 1.57800650338517800000e+000) (49, 2.21876688241056770000e+000) (50, 2.14116108272209880000e+000) (51, 1.33226316889586770000e+000) (52, 3.04690002991848620000e-001) (53, 1.85356503997944340000e+000) (54, 4.36252585657507910000e-001) (55, 7.92332122424983410000e-001) (56, 1.91796775725189030000e+000) (57, -8.19756535393353250000e-001) (58, 9.07757427646919360000e-001) (59, 2.01388393254965880000e-001) (60, 1.44242297559921750000e+000) (61, 2.10026630982213550000e+000) (62, 6.17012001912164990000e-001) (63, 1.31454254947536930000e+000) (64, 1.24756067085159250000e+000) (65, 1.28213258727523250000e+000) (66, 2.24864259742303840000e+000) (67, 7.53038680661103690000e-001) (68, 1.91262142425684710000e+000) (69, 2.04033947073005350000e+000) (70, 2.23696764405894790000e+000) (71, 6.54365373928652680000e-001) (72, 1.05850421550034500000e+000) (73, 2.00871965788814680000e+000) (74, 1.54046337787647740000e+000) (75, 1.55236277863060820000e+000) (76, 2.17475195742113180000e+000) (77, 1.07750532571994450000e+000) (78, 1.18500503976885230000e+000) (79, 1.34495103218706790000e+000) (80, 2.15886244056947740000e+000) (81, 1.47412337469808600000e+000) (82, 1.79162732376458790000e+000) (83, 1.51602559621650810000e+000) (84, 9.60433095758176480000e-001) (85, 3.88082538124488400000e-001) (86, 1.41707513119494370000e+000) (87, 1.78823645341261250000e+000) (88, 1.97775701625712920000e+000) (89, 1.57705021419886270000e+000) (90, 1.73744535250708250000e+000) (91, 9.42237390277829820000e-001) (0, 6.89632041505080170000e-001) (1, 4.37120497996041020000e-001) (2, 1.93104083383742490000e-001) (3, 1.89863337727415370000e+000) (4, 1.07004748062167780000e+000) (5, 5.31536857520788390000e-001) (6, -2.61931815556528220000e-001) (7, 1.04760480220501280000e+000) (8, 2.03978588337862780000e+000) (9, 1.12943418758754580000e+000) (10, 8.62199772104750520000e-001) (11, 3.16514201856562260000e-001) (12, 2.11131279175377350000e+000) (13, 2.04829917779854400000e+000) (14, 1.40430953760783180000e+000) (15, 9.10286878633213110000e-001) (16, 2.21327660171692610000e-001) (17, 1.86239556053236430000e+000) (18, 9.55606896627026190000e-002) (19, 8.96899787111962280000e-001) (20, 3.98481429058444100000e+000) (21, 4.95325209507712190000e-001) (22, 1.40531391437126980000e+000) (23, 1.50995849506539530000e+000) (24, 6.51735540470864680000e-001) (25, 7.59449651997937010000e-001) (26, 1.52759302027273720000e+000) (27, 1.33828603100478570000e+000) (28, 2.76363163579793670000e+000) (29, 3.69395272314289420000e-001) (30, -1.47512636991344370000e-001) (31, 3.87314027598060380000e-001) (32, -2.13255989396666340000e-002) (33, 