FANN_FLO_2.1
num_layers=50
learning_rate=0.700000
connection_rate=1.000000
network_type=1
learning_momentum=0.000000
training_algorithm=2
train_error_function=1
train_stop_function=0
cascade_output_change_fraction=0.010000
quickprop_decay=-0.000100
quickprop_mu=1.750000
rprop_increase_factor=1.200000
rprop_decrease_factor=0.500000
rprop_delta_min=0.000000
rprop_delta_max=50.000000
rprop_delta_zero=0.100000
cascade_output_stagnation_epochs=12
cascade_candidate_change_fraction=0.010000
cascade_candidate_stagnation_epochs=12
cascade_max_out_epochs=150
cascade_max_cand_epochs=150
cascade_num_candidate_groups=2
bit_fail_limit=3.49999999999999980000e-001
cascade_candidate_limit=1.00000000000000000000e+003
cascade_weight_multiplier=4.00000000000000020000e-001
cascade_activation_functions_count=10
cascade_activation_functions=3 5 7 8 10 11 14 15 16 17 
cascade_activation_steepnesses_count=4
cascade_activation_steepnesses=2.50000000000000000000e-001 5.00000000000000000000e-001 7.50000000000000000000e-001 1.00000000000000000000e+000 
layer_sizes=56 1 1 1 1 1 1 1 1 1 1 1 1 1 1 1 1 1 1 1 1 1 1 1 1 1 1 1 1 1 1 1 1 1 1 1 1 1 1 1 1 1 1 1 1 1 1 1 1 1 
scale_included=0
neurons (num_inputs, activation_function, activation_steepness)=(0, 0, 0.00000000000000000000e+000) (0, 0, 0.00000000000000000000e+000) (0, 0, 0.00000000000000000000e+000) (0, 0, 0.00000000000000000000e+000) (0, 0, 0.00000000000000000000e+000) (0, 0, 0.00000000000000000000e+000) (0, 0, 0.00000000000000000000e+000) (0, 0, 0.00000000000000000000e+000) (0, 0, 0.00000000000000000000e+000) (0, 0, 0.00000000000000000000e+000) (0, 0, 0.00000000000000000000e+000) (0, 0, 0.00000000000000000000e+000) (0, 0, 0.00000000000000000000e+000) (0, 0, 0.00000000000000000000e+000) (0, 0, 0.00000000000000000000e+000) (0, 0, 0.00000000000000000000e+000) (0, 0, 0.00000000000000000000e+000) (0, 0, 0.00000000000000000000e+000) (0, 0, 0.00000000000000000000e+000) (0, 0, 0.00000000000000000000e+000) (0, 0, 0.00000000000000000000e+000) (0, 0, 0.00000000000000000000e+000) (0, 0, 0.00000000000000000000e+000) (0, 0, 0.00000000000000000000e+000) (0, 0, 0.00000000000000000000e+000) (0, 0, 0.00000000000000000000e+000) (0, 0, 0.00000000000000000000e+000) (0, 0, 0.00000000000000000000e+000) (0, 0, 0.00000000000000000000e+000) (0, 0, 0.00000000000000000000e+000) (0, 0, 0.00000000000000000000e+000) (0, 0, 0.00000000000000000000e+000) (0, 0, 0.00000000000000000000e+000) (0, 0, 0.00000000000000000000e+000) (0, 0, 0.00000000000000000000e+000) (0, 0, 0.00000000000000000000e+000) (0, 0, 0.00000000000000000000e+000) (0, 0, 0.00000000000000000000e+000) (0, 0, 0.00000000000000000000e+000) (0, 0, 0.00000000000000000000e+000) (0, 0, 0.00000000000000000000e+000) (0, 0, 0.00000000000000000000e+000) (0, 0, 0.00000000000000000000e+000) (0, 0, 0.00000000000000000000e+000) (0, 0, 0.00000000000000000000e+000) (0, 0, 0.00000000000000000000e+000) (0, 0, 0.00000000000000000000e+000) (0, 0, 0.00000000000000000000e+000) (0, 0, 0.00000000000000000000e+000) (0, 0, 0.00000000000000000000e+000) (0, 0, 0.00000000000000000000e+000) (0, 0, 0.00000000000000000000e+000) (0, 0, 0.00000000000000000000e+000) (0, 0, 0.00000000000000000000e+000) (0, 0, 0.00000000000000000000e+000) (0, 0, 0.00000000000000000000e+000) (56, 14, 7.50000000000000000000e-001) (57, 17, 2.50000000000000000000e-001) (58, 14, 5.00000000000000000000e-001) (59, 14, 5.00000000000000000000e-001) (60, 14, 5.00000000000000000000e-001) (61, 14, 7.50000000000000000000e-001) (62, 16, 5.00000000000000000000e-001) (63, 16, 2.50000000000000000000e-001) (64, 14, 2.50000000000000000000e-001) (65, 3, 2.50000000000000000000e-001) (66, 14, 5.00000000000000000000e-001) (67, 14, 5.00000000000000000000e-001) (68, 8, 2.50000000000000000000e-001) (69, 16, 5.00000000000000000000e-001) (70, 3, 2.50000000000000000000e-001) (71, 5, 2.50000000000000000000e-001) (72, 5, 2.50000000000000000000e-001) (73, 14, 2.50000000000000000000e-001) (74, 16, 5.00000000000000000000e-001) (75, 5, 2.50000000000000000000e-001) (76, 5, 2.50000000000000000000e-001) (77, 11, 5.00000000000000000000e-001) (78, 11, 2.50000000000000000000e-001) (79, 11, 2.50000000000000000000e-001) (80, 5, 2.50000000000000000000e-001) (81, 11, 2.50000000000000000000e-001) (82, 5, 5.00000000000000000000e-001) (83, 5, 5.00000000000000000000e-001) (84, 5, 2.50000000000000000000e-001) (85, 11, 2.50000000000000000000e-001) (86, 5, 2.50000000000000000000e-001) (87, 11, 2.50000000000000000000e-001) (88, 5, 2.50000000000000000000e-001) (89, 15, 5.00000000000000000000e-001) (90, 11, 2.50000000000000000000e-001) (91, 5, 2.50000000000000000000e-001) (92, 15, 2.50000000000000000000e-001) (93, 5, 7.50000000000000000000e-001) (94, 14, 5.00000000000000000000e-001) (95, 5, 2.50000000000000000000e-001) (96, 15, 1.00000000000000000000e+000) (97, 11, 2.50000000000000000000e-001) (98, 5, 2.50000000000000000000e-001) (99, 5, 2.50000000000000000000e-001) (100, 5, 2.50000000000000000000e-001) (101, 8, 2.50000000000000000000e-001) (102, 11, 2.50000000000000000000e-001) (103, 11, 7.50000000000000000000e-001) (104, 11, 5.00000000000000000000e-001) 
connections (connected_to_neuron, weight)=(0, 4.71998636123793450000e-001) (1, 1.41374704283498850000e+000) (2, 2.50217165273303520000e-002) (3, 7.52190003438250930000e-001) (4, 1.49969075692332840000e+000) (5, 1.23007870417878080000e+000) (6, 1.14228568679251670000e-001) (7, 3.62111400695597220000e-001) (8, 1.32027137585576050000e+000) (9, 7.24416402494058360000e-001) (10, 1.82900164128242900000e+000) (11, -8.94731595835798620000e-002) (12, 1.74263047096027820000e+000) (13, 6.16802947410989730000e-001) (14, 7.05893815367984600000e-002) (15, 1.19717090766537360000e+000) (16, 7.45967365945825050000e-002) (17, 8.51438373075645400000e-001) (18, 1.72327312197852580000e-001) (19, 1.55695751560906650000e+000) (20, 7.94635662418992860000e-001) (21, 1.53194557246247290000e+000) (22, 3.96797845485197030000e-001) (23, 1.59378691840203300000e+000) (24, 4.55368753518087920000e-001) (25, 2.12853244465503270000e+000) (26, 9.07261119998353460000e-001) (27, 1.70196422952880380000e+000) (28, 6.90029953307070400000e-001) (29, 6.53663679128782430000e-001) (30, 1.82737933600805970000e+000) (31, 2.41572054847509940000e+000) (32, 1.48867039071522080000e+000) (33, -4.81038540491864270000e-002) (34, 1.67482754886979320000e+000) (35, 7.22066303817824990000e-001) (36, 1.38359625268223610000e+000) (37, 1.63612392410325480000e+000) (38, 9.71426625845129620000e-001) (39, 1.12910557088317990000e+000) (40, 1.43620436855696430000e+000) (41, 1.93152675199281190000e+000) (42, -3.88869666478587230000e-003) (43, 1.16144277138329070000e+000) (44, 8.33292728043995150000e-002) (45, 4.12784426856184220000e-001) (46, 1.06168787025951140000e+000) (47, 1.62616616956230000000e+000) (48, 8.16760533589236950000e-001) (49, 1.64784917451615280000e+000) (50, 3.20440093965968180000e-001) (51, 1.56598718723873960000e+000) (52, 1.12995917047332180000e+000) (53, 1.03776246681458170000e+000) (54, -4.95197736819616150000e-001) (55, 1.28188586040526050000e+000) (0, -4.66661874236723230000e-001) (1, 1.61654414778115220000e+000) (2, 7.19720744030173050000e-001) (3, 1.06394972119845970000e+000) (4, 2.98340909850845830000e+000) (5, 1.80730225852435880000e+000) (6, 1.46623869906380700000e+000) (7, 1.23939129148112540000e+000) (8, 6.23519399817032080000e-001) (9, -1.87571887393210480000e-001) (10, 1.03830373035836180000e+000) (11, 2.17822893880622590000e+000) (12, 6.37827858389518500000e-001) (13, 5.96785437908569860000e-001) (14, 1.42786356454847900000e+000) (15, 2.09415873841748200000e+000) (16, 2.00516233756965120000e+000) (17, 1.71713436995107350000e+000) (18, -9.90421299534166800000e-001) (19, 1.18996635707616520000e+000) (20, 9.45769833967865960000e-001) (21, 2.65306636091792480000e+000) (22, 4.23220476061368790000e+000) (23, 3.59138237985925550000e+000) (24, 1.60764506568199450000e+000) (25, 7.59726305968006500000e-001) (26, 1.80360953610425120000e+000) (27, 1.87238751007722030000e+000) (28, 1.75826585130785640000e+000) (29, -8.81650164026186790000e-001) (30, 9.45038549708953730000e-001) (31, 1.04600052581404280000e+000) (32, 4.91058691058005540000e-001) (33, 1.97344271672826130000e+000) (34, 5.30683652346762740000e-001) (35, 1.02217315212928050000e+000) (36, 9.17388043966835820000e-001) (37, 1.61985637270926540000e+000) (38, 7.51250672180567620000e-001) (39, 9.65298108113319730000e-001) (40, 1.17575602769999450000e+000) (41, 6.70067057447404360000e-001) (42, 1.28759202290653670000e+000) (43, 1.35850965703132040000e+000) (44, 1.47481961641453620000e+000) (45, 5.16850762304547630000e-001) (46, 8.91122098586369930000e-001) (47, 1.28787272451537870000e+000) (48, 2.15551457376309100000e+000) (49, 2.28815196000754510000e+000) (50, 1.40542828118110700000e+000) (51, 2.17448261744242720000e+000) (52, 3.58926920764746300000e+000) (53, 1.92684673083493200000e+000) (54, 1.43254505466419960000e+000) (55, 8.96239848402492050000e-001) (56, -1.33027701339109910000e+000) (0, 7.17203795234257920000e-001) (1, 1.38813115564250000000e+000) (2, 1.77445850970447180000e+000) (3, 8.27227179029731420000e-001) (4, 2.69980357813888180000e-001) (5, 1.57338263895178780000e+000) (6, -1.61415466774416120000e-001) (7, 9.93128352904585120000e-001) (8, 7.53423326491909910000e-001) (9, 1.09002644597106260000e-001) (10, 2.01847993149656930000e+000) (11, 1.70890745059464130000e+000) (12, 4.81995175431247200000e-001) (13, 1.58457843369545030000e+000) (14, 2.45766650946761010000e-001) (15, 1.01820160718082710000e+000) (16, 1.82446319650006330000e+000) (17, 3.17625291597829540000e-001) (18, 1.85018943503141790000e+000) (19, 1.50013144673076890000e+000) (20, 5.53832568751616020000e-001) (21, 2.08927519057721060000e-001) (22, 6.64581914034201420000e-001) (23, 2.18436599916751240000e-001) (24, 5.15774085590253840000e-001) (25, 8.50338094710979870000e-001) (26, 4.87407684074165020000e-001) (27, 1.31864187036769740000e+000) (28, 7.94580955888231190000e-001) (29, 1.28684157018853980000e+000) (30, 3.69532363896071030000e-001) (31, 7.28773150064139790000e-001) (32, -1.31913583540582080000e-001) (33, 1.54668157103356400000e+000) (34, 1.14008787398477880000e+000) (35, -2.50109739492631210000e-001) (36, 1.63807767730120710000e+000) (37, 1.15665396522424760000e+000) (38, 4.63358910828279460000e-001) (39, 1.20159708933546330000e+000) (40, 2.09686633189569300000e+000) (41, 1.07424074704331640000e+000) (42, 1.52995405179206380000e+000) (43, 1.40327182385849740000e-001) (44, -1.60265037925337830000e-001) (45, 3.02062967635292390000e-001) (46, 3.30822075335998720000e-001) (47, 4.93496890910135210000e-001) (48, 9.31445890497272330000e-001) (49, 1.40401748743769470000e+000) (50, 6.58269148534234130000e-001) (51, 5.71852239150328900000e-001) (52, 1.52745582068102340000e+000) (53, 2.26322965099713790000e+000) (54, 1.36434428323356590000e+000) (55, 1.29461033571308740000e+000) (56, 1.78720312750331470000e+000) (57, 1.56251863945260960000e+000) (0, 1.46160233976372030000e+000) (1, 1.29000626759056410000e+000) (2, 1.14759875378364320000e+000) (3, 1.91212035018904250000e-002) (4, 5.31032419468809640000e-001) (5, 3.29416752777272560000e-001) (6, 1.34924649363740270000e+000) (7, -3.95246953461217550000e-002) (8, 4.13956112049527090000e-001) (9, 6.97051994487963980000e-002) (10, 8.22191328318051860000e-001) (11, 1.34334631442897460000e+000) (12, 2.07035379654180660000e+000) (13, 8.40221567326629170000e-002) (14, 2.80623926835141700000e-001) (15, 6.75023515748216170000e-001) (16, 1.37887894738047410000e+000) (17, 1.80833222534023300000e+000) (18, 1.47580098316599020000e+000) (19, 1.85130426726624680000e+000) (20, 1.98278917553589110000e+000) (21, 1.35553949430260780000e+000) (22, 4.66333238341468670000e-001) (23, 2.14411187236829810000e+000) (24, -2.56879972126945240000e-001) (25, 3.47107826887383820000e+000) (26, 1.20433362157226310000e+000) (27, 1.10447703721200940000e+000) (28, 2.04434584790405750000e+000) (29, 1.67649640121571130000e+000) (30, 2.21596822334140820000e+000) (31, 2.10727715839058140000e+000) (32, 1.36606234135560900000e+000) (33, 1.51754347489174650000e+000) (34, 1.22065455531018660000e+000) (35, 1.00971109810533810000e+000) (36, 8.48842444086521510000e-002) (37, 1.29726637334350730000e+000) (38, 5.58424399840635080000e-001) (39, 5.46084610172454800000e-001) (40, 1.17997300258293000000e+000) (41, 2.24004158417614630000e+000) (42, -6.72838113470578810000e-002) (43, 1.72002862030695130000e+000) (44, 9.18005053610042140000e-001) (45, -1.06499605328827160000e-001) (46, 1.47432272000050670000e+000) (47, 1.65771229693689380000e+000) (48, 1.02827132980475460000e+000) (49, 1.48115088600756550000e+000) (50, 2.80067748065970900000e-001) (51, 6.96804696302930630000e-002) (52, 1.16649586762439390000e+000) (53, 9.17559225963253790000e-001) (54, 2.52733248132322120000e-001) (55, -6.35786092436865570000e-001) (56, 1.36320433010910840000e+000) (57, 2.20239297357138540000e+000) (58, 2.39576031472689310000e+000) (0, 1.50176749346881210000e+000) (1, 1.43446609838170060000e+000) (2, 1.43366717639392190000e+000) (3, 7.23035910258684520000e-001) (4, 2.05886006811216630000e+000) (5, 1.24784189027703250000e+000) (6, -1.15663331697770360000e-001) (7, 1.19327543118984040000e-001) (8, 8.98558508347403470000e-001) (9, 1.15662909983634750000e-001) (10, 8.87012609009931510000e-001) (11, 9.81625276293838560000e-001) (12, 6.75749196906362480000e-001) (13, 4.04429975959803960000e-001) (14, 1.86452599053612110000e+000) (15, 5.16417526382636490000e-001) (16, 1.69761277996050030000e+000) (17, 1.63395173732090870000e+000) (18, 1.25382570009765670000e+000) (19, 2.55531488553064900000e-001) (20, 2.47805594821108020000e+000) (21, 1.52681014430236030000e+000) (22, 6.57382132641109670000e-001) (23, 5.69330517053766800000e-001) (24, 1.39704348845906410000e-002) (25, 2.24580525607138880000e+000) (26, 1.76413974119320670000e+000) (27, 4.83910495225256810000e-001) (28, 2.61600933859156860000e+000) (29, 7.50339874720946210000e-001) (30, 7.02563769807374670000e-001) (31, 1.03760382248041070000e+000) (32, 1.11473041677257180000e+000) (33, 2.38080563659189260000e+000) (34, 5.60767975824699060000e-001) (35, 2.04937415490677080000e+000) (36, 1.26509490407474660000e+000) (37, 4.94167230034432800000e-001) (38, 3.98543205662857060000e-001) (39, -1.41953094364735940000e-001) (40, -1.19734814182240000000e-001) (41, 2.02846770264397460000e+000) (42, 6.03509734575328300000e-001) (43, 7.77304134182627890000e-001) (44, 3.25297389647848160000e-001) (45, 1.85228748849934100000e+000) (46, 4.04655353286246690000e-001) (47, 2.83817849907304320000e-002) (48, 3.83237151268375820000e-001) (49, 1.60136877748134740000e+000) (50, 8.81356907372694340000e-001) (51, 1.45478593765167650000e+000) (52, 8.87924320771388720000e-001) (53, 5.25973224418340270000e-001) (54, -3.45516025170409360000e-001) (55, -5.99409164419714150000e-001) (56, 4.97756436647569800000e-001) (57, 1.08497269597417170000e+000) (58, 2.89488759071440380000e+000) (59, 2.01138803294284330000e+000) (0, 1.62987676378963760000e+000) (1, 6.46661850877754190000e-001) (2, 3.66910360693355360000e-001) (3, 2.62577453161556900000e-001) (4, 1.53169952312095560000e+000) (5, 7.42702869398437550000e-001) (6, 9.68512290205280960000e-001) (7, 2.07823136236536540000e+000) (8, 1.10403827390600520000e-001) (9, 2.38548259297433640000e+000) (10, 1.68235571114068990000e+000) (11, -1.39875621531113530000e+000) (12, 9.63130986297659030000e-001) (13, 8.35534385272874270000e-001) (14, 1.47551840357386020000e+000) (15, 4.86421160398949610000e-001) (16, 6.87141914450092210000e-001) (17, -5.84445078953124700000e-002) (18, 3.34329931863621640000e-001) (19, 1.03685639094434450000e+000) (20, 1.75883651114150940000e+000) (21, 6.03610704343530590000e-001) (22, 9.89103588567351030000e-001) (23, 1.33844680611577860000e+000) (24, 1.69311702455015340000e+000) (25, 7.84231367324996990000e-001) (26, -2.42932800739790260000e-001) (27, 3.20487716472477800000e+000) (28, 1.68163993994295910000e+000) (29, 2.00531965394790260000e+000) (30, 1.17356714527746720000e+000) (31, 1.04427548932547800000e-001) (32, 2.02908207476042570000e+000) (33, 8.54759794189190790000e-001) (34, 5.19349835654769110000e-001) (35, 7.95135245130461520000e-001) (36, -3.95860951671141250000e-003) (37, 8.04454329189689400000e-001) (38, 1.71366925774445430000e+000) (39, 1.10223030884420560000e-001) (40, 3.99301899788642060000e-001) (41, 1.12103759988462250000e+000) (42, 1.86147332317358090000e+000) (43, 1.74562585421334340000e+000) (44, 3.07796885453158750000e+000) (45, 1.30429958132930550000e+000) (46, 1.36901201316556390000e-001) (47, 1.91755843718557220000e-001) (48, -7.80444921882538890000e-001) (49, 2.10001644816078900000e+000) (50, 5.27751352656673940000e-001) (51, 1.88401424790699570000e-001) (52, -3.54981688997260060000e-002) (53, 1.04317132837532830000e+000) (54, 5.75901529306456220000e-001) (55, 7.80144636509610000000e-002) (56, 1.13085945541228550000e+000) (57, 2.92413171857012570000e+000) (58, 2.01351432920893770000e+000) (59, 9.52014276294910310000e-001) (60, 1.43569728793244390000e+000) (0, 1.13504497574197870000e+000) (1, 1.94079912684986790000e+000) (2, 4.26916667982219720000e-001) (3, 1.58388475653812380000e+000) (4, 4.45085907103103600000e-002) (5, 1.39849965666951850000e+000) (6, 1.08236235252381240000e+000) (7, 1.67737289934398050000e+000) (8, 9.84476169577488740000e-001) (9, 1.21866889259702370000e+000) (10, 1.83535387500640560000e+000) (11, 1.81179672523246360000e+000) (12, 1.79381047473481400000e+000) (13, 4.71253690723928420000e-002) (14, 1.74006647199605680000e+000) (15, 1.77330063429583420000e+000) (16, 1.65395569844696010000e+000) (17, 9.98967044753398700000e-001) (18, -4.30896401647293700000e-001) (19, 7.16125672877306880000e-001) (20, 4.58734705366528490000e-001) (21, 1.43180560980931750000e+000) (22, 1.39174427102163900000e+000) (23, 3.36055992285887630000e+000) (24, 1.28428318295022730000e+000) (25, 8.50704016915015180000e-001) (26, 8.43390873286656960000e-001) (27, 1.83445698071923370000e+000) (28, 1.76827088163727650000e+000) (29, 7.57950575688137510000e-001) (30, 2.10352302156632480000e+000) (31, -3.00106064355246280000e-001) (32, 2.03992782673487970000e+000) (33, 4.88528354818139170000e-001) (34, 1.06638104933604840000e+000) (35, 2.08261157365048410000e-001) (36, 1.64964464294942650000e+000) (37, 2.15030684681858640000e+000) (38, 1.32699536212642300000e+000) (39, 1.33639302269117220000e+000) (40, 1.63359910110398830000e-001) (41, 1.87706788012934060000e+000) (42, 7.85772274987610820000e-001) (43, 4.31730858995772460000e-001) (44, 4.66735050589342840000e-001) (45, 3.41593026262512920000e-001) (46, 4.22323921078080410000e-002) (47, 3.05577217162210200000e-001) (48, 1.49438095323656480000e+000) (49, 1.49401194449939310000e+000) (50, -6.38227039359376550000e-002) (51, 1.71782659779166890000e+000) (52, 3.63979360633141010000e-001) (53, 2.48926071319572780000e-001) (54, 2.10492757918720350000e+000) (55, 1.63489825330073100000e+000) (56, 2.77862793194490480000e-001) (57, 1.08981374835938440000e+000) (58, -7.43889819283272690000e-002) (59, 1.27829020895300260000e+000) (60, 4.12276811496307620000e+000) (61, 5.47429725416629420000e+000) (0, 3.30538105054681560000e-001) (1, 9.32607079862734060000e-001) (2, 1.20170895847678170000e+000) (3, 1.37602156499536310000e+000) (4, 5.78322410949327680000e-001) (5, 1.46126591227451310000e+000) (6, -1.44519814034557030000e+000) (7, 1.60224554645173760000e+000) (8, 1.53988828747144970000e+000) (9, -1.47838190482680290000e-001) (10, 1.42788798648192050000e+000) (11, 6.54123522286678800000e-001) (12, 1.53240969038448700000e+000) (13, 9.87110434364268820000e-001) (14, -3.86986708627502020000e-002) (15, 2.14469747413140650000e-001) (16, 3.63057194646296130000e-002) (17, 1.94221323634894110000e+000) (18, 3.42662593688856210000e-001) (19, 4.29143729206635130000e-001) (20, 7.41777997717626650000e-001) (21, 1.40056780704315420000e+000) (22, 1.88457722075055910000e+000) (23, 3.38983170940399470000e+000) (24, 1.04504947536273130000e+000) (25, 6.21741942423008060000e-001) (26, 1.08538170172590110000e+000) (27, 1.87225198420594110000e+000) (28, 4.80871491730155810000e-001) (29, -2.35626227501119670000e-001) (30, 3.07156857017480740000e-001) (31, -6.25039651101032100000e-001) (32, 2.17492653900016960000e-001) (33, 1.95407409739878050000e+000) (34, 9.91419379652076830000e-001) (35, 2.96090428096727750000e-001) (36, 1.30079995959616230000e+000) (37, 1.50277934979553820000e+000) (38, 1.10620314145244110000e-001) (39, 1.64969288843629780000e+000) (40, -9.37407598112896670000e-002) (41, 7.06194392400114950000e-001) (42, 1.02829753524795840000e+000) (43, -2.11600384826130530000e-001) (44, 1.33755237905859300000e+000) (45, -2.14216178757005910000e-001) (46, 6.52035461388486230000e-001) (47, 6.46831153376584420000e-002) (48, 4.54398141006899290000e-001) (49, 5.07518436896465470000e-001) (50, 3.75979506267441750000e-001) (51, 9.36692488902671980000e-001) (52, -1.62349856685314410000e+000) (53, 1.44548543697504160000e+000) (54, 2.14039576388809770000e-001) (55, -1.63410054653019810000e+000) (56, 1.65640831540992520000e+000) (57, 1.55391808380178080000e+000) (58, 1.44521955569572550000e+000) (59, 2.00915673035264470000e-001) (60, 2.28420974624598920000e+000) (61, 2.38837406560626910000e+000) (62, 8.64506473138552330000e-001) (0, 1.27203439533006610000e+000) (1, 8.08231701743547860000e-001) (2, 1.82900952516422750000e+000) (3, 7.09557940606199260000e-001) (4, 1.75689022761402700000e+000) (5, 1.59952557501047310000e+000) (6, -1.63848542548908210000e-001) (7, 1.28185959731500350000e+000) (8, 1.33910244628833340000e+000) (9, 9.04521848629001310000e-001) (10, 1.67949851201517290000e+000) (11, 3.70635831287205180000e-001) (12, 2.54310792752697170000e+000) (13, 1.18223018680146490000e+000) (14, 1.72383460735482830000e+000) (15, 8.66581171697642700000e-001) (16, 2.07132621111692310000e+000) (17, 2.04874004379837200000e+000) (18, -1.25472079329111750000e+000) (19, 6.20224340836902590000e-001) (20, -4.47766273549165540000e-001) (21, -1.04607218680966050000e+000) (22, 1.40501748408586420000e+000) (23, -2.57412354831982220000e+000) (24, 1.08751064003961860000e+000) (25, -3.80956245498184350000e-001) (26, 1.78180998042749430000e+000) (27, 2.08355138420216110000e+000) (28, 1.31981045279127170000e+000) (29, 1.39394580941743440000e+000) (30, 1.62043715680021340000e+000) (31, -8.85949883503677900000e-002) (32, 1.96126282092637580000e+000) (33, 2.04130342475850270000e+000) (34, 2.58872332255210950000e-001) (35, 1.30678781820469990000e+000) (36, 1.86908765437799420000e+000) (37, 1.55609758848706630000e+000) (38, 2.04293492465611020000e+000) (39, 1.11978164604014250000e-001) (40, 2.21404102252772090000e+000) (41, -2.11969759125312010000e-003) (42, -3.54598850598377630000e-002) (43, 1.68789547607490900000e+000) (44, 8.86714287778010310000e-001) (45, 1.04108649081655050000e+000) (46, 1.85037535913353860000e+000) (47, 3.71876194899571630000e-001) (48, 4.44357774346710920000e-001) (49, 1.42879837441180730000e+000) (50, 1.23801871500573510000e+000) (51, 1.82027009654603630000e+000) (52, 4.20295260759284080000e-001) (53, 6.91962855979468490000e-001) (54, 1.71299796338299300000e+000) (55, 1.17242304383153990000e+000) (56, 1.00423565244037370000e+000) (57, 2.36092858809372960000e+000) (58, 1.77755962387992720000e+000) (59, 2.25154627666620220000e+000) (60, 2.72084878462938740000e+000) (61, 1.32654379754887410000e+000) (62, 1.64180698983528180000e+000) (63, 2.23536524634213760000e+000) (0, 1.73998020508754650000e+001) (1, 9.86062914242394060000e-002) (2, 1.08415320577791670000e-001) (3, -7.50280486107750000000e-001) (4, 1.60814521285158350000e+001) (5, 1.27355448865456720000e-002) (6, -9.78588767540738400000e+000) (7, -4.48238738138788120000e+001) (8, -6.62133342754623770000e-001) (9, -8.85341439020592590000e-001) (10, -2.06810281312918870000e-001) (11, -2.44197547059833000000e+002) (12, 2.13226823985545460000e-001) (13, 3.88083676698560250000e-001) (14, -6.63777407121324830000e-001) (15, 3.02047175070673910000e-001) (16, -8.52109954997896320000e-001) (17, -4.49323820620810820000e+001) (18, -8.69010162017863190000e-001) (19, 8.50939119110072080000e-002) (20, 2.18136659124046760000e-001) (21, -6.88375139376967820000e-001) (22, 1.63033375847756050000e+001) (23, 6.39591494339512790000e-001) (24, -4.90238004648753040000e-002) (25, 2.28127511813999350000e-001) (26, -3.08742272048384340000e-001) (27, 3.26528167810377080000e-001) (28, -3.71271703940132870000e-001) (29, -5.12649951874573740000e-001) (30, -6.59224613490460350000e-001) (31, 3.94352708732746610000e+001) (32, -8.16612159979650420000e-001) (33, 8.56561857324644520000e-001) (34, -4.66825384231178480000e-001) (35, -2.88609307152981390000e-001) (36, -1.76078924304583690000e-001) (37, -1.08891404729291020000e+000) (38, 3.12650825319742750000e-001) (39, 3.63783382303571950000e-003) (40, -7.81743263513825780000e-002) (41, -6.01745593900796520000e-001) (42, -6.19786603579250080000e-001) (43, 7.14682339934213040000e+000) (44, -4.43004290128191440000e+001) (45, 8.25808142354707560000e-001) (46, 8.07360761508987700000e-002) (47, -1.04710559818885060000e-002) (48, -1.18504272566205200000e+001) (49, 8.76227396480184110000e-001) (50, 3.11128817687976070000e-001) (51, -4.63770653587653900000e-001) (52, 4.01214780466377330000e+001) (53, -9.57009498487586760000e-001) (54, -6.13149946146869860000e-002) (55, -1.58116532374051590000e+000) (56, 7.34383468046354240000e-001) (57, 1.62726167868052670000e+000) (58, 1.37590427217374760000e+000) (59, -2.21810126035316110000e-001) (60, 2.11211134855793820000e-001) (61, -2.18205831077548400000e-001) (62, 9.04310731910036300000e-001) (63, 2.77082582340062170000e-002) (64, 2.38425154408935260000e+000) (0, 6.70839698383314530000e-002) (1, 3.53353519357150980000e-001) (2, 6.61956922778105360000e-001) (3, 2.05325485617061830000e+000) (4, 1.05017145364034630000e-001) (5, 1.48812902877176280000e+000) (6, 1.97042576700943340000e+000) (7, 1.32179260195200480000e+000) (8, 4.64931070516406420000e-001) (9, 9.86640026562397350000e-001) (10, 1.49249025427248830000e+000) (11, 1.55678831677390520000e+000) (12, 7.03063948091427690000e-001) (13, 8.14506819173025700000e-001) (14, 8.84324561436308110000e-001) (15, 1.92568220993701460000e+000) (16, 9.38183635026546110000e-001) (17, 1.37603975892010900000e+000) (18, 1.63356297576840140000e+000) (19, 1.43907840195948510000e+000) (20, 5.63765965880547730000e-001) (21, 5.28127548589994780000e-001) (22, 1.20762542636786830000e-001) (23, 1.09118278809868060000e+000) (24, 1.19597790112526740000e+000) (25, 8.35562795871500510000e-001) (26, 1.91570670672150210000e+000) (27, 1.41590562666148780000e-001) (28, -4.42076468623413270000e-002) (29, 1.09074011669373180000e+000) (30, 8.67646062569614300000e-001) (31, 2.64726995481287200000e-001) (32, 9.55331977736143420000e-001) (33, 6.30558745890678170000e-001) (34, 8.97290830895608130000e-001) (35, 8.86142476507766010000e-001) (36, 1.95806073581021310000e+000) (37, -5.46964795986469020000e-002) (38, 4.29561464790690290000e-001) (39, 2.16719694673440570000e+000) (40, 1.65857539748227260000e+000) (41, 7.79372015838077030000e-001) (42, 1.01267705129935990000e+000) (43, 1.46972683316786610000e+000) (44, 1.91872882852160660000e+000) (45, 1.71690393685560760000e+000) (46, 5.87324608057122060000e-001) (47, 1.98630110279260960000e+000) (48, 1.77216605418977590000e+000) (49, 1.10912376320131930000e+000) (50, -1.00751135553697620000e-001) (51, 3.94873798056444010000e-001) (52, 2.07253623664148230000e+000) (53, 1.41021128796571690000e+000) (54, 1.05234997361082730000e+000) (55, 2.11811800897260880000e+000) (56, 2.65459008316046540000e+000) (57, -1.65813283538858670000e+000) (58, 3.73243436581224450000e+000) (59, 8.17434731689407500000e-001) (60, 3.61649934094361800000e-001) (61, 3.58473821100894600000e-001) (62, 9.96431093813013420000e-001) (63, -8.73388640134211250000e-001) (64, 2.65580979945910210000e+000) (65, 1.53329500764241570000e+000) (0, 1.74549400917851340000e+000) (1, 1.33656883947628980000e+000) (2, 1.87038228052990950000e+000) (3, 6.81135370709707870000e-001) (4, 4.60602170216381950000e-001) (5, 3.57273086583610400000e-001) (6, 6.61353341324889540000e-001) (7, 8.22372201152780540000e-001) (8, 3.43109962844064480000e-001) (9, 1.86781768296223090000e-001) (10, 9.74791603171881740000e-001) (11, 8.42308682236463270000e-001) (12, 1.92072623564156200000e+000) (13, 9.17564383972164190000e-003) (14, 4.23746279172373950000e-001) (15, 1.07037788919879200000e-001) (16, 1.71118080944703550000e+000) (17, 5.77801010908775230000e-001) (18, 1.81276140978215050000e+000) (19, 1.27265165324416780000e+000) (20, 6.88255123467443890000e-001) (21, 6.38363193047315260000e-001) (22, 1.31202197494143500000e+000) (23, 8.12691526683909320000e-001) (24, 2.01601759448665430000e+000) (25, -1.21126666114028160000e+000) (26, 2.55751346997103830000e-001) (27, 1.76889682457568090000e+000) (28, 6.03687690491081730000e-001) (29, 1.04565761423776030000e+000) (30, 1.81356377006220580000e+000) (31, 7.04243462239992900000e-001) (32, 1.26233859170392090000e+000) (33, 1.49102304745841700000e+000) (34, 2.95061030067634180000e-001) (35, 1.76295346222948570000e-001) (36, 1.68770292227590500000e+000) (37, 1.67276645836558350000e+000) (38, 1.55887383744198330000e+000) (39, 8.07895275008071350000e-001) (40, 1.93369461010374070000e+000) (41, 2.07707454676425000000e+000) (42, 2.01834313702247540000e+000) (43, 1.90135082569688760000e+000) (44, 1.13458843042629850000e+000) (45, 1.99060316694598560000e+000) (46, 6.70478607272575020000e-001) (47, 1.99088532826557390000e+000) (48, 1.25813032899786890000e+000) (49, 6.10866687661916210000e-001) (50, 2.49181296609190390000e-001) (51, 1.66793101521838390000e+000) (52, 1.11930794795089910000e-001) (53, -2.84074262789211380000e-001) (54, 1.06987391477896400000e+000) (55, 5.91870778204647730000e-001) (56, 4.46335586767415530000e-001) (57, 1.08797583704313940000e+000) (58, 1.67774305132964100000e+000) (59, 2.37901033511213440000e-001) (60, 1.58098486206674980000e-002) (61, 1.63802368889981760000e+000) (62, -4.25969415940692380000e-001) (63, 6.61764371194528580000e-001) (64, 1.89048690188194460000e+000) (65, 5.26360228936743170000e-001) (66, 8.93886048876790910000e-001) (0, 2.11560032650374670000e-002) (1, -3.82030237346153160000e-001) (2, 9.36653937456541570000e-001) (3, -6.50228852450980280000e-001) (4, 3.41530239770259760000e-001) (5, -1.44556533807258470000e-001) (6, -3.16574702224881770000e-001) (7, 4.49242469697888170000e-001) (8, 1.92825084558264610000e-001) (9, 5.99672311253817590000e-001) (10, 2.29064903615923190000e-001) (11, 1.05189648727163170000e+000) (12, -7.52602990526107240000e-001) (13, -3.73403590104377240000e-001) (14, 1.28169827564006720000e+000) (15, 1.29199104358003990000e+000) (16, 5.46020143595282170000e-001) (17, -1.71423526453281520000e-001) (18, -7.06223470128986900000e-001) (19, 1.03817228826237540000e+000) (20, -1.80837661292785200000e-001) (21, 6.59720370960714230000e-001) (22, -7.47844095534960010000e-001) (23, 9.25476270424459240000e-001) (24, 3.17908115571453600000e-001) (25, -1.05018575632980500000e-002) (26, 1.18671146454418610000e+000) (27, 2.05884404043004650000e-001) (28, 3.07777739770829230000e-001) (29, -7.48690109095009330000e-001) (30, 8.23940991279089490000e-001) (31, 1.00574898772548190000e+000) (32, -4.87577704757584610000e-001) (33, -4.23140928345604740000e-001) (34, 1.79056788803022700000e-001) (35, 3.90820958827275630000e-001) (36, -1.10723509612311230000e-001) (37, -4.66180921470194190000e-001) (38, 7.13754139654096400000e-001) (39, -7.01039805881335300000e-001) (40, 1.20047785895443580000e+000) (41, -4.15940700266791250000e-001) (42, 1.61939222627484000000e-001) (43, -3.44425478260038110000e-001) (44, 1.20574148410178130000e-001) (45, -2.90998544225019750000e-001) (46, -5.73067438244432630000e-001) (47, -2.56410650886122250000e-001) (48, -5.46136320425127610000e-001) (49, 7.75174156909592350000e-001) (50, -1.27555415116672660000e-003) (51, -6.65413861942668380000e-001) (52, -1.01066097177836140000e+000) (53, 1.39726198223790980000e+000) (54, 8.39783402806671190000e-001) (55, -4.86243457061662220000e-001) (56, 2.78699033011527540000e+000) (57, -1.11194383286281220000e+000) (58, 3.70035380941671120000e+000) (59, 1.07010589965893410000e+000) (60, 1.76983473323235050000e+000) (61, 2.59546850547520870000e+000) (62, -1.02940550752061990000e+000) (63, 1.93286766561202470000e-001) (64, -1.41737452763383940000e+000) (65, 1.29996131233275050000e-001) (66, 6.04858283835951530000e-001) (67, 3.47461013402376210000e+000) (0, 2.25511664596284470000e-001) (1, 1.09858482962282780000e+000) (2, 1.53799974532526720000e+000) (3, 2.01193180604297210000e+000) (4, 1.87831207838350010000e+000) (5, 1.29363548980243580000e-001) (6, 7.44685723686104860000e-001) (7, 1.47598139880646140000e+000) (8, 1.03598149827722860000e+000) (9, 1.73412670195969730000e+000) (10, 1.57404867598849550000e+000) (11, 1.19745242304326280000e+000) (12, 2.00665124049247940000e+000) (13, 2.08057991375698630000e+000) (14, 7.02669655879267550000e-001) (15, 1.68141929959948810000e+000) (16, 2.01360916089092430000e+000) (17, 2.23149706631082450000e+000) (18, 9.93729392434890450000e-001) (19, 2.04023616456886760000e+000) (20, 6.07390214120713810000e-001) (21, 2.93453691373711000000e+000) (22, 4.07961660637177200000e+000) (23, 3.52385213039459090000e+000) (24, 5.09899683478821310000e-001) (25, 1.90392339876764140000e+000) (26, 1.77118332964808810000e+000) (27, 6.06898870023623420000e-001) (28, 1.27099289160022180000e+000) (29, 5.31171930632880710000e-001) (30, 1.16888075053346710000e+000) (31, -3.21351739067369190000e-001) (32, 1.38176310992695560000e+000) (33, 8.46702630681725240000e-001) (34, 4.37585039972945840000e-001) (35, -3.05129685767424390000e-001) (36, 1.18354131033881300000e+000) (37, 2.23500434190581650000e+000) (38, 1.21183069323580180000e+000) (39, 8.30467582830950120000e-001) (40, 1.55182276916149480000e+000) (41, 1.68769000678271830000e+000) (42, 7.99298208750296170000e-002) (43, 3.31514607653628450000e-001) (44, 6.56893458169595550000e-001) (45, 9.36986799523415570000e-001) (46, 1.71764425637266570000e+000) (47, 1.05108182267464900000e+000) (48, 1.66913658142099490000e+000) (49, 1.45574906459577050000e+000) (50, 4.68734995422886160000e-001) (51, 1.08783283470676450000e+000) (52, 1.06684447826240290000e+000) (53, 1.07239606746938640000e+000) (54, 1.03015830201134360000e+000) (55, -6.42156785160645780000e-001) (56, 1.83633379960730010000e+000) (57, 6.05278352878845240000e-001) (58, 1.00274824115143750000e+000) (59, 1.62100928469366100000e+000) (60, 2.70542103553333570000e+000) (61, 7.53398144708165570000e-001) (62, 1.43712219896587800000e+000) (63, 8.01982768454279740000e-001) (64, 1.43853375051362860000e-001) (65, 2.41541746129553870000e-001) (66, 2.13139374971657960000e+000) (67, 1.74495200569990160000e-001) (68, 2.42970082378654780000e+000) (0, -6.14138941334252510000e-001) (1, -2.07685397800601190000e-001) (2, 1.31955664992257140000e-001) (3, 2.46944323276831800000e-001) (4, -1.89546883752752830000e-001) (5, 5.11110516919128790000e-001) (6, -1.15134684602528940000e+000) (7, -1.09127667798023100000e+000) (8, -3.20314262556938120000e-001) (9, 2.80319717378049890000e-001) (10, -8.41703236440624720000e-001) (11, 9.63901036712313640000e-001) (12, 2.52970427938544570000e-001) (13, -3.56753713670346860000e-001) (14, -8.41516929518409400000e-001) (15, -9.55096048950370260000e-001) (16, 3.45248044692297420000e-001) (17, -3.47411125484743400000e+000) (18, -4.89143868554383910000e-001) (19, 7.62058226767268640000e-001) (20, 4.40462281474908180000e-001) (21, -1.38603510587310620000e+000) (22, -4.13879929646005060000e-001) (23, -3.82376221173417570000e-001) (24, -6.61343581256940480000e-001) (25, 5.00409590848985730000e-001) (26, 7.66174499850009880000e-002) (27, -1.03766445888186550000e+000) (28, -1.61691399935879290000e+000) (29, -6.55999830088013100000e-001) (30, -3.01293126844120300000e-001) (31, 1.81055552082815340000e+000) (32, -1.36889860634241600000e+000) (33, -6.38845428509830060000e-001) (34, 4.36407184120605580000e-001) (35, -5.96124474248801660000e-001) (36, 2.94279061276794320000e-001) (37, -1.21292542180893380000e+000) (38, -4.03184108335125520000e-001) (39, -8.01520732178777060000e-001) (40, 1.10272047781230800000e-002) (41, 9.08818107117939370000e-002) (42, 1.56104104920071820000e-001) (43, -1.78143353801204340000e+000) (44, -1.82005428576729280000e+000) (45, 2.97331919166164800000e-001) (46, -6.87197159202722170000e-001) (47, 1.52819423943100910000e-001) (48, 1.10630537531580390000e+000) (49, -7.70834175264189510000e-001) (50, -7.31443775643871090000e-001) (51, -1.28850777699685540000e+000) (52, -1.94115434592204640000e+000) (53, -5.94605278100208550000e-002) (54, 2.39020671533560350000e-001) (55, -1.91730165692556300000e+000) (56, 1.55910039874541710000e+000) (57, 7.63766515477238950000e-001) (58, 1.03188300535190320000e+000) (59, -3.53019987670276510000e-002) (60, 6.27317182574114950000e-001) (61, -3.15650683354834540000e-001) (62, 1.10985326204528920000e+000) (63, 1.10023589788868990000e+000) (64, 1.53486877553622760000e+000) (65, 1.24337234284865410000e+000) (66, 1.04905700959700160000e-001) (67, 1.26738766984015670000e+000) (68, 1.44899832721069480000e+000) (69, 1.89883011852709640000e-001) (0, 2.38528571143948100000e-001) (1, 3.25106315255237030000e-001) (2, 3.75209723794499910000e-001) (3, -5.82101107810665710000e-001) (4, 2.12507410774404910000e-001) (5, -5.02407889380615980000e-001) (6, -8.22362069037868020000e-001) (7, -9.27655193928013380000e-002) (8, 1.16242546727597310000e+000) (9, 9.83116063456537240000e-001) (10, -1.17926175138962640000e+000) (11, 1.02907683592907300000e+000) (12, 8.66743582337843950000e-003) (13, 6.39541591324993770000e-001) (14, 5.12421268501277120000e-001) (15, 1.06870179410982380000e-001) (16, -6.23217914864896530000e-001) (17, 6.76804619240711640000e-002) (18, -1.32518229313096040000e-001) (19, 3.84614984059189310000e-001) (20, 7.78150579031313130000e-001) (21, -1.02359780205405060000e+000) (22, -1.77344318174031820000e+000) (23, -9.26486943019771190000e-001) (24, 4.83089449881896060000e-001) (25, 8.49318635416639320000e-002) (26, 2.21889499387873030000e-001) (27, -9.82709549911554350000e-001) (28, -6.90775142413193040000e-002) (29, -7.05191461887066500000e-001) (30, 4.34061141349225910000e-001) (31, -1.01893639929823100000e+000) (32, 3.30851218078244140000e-001) (33, 5.07590931693455370000e-001) (34, -7.05382789653581810000e-001) (35, -8.61633798974422050000e-001) (36, -3.57572770128523230000e-001) (37, -2.52412083490074490000e-001) (38, -7.38297420495087620000e-001) (39, -1.13441391885613580000e-001) (40, 4.22398443582864440000e-001) (41, 3.03489945123582520000e-001) (42, 6.06018844869040600000e-002) (43, 9.45924646550478140000e-001) (44, 3.54240841724593820000e-002) (45, -3.44790901409503360000e-001) (46, -3.10519384171793620000e-002) (47, -6.03747829711560820000e-001) (48, -3.74030469650193930000e-001) (49, -8.09641421562621980000e-001) (50, -2.09762364236487560000e-001) (51, -3.98782175062638300000e-002) (52, -6.50931573052781070000e-002) (53, 1.02271108454418250000e+000) (54, 1.12255868436782790000e+000) (55, -4.83312204366591220000e-001) (56, 1.02489367106650820000e+000) (57, 1.26053919914953140000e+000) (58, 4.82674675422518540000e+000) (59, 8.36390393373522170000e-001) (60, 7.39844134789403140000e-001) (61, 9.28558219068117640000e-001) (62, 8.89603128726638600000e-001) (63, 9.89089887553888710000e-001) (64, 2.73599721608707200000e+000) (65, 2.44921216020318950000e+000) (66, 4.95703210735115750000e-001) (67, 1.49297356177059100000e+000) (68, 2.18905954156925770000e+000) (69, 1.95820647177561780000e+000) (70, 1.65079973090166930000e+000) (0, 6.99918176585316080000e-001) (1, -7.38125380450762150000e-001) (2, 5.12085699729696460000e-003) (3, 6.79600210936464750000e-002) (4, -3.33840531362465050000e-001) (5, -3.28286783050378950000e-001) (6, 4.68404569751820380000e-001) (7, -3.03113622240251900000e-001) (8, -9.89334025529055140000e-001) (9, 1.50326347224008060000e-001) (10, -7.29295062393601650000e-001) (11, 5.27996863149746810000e-001) (12, 6.13908915065214060000e-001) (13, -3.08791403987981880000e-001) (14, -2.68445916808225990000e-001) (15, 7.02783372879244860000e-001) (16, 1.04454613550176840000e+000) (17, 6.71600815068210230000e-001) (18, -2.75230159140308350000e-001) (19, 1.12629652721210790000e+000) (20, 3.71118180299092050000e-001) (21, -1.15769460607266850000e+000) (22, -7.53871301311101800000e-001) (23, 1.50721585718917250000e-001) (24, 7.47825827074883210000e-001) (25, 1.30217427150887310000e+000) (26, 5.18610453023255410000e-002) (27, -5.39222995902369770000e-001) (28, -5.98782106711847390000e-001) (29, 5.07838021877855760000e-001) (30, -5.35388427343081230000e-001) (31, -3.54041877315584060000e-001) (32, -3.47615277787220510000e-001) (33, 6.41559303380013880000e-001) (34, 2.38490754305579810000e-001) (35, 6.91503772918303780000e-002) (36, -3.61923688947525250000e-001) (37, -7.36543934300421090000e-001) (38, 8.41724654381928170000e-002) (39, -2.60032656023480520000e-001) (40, 8.18584796799815270000e-002) (41, 3.11466167257836990000e-001) (42, -3.34071383856458510000e-001) (43, 1.08873482077755490000e+000) (44, -3.92105620562789300000e-001) (45, -1.01340406511702290000e+000) (46, 1.47173202487652090000e-001) (47, 5.79008765801180820000e-002) (48, 1.66884284275357450000e-001) (49, -1.65653905542465340000e-001) (50, -5.74583379597300440000e-001) (51, 5.81539327315446000000e-001) (52, -1.62124010280748960000e+000) (53, 1.11805505755068450000e+000) (54, 5.55179127934631090000e-001) (55, -2.54782817413464040000e-001) (56, -9.57958079206705840000e-001) (57, 1.54948022198563180000e+000) (58, -3.75117405999897000000e+000) (59, -1.93727396940124510000e+000) (60, -5.04144710390053370000e-001) (61, -2.11680480638411940000e-001) (62, 1.54735008822520400000e+000) (63, 1.26201997619588110000e-001) (64, 4.25432254839323410000e+000) (65, 2.43839802947041970000e-001) (66, 1.62632148427394930000e-001) (67, 1.05028309718597780000e+000) (68, 3.19372656646299990000e+000) (69, 9.38726293275816360000e-001) (70, -6.74356437805712750000e-001) (71, -9.99474862922265510000e-001) (0, 8.59063007733309460000e-001) (1, 1.89766402969482110000e+000) (2, 2.33959135910247570000e+000) (3, 7.88044640804913540000e-001) (4, 2.89221792981606950000e+000) (5, -7.36308691981329010000e-002) (6, 1.73272956970567530000e+000) (7, 1.81519253192668040000e+000) (8, 2.01006999315326120000e-001) (9, -2.75397006430802620000e-001) (10, 2.13644487136068490000e+000) (11, 8.14274247653896440000e-001) (12, 1.74375723833803840000e+000) (13, 1.60453129407821190000e+000) (14, 1.65808747298757590000e+000) (15, 6.39319916608259260000e-001) (16, 1.81839988420317570000e+000) (17, 3.17491191010336180000e+000) (18, -2.90800597811381320000e+000) (19, 1.71980428138827350000e+000) (20, -1.76686802695028570000e-001) (21, 2.65227586991901370000e+000) (22, 1.34174776125223390000e+000) (23, 2.29873712249325200000e+000) (24, 2.70192898320901430000e-001) (25, -9.22134349413282430000e-001) (26, 1.24828588888312940000e+000) (27, 2.03015552209329100000e+000) (28, 1.78084832673941880000e+000) (29, 6.18283479486769210000e-001) (30, 1.87908360719010890000e+000) (31, 1.60619906576026630000e+000) (32, 5.82948963990532980000e-001) (33, 2.12415725929552360000e+000) (34, 2.20145627586478100000e-001) (35, 1.97866412174108270000e+000) (36, 1.20312852093363530000e+000) (37, 9.46062860993403090000e-001) (38, 2.03442143876497510000e+000) (39, 5.19489003262808340000e-001) (40, 4.60049012619023260000e-001) (41, 1.66604141445566830000e+000) (42, -3.57466924272195010000e-001) (43, 1.68362075577781050000e+000) (44, 2.29623135744461940000e+000) (45, 2.22448133024187470000e+000) (46, -2.87519168363615520000e-001) (47, 1.30591685951786340000e+000) (48, 1.86584121430140510000e+000) (49, 2.26010749479904850000e+000) (50, 1.37367882145323760000e+000) (51, 1.02867574806765690000e+000) (52, 3.35455568637222080000e+000) (53, 1.25958348513747450000e+000) (54, 1.76634512992351620000e+000) (55, 8.61735920133982040000e-001) (56, 2.14728288901509550000e+000) (57, 1.84331416727035390000e+000) (58, 5.12749288808729280000e-001) (59, -2.30687154205915370000e+000) (60, 2.27947443501463900000e+000) (61, 6.36040081016607470000e-001) (62, 1.72078069127140370000e+000) (63, 7.05873842601948410000e-001) (64, 6.89215261308726350000e-001) (65, 1.30810664917937450000e+000) (66, -2.65879257020414090000e-001) (67, 5.67863322860329810000e-001) (68, 1.31615108075840430000e+000) (69, 1.73354564051382320000e+000) (70, 6.84091696387110980000e-001) (71, 7.04236467935933090000e-001) (72, 2.94948309901516300000e+000) (0, 1.00157179111038230000e+000) (1, 1.82077667572906890000e+000) (2, 1.21290846087086200000e+000) (3, 2.21920930432490680000e+000) (4, 2.29398426313019500000e+000) (5, 5.02666183397528330000e-001) (6, -2.71604387376035930000e-001) (7, -1.74465751954697430000e-001) (8, 1.26245556775204330000e+000) (9, 1.65811170415930630000e+000) (10, 2.13495758541443740000e+000) (11, 1.01227561817022020000e+000) (12, 1.28285506620597390000e+000) (13, 2.07119483761839400000e+000) (14, 2.37503938622397210000e-001) (15, 1.94616183206191940000e+000) (16, 1.88764847622481600000e+000) (17, 6.95095597559056280000e-002) (18, 8.89497469408591420000e-001) (19, 2.35301816823122150000e+000) (20, 8.02735688522964060000e-001) (21, -1.03545374085702240000e+000) (22, 2.17184727980598740000e+000) (23, 7.74610886190599040000e-001) (24, 3.34627357890648460000e-001) (25, -3.36803256681192820000e-001) (26, 2.37557228947429520000e+000) (27, 2.85051093788644660000e+000) (28, 2.26650684634792520000e+000) (29, 1.83170999469683030000e+000) (30, 1.38562864308061710000e+000) (31, -1.98205907951409800000e+000) (32, 2.07276936430382410000e+000) (33, 1.47703568638669780000e+000) (34, 1.91049719708850410000e+000) (35, 1.54847929212956370000e-001) (36, 2.24045319969786450000e+000) (37, 5.85006555624584150000e-001) (38, 8.41441187788838580000e-001) (39, 1.26376899049810550000e+000) (40, 7.33497369578606560000e-001) (41, 7.61781105658414390000e-001) (42, 1.15172035010877920000e+000) (43, 1.17817311625353160000e+000) (44, 1.70617168179249170000e+000) (45, 4.72805860595984230000e-001) (46, 1.68488585344850740000e+000) (47, 1.69057936523584580000e+000) (48, 5.99054480037326980000e-001) (49, 1.50369852315345140000e+000) (50, 1.85450978875364520000e+000) (51, 1.20743663004206910000e+000) (52, 1.19821684866265540000e-001) (53, 2.19601911948663680000e+000) (54, 3.01359043713566870000e-001) (55, -1.47249744050539140000e+000) (56, 1.86285146436105610000e+000) (57, 1.25698365466045110000e+000) (58, 5.33382776739250510000e-002) (59, 4.71436096110154580000e-001) (60, 5.52977801901645630000e+000) (61, 2.66468873956292860000e+000) (62, 1.21635920646762140000e+000) (63, 7.42346882670773980000e-001) (64, -6.76768022466295170000e-002) (65, 7.08210253457745240000e-001) (66, 7.16918148326018630000e-001) (67, 8.82671466405535290000e-001) (68, 2.06114520488827630000e+000) (69, 3.40534488735591110000e-001) (70, 1.82945032280059980000e-001) (71, 1.66443245556161190000e+000) (72, 1.78231145175883990000e+000) (73, 7.81131221255141560000e-001) (0, 8.81691266283491150000e-001) (1, -1.04874300764648510000e-001) (2, 4.78761039835543080000e-001) (3, -7.30057385690964930000e-002) (4, 5.45875511927882900000e-002) (5, -5.14926526005608070000e-001) (6, -4.38603171438987640000e-001) (7, -6.67075247651371830000e-001) (8, -5.12287216889578010000e-001) (9, 5.42197664543221600000e-001) (10, 6.36267442965476330000e-001) (11, -5.02185985163080220000e-001) (12, -2.81537042457383200000e-001) (13, -4.60995528052877190000e-001) (14, 1.14103763569883480000e+000) (15, -7.91352622504834180000e-001) (16, 6.92003727687478860000e-001) (17, -4.55459153748543570000e-001) (18, 1.09053113749002790000e+000) (19, 4.15993484834257190000e-001) (20, -5.33797356485254060000e-001) (21, 8.18502581176933750000e-001) (22, 1.00056330998329360000e+000) (23, 1.06918332318827610000e+000) (24, 1.11912065321702300000e+000) (25, 4.91084963991993970000e-002) (26, -8.79155726615778320000e-002) (27, 6.15612752089233270000e-001) (28, 6.14699513949562240000e-001) (29, -6.27352966569316270000e-001) (30, -1.28818455742955420000e-001) (31, -7.38679048280449060000e-001) (32, 2.89433498645761340000e-001) (33, -2.85655617095032180000e-001) (34, 6.60212691959902400000e-001) (35, 3.61286500455452080000e-001) (36, 1.47102543127261150000e-001) (37, 5.77836604472232280000e-001) (38, 9.72517954737114890000e-001) (39, -7.55901669129062650000e-001) (40, 4.12253014012916200000e-001) (41, 9.34402174990891180000e-001) (42, -1.83928572443134680000e-001) (43, -6.10514556203357480000e-001) (44, 1.67019162347416010000e-001) (45, -6.41048456410284600000e-002) (46, 6.25227802570166860000e-001) (47, -1.52838337988356030000e-001) (48, -2.33534068490104050000e-001) (49, -7.96892339472431880000e-001) (50, 8.95881150893224070000e-003) (51, 4.05927078653835900000e-002) (52, 4.71375444902875860000e-001) (53, -1.67003700340607240000e-001) (54, 3.89260162561739180000e-001) (55, -1.05799519914134700000e+000) (56, 9.86163610073281130000e-001) (57, 4.65860503310067510000e-001) (58, 2.11917327476449010000e-001) (59, 2.49597329775067460000e+000) (60, 1.91307683138270130000e+000) (61, 2.66160965486615110000e-001) (62, 5.64474661243745570000e-001) (63, -1.96100748255139230000e-001) (64, 2.27915436971958310000e+000) (65, 2.27649379689890750000e-002) (66, 2.47052287510409570000e+000) (67, 2.24355100318991290000e+000) (68, 4.29950414626188860000e+000) (69, 9.15643693046224950000e-001) (70, 7.37959031724775620000e-001) (71, 1.77143697673337000000e+000) (72, 1.38049882529680870000e+000) (73, 1.65366896945938980000e+000) (74, 1.06464318856565640000e+000) (0, -5.30447655061003220000e-001) (1, 2.39118204617112970000e-001) (2, 6.90972711327513810000e-001) (3, 5.23156679843277410000e-001) (4, 7.91018475181130660000e-001) (5, 5.28555194296098100000e-001) (6, 1.06931336149591540000e+000) (7, 9.17607535598108930000e-001) (8, -1.29556514471579040000e-001) (9, 5.65993459429462780000e-001) (10, 3.50676685859830080000e-001) (11, -6.65989981757527110000e-001) (12, -4.51433085159175450000e-002) (13, -1.00446338193269180000e+000) (14, -1.00074182442432070000e-001) (15, 8.23491914383675530000e-001) (16, 8.55742141406484410000e-001) (17, -3.07859375272887200000e-001) (18, 9.99890950939205440000e-001) (19, 8.96865028372367030000e-001) (20, -3.34799088204600410000e-001) (21, 5.51353131214749160000e-001) (22, -1.03344668498963670000e+000) (23, 5.48729300141269860000e-001) (24, -9.54870261684196420000e-001) (25, -7.02531590628084570000e-001) (26, -6.47683825619666750000e-001) (27, -1.65116086856583220000e-001) (28, 3.01199295379187710000e-001) (29, -8.23811792973380590000e-001) (30, 5.33881277984150080000e-001) (31, 5.06517430927730610000e-001) (32, 3.56517411852445450000e-001) (33, -2.18362777481346610000e-001) (34, 5.68677234606622120000e-002) (35, 6.29026255802066950000e-001) (36, -4.70918997361118470000e-001) (37, -2.52383852807797790000e-001) (38, 7.33524094340679560000e-001) (39, 7.03919300609878400000e-001) (40, -6.74528916116306280000e-001) (41, -2.03348081928968850000e+000) (42, -4.53014186196048940000e-001) (43, -8.93861983876918790000e-002) (44, -4.33634927452225540000e-002) (45, 7.30878936596463520000e-001) (46, 3.56384734454994690000e-001) (47, -2.20261758383713700000e-001) (48, -4.76514467427402610000e-001) (49, -1.28673403909991180000e+000) (50, -1.14277397436508200000e+000) (51, -8.90969785137377120000e-001) (52, 1.21536912591525170000e+000) (53, -6.67531256804039380000e-002) (54, 9.46008052978944190000e-001) (55, -4.44568823000400680000e-001) (56, 1.28256037599622100000e+000) (57, 1.94511433187574310000e+000) (58, -3.51949018375702030000e-001) (59, 7.23882975584548620000e-001) (60, 2.88361420548287660000e+000) (61, 3.65676070967929480000e-001) (62, 2.38257914310874200000e+000) (63, 1.53486438157087090000e+000) (64, 2.57185656891109330000e+000) (65, 2.42431330150609940000e+000) (66, 1.81898314830453840000e+000) (67, 4.23655229608540830000e+000) (68, 1.36670803143629050000e+000) (69, 6.51234494999245460000e-001) (70, 7.91005358838300810000e-001) (71, 1.39924531594345680000e+000) (72, 2.39902211355311130000e+000) (73, 7.72823265294300790000e-001) (74, 6.05636318438806940000e-001) (75, 1.30251479335421980000e+000) (0, 7.05178971865512260000e-001) (1, -4.21866722487560020000e-001) (2, -7.34904939836567240000e-001) (3, -4.74342364283237730000e-001) (4, -3.96318506341862890000e-001) (5, 1.06311922286584100000e+000) (6, -3.59841288151236840000e-001) (7, 1.05131231063189360000e+000) (8, -3.73440295512572520000e-001) (9, -3.08499784212122210000e-001) (10, 8.86375675005310120000e-001) (11, -5.65734794055445580000e-001) (12, -6.54189377818522710000e-001) (13, -9.39410922278514970000e-001) (14, -2.41491436350933450000e-001) (15, -4.77998701168125100000e-001) (16, -2.02298070795385810000e-001) (17, 7.56034157180938140000e-001) (18, -8.59675043790796290000e-001) (19, -5.66548906571290980000e-001) (20, -6.96914077777861630000e-001) (21, 1.39943139690290860000e+000) (22, 6.62865564474410700000e-001) (23, 6.67828771988679630000e-001) (24, -8.20928993824994960000e-001) (25, -4.91517346482951150000e-001) (26, 7.03165931532650830000e-001) (27, -2.65646055102914890000e-001) (28, -8.09582919489781780000e-001) (29, 1.05617426774725250000e+000) (30, 8.54243623294519280000e-002) (31, 1.55854726280239610000e-001) (32, 7.83309231595758600000e-001) (33, -1.24856649024563690000e-002) (34, 8.77909320859049270000e-001) (35, -5.50371329648027370000e-001) (36, -6.99768924163309490000e-001) (37, 1.58933019042795280000e-001) (38, -2.92680152739357320000e-001) (39, -3.84409768976481440000e-001) (40, 8.78926687051800660000e-001) (41, -6.05999887944887020000e-001) (42, 9.67541293769661140000e-001) (43, -1.14289400513534130000e-001) (44, -9.37991539791418920000e-001) (45, -1.81322243403136910000e-001) (46, -1.71460317427645920000e-001) (47, 6.75270329598915200000e-001) (48, -8.38413049136672580000e-001) (49, -1.49486595181781450000e-001) (50, -2.95639045493774730000e-001) (51, 8.44119887154938910000e-001) (52, -1.13210441784575820000e+000) (53, 6.23841626405756240000e-001) (54, -8.95439075288688710000e-001) (55, 9.06919076809408970000e-001) (56, 7.29910750831335160000e-001) (57, 5.44223480600134260000e-001) (58, 1.93916188614698280000e+000) (59, 1.30620975793373370000e+000) (60, 5.61982082519449370000e-002) (61, 8.09319666661526220000e-001) (62, 1.15137839045683870000e+000) (63, -3.78714154945772150000e-001) (64, 1.70882586875826250000e+000) (65, -3.35521904154310050000e-001) (66, 1.04150529713579170000e+000) (67, 1.71844233113378350000e+000) (68, 2.31068201558231840000e+000) (69, 1.61530154024875280000e-001) (70, 1.03615188205956700000e+000) (71, 1.88554363752051750000e+000) (72, 3.05816612718188810000e+000) (73, 1.78772337391372720000e-001) (74, 1.09541255808276630000e+000) (75, 5.64557791172028980000e-001) (76, 1.20489600280568450000e+000) (0, -2.98012476233014020000e-001) (1, -4.33254199152589390000e-001) (2, -6.24470103820701010000e-001) (3, -2.13119084666103190000e-001) (4, 4.34550379731868770000e-001) (5, 1.05330826107915400000e+000) (6, 4.09376260952835690000e-001) (7, -1.04387667575328600000e+000) (8, -7.48082053326796890000e-001) (9, 1.01583938294250870000e-001) (10, 8.07268116546902780000e-001) (11, 6.77291024652735050000e-001) (12, -1.48781046498600670000e-003) (13, 3.54142032813606120000e-001) (14, -8.37574238411761040000e-001) (15, 1.07861137164276680000e+000) (16, -7.94069072998455220000e-003) (17, -8.30041040944859980000e-002) (18, -2.41034534659236220000e-001) (19, 5.84529262648453400000e-001) (20, -8.40925444176465530000e-001) (21, -6.26387593774815620000e-002) (22, -2.42545879344291670000e-001) (23, 1.65106531665094760000e-001) (24, -6.23750418887220600000e-001) (25, 1.81365382491803150000e-001) (26, -3.35640556579191340000e-001) (27, 3.71811893276189130000e-001) (28, 1.01163069207501840000e+000) (29, 1.12756742963133290000e+000) (30, 1.05820466707215990000e-002) (31, -5.74130547136823320000e-001) (32, -8.42734494684540540000e-002) (33, -7.16877806370386010000e-001) (34, -6.05460932182588120000e-001) (35, 2.04013215404436760000e-001) (36, -4.31002361327492560000e-002) (37, 4.99442724537535600000e-002) (38, 9.97914582841030180000e-001) (39, 2.32960042517018180000e-001) (40, -3.23312397107541280000e-001) (41, -2.85341974350884100000e-001) (42, 1.77003866237144870000e-001) (43, -1.19121479260135300000e-001) (44, -6.15546791329411700000e-001) (45, -7.88205880929452980000e-001) (46, -1.28663684641536020000e-001) (47, -7.14091560905644960000e-001) (48, -7.69229007250433970000e-001) (49, 8.21467943196531940000e-001) (50, 8.13121768352083050000e-001) (51, 7.45615701602801990000e-001) (52, -5.40714357802234200000e-001) (53, -1.33116051111619200000e-001) (54, -1.17122471885117280000e-001) (55, 7.68919620674424650000e-001) (56, 1.33915476822410140000e+000) (57, 1.07129008744527980000e+000) (58, 8.41930392109497270000e-001) (59, 1.54214147955356040000e+000) (60, -1.89920694377240960000e-001) (61, 1.43539507438776900000e+000) (62, 3.12990069713083690000e-001) (63, 6.10717074115122660000e-001) (64, 1.38834499494152360000e+000) (65, -2.60994407190659250000e-001) (66, 8.04771461828888040000e-001) (67, -5.08872432399725350000e-001) (68, 2.58159571987029370000e+000) (69, 4.54738873378641270000e-001) (70, 4.98268067907279450000e-001) (71, 6.59662937199724460000e-001) (72, 2.54795150110854780000e+000) (73, 1.20920183177865930000e+000) (74, -6.74832827363631590000e-001) (75, 1.72105695934957970000e+000) (76, -1.36491949829225860000e-001) (77, 1.04007104628597810000e+000) (0, 4.42906274426321470000e-001) (1, 6.59870910749948860000e-001) (2, 2.54131755733450200000e-002) (3, -3.33705817649468270000e-001) (4, -1.11168297748402580000e+000) (5, -8.46273100054867440000e-001) (6, -2.61336491087103130000e-002) (7, -7.31721865590019280000e-001) (8, -8.14688804331015900000e-002) (9, 5.82654252745437360000e-001) (10, -1.75051123603310350000e-001) (11, 8.38316308426694130000e-001) (12, -3.11027562385576050000e-001) (13, -8.10861437837206850000e-002) (14, 8.17422354562870490000e-001) (15, 5.09546806131686240000e-001) (16, 7.95918359598798970000e-001) (17, -3.50584470995051190000e-001) (18, -9.39448187373062020000e-001) (19, 2.13494466340981820000e-001) (20, -1.17349075347751250000e+000) (21, -1.14799442669348260000e-002) (22, -4.27048574607404920000e-001) (23, -7.33927942746248950000e-001) (24, 4.79155538213831780000e-001) (25, 8.10957963497409280000e-002) (26, -4.19652443966855580000e-002) (27, -7.23163657010605250000e-001) (28, 2.51970598375406640000e-001) (29, -6.67693930251745620000e-001) (30, -6.24592485501784030000e-001) (31, 4.54971438420700200000e-001) (32, -5.52019906457724250000e-001) (33, 1.33051399914073360000e-001) (34, 7.51668886096693470000e-001) (35, -4.65506044001132440000e-001) (36, -1.33932519472267390000e-001) (37, -3.65338084433896260000e-001) (38, -2.28033947204760030000e-001) (39, -6.64929639095493070000e-001) (40, 3.54614305884703440000e-001) (41, 5.22165627018082780000e-001) (42, -1.05470735675311120000e-001) (43, -4.88628975488009270000e-003) (44, 4.37330269185990610000e-001) (45, 3.01962103088873890000e-001) (46, 7.79002158827927230000e-001) (47, 2.73141661425057860000e-001) (48, -1.45634710144161240000e-001) (49, -3.12441014402580650000e-001) (50, -5.89893093370871470000e-002) (51, 8.67278662071760080000e-001) (52, 9.01453969004292530000e-001) (53, 9.50393716658975320000e-001) (54, -1.10498236116177970000e+000) (55, -5.65062213705539440000e-001) (56, -3.69355794047366680000e-001) (57, -4.23670965970827710000e-001) (58, 1.34109136519616850000e+000) (59, 8.21896670844857400000e-001) (60, 9.23811231227830600000e-001) (61, -5.09629761051844990000e-001) (62, 1.50758299592062040000e+000) (63, 1.51690495609004660000e-001) (64, 5.07927383541348480000e-001) (65, 3.83373379799863800000e-001) (66, 2.23536469043593080000e+000) (67, 6.48661710915764860000e-001) (68, 3.40315642479841470000e+000) (69, 1.10201045786219010000e+000) (70, -4.94716770232594250000e-001) (71, 3.67796636825081070000e-001) (72, 2.21248629963880460000e+000) (73, 1.27180357741987040000e+000) (74, 6.10261255484396470000e-001) (75, 1.33022612082558460000e+000) (76, 5.21936740826924760000e-001) (77, 8.29630184522077980000e-002) (78, 4.03803181194140770000e-001) (0, 1.20083289904316120000e-001) (1, -7.75245209709229170000e-001) (2, -8.32634766087419260000e-001) (3, 1.71772977248712960000e-001) (4, 6.56993102629963130000e-001) (5, -2.81395221632943750000e-002) (6, -4.56922574130858740000e-001) (7, -5.69246860514085910000e-001) (8, -1.08362635671562930000e-001) (9, -3.92298417445556550000e-001) (10, 3.62505472928917660000e-001) (11, 6.22694870827764980000e-001) (12, -9.54517176547453830000e-001) (13, 8.77458978984115510000e-001) (14, -2.92762208280089750000e-001) (15, 5.73555728026496680000e-001) (16, 1.09114935769352900000e-001) (17, -2.40320283220288200000e-001) (18, -8.38467278158454790000e-001) (19, -8.28039653616412240000e-002) (20, -9.18618529584380450000e-002) (21, 3.01140725377036300000e-002) (22, -8.68015539168597750000e-001) (23, 2.24506625182667670000e-001) (24, 4.62284371282531530000e-001) (25, -1.76928181188866410000e-001) (26, -4.90440059596088160000e-001) (27, 5.59916643471541350000e-001) (28, 2.80916669459661370000e-001) (29, -3.80426059344542990000e-001) (30, 3.16127246838607820000e-001) (31, -7.52160251280627250000e-001) (32, -5.34770573446929020000e-001) (33, -4.90924283066518710000e-002) (34, -4.30512275196022200000e-001) (35, 3.36276184681694180000e-001) (36, -5.55184589777324320000e-001) (37, -2.45796995763959220000e-001) (38, 7.43553873580003910000e-001) (39, 2.38831338626722570000e-001) (40, -1.49553606631168460000e-001) (41, 3.92593999687774420000e-001) (42, 1.01698427586725070000e+000) (43, -9.49709391775768740000e-001) (44, 1.05669683654420690000e+000) (45, 4.01179419043421190000e-001) (46, 4.38527484909700120000e-001) (47, 1.55320544800085780000e-001) (48, 3.82974248655848500000e-002) (49, 8.03065360700345510000e-001) (50, -7.44202813321415470000e-001) (51, 7.81873236831108540000e-001) (52, 2.71388041901318990000e-002) (53, 5.55595750007549520000e-002) (54, 5.31017783016087490000e-001) (55, -8.37538212015113580000e-001) (56, 2.66251979839070300000e+000) (57, 3.42660610957757130000e-001) (58, 1.61569009344580430000e+000) (59, 3.14358282335995210000e+000) (60, 4.92463056139042290000e-001) (61, 1.20927608843933000000e-001) (62, 8.28044610755748420000e+000) (63, 3.33796296187906360000e+000) (64, 2.77494855018892970000e+000) (65, 8.63412372382029150000e+000) (66, 6.28281756576877020000e-001) (67, 5.17524987746297520000e-001) (68, 1.87639863992126580000e+000) (69, 2.35549570445525490000e-001) (70, 1.65154534564821430000e+000) (71, 2.19389764245012750000e+000) (72, 2.26753140429131860000e+000) (73, -1.21735465938521650000e-001) (74, 9.55418685554984330000e-001) (75, 2.25541978539193090000e+000) (76, 2.02152389227610430000e+000) (77, 2.38050476055299990000e+000) (78, 2.16540956639451330000e-001) (79, 5.41816352513688400000e+000) (0, -7.56706630542136830000e-001) (1, -6.23787820090179080000e-001) (2, 7.97121713771939740000e-001) (3, -2.92877800243442010000e-001) (4, 6.49553185076808260000e-001) (5, -8.13639605383691070000e-001) (6, 8.93307666596434460000e-001) (7, 3.40808107339604320000e-001) (8, -8.25109820060899170000e-001) (9, -1.10243482058593250000e-001) (10, -1.25107768877618930000e-001) (11, -3.24662765949755460000e-001) (12, -7.71642285217141510000e-001) (13, -8.19799081607715420000e-001) (14, -5.82928809109145240000e-001) (15, -5.88333486292978210000e-001) (16, 8.36591275254120910000e-001) (17, 3.95233210684324960000e-002) (18, 2.31409469194835680000e-001) (19, 1.81148448322065530000e-001) (20, -1.59746165062592430000e+000) (21, 3.04349992533331230000e-001) (22, -4.04307772459826240000e-001) (23, 1.30593800673329510000e+000) (24, -1.20114203875137760000e+000) (25, -5.07181652261744940000e-001) (26, 6.83968709542811640000e-001) (27, -8.64623718185908550000e-001) (28, 6.50067249149732240000e-002) (29, -3.91612195257039150000e-002) (30, -2.99112730461540350000e-001) (31, -1.91689052564468440000e-001) (32, 1.39432033068149860000e-001) (33, -5.44666410218619390000e-002) (34, -3.50959619916829890000e-001) (35, 4.18756489014049490000e-001) (36, -3.72243067247886140000e-001) (37, -7.04212911129747490000e-001) (38, 6.56806991655174310000e-001) (39, 7.46935425636347850000e-001) (40, 8.84960760775526660000e-001) (41, 9.07835103999500070000e-001) (42, -3.85254597169882140000e-001) (43, 8.79464248102758970000e-002) (44, 9.33070648734634300000e-001) (45, 8.58511464098117850000e-001) (46, 7.64639560891806070000e-001) (47, -1.61911046843719650000e-001) (48, -3.74793148526148310000e-001) (49, -7.01960554382723310000e-001) (50, -3.82341936692472130000e-001) (51, -6.17254392011221730000e-003) (52, 2.08225508133002850000e+000) (53, 4.89828458038743180000e-002) (54, -3.31821945943294840000e-001) (55, 8.03628254124194920000e-001) (56, 7.88032660827894690000e-001) (57, 1.96391818801843330000e+000) (58, 1.20131608276611670000e+000) (59, -2.15531850088206330000e-001) (60, 1.17281330409495400000e-001) (61, 1.28796314376181800000e+000) (62, 6.47192802602026940000e-001) (63, 1.44249421005258240000e+000) (64, 2.35928927938099030000e+000) (65, 1.06884329325075590000e-001) (66, 1.53224625095095980000e+000) (67, 1.95254940985825390000e+000) (68, 2.34665848052491950000e+000) (69, 7.11568639033168580000e-001) (70, 1.17679003141927360000e+000) (71, 1.76749359857548850000e+000) (72, 2.92337481795944850000e+000) (73, -4.01028121319191130000e-001) (74, 1.70349875089390660000e+000) (75, 1.68766173888242220000e+000) (76, 4.16182442402802170000e-001) (77, 1.45582641125595180000e+000) (78, 1.17895093248745670000e-002) (79, 1.33382383137357880000e+000) (80, 1.85428890171712270000e+000) (0, -1.51117286955271160000e-001) (1, 7.00576107598064430000e-001) (2, -4.57935206499365980000e-001) (3, -5.75638502729104880000e-001) (4, -4.74542459995546950000e-001) (5, 7.85284283445449040000e-002) (6, 5.54011278266837600000e-001) (7, 4.71134146855834550000e-001) (8, -4.60517121255377470000e-001) (9, 1.08153256077810740000e+000) (10, -3.69954006128029640000e-001) (11, -6.75893110228557910000e-001) (12, 1.39397836224618850000e-001) (13, 4.13792648703261880000e-001) (14, 1.12240187400837590000e+000) (15, -7.96030274979982580000e-001) (16, -1.31062760001222260000e-003) (17, -4.38666544424254550000e-002) (18, 1.15956709445447960000e+000) (19, 1.65160042636937380000e+000) (20, -1.18954267883742460000e+000) (21, -5.47736001298700510000e-002) (22, 5.98194761944377480000e-001) (23, 1.09365615562252990000e+000) (24, -6.04665339050097670000e-001) (25, -4.84131969783972780000e-002) (26, 2.03562338074529810000e-001) (27, 6.49189282331270050000e-001) (28, 8.14511200356900390000e-001) (29, -4.11429679653025130000e-001) (30, 6.28305865145588840000e-001) (31, 9.58598718681982880000e-001) (32, -2.84229457678718660000e-001) (33, -4.20164642498894070000e-001) (34, 4.73292301795794730000e-001) (35, 9.90190408859636660000e-002) (36, 6.10509303201904660000e-001) (37, 6.59645316638123310000e-001) (38, -1.57062785073451750000e-001) (39, 4.61426206287745560000e-001) (40, -2.66201500848381010000e-001) (41, -7.76205812877365230000e-001) (42, 9.30712507035902910000e-002) (43, -4.90720239356947250000e-001) (44, 1.42456949902283910000e-001) (45, 2.40384086084106830000e-001) (46, -1.79161573654016440000e-001) (47, -1.43445908376662070000e-001) (48, 4.45455650235115350000e-001) (49, 5.11739530331199570000e-001) (50, -6.73335735842332860000e-001) (51, 1.69431198844706500000e-001) (52, 8.90989559854233890000e-002) (53, 2.42239532088125380000e-001) (54, 3.57827362802901560000e-001) (55, -2.20394931786924400000e+000) (56, 7.60117602778174640000e-001) (57, 9.11438372499494550000e-001) (58, -1.06085173060357430000e+000) (59, -7.95816224070724610000e-001) (60, 4.04037782341340250000e-001) (61, 1.59523586337267800000e+000) (62, 1.40671494337543290000e+000) (63, -2.74734080380353300000e-002) (64, 2.03220629657920070000e+000) (65, -4.98795829557406590000e-002) (66, 6.36125717476195400000e-001) (67, 3.09294730639233070000e-001) (68, 2.61833663642442140000e+000) (69, 1.09748467679768020000e+000) (70, -2.27441379111919220000e-001) (71, 4.50956931555465960000e-001) (72, 1.85232421050224930000e+000) (73, -2.77501295510391490000e-001) (74, -7.58913492395135450000e-002) (75, 1.68853053996967480000e+000) (76, -6.33628998157794170000e-001) (77, 3.14393794611037700000e-002) (78, -5.21469352449050680000e-001) (79, 3.07073128818167170000e-001) (80, 1.23332463000364980000e+000) (81, 4.53563187858929790000e-001) (0, -1.21787595302749840000e-001) (1, 4.18945470396199340000e-001) (2, 2.80803329704699460000e-001) (3, -3.94213570097496080000e-001) (4, 8.25480465554626290000e-001) (5, 2.46395488446718050000e-001) (6, 7.24636037991614470000e-001) (7, -6.85245087234478740000e-001) (8, 8.13556460222310870000e-001) (9, -7.65627898108426570000e-001) (10, 7.19860100966300930000e-001) (11, 7.04386352738580080000e-001) (12, -1.04988649612816240000e+000) (13, 3.80578992429579310000e-002) (14, -9.20527097126329300000e-001) (15, -1.05485978213736130000e+000) (16, 3.57997681991003350000e-001) (17, 7.43387834829914770000e-001) (18, 4.32593712092453270000e-002) (19, 9.73193477636976390000e-001) (20, -3.64854506031863150000e-001) (21, -2.00095868357200200000e-001) (22, 8.66623374506046980000e-001) (23, 3.88752336014052470000e-002) (24, 3.35088897217507560000e-001) (25, 9.26728112733161140000e-002) (26, 6.61435063027259740000e-001) (27, 7.10013808091292000000e-001) (28, 1.69668562401632440000e-001) (29, -6.31973712582604260000e-001) (30, -7.32288535260427480000e-001) (31, 2.88093757023331450000e-002) (32, 9.29978120565204900000e-001) (33, -8.66589332493543310000e-001) (34, 1.14985110116563960000e+000) (35, -7.21077838899274350000e-001) (36, -1.05474876039765770000e+000) (37, -4.61401110135470190000e-001) (38, -3.56769410914505700000e-001) (39, -9.37919485484112860000e-001) (40, -3.97563833704485840000e-001) (41, 8.58796425106181150000e-001) (42, 1.21469312793773150000e-001) (43, -3.10724272860796790000e-001) (44, -8.00764753529336850000e-001) (45, 4.57784236418514120000e-001) (46, 5.78791701337383450000e-001) (47, 5.26124665077489450000e-001) (48, 8.85192416436429760000e-001) (49, 9.53893281583153560000e-001) (50, -1.37107410425456680000e-001) (51, -7.56364180383831240000e-001) (52, -2.56226010559557460000e-001) (53, -1.01385929851977430000e+000) (54, -4.39451051154161550000e-001) (55, 7.17622950399084970000e-001) (56, 1.66114857949871600000e+000) (57, 1.64092108667917500000e+000) (58, 6.01657656088717460000e-001) (59, 4.14904134794792430000e-001) (60, 4.88164666830495970000e-001) (61, 1.39903507663458490000e+000) (62, -5.07085492060859950000e-001) (63, 3.19603687898764880000e+000) (64, 3.28401785816398650000e+000) (65, 1.67967468653243100000e+000) (66, 2.52699824966588380000e+000) (67, 4.46631534349662740000e+000) (68, 2.53751394060823900000e+000) (69, 1.79007224533650790000e+000) (70, 2.37692532569883810000e+000) (71, 1.32506303038352310000e-001) (72, 1.25424303126222520000e+000) (73, 1.22277928016190660000e+000) (74, 1.26764039147496180000e-001) (75, 7.33572754335277130000e-001) (76, 2.68910714520986250000e-001) (77, 1.35396789393608490000e+000) (78, -1.70745593839242930000e-001) (79, 1.00500306812463890000e+000) (80, 1.50884393144332220000e+000) (81, 4.62923782726385350000e-001) (82, 1.96699771320404420000e+000) (0, -8.86050691678973660000e-001) (1, 9.21169993631998810000e-001) (2, -6.78201632853687400000e-001) (3, -6.72897317583263650000e-001) (4, -9.87036293800223950000e-001) (5, -3.57231471083535650000e-001) (6, -8.16313690005166960000e-001) (7, 9.81498673409935680000e-001) (8, 3.72471777498432130000e-001) (9, 7.46430613831507550000e-001) (10, 1.70513130646751110000e-001) (11, 9.64735855627138930000e-001) (12, 5.45640481677367560000e-001) (13, -1.10647721715275610000e-001) (14, -3.03681849958664980000e-001) (15, -3.02650341755069110000e-001) (16, -5.40898400279214430000e-001) (17, 4.04659911250000780000e-001) (18, 9.91269979191769400000e-001) (19, 9.43239157867062030000e-001) (20, -7.49564166559475330000e-001) (21, 5.30930230653981150000e-001) (22, -6.74646901103278740000e-001) (23, 4.17702740814660080000e-001) (24, -5.63588073638665250000e-001) (25, -6.44852825327018150000e-001) (26, 3.80325240268103020000e-002) (27, 1.14421662827090410000e+000) (28, 1.10382974334467200000e+000) (29, -8.66635563235490510000e-003) (30, 6.19328848971748000000e-001) (31, -9.79097792262902810000e-002) (32, -3.54252477610121770000e-002) (33, -6.36505527179074940000e-001) (34, 3.70219501400955610000e-001) (35, -1.04462293835623910000e+000) (36, 8.60334241801494200000e-001) (37, 7.33846489115287660000e-002) (38, -8.67323084948864120000e-001) (39, 1.07291864184572650000e-001) (40, -4.01519326839894050000e-001) (41, -7.54169078336999870000e-001) (42, 6.88940257836140320000e-001) (43, -2.19412736732509550000e-001) (44, 5.32909333766449000000e-001) (45, 3.84076244788885690000e-001) (46, 9.53644965772589500000e-001) (47, 5.19901492097578970000e-001) (48, 3.29133394423904210000e-001) (49, 5.53118916153437670000e-001) (50, 4.47656093480992560000e-001) (51, 1.15728447653249030000e-002) (52, -8.30172212821050580000e-001) (53, -5.37129931016679050000e-001) (54, -7.28894933124553450000e-001) (55, -1.13346573048882320000e+000) (56, 2.08105002400304870000e+000) (57, -1.91252747409702410000e-001) (58, 2.77106977499421130000e+000) (59, -3.55087665172272300000e-001) (60, 7.29078627649921480000e-001) (61, 8.47843537390696960000e-001) (62, -6.56597969236467630000e-002) (63, 8.15828432311754170000e-001) (64, 2.22380646274674290000e+000) (65, -2.71987556138076790000e-001) (66, 9.55564848705483970000e-001) (67, 7.45272940395631970000e-001) (68, 2.24724648574722390000e+000) (69, -4.30330361966141770000e-001) (70, 1.34908575849947040000e+000) (71, 8.24277883434099550000e-002) (72, 2.98903964641718470000e+000) (73, 1.29613362029927990000e+000) (74, 1.19774434469312800000e+000) (75, -7.61339733872693940000e-001) (76, 2.55983775988700760000e-001) (77, -3.15245313876064640000e-001) (78, 8.06809156708898860000e-001) (79, 1.17900812579252650000e+000) (80, 8.13545889621134060000e-001) (81, 4.86330412497150140000e-001) (82, 1.64468113688131790000e+000) (83, 1.48402699257645070000e+000) (0, 4.33870010930292250000e-002) (1, 8.49161310615651030000e-001) (2, 3.39392096069504660000e-001) (3, -5.42817293469499580000e-001) (4, -1.03856340652378360000e+000) (5, -2.70964832566142120000e-001) (6, -5.33992321433403580000e-002) (7, -4.35733912181156920000e-001) (8, 5.49384899721542590000e-001) (9, -2.37031659282704890000e-001) (10, -3.47310346516034980000e-001) (11, 6.87746462721660730000e-001) (12, 4.28401192971256620000e-001) (13, 7.19276128051321570000e-002) (14, 3.63860272808567410000e-003) (15, -7.69760020753539890000e-001) (16, 8.32671281906489200000e-001) (17, -4.95616837964364010000e-001) (18, -5.29056172170646600000e-001) (19, 3.38445783047828910000e-001) (20, 4.44281996474882030000e-001) (21, -8.84637264108671490000e-001) (22, -6.17309712916886630000e-001) (23, 5.82871035866427740000e-001) (24, -3.40769887278884350000e-001) (25, 7.45061293672998750000e-002) (26, 6.40765546680861050000e-001) (27, -8.63855322233630930000e-001) (28, -1.18631425420241490000e-001) (29, -1.20850108603720170000e-001) (30, -1.06607498088260040000e+000) (31, 6.78322582737580280000e-001) (32, 7.16334239747436930000e-001) (33, -5.25006435027236190000e-002) (34, -1.71489688171079930000e-001) (35, -2.48642474365426770000e-001) (36, -3.20281067740590730000e-001) (37, -6.54578373072144200000e-003) (38, 4.79270193272514740000e-001) (39, 2.24592878982455070000e-002) (40, 9.30766713066341400000e-001) (41, 3.70969058033106200000e-001) (42, 5.19722207888799300000e-001) (43, 5.45636015761016280000e-001) (44, -2.74823641665370490000e-001) (45, -7.18797896093394400000e-001) (46, 1.00725543578637990000e+000) (47, 2.78741054123271760000e-002) (48, 4.03288106349322720000e-001) (49, 7.69395865064331550000e-001) (50, -1.91591728000810230000e-001) (51, -2.38205707842655380000e-001) (52, 4.26745512474201010000e-001) (53, 1.20601756350664240000e+000) (54, 1.48983705047310290000e-001) (55, -1.33111750023782570000e+000) (56, -1.08633637924170620000e+000) (57, 2.26802001998616720000e-001) (58, 1.57706309371254820000e-001) (59, 2.97926576916848740000e+000) (60, 6.00849547083897260000e-001) (61, -1.49502937878788940000e+000) (62, -3.06906035447457360000e+000) (63, -5.06435088283247570000e+000) (64, 4.31470104437736650000e-001) (65, 1.17670115631819880000e+001) (66, -2.00786471673245210000e+000) (67, -1.89610126588530360000e+001) (68, 5.95669444655839530000e+000) (69, 7.80783028995237110000e-001) (70, -2.45360039905818580000e+000) (71, 3.17934105017754960000e+000) (72, 1.43734754911474560000e+000) (73, 2.62118769322030330000e+000) (74, -4.31668694962748930000e+000) (75, 4.16660235185310060000e-002) (76, 1.20306876052192790000e+000) (77, -4.69284617613319100000e+000) (78, 2.43860113906911820000e+000) (79, 1.76606752801230530000e+000) (80, 2.81794342764357420000e-002) (81, 2.16768157462838350000e+000) (82, -1.31898886072103090000e+000) (83, 5.41917684558311690000e-001) (84, 1.28940486412295390000e+000) (0, 4.74430896616881650000e-001) (1, -5.00727898196624780000e-001) (2, 7.36656883204470980000e-001) (3, 9.50943704508742770000e-001) (4, -9.31382714311673410000e-001) (5, -3.59453803844808410000e-001) (6, -3.76733495382486130000e-003) (7, -2.68066057026173810000e-001) (8, 4.92333812606145000000e-001) (9, 2.75057714391593160000e-001) (10, 2.11392673030475460000e-001) (11, -7.23213619984978680000e-001) (12, -4.29885415216948790000e-001) (13, 4.53399660342480750000e-001) (14, 7.05340518204818250000e-001) (15, 8.65418284836548150000e-001) (16, -5.96649925928754990000e-001) (17, 6.54107683368641700000e-002) (18, 2.65274758546619530000e-001) (19, -5.57072434367810180000e-001) (20, -5.21072792071429310000e-001) (21, -4.19186356940445930000e-001) (22, -1.54415829401820370000e+000) (23, -7.55318741241195470000e-001) (24, -4.80040305931983550000e-001) (25, 2.80863584099679600000e-001) (26, -2.92739496698711300000e-001) (27, 3.67969196950708340000e-001) (28, -1.41688701789862730000e-001) (29, -6.56814055305001030000e-001) (30, -9.27546536479302740000e-001) (31, 7.43369821805156430000e-001) (32, 4.11391264478649430000e-001) (33, 1.24771136664686410000e-001) (34, -6.82266438521785260000e-001) (35, 7.65037978309412780000e-001) (36, -2.01388503425134450000e-001) (37, 1.27009579977662020000e+000) (38, 3.48717105327544350000e-001) (39, 6.49571540683845790000e-003) (40, 1.51885242787280080000e-001) (41, 5.85024003284840610000e-001) (42, -6.44891802633509760000e-001) (43, -4.84064062533404890000e-001) (44, 2.95216622722857650000e-001) (45, -5.40167782168512470000e-001) (46, 9.90474273712819150000e-002) (47, -6.49025322615072950000e-001) (48, 8.37098257386205410000e-002) (49, 5.23287318593839590000e-001) (50, -1.41018143250906310000e-001) (51, 1.02949799563407150000e+000) (52, -2.04802159079587020000e-001) (53, -4.69422852011845530000e-001) (54, 4.70994745008934730000e-001) (55, -2.74498082757441210000e+000) (56, 2.24998651525292370000e-002) (57, 6.81752047534725180000e-001) (58, 2.43324345612866450000e-001) (59, 5.97802571408888480000e-001) (60, 1.88607924916160070000e+000) (61, 1.32706007439489060000e+000) (62, 7.55785083770530440000e-001) (63, 6.58240744210764670000e-003) (64, 2.72605748298861040000e+000) (65, 1.54193865710337000000e+000) (66, 1.36995513122186140000e+000) (67, 2.68570134337672740000e-001) (68, 2.60150190023925850000e+000) (69, 9.79171009033567300000e-002) (70, 1.56796522438697460000e-001) (71, -2.79802529822110350000e-001) (72, 2.68923799028171740000e+000) (73, 1.21085712444932910000e+000) (74, 7.66241776590828930000e-001) (75, 9.44967970916260340000e-002) (76, 1.02672061950076190000e+000) (77, -7.42013110116517550000e-002) (78, 1.63033540512070260000e+000) (79, 1.43517711435785330000e+000) (80, 1.31592888498365260000e+000) (81, 4.18928059683874590000e-002) (82, 6.80781617380336490000e-001) (83, 3.70134732582075960000e-001) (84, -3.15745112287864840000e-001) (85, 2.63181528871952390000e+000) (0, 2.59521815168746140000e-002) (1, -4.52054929671065750000e-001) (2, -1.74930567103410840000e-001) (3, -4.99755921050618270000e-002) (4, -5.47177937544766000000e-002) (5, -2.80119338252804610000e-001) (6, 9.37450496046640210000e-001) (7, -3.51444293241880560000e-004) (8, 5.82761242832470220000e-001) (9, -5.31466037156408500000e-001) (10, -4.85778162647689690000e-001) (11, -8.92462386090216220000e-001) (12, 4.77207094853602080000e-001) (13, 2.07049973758745590000e-001) (14, -5.32552873992704680000e-001) (15, -5.41917663322697750000e-001) (16, -1.14548918186422480000e+000) (17, 1.84175964420572630000e-001) (18, 5.79660874494528970000e-001) (19, -7.37305027853208840000e-001) (20, 5.54453682325700690000e-001) (21, -7.20174828410893530000e-001) (22, -3.19259092342264070000e-001) (23, 4.51192391955295590000e-001) (24, -4.40787564728828740000e-001) (25, 3.98498468079989290000e-001) (26, 1.66422108162513590000e+000) (27, 4.77373616512441700000e-001) (28, -8.06361688531564420000e-001) (29, 2.26531597721814800000e-001) (30, -7.77314500610682970000e-001) (31, -2.12940158267277190000e-001) (32, 8.16493467558297330000e-001) (33, 1.22759725545455240000e-001) (34, -3.22733347563962770000e-001) (35, -1.57396377324085150000e-001) (36, -2.36739351223873990000e-001) (37, -6.33543638646759890000e-001) (38, 9.46356462206713100000e-001) (39, 3.75460706484182230000e-001) (40, -9.81209146623648110000e-001) (41, 5.34475946992448160000e-001) (42, -6.30814552472545700000e-001) (43, -1.29645770174627330000e-001) (44, -3.24026056761178790000e-001) (45, 6.53081937848528640000e-002) (46, -2.69033064266174740000e-001) (47, 5.98220674454705730000e-001) (48, 2.58750040327663240000e-001) (49, -1.40998170433940640000e-001) (50, 9.52810128196194480000e-001) (51, 2.74691966252698040000e-001) (52, -4.83334271045907440000e-002) (53, 4.86962927973309810000e-001) (54, -2.97598199476721280000e-001) (55, 3.32947414360654950000e-001) (56, 6.68248089469078770000e-001) (57, 2.05000473775752030000e+000) (58, 1.20331421156163800000e+000) (59, -3.91432284636500210000e-001) (60, -5.18548275532008110000e-001) (61, 2.72359772407245290000e-001) (62, -6.09071058823799640000e-001) (63, -3.39466548689429830000e-001) (64, 3.49060147587965730000e+000) (65, 3.82871618674758850000e+000) (66, 1.97939628223772400000e+000) (67, 3.42064290203017670000e+000) (68, 2.94147417349450850000e+000) (69, 1.05823950735670920000e+000) (70, -4.61850016138293590000e-002) (71, 3.25941021590129500000e-001) (72, 3.14959098713012860000e+000) (73, 1.46875807103951360000e+000) (74, -4.35619322552764420000e-001) (75, 1.57497870430178220000e+000) (76, -6.69956659673938250000e-001) (77, 9.34498996374808040000e-001) (78, 1.40488979559996460000e+000) (79, 1.84239018041896730000e+000) (80, 8.22087565943159350000e-001) (81, 2.13331198711136950000e+000) (82, 1.67024336095049740000e+000) (83, 1.97614493413797660000e+000) (84, 1.94953789994594070000e+000) (85, 2.28246129653652960000e+000) (86, 1.74498597282793240000e-001) (0, 6.58891256463002620000e-001) (1, 7.39327262379195330000e-001) (2, 5.83932972089880040000e-001) (3, -8.39673777634565300000e-001) (4, -7.87399210368610710000e-001) (5, 1.46212343258785350000e-001) (6, 1.04557781371438960000e+000) (7, -5.54159245372616520000e-001) (8, 7.70614453322374220000e-001) (9, -4.68906129007955750000e-001) (10, -3.79540909530427910000e-001) (11, -5.44844763900267930000e-001) (12, 3.87617240648751580000e-001) (13, 8.81659054127204470000e-001) (14, -1.29102350707220010000e-001) (15, -8.43163306286263790000e-001) (16, -4.11573379025663100000e-001) (17, 1.36714897296851070000e-001) (18, -3.91737337030222120000e-001) (19, 7.25088243077521180000e-001) (20, -4.16663893594249660000e-001) (21, -3.34858686715287510000e-001) (22, -1.02435165902730140000e+000) (23, 3.20696324319614260000e-001) (24, -7.42319628664645630000e-001) (25, 1.68352599358203320000e-001) (26, 3.49297851334358920000e-001) (27, -1.70049570630864290000e-001) (28, -1.06338748088616000000e-001) (29, 6.65560024935693220000e-001) (30, 8.19238762992224760000e-001) (31, 6.14044810348517100000e-001) (32, 5.32486433294430790000e-001) (33, -9.66798956892292780000e-001) (34, 3.72568859994934610000e-001) (35, -7.47246732695494580000e-001) (36, -1.00442502178828800000e+000) (37, 2.90027091726983930000e-001) (38, 3.03135149228210550000e-001) (39, -6.20923726260460550000e-001) (40, 3.97041024887763660000e-001) (41, -4.59792742027327280000e-001) (42, 1.98616729866426360000e-002) (43, -2.76654768078642980000e-001) (44, 3.10259065975375890000e-001) (45, 6.01076472959870960000e-002) (46, 4.98637867683082330000e-001) (47, -5.77858012784299600000e-001) (48, -9.01076972649362930000e-001) (49, 7.58282728540280000000e-001) (50, 7.07978057003088870000e-003) (51, 1.03736953247443810000e+000) (52, -2.21882737102721380000e-001) (53, -3.35274365708092770000e-001) (54, -1.94735028955643240000e-001) (55, -7.53275633054548920000e-001) (56, 2.16622314407956120000e+000) (57, 6.13830230825689440000e-001) (58, 4.73567305510645650000e+000) (59, 5.08707927971109860000e-001) (60, 7.06448971977398750000e-001) (61, 1.17362910570067820000e+000) (62, 1.53117123039333140000e+000) (63, -3.52937621068155350000e-001) (64, 1.90182145578232250000e+000) (65, 8.51200709796106740000e+000) (66, -4.42544122229399260000e-001) (67, 1.66684980481884960000e+000) (68, 1.37329331055317640000e+000) (69, 5.18229904172246130000e-001) (70, 7.79168776693386800000e-001) (71, 1.70303639816019550000e+000) (72, 2.30910977022801900000e+000) (73, 1.39277157984779090000e+000) (74, 6.14301191985830330000e-001) (75, 8.29224129162747570000e-001) (76, 8.90084285180505970000e-001) (77, 1.47833410290719550000e+000) (78, 2.11325005061603880000e+000) (79, 6.15852036037551560000e-001) (80, -7.45448508879634350000e-002) (81, 1.23759353137651580000e+000) (82, 6.96803558616219790000e-001) (83, 1.08677100266982360000e+000) (84, -2.82310681535992810000e-001) (85, 2.99068109983021380000e+000) (86, 1.44702137517750270000e+000) (87, 5.27625651710564410000e-001) (0, 1.45307097720074390000e-001) (1, 5.87231606451947500000e-001) (2, -1.11295668878251940000e-001) (3, 1.37019491673662700000e-001) (4, 3.61322376857307610000e-001) (5, 2.68248099481183380000e+000) (6, 1.42513497393432460000e+000) (7, 1.11135277073787210000e+000) (8, 1.39929829903044230000e+000) (9, 5.65838008393595660000e-001) (10, 7.82588441439732830000e-001) (11, 9.00772017057677510000e-001) (12, 7.85693250445101960000e-001) (13, 2.21816072544493490000e+000) (14, 2.12855316089476030000e+000) (15, 1.99161178334102160000e+000) (16, 1.01122755374051490000e+000) (17, 1.64541596968876560000e+000) (18, 6.91382311331677050000e-001) (19, 1.33037748241725810000e+000) (20, 2.79107596396275600000e+000) (21, 2.35125663471346380000e+000) (22, -6.52936324417425220000e-001) (23, 2.20198608242844210000e+000) (24, 1.14454848200948490000e+000) (25, 1.96230815319270980000e+000) (26, 9.76166461159595710000e-001) (27, 1.34558592960322400000e+000) (28, 5.16204210699670930000e-001) (29, 2.01446766011409030000e+000) (30, 1.24531536830073650000e+000) (31, 1.55401460436853520000e+000) (32, 8.56575955694232500000e-001) (33, 8.63930425565425760000e-001) (34, 2.11552496564595720000e+000) (35, 1.35439470286851500000e+000) (36, 6.52177318434117750000e-001) (37, 6.39109721154069830000e-001) (38, 2.12740105437491110000e+000) (39, 1.72336830541937470000e+000) (40, 3.08099229637399660000e-001) (41, 1.52160682419014840000e+000) (42, 1.14457592292431330000e+000) (43, 1.64894187460758950000e+000) (44, 1.99354048946192710000e+000) (45, 1.51502432453661600000e-001) (46, 1.18961280207882210000e+000) (47, 1.67509966700716540000e+000) (48, 1.38226281286975720000e+000) (49, 2.03659650110562060000e-001) (50, 2.08328833943119560000e+000) (51, 1.78936786030603770000e+000) (52, 7.74889326326343440000e-001) (53, 1.78293778220180200000e+000) (54, 2.22314246101013160000e+000) (55, -1.66901615478932430000e+000) (56, 3.50322987935705930000e+000) (57, 2.53560148884096300000e+000) (58, 2.11373028820442910000e+000) (59, 1.53652038831516390000e+000) (60, 2.46937595084803970000e+000) (61, 2.42954482783880940000e+000) (62, 1.41578263539786910000e+000) (63, 2.55042604730200260000e+000) (64, 5.58954842554643560000e-001) (65, 1.02453875777823540000e+000) (66, 1.99558481073316370000e+000) (67, 1.58098812321075740000e+000) (68, 1.20670665395285440000e+000) (69, 2.02448791919189430000e+000) (70, 2.48177491604107510000e+000) (71, 8.91818072208010460000e-001) (72, -1.64618053303030980000e-001) (73, 1.45744017884378650000e+000) (74, 1.05636001130852120000e+000) (75, 2.27837913344757090000e+000) (76, 2.12152371232133290000e+000) (77, 2.56833416688618280000e+000) (78, 2.13879089441199220000e+000) (79, 1.01920784732957780000e+000) (80, 9.92609209482275050000e-001) (81, 1.65637520665988800000e+000) (82, 2.42076601836037670000e+000) (83, 1.32837123303202120000e+000) (84, 8.02093047600843660000e-001) (85, 1.76955299180600760000e+000) (86, 1.62406459285140730000e+000) (87, 1.60149965386828400000e+000) (88, 1.84690741619022100000e+000) (0, 6.06613388817768970000e-002) (1, 9.13619378105048340000e-001) (2, -2.73571964593993970000e-002) (3, -8.77026232295826100000e-001) (4, 2.62365494176522270000e-001) (5, 1.43637014412809320000e+000) (6, -4.39176708913888270000e-001) (7, -6.41203808411969890000e-001) (8, -5.67160780295886120000e-001) (9, 3.72211022098886240000e-001) (10, -7.95595419434674930000e-001) (11, -2.92541985803913770000e-001) (12, 4.55479834164150940000e-001) (13, 2.89634072283688540000e-001) (14, 6.71654126969009610000e-001) (15, -9.56983163125038170000e-001) (16, 6.33151552694872220000e-002) (17, -7.20739583471368020000e-001) (18, -1.40977844165993610000e-002) (19, 4.23139991692302820000e-001) (20, 6.89616688680861760000e-002) (21, 1.02826286619732010000e+000) (22, 2.86914653641381860000e-001) (23, -2.25293115430811790000e-001) (24, -5.74622200397043700000e-001) (25, 1.29053928015099490000e+000) (26, 5.72509506075397970000e-001) (27, 1.78310773082981710000e-001) (28, -3.63378752056137070000e-001) (29, -7.96079936368562220000e-001) (30, -5.21585455952662360000e-003) (31, 2.25919866266597410000e-001) (32, 5.13410123077517460000e-002) (33, -2.76390856188225060000e-001) (34, 7.01180769654879520000e-001) (35, -2.43080392176500100000e-001) (36, -1.13922908979452540000e+000) (37, 7.10581138637983890000e-001) (38, -3.93411623841431050000e-002) (39, -1.08025718096962070000e-001) (40, -3.25083196668278670000e-001) (41, -2.75470338379302020000e-001) (42, 1.19856943399202250000e+000) (43, -8.90053322683328930000e-001) (44, 8.43376648622532920000e-001) (45, 5.94155418932281410000e-001) (46, 4.19174269915082000000e-001) (47, 8.05617586972603110000e-001) (48, 6.51395145390738390000e-001) (49, 1.28989033278201710000e-001) (50, 3.24760782186813200000e-001) (51, 6.65832020355232030000e-001) (52, 2.37251238275012070000e-001) (53, 7.43870589390222770000e-001) (54, -3.90948269185847960000e-001) (55, -8.26632665049906850000e-001) (56, 9.63746983748198780000e-001) (57, 2.10273108324278810000e+000) (58, -8.36930812864533860000e-001) (59, 1.04328326344684960000e+000) (60, 7.39361241744786570000e-001) (61, 1.00512577726021560000e+000) (62, 9.36752114875683220000e-001) (63, -7.67845155576379220000e-001) (64, 1.80522121735819070000e+000) (65, 1.36702484707378200000e+000) (66, 3.00064287242317860000e+000) (67, 8.89361719036035000000e-001) (68, 2.77270228832032120000e+000) (69, -6.66480021654030640000e-001) (70, -5.23914940745662250000e-001) (71, -2.28322523587914160000e-001) (72, 2.36464995619276630000e+000) (73, 5.97014572350721310000e-001) (74, -8.69230672060287920000e-001) (75, 3.18315496995359440000e-001) (76, 4.83615329303272000000e-001) (77, 1.04347787979043690000e+000) (78, -2.39956410220742930000e-001) (79, -7.16708298055753200000e-002) (80, 1.24023042546545310000e-001) (81, 2.98800231579647680000e+000) (82, 1.02858765826233940000e+000) (83, 2.84332645972869220000e+000) (84, 3.33722626968291580000e+000) (85, 2.92133458392913110000e+000) (86, 9.07808237065371060000e-001) (87, 1.45941957335093990000e+000) (88, -5.78110653431316510000e-001) (89, -3.32678503034395830000e-001) (0, -3.43325486319597530000e-001) (1, -3.44994546330073430000e-001) (2, 7.50418837095089280000e-001) (3, 7.43262670491533940000e-001) (4, 1.02101857650500900000e+000) (5, 1.72626294226009950000e-001) (6, 5.25861213824299620000e-001) (7, 9.08335044266410370000e-002) (8, 4.59839709933733630000e-001) (9, -5.79255734381408200000e-001) (10, 6.46286984228593990000e-001) (11, 6.58152266461636270000e-001) (12, 4.65141853123920980000e-001) (13, -4.63985704492907050000e-001) (14, 4.52267093723351550000e-001) (15, 7.43651009784374040000e-001) (16, 5.54150208642737780000e-001) (17, 1.22744242344939410000e+000) (18, -5.62427580417471650000e-001) (19, -2.05212097320228750000e-002) (20, 2.50747469030236370000e-001) (21, -6.05838465766514680000e-001) (22, -1.34981791963669360000e-001) (23, -2.89222194857573330000e-001) (24, 5.09342496654583640000e-001) (25, -1.82814022657538570000e-001) (26, 5.83036212482427320000e-001) (27, 7.21370852893545300000e-001) (28, 5.05796594842522970000e-002) (29, -2.31152991593342680000e-001) (30, -1.13000141765666420000e+000) (31, 1.00362258945049220000e+000) (32, -5.48742156787481510000e-001) (33, 3.31687457198487520000e-001) (34, 6.56897470915055460000e-002) (35, -1.42611632825799690000e-001) (36, -3.82423802504833650000e-001) (37, 1.01322597248460500000e-001) (38, 3.97186565502832600000e-001) (39, -3.84696915876525490000e-001) (40, -2.56776803639897190000e-001) (41, -1.03581559928590890000e-001) (42, 4.97925375696054550000e-001) (43, -6.35555142830767080000e-001) (44, 1.29796880141597880000e-001) (45, 6.27861177302550640000e-001) (46, -8.94513922492402250000e-001) (47, -2.27271076411496160000e-001) (48, -4.79276998586821660000e-001) (49, -4.99060236428860220000e-001) (50, 1.62858637366488920000e-001) (51, -3.12178804232386920000e-001) (52, 1.05031898580565430000e+000) (53, -4.79448754302124610000e-002) (54, -7.54039026666048380000e-001) (55, -3.24375212588230610000e+000) (56, -1.19993141227019340000e+000) (57, 5.12305656654220010000e-001) (58, -1.57493715322253000000e+000) (59, -1.07746761422460690000e+000) (60, 2.27331024471564360000e-001) (61, -1.68327238200184740000e+000) (62, -3.83032188549891960000e+000) (63, 1.92881485915059940000e-001) (64, 3.63061604343596620000e+000) (65, 1.05429126108147520000e+000) (66, 3.13579247993862610000e+000) (67, 2.29598611432794860000e-001) (68, 4.11632751988732790000e+000) (69, -8.84397770458693190000e-002) (70, -5.81082409138314550000e-001) (71, -2.28673321426090590000e-001) (72, 4.15916520548234380000e+000) (73, -2.05345247109486180000e+000) (74, -9.21898199643282790000e-001) (75, 2.07729067758650300000e+000) (76, -1.54271527407211840000e-001) (77, 7.51497845217061980000e-001) (78, -9.50359485589385540000e-001) (79, 7.13633290089249920000e-001) (80, 1.74899755344301200000e+000) (81, -8.31277262111419390000e-001) (82, 6.76278763451516500000e-001) (83, 6.64054852780545550000e-001) (84, 6.40482057506236660000e-001) (85, 2.85784935148585490000e+000) (86, -8.33829122073093560000e-001) (87, -1.36049373142801900000e+000) (88, 5.94144591436998830000e-001) (89, 7.68283612151881120000e-001) (90, -8.89805370813033100000e-002) (0, 1.12062533819209360000e+000) (1, 1.77227594326564280000e+000) (2, 2.67488067722711110000e-001) (3, 1.92556525122623620000e+000) (4, 1.28292385481180850000e+000) (5, 6.15173916611467920000e-001) (6, 2.11307605000656510000e+000) (7, 1.05368923827828230000e+000) (8, 1.83950524154048380000e+000) (9, -6.29225836425791190000e-002) (10, 6.25597247362233540000e-001) (11, 1.50803268145209460000e+000) (12, 1.34470762903325140000e+000) (13, 4.49295773388834140000e-001) (14, 3.33552205233591800000e-001) (15, 1.54577446356112100000e+000) (16, 1.54944710368013940000e+000) (17, 1.87253819511528090000e+000) (18, -7.18282885843175010000e-001) (19, 4.21132128677786100000e-001) (20, -3.56547766523209740000e-001) (21, 1.20266916088762140000e+000) (22, 1.92768997759062220000e+000) (23, 5.08976115207161790000e-001) (24, 1.53712604603445680000e-001) (25, 8.16783023064926340000e-001) (26, 5.31254319065435630000e-001) (27, 8.92148958494013210000e-001) (28, 1.80069596421172220000e+000) (29, 5.04734840494836300000e-001) (30, 2.24868642357295290000e+000) (31, -4.86667462504561780000e-001) (32, 1.58805978058504600000e+000) (33, 1.66783551153776850000e+000) (34, 1.36405769695318260000e-001) (35, -1.33106465302501030000e-001) (36, 5.41479901552005980000e-001) (37, 2.02101949391373960000e+000) (38, 9.03360354678148680000e-001) (39, 4.76907233504293930000e-001) (40, 9.81170328850974190000e-002) (41, 1.56394020510091210000e+000) (42, 6.74748942127564420000e-001) (43, 7.24180101286564400000e-001) (44, 3.85953333281838450000e-001) (45, 1.75674776044312360000e+000) (46, 1.36423661420629290000e+000) (47, 7.04469400708543910000e-001) (48, 1.69861057229513880000e+000) (49, 8.89865260310357400000e-001) (50, 7.40954376567637070000e-001) (51, 1.95101414799561220000e+000) (52, 8.67212471697455740000e-001) (53, 1.40842504804512080000e+000) (54, 2.39743966530393980000e+000) (55, -2.00939382385822070000e-001) (56, 2.91844748341320680000e-001) (57, 1.92324140522409160000e+000) (58, 3.26698658816961090000e-001) (59, 1.30606802193109870000e+000) (60, 2.13133853456943090000e+000) (61, 5.74510068901061130000e-002) (62, 1.30324392562666280000e+000) (63, 6.06489771831427160000e-001) (64, 2.09622475009245070000e+000) (65, 2.29435970680898630000e-001) (66, 9.62025801037946880000e-001) (67, 8.36209906268037150000e-001) (68, 2.37430336948555980000e+000) (69, 1.86230329959792430000e+000) (70, 6.05495277016857900000e-001) (71, 5.58523806511435290000e-001) (72, 6.83473186450130110000e-001) (73, 2.02268558511794040000e+000) (74, 7.15926503485995850000e-001) (75, 8.54646375650472520000e-001) (76, 2.18984678873167220000e+000) (77, 1.73425628414311750000e+000) (78, 1.82474410114653510000e+000) (79, 3.16320507973148810000e-001) (80, 1.26713097454737910000e+000) (81, 2.05118273280993390000e+000) (82, 2.83110487572328160000e-002) (83, 2.27101453378530720000e+000) (84, 2.24731403450390350000e+000) (85, 8.12123578495993930000e-001) (86, 1.22149903992106060000e+000) (87, 1.19717469885766790000e+000) (88, 1.20011285548937270000e+000) (89, 6.99238255356938180000e-001) (90, 2.01878848448610040000e+000) (91, 2.10332761572660940000e+000) (0, -5.10662893683880850000e-001) (1, -6.15185487795276150000e-001) (2, 4.58375065805209980000e-001) (3, -5.68323332264062290000e-001) (4, -1.25991671805627730000e-001) (5, 1.17876164868112740000e+000) (6, -1.95514072032188600000e-001) (7, 5.21287888920390570000e-001) (8, -9.24197624700118130000e-001) (9, 1.24440361919928520000e-001) (10, -6.41467711685199560000e-001) (11, 3.98211932499132280000e-001) (12, 2.96020955947822070000e-001) (13, 2.23574545817805360000e-001) (14, -4.66931876290563430000e-001) (15, -9.90409808728818010000e-001) (16, -3.90023599789902970000e-001) (17, 4.00548739459582530000e-001) (18, -6.50271663085005390000e-001) (19, 4.41635076400146260000e-001) (20, 8.35884032955013570000e-001) (21, -1.43324912075008280000e+000) (22, -6.13403469074125130000e-001) (23, -6.18018978104475860000e-002) (24, 2.50997885446512250000e-001) (25, 1.03277693922754190000e+000) (26, 2.45223281892054280000e-001) (27, -4.62435056929376860000e-001) (28, -4.35432744909186740000e-002) (29, -9.94182876674097770000e-001) (30, 6.84607322268941530000e-002) (31, -7.84476695098099030000e-001) (32, 1.11056369016229040000e+000) (33, 3.80517163074460650000e-001) (34, -3.12819335157622450000e-001) (35, -3.73265487504762460000e-001) (36, -8.94187683304510930000e-002) (37, -3.87089374397259490000e-001) (38, -2.21197262523284890000e-001) (39, 