FANN_FLO_2.1
num_layers=50
learning_rate=0.700000
connection_rate=1.000000
network_type=1
learning_momentum=0.000000
training_algorithm=2
train_error_function=1
train_stop_function=0
cascade_output_change_fraction=0.010000
quickprop_decay=-0.000100
quickprop_mu=1.750000
rprop_increase_factor=1.200000
rprop_decrease_factor=0.500000
rprop_delta_min=0.000000
rprop_delta_max=50.000000
rprop_delta_zero=0.100000
cascade_output_stagnation_epochs=12
cascade_candidate_change_fraction=0.010000
cascade_candidate_stagnation_epochs=12
cascade_max_out_epochs=150
cascade_max_cand_epochs=150
cascade_num_candidate_groups=2
bit_fail_limit=3.49999999999999980000e-001
cascade_candidate_limit=1.00000000000000000000e+003
cascade_weight_multiplier=4.00000000000000020000e-001
cascade_activation_functions_count=10
cascade_activation_functions=3 5 7 8 10 11 14 15 16 17 
cascade_activation_steepnesses_count=4
cascade_activation_steepnesses=2.50000000000000000000e-001 5.00000000000000000000e-001 7.50000000000000000000e-001 1.00000000000000000000e+000 
layer_sizes=56 1 1 1 1 1 1 1 1 1 1 1 1 1 1 1 1 1 1 1 1 1 1 1 1 1 1 1 1 1 1 1 1 1 1 1 1 1 1 1 1 1 1 1 1 1 1 1 1 1 
scale_included=0
neurons (num_inputs, activation_function, activation_steepness)=(0, 0, 0.00000000000000000000e+000) (0, 0, 0.00000000000000000000e+000) (0, 0, 0.00000000000000000000e+000) (0, 0, 0.00000000000000000000e+000) (0, 0, 0.00000000000000000000e+000) (0, 0, 0.00000000000000000000e+000) (0, 0, 0.00000000000000000000e+000) (0, 0, 0.00000000000000000000e+000) (0, 0, 0.00000000000000000000e+000) (0, 0, 0.00000000000000000000e+000) (0, 0, 0.00000000000000000000e+000) (0, 0, 0.00000000000000000000e+000) (0, 0, 0.00000000000000000000e+000) (0, 0, 0.00000000000000000000e+000) (0, 0, 0.00000000000000000000e+000) (0, 0, 0.00000000000000000000e+000) (0, 0, 0.00000000000000000000e+000) (0, 0, 0.00000000000000000000e+000) (0, 0, 0.00000000000000000000e+000) (0, 0, 0.00000000000000000000e+000) (0, 0, 0.00000000000000000000e+000) (0, 0, 0.00000000000000000000e+000) (0, 0, 0.00000000000000000000e+000) (0, 0, 0.00000000000000000000e+000) (0, 0, 0.00000000000000000000e+000) (0, 0, 0.00000000000000000000e+000) (0, 0, 0.00000000000000000000e+000) (0, 0, 0.00000000000000000000e+000) (0, 0, 0.00000000000000000000e+000) (0, 0, 0.00000000000000000000e+000) (0, 0, 0.00000000000000000000e+000) (0, 0, 0.00000000000000000000e+000) (0, 0, 0.00000000000000000000e+000) (0, 0, 0.00000000000000000000e+000) (0, 0, 0.00000000000000000000e+000) (0, 0, 0.00000000000000000000e+000) (0, 0, 0.00000000000000000000e+000) (0, 0, 0.00000000000000000000e+000) (0, 0, 0.00000000000000000000e+000) (0, 0, 0.00000000000000000000e+000) (0, 0, 0.00000000000000000000e+000) (0, 0, 0.00000000000000000000e+000) (0, 0, 0.00000000000000000000e+000) (0, 0, 0.00000000000000000000e+000) (0, 0, 0.00000000000000000000e+000) (0, 0, 0.00000000000000000000e+000) (0, 0, 0.00000000000000000000e+000) (0, 0, 0.00000000000000000000e+000) (0, 0, 0.00000000000000000000e+000) (0, 0, 0.00000000000000000000e+000) (0, 0, 0.00000000000000000000e+000) (0, 0, 0.00000000000000000000e+000) (0, 0, 0.00000000000000000000e+000) (0, 0, 0.00000000000000000000e+000) (0, 0, 0.00000000000000000000e+000) (0, 0, 0.00000000000000000000e+000) (56, 8, 7.50000000000000000000e-001) (57, 8, 5.00000000000000000000e-001) (58, 8, 2.50000000000000000000e-001) (59, 8, 1.00000000000000000000e+000) (60, 11, 7.50000000000000000000e-001) (61, 17, 1.00000000000000000000e+000) (62, 5, 2.50000000000000000000e-001) (63, 5, 5.00000000000000000000e-001) (64, 8, 1.00000000000000000000e+000) (65, 7, 7.50000000000000000000e-001) (66, 7, 7.50000000000000000000e-001) (67, 7, 1.00000000000000000000e+000) (68, 7, 7.50000000000000000000e-001) (69, 7, 7.50000000000000000000e-001) (70, 7, 7.50000000000000000000e-001) (71, 7, 7.50000000000000000000e-001) (72, 7, 5.00000000000000000000e-001) (73, 7, 1.00000000000000000000e+000) (74, 7, 1.00000000000000000000e+000) (75, 7, 5.00000000000000000000e-001) (76, 11, 2.50000000000000000000e-001) (77, 7, 7.50000000000000000000e-001) (78, 7, 7.50000000000000000000e-001) (79, 7, 1.00000000000000000000e+000) (80, 7, 1.00000000000000000000e+000) (81, 7, 1.00000000000000000000e+000) (82, 7, 7.50000000000000000000e-001) (83, 7, 5.00000000000000000000e-001) (84, 7, 1.00000000000000000000e+000) (85, 7, 7.50000000000000000000e-001) (86, 7, 1.00000000000000000000e+000) (87, 7, 1.00000000000000000000e+000) (88, 17, 1.00000000000000000000e+000) (89, 7, 7.50000000000000000000e-001) (90, 8, 7.50000000000000000000e-001) (91, 7, 7.50000000000000000000e-001) (92, 16, 5.00000000000000000000e-001) (93, 11, 2.50000000000000000000e-001) (94, 7, 5.00000000000000000000e-001) (95, 8, 1.00000000000000000000e+000) (96, 7, 7.50000000000000000000e-001) (97, 8, 7.50000000000000000000e-001) (98, 7, 7.50000000000000000000e-001) (99, 16, 5.00000000000000000000e-001) (100, 11, 2.50000000000000000000e-001) (101, 8, 1.00000000000000000000e+000) (102, 11, 5.00000000000000000000e-001) (103, 7, 7.50000000000000000000e-001) (104, 11, 5.00000000000000000000e-001) 
connections (connected_to_neuron, weight)=(0, -4.00209380334535170000e-002) (1, 1.53642589541573730000e+000) (2, 1.56826222339600970000e+000) (3, 3.52478338297947220000e-001) (4, 4.61179081407230710000e-002) (5, 1.96891483094964830000e+000) (6, 8.90845804600534640000e-001) (7, 1.71651703421832870000e+000) (8, 2.81953291743553160000e-001) (9, 1.00651514786942120000e+000) (10, -3.91812983559650110000e-003) (11, 1.57059868213367660000e+000) (12, 1.86743009708071340000e+000) (13, 6.12670355947860920000e+000) (14, -1.49432069067597670000e-002) (15, 2.00876776487125400000e-001) (16, 3.34326332045667920000e-001) (17, -1.74647705097458920000e-001) (18, 2.12454255544819950000e-001) (19, -4.20130704637674990000e-001) (20, -2.21862598564341400000e-001) (21, 2.73392497648708150000e-001) (22, 1.24495995510553260000e+000) (23, 9.06483096426659170000e-002) (24, 5.39982198104559520000e-002) (25, 1.24164553060340110000e+000) (26, 1.57443175686983140000e+000) (27, -6.68428363146969850000e-001) (28, 1.15098480043270990000e+000) (29, 5.60927222627142900000e-001) (30, 1.34010502992519420000e+000) (31, -2.54903328439010590000e-001) (32, 5.34582134345104600000e-001) (33, 6.12273983667787290000e-001) (34, 2.77615582594261780000e-001) (35, 1.49612693712573640000e+000) (36, 8.94533366080054290000e-001) (37, 5.57740987030943320000e-001) (38, 1.58214892645788100000e+000) (39, 1.05433292885732550000e+000) (40, 3.31690171705734230000e-001) (41, 1.85709351895798650000e+000) (42, 8.46517507927050490000e-001) (43, 1.18319425639652360000e+000) (44, 1.40950107381780130000e+000) (45, 6.63807305632648670000e-001) (46, 1.08546924126049720000e+000) (47, 3.85030837146247030000e-001) (48, 3.90230325263386580000e-001) (49, 1.56155878597120030000e+000) (50, 1.83610359540740510000e+001) (51, 7.29541742833820780000e-001) (52, -4.52305092281833510000e+000) (53, 1.77916866333595000000e+000) (54, 9.86382447801697480000e-001) (55, -8.81861577965760810000e-001) (0, -2.06871580535689770000e-001) (1, 9.14311771125930760000e-001) (2, 1.09106926897235250000e+000) (3, 1.39449456427988630000e+000) (4, 7.64042251268101320000e-001) (5, 2.85274784841954180000e-001) (6, 6.12790176315165520000e-001) (7, 6.35880221050165060000e-001) (8, 1.48132787080991110000e+000) (9, 1.62005236830024080000e+000) (10, 1.74443051076834780000e+000) (11, 5.84811810634385370000e-001) (12, 3.27132682527155490000e-001) (13, -1.85139084091247740000e+001) (14, 1.45667038399698990000e-001) (15, 1.26200165577904200000e-001) (16, 1.70230915777358080000e-001) (17, 4.63249340516953490000e-001) (18, 4.82482259956013570000e-001) (19, 1.41455467832229620000e-001) (20, 1.72746552626780140000e+000) (21, 5.85283953345457460000e-001) (22, 7.91605261141786090000e-001) (23, 2.48906505916761080000e-001) (24, 2.63994898290164360000e+000) (25, 5.17859993165989740000e-001) (26, 4.81585963489709890000e-001) (27, 1.69996726605305540000e+000) (28, 1.04513395952302050000e+000) (29, 1.68544753820190920000e+000) (30, 1.41592601230957270000e+000) (31, 1.09934053084523440000e+000) (32, 1.22131922876738970000e+000) (33, 1.56431298785119990000e+000) (34, 2.99035923536092710000e-001) (35, 3.79278941012807030000e-002) (36, 1.20027921715975490000e+000) (37, 2.29509132993440050000e+000) (38, 3.29773299345253850000e-001) (39, 1.72579986041106310000e+000) (40, 1.48878195696036090000e+000) (41, 1.26915737996038080000e+000) (42, 1.21047322627148350000e+000) (43, 1.03436772180923910000e+000) (44, 1.15282702046300000000e+000) (45, 1.71763237118299150000e+000) (46, 1.31803949594192240000e+000) (47, 1.22383702619859980000e+000) (48, -7.95924914915733110000e-002) (49, 8.60353050702689970000e-001) (50, -1.97269954934204680000e+001) (51, 3.95727310104268480000e-001) (52, -2.09296482792424900000e+000) (53, -2.40490356283459630000e-001) (54, -4.46780906631871700000e-001) (55, -2.72962841809055890000e-001) (56, 2.27135231313208590000e+000) (0, -6.62979755428264370000e-001) (1, 1.01541604744142800000e+000) (2, 1.28447326473052130000e+000) (3, 1.64741953237553050000e+000) (4, 1.76786890445527780000e+000) (5, 8.65138356697529810000e-001) (6, 1.60726974168228140000e+000) (7, 1.09509698798519480000e+000) (8, 9.18660619638282270000e-001) (9, 9.91227190490642010000e-001) (10, 1.68112736532870040000e+000) (11, 1.16754566650617740000e+000) (12, 4.97176919381641520000e-002) (13, 2.52439593030414580000e-001) (14, 1.66158640767407300000e+000) (15, 1.15380600396037720000e+000) (16, 1.72421577835068310000e+000) (17, 8.85252235942100010000e-002) (18, 6.66372213634931150000e-001) (19, 1.92336168734612120000e+000) (20, 1.33347614772689040000e+000) (21, 3.61362558128448470000e-001) (22, 8.99873629936062900000e-001) (23, 8.34750827079280390000e-001) (24, -8.97731714473351870000e-001) (25, 8.21817480252773460000e-001) (26, 9.99253447610574330000e-001) (27, 1.93199771936962050000e+000) (28, 1.35709581201092240000e+000) (29, 1.49139562754381490000e+000) (30, 8.24218090775391880000e-001) (31, 2.44986347612801520000e-001) (32, 6.13608820087571560000e-001) (33, 1.60356868888992680000e+000) (34, 1.52678188374803450000e+000) (35, 1.16147446611531400000e+000) (36, 5.56067128737902650000e-001) (37, 1.13792846536619630000e+000) (38, 5.98823303946298010000e-001) (39, 1.65101796404870440000e+000) (40, 4.95863544695654080000e-001) (41, 2.65994530556960600000e-001) (42, -2.22400681159753460000e-002) (43, 1.03849135087529820000e+000) (44, 7.85157925776908570000e-001) (45, 1.46609590137104200000e+000) (46, 5.30649083077329500000e-001) (47, 4.27018648944193060000e-001) (48, 9.81427480916651660000e-001) (49, 3.40169567600420770000e-001) (50, 9.21252208107018690000e-001) (51, 1.81989659932896420000e+000) (52, -4.29851099031014710000e+000) (53, 3.22483886211035300000e-001) (54, 8.25758141774352030000e-001) (55, 1.22946577902639210000e+000) (56, 5.09432732147481190000e-001) (57, 1.99141648402211650000e+000) (0, 1.59594071955008520000e+000) (1, 6.90923199905687510000e-001) (2, 1.58226256554197040000e+000) (3, 3.70714514425803720000e-001) (4, 1.58556723744959930000e+000) (5, 3.14984920813078330000e-001) (6, 4.60452547664776830000e-001) (7, 1.66771827134335070000e+000) (8, 1.82231893013204570000e+000) (9, 1.61815402152251810000e+000) (10, 3.07771052583195540000e-001) (11, 1.89115357905468160000e-001) (12, 3.63491965807117790000e-001) (13, 1.69068057557480110000e+000) (14, 1.36896462499544610000e+000) (15, 1.15851867594438260000e+000) (16, 1.38930027078140880000e+000) (17, 8.46510194613149360000e-001) (18, 2.53114188176370050000e-001) (19, 3.81724574452860180000e-001) (20, 2.30989182630520060000e+000) (21, 3.24363693672132250000e-001) (22, 6.00950328197008550000e-001) (23, 1.82876563672638400000e+000) (24, 1.60748151302208030000e+000) (25, 1.12734771019214810000e+000) (26, 5.06378476445279780000e-001) (27, 1.18053893804467960000e+000) (28, 8.17815577128782280000e-001) (29, 1.56338040183572180000e+000) (30, 1.57144634811661370000e+000) (31, 1.48066536294113400000e-001) (32, 4.98760675506223440000e-001) (33, 2.70155678842006530000e-001) (34, 7.71445546080086200000e-001) (35, 1.25815914948861200000e+000) (36, 4.93465970983454350000e-001) (37, 1.37124654079937170000e+000) (38, 7.79293085721751710000e-001) (39, 8.25490475115732260000e-001) (40, 1.86932477027592720000e+000) (41, 1.04458930872761300000e+000) (42, 4.24561091684229010000e-001) (43, 1.11666580250721780000e+000) (44, 2.77307358552666190000e-001) (45, 7.90860150297253430000e-001) (46, 1.17492776463048520000e+000) (47, 1.41684110440845120000e+000) (48, 4.64112989910138220000e-001) (49, 1.29600881155791450000e+000) (50, 1.77873951879474970000e+000) (51, 1.59732086758277040000e+000) (52, -2.34706530797611810000e+000) (53, 5.38188196693686340000e-001) (54, 9.63611176310298020000e-001) (55, -1.48760281699969310000e+000) (56, 1.49702496114165440000e+000) (57, 3.73121743214689330000e-001) (58, 1.28562422454148020000e+000) (0, -6.48589493190893760000e-001) (1, -6.99570468715813190000e-001) (2, 9.68668093160724000000e-001) (3, 1.12196821198290910000e+000) (4, 2.02394643127496830000e-001) (5, 1.14362871921714190000e+000) (6, -1.20052420739505760000e-001) (7, -3.05066102040421450000e-001) (8, 8.59589714235205030000e-001) (9, 4.27121014711025930000e-001) (10, -7.45221722683871660000e-001) (11, 5.26636405508413620000e-001) (12, 1.04103760265372490000e+000) (13, 6.10966564811389780000e-001) (14, 2.26746764527212370000e-001) (15, 3.70049632764000210000e-001) (16, 3.28731721922378820000e-001) (17, -7.52053492054131300000e-001) (18, 3.39231209897168370000e-001) (19, 1.73819900635529060000e+000) (20, 2.03517629045303310000e+000) (21, 4.81643669875734650000e-001) (22, 4.91803168804175240000e-001) (23, -4.04133309481249980000e-001) (24, 2.32598624061526870000e-001) (25, 8.64821587237162960000e-001) (26, -2.93922062854202640000e-001) (27, 1.14465931037668160000e+000) (28, -3.15249464131368950000e-001) (29, 7.42235404595741220000e-001) (30, 3.52059891052541820000e-001) (31, -5.75869502551622730000e-001) (32, 9.49879887424919690000e-001) (33, 4.54266896015412480000e-001) (34, 1.17270598133840460000e+000) (35, 1.66686672174186360000e+000) (36, -6.32374408179917640000e-002) (37, 1.03310314956269260000e+000) (38, 1.21051002773879790000e+000) (39, 9.13673094017406900000e-002) (40, 1.21999740413901200000e+000) (41, -4.65977427289311070000e-001) (42, -4.11332075474807320000e-002) (43, -2.52428055014882580000e-001) (44, 7.93027249075982540000e-001) (45, 9.64678484275515950000e-001) (46, 1.03067897740243700000e+000) (47, -8.09536299713889630000e-001) (48, -7.54650364559146140000e-001) (49, 1.56884090518555450000e-002) (50, 1.02663854470345740000e+000) (51, -7.00631971443493100000e-001) (52, -1.79920376059863420000e+000) (53, -4.26074483130092220000e-001) (54, -3.12341597446959610000e-001) (55, -9.12183220936406580000e-001) (56, 5.62703835462984300000e-001) (57, 1.60017170798906780000e+000) (58, -6.35996421787913680000e-002) (59, 8.70842462550628030000e-001) (0, 4.15663706966530600000e-001) (1, 1.61848467787993470000e+000) (2, 9.19764032254790310000e-001) (3, 1.41148209970942350000e-002) (4, 9.54158153517966510000e-001) (5, -1.12498146348769330000e-001) (6, 1.37446809806195410000e+000) (7, 6.48495279851233010000e-001) (8, 9.66562590694849730000e-001) (9, 1.16428180145365510000e+000) (10, 1.16020963773397150000e+000) (11, 1.20167453850469320000e-002) (12, 1.32052759094429530000e+000) (13, 8.39366018340957780000e-002) (14, -5.36083940948793300000e-002) (15, 1.70393746732068570000e+000) (16, 1.42844077661639850000e+000) (17, 2.66084204993420840000e-001) (18, 2.86702993279826790000e-001) (19, -1.36629058613337360000e-002) (20, 7.43622314953894190000e-001) (21, 3.28238741832889810000e-001) (22, 6.65914369755638450000e-001) (23, 1.14909648631435200000e+000) (24, 1.30549493631035500000e+000) (25, 4.44750830291887220000e-001) (26, 1.22251357785770940000e+000) (27, 1.37713669888686960000e+000) (28, 6.46866414363359450000e-001) (29, 1.00021164984819740000e+000) (30, 5.38032757040977970000e-001) (31, 1.03359667038810790000e+000) (32, 1.67662264606249840000e+000) (33, 4.54534989449059180000e-001) (34, 1.49986243751394630000e-002) (35, -6.91928997361983320000e-001) (36, 4.49335149622385910000e-001) (37, 1.02060644344360210000e-001) (38, 1.57726185130221160000e+000) (39, 1.53633414900725210000e-001) (40, -4.25500562786421880000e-002) (41, 1.67562026730073010000e+000) (42, 1.17359833459233340000e-001) (43, 7.62265269311939720000e-001) (44, -2.55417887653657670000e-002) (45, -9.35782472203918890000e-002) (46, 1.29715963606057080000e+000) (47, 5.97060719637995010000e-001) (48, 3.49442496065314690000e-001) (49, 6.62152690480326660000e-001) (50, 8.23274110204657020000e-001) (51, 1.03560142791164460000e+000) (52, -8.76579127311197360000e-001) (53, 1.86447838639312160000e-002) (54, -4.29893892059376280000e-001) (55, 1.19980359882382070000e+000) (56, 1.54576749519871300000e+000) (57, 1.43266086419591400000e-001) (58, 1.67935755005567300000e+000) (59, 1.43052265310504520000e-001) (60, 2.55971048445919280000e-001) (0, 1.95394820501966020000e-001) (1, -4.24245012572131450000e-004) (2, 8.20252242930701980000e-001) (3, 5.93392961145265070000e-001) (4, 9.44644759667109150000e-001) (5, 1.30795886284217940000e+000) (6, -1.74259645926530570000e-001) (7, 1.07726728634920680000e+000) (8, 4.65984868245551460000e-001) (9, 8.74344140360018280000e-001) (10, 1.52834722077718710000e+000) (11, 1.14598931048350080000e-001) (12, -2.24582073151713330000e-001) (13, -7.18779853656490030000e-002) (14, 4.56875315252228690000e-001) (15, 5.90251735975153790000e-001) (16, 5.62187476046339010000e-001) (17, 3.83505406087846390000e-001) (18, 2.06045858052633700000e-001) (19, -1.69624898004097970000e-001) (20, 1.48229043659583050000e+000) (21, 1.53293241820440300000e-001) (22, 4.58371680253993110000e-001) (23, 5.99829538404528790000e-001) (24, 3.48214552797326940000e-001) (25, 5.54948262719103690000e-001) (26, 9.31172548367766580000e-002) (27, 5.49241914375304900000e-001) (28, 7.79971055959485130000e-001) (29, 1.64928138515275300000e-001) (30, -1.55562686570089370000e-001) (31, 1.13829162084971980000e+000) (32, 3.97066388013309790000e-001) (33, 1.54392769762093910000e+000) (34, -2.58320540905519090000e-001) (35, -5.24570786324151440000e-001) (36, 1.23150144220167080000e+000) (37, 1.55558355322172370000e+000) (38, 4.83261606681163410000e-001) (39, 6.89011855323452550000e-001) (40, 1.56532732035090080000e+000) (41, 3.87894010516584730000e-001) (42, -3.18253407724431840000e-001) (43, 7.85258994535662280000e-001) (44, 9.45021706687522500000e-001) (45, 1.01979695533055750000e-001) (46, 1.37304504836688520000e+000) (47, 1.17609023020090770000e+000) (48, 2.55057399848851230000e-001) (49, 1.36484437495264220000e-002) (50, 1.34286700674907090000e+000) (51, 4.39298543893991770000e-002) (52, 1.04005265619636340000e+000) (53, -7.46656065959988430000e-002) (54, 1.30581735880453520000e+000) (55, -1.09294235917727690000e+000) (56, 1.28041527631007930000e+000) (57, 1.26852397600202120000e-001) (58, 2.34913812926968160000e+000) (59, -2.86056349266849420000e-002) (60, 4.14547097919814980000e-001) (61, 2.93514829274084400000e-001) (0, -5.09977414371881270000e-001) (1, 6.76525348312585590000e-001) (2, 3.82043874716052170000e-001) (3, 7.71054153245946840000e-001) (4, 7.76281262379503790000e-001) (5, 1.27336044781522780000e+000) (6, 1.63233059313178950000e+000) (7, 3.15980772534109500000e-001) (8, 3.99803450326450480000e-001) (9, 1.76344916200004940000e+000) (10, 1.10080286918937190000e+000) (11, -3.07088151795172240000e-002) (12, 5.12658625836499020000e-001) (13, 1.80053473598427290000e+000) (14, 1.25490812280158700000e+000) (15, -2.42312269260858860000e-001) (16, 3.61175592062845330000e-001) (17, 9.00698634175541720000e-003) (18, 3.36199208860129160000e-001) (19, 8.64622366439386060000e-001) (20, 2.22438120444037990000e+000) (21, 1.82084984775631180000e-001) (22, 1.13945914535824060000e+000) (23, 6.31444478275431820000e-001) (24, 1.27535007512110550000e-001) (25, 1.19852523627951560000e+000) (26, 7.94438466399770890000e-001) (27, 2.16540558757029180000e-001) (28, 1.23949353917203430000e+000) (29, 7.50776359127046770000e-001) (30, 2.82268024598887390000e-001) (31, -1.62226523702967310000e-001) (32, 8.94930341989398910000e-001) (33, 1.66885737984821160000e+000) (34, 6.47682652480869200000e-001) (35, 5.82690163013028560000e-001) (36, 1.15678961641506020000e+000) (37, 8.93005289922578990000e-001) (38, 1.74178499884410250000e+000) (39, 1.13921897246009160000e+000) (40, 1.66702546120295000000e-001) (41, 3.34118211455367350000e-001) (42, 1.08965590151901550000e+000) (43, 5.50256025267023110000e-001) (44, 1.15760832025525580000e+000) (45, 1.20622673291918310000e+000) (46, -3.45504255065892040000e-002) (47, 6.43462308612375970000e-001) (48, 8.80296803965375020000e-001) (49, 1.00598685344172430000e-001) (50, 1.09493798017256120000e+000) (51, -9.37490108745835660000e-002) (52, -1.54844147866368580000e+000) (53, 1.13606216393012690000e+000) (54, 1.45844173280878810000e-001) (55, -1.64141415493677640000e+000) (56, 6.42549087198397430000e-001) (57, 1.08445075779790610000e+000) (58, 3.17060882685021250000e-001) (59, 5.58859648480985790000e-001) (60, 2.20312349969109360000e+000) (61, 1.69350777280034230000e+000) (62, 1.18536261315001390000e+000) (0, 1.69112104381114760000e-001) (1, 9.16215070463592630000e-001) (2, 1.97630038326620630000e+000) (3, 1.36216609574178430000e+000) (4, 9.88298991376150630000e-001) (5, 1.62528098738978580000e+000) (6, 2.02225692129861970000e+000) (7, 6.52658393197568580000e-001) (8, 5.50479690972067390000e-001) (9, 1.88108461316857880000e+000) (10, 1.73169796204581080000e+000) (11, 1.94025074270750180000e+000) (12, 1.95699887429357470000e+000) (13, -3.14323837299360650000e-003) (14, 8.40354168626006200000e-001) (15, 8.79168190780844520000e-001) (16, 6.45548857981445790000e-001) (17, 1.54429716107129860000e+000) (18, 3.19469472538037480000e-001) (19, 1.60762163043537230000e+000) (20, 2.06899582960272350000e+000) (21, 6.25760828975036380000e-001) (22, 1.14520498486050370000e+000) (23, -2.11564378894840870000e-001) (24, 7.52376080463276310000e-001) (25, 6.64394603185927800000e-001) (26, 8.69905657460238730000e-001) (27, 1.19718365590768580000e+000) (28, 1.27773297086094680000e+000) (29, 3.71713099070665350000e-001) (30, 1.90035920426960710000e+000) (31, 1.65766835297929060000e+000) (32, 9.29721087928853440000e-001) (33, 6.96963179462115720000e-001) (34, 1.50729147408205710000e+000) (35, 1.28923871547235570000e+000) (36, 2.13946608748062330000e+000) (37, 1.52447999233122290000e+000) (38, 8.64336816461516060000e-001) (39, 5.99443948583355920000e-001) (40, 1.20776201339072010000e+000) (41, 1.72752280184643300000e+000) (42, 1.35629665824519900000e+000) (43, 1.24389377457403310000e+000) (44, 2.17618765306390480000e+000) (45, 1.67286760967392900000e+000) (46, 1.64611777661172830000e+000) (47, 1.68714072685667940000e+000) (48, 2.16588952562902470000e+000) (49, 2.47604093702036450000e-001) (50, 1.22098159693634620000e+000) (51, 1.99972585477946960000e+000) (52, -2.59420250398129550000e+000) (53, 1.23138671904904110000e+000) (54, 5.23860956500589730000e-001) (55, -1.70925374521327480000e+000) (56, 7.62805814236073080000e-001) (57, 1.27321513785920250000e+000) (58, 1.83110752558862600000e+000) (59, 5.00560046644410620000e-003) (60, 1.59676427145314580000e+000) (61, 2.41298878593787960000e+000) (62, 5.02174467269493110000e-001) (63, 1.54682569261398960000e+000) (0, 2.30654825344123180000e-001) (1, 2.00025978892959080000e+000) (2, 1.53726596996862260000e+000) (3, 1.77097604301966550000e+000) (4, 1.49515262888312630000e+000) (5, 8.43407573975902380000e-001) (6, 5.94395055665565050000e-001) (7, 1.97958251785608060000e+000) (8, 3.64478977306909200000e-001) (9, 1.83673861768770790000e+000) (10, -2.60495430294653620000e-002) (11, 9.10308347051660860000e-001) (12, 1.99166006762684610000e+000) (13, 1.73347872880990670000e+000) (14, 3.43991405968019080000e-001) (15, 2.01954592861589080000e+000) (16, 1.38304008572308870000e+000) (17, 4.24487326691497860000e-001) (18, 6.81151067631482480000e-001) (19, 1.03279114237088980000e+000) (20, 1.27813613247858650000e+000) (21, 2.62561995253943750000e-001) (22, 5.82754532797211460000e-001) (23, 1.07024023201827560000e+000) (24, 1.96405012434162560000e-001) (25, 1.75700149590270650000e+000) (26, 8.80841654940788030000e-001) (27, 1.51647724108786690000e+000) (28, 1.17563504253926280000e+000) (29, 1.48522500943804680000e+000) (30, 6.39945976698541720000e-002) (31, 1.22358882687741730000e-001) (32, 1.63989352639769260000e+000) (33, 9.52168755157664750000e-001) (34, 8.52766094217123790000e-001) (35, 1.09747875187608930000e+000) (36, 4.62364040370495330000e-001) (37, 1.22008801368506450000e+000) (38, 1.83427252113765630000e+000) (39, 2.48193039985245940000e-001) (40, 1.30981598816001840000e+000) (41, 3.83322484279098260000e-001) (42, 1.12580724557924610000e+000) (43, 1.19386920178705210000e-001) (44, 6.76661507245491120000e-001) (45, 1.75194283631285710000e+000) (46, 1.09317889122471730000e+000) (47, 1.27541710294904240000e+000) (48, 1.85653062333299370000e+000) (49, 1.68835317669483260000e-001) (50, 2.00032302217446390000e+000) (51, 1.92615042593829620000e+000) (52, 1.81928624210272740000e+000) (53, 1.95346718772348300000e+000) (54, 4.54270185026736270000e-001) (55, 1.59866545074041990000e+000) (56, 9.94766902629776520000e-001) (57, 3.16990810407197840000e-001) (58, 1.72454178171042670000e+000) (59, 1.10538290748522900000e+000) (60, 3.86737079502246620000e-001) (61, 1.10917690217761610000e+000) (62, 9.84333417225712100000e-001) (63, 5.58225639598141750000e-001) (64, 2.30369507150331330000e+000) (0, 1.83299817865035510000e+000) (1, 3.89373880059370130000e-001) (2, 1.89110789043982970000e+000) (3, 1.41096853669072030000e+000) (4, 1.31158349104001410000e+000) (5, 5.68697694104717040000e-001) (6, 1.10755593715797170000e+000) (7, 1.35662030904999000000e+000) (8, 1.50997352480547730000e+000) (9, 6.49586606339230600000e-001) (10, 6.40401882553792490000e-001) (11, 2.17083023689841560000e+000) (12, 4.60254610513889050000e-001) (13, 7.27181686595518070000e-001) (14, 2.15100390210640090000e+000) (15, 2.36909358481856240000e+000) (16, 1.45720887023120180000e+000) (17, 1.65667573368185430000e+000) (18, 9.50718860656284190000e-001) (19, 5.93084719328121680000e-001) (20, 1.92030897778525710000e+000) (21, 1.05016724922964830000e+000) (22, 2.87220216778068240000e+000) (23, 1.61480606180478810000e+000) (24, 5.47857872550171040000e-001) (25, 2.16905663506398620000e+000) (26, 1.82029050290796900000e+000) (27, 1.41014507869616380000e+000) (28, 8.43225920905329220000e-001) (29, 4.92052757688302370000e-001) (30, 2.01247293025293050000e+000) (31, 1.70057237908398260000e+000) (32, 9.58890097679191200000e-001) (33, 9.50275460197676840000e-001) (34, 1.45290155149044460000e+000) (35, 1.61860663716427980000e+000) (36, 2.35509479891110150000e+000) (37, 1.55190653960520160000e+000) (38, 2.06441412683264950000e+000) (39, 2.36605312453096910000e+000) (40, 2.31138818227694780000e+000) (41, 5.39496606759289450000e-001) (42, 4.77103827940968620000e-001) (43, 1.57920733927088320000e+000) (44, 7.12042728080209740000e-001) (45, 2.23816376368407570000e+000) (46, 1.87843930590819100000e+000) (47, 8.16748579234204190000e-001) (48, 6.73656916949344260000e-001) (49, 1.94057871303587910000e+000) (50, 1.27275427945054130000e+000) (51, 8.08640685133955370000e-001) (52, 2.30150668634226950000e+000) (53, 1.78475512329672230000e+000) (54, 4.52590116872247590000e-001) (55, 8.58618251111270330000e-001) (56, 2.19727433254302040000e+000) (57, 3.80920426091206800000e-001) (58, 1.89448915328114990000e+000) (59, 1.06781107939666060000e+000) (60, 4.49385306417931950000e-001) (61, 7.21886559693481810000e-001) (62, 2.98766131251626010000e+000) (63, 4.13659898038710620000e-001) (64, 1.14558577869332430000e+000) (65, 1.69983794261333650000e+000) (0, 1.24582549484835510000e+000) (1, 7.48850386870256070000e-001) (2, 1.97685710508485760000e+000) (3, 1.89806064176482600000e+000) (4, 1.02616064546273520000e+000) (5, 1.75207782203906670000e+000) (6, 1.13731314444558220000e+000) (7, 1.25595194187590380000e+000) (8, 3.06270573568692810000e-001) (9, 4.20404903289093080000e-001) (10, 2.88515682441597850000e-003) (11, 3.34756573593406380000e-001) (12, 3.41862212797789280000e-001) (13, 1.55051875282188400000e+000) (14, 1.27022666349185150000e+000) (15, 1.11117454308660220000e+000) (16, 1.38353623151888590000e+000) (17, 1.43981035628931120000e+000) (18, 9.92726075277826080000e-001) (19, 1.34064862346386060000e+000) (20, 1.48498191980288820000e+000) (21, 1.82332454370444160000e+000) (22, 1.07957982590997090000e+000) (23, -6.23979033658518810000e-002) (24, 1.41088025381432370000e+000) (25, 6.06801045989780130000e-001) (26, -6.20172441227599260000e-002) (27, 1.40136377273702520000e+000) (28, -6.53162908962234140000e-002) (29, 1.03669221785494560000e+000) (30, 5.62517687376751010000e-001) (31, 1.16269042731837820000e+000) (32, 6.38586092787957190000e-001) (33, 9.14500600822432340000e-001) (34, 1.57532504683004220000e+000) (35, 1.28951339847517650000e+000) (36, 3.97628791910758620000e-001) (37, 1.41785900660434260000e+000) (38, 1.26472524414932790000e-001) (39, 1.00604914878604410000e+000) (40, 1.45065914471743150000e+000) (41, 1.29274900204145800000e+000) (42, 1.26235970580128480000e+000) (43, 1.07038056086858240000e+000) (44, 6.06927932404144110000e-001) (45, 1.42750237409600510000e+000) (46, 3.05065152632234990000e-001) (47, 1.80537011607193840000e+000) (48, 1.64955359923297060000e+000) (49, 1.24696114613837060000e-001) (50, 1.45421196431962300000e+000) (51, 5.65055415664030610000e-001) (52, 3.28095036839297420000e-001) (53, -7.47693287663399460000e-002) (54, 1.73361584874910760000e+000) (55, 1.39888948765692760000e+000) (56, 1.03832417139944400000e+000) (57, 6.19507827108488340000e-002) (58, 1.98045579805199770000e+000) (59, 1.11231652081587810000e+000) (60, 2.30582827400578620000e-001) (61, 1.63527887761702280000e+000) (62, 1.79221980234303290000e+000) (63, 1.37194426428689150000e-001) (64, 1.27953524510537050000e+000) (65, 1.66655637875774400000e+000) (66, 1.74122903361094640000e+000) (0, 2.39001631156436200000e+000) (1, 1.80948399068427350000e+000) (2, 4.81399248404958120000e-001) (3, 1.68482713452238200000e+000) (4, 6.90812601060205370000e-001) (5, 1.55229186339409160000e+000) (6, 1.67682164834684770000e+000) (7, 1.01115911929071300000e+000) (8, 2.24070013888547680000e+000) (9, 5.80641862739756930000e-001) (10, 1.33620727225923290000e+000) (11, 9.54803038039134580000e-001) (12, 7.03710328787455100000e-001) (13, 2.23047090655007190000e+000) (14, 3.62524132258730310000e-001) (15, 4.26250343640166170000e-001) (16, 1.77657254751818790000e+000) (17, 1.90377082786278870000e+000) (18, 1.09642390062060980000e+000) (19, 7.40751586250443240000e-001) (20, 4.45565167428756900000e-001) (21, 2.23269465270994250000e+000) (22, 1.02501738303119390000e+000) (23, 1.04673905784864310000e+000) (24, 2.24679955692397910000e+000) (25, 1.60617005606752890000e+000) (26, 1.39027607174637340000e+000) (27, 1.76126046681736440000e+000) (28, 1.77047312947968560000e+000) (29, 6.24163751868653800000e-001) (30, 1.71691261482908700000e+000) (31, 7.22389796530368500000e-001) (32, 1.74988759359974020000e+000) (33, 1.30196158139722500000e+000) (34, 1.32019629990816420000e+000) (35, 1.12196521365683830000e+000) (36, 9.75070895896241300000e-001) (37, 1.95193081612513010000e+000) (38, 1.43748302594019870000e+000) (39, 1.35526795362955270000e+000) (40, 1.06116164008551820000e+000) (41, 2.12138027350727490000e+000) (42, 1.69969446599123140000e+000) (43, 4.24280739898566460000e-001) (44, 1.94919878512871760000e+000) (45, 1.77650901191362020000e+000) (46, 1.79855586669862340000e+000) (47, 1.52357377012947650000e+000) (48, 7.78237592945405510000e-001) (49, 7.83129834497120920000e-001) (50, 2.26389063455269920000e+000) (51, 1.64181353023002700000e+000) (52, 1.47992480979144410000e+000) (53, 1.61195179608319260000e+000) (54, 1.81221602168068600000e+000) (55, 1.27368823736458390000e+000) (56, 2.42901931580803510000e+000) (57, -2.41077080744412450000e-001) (58, 2.12553704419528430000e+000) (59, 9.47716311219677810000e-001) (60, 9.98549733660409610000e-002) (61, 9.96003370691154740000e-001) (62, 2.41072106169252810000e+000) (63, 1.60463223194822160000e+000) (64, 1.73883204338875340000e+000) (65, 5.84377493799570160000e-001) (66, 1.61797470890744540000e+000) (67, 8.40346078286755280000e-002) (0, 1.17187211458164890000e+000) (1, 1.44993388394137290000e+000) (2, 1.09639047714513870000e+000) (3, 1.71179903822845230000e+000) (4, 2.36092687330888800000e+000) (5, 9.15006231549302270000e-001) (6, 1.67508956446177470000e+000) (7, 7.12817830109958690000e-001) (8, 1.83121616519561650000e+000) (9, 2.43650894407979420000e+000) (10, 2.15466671048121230000e+000) (11, 8.88730646340224580000e-001) (12, 2.50598337276820300000e+000) (13, 1.59721712790993190000e+000) (14, 1.33331609292868670000e+000) (15, 2.29959596739714240000e+000) (16, 1.29068984089458970000e+000) (17, 7.88272658337479610000e-001) (18, 1.24882704412080490000e+000) (19, 1.42645763468677320000e+000) (20, 2.00038512662645740000e+000) (21, 1.49345083377916740000e+000) (22, 1.90300776887395110000e+000) (23, 1.47111976741503600000e+000) (24, 1.39871876022876380000e+000) (25, 1.61045035242200970000e+000) (26, 7.91262858107035670000e-001) (27, 1.27529349314496070000e+000) (28, 1.85456517190683080000e+000) (29, 2.56426045763869980000e+000) (30, 1.86601700081151360000e+000) (31, 1.49116046799823090000e+000) (32, 1.42823903029416830000e+000) (33, 7.40493083296275390000e-001) (34, 1.03035159712813470000e+000) (35, 9.68320857227769840000e-001) (36, 8.03160035913567220000e-001) (37, 1.34998486611216940000e+000) (38, 1.52125332950886950000e+000) (39, 1.14137071623186490000e+000) (40, 8.07231797301898870000e-001) (41, 2.15014960019103190000e+000) (42, 2.04593795715841910000e+000) (43, 1.80544955016008020000e+000) (44, 7.52962852548041070000e-001) (45, 1.81289323894812400000e+000) (46, 1.12591074721054320000e+000) (47, 1.89642796868061560000e+000) (48, 2.61216727522328940000e+000) (49, 1.21109963000704450000e+000) (50, 1.83528792658394810000e+000) (51, 1.17070012248219140000e+000) (52, 2.06769643207731630000e+000) (53, 2.38103119516377550000e+000) (54, 5.82966814585194610000e-001) (55, 9.86834647290340540000e-001) (56, 1.40339607426997110000e+000) (57, 1.48014116424874560000e+000) (58, 5.39283263783188690000e-001) (59, 1.38781095149420390000e+000) (60, 6.04324864265456050000e-002) (61, 6.99174306692613380000e-001) (62, 2.45654050606353680000e+000) (63, -2.34839709361019840000e-002) (64, 2.96637985594409100000e+000) (65, 1.59059055822389060000e+000) (66, 4.23585571565023860000e-001) (67, -4.65969915558705650000e-001) (68, -5.48492578805942350000e-002) (0, 1.56140655098823980000e+000) (1, 1.93760579840354600000e+000) (2, 1.20720861197232710000e+000) (3, 9.00818495055303590000e-002) (4, 1.90932249552761180000e+000) (5, 9.77884534599887560000e-001) (6, 1.88486126060788490000e+000) (7, 1.82269719288327620000e-002) (8, 1.82300746084992980000e+000) (9, 9.88212355778012200000e-003) (10, 2.54430771622445100000e-001) (11, 1.41022412157953920000e+000) (12, 1.00584933181280460000e+000) (13, 1.27670654764269690000e+000) (14, 4.68657680567865330000e-001) (15, 1.95263926569796140000e+000) (16, -3.02495899823967440000e-002) (17, 6.09691988151915720000e-001) (18, 1.01451268584687470000e+000) (19, 1.27670654764269690000e+000) (20, 9.75782397223973530000e-001) (21, 1.32932368317315100000e+000) (22, 3.15284994999446620000e-001) (23, 1.35110947052353270000e+000) (24, 1.89842960185242090000e+000) (25, 1.60234673751156050000e+000) (26, 8.26925181235295400000e-002) (27, 1.75918380730446060000e+000) (28, 1.26485813697845420000e+000) (29, 4.58465499351312480000e-001) (30, 1.88906553535971300000e+000) (31, 9.35217106661169470000e-002) (32, 4.44706054708966130000e-001) (33, 1.91932357334635430000e+000) (34, 1.55304206087648610000e+000) (35, 4.29481484016740300000e-001) (36, 4.45534169432811040000e-001) (37, 1.91123352950571550000e+000) (38, 8.80804008512221630000e-001) (39, 4.14575418987531750000e-001) (40, 1.64484772386366220000e-001) (41, 3.39611516818862300000e-002) (42, 7.18939430566841620000e-001) (43, 1.70051018285348520000e+000) (44, 1.90014953243271420000e+000) (45, -1.57894328814123660000e-002) (46, 9.90051450927147410000e-001) (47, 1.74866823910169740000e+000) (48, 1.75210810026228400000e+000) (49, 1.04649065441380930000e+000) (50, 3.88585356885321980000e-001) (51, 1.26371151659159200000e+000) (52, -6.46482015882626220000e-002) (53, 8.07356602620437620000e-001) (54, -2.04396155614646190000e-002) (55, 2.00742223973693210000e+000) (56, 8.00482174134805270000e-001) (57, 1.07025117687489810000e+000) (58, 1.88295552046532230000e+000) (59, 3.06486927865065420000e-002) (60, 5.98162083150690300000e-001) (61, 1.64158663519528900000e+000) (62, 2.11954152695455460000e+000) (63, 1.21905702263656980000e+000) (64, 1.99882788067100760000e+000) (65, 1.10057291599414290000e+000) (66, 5.21274816098319600000e-001) (67, 1.62820939734856340000e+000) (68, -3.70019100383629990000e-002) (69, 1.74777642324524910000e+000) (0, 1.52944014404745280000e+000) (1, 1.86400752962318590000e+000) (2, 1.73441485577014620000e+000) (3, 1.17867146996532910000e+000) (4, 1.80507857753646910000e+000) (5, 1.08785455679272650000e+000) (6, 4.09725176340280220000e-001) (7, 1.65105972549164080000e+000) (8, 2.03154687716843170000e+000) (9, 1.16374790417713460000e+000) (10, 1.75718285998546860000e+000) (11, 3.96907318121134170000e-001) (12, 2.01757995021281330000e+000) (13, 7.45632958419001010000e-001) (14, 2.02823052921549960000e+000) (15, 1.03606850798924840000e+000) (16, 2.73563582503548010000e-001) (17, 5.68145669152340880000e-001) (18, 2.18582083290194710000e+000) (19, 1.22981975954708990000e+000) (20, 1.27197674624001110000e+000) (21, 8.67318520060121110000e-001) (22, 8.56157733680061090000e-001) (23, 1.22529277121027440000e+000) (24, 1.58830421807461760000e+000) (25, 4.16422750305696250000e-001) (26, 4.47161642655110100000e-001) (27, 2.42268570998528700000e+000) (28, 1.83256710212988280000e+000) (29, 2.08550240946313090000e+000) (30, 7.23438937503224520000e-001) (31, 4.09024743333770760000e-001) (32, 6.40976670135123940000e-001) (33, 1.01508622959473560000e+000) (34, 1.14748614616071310000e+000) (35, 1.43033236099251980000e+000) (36, 5.40019385337209610000e-001) (37, 4.00095012092342720000e-001) (38, 4.11766005849776910000e-001) (39, 2.11439180006956300000e+000) (40, 1.74793535127056180000e+000) (41, 1.60144205804200260000e+000) (42, 1.32420812436131170000e+000) (43, 1.99493949784183290000e+000) (44, 2.17510647797708940000e+000) (45, 1.42369856294927530000e+000) (46, 8.84983348364321800000e-001) (47, 1.30341717373331420000e+000) (48, 2.29679203961821000000e+000) (49, 1.56279384920590900000e+000) (50, 2.76624826767793040000e-001) (51, 1.71375145698649220000e+000) (52, 5.96014645004025010000e-001) (53, 1.35533077438113620000e+000) (54, 1.57204135792081590000e+000) (55, 1.72688929695387720000e+000) (56, 2.94031409289312550000e+000) (57, 3.49700473423782690000e-001) (58, 1.63297146429398010000e+000) (59, 4.15070793649848500000e-001) (60, 1.41112314612857630000e+000) (61, 8.61145870878508720000e-002) (62, 2.52596192654312550000e+000) (63, 7.82701486607229880000e-002) (64, 1.18488183511511340000e+000) (65, -2.28784639037066250000e-002) (66, -2.98135343997072480000e-001) (67, -3.15099739294763700000e-001) (68, 2.18385849672105110000e-001) (69, 1.73423824541006130000e-001) (70, 2.15898588707406030000e-001) (0, 1.81919410456417440000e+000) (1, 2.64447923744164460000e+000) (2, 2.33667642350637640000e+000) (3, 1.78561936333726060000e+000) (4, 2.75327326252890800000e+000) (5, 1.54230127084456050000e+000) (6, 2.23956626378940000000e+000) (7, 1.48815964333634490000e+000) (8, 2.24512088830970050000e+000) (9, 2.12387684274590120000e+000) (10, 2.02019051836696000000e+000) (11, 1.48081732356813170000e+000) (12, 9.00901754396997270000e-001) (13, 1.51478353327847450000e+000) (14, 2.15088381024115490000e+000) (15, 2.83186800717821630000e+000) (16, 1.65850146195889110000e+000) (17, 2.80990489413243070000e+000) (18, 2.27497833997015730000e+000) (19, 1.91701496405884990000e+000) (20, 2.45862277791756910000e+000) (21, 1.81703172269344230000e+000) (22, 2.08244062074963710000e+000) (23, 1.34750633508092150000e+000) (24, 2.42791272740878170000e+000) (25, 2.24448242572116020000e+000) (26, 1.89051876663442830000e+000) (27, 2.82407876359802490000e+000) (28, 1.60908445760587360000e+000) (29, 2.12611146180579210000e+000) (30, 1.93265729747808670000e+000) (31, 2.64403231362966640000e+000) (32, 1.10463516640019990000e+000) (33, 2.02121205850862440000e+000) (34, 2.52974751028095610000e+000) (35, 1.16975835043130800000e+000) (36, 1.08254436083670620000e+000) (37, 2.56113727215391010000e+000) (38, 1.64190143465684390000e+000) (39, 9.58874157436454540000e-001) (40, 1.41856722118545450000e+000) (41, 2.33437795818763140000e+000) (42, 1.16758757763027110000e+000) (43, 2.77293791025594860000e+000) (44, 2.42344348928899980000e+000) (45, 1.05106815522167050000e+000) (46, 1.46242960101817170000e+000) (47, 1.36206328209963990000e+000) (48, 2.06066904648041360000e+000) (49, 9.73878028267151090000e-001) (50, 1.92563420900414360000e+000) (51, 2.79573102466683650000e+000) (52, 1.74903545701390260000e+000) (53, 2.77542791435125570000e+000) (54, 1.44353110839737940000e+000) (55, 2.03513054293880250000e+000) (56, 3.17528061380839950000e+000) (57, 6.21551774427396840000e-001) (58, 2.55980267845557120000e+000) (59, 1.46232433691195430000e+000) (60, -8.41217306636668350000e-002) (61, 2.65909292246326760000e-001) (62, 1.85506573751510830000e+000) (63, 9.00898350936274680000e-001) (64, 2.46377790513911330000e+000) (65, 1.04042825840453830000e+000) (66, 1.17844784430106420000e-001) (67, 1.18405650895388750000e+000) (68, 1.50950168867135080000e+000) (69, 1.12155102153579420000e+000) (70, 2.54800043205725970000e-001) (71, -4.99377798250263790000e-001) (0, 1.53513826595407290000e+000) (1, 1.71313417668790910000e+000) (2, 2.20040417981437870000e+000) (3, 1.38615708644722010000e+000) (4, 1.78318243526957350000e+000) (5, 1.80337883099202420000e+000) (6, 1.36794198271019970000e+000) (7, 1.35158034566922700000e+000) (8, 1.19154308336221270000e+000) (9, 1.21832248148786730000e+000) (10, 5.04737803509506920000e-001) (11, 1.10002017616427180000e+000) (12, 6.73275447560464090000e-001) (13, 2.47273595884400700000e+000) (14, 1.62269778444972010000e+000) (15, 4.82815766380391140000e-001) (16, 8.14650217617618910000e-001) (17, 2.34030895904363410000e+000) (18, 1.00159470333967040000e+000) (19, 1.36871892681630490000e+000) (20, 2.34785065111720750000e+000) (21, 1.23116892307081850000e+000) (22, 1.43805495866798870000e+000) (23, 1.78439677551870820000e+000) (24, 8.69423354118062710000e-001) (25, 1.49672596176316850000e+000) (26, 1.29143854701471410000e+000) (27, 1.48253735464170000000e+000) (28, 1.98220641083828090000e+000) (29, 1.00990334714953910000e+000) (30, 5.33306755686517860000e-001) (31, 1.87566403213788410000e+000) (32, 6.42086076951109860000e-001) (33, 1.98246206141704610000e+000) (34, 5.94854632524239420000e-001) (35, 7.74768727330247930000e-001) (36, 1.47844694538145680000e+000) (37, 1.57553025266754100000e+000) (38, 9.29245589549119180000e-001) (39, 8.31395330526739420000e-001) (40, 8.32290107552417610000e-001) (41, 1.01949024385323410000e+000) (42, 9.05981386881486110000e-001) (43, 2.08555315730411280000e+000) (44, 9.98462983749796920000e-001) (45, 1.89407087380897840000e+000) (46, 7.60771858142853310000e-001) (47, 2.51773046070668190000e+000) (48, 2.54700245197529720000e+000) (49, 1.15255637010051990000e+000) (50, 2.12485943378926210000e+000) (51, 1.95977307255163470000e+000) (52, 1.23008240811106640000e+000) (53, 1.71013028238741800000e+000) (54, 1.65318411596747010000e+000) (55, 5.83989482926718480000e-001) (56, 2.16174620817519520000e+000) (57, 1.50975051336240560000e+000) (58, 1.63880380432446930000e+000) (59, 2.75429226726933320000e-001) (60, 1.22470011803920920000e+000) (61, 1.83858107029914230000e+000) (62, 1.82319178425886870000e+000) (63, 5.34060079505025430000e-001) (64, 2.33589901997247340000e+000) (65, 1.25672035302955030000e+000) (66, 2.05013192422734520000e+000) (67, 1.57685879028827030000e+000) (68, 1.09904785857611430000e+000) (69, 1.99088490259850960000e+000) (70, 1.84350234394037240000e+000) (71, 1.41656587740249070000e+000) (72, 8.64999753716575000000e-001) (0, 9.95683082580299580000e-001) (1, 2.73095478774929830000e+000) (2, 1.18556239318867520000e+000) (3, 1.68546702024185870000e+000) (4, 1.49379639538246050000e+000) (5, 1.05070202029027350000e+000) (6, 1.95685112927175430000e+000) (7, 1.50575981555893160000e+000) (8, 2.49661249841018760000e+000) (9, 1.20820972336231570000e+000) (10, 1.37518580176119070000e+000) (11, 2.66531591555111990000e+000) (12, 1.41715373564228720000e+000) (13, 2.01296651106395030000e+000) (14, 1.88922901629565820000e+000) (15, 1.67209613886815570000e+000) (16, 2.41069338987007690000e+000) (17, 1.41427483773885830000e+000) (18, 1.28179013050161640000e+000) (19, 2.10648984474109200000e+000) (20, 2.38645524380176080000e+000) (21, 1.09964328464856440000e+000) (22, 1.33015590387958490000e+000) (23, 1.36597332847021820000e+000) (24, 8.95753337576835400000e-001) (25, 1.08230592171902610000e+000) (26, 1.29067415441831180000e+000) (27, 1.83261069086155690000e+000) (28, 2.01494089141205370000e+000) (29, 1.86601447837078350000e+000) (30, 1.47895407730256050000e+000) (31, 2.50678460433563630000e+000) (32, 2.48682424553852940000e+000) (33, 1.84681325385180610000e+000) (34, 2.14475577093166510000e+000) (35, 1.30712443205179050000e+000) (36, 1.86107979235102030000e+000) (37, 1.24673155158874920000e+000) (38, 1.57594094889363110000e+000) (39, 1.54523270459038970000e+000) (40, 2.18319647999023040000e+000) (41, 2.76614131768009570000e+000) (42, 1.03931437969448810000e+000) (43, 1.43602651078698760000e+000) (44, 2.54606556684019920000e+000) (45, 2.26406152332209930000e+000) (46, 8.06443527061575070000e-001) (47, 1.00112100084233210000e+000) (48, 1.14660130822893770000e+000) (49, 1.44415140042555360000e+000) (50, 1.51523705131557880000e+000) (51, 1.57267819793641170000e+000) (52, 1.50671944819340790000e+000) (53, 1.77554453686470000000e+000) (54, 2.32355874665962950000e+000) (55, -2.05393122730228360000e-001) (56, 5.71490102237036220000e-001) (57, 2.08235179603453610000e+000) (58, 2.24831020867680830000e+000) (59, 1.11539062480416230000e+000) (60, -2.20455717612393880000e-001) (61, 2.65650969614793900000e-001) (62, 1.31359240018816760000e+000) (63, -5.66275299190157950000e-001) (64, 1.99729201391511980000e+000) (65, 1.34461408030533100000e+000) (66, -4.17246517139823300000e-001) (67, -1.94460890862105610000e-001) (68, -7.28400488684715190000e-001) (69, -1.07114019427196980000e+000) (70, 1.75789586821978780000e+000) (71, -1.44539692171772400000e+000) (72, 2.14399980544622840000e+000) (73, 3.63382643252158970000e-001) (0, 2.80053082957948090000e+000) (1, 2.96318023991971740000e+000) (2, 1.97972762416958030000e+000) (3, 2.22722367573060790000e+000) (4, 2.22767192213705730000e+000) (5, 2.16062706677240080000e+000) (6, 1.31587469621791420000e+000) (7, 1.27399567481534940000e+000) (8, 2.13943141526743300000e+000) (9, 2.55169003879910330000e+000) (10, 2.83312474684844950000e+000) (11, 2.52357858559462930000e+000) (12, 2.31802559063708640000e+000) (13, 1.77872112847745330000e+000) (14, 2.70402978179100200000e+000) (15, 2.94755565089490720000e+000) (16, 1.87458182425671870000e+000) (17, 2.00508556373443580000e+000) (18, 7.99519338988920140000e-001) (19, 1.02620395025051030000e+000) (20, 2.03127596091126780000e+000) (21, 2.88070290113301470000e+000) (22, 9.42933686051954380000e-001) (23, 9.81290771403844800000e-001) (24, 1.69451483926587420000e+000) (25, 1.05201013622181530000e+000) (26, 1.22577716852157060000e+000) (27, 2.20096924335285320000e+000) (28, 2.93327580108944550000e+000) (29, 2.18732974555660500000e+000) (30, 1.61658399974458770000e+000) (31, 1.87701516189173010000e+000) (32, 2.56071900212901400000e+000) (33, 1.63777965124955550000e+000) (34, 2.28760887019944370000e+000) (35, 1.85018441270568320000e+000) (36, 1.62087435820631830000e+000) (37, 1.09661816826320190000e+000) (38, 1.78461236696221780000e+000) (39, 2.29990362877634350000e+000) (40, 2.68283413028603410000e+000) (41, 1.36940812418816530000e+000) (42, 2.57724008396672310000e+000) (43, 1.09290412660976340000e+000) (44, 1.56599619101671880000e+000) (45, 1.62682963189200410000e+000) (46, 2.15467179308671500000e+000) (47, 2.92245385213373690000e+000) (48, 2.14986915301761350000e+000) (49, 2.44782494290466880000e+000) (50, 9.44790706878673610000e-001) (51, 1.05928564612605310000e+000) (52, 2.14058404888401730000e+000) (53, 1.57207953510424740000e+000) (54, 2.72951579175770040000e+000) (55, 2.19642274408743710000e+000) (56, 1.54922264772488580000e+000) (57, 8.83204775313613520000e-002) (58, 1.08496744104507710000e+000) (59, 8.65795771942520440000e-001) (60, 1.36787186234183640000e+000) (61, 7.39186594334142470000e-001) (62, 2.73068823799116340000e+000) (63, 1.00767385715922590000e+000) (64, 2.84279774153713660000e+000) (65, 1.94812952651166270000e+000) (66, 1.83767635525623950000e-001) (67, -2.52432602816720810000e-002) (68, 1.08717625012407200000e+000) (69, 1.34165213858552850000e+000) (70, 1.16117856840585910000e+000) (71, 5.91287654189114110000e-001) (72, 1.30284680682718860000e+000) (73, 1.51877350433399070000e+000) (74, -9.58100516970030320000e-002) (0, 2.04259951737293000000e-001) (1, 1.24235887869929300000e+000) (2, -3.59108578718746410000e-001) (3, 1.12885190038707670000e+000) (4, 1.51084037624298230000e+000) (5, 8.86383159673871800000e-002) (6, 1.25338270719714790000e+000) (7, 1.00509019789080890000e+000) (8, 7.40005577733086280000e-001) (9, 4.33325232603806680000e-001) (10, 1.30292584341134510000e+000) (11, 1.57681281052974880000e+000) (12, -2.32270458967263640000e-001) (13, 1.15933087369599930000e+000) (14, -3.77567082250038490000e-001) (15, 1.98363864736734590000e-001) (16, -1.28193614285689040000e-002) (17, 1.53561416519418590000e+000) (18, 5.04398604151520050000e-001) (19, 7.49019360351521830000e-001) (20, 7.76077840953045880000e-001) (21, 2.61786139486921480000e-001) (22, 9.08492985222749790000e-001) (23, 1.48493965011499960000e+000) (24, 6.75989572780032020000e-001) (25, 7.48197560963319130000e-001) (26, 7.16349473624256270000e-001) (27, 1.48257894628093070000e+000) (28, 1.18808819266739580000e+000) (29, -1.94112777589599860000e-001) (30, 5.95402220546987660000e-001) (31, 1.52290493727666610000e+000) (32, 1.47071876787288210000e+000) (33, 5.20591386972282240000e-001) (34, 1.14716997589137140000e+000) (35, 6.20496874780964050000e-001) (36, 1.00495340805196300000e-001) (37, 2.52313165082704010000e+000) (38, -3.53212112312916990000e-001) (39, 5.98810844123931930000e-001) (40, 1.13306727054053710000e+000) (41, 8.58191273954275860000e-001) (42, -6.60243489198789320000e-003) (43, -2.76558049037134600000e-001) (44, 3.14498616121113910000e-001) (45, 1.48161441231843650000e+000) (46, 1.59460004863490520000e-001) (47, 1.34054786276158280000e+000) (48, 6.32921404690412330000e-002) (49, 1.04373768965945190000e+000) (50, 6.50632462140910970000e-001) (51, 6.40086108964737830000e-001) (52, -2.09687337705361630000e+000) (53, 1.01547310612716090000e+000) (54, 7.12031629162577560000e-001) (55, -1.72471737990360840000e+000) (56, 1.40281985359663670000e+000) (57, 1.21266119332326830000e+000) (58, 8.40716716229007010000e-001) (59, 4.02110104521288310000e-001) (60, 2.80798703530235780000e-001) (61, 2.37703174639593270000e+000) (62, 1.51484331446044920000e+000) (63, 1.17153085786987620000e+000) (64, 4.92248773071234100000e-001) (65, 1.32277384554030440000e+000) (66, 2.34249217563621800000e+000) (67, 2.22904928935015260000e+000) (68, 2.26917089772025270000e+000) (69, 2.34704270949289070000e+000) (70, 4.47597228457688620000e-001) (71, 4.80554723943279250000e-001) (72, 1.60710026758744950000e+000) (73, 9.10163575228872150000e-001) (74, 7.84543203974245480000e-001) (75, 1.86616023728704180000e+000) (0, 3.50098961049653490000e-001) (1, 1.00663114414045300000e+000) (2, 1.57798189209996660000e+000) (3, 1.29099151976687310000e+000) (4, 4.52279155382609040000e-001) (5, 1.37457409803017680000e+000) (6, 1.39696114316747000000e+000) (7, 2.09147271251266580000e+000) (8, 8.13358459330526530000e-001) (9, 3.17379568208604630000e-001) (10, 5.70372422138358810000e-001) (11, 1.00258992968873530000e+000) (12, 5.20081753405872150000e-001) (13, 2.12583234520340400000e+000) (14, 5.84548745849939880000e-001) (15, 1.97806212282001700000e+000) (16, 1.35853753274558290000e+000) (17, 1.49099956199632900000e+000) (18, 1.47083487271944820000e+000) (19, 1.13207846764768540000e+000) (20, 2.17550431460393810000e+000) (21, 1.40572641766399680000e+000) (22, 8.94820513651461650000e-001) (23, 1.34096145719366790000e+000) (24, 1.59271276888236240000e+000) (25, 2.14295939692735040000e+000) (26, 1.42173365760269230000e-001) (27, 1.72615975532961490000e+000) (28, 3.68953162163858820000e-001) (29, 1.79261528186897220000e+000) (30, 7.47287810357999400000e-001) (31, 1.00368041612808770000e+000) (32, 2.14368776907930370000e+000) (33, 1.62435963890301240000e+000) (34, 1.17546410345665820000e+000) (35, 2.12091584637518030000e+000) (36, 1.88671784695896960000e+000) (37, 2.14616670998426920000e+000) (38, 5.69538520743559930000e-001) (39, 3.99294343682310590000e-001) (40, 7.11045172814817050000e-001) (41, 2.00558086884838000000e+000) (42, 1.96399719701627670000e-001) (43, 1.48522639849387520000e+000) (44, 6.28617227252004080000e-001) (45, 3.17443714469743010000e-001) (46, 9.06242245458894760000e-001) (47, 8.62751080407075930000e-001) (48, 1.11523076424772330000e+000) (49, 1.98563138163434540000e+000) (50, 2.17009326538888340000e+000) (51, 6.63127915744450290000e-001) (52, 1.49311638861389540000e+000) (53, 1.35453770127557280000e+000) (54, 9.30104654602370570000e-001) (55, 1.45430790062517800000e+000) (56, 1.72377050566227030000e+000) (57, 5.07101445376489270000e-001) (58, 2.27940541964288060000e+000) (59, 1.13130871251402490000e+000) (60, 3.82978430073732220000e-001) (61, 1.82517881924783640000e+000) (62, 1.51131808877196950000e+000) (63, 4.49498102874227980000e-001) (64, 2.32610389775161820000e+000) (65, 1.69553922548717880000e+000) (66, 1.90375798914234680000e+000) (67, 1.06985659434346080000e+000) (68, 2.12092790401098850000e-001) (69, 6.53547359555401330000e-001) (70, 1.36788012359235500000e+000) (71, 9.24244581559347410000e-001) (72, 2.08625410208102610000e+000) (73, 2.18478275918957140000e+000) (74, 1.87033778708925300000e+000) (75, 1.14510015865877570000e+000) (76, 1.94147599069171180000e+000) (0, 1.15351360376776780000e+000) (1, 4.62397372435383820000e-003) (2, 1.04901443668911960000e-001) (3, 9.59250080046747390000e-001) (4, 1.59808561360519730000e+000) (5, 5.76821854400311640000e-001) (6, 2.05941333384949490000e+000) (7, 9.43087531818107560000e-002) (8, 6.49702104387486070000e-002) (9, 1.78682809864809160000e+000) (10, 1.22201300225102230000e+000) (11, 1.62851552445905170000e+000) (12, 1.44105700189944240000e+000) (13, 4.00613382630197120000e-002) (14, 1.47495361145816630000e+000) (15, 9.46089464593076190000e-001) (16, 1.63602670498626890000e+000) (17, 1.46596587407517130000e+000) (18, 1.80236404469584000000e+000) (19, 5.16347221437588600000e-001) (20, 2.36443400081459640000e-001) (21, -3.59338616867012700000e-003) (22, 1.31259655544677870000e+000) (23, 5.52854332361175870000e-001) (24, 2.05402069141969790000e+000) (25, 1.38327869015161760000e+000) (26, 1.07576967540486130000e+000) (27, 1.06313802400525460000e-001) (28, 5.33937507458593030000e-001) (29, 6.60536208310493310000e-001) (30, 4.76608582579918010000e-001) (31, 8.42216899695320100000e-001) (32, 1.50482111825529230000e-001) (33, 4.17738902721300990000e-001) (34, 1.55892475786500500000e+000) (35, 1.69804209292893420000e+000) (36, 1.33577207827007280000e+000) (37, 5.30855997498709040000e-001) (38, 1.27113994629742380000e-001) (39, 5.64752607057432910000e-001) (40, 8.60770157578788280000e-001) (41, 4.36484754977261910000e-001) (42, 2.22384010889488950000e-001) (43, 3.53219787936229990000e-001) (44, 6.35755732383092910000e-001) (45, 1.39412817313537580000e+000) (46, 1.28877905138184200000e+000) (47, 4.27497017594266950000e-001) (48, 1.34833148590203060000e-002) (49, 1.43868167130536520000e+000) (50, 9.55719183217713650000e-001) (51, 8.97506863661490100000e-002) (52, 3.24972613303960100000e-001) (53, 2.02256361057921550000e+000) (54, 6.19128418224552220000e-001) (55, 2.08290984729360980000e+000) (56, 1.42009816216730770000e+000) (57, 1.17034889135955140000e-001) (58, 2.53509118265199800000e+000) (59, 9.39348661555829970000e-001) (60, 8.42409494067812850000e-001) (61, 1.60052514232343880000e+000) (62, 1.64716692733625900000e+000) (63, 9.06928608852883840000e-001) (64, 2.36541554048588590000e+000) (65, 2.53199110488328880000e-001) (66, 7.89125051011485560000e-001) (67, 2.04554653903001690000e+000) (68, 2.95634070560897970000e-001) (69, 2.58655951042290220000e-001) (70, 2.41707646262928180000e-001) (71, 1.30810268675528120000e+000) (72, 5.29828827512081050000e-001) (73, 1.28723829640190000000e+000) (74, 3.64582855913302200000e-001) (75, 1.86893749945416700000e+000) (76, 1.55361169262012210000e-001) (77, 9.22785545521453530000e-001) (0, 8.58141559303587820000e-001) (1, 6.83960075971470020000e-001) (2, 1.48660807817321980000e+000) (3, 2.00463824240540540000e+000) (4, 1.94739343571672000000e+000) (5, 1.54179695465535400000e+000) (6, 2.22359480940321050000e+000) (7, 1.21483980399460780000e+000) (8, 1.78413972775268850000e+000) (9, 2.25680383367205310000e-001) (10, 1.90614633594776750000e+000) (11, 1.90935872689550520000e+000) (12, 1.74475581473342390000e+000) (13, 9.25917362155075920000e-001) (14, 1.07310911538041910000e+000) (15, 2.09002359379627570000e+000) (16, 1.59929875261985940000e+000) (17, 9.00153986754219320000e-001) (18, 6.85250678496343140000e-001) (19, 5.57263376992693900000e-001) (20, 1.83097638777070460000e+000) (21, 6.77471046257039800000e-001) (22, 2.02937929884876400000e+000) (23, 8.49269714142053660000e-001) (24, 5.02267243967424060000e-001) (25, 2.14437724863199810000e+000) (26, 1.74963864897398520000e+000) (27, 8.59742108631678660000e-001) (28, 1.50691038896292230000e+000) (29, 2.27943181022066850000e+000) (30, 1.37545935138149430000e+000) (31, 1.68982957567288670000e+000) (32, 1.90402615792226060000e+000) (33, 1.33273455177658250000e+000) (34, 1.67684587009824830000e+000) (35, 6.51520573545096960000e-001) (36, 7.70758879379343510000e-001) (37, 1.95471768707756200000e+000) (38, 2.07974394276351490000e+000) (39, 2.07897296893605790000e+000) (40, 1.47909108335551350000e+000) (41, 3.63813194119927630000e-001) (42, 3.03034757388729760000e-001) (43, 1.89695889783723760000e+000) (44, 1.41163087345302120000e+000) (45, 1.22698264177705640000e+000) (46, 1.37680855557954420000e+000) (47, 2.22853479333196100000e-001) (48, 2.07569633016936540000e+000) (49, 9.31828161498913340000e-001) (50, 1.82981992702951900000e+000) (51, 9.21484262647197850000e-001) (52, 2.05089667205282920000e+000) (53, 1.63951788728553580000e+000) (54, 4.26647561057677650000e-001) (55, 5.71976127533332710000e-001) (56, 1.47975781770349710000e+000) (57, 6.72759297744952020000e-001) (58, 2.14099994035011450000e+000) (59, 2.55212722358001800000e-001) (60, 1.42580798371363130000e+000) (61, 1.55271908387766230000e+000) (62, 2.28941240213559820000e+000) (63, 8.47706108758748860000e-001) (64, 2.30129824864222780000e+000) (65, 1.25304559854429610000e+000) (66, 2.36066872309484810000e-001) (67, 1.60319621184770880000e+000) (68, -6.71185853380022040000e-002) (69, 2.48273957910888190000e-001) (70, 3.32438600741616740000e-001) (71, 1.42047541474038660000e+000) (72, 8.39932122665223550000e-001) (73, 7.30518086985276430000e-001) (74, 1.69738351443537900000e+000) (75, 4.58290803844563920000e-002) (76, 1.23190806610818180000e+000) (77, 1.67547500817180770000e+000) (78, 7.76648020994790240000e-001) (0, 4.51526536577887990000e-001) (1, 8.61539114864002250000e-001) (2, 1.04845052789472260000e-001) (3, 3.12069537628133940000e-001) (4, 4.33909562067868350000e-001) (5, 4.78273475979961620000e-001) (6, 6.73924765885033920000e-001) (7, 1.79928938212180010000e+000) (8, 9.92637695250608410000e-001) (9, 1.02806453085287440000e+000) (10, 1.58492809374075820000e+000) (11, 1.59418664968762980000e+000) (12, 1.31983763423414870000e+000) (13, 9.20502428351149260000e-002) (14, 3.92438946889172470000e-001) (15, 1.37603192518946680000e+000) (16, 1.76090495225872810000e+000) (17, 4.98912340278196200000e-001) (18, 1.24429038952877250000e+000) (19, 3.10655036025139660000e-001) (20, 5.40382955456892300000e-001) (21, 3.95718018787022840000e-001) (22, 1.30090012786499520000e+000) (23, 1.02298518418757680000e+000) (24, 1.38799089328750940000e+000) (25, 1.18192372794220660000e+000) (26, 2.05807887994234260000e+000) (27, 1.46900325782263620000e+000) (28, 2.65198098147096270000e-001) (29, 1.89072193695040580000e-001) (30, 1.87901583610875030000e+000) (31, 1.21265699004362770000e+000) (32, 5.05470484073897050000e-001) (33, 1.35500728772677910000e+000) (34, 2.47066759417806040000e-001) (35, 1.10759809825759810000e+000) (36, 1.39242728467871870000e+000) (37, 2.41987412752508350000e-001) (38, 1.79401714887427600000e+000) (39, 1.71512653674364060000e+000) (40, 1.06207686485214590000e+000) (41, 1.92858768774095890000e+000) (42, 1.98459340696729880000e-001) (43, 5.24823437823955240000e-001) (44, 8.90857875362429110000e-001) (45, 7.35455585615285010000e-001) (46, 1.34774189312958130000e+000) (47, 1.73808004002859320000e+000) (48, 1.69024416763642300000e+000) (49, 1.38471182138965900000e+000) (50, 1.53902540202410120000e-001) (51, 7.57123178352061000000e-001) (52, 2.04592702526207360000e+000) (53, 1.82389773697771290000e-002) (54, 1.94633325330579620000e+000) (55, 6.88969919298700330000e-001) (56, 2.12846119960197420000e+000) (57, 4.59627773031400680000e-001) (58, 1.70205326182660890000e+000) (59, 4.80202341802226540000e-001) (60, 1.79395285334686720000e+000) (61, 1.00189625119747980000e+000) (62, 1.41754555304253250000e+000) (63, 2.07332123479148530000e-001) (64, 1.86735706279471290000e+000) (65, 1.82269295409861450000e+000) (66, 4.87210554289789100000e-001) (67, 1.54776527889845390000e+000) (68, 1.49510724195062150000e+000) (69, 2.01744410661996240000e+000) (70, 6.52450059730484420000e-001) (71, 1.30961464537614460000e+000) (72, 2.39608478238381610000e-001) (73, 5.38196907524992050000e-001) (74, 1.62318393254901250000e+000) (75, 1.09911108863963250000e+000) (76, 1.11486349285479600000e+000) (77, 1.62942059870766910000e+000) (78, 1.24242581923391640000e+000) (79, 1.99397623911574010000e+000) (0, 2.14277298443293330000e+000) (1, 2.47541799681884370000e+000) (2, 6.62020118852789330000e-001) (3, 1.74514316305093530000e+000) (4, 1.40683610790100940000e+000) (5, 2.03030422589317090000e+000) (6, 5.54891696101814320000e-001) (7, 8.63280002555521950000e-001) (8, 1.06132281650597270000e+000) (9, 2.32621030170802620000e+000) (10, 1.51428623762721260000e+000) (11, 2.00128625672759150000e+000) (12, 1.20120100933517390000e+000) (13, 1.36218317973934180000e+000) (14, 9.87201529413406550000e-001) (15, 1.58988737680582860000e+000) (16, 8.90432071264778080000e-001) (17, 2.09142855118652000000e+000) (18, 1.27416415131691910000e+000) (19, 2.46698927406786610000e+000) (20, 1.39988723723608130000e+000) (21, 1.91706337061286040000e+000) (22, 1.24759115516307360000e+000) (23, 2.09110684421129190000e+000) (24, 1.77371074245119530000e+000) (25, 9.85786018722402680000e-001) (26, 1.25106559049553770000e+000) (27, 2.35201120112132410000e+000) (28, 1.28497350568458500000e+000) (29, 2.46383654571063020000e+000) (30, 2.53448339747073260000e+000) (31, 2.04169265281624760000e+000) (32, 1.20325993397663410000e+000) (33, 2.22615943241207060000e+000) (34, 5.00008486127891280000e-001) (35, 1.56749657132994910000e+000) (36, 1.46068985555420230000e+000) (37, 2.28516049166891390000e+000) (38, 1.60513628743164300000e+000) (39, 2.05250200718391350000e+000) (40, 1.50560014929605250000e+000) (41, 1.11382539486320750000e+000) (42, 2.05616946670151450000e+000) (43, 9.97689176805844350000e-001) (44, 9.29615980847567140000e-001) (45, 1.51538004134298830000e+000) (46, 2.41326420920476450000e+000) (47, 2.49259714929602700000e+000) (48, 7.25074685997507350000e-001) (49, 1.84410022863111520000e+000) (50, 4.57864872373003220000e-001) (51, 1.98121174147335410000e+000) (52, 7.57760114680687710000e-001) (53, 6.87563652685904690000e-001) (54, 6.00895793559440120000e-001) (55, 4.89392155945362230000e-001) (56, 8.44767269378983610000e-001) (57, 1.16345311911109750000e+000) (58, 1.36567520366840920000e+000) (59, 4.87384499455467070000e-002) (60, 9.41925695968991340000e-001) (61, 8.62399731692591760000e-001) (62, 2.19510012720163420000e+000) (63, 2.59615960993934660000e-002) (64, 2.58249966677137620000e+000) (65, 2.15704370088958210000e-001) (66, 1.51340596676428250000e+000) (67, 5.24864773283213460000e-001) (68, 1.21994486396116120000e+000) (69, 3.20194795643062360000e-001) (70, 5.28660915590905670000e-001) (71, 1.01688342119715090000e+000) (72, 1.58405281852438500000e+000) (73, -1.93957292166572040000e-001) (74, 1.01617566585164900000e+000) (75, 6.80699632083730850000e-001) (76, 1.11152961330927360000e+000) (77, -2.80851757389362770000e-002) (78, 2.75091477716075280000e-001) (79, 8.71085820023751900000e-001) (80, 1.69893296816469200000e-001) (0, 1.37353115051280560000e+000) (1, 4.72315710118448530000e-001) (2, 1.80831608236668400000e+000) (3, 7.64819309690676460000e-001) (4, 1.75468291079642950000e+000) (5, 7.72288034663244920000e-001) (6, 1.56841548540297660000e+000) (7, 1.58554204439179740000e+000) (8, 1.18596525835938520000e+000) (9, 7.58187596999516540000e-001) (10, 1.22086223193811020000e+000) (11, 1.46159984118322610000e+000) (12, 1.51774404959770610000e+000) (13, 2.06244588811433790000e+000) (14, 7.48143449622614140000e-001) (15, 1.62938861082558280000e+000) (16, 7.64690538570459770000e-001) (17, 1.96101657253632380000e-001) (18, 1.70111412478628330000e+000) (19, 4.82295471935242580000e-001) (20, 1.99200808535580260000e+000) (21, 7.20650815456349240000e-001) (22, 1.14124865985452460000e+000) (23, 6.27173737736827270000e-001) (24, 1.53377605406468500000e+000) (25, 1.05751606594322970000e+000) (26, 2.17924129415088250000e+000) (27, 6.81826322711014950000e-001) (28, 2.00494958293758250000e+000) (29, 1.29464808382227780000e+000) (30, 7.88384424690332100000e-001) (31, 4.02392991840781810000e-001) (32, 1.91287823198264230000e+000) (33, 8.06154839280236350000e-001) (34, 4.48428667318251150000e-001) (35, 2.26075341324805200000e+000) (36, 1.22710763126862000000e+000) (37, 1.84739811735245160000e+000) (38, 1.61348537747882070000e+000) (39, 1.16639204808644710000e+000) (40, 2.14125381368695680000e+000) (41, 2.25985201540653510000e+000) (42, 6.56200869787892160000e-001) (43, 1.38877977270068360000e+000) (44, 2.19083069497038530000e+000) (45, 5.58399203983310440000e-001) (46, 1.87087678838463560000e-001) (47, 1.68624106040125480000e+000) (48, 1.15428756278607760000e+000) (49, 1.86310819401888870000e+000) (50, 2.07139548096939840000e+000) (51, 6.96055531494960020000e-001) (52, 2.02478033545095390000e+000) (53, 1.53429113854555180000e+000) (54, 1.93341722565720550000e+000) (55, 1.87199340131384080000e+000) (56, 2.88827829332699080000e+000) (57, -6.70062197425748550000e-002) (58, 1.49948176178990860000e+000) (59, 1.65195946403011960000e+000) (60, 8.86286383221636220000e-001) (61, 3.96119114116777420000e-001) (62, 2.58154548497081660000e+000) (63, -2.02409052650432160000e-001) (64, 2.34299698476938460000e+000) (65, 1.78008672864573360000e+000) (66, 1.71306136057294260000e+000) (67, 4.77502462093730210000e-001) (68, 2.14744991291559190000e-001) (69, 8.28596921364555760000e-001) (70, 9.47259508644242470000e-001) (71, -1.06345796968775900000e-001) (72, 1.20287018227438720000e+000) (73, 9.49770545488468070000e-001) (74, 1.60000031702268220000e+000) (75, -6.55897374201911830000e-002) (76, 1.03752806391614770000e+000) (77, 5.89984035603015380000e-001) (78, -2.37821110710024010000e-001) (79, 1.11627160392865820000e+000) (80, 1.21149784732890600000e+000) (81, -1.41757855028367660000e-001) (0, 3.10563240979743550000e+000) (1, 1.25235678181550640000e+000) (2, 3.25136887670148990000e+000) (3, 2.07226937147996050000e+000) (4, 1.36033835499463730000e+000) (5, 1.46451866754276110000e+000) (6, 1.97201917585542090000e+000) (7, 2.20234979883596660000e+000) (8, 1.55890590185506860000e+000) (9, 3.26303037117966580000e+000) (10, 2.24622536645827480000e+000) (11, 2.81409504784303840000e+000) (12, 1.31253267044874500000e+000) (13, 2.66990485644990240000e+000) (14, 1.94025609973530640000e+000) (15, 2.90017105128415990000e+000) (16, 1.59111997499920090000e+000) (17, 1.87718094451909550000e+000) (18, 1.34004348891383400000e+000) (19, 2.78915538151393030000e+000) (20, 2.87517293052431320000e+000) (21, 3.10988466745246090000e+000) (22, 2.82665853636925000000e+000) (23, 2.07478206918520280000e+000) (24, 2.76377666559190380000e+000) (25, 1.95010763240186020000e+000) (26, 2.54021099797162590000e+000) (27, 3.00383593866197750000e+000) (28, 1.70090553627440370000e+000) (29, 3.00293394461394180000e+000) (30, 2.33494292389721500000e+000) (31, 3.09319777756380040000e+000) (32, 1.31723592512778830000e+000) (33, 3.25085345153118380000e+000) (34, 1.71488644401895710000e+000) (35, 1.78247156947534660000e+000) (36, 2.05017051730308570000e+000) (37, 2.34177230740377110000e+000) (38, 2.27624888262860600000e+000) (39, 1.48745508762138320000e+000) (40, 1.42760133971958550000e+000) (41, 2.86434900194788480000e+000) (42, 1.23483232602509840000e+000) (43, 3.00351379793053620000e+000) (44, 1.79039623146880310000e+000) (45, 1.56174074029175220000e+000) (46, 2.34222330442778890000e+000) (47, 1.52198857403189300000e+000) (48, 1.39326113774794050000e+000) (49, 2.56997680155680410000e+000) (50, 1.76823294914564010000e+000) (51, 2.85648876810071650000e+000) (52, 2.99301201008554910000e+000) (53, 1.41709955187459840000e+000) (54, 2.58788782622494160000e+000) (55, 1.55220537464108910000e+000) (56, 1.96792944109120490000e+000) (57, 1.18120939241549670000e+000) (58, 3.55427925900085340000e+000) (59, 9.99792474649958460000e-001) (60, -3.21448263465697100000e-001) (61, 1.67132704341253960000e+000) (62, 9.78619586537127220000e-001) (63, 7.55274917303779490000e-001) (64, 2.65956559149572460000e+000) (65, 1.87138221061195780000e+000) (66, 4.83277798831298230000e-001) (67, 1.34483726873058670000e+000) (68, 2.46276816539193840000e+000) (69, 3.64369738515777140000e-001) (70, 5.60527146230927140000e-001) (71, 1.06766738339847310000e+000) (72, 2.39550518066699030000e+000) (73, 2.14490598933825580000e+000) (74, 2.00574119335560490000e+000) (75, 8.36601753076140710000e-001) (76, -1.57285346723199100000e-001) (77, 2.18688684298558970000e+000) (78, 1.63621947665979220000e+000) (79, 2.46090847743228340000e-001) (80, 2.32096181541146820000e+000) (81, 1.27736343011686430000e-001) (82, 2.99988450923890960000e-002) (0, 1.35840723802573220000e+000) (1, 1.91945723584483900000e+000) (2, 2.42218854657238000000e+000) (3, 8.47655743045997890000e-001) (4, 2.22903863544905210000e+000) (5, 7.78867039718697860000e-001) (6, 1.09038251720465280000e+000) (7, 1.20152752614210860000e+000) (8, 2.42528307118316770000e+000) (9, 2.18055774988004590000e+000) (10, 1.08400006019490340000e+000) (11, 2.47524674979484290000e+000) (12, 1.87510238309021630000e+000) (13, 2.48936551833156150000e+000) (14, 2.00881163398133240000e+000) (15, 6.70752086129305040000e-001) (16, 1.70967425493852730000e+000) (17, 2.38054140285219650000e+000) (18, 1.24975053466021580000e+000) (19, 2.23090824406806960000e+000) (20, 5.37300712289088490000e-001) (21, 1.86324003874886350000e+000) (22, 1.77201603199335310000e+000) (23, 9.02196739311129870000e-001) (24, 1.79999569201589130000e+000) (25, 1.71122151724392110000e+000) (26, 6.98087053524595770000e-001) (27, 1.70367861350512630000e+000) (28, 2.33663783493664700000e+000) (29, 2.12556546877584030000e+000) (30, 9.78528346377224740000e-001) (31, 9.66923879086771130000e-001) (32, 7.71259666717178270000e-001) (33, 1.07071939207360620000e+000) (34, 8.02785136189577250000e-001) (35, 1.46746323488167050000e+000) (36, 2.02724984312060830000e+000) (37, 2.12189072080053000000e+000) (38, 9.54223434329996900000e-001) (39, 1.18644171866451890000e+000) (40, 1.66119336936952110000e+000) (41, 4.64257037621955640000e-001) (42, 1.65584242056336750000e+000) (43, 9.24825450527514410000e-001) (44, 2.36706732694272540000e+000) (45, 1.24485087069313540000e+000) (46, 1.64836398608729740000e+000) (47, 9.95419293211107110000e-001) (48, 1.98212135921328800000e+000) (49, 8.93557858106014400000e-001) (50, 6.22980362450271000000e-001) (51, 5.26663283939506010000e-001) (52, 1.12055413215983220000e+000) (53, 3.99400959320864890000e-001) (54, 8.49267474614116450000e-001) (55, 8.28568793423802300000e-002) (56, 1.64081461157874030000e+000) (57, 1.85799845892634560000e+000) (58, 1.44188502425877000000e+000) (59, 1.96025694901115700000e+000) (60, 7.98717237152283540000e-002) (61, 1.12003837805803430000e+000) (62, 9.78218433340424240000e-001) (63, -3.38546655327822600000e+000) (64, 6.76999133843842690000e-001) (65, 1.52705882931365800000e+000) (66, 8.38849449727033790000e-001) (67, 1.09047298214170320000e+000) (68, 9.12924632597762690000e-001) (69, 5.66918099554070800000e-001) (70, 6.25198313057237830000e-001) (71, 2.53884239075043870000e-001) (72, 1.96557875436735460000e+000) (73, 2.11966029227948960000e+000) (74, 1.26115199988641690000e+000) (75, 3.42371657483793280000e-001) (76, 6.69636539121170940000e-001) (77, 2.60431224560645770000e-001) (78, 1.78725677367071790000e+000) (79, 1.62656378101025620000e+000) (80, 3.11168534325018010000e-001) (81, 3.94365298452664830000e-001) (82, 7.06136117089111280000e-001) (83, 2.28721590610109480000e+000) (0, 1.42726277135497640000e+000) (1, 7.54885270933841280000e-001) (2, 6.02514969101861970000e-001) (3, 2.00210263571770760000e+000) (4, 2.16247205585077260000e+000) (5, 1.92165988957694480000e+000) (6, 1.07607567432987230000e+000) (7, 1.34662649815854360000e+000) (8, 1.82089680259068240000e+000) (9, 1.45274383368504910000e+000) (10, 5.11041180787828790000e-001) (11, 8.36682706464302650000e-001) (12, 5.07622202804300040000e-001) (13, 1.69047511181583320000e+000) (14, 1.32469343184911390000e+000) (15, 2.10996171474525560000e+000) (16, 1.51860754163189540000e+000) (17, 2.21743373966146120000e+000) (18, 1.87348719746245700000e+000) (19, 1.24162136069521000000e+000) (20, 1.65639880526995960000e+000) (21, 4.24663604939810090000e-001) (22, 8.23135812567301950000e-001) (23, 6.31995590582477780000e-001) (24, 9.71668624728792010000e-002) (25, 6.02530513849562350000e-001) (26, 4.96026124211714160000e-001) (27, 1.88684056430378620000e+000) (28, 1.23986407244646670000e+000) (29, 6.92376031951966620000e-001) (30, 2.50956362713115720000e-001) (31, 1.57647213127765550000e+000) (32, 9.57314571166166030000e-001) (33, 6.26899378116463240000e-001) (34, 1.80212467819055290000e+000) (35, 1.00956687619745410000e+000) (36, 1.18554747882134960000e+000) (37, 8.95643949425534270000e-001) (38, 2.18569530253134530000e+000) (39, 1.05001403083278500000e+000) (40, 1.79091565370930980000e+000) (41, 1.14251996344373310000e+000) (42, 2.24588221684516260000e+000) (43, 1.44319649893859150000e+000) (44, 9.72796735619881110000e-001) (45, 2.37315851045841210000e+000) (46, 1.94797956914826040000e+000) (47, 7.46370080484297980000e-001) (48, 1.08439733772374440000e+000) (49, 7.45595972261612230000e-001) (50, 2.45086042024415450000e-001) (51, 2.27620145556702140000e+000) (52, 1.83605642195161180000e+000) (53, 1.46319429469130680000e+000) (54, 2.38812460276367000000e+000) (55, 2.10118848822148370000e+000) (56, 2.31743100498124610000e+000) (57, 1.13156897503671860000e+000) (58, 2.00165935914401420000e+000) (59, 7.53628142005637880000e-002) (60, 2.18508326378871240000e-001) (61, 1.02416145913907000000e+000) (62, 1.32018608710632220000e+000) (63, 2.46698767488344100000e-001) (64, 1.57802863427923560000e+000) (65, 1.85916619534277050000e+000) (66, 4.68480773287812740000e-001) (67, 9.80699887326792470000e-002) (68, 6.21044602175463310000e-001) (69, 1.30195479974138080000e-001) (70, 1.48475585163709400000e+000) (71, 5.32362208354626930000e-002) (72, 1.24362114027048150000e+000) (73, 6.66070943720313560000e-003) (74, 1.79594735715676720000e+000) (75, 6.88972598716138250000e-001) (76, 1.02332284189782710000e+000) (77, 1.78678707652165250000e+000) (78, -7.76525778169869780000e-002) (79, 8.01798872172586940000e-001) (80, 4.17970211757567270000e-001) (81, 1.93064218790408850000e+000) (82, 1.35709250391250170000e+000) (83, 3.49139088957092280000e-001) (84, -8.06845016891728490000e-002) (0, 1.87706157353292010000e+000) (1, 2.44181694754951950000e+000) (2, 1.23258433461450960000e+000) (3, 2.92869863855884960000e+000) (4, 1.81628725544141820000e+000) (5, 1.85456391496263430000e+000) (6, 1.61399543260922410000e+000) (7, 2.11294750360247760000e+000) (8, 2.02664751409174220000e+000) (9, 1.11394605434470370000e+000) (10, 1.35903286075626720000e+000) (11, 1.80208680840150670000e+000) (12, 2.09293778277351140000e+000) (13, 9.90531260070562800000e-001) (14, 2.73066694983862890000e+000) (15, 1.57823612506326500000e+000) (16, 2.13353815181034930000e+000) (17, 1.36090473786607370000e+000) (18, 2.22881024195084660000e+000) (19, 1.34257325168727880000e+000) (20, 1.45875872746837310000e+000) (21, 1.96571468679321430000e+000) (22, 2.80357619540060070000e+000) (23, 2.31427111413649600000e+000) (24, 1.12575824438244810000e+000) (25, 1.35277175456139710000e+000) (26, 1.17681530623958450000e+000) (27, 2.28303013064869060000e+000) (28, 2.58201408832537330000e+000) (29, 1.68503280106138930000e+000) (30, 2.03807241921021640000e+000) (31, 1.30926674863003180000e+000) (32, 2.46234304827084620000e+000) (33, 1.09819646762771090000e+000) (34, 2.97730289592727400000e+000) (35, 1.75390496920496020000e+000) (36, 1.58456177874468020000e+000) (37, 1.31772246936743360000e+000) (38, 2.19466462156851390000e+000) (39, 2.83232924114708640000e+000) (40, 2.82852093944092830000e+000) (41, 1.09780918270844060000e+000) (42, 2.73299065935425080000e+000) (43, 2.06511781607259340000e+000) (44, 1.13711860201437730000e+000) (45, 1.35044804504577520000e+000) (46, 1.27486293830151890000e+000) (47, 1.15809653514151930000e+000) (48, 1.66214785757183310000e+000) (49, 1.26163070355978310000e+000) (50, 1.81247895373526010000e+000) (51, 1.46256702917453120000e+000) (52, 1.61076805828197140000e+000) (53, 2.25430649913614230000e+000) (54, 2.96549070588952950000e+000) (55, 1.48251108144174220000e-001) (56, 3.05961200296162340000e+000) (57, -4.23571410101879900000e-002) (58, 1.77751991487690790000e+000) (59, 6.80717094257022870000e-001) (60, 7.86670977707989880000e-001) (61, 1.53919866530621970000e+000) (62, 7.87231003413132460000e-001) (63, 5.55397333417067210000e-001) (64, 2.79227095085167720000e+000) (65, 2.19274196657487370000e+000) (66, 1.42311074055571260000e+000) (67, 1.57221543447478360000e+000) (68, 1.50863616022790700000e+000) (69, 4.52187447945034130000e-001) (70, 2.69188768002776470000e+000) (71, 1.65406164741391000000e+000) (72, 8.20172668738377690000e-001) (73, 2.04065330024306050000e+000) (74, 1.71191295126910960000e+000) (75, 1.19496691956145560000e+000) (76, 1.17931333836154440000e+000) (77, 9.83573901126408520000e-001) (78, 2.24751123870912070000e+000) (79, 7.53640966021261520000e-001) (80, 1.99848703561830980000e+000) (81, 9.17785224305329720000e-001) (82, 1.15764368430674500000e+000) (83, 2.24389657946259780000e+000) (84, 7.27095193140412150000e-001) (85, 1.82304696718885720000e+000) (0, 2.29556987545508530000e+000) (1, 1.53779695677364510000e+000) (2, 1.18923303943590300000e+000) (3, 2.46962578748495610000e+000) (4, 2.82962120628069020000e+000) (5, 8.84005492032129300000e-001) (6, 2.67410111864880530000e+000) (7, 8.04049566580188450000e-001) (8, 1.72819281156550430000e+000) (9, 8.60561226330146640000e-001) (10, 1.40604405861374260000e+000) (11, 2.37778626729702400000e+000) (12, 1.27170777029384200000e+000) (13, 9.47492305214082340000e-001) (14, 2.20301992297315370000e+000) (15, 9.51302805700079520000e-001) (16, 8.26977154250171490000e-001) (17, 7.84092877594203210000e-001) (18, 8.78282590819307260000e-001) (19, 2.33270610900505740000e+000) (20, 2.72040838726677100000e+000) (21, 8.03726642810188690000e-001) (22, 1.57570820737161710000e+000) (23, 9.90957844656050190000e-001) (24, 2.24235203815912460000e+000) (25, 1.79775059162345290000e+000) (26, 1.14650307418110820000e+000) (27, 1.64961830784073600000e+000) (28, 2.32418092147706370000e+000) (29, 2.41724755199099480000e+000) (30, 9.25210565084098820000e-001) (31, 1.49084384061567990000e+000) (32, 1.36871407080177020000e+000) (33, 1.02731906115802270000e+000) (34, 1.64843064037556330000e+000) (35, 1.16675754504391960000e+000) (36, 1.12374409887995140000e+000) (37, 9.21335479844101690000e-001) (38, 1.03797554556801490000e+000) (39, 1.32356932775580360000e+000) (40, 1.71717396052468610000e+000) (41, 2.03174115536528040000e+000) (42, 2.07507752529924840000e+000) (43, 2.67035520291680810000e+000) (44, 1.86110823529740600000e+000) (45, 1.42432154399572910000e+000) (46, 1.60955061846759210000e+000) (47, 7.82736597760204210000e-001) (48, 1.26072836211385010000e+000) (49, 2.64206708066482900000e+000) (50, 2.80262477910871020000e+000) (51, 8.88655594320125860000e-001) (52, 8.20131170326176550000e-001) (53, 1.16184910373992320000e+000) (54, 1.88087117002139140000e+000) (55, 7.08076622136259440000e-001) (56, 2.78122591315521820000e+000) (57, -1.12721722177346980000e-001) (58, 2.15049120559168380000e+000) (59, 1.25337499442964240000e+000) (60, -7.28083442053765050000e-002) (61, 2.19083854636033770000e+000) (62, 8.25613215787144750000e-001) (63, -2.09598853177275330000e-001) (64, 1.82453195215392470000e+000) (65, 7.20889545321423690000e-001) (66, 2.15368833482165790000e-001) (67, 1.24510815125740320000e+000) (68, 2.20490218045069500000e+000) (69, 1.82643552201097310000e+000) (70, 1.24911240600540020000e+000) (71, 2.72655510280123410000e-001) (72, 2.06326781492879970000e+000) (73, 1.44603132095125450000e+000) (74, 3.61201202674302500000e-001) (75, 6.53124296093841930000e-001) (76, 1.09817783056775680000e+000) (77, 5.00898030915954420000e-001) (78, 5.04401449913583600000e-001) (79, 1.11671366030549810000e+000) (80, 1.72401994444868100000e+000) (81, 1.02952423706580750000e+000) (82, 8.56437101685691540000e-001) (83, 5.07873184347949370000e-001) (84, 8.09096477003726560000e-001) (85, 2.39905979325618370000e+000) (86, 1.84820239500432970000e-001) (0, -4.58675871787855960000e-001) (1, 1.54856686708376130000e+000) (2, 5.85133854710190530000e-001) (3, 1.29854860127966010000e+000) (4, 1.63903612842409260000e+000) (5, 3.13973544064055300000e-002) (6, -1.91480132995596350000e-001) (7, 1.08911226127679320000e+000) (8, -1.84824180196986270000e-001) (9, 7.21354713928346490000e-001) (10, -2.03822725078455860000e-001) (11, 1.28994109974057550000e-001) (12, 1.43302469617196680000e+000) (13, -3.50059823945005450000e-001) (14, 8.88453353575159030000e-002) (15, -3.94002036596023510000e-001) (16, 1.07050144180106790000e+000) (17, 7.98660506595381350000e-001) (18, 8.09153505357037780000e-001) (19, 1.51371310144524460000e-001) (20, 1.32185035183537040000e+000) (21, 2.61124222594076310000e-001) (22, 8.22144800734488260000e-001) (23, 1.60771722590979320000e+000) (24, 9.24041611114440280000e-001) (25, 9.31905464128875870000e-001) (26, 9.13078358952679410000e-001) (27, 2.07710266955970860000e+000) (28, 9.79773696856907070000e-001) (29, -2.42551287964361010000e-001) (30, 1.28756304811690560000e+000) (31, 3.03147438054195420000e-001) (32, 4.02127463198891810000e-001) (33, -4.60831058414924720000e-002) (34, 7.96940524836045270000e-001) (35, 2.16257108833033370000e-001) (36, 6.62872798561918050000e-001) (37, 8.46179555805347650000e-001) (38, 5.52952646033415540000e-001) (39, 3.58766838656490170000e-001) (40, -2.19913329416843360000e-001) (41, 6.56022983060435830000e-001) (42, -1.24339016900879030000e-001) (43, -6.76664867612571940000e-002) (44, 1.76977234034410850000e-002) (45, 7.89271280834552340000e-001) (46, 1.65628990897971300000e+000) (47, 1.42010051598049090000e+000) (48, 6.71357331709343750000e-001) (49, 5.14632451765689390000e-001) (50, 1.30371827335625050000e+000) (51, 6.51628761795334020000e-001) (52, -2.81179957687819870000e+000) (53, 3.78243329049918200000e-001) (54, 4.86511349620258470000e-002) (55, 1.38798392820467330000e+000) (56, 2.47010615963618420000e+000) (57, 6.11111192703664210000e-001) (58, 2.15373143017873450000e+000) (59, 1.07702843965870330000e+000) (60, 1.24572746194306760000e+000) (61, 9.70232504019095110000e-001) (62, 1.40063945042143230000e+000) (63, 3.41422573945498520000e-001) (64, 1.91343308669304930000e+000) (65, 1.65655006734518030000e+000) (66, 1.77064304041986120000e+000) (67, 1.60282256063354670000e+000) (68, 1.84773577526201470000e+000) (69, 1.06834308881506070000e+000) (70, 9.03458087587879270000e-001) (71, 3.95897993452569370000e-001) (72, 1.18524229864696040000e+000) (73, 5.91311597947684950000e-001) (74, 4.20260073113501500000e-001) (75, 5.66658014423784690000e-002) (76, 1.78404571703339250000e+000) (77, 1.60569341829172260000e+000) (78, 7.49207997002614420000e-001) (79, 1.37658478638176110000e+000) (80, 2.35924180698149300000e-001) (81, 1.29800577081758760000e+000) (82, 6.49147304304539490000e-001) (83, 1.19958813865949860000e+000) (84, -1.14994849516472790000e-001) (85, 6.08888483008092060000e-001) (86, 9.61847844037299060000e-001) (87, -2.87905676393286140000e-002) (0, 2.95592007755092160000e+000) (1, 2.33910197468846850000e+000) (2, 3.12124543279403400000e+000) (3, 2.79544392122968330000e+000) (4, 2.32351988215284470000e+000) (5, 1.66441676469164390000e+000) (6, 2.65268350496969420000e+000) (7, 2.04970178303099000000e+000) (8, 1.76702581387851110000e+000) (9, 1.32477887220354470000e+000) (10, 2.73473195072781290000e+000) (11, 2.20151403727847890000e+000) (12, 3.11749538562778430000e+000) (13, 1.52931524286583590000e+000) (14, 1.27770931466854830000e+000) (15, 2.94596305576467230000e+000) (16, 2.64783430604781960000e+000) (17, 2.08371083146973750000e+000) (18, 2.61333749785450480000e+000) (19, 1.69244229459769850000e+000) (20, 1.72713307074788910000e+000) (21, 1.70915870674414050000e+000) (22, 1.47833683806290810000e+000) (23, 2.08894796630536210000e+000) (24, 1.85789696181206090000e+000) (25, 2.18334570531785530000e+000) (26, 1.64763569655957690000e+000) (27, 1.82773778438038150000e+000) (28, 2.01446427086536730000e+000) (29, 2.52026804640970470000e+000) (30, 1.87972119682287750000e+000) (31, 2.71746880256593930000e+000) (32, 1.99377435546536860000e+000) (33, 2.12231045488785950000e+000) (34, 3.18344449096527930000e+000) (35, 2.28770046611659740000e+000) (36, 2.59274740629532420000e+000) (37, 2.40417538435764520000e+000) (38, 3.12667653558653360000e+000) (39, 2.27651498060347320000e+000) (40, 2.92611366817779880000e+000) (41, 1.63086030815227150000e+000) (42, 2.81445278100343190000e+000) (43, 2.18017756202223060000e+000) (44, 1.36984409418416630000e+000) (45, 1.24654512959730070000e+000) (46, 2.16491874941473170000e+000) (47, 1.09848292251606240000e+000) (48, 3.00046805164654320000e+000) (49, 1.53277717795915390000e+000) (50, 1.32138159309585170000e+000) (51, 2.11759056793723490000e+000) (52, 2.47552610435720810000e+000) (53, 1.47374626308353340000e+000) (54, 1.61760583109914750000e+000) (55, 4.28582255455487840000e-001) (56, 1.88718771945764940000e+000) (57, 5.79637971124400740000e-001) (58, 6.82905331206491110000e-001) (59, 1.11344794332586790000e+000) (60, 1.51356722344433010000e-001) (61, 2.40715259418948110000e+000) (62, 1.59167311410747910000e+000) (63, -4.92228958566768070000e-001) (64, 3.42380167437301570000e+000) (65, 1.33961761553518600000e+000) (66, 3.77883920974718730000e-001) (67, 2.13303530675083630000e+000) (68, 2.14325095247958600000e+000) (69, 1.84376442706460740000e+000) (70, 5.81267560139618330000e-001) (71, 1.81531579338960960000e+000) (72, 7.29871106717191800000e-001) (73, 1.73365528354524080000e+000) (74, 1.42776781555338910000e+000) (75, 1.36218255451830930000e+000) (76, 6.80151568738144030000e-002) (77, 2.09990735049950410000e+000) (78, 1.78367492480765220000e+000) (79, 9.99694761707593800000e-002) (80, 1.46479160370517650000e+000) (81, 8.10474102203829870000e-001) (82, 1.48809185014150950000e+000) (83, 5.03445845058458910000e-001) (84, 2.90533684395350380000e-001) (85, 7.62263755515314330000e-001) (86, 2.06365818088904310000e-002) (87, 8.33879569000078090000e-001) (88, 4.44390838571503800000e-001) (0, 7.85679709945346080000e-001) (1, 1.24247223308806020000e+000) (2, 3.51948681474036410000e-001) (3, 9.94515181414621250000e-001) (4, 1.81588504447166520000e+000) (5, 5.87732684335920130000e-002) (6, 7.23851913947450520000e-001) (7, -1.34779431437769240000e-001) (8, -1.71081877659757420000e-002) (9, 9.71097374812538110000e-001) (10, 4.23948733264419230000e-001) (11, -1.32968109380149550000e-001) (12, 3.89792374463590660000e-001) (13, 1.07917050680937750000e+000) (14, 7.89900478977082820000e-001) (15, 7.14342473144947140000e-001) (16, 1.04952654457993930000e-001) (17, 3.45644774370989840000e-001) (18, 4.74275693091578690000e-001) (19, 1.44438371358033880000e+000) (20, 2.49518849237016620000e+000) (21, 7.07014106522677270000e-001) (22, 9.16809303233128040000e-001) (23, 3.82583390067809890000e-001) (24, 1.43956192213209340000e+000) (25, -5.46445719890763240000e-003) (26, 7.26134587148187350000e-001) (27, 2.10929467673946250000e+000) (28, 1.80086821208493660000e+000) (29, 1.95628882008675870000e-001) (30, 1.73075995530856910000e+000) (31, 6.42547907816857330000e-001) (32, 9.21221328154510410000e-001) (33, 1.69653185888922490000e+000) (34, 7.88759335450945680000e-001) (35, -1.10559027804281570000e-002) (36, 2.16940498107882880000e-001) (37, 2.62209243144609030000e+000) (38, -1.49981598707077360000e-001) (39, 4.77576804184659360000e-001) (40, 2.53872429185430320000e+000) (41, 2.28972851776356480000e-001) (42, 1.08339934238495950000e+000) (43, 1.16503821512481840000e+000) (44, 1.53797648877401550000e+000) (45, 1.52510316415021840000e+000) (46, 1.02673083801085770000e+000) (47, 1.08850985819038650000e+000) (48, 5.38938713948405420000e-001) (49, 1.23121616030142360000e+000) (50, 3.90221224179031270000e-001) (51, 6.20606556663128140000e-001) (52, -2.02690519775948100000e+000) (53, -1.60932227973794580000e-002) (54, 1.87079759041673310000e+000) (55, -9.93669537116934950000e-001) (56, 1.17552292483427470000e+000) (57, 1.69989762581228840000e+000) (58, 1.95693325139130600000e+000) (59, -3.08061802794659000000e-001) (60, 1.40077233486370800000e+000) (61, 7.54067082351550950000e-001) (62, 1.41747999800957560000e+000) (63, 1.12098361754357260000e+000) (64, 2.35079314731606190000e+000) (65, 3.08038467725821050000e-001) (66, 1.12574474299550190000e+000) (67, -7.31563889282747380000e-002) (68, 1.34963708733199290000e+000) (69, -4.26428880237600840000e-001) (70, -7.76927807412046010000e-002) (71, 6.06671593340486930000e-001) (72, 1.31075835316665600000e+000) (73, -6.40350885666898660000e-002) (74, 6.04795581209380820000e-001) (75, 1.04757538782254690000e+000) (76, 3.35661298002791040000e-001) (77, 1.38417349990485960000e+000) (78, 1.26129981082015090000e-001) (79, 1.35533788138908290000e-001) (80, 2.50334922175936670000e-001) (81, 1.57669924526931850000e+000) (82, -4.35930253449819390000e-002) (83, 4.47169925542628950000e-003) (84, -2.34299361982940710000e-001) (85, 9.09615207477381340000e-001) (86, 1.06299537171367690000e+000) (87, -3.78946366298570480000e-001) (88, -1.21560755094418620000e-001) (89, -1.01425951041839170000e-001) (0, 7.42167280171344150000e-001) (1, 1.13805932501067700000e+000) (2, 1.09107027057702480000e+000) (3, 1.22757153201032020000e+000) (4, 2.03602921648793790000e+000) (5, 1.88774832983849160000e+000) (6, 2.09900490514350760000e+000) (7, 4.00344115045432380000e-001) (8, 2.02226352481507800000e-001) (9, 7.88036175730800090000e-001) (10, 1.13029253915387500000e+000) (11, 1.36743840064822990000e+000) (12, 6.86291281006693680000e-001) (13, 4.88193382653917870000e-001) (14, 7.71725925431515860000e-001) (15, 1.94942955418459430000e+000) (16, 7.07391049251005820000e-001) (17, 8.56642784132551240000e-001) (18, -3.76827430670518960000e-002) (19, 4.70653391260639930000e-001) (20, 3.13893763384185900000e-001) (21, 9.16058695937086660000e-001) (22, 1.61295342114979620000e+000) (23, 1.20319074398801650000e+000) (24, 1.07005023329597940000e+000) (25, 1.91682891779717510000e+000) (26, 1.84427468226336520000e-001) (27, 1.51269716038157690000e+000) (28, 1.07780201140498800000e+000) (29, 1.82149162140493040000e+000) (30, 2.05583452042278300000e+000) (31, 8.56144862619913520000e-001) (32, 1.45015467002317130000e+000) (33, 1.95059457206311460000e+000) (34, 1.90770294441543280000e+000) (35, 1.23788238748173220000e+000) (36, 6.48816539247623950000e-001) (37, 9.41624366049059970000e-001) (38, 1.33870129297806240000e+000) (39, 2.54781603445867920000e-001) (40, 9.26026071119982590000e-001) (41, 1.76496839008554640000e+000) (42, 2.17550774583300790000e+000) (43, 1.18265362047181520000e+000) (44, 7.72373157586249360000e-001) (45, 2.16100974556697740000e+000) (46, 1.03715583208772450000e+000) (47, 6.41502815899135380000e-001) (48, 2.34393790571762850000e-001) (49, 1.44847186642086420000e+000) (50, 3.03991111416763330000e-001) (51, 7.77874630901484120000e-001) (52, 2.19388913902743930000e+000) (53, 2.25388755977123490000e+000) (54, 3.20152051073951560000e-001) (55, 2.24236682741697860000e+000) (56, 3.37796407563417250000e-002) (57, 1.69661487070781610000e+000) (58, 1.72089983767104560000e+000) (59, 9.20733775198961050000e-001) (60, 1.93496720540334930000e-001) (61, 5.26250633352248090000e-001) (62, 1.70311145759260920000e+000) (63, -2.87461493642129810000e-001) (64, 2.79071597717181910000e+000) (65, 1.87126377410393660000e+000) (66, 1.28616590622485140000e+000) (67, -3.13998011986203360000e-001) (68, 9.13424908313828390000e-001) (69, 8.92636894083463250000e-001) (70, 1.60330966204426710000e+000) (71, 5.34146865639996800000e-001) (72, 1.07452099162699640000e+000) (73, 8.42682433801456690000e-001) (74, 5.05333172690936140000e-001) (75, 7.44153835639868700000e-001) (76, 4.98297153815524970000e-001) (77, 5.72721902062113490000e-001) (78, 7.29157913861200770000e-001) (79, 1.79516505998091300000e-001) (80, 2.03346015208015320000e+000) (81, 1.01043314624496050000e+000) (82, 7.20990926648138690000e-001) (83, 1.83359486269844680000e+000) (84, 4.89475984899965080000e-001) (85, 1.62053099883706670000e-001) (86, -1.86428554288230320000e-001) (87, -4.28493380158559870000e-001) (88, 6.45794412331525790000e-001) (89, -7.58452332641698760000e-001) (90, 5.35235298239623680000e-001) (0, 1.01251443711368720000e+000) (1, 2.82621739106469770000e+000) (2, 2.70926902575809960000e+000) (3, 2.60222824621667840000e+000) (4, 3.17285338192085490000e+000) (5, 3.02417483998068360000e+000) (6, 3.51664013242624220000e+000) (7, 3.60632644801297440000e+000) (8, 3.06497078136670620000e+000) (9, 1.76642949150335520000e+000) (10, 3.36789683502355340000e+000) (11, 3.55648828281756390000e+000) (12, 2.70913951483306460000e+000) (13, 2.14663235288663760000e+000) (14, 2.19614674076946060000e+000) (15, 3.26791440089653930000e+000) (16, 2.16791335911183180000e+000) (17, 1.51772730091671320000e+000) (18, 1.52453722291205480000e+000) (19, 1.64025510726906030000e+000) (20, 1.81570482933838280000e+000) (21, 1.30099461923335680000e+000) (22, 1.79573204122281240000e+000) (23, 2.51733026571545390000e+000) (24, 2.49365687651789880000e+000) (25, 2.95614038981785670000e+000) (26, 3.53062731233002140000e+000) (27, 3.17298289284588990000e+000) (28, 2.42680569825678120000e+000) (29, 5.78165580838907900000e-001) (30, 1.77115664026713240000e+000) (31, 3.05143688970054950000e+000) (32, 1.80437619253860790000e+000) (33, 3.07656200915733800000e+000) (34, 1.51857882351001280000e+000) (35, 1.21516506562351780000e+000) (36, 3.57207080834121890000e+000) (37, 2.15994843722217930000e+000) (38, 3.41782329662454300000e+000) (39, 2.19653527354456560000e+000) (40, 3.56099762425072710000e+000) (41, 1.96341560848157860000e+000) (42, 2.92697689074192180000e+000) (43, 1.60972127221101440000e+000) (44, 1.93829048902479010000e+000) (45, 3.22588810572268430000e+000) (46, 2.41819322174195420000e+000) (47, 3.18412083239889920000e+000) (48, 3.42516420483208160000e+000) (49, 2.92445142770373940000e+000) (50, 3.47668601205294700000e+000) (51, 2.33543574064459490000e+000) (52, -1.34342974910011210000e+001) (53, 2.13236261018972590000e+000) (54, 3.50675608760412680000e+000) (55, 3.36912718881138580000e+000) (56, 2.07461222009287340000e+000) (57, 1.13386919140333500000e+000) (58, 9.10503270415844670000e-001) (59, 1.23963854511699330000e+000) (60, 1.44055106188619700000e+000) (61, 1.95743737411807460000e+000) (62, 2.48448991617554380000e+000) (63, 2.88172235422620850000e-002) (64, 1.24023808555493510000e+000) (65, 1.41433330998383360000e+000) (66, 1.45720142617041600000e+000) (67, 1.81750081961776490000e+000) (68, 2.12444171195069710000e+000) (69, 2.26917017067730110000e+000) (70, 9.87012012830876360000e-001) (71, 1.39192791995277990000e+000) (72, 1.93438442946184550000e+000) (73, 5.79441131745755290000e-001) (74, 9.87400545605981340000e-001) (75, 1.21767097031819760000e+000) (76, 3.80772546822640420000e-002) (77, 7.81413419337825930000e-001) (78, 1.00624438519857270000e+000) (79, 1.21397990895470030000e+000) (80, 7.48582399841455360000e-001) (81, 6.83762181861441660000e-001) (82, 7.96954730342025020000e-001) (83, 3.02287752170871390000e-001) (84, 2.65571404923451050000e-001) (85, 1.34795896090339990000e+000) (86, 6.49312275802133690000e-001) (87, 9.83579973317449060000e-001) (88, 1.40617412170662900000e+000) (89, 2.13583867335377640000e+000) (90, 1.65800811543717170000e+000) (91, 1.37165946018480360000e+000) (0, 1.00232947793341620000e-001) (1, 6.07571129966966050000e-001) (2, 9.49710605363800480000e-001) (3, -2.47421230724574250000e-001) (4, -5.77445560902849600000e-001) (5, 1.06360592779281630000e+000) (6, 9.90526335244506170000e-001) (7, 1.27856877183119840000e+000) (8, -1.28926040324875170000e-001) (9, -6.95422456319936380000e-001) (10, -3.98569005028837410000e-001) (11, 3.38511247118442330000e-001) (12, -7.72909026821414210000e-002) (13, 1.61383936810745780000e-001) (14, 1.01546928128271440000e+000) (15, 1.29651473560414350000e+000) (16, 4.51562869599749850000e-002) (17, 4.25711050563342570000e-001) (18, -6.58455722910006170000e-002) (19, 3.96050275429506220000e-001) (20, -1.87740849928651090000e-001) (21, 3.19406007934248560000e-001) (22, -1.61111493736877690000e-001) (23, -9.45460775714302430000e-001) (24, 4.89444218413683630000e-001) (25, 2.86187518707311850000e-001) (26, -1.17820033344284860000e+000) (27, 8.32099648391387280000e-001) (28, -1.02629234322454830000e+000) (29, 8.15593912215934190000e-002) (30, 1.12960721201520540000e+000) (31, -5.34430404725633630000e-001) (32, 8.31539349328234030000e-001) (33, -6.89850785256855950000e-001) (34, 1.12054647074044110000e+000) (35, 8.07755448734018390000e-001) (36, 8.44172789529404780000e-001) (37, 1.02244383609501430000e+000) (38, -2.15092581184142400000e-001) (39, -3.25878133717485750000e-001) (40, 6.54230361735496870000e-001) (41, 5.75436841045013800000e-001) (42, 8.65487670689328750000e-001) (43, 4.55840273807263940000e-001) (44, 4.80588859226993180000e-001) (45, 3.02360172081245990000e-001) (46, 6.21500307624667130000e-001) (47, 8.32187218056499200000e-001) (48, 4.39125260618022590000e-001) (49, 1.34782593888274470000e+000) (50, 1.27707867375618860000e+000) (51, -3.32745542237096510000e-001) (52, 1.30862550052038330000e+000) (53, 7.97461454221486290000e-001) (54, 7.43425874904580340000e-001) (55, -5.89625492994234720000e-001) (56, 5.99715399504383570000e-001) (57, 