FANN_FLO_2.1
num_layers=72
learning_rate=0.700000
connection_rate=1.000000
network_type=1
learning_momentum=0.000000
training_algorithm=2
train_error_function=1
train_stop_function=0
cascade_output_change_fraction=0.010000
quickprop_decay=-0.000100
quickprop_mu=1.750000
rprop_increase_factor=1.200000
rprop_decrease_factor=0.500000
rprop_delta_min=0.000000
rprop_delta_max=50.000000
rprop_delta_zero=0.100000
cascade_output_stagnation_epochs=12
cascade_candidate_change_fraction=0.010000
cascade_candidate_stagnation_epochs=12
cascade_max_out_epochs=150
cascade_max_cand_epochs=150
cascade_num_candidate_groups=2
bit_fail_limit=3.49999999999999980000e-001
cascade_candidate_limit=1.00000000000000000000e+003
cascade_weight_multiplier=4.00000000000000020000e-001
cascade_activation_functions_count=10
cascade_activation_functions=3 5 7 8 10 11 14 15 16 17 
cascade_activation_steepnesses_count=4
cascade_activation_steepnesses=2.50000000000000000000e-001 5.00000000000000000000e-001 7.50000000000000000000e-001 1.00000000000000000000e+000 
layer_sizes=56 1 1 1 1 1 1 1 1 1 1 1 1 1 1 1 1 1 1 1 1 1 1 1 1 1 1 1 1 1 1 1 1 1 1 1 1 1 1 1 1 1 1 1 1 1 1 1 1 1 1 1 1 1 1 1 1 1 1 1 1 1 1 1 1 1 1 1 1 1 1 1 
scale_included=0
neurons (num_inputs, activation_function, activation_steepness)=(0, 0, 0.00000000000000000000e+000) (0, 0, 0.00000000000000000000e+000) (0, 0, 0.00000000000000000000e+000) (0, 0, 0.00000000000000000000e+000) (0, 0, 0.00000000000000000000e+000) (0, 0, 0.00000000000000000000e+000) (0, 0, 0.00000000000000000000e+000) (0, 0, 0.00000000000000000000e+000) (0, 0, 0.00000000000000000000e+000) (0, 0, 0.00000000000000000000e+000) (0, 0, 0.00000000000000000000e+000) (0, 0, 0.00000000000000000000e+000) (0, 0, 0.00000000000000000000e+000) (0, 0, 0.00000000000000000000e+000) (0, 0, 0.00000000000000000000e+000) (0, 0, 0.00000000000000000000e+000) (0, 0, 0.00000000000000000000e+000) (0, 0, 0.00000000000000000000e+000) (0, 0, 0.00000000000000000000e+000) (0, 0, 0.00000000000000000000e+000) (0, 0, 0.00000000000000000000e+000) (0, 0, 0.00000000000000000000e+000) (0, 0, 0.00000000000000000000e+000) (0, 0, 0.00000000000000000000e+000) (0, 0, 0.00000000000000000000e+000) (0, 0, 0.00000000000000000000e+000) (0, 0, 0.00000000000000000000e+000) (0, 0, 0.00000000000000000000e+000) (0, 0, 0.00000000000000000000e+000) (0, 0, 0.00000000000000000000e+000) (0, 0, 0.00000000000000000000e+000) (0, 0, 0.00000000000000000000e+000) (0, 0, 0.00000000000000000000e+000) (0, 0, 0.00000000000000000000e+000) (0, 0, 0.00000000000000000000e+000) (0, 0, 0.00000000000000000000e+000) (0, 0, 0.00000000000000000000e+000) (0, 0, 0.00000000000000000000e+000) (0, 0, 0.00000000000000000000e+000) (0, 0, 0.00000000000000000000e+000) (0, 0, 0.00000000000000000000e+000) (0, 0, 0.00000000000000000000e+000) (0, 0, 0.00000000000000000000e+000) (0, 0, 0.00000000000000000000e+000) (0, 0, 0.00000000000000000000e+000) (0, 0, 0.00000000000000000000e+000) (0, 0, 0.00000000000000000000e+000) (0, 0, 0.00000000000000000000e+000) (0, 0, 0.00000000000000000000e+000) (0, 0, 0.00000000000000000000e+000) (0, 0, 0.00000000000000000000e+000) (0, 0, 0.00000000000000000000e+000) (0, 0, 0.00000000000000000000e+000) (0, 0, 0.00000000000000000000e+000) (0, 0, 0.00000000000000000000e+000) (0, 0, 0.00000000000000000000e+000) (56, 15, 5.00000000000000000000e-001) (57, 5, 2.50000000000000000000e-001) (58, 15, 2.50000000000000000000e-001) (59, 16, 2.50000000000000000000e-001) (60, 17, 1.00000000000000000000e+000) (61, 16, 1.00000000000000000000e+000) (62, 16, 1.00000000000000000000e+000) (63, 14, 5.00000000000000000000e-001) (64, 14, 2.50000000000000000000e-001) (65, 11, 2.50000000000000000000e-001) (66, 15, 1.00000000000000000000e+000) (67, 15, 5.00000000000000000000e-001) (68, 14, 2.50000000000000000000e-001) (69, 15, 5.00000000000000000000e-001) (70, 15, 5.00000000000000000000e-001) (71, 5, 2.50000000000000000000e-001) (72, 11, 2.50000000000000000000e-001) (73, 11, 5.00000000000000000000e-001) (74, 15, 2.50000000000000000000e-001) (75, 11, 1.00000000000000000000e+000) (76, 15, 2.50000000000000000000e-001) (77, 16, 2.50000000000000000000e-001) (78, 15, 2.50000000000000000000e-001) (79, 5, 2.50000000000000000000e-001) (80, 11, 2.50000000000000000000e-001) (81, 14, 7.50000000000000000000e-001) (82, 5, 2.50000000000000000000e-001) (83, 11, 5.00000000000000000000e-001) (84, 11, 1.00000000000000000000e+000) (85, 3, 5.00000000000000000000e-001) (86, 11, 5.00000000000000000000e-001) (87, 16, 5.00000000000000000000e-001) (88, 5, 2.50000000000000000000e-001) (89, 15, 5.00000000000000000000e-001) (90, 11, 2.50000000000000000000e-001) (91, 11, 2.50000000000000000000e-001) (92, 15, 5.00000000000000000000e-001) (93, 11, 7.50000000000000000000e-001) (94, 5, 5.00000000000000000000e-001) (95, 5, 5.00000000000000000000e-001) (96, 15, 5.00000000000000000000e-001) (97, 15, 2.50000000000000000000e-001) (98, 5, 5.00000000000000000000e-001) (99, 8, 2.50000000000000000000e-001) (100, 5, 2.50000000000000000000e-001) (101, 11, 1.00000000000000000000e+000) (102, 17, 7.50000000000000000000e-001) (103, 5, 2.50000000000000000000e-001) (104, 14, 2.50000000000000000000e-001) (105, 15, 5.00000000000000000000e-001) (106, 5, 2.50000000000000000000e-001) (107, 16, 5.00000000000000000000e-001) (108, 11, 2.50000000000000000000e-001) (109, 8, 2.50000000000000000000e-001) (110, 14, 2.50000000000000000000e-001) (111, 15, 5.00000000000000000000e-001) (112, 5, 5.00000000000000000000e-001) (113, 11, 5.00000000000000000000e-001) (114, 14, 5.00000000000000000000e-001) (115, 14, 1.00000000000000000000e+000) (116, 5, 2.50000000000000000000e-001) (117, 14, 5.00000000000000000000e-001) (118, 14, 7.50000000000000000000e-001) (119, 11, 2.50000000000000000000e-001) (120, 15, 2.50000000000000000000e-001) (121, 5, 5.00000000000000000000e-001) (122, 11, 2.50000000000000000000e-001) (123, 14, 2.50000000000000000000e-001) (124, 11, 2.50000000000000000000e-001) (125, 14, 2.50000000000000000000e-001) (126, 11, 5.00000000000000000000e-001) 
connections (connected_to_neuron, weight)=(0, 7.92675412983611220000e-001) (1, 1.58184882610172630000e+000) (2, 7.64269386580998630000e-001) (3, 5.48960742216534900000e-001) (4, 1.14296832036387870000e+000) (5, 3.57356578346243350000e-001) (6, 1.27642358274671830000e+000) (7, 4.95736180045712740000e-001) (8, 2.11610183028260850000e-001) (9, 3.51463079829164250000e-001) (10, 1.42091081875080150000e+000) (11, 1.32037854767262770000e+000) (12, 8.17089852810985670000e-001) (13, 1.32032209279030570000e+000) (14, 9.95093818313419700000e-001) (15, 1.21141058486332340000e+000) (16, 1.29781181693726680000e+000) (17, 1.53664148898859780000e+000) (18, -2.00814093283890830000e-001) (19, 1.46935905598027650000e+000) (20, 9.73463467055220690000e-001) (21, 2.37011354445117480000e-001) (22, 6.79350898715699760000e-001) (23, 9.00386237838162630000e-001) (24, 9.79609638870900310000e-003) (25, -7.26783660527757340000e-001) (26, 2.14123840705131970000e+000) (27, 8.01547829185190460000e-002) (28, 1.04712200795004050000e+000) (29, 1.98794141267469900000e+000) (30, 1.39226796262990840000e+000) (31, 1.54895862964099940000e+000) (32, 1.58894745623876800000e+000) (33, 1.56916533125379080000e+000) (34, 3.88420741467682350000e-001) (35, 1.25608711789522660000e+000) (36, 1.57934002350069870000e+000) (37, 1.76898947104529940000e+000) (38, 1.32222200704899380000e+000) (39, 9.20020724904701100000e-001) (40, 1.14063131765180730000e+000) (41, 1.61487366196860330000e+000) (42, 2.05329293001153880000e+000) (43, 2.00362595444086680000e+000) (44, 1.98361335817133000000e+000) (45, 5.48186872107650270000e-001) (46, 2.73775097306494460000e-001) (47, 7.71025243580172990000e-001) (48, 4.52959649650241660000e-001) (49, 4.12701258460968170000e-001) (50, 4.29111135824731650000e-001) (51, 5.16469788523162830000e-002) (52, 1.76348854793692470000e+000) (53, 1.88130851211506880000e+000) (54, 1.06232354100245340000e+000) (55, -1.40930695200620690000e+000) (0, 2.22585315609114430000e-001) (1, -7.15227141288835800000e-001) (2, -6.14881985263394330000e-001) (3, -4.75213030996735790000e-001) (4, -5.22166783614287850000e-002) (5, -4.95257999152014380000e-002) (6, -5.81646657347547170000e-001) (7, -3.47859954405676800000e-001) (8, -5.85086679588225020000e-001) (9, -1.85100692651571560000e-001) (10, 5.38544572571272200000e-001) (11, -4.46074270683704810000e-001) (12, 6.56158320073020110000e-001) (13, -3.06193031190073240000e-001) (14, 8.04749209459634800000e-001) (15, -3.61010981275612490000e-001) (16, -2.79345480100870960000e-001) (17, 7.76475862301845290000e-001) (18, 2.41012590968504830000e-001) (19, 2.28149601495576530000e-001) (20, 5.02366608705873220000e-003) (21, -6.48480620275615700000e-001) (22, -2.56275891394250680000e-002) (23, -5.70780003935494000000e-001) (24, 3.73443904089014680000e-001) (25, -7.47792429095266110000e-001) (26, -1.90784068506869130000e-001) (27, 3.58752559536223810000e-001) (28, 1.27744014334760750000e+000) (29, -4.79112174786968330000e-001) (30, -5.20819909777369470000e-001) (31, -7.76421193148262630000e-001) (32, 1.06224005407094600000e+000) (33, 2.14152207522274870000e-001) (34, 8.30242812176960830000e-001) (35, -8.14961788233011690000e-001) (36, -2.56249375549571780000e-001) (37, -6.13384841246068180000e-001) (38, -3.70040861914011230000e-002) (39, -1.37439148305701280000e-001) (40, 9.07387037845294450000e-002) (41, 7.59233999005417990000e-001) (42, 2.86323813530842410000e-001) (43, 1.19768910026530980000e+000) (44, -2.83993873223763180000e-001) (45, 9.89474381694794510000e-001) (46, 5.14908402918268120000e-001) (47, 6.00998230803970410000e-001) (48, 2.50741520827039100000e-001) (49, -6.69799826072871810000e-001) (50, -4.21827483945403310000e-001) (51, -8.29893189689644150000e-002) (52, 9.47583062467934220000e-001) (53, -8.99240580036558050000e-001) (54, 5.06882745015207800000e-001) (55, -5.85689069502757560000e-001) (56, 3.17028249581463630000e+000) (0, 8.83322108110953570000e-001) (1, 1.01811379996549680000e+000) (2, 1.31249185512634000000e+000) (3, 1.22011018289376970000e+000) (4, 1.51544987423798320000e+000) (5, 3.45627127492334540000e-001) (6, 2.08514193340978520000e+000) (7, 1.58977585344136930000e+000) (8, 1.36806155913276140000e+000) (9, 1.03565506695784680000e+000) (10, 1.17670792110609020000e+000) (11, 3.95560831295521780000e-001) (12, 6.91286966523908750000e-001) (13, 1.85967625337269830000e+000) (14, 6.22001175539504400000e-002) (15, 4.48698038140762810000e-001) (16, 6.97121313939927490000e-001) (17, 6.11813701652765160000e-001) (18, 9.74753687329976470000e-001) (19, 9.11484009763033900000e-001) (20, 3.55517005038762100000e-001) (21, 1.13975464716672060000e+000) (22, 2.09574943971351990000e+000) (23, 4.68743633231793800000e-001) (24, 2.21392182778353110000e+000) (25, 2.13050906820269640000e+000) (26, 1.64475850849802650000e+000) (27, -2.53094911348761610000e-001) (28, 1.24823616413992110000e+000) (29, 1.67691870207293300000e+000) (30, 1.67631338470703460000e+000) (31, 1.07121780809500460000e+000) (32, 1.06359404968279870000e+000) (33, 1.07371088155200380000e+000) (34, 2.33888626138845310000e-001) (35, 1.89382573535496190000e+000) (36, 2.66679510489397860000e-001) (37, 3.21534358826832070000e-001) (38, 1.56922246160055790000e+000) (39, 8.75537332983579830000e-001) (40, 1.82687312144444310000e+000) (41, 1.76309680912886590000e+000) (42, 1.43909243914545160000e+000) (43, 1.33526055682023400000e+000) (44, 1.75898714028185150000e+000) (45, 1.01764003465324990000e+000) (46, 3.59829971966254770000e-001) (47, 2.13448767382239660000e+000) (48, 1.24962848213311410000e+000) (49, 1.72831461119406900000e+000) (50, 6.68854495199583400000e-001) (51, 5.64845802272977980000e-001) (52, 1.10378071084103890000e+000) (53, 2.67781731729507420000e-001) (54, 8.67422949768643650000e-001) (55, 1.12495618067989650000e-001) (56, 1.55580500267175070000e+000) (57, 2.56792810750551760000e+000) (0, -6.36654782635850260000e-002) (1, 3.58315431311044370000e-001) (2, 1.14357834454030560000e+000) (3, 2.13462275144303270000e-002) (4, 7.41032059609000540000e-001) (5, 5.84819079902311860000e-001) (6, 2.98006937944398200000e-001) (7, 6.16614733518206950000e-001) (8, 6.62618366432548680000e-001) (9, 9.25139028362921280000e-002) (10, 7.43706165935595020000e-001) (11, 1.28478286525512540000e+000) (12, -2.38415217280573130000e-001) (13, 7.29797838504299020000e-001) (14, 1.52375866342596740000e+000) (15, 2.88892770541283150000e+000) (16, 1.02133761662232030000e+000) (17, 1.66385352592490140000e+000) (18, 7.81664573653406140000e-001) (19, 1.28617661911893700000e+000) (20, 3.96367690256673790000e-001) (21, 1.07645326089130400000e+000) (22, 7.29424707388960260000e-001) (23, 9.21254388317624070000e-001) (24, 1.32042437505600810000e+000) (25, 1.49480098295765760000e+000) (26, 1.94939076492964050000e-001) (27, 2.82491227606955500000e-001) (28, -1.54896035963912940000e-001) (29, -5.30298568859710940000e-001) (30, 5.28758067605559910000e-002) (31, -2.20131792628973700000e-001) (32, 1.72220222826696730000e+000) (33, 1.53822749900346630000e+000) (34, 7.36232813638503790000e-001) (35, 7.08156579510396680000e-002) (36, -3.09140295076812230000e-002) (37, 9.14124609481648980000e-001) (38, 1.68569756748299150000e+000) (39, 1.50193049317864970000e+000) (40, 9.33154296363925990000e-001) (41, 1.38828168668448270000e+000) (42, 6.05776610880505720000e-001) (43, 7.03203987887409120000e-002) (44, 2.72276902579749740000e-001) (45, -4.64153971340015070000e-001) (46, 7.63508539871668780000e-001) (47, -4.76853342641157200000e-001) (48, 1.06040668789808110000e+000) (49, 1.28372669097432810000e-001) (50, 4.67797607017262640000e-001) (51, 1.05504379404125540000e+000) (52, 1.95881215208678460000e-001) (53, 1.07539515157685010000e-001) (54, 1.33431053299763770000e+000) (55, -7.43759124487707420000e-001) (56, 1.62905835386390320000e+000) (57, 1.31469538919099360000e+000) (58, 2.78315289360670400000e+000) (0, 1.83136234702673390000e+000) (1, 1.19469767500088090000e+000) (2, 8.61107771877127950000e-001) (3, 1.80688534295317370000e+000) (4, 2.79385138958442250000e-001) (5, 1.85765995264385380000e+000) (6, 6.33926275420726330000e-001) (7, 1.19151019885838830000e+000) (8, 1.04388703639543400000e+000) (9, 2.47898616381315630000e-001) (10, 1.92292053264951860000e-001) (11, 1.00988453663331200000e+000) (12, 9.48181141988504450000e-001) (13, 1.31863074379092930000e+000) (14, 2.25983480098788190000e+000) (15, 2.37134629766275970000e+000) (16, 8.67173773753440180000e-001) (17, 8.34224493327134660000e-001) (18, 1.45951120219383920000e+000) (19, 1.52278627041768690000e+000) (20, 1.21960188820587410000e+000) (21, 1.06675422070265350000e+000) (22, 1.47221653307568890000e+000) (23, 2.04301067078079470000e+000) (24, -8.28390620174358600000e-003) (25, 1.62491735758359620000e+000) (26, 5.46178787795616020000e-001) (27, 1.34873265610067940000e+000) (28, 1.01370554992647600000e+000) (29, -3.17975641854083000000e-001) (30, 1.12220426672755800000e+000) (31, 1.40095462853726580000e+000) (32, 8.49971854618196910000e-001) (33, 1.08612410725215150000e+000) (34, 4.84971244547099940000e-001) (35, 1.33247377567740740000e+000) (36, 9.45403576722297360000e-001) (37, 7.88841785771218660000e-001) (38, 1.07276266111531580000e+000) (39, 1.05434672435162250000e+000) (40, 4.52282979759765670000e-001) (41, 3.54262183624671930000e-001) (42, 3.68292273690545460000e-001) (43, 1.57958047414923560000e-001) (44, 9.44133390697097010000e-001) (45, 9.30271727419230920000e-001) (46, 9.49339430942310550000e-001) (47, 1.67371277174764740000e+000) (48, 1.52888370979447920000e+000) (49, 3.44976873071847770000e-001) (50, 8.82182800874476760000e-001) (51, 1.42680492510684420000e+000) (52, 1.26819733493102380000e+000) (53, 1.77958109514821410000e-001) (54, 7.17212001854459350000e-002) (55, -1.58461587198413320000e+000) (56, 2.68497723678397550000e+000) (57, 1.77723266033104270000e+000) (58, 2.10701868450313200000e+000) (59, 9.56190247651809600000e-001) (0, 1.66935453823346180000e+000) (1, 1.64213483125823110000e+000) (2, 5.93159909681554080000e-001) (3, 6.88777514533582380000e-001) (4, 1.28606643269216090000e+000) (5, 6.48190244084614340000e-001) (6, 6.55379105620321530000e-001) (7, 1.65410072772684070000e+000) (8, 1.51158653305559310000e+000) (9, 1.86738216945089650000e+000) (10, 7.78716603638128500000e-002) (11, 2.18417733917614500000e+000) (12, 1.61881151205066230000e+000) (13, 5.59094762229803250000e-001) (14, 7.37142289788904840000e-001) (15, 1.78231238322532670000e+000) (16, 1.93286930784720570000e+000) (17, 1.72468776876244330000e+000) (18, 8.30697575770056430000e-001) (19, 1.41031609505472620000e+000) (20, 7.44158941121283220000e-001) (21, 2.81704458271722910000e-001) (22, 1.61337850456578740000e+000) (23, 4.25813579098598740000e-001) (24, 1.19422700515526810000e+000) (25, 1.58078496889246960000e+000) (26, 1.07709685454531500000e+000) (27, 2.88922916906756700000e-001) (28, 1.91247538909031900000e+000) (29, 6.30495601461221300000e-001) (30, 1.40081792266060570000e-001) (31, 1.13890470073004630000e+000) (32, 1.37565756103533790000e+000) (33, 1.16387426223569700000e+000) (34, 7.27350449317087260000e-001) (35, 1.77327003854974060000e+000) (36, 8.05977450539494990000e-001) (37, 1.89965105874973820000e+000) (38, 1.55336166216912240000e+000) (39, 8.73730848693732300000e-001) (40, 1.57456709657374310000e+000) (41, 1.61864157902928560000e+000) (42, 2.24147666912663500000e+000) (43, 1.80166186837502980000e+000) (44, 3.34657033876652020000e-001) (45, 6.80937862601362240000e-001) (46, 1.02363815656130710000e+000) (47, 4.54452831425656290000e-001) (48, 4.54823380435313280000e-001) (49, 1.81628012811902550000e+000) (50, 1.43335698850962800000e+000) (51, 3.57366036423924500000e-001) (52, 2.33830501586836850000e+000) (53, 1.71299478770676330000e-001) (54, 2.31371058864656610000e+000) (55, 1.43922008839878570000e-001) (56, 1.48517410793620750000e+000) (57, 9.25686716161784220000e-001) (58, 1.24300224293407480000e+000) (59, 7.99167962597808530000e-001) (60, 8.49036305995783500000e-001) (0, 4.91127341740381640000e-001) (1, 1.87175017942773870000e+000) (2, 1.58945585766712920000e+000) (3, 4.44071788692114610000e-001) (4, 1.20274049177739140000e+000) (5, -4.75751925584601390000e-001) (6, 1.34430374536954430000e+000) (7, 1.32495077097453160000e+000) (8, 1.05933399145913730000e+000) (9, 1.08666966394853200000e+000) (10, 1.03757487233294010000e+000) (11, 8.91980375695138990000e-001) (12, 2.09863006428736120000e+000) (13, 1.64120485501575520000e+000) (14, 7.99409669728145670000e-002) (15, 1.27115657345825460000e+000) (16, 1.97045922302573180000e+000) (17, 6.54097403238897420000e-001) (18, 1.38300477193298990000e+000) (19, 1.27532182960958450000e+000) (20, -5.68340231987989470000e-002) (21, 9.57606009050441240000e-001) (22, 6.70007366522724410000e-001) (23, 8.96258351390670560000e-001) (24, 7.09533338339500160000e-001) (25, 5.59032693405441890000e-002) (26, 1.84659917450835630000e-001) (27, 1.51199021544044080000e+000) (28, 7.20731979799570270000e-001) (29, 4.80828832983891950000e-001) (30, 1.08233275773403110000e+000) (31, 7.09373083610432610000e-001) (32, 9.35924825828139300000e-001) (33, 1.76585086365592060000e-001) (34, 4.05729919740810520000e-001) (35, 1.26192588378376350000e+000) (36, 1.00801507867953060000e+000) (37, 1.51566934322387750000e+000) (38, 7.49164197293133660000e-001) (39, 1.09965763568856990000e+000) (40, 7.33252977852559270000e-001) (41, 8.34004481999422120000e-001) (42, 1.09894425219218530000e+000) (43, 3.57592205492878070000e-001) (44, 9.92969051534477340000e-001) (45, 1.01147432546492940000e+000) (46, 7.52150441146025920000e-001) (47, 1.22095959776403680000e+000) (48, 1.84502809230690250000e+000) (49, 4.74365353326217760000e-001) (50, 1.01490738059896750000e+000) (51, 1.64879695572623750000e-001) (52, 1.20674885318540980000e+000) (53, 1.72840526573804440000e+000) (54, 4.67563650061605270000e-001) (55, 1.27172179651303520000e+000) (56, 1.74870155017085230000e+000) (57, 1.89134777551690030000e-001) (58, 1.53800818141342900000e+000) (59, 1.58422991283832810000e+000) (60, 7.13545120186882430000e-001) (61, 1.85211359534541840000e+000) (0, 4.81176241900767300000e-001) (1, 1.13356131020888000000e+000) (2, 5.95934215085377260000e-002) (3, 2.21352964249044120000e-002) (4, 6.05185550904722040000e-001) (5, 1.69028256990050240000e+000) (6, 1.83527991272380130000e+000) (7, 7.41416136702823470000e-001) (8, 1.54126772542792460000e+000) (9, 1.15560645817014780000e-001) (10, 5.99955488433894680000e-001) (11, 1.18916715049059050000e+000) (12, 6.30510462967816990000e-001) (13, 1.27417998894119010000e-001) (14, 1.03669828608276560000e+000) (15, 7.42810334024448070000e-001) (16, 8.23856031577434260000e-001) (17, 1.39152218284427700000e+000) (18, 7.71358837297273950000e-001) (19, 1.72728560452856620000e-001) (20, 2.17921645776500530000e-001) (21, -1.11355554198060550000e-001) (22, 1.82054515247543370000e+000) (23, 6.12182197305383810000e-001) (24, 1.80259048861886730000e-001) (25, 1.72790162278431000000e-001) (26, 1.25630809880915240000e+000) (27, 9.27276427685554070000e-001) (28, 1.06668878513541590000e+000) (29, 4.35544776440486500000e-001) (30, 1.70432083088094790000e+000) (31, 1.57827248725802400000e+000) (32, 7.03422845904652430000e-001) (33, 6.31718520631743940000e-001) (34, 7.88917162203745080000e-001) (35, 4.31073393928648630000e-001) (36, 1.37874104074938800000e-001) (37, 1.83071505663560940000e+000) (38, 8.74668150806904850000e-001) (39, 1.91176564198651590000e+000) (40, 1.17940466315071800000e+000) (41, 8.65560997707028600000e-002) (42, 1.13772045498690380000e+000) (43, 8.37032576304420960000e-001) (44, 5.17972593833802560000e-001) (45, 6.64742947953601230000e-001) (46, 1.70356158402867390000e-001) (47, 1.36664014616789880000e+000) (48, 2.64618064509987370000e-001) (49, 3.29782296476700650000e-001) (50, 1.29992785249126740000e+000) (51, 1.26236638566707280000e-001) (52, 1.41539603573689620000e+000) (53, 8.83741935397380550000e-001) (54, 1.29193286404037020000e+000) (55, -2.63214480492523770000e-001) (56, 2.21163764361554090000e+000) (57, 8.78015054289246640000e-001) (58, 4.25687803905966780000e-001) (59, 9.83678468247368380000e-001) (60, 1.86673321736128380000e+000) (61, 4.36285419240989510000e-001) (62, 5.19289393193134500000e-001) (0, 8.36183793645023710000e-001) (1, 1.92263239593194070000e+000) (2, 9.54453361740461140000e-001) (3, 3.83921545252225050000e-001) (4, 5.26776465390483620000e-001) (5, 9.33592465925849100000e-001) (6, 2.28785745303974290000e+000) (7, 9.04786210357286680000e-001) (8, 8.81511072552831230000e-001) (9, -5.69836300964507990000e-002) (10, 2.02934392359446350000e+000) (11, 4.98467104871285320000e-001) (12, 5.72183384847285590000e-001) (13, 1.61050581166257030000e+000) (14, 1.83032765865805350000e+000) (15, -1.91761680095336980000e+000) (16, 1.32290337432989040000e+000) (17, 9.28383021531745900000e-001) (18, 1.58815685974235410000e+000) (19, 1.06705062453896480000e+000) (20, 1.43358252794320240000e+000) (21, 1.83739587123044320000e+000) (22, 6.46386746702438670000e-001) (23, 1.67138470940567440000e+000) (24, 8.89791486618757730000e-001) (25, 1.26943868981780780000e+000) (26, 1.65645597471452620000e+000) (27, 3.72793727595003010000e-002) (28, 1.23807661505716050000e+000) (29, 1.70785002617701330000e+000) (30, 6.13913267411961840000e-001) (31, 2.05600945440674820000e+000) (32, 5.01941417495391900000e-001) (33, -3.97684938262359620000e-001) (34, 3.60985618286328910000e-001) (35, 1.93976937676026940000e-001) (36, 1.59542118126003470000e+000) (37, -1.16874008891908490000e-001) (38, 1.28071834185688530000e+000) (39, -3.27041356444284690000e-003) (40, 1.11823235463684910000e+000) (41, 2.37543129590216000000e+000) (42, 5.17290472288536970000e-001) (43, 2.15257991138391080000e+000) (44, 4.24309269463974350000e-001) (45, 1.28983517082480990000e+000) (46, 1.42430369525285540000e+000) (47, 1.82861873099348070000e+000) (48, 5.61994608778431880000e-001) (49, 1.93825559126544480000e-001) (50, 1.84295612223486620000e-001) (51, 6.67194715120340840000e-002) (52, 1.84472941627289820000e+000) (53, 3.49649657826212710000e-001) (54, 9.60852443010962180000e-001) (55, -1.97243671681776370000e+000) (56, 2.07648039775979590000e+000) (57, 2.13769212010719080000e+000) (58, 2.04744871290923270000e+000) (59, 1.12059571836915880000e+000) (60, 1.39633305624637600000e+000) (61, 7.14973408793312610000e-001) (62, 1.16103498675872490000e+000) (63, 1.33282647993835070000e+000) (0, 1.06947266469293190000e-001) (1, -4.62957110400385940000e-002) (2, -1.17114844564296370000e+000) (3, 2.94180904538594410000e-001) (4, 8.62436376488519010000e-001) (5, -1.54974552746349680000e+000) (6, 7.91257442486172470000e-001) (7, 8.37607410978167710000e-001) (8, -5.15220319456824120000e-001) (9, 2.71619540451203680000e-001) (10, -4.68044295361666750000e-001) (11, -3.73265955305349840000e-001) (12, 8.73240055956108430000e-001) (13, 7.90374710772842380000e-001) (14, -2.69606706750122490000e-001) (15, 9.81392834712709770000e-001) (16, 6.95361307147881910000e-001) (17, 4.93775758539573630000e-002) (18, 6.46682192229921740000e-001) (19, 2.11672666702043680000e-001) (20, -7.40433870144993180000e-001) (21, 4.65007622539585000000e-001) (22, 7.75283594833023890000e-001) (23, -5.03919447960552320000e-001) (24, 9.10245587149928310000e-001) (25, -2.66416207391827200000e-001) (26, 8.18611949020294770000e-001) (27, -3.09752314587734890000e-001) (28, 1.07887190445845560000e+000) (29, -4.05855174222420480000e-002) (30, 2.91987458021756070000e-001) (31, 7.07195909969470020000e-001) (32, -4.95981723395883700000e-001) (33, 8.55621910660078750000e-001) (34, -4.26033536934362970000e-001) (35, -5.61817154911350650000e-001) (36, -6.37523092158723600000e-001) (37, -5.53092398751267170000e-002) (38, -4.78725106764785360000e-001) (39, -7.63648048943790680000e-001) (40, -7.54858627906427330000e-001) (41, 6.87020229753506960000e-001) (42, -6.00045422714143300000e-001) (43, -6.54965283659966760000e-001) (44, 3.37242744297187540000e-001) (45, 5.26120218831158780000e-001) (46, 1.26945116029484610000e-001) (47, 8.61940544054617060000e-001) (48, -1.18246278732066220000e-001) (49, 3.09512046932117810000e-001) (50, -6.54794937382926270000e-001) (51, -5.11094468920558760000e-001) (52, 1.38828933640994760000e+000) (53, 3.97945402199228530000e-001) (54, 3.70833402702398840000e-001) (55, -2.06726462524798380000e+000) (56, 2.22123565045935490000e+000) (57, 3.09072463617035350000e+000) (58, 2.45463308154776480000e+000) (59, -2.06800324345276650000e-001) (60, 3.27899994301805940000e-001) (61, 1.45350213783275790000e+000) (62, 1.47026928957880450000e+000) (63, -5.07774816763912230000e-001) (64, -2.94147999142603260000e-001) (0, 2.13368398767653660000e+000) (1, 2.03941476196238460000e+000) (2, 2.28633667999576140000e+000) (3, 2.03341214110861570000e+000) (4, 1.55353397261417790000e+000) (5, 3.15937872520463070000e-001) (6, 9.07609040678184930000e-001) (7, 1.04121663738755040000e+000) (8, 4.61957221848519840000e-001) (9, 2.32997790829772010000e+000) (10, 1.31993908344404630000e+000) (11, 1.79721447154499850000e+000) (12, 3.96205141832410350000e-001) (13, 1.07748763657173320000e+000) (14, 1.39751254054300840000e+000) (15, 9.41579895373967360000e-001) (16, 8.81031871858226290000e-001) (17, 1.62004263390229860000e+000) (18, 7.08022881592677790000e-001) (19, 2.24645931606316380000e+000) (20, 1.18725481629739420000e+000) (21, -5.53620983178146450000e-001) (22, 8.98598902922653430000e-001) (23, 8.51054033336123620000e-001) (24, 2.25648092779029290000e+000) (25, 1.67313719628349240000e+000) (26, 1.39578917466503790000e+000) (27, 2.15249841464496990000e+000) (28, 1.51490769698577220000e+000) (29, 2.24495786013820680000e+000) (30, 1.64861707538387710000e+000) (31, 1.36425260694336710000e+000) (32, 1.65867541066274170000e+000) (33, 1.71411018011330010000e+000) (34, 8.90124574686565140000e-001) (35, 2.06474724517564520000e+000) (36, 2.32985326786194060000e+000) (37, 3.31134437592313980000e-001) (38, 2.08194484449881180000e+000) (39, 1.16985507107069320000e+000) (40, 2.03163853927418630000e+000) (41, 9.44230586000972210000e-001) (42, 3.63065006978159300000e-001) (43, 3.63873392580248870000e-001) (44, 6.11240555075460490000e-001) (45, 2.74658912297843340000e-001) (46, 1.26495075616722710000e+000) (47, 1.23125899172257510000e+000) (48, 2.08945823531164530000e+000) (49, 7.37741528712666410000e-001) (50, 1.13544641080398080000e+000) (51, 6.64381553697071640000e-001) (52, -1.86790841167033760000e-001) (53, 7.86274413349250630000e-001) (54, 2.33906710446197950000e+000) (55, 2.07078446547695010000e+000) (56, -1.47743489427742490000e-001) (57, 2.15592312939014890000e+000) (58, 4.73606565541894560000e-001) (59, 9.68576541968983570000e-001) (60, 4.38839679778508240000e-001) (61, 1.26798792584683810000e+000) (62, 8.60437615205023930000e-001) (63, 1.83743472760254330000e+000) (64, 9.26730126739942820000e-001) (65, 7.68942232346422450000e-001) (0, 9.63320467121619230000e-001) (1, 4.95165443635135370000e-001) (2, 7.79925240971278240000e-001) (3, 3.69111388655099740000e-001) (4, 9.44634232159555660000e-001) (5, 5.09768609378027480000e-001) (6, 1.05752088578795350000e-001) (7, 9.57793310406207410000e-001) (8, 1.94451373878765590000e+000) (9, 8.84159019332662280000e-001) (10, 7.20034213844357840000e-001) (11, 1.82495440267180540000e+000) (12, 1.52202065292390910000e+000) (13, 1.70435250147256870000e+000) (14, 3.67324262286533860000e-002) (15, 8.89815519694526210000e-001) (16, 1.56535236342920840000e+000) (17, 1.92656263115739800000e+000) (18, 6.15024519635033020000e-001) (19, 2.24618854812750650000e-001) (20, 1.48703883598707390000e+000) (21, 1.96348215394301850000e+000) (22, 1.06289374899611970000e+000) (23, 8.44010538742775150000e-002) (24, 1.72916663538039050000e+000) (25, 1.66202815146602160000e+000) (26, 8.11061433419247750000e-001) (27, 3.87148404254612640000e-002) (28, 9.20244396857574780000e-002) (29, 1.78729668314696340000e+000) (30, 1.52185745023592700000e+000) (31, 1.37917129188492620000e+000) (32, 1.51120528777781680000e-001) (33, 1.26406699886108620000e+000) (34, 9.04686795014898680000e-001) (35, 1.73872481301771960000e-001) (36, 4.80980848729740780000e-001) (37, 1.79645666383551420000e+000) (38, 6.64558806811048950000e-001) (39, 1.29935549808217950000e+000) (40, 1.17839293946856620000e+000) (41, -3.30771920540067490000e-002) (42, 5.07484653919475840000e-001) (43, 1.86198694979064630000e+000) (44, 4.84824200864470980000e-001) (45, 1.36286410159201640000e+000) (46, 1.37069769787152080000e+000) (47, -1.65315742380314800000e-001) (48, 1.04671713770464820000e+000) (49, 1.37717981092742560000e+000) (50, 8.85935128824896110000e-001) (51, 1.91718908710284140000e+000) (52, 2.42531359983282390000e+000) (53, 1.32695547481685930000e+000) (54, 1.20151676364474190000e+000) (55, -6.73197062137816600000e-001) (56, 1.96439206073422130000e+000) (57, 1.75712310287065950000e+000) (58, 2.21253698345140790000e+000) (59, 1.71656392293261710000e+000) (60, 1.27903987272714260000e+000) (61, -4.62252820974490970000e-002) (62, 8.03399281215118830000e-001) (63, 1.44005186528639030000e+000) (64, 8.35438100842023630000e-001) (65, 1.80798956416003100000e+000) (66, 3.20221748519144710000e+000) (0, 1.00688313214895040000e+000) (1, -3.72530437209126930000e-001) (2, 1.23967195016057860000e+000) (3, 2.09086408167903710000e+000) (4, -1.78354502974148870000e-001) (5, 9.46274210746309800000e-001) (6, 2.16663436020823140000e+000) (7, 2.78177532175180990000e-001) (8, 1.28639203293865580000e+000) (9, 1.92852457721258720000e+000) (10, 6.77653622258155290000e-001) (11, 9.16423047580789630000e-001) (12, 1.55551436194325740000e+000) (13, 1.44813327720725880000e+000) (14, 1.73284094993986400000e+000) (15, 3.26947811630669110000e-001) (16, 8.93454337136625480000e-001) (17, 3.54869651918636820000e+000) (18, 1.33500281521369210000e+000) (19, 1.40919537345229000000e+000) (20, 9.43176556557473900000e-001) (21, 1.11600188416521400000e+000) (22, 1.78560000939923010000e+000) (23, 1.43985700773785540000e+000) (24, 5.47096213417967640000e-002) (25, 1.11144890348113260000e+000) (26, 2.14872976753927030000e-001) (27, 1.25801937373967790000e+000) (28, 6.45851164313073320000e-001) (29, -2.05725935760866260000e-001) (30, 9.68948044821856370000e-001) (31, 1.10845907536920650000e+000) (32, 8.21041488788332720000e-001) (33, 9.66179529186627640000e-001) (34, 1.22489889775106060000e+000) (35, 3.49321105742846420000e-001) (36, 9.94742194551969220000e-001) (37, 1.35315217704309370000e+000) (38, 1.48515300995036670000e+000) (39, 9.27358923431860220000e-001) (40, 1.09716722623969880000e+000) (41, 1.05305918841120190000e+000) (42, 1.23988047760215460000e+000) (43, 1.03887980787171100000e+000) (44, 3.66768924360167230000e-001) (45, 5.72744475606198010000e-001) (46, 3.70081787759200550000e+000) (47, 2.15114421005061340000e-001) (48, 1.64247034105861060000e+000) (49, 1.64944409072147380000e+000) (50, 1.64812792354156450000e+000) (51, 5.21788791274311880000e-001) (52, 2.47590356417760440000e+000) (53, 9.97853106999895270000e-001) (54, 2.23745709550648760000e+000) (55, 4.32012982020105300000e-001) (56, 2.11670652049818560000e+000) (57, 6.84709074138858060000e-001) (58, 7.99359295390817510000e-001) (59, 1.71713918059295030000e+000) (60, 2.02725646648805170000e+000) (61, 8.46066041969334660000e-001) (62, 1.42881460706457950000e+000) (63, 2.00717921544464910000e+000) (64, 1.50886946881992270000e+000) (65, 7.75025158841375910000e-001) (66, 9.86979935679331950000e-001) (67, 8.07754072414991860000e-001) (0, 1.40927671870066270000e+000) (1, 2.35024262803080310000e-001) (2, 9.03541172775318090000e-001) (3, 1.06114111999830650000e+000) (4, 2.12142236616822680000e+000) (5, 1.45368001964696500000e+000) (6, 8.19868202083592460000e-001) (7, 1.89939394016502110000e+000) (8, 1.57398555739620430000e+000) (9, 5.18101060477060500000e-001) (10, 8.50322999536879950000e-001) (11, 1.03843644123115420000e+000) (12, 2.01429035838320480000e+000) (13, 2.12538045882902880000e+000) (14, 8.23833776584601880000e-001) (15, 2.77646227465848040000e+000) (16, 1.02746081315801410000e+000) (17, 1.05066764488711200000e+000) (18, 7.43270066584934660000e-001) (19, 1.26324269531088950000e+000) (20, 2.24021203978724160000e+000) (21, 1.62377010896819370000e+000) (22, 2.34289925979269590000e-001) (23, 1.73983191112060000000e+000) (24, 1.32252193186233820000e-001) (25, 2.64175709133040780000e-001) (26, 1.19152518844978280000e+000) (27, 1.01977085593724980000e+000) (28, 2.36893628852363950000e-001) (29, 2.11226749825910390000e+000) (30, 9.48478296816170570000e-001) (31, 1.97329421011757570000e+000) (32, 1.45312913982147990000e-001) (33, 1.81597193591406000000e+000) (34, 1.80033240314988400000e+000) (35, 2.12626417803149390000e+000) (36, 5.18568857762898960000e-001) (37, 8.84083120877571790000e-001) (38, 8.11994624568703860000e-001) (39, 8.36875387636341890000e-002) (40, 5.28185727028708360000e-001) (41, 8.74040201581809280000e-001) (42, 1.72914488780758280000e+000) (43, 1.35664087135475040000e+000) (44, 5.08378455876221210000e-001) (45, 3.00476544695570610000e-001) (46, 8.27948276550623200000e-001) (47, 1.35019533122628290000e+000) (48, 1.76576800162494370000e+000) (49, 1.13593508139403700000e+000) (50, 8.03853594231457860000e-001) (51, 1.08398115653597940000e+000) (52, 1.52893643968501600000e+000) (53, 1.95612317501529600000e-001) (54, 1.96392403744381430000e+000) (55, -1.75378204604441110000e+000) (56, 2.02993728950399980000e+000) (57, 1.16053112303117210000e+000) (58, -1.39713722923886620000e-001) (59, 6.30502910747179120000e-001) (60, 1.63088378684291140000e+000) (61, 1.76257981924676320000e+000) (62, 3.84288589296499730000e-001) (63, 2.02378560797267190000e+000) (64, 1.08438837233347770000e+000) (65, 1.25624403929825570000e+000) (66, 1.92922985126344650000e+000) (67, 1.22564985097179550000e+000) (68, 8.70436274505168810000e-001) (0, 3.15701240801294140000e-001) (1, -5.69785175572809980000e-002) (2, 1.79824922364774960000e+000) (3, 1.61265630060764510000e+000) (4, 1.43601140559511340000e+000) (5, 1.04343730662508970000e+000) (6, 1.73291609010843930000e+000) (7, 1.82362861069982850000e+000) (8, 1.44046402338866650000e+000) (9, 6.24028862569157350000e-001) (10, 3.77624427748449680000e-001) (11, 2.01764443459641460000e+000) (12, 8.68898977879523970000e-001) (13, 9.64779768817736970000e-001) (14, 7.42881036040065950000e-001) (15, 1.05951541417091240000e+000) (16, 1.73129878539435420000e+000) (17, 2.58930356513735080000e-001) (18, 1.24692172058691810000e+000) (19, 1.39323748465808280000e+000) (20, 7.41892580722209430000e-001) (21, 1.70424467065266660000e+000) (22, 4.83350996581488890000e-002) (23, 2.10171462906911800000e+000) (24, -1.96055271546317660000e-001) (25, 8.01355093686620830000e-001) (26, -2.54683153813517030000e-001) (27, 3.21010822311209750000e-001) (28, 4.12813299758101220000e-001) (29, 5.70772646257730050000e-001) (30, 2.37467670954951290000e+000) (31, 2.85630030369654860000e-002) (32, 1.24414524849665600000e+000) (33, 1.77557984576635340000e+000) (34, 1.64220039857757880000e-001) (35, 8.22201016643568370000e-001) (36, 1.36361639589437390000e+000) (37, 1.30612645051981800000e+000) (38, 1.30062002048755930000e+000) (39, 5.24976562953468840000e-001) (40, 1.11661558102453840000e+000) (41, 1.30654422581968070000e+000) (42, 1.01286076297543090000e+000) (43, 7.86126156223282520000e-001) (44, 7.29689060500690160000e-001) (45, 1.53900393833110920000e+000) (46, 8.76869281856079490000e-001) (47, 2.99335735778803070000e-001) (48, 2.52294946756856760000e-001) (49, 4.98299662721872480000e-001) (50, 2.85216086204075570000e-001) (51, 1.25223529233729480000e+000) (52, 8.38854839346730330000e-001) (53, 1.47007195714922180000e+000) (54, 1.36657614899489550000e+000) (55, -1.09999273017789690000e+000) (56, -1.29134381263065320000e-003) (57, 1.15744052999189660000e+000) (58, 6.45065540931379470000e-001) (59, 1.10746523116103400000e+000) (60, 1.68185834384639120000e+000) (61, 1.80295861999799030000e+000) (62, 1.41420927995370000000e+000) (63, 1.63373818742608430000e+000) (64, 2.25284949519906610000e+000) (65, 1.71354881580340090000e+000) (66, 1.10723458434542850000e-002) (67, 1.57271250239197410000e+000) (68, 1.30946154604252320000e+000) (69, 2.03580753724818480000e+000) (0, -5.73589503944346270000e-001) (1, 6.68450148807790080000e-001) (2, 6.91033849980196350000e-001) (3, -2.09939195720905050000e-001) (4, -1.81787407152583650000e-001) (5, -3.83383825460163420000e-001) (6, -9.32527425285702650000e-001) (7, 5.99303230867054950000e-001) (8, 5.45483248862663190000e-001) (9, 3.02844511020269380000e-001) (10, 7.18499879202317170000e-001) (11, -9.08393919441576100000e-001) (12, -1.42926327115583530000e-001) (13, 2.97558863645692120000e-001) (14, 5.76991907956583840000e-001) (15, -6.62999395442914310000e-001) (16, -2.76919539598475430000e-001) (17, -4.38824871006734290000e-001) (18, 6.03979809204028550000e-002) (19, 1.02170616184234240000e+000) (20, 1.21132209453246140000e-001) (21, 1.90435801779223760000e-001) (22, 2.70927360863408260000e-002) (23, -4.47435266636730280000e-001) (24, -4.65027098440949250000e-001) (25, 2.73332900677621000000e-001) (26, -3.38717164749765150000e-001) (27, 1.05990800381129820000e+000) (28, 7.31950543029547980000e-001) (29, -7.18966911581533700000e-001) (30, 6.21694881203000430000e-001) (31, -2.07410716553728610000e-001) (32, 6.72018031992523410000e-001) (33, 3.84081966022288830000e-002) (34, -1.17637373336430650000e+000) (35, 3.27213315724206140000e-001) (36, -7.15161457985194040000e-001) (37, 7.25881395000427120000e-002) (38, -4.09873143272522500000e-001) (39, 1.72636935790341920000e-001) (40, 4.48036993325261920000e-001) (41, 3.58536816798571860000e-001) (42, -2.71903513503906850000e-001) (43, 3.10018866386922000000e-001) (44, 1.47705925968740800000e-001) (45, 9.61295508994830180000e-001) (46, -8.21944477910340530000e-001) (47, 1.02417787417161900000e+000) (48, 1.09604851291542180000e+000) (49, 6.07333621313136510000e-001) (50, 1.13627601612665920000e+000) (51, -9.35262758580462480000e-001) (52, 1.61643120180597650000e-001) (53, -9.45993387701006490000e-001) (54, 2.04780000564914770000e-001) (55, -2.67175356747345870000e+000) (56, 7.00488172051872080000e-001) (57, 4.59558762391878320000e-001) (58, 1.64072118551811560000e+000) (59, 8.43960007824618660000e-001) (60, 8.83049803347372600000e-001) (61, 1.29996853222684110000e+000) (62, 8.16304569485914790000e-001) (63, 5.52020460186754210000e+000) (64, 3.39933912814314180000e+000) (65, 5.23629672017586370000e-001) (66, -3.86098026513658970000e-003) (67, 1.91754493126891830000e+000) (68, 2.85087174193415160000e+000) (69, 3.50186639248821760000e-001) (70, 2.24422527817913630000e+000) (0, 1.00274801271276260000e+000) (1, 1.25329037439077860000e+000) (2, 7.89315187774677570000e-001) (3, -4.11255082127391760000e-001) (4, 1.08608918265126090000e-001) (5, -1.11418936367288190000e+000) (6, 6.23710059700748000000e-001) (7, -6.48680367544064440000e-001) (8, -7.99306008822686760000e-001) (9, -2.20578163338420870000e-002) (10, 7.90014913184471590000e-001) (11, -9.28454938878068960000e-001) (12, 6.43792265370193850000e-001) (13, 8.55586311239540210000e-001) (14, 5.27859539356503320000e-001) (15, 2.19506154708408040000e-001) (16, 8.68055644368394000000e-002) (17, -4.29797152961030440000e-001) (18, -8.96170490508474280000e-002) (19, 1.09728969809127500000e+000) (20, -7.73473383626094520000e-001) (21, 9.87150555155333340000e-001) (22, -7.29873521892726030000e-001) (23, -6.40303611398017340000e-002) (24, 3.43006041263161860000e-001) (25, -5.46305399981883540000e-001) (26, 5.64746436487019940000e-001) (27, 3.84119870565573010000e-001) (28, -1.50135646294117380000e-001) (29, -2.49525348778535380000e-001) (30, 9.42772723504737290000e-002) (31, -3.74331720991552320000e-001) (32, -3.00992593086485680000e-001) (33, 7.26700835044804980000e-001) (34, -5.72138197448311070000e-001) (35, -6.50671393158392400000e-001) (36, 7.46921271895603090000e-001) (37, -4.22619716203408710000e-001) (38, -4.05052353083740710000e-001) (39, 1.03874218237227000000e+000) (40, -3.19061084342175560000e-001) (41, -4.89687279707359090000e-001) (42, 6.44391990202460960000e-001) (43, -2.16737438969924450000e-001) (44, -3.61946819030625480000e-001) (45, -5.30565886018549810000e-001) (46, 9.04173273341671860000e-001) (47, 4.64934210386434570000e-001) (48, 6.66252590743629750000e-001) (49, -2.21643773396153350000e-001) (50, 6.05308976531751200000e-001) (51, 8.81248582113547400000e-001) (52, 9.44881271824540740000e-001) (53, -9.96965064202369080000e-001) (54, -6.78637077896476200000e-001) (55, -1.57498084225975750000e+000) (56, 1.14003833554256340000e+000) (57, 1.99018848402290800000e+000) (58, 9.26408731776430130000e-001) (59, 1.68054564166170440000e+000) (60, 1.48347297753901270000e+000) (61, 1.03838038235014670000e+000) (62, 1.85575115429266370000e+000) (63, 2.22445150934829220000e+000) (64, 1.40350623408812920000e+000) (65, 1.93733519901687610000e+000) (66, 1.55923100767207480000e+000) (67, 2.12891771158606470000e+000) (68, 1.57817257712774260000e+000) (69, 1.59129128390082690000e+000) (70, 8.96266145523067800000e-003) (71, 2.26841793704107490000e+000) (0, -8.94003690710098220000e-001) (1, -7.75050725054236000000e-001) (2, -3.30975867339714400000e-001) (3, 4.39981029286707850000e-001) (4, -4.23015347273934140000e-001) (5, 9.39677847116542560000e-001) (6, -3.27191467586820380000e-001) (7, -6.07009198346084580000e-001) (8, 5.16933877481058900000e-001) (9, 2.19650287733996370000e-002) (10, 7.35782708174606780000e-001) (11, -6.11055599600862860000e-001) (12, -6.16641612222437070000e-001) (13, 8.51688827588535260000e-001) (14, 1.02305608680543480000e+000) (15, -2.54519294008445810000e-001) (16, -6.60677424414742530000e-001) (17, 1.33951234492038940000e+000) (18, -4.05783527630775410000e-001) (19, 2.78928049567344850000e-001) (20, 2.57399935631396490000e-002) (21, -1.07642177674420460000e-001) (22, 1.36591267066840820000e+000) (23, 1.56920014452770450000e-002) (24, -4.15229564209159300000e-001) (25, 3.87758351185966300000e-001) (26, 8.20809273838995050000e-001) (27, 1.55760832583244470000e+000) (28, 7.04592733227479060000e-001) (29, 5.59043644427572930000e-001) (30, -4.88449544878987400000e-001) (31, 2.77167256317021550000e-001) (32, 4.28093277374126110000e-001) (33, -4.03480216479008420000e-002) (34, 5.65015848502046890000e-001) (35, -8.56557522840022960000e-001) (36, -3.47912718182908810000e-001) (37, -5.21456884804512690000e-001) (38, -3.86946786260904340000e-001) (39, 2.55765987813803000000e-001) (40, 5.72791504955228680000e-001) (41, 7.73775772375815300000e-001) (42, -6.58585658678787600000e-001) (43, -5.98244993722622190000e-001) (44, 4.06773171747310420000e-001) (45, 2.85195270867580840000e-001) (46, 1.87196844842267840000e-001) (47, 1.13996627320238650000e+000) (48, -3.87450868359436650000e-001) (49, -6.15874660486141480000e-001) (50, 2.00418978184191550000e-001) (51, 3.78560977738368890000e-001) (52, 2.75249617942865570000e-001) (53, -3.63930209663019810000e-002) (54, -7.75197169395640210000e-001) (55, -2.41889548039981680000e+000) (56, 2.25476909571460560000e+000) (57, 2.18819984514770780000e+000) (58, 3.28599796878688630000e+000) (59, 7.68853848163137680000e-002) (60, 3.05245264298327550000e-001) (61, 5.09474291727541000000e-001) (62, 1.52719318748762630000e+000) (63, 1.03627791560527170000e+000) (64, 1.86216318109261850000e+000) (65, 1.37857428094323970000e+000) (66, 1.97160943270584420000e+000) (67, 1.45272275824719580000e+000) (68, 1.96592722924253070000e+000) (69, -9.49759474976252020000e-001) (70, 7.90760616177343940000e-001) (71, 1.97616191966037550000e-001) (72, -2.28721538909808230000e-002) (0, 4.80476411991918710000e-001) (1, 1.31944967650991970000e+000) (2, 1.79788281067794900000e+000) (3, 1.57337003164248590000e+000) (4, 1.46881399304530150000e+000) (5, 1.41224497619378160000e+000) (6, 1.33542175752010770000e+000) (7, 1.69641412431722660000e+000) (8, 2.07501014162590010000e+000) (9, 2.64195874145382980000e-001) (10, 1.60077073841442270000e+000) (11, 1.10033297467166120000e+000) (12, 8.29248866440860490000e-001) (13, 5.86432911726509130000e-001) (14, 1.53210582836000530000e+000) (15, 1.82170980019609300000e+000) (16, 1.63438064676646990000e+000) (17, 1.75518094275386400000e+000) (18, 1.53736092747970130000e+000) (19, 1.76847316007375330000e+000) (20, 4.47906740741232100000e-001) (21, 9.88496728939863730000e-001) (22, 2.84358030775047450000e-001) (23, 5.15320260407073240000e-001) (24, 2.65565875029137640000e+000) (25, 1.18028115008824220000e+000) (26, 7.33072712110874320000e-001) (27, 1.57215657703984960000e-001) (28, 4.23724463865901730000e-001) (29, 2.15515196771598380000e+000) (30, 6.32542751452076390000e-001) (31, 1.94156827467143710000e+000) (32, -1.01124940009679840000e-001) (33, 3.39781776757238360000e-002) (34, 5.51285957961271890000e-001) (35, 1.39742603953350140000e+000) (36, 4.22729245473421170000e-001) (37, -2.20183362193705210000e-001) (38, 4.66016386915670270000e-001) (39, 1.28493851969402420000e+000) (40, 7.62032626947263150000e-001) (41, 2.06719542529384760000e+000) (42, 1.08219532544290200000e+000) (43, 1.69234112203632360000e+000) (44, 1.74209263771829810000e+000) (45, 2.16303170202297770000e+000) (46, 1.05247169620620000000e+000) (47, 1.14225826566165000000e+000) (48, 6.25570722641755620000e-001) (49, -1.69551906403347210000e-002) (50, 9.07142138168485990000e-001) (51, 1.81788442690704530000e+000) (52, 1.75594693448503760000e+000) (53, 1.23495041124562490000e-001) (54, 4.92419913983816570000e-001) (55, 1.35137501553363680000e+000) (56, 1.23923390672014920000e+000) (57, -2.17744334450723890000e-001) (58, 8.35464894861414290000e-001) (59, 1.86896406532943880000e+000) (60, 2.25313699666478230000e+000) (61, 1.44199151849645360000e+000) (62, 2.07202233078462370000e+000) (63, 2.69118667224907030000e+000) (64, 3.08495592992917580000e+000) (65, 5.85637794821966980000e-001) (66, -1.56542084681997820000e-001) (67, 1.45839106124848670000e+000) (68, 3.77340149159310020000e-001) (69, 2.14333192353981290000e+000) (70, 1.07693139860869750000e+000) (71, 1.02569127739379870000e+000) (72, 2.15360047041545100000e+000) (73, -2.97936054021803210000e-002) (0, -3.23598673742727440000e-001) (1, 6.61275338888748680000e-001) (2, -3.52725877834659810000e-001) (3, 1.10111742097595960000e-001) (4, -1.36211051349517940000e-001) (5, 2.92608581482798450000e-001) (6, -9.51264601667243210000e-003) (7, 5.57775198945593130000e-001) (8, -2.18369593620651590000e-001) (9, 5.45535595508147560000e-001) (10, -2.40431641105102100000e-001) (11, -1.74369199271273760000e-001) (12, -5.56554543243951700000e-001) (13, 1.75147905286693580000e-001) (14, -2.49573981477643450000e-001) (15, -1.78147457374131210000e-001) (16, 7.13276491188796550000e-001) (17, 1.10816857510846130000e+000) (18, -8.55378891103168890000e-001) (19, 3.91957306517349670000e-001) (20, 4.08411357848765980000e-001) (21, 1.13280631281035370000e-001) (22, 2.32764111287032920000e-001) (23, -1.17422990416249250000e-001) (24, -3.66723232780783280000e-001) (25, -1.95356080264098920000e-001) (26, 3.41187871763145690000e-001) (27, -7.30243356993872770000e-001) (28, 3.64163034012111090000e-001) (29, -1.70884530467229800000e-002) (30, -4.35587408653365590000e-001) (31, -6.48299879706162320000e-001) (32, 1.12878371835447930000e+000) (33, 5.35716962497111430000e-001) (34, -6.64248222242287410000e-001) (35, 6.86943900249605940000e-001) (36, 4.05194760270473630000e-001) (37, -3.39095192365694850000e-001) (38, -7.39403215149866070000e-001) (39, -6.00207194264345100000e-001) (40, 2.26847913377222400000e-001) (41, -3.95196920036125940000e-001) (42, 1.12112313046336000000e+000) (43, -2.49347059115748780000e-001) (44, -2.48322495901007160000e-001) (45, -5.49858425200194790000e-001) (46, -6.12209978423039590000e-001) (47, 5.13518814542907380000e-001) (48, 1.10779941746056880000e+000) (49, -7.29400857386149900000e-001) (50, -8.85146951569068750000e-001) (51, 6.75283334848962440000e-002) (52, -1.27515734146057460000e+000) (53, 7.73029198548040420000e-001) (54, -7.03884487006349980000e-001) (55, -1.35655359038556610000e-001) (56, -1.51483724784954980000e-001) (57, 9.65105837636874300000e-001) (58, 2.64878227538595960000e+000) (59, 2.39935735585730740000e+000) (60, 1.24532978717128230000e+000) (61, 2.28887681538461200000e+000) (62, 1.43861741755088830000e+000) (63, 2.58997355769297630000e+000) (64, 3.17801962942888590000e-001) (65, 1.85859700849822770000e+000) (66, 2.09182916492429170000e+000) (67, 2.50316044332623240000e+000) (68, 3.01515689886713290000e+000) (69, -3.33408055735930630000e-001) (70, 2.56093719136383550000e+000) (71, 1.65334839761813600000e+000) (72, 1.91675113129175560000e+000) (73, 3.03552009276012310000e+000) (74, -4.95187123556904750000e-001) (0, 1.44753247537971140000e+000) (1, 1.67636219162691270000e+000) (2, 3.51613249477954250000e-001) (3, 8.04497177013554500000e-001) (4, 7.82362984395948980000e-001) (5, 4.62380907999906720000e-001) (6, 1.78905690976050340000e+000) (7, 2.19255209279819540000e+000) (8, 4.70410636037073280000e-001) (9, 1.02904269620698300000e+000) (10, 8.38633486397436510000e-001) (11, 1.33981498829189640000e+000) (12, 1.76256657343857510000e+000) (13, 2.15920440633905310000e-001) (14, 9.63829954023249340000e-001) (15, 8.83133151685900450000e-001) (16, 9.68826032872125430000e-002) (17, 1.90290332101200050000e+000) (18, 5.09848706307874600000e-001) (19, 1.70172314723416410000e+000) (20, 4.92899470734683600000e-001) (21, 7.78819470188396480000e-001) (22, 2.49194888996705610000e-001) (23, 5.34777350314223910000e-001) (24, 2.75486163795549290000e+000) (25, 1.11034909581671130000e+000) (26, 2.00376275119769430000e+000) (27, 5.35281294309016720000e-001) (28, 1.71075032231762660000e+000) (29, 1.33119503958077300000e+000) (30, 1.48583156146216980000e+000) (31, 5.71054501938802250000e-001) (32, 2.01865652040521230000e+000) (33, 1.39497207252235470000e+000) (34, 1.98444388010945730000e+000) (35, 6.86749716639308620000e-001) (36, 1.92718752833126340000e+000) (37, 1.85816848584518000000e-001) (38, 1.60830506657812270000e+000) (39, 9.94017505184658030000e-001) (40, 2.89133194738833310000e-001) (41, 1.15030344770793790000e+000) (42, 1.02638917128241780000e+000) (43, 2.27282352314311800000e+000) (44, 1.51886734792817340000e+000) (45, 3.58130381760066060000e-001) (46, -5.20751803678627880000e-002) (47, 2.05939430848257830000e+000) (48, 2.11293916000286080000e-002) (49, 1.07806373415316050000e+000) (50, 1.19287519524322820000e+000) (51, 6.25424055949561190000e-001) (52, 1.72161516527317590000e+000) (53, 1.29658764933426050000e+000) (54, 8.87887378232960050000e-001) (55, 9.56393677910181290000e-002) (56, 1.86798357435265010000e+000) (57, 4.63659406171197220000e-001) (58, 2.09675818819254460000e+000) (59, 1.59248577360627790000e+000) (60, 1.79178347386952020000e+000) (61, 1.30498690885800910000e+000) (62, 4.77046115048178340000e-001) (63, 1.99173296905868490000e+000) (64, 1.91693757454126180000e+000) (65, 1.96850493275163550000e+000) (66, 2.10271363551040520000e+000) (67, 2.27187921536173220000e+000) (68, 2.27853521568599500000e+000) (69, 2.02207149707474130000e+000) (70, 1.87921554917679300000e+000) (71, 6.58554733105883970000e-001) (72, 8.85376413651865260000e-001) (73, 5.87467105709808980000e-001) (74, 4.51892946416567580000e-001) (75, 1.52341253397829870000e+000) (0, 3.74269145378495870000e-001) (1, 1.00987044734896660000e+000) (2, 8.73971546892852950000e-001) (3, 7.52603793572636630000e-001) (4, 1.04553547683389850000e+000) (5, 2.75345658675169870000e+000) (6, 6.23901153188306190000e-001) (7, 1.26237413083930930000e+000) (8, 1.68061320585953090000e+000) (9, 8.02491220861278330000e-001) (10, 1.84072311829543760000e-001) (11, 2.88413913557424180000e+000) (12, 2.77128474014780580000e+000) (13, 2.43708496726048420000e+000) (14, 5.50992094814721440000e-001) (15, -4.09106664388362800000e-001) (16, 3.17335350496314610000e+000) (17, 2.52598943755465700000e+000) (18, 1.88645835329348730000e-001) (19, 1.65505840171811220000e+000) (20, -1.46820006176692690000e+000) (21, 1.19968689798014120000e+000) (22, 2.51739383856211460000e+000) (23, 6.60988889060615370000e-001) (24, -1.77660868500264260000e+000) (25, -1.56526174283188180000e+000) (26, 5.17212359324192740000e-001) (27, 1.65251489583730620000e+000) (28, 2.71361949902802290000e+000) (29, 6.98961381807779450000e-002) (30, 1.12446002558589940000e+000) (31, 6.11482019068209760000e-001) (32, 9.44529406898657160000e-001) (33, -5.52132271123863980000e-001) (34, 4.75553737565097720000e-001) (35, 1.56585109418884150000e+000) (36, 1.07571153817304470000e+000) (37, 9.46325502210531690000e-001) (38, 1.93288543057442060000e-001) (39, 2.59129257903714020000e+000) (40, 4.97109235458485680000e-001) (41, -1.81004890684981020000e-001) (42, 1.71056208862689800000e+000) (43, 1.49723358489690630000e+000) (44, 1.44249683211586870000e+000) (45, 1.25560464460696660000e+000) (46, 3.25075519574254820000e+000) (47, 1.07615436548093690000e+000) (48, 1.54412374039357080000e+000) (49, 2.65402537478685520000e+000) (50, 1.92269609919184800000e+000) (51, 1.43582562095747760000e+000) (52, 1.70649145101605510000e+000) (53, 1.34800974565313880000e+000) (54, 2.52952257812118250000e+000) (55, 1.36866448554559810000e+000) (56, 3.08866422812959970000e+000) (57, 2.51769835773691590000e+000) (58, 2.35251316736705810000e+000) (59, -2.11743865964047070000e-001) (60, 3.42928854099488870000e-001) (61, 5.98230973430224910000e-001) (62, -1.75180497115172830000e-001) (63, 9.54002373502128130000e-001) (64, -1.14417752018659670000e-001) (65, 2.13607435275954360000e+000) (66, 2.27514344690754200000e+000) (67, 5.53952700942501710000e-001) (68, 2.93734319810417110000e+000) (69, -5.34656144534631170000e-001) (70, 6.28041632557325810000e-001) (71, 9.16733395780732210000e-001) (72, -5.63377433726152120000e-001) (73, 3.38264654292677580000e+000) (74, -2.99495951201345370000e-001) (75, 9.24238508333922180000e-001) (76, 1.85221524691477120000e+000) (0, 1.11303460619618530000e+000) (1, 1.41561267795918950000e+000) (2, 1.07578825842788350000e+000) (3, 7.32853314895498990000e-001) (4, 1.09741207935841500000e+000) (5, -2.46361971544231560000e-001) (6, -9.47611699611294740000e-002) (7, 1.72837983954740220000e+000) (8, 5.14083617035745230000e-001) (9, 1.33341829518896660000e+000) (10, 1.62768516624491390000e+000) (11, 1.72252962016935030000e+000) (12, 1.48080333242603030000e+000) (13, 3.40962956195367320000e-001) (14, 1.96841041256064900000e+000) (15, -8.51993268321435070000e-001) (16, 7.66719243130211670000e-001) (17, 1.51800749095852820000e+000) (18, -3.39334416662451510000e-001) (19, 9.58673924473702810000e-001) (20, 1.83768037514831660000e+000) (21, -2.95471991199165060000e-001) (22, 8.09879846043144220000e-001) (23, 9.01600999606011700000e-001) (24, 2.91161470669279780000e+000) (25, 9.14409326018348120000e-001) (26, 9.41963949892084540000e-001) (27, 6.13258159999562570000e-001) (28, 5.88957083553147690000e-001) (29, 2.22956187789186800000e+000) (30, 4.48806243826859630000e-001) (31, 1.63746369564815670000e+000) (32, 1.25504085684750580000e+000) (33, -3.88418613731387750000e-001) (34, 9.22937886016268030000e-001) (35, 1.47214808950628310000e+000) (36, 1.58314603369794930000e+000) (37, 7.70858604400734840000e-001) (38, 1.54181610963573060000e+000) (39, 1.74842484093431190000e+000) (40, 1.19180570454571980000e+000) (41, 2.44743367755128640000e+000) (42, 1.34061565779602240000e+000) (43, 3.24260337746045290000e-001) (44, 1.95365105723975450000e+000) (45, 9.90709590537687150000e-001) (46, 2.17731476960430770000e-001) (47, 2.54796527613943450000e+000) (48, 1.69997091692779830000e+000) (49, 5.34908170989974230000e-001) (50, 1.49646499302769850000e+000) (51, 9.37966321600276930000e-001) (52, 8.59293367387809700000e-001) (53, 5.18204416048413500000e-001) (54, 1.93107336481071170000e-001) (55, 5.24530401982508550000e-001) (56, -4.37363528124554760000e-001) (57, 1.00403855439463530000e+000) (58, 6.85916873968340450000e-001) (59, 9.69690026440256810000e-001) (60, 2.47603481183021130000e+000) (61, 2.52564613435982150000e+000) (62, 1.18140161248459450000e+000) (63, 2.56744156753737540000e+000) (64, 1.98304604327020910000e+000) (65, 1.84917691089225420000e+000) (66, 1.46112878314032480000e+000) (67, 1.68452437786662830000e+000) (68, 5.72646306832091500000e-001) (69, 2.06329739177146370000e+000) (70, 1.08600824267168860000e+000) (71, 7.23221666631152060000e-001) (72, 2.16641448527240450000e+000) (73, 1.03892977621661790000e+000) (74, 2.04183915937027430000e+000) (75, 2.16281939031920660000e+000) (76, 2.16888409217224210000e+000) (77, 2.78063082373503210000e+000) (0, 1.16064620093273140000e+000) (1, -6.84679215844005820000e-001) (2, -2.50985127064405180000e-001) (3, 4.54883909714752120000e-001) (4, -6.60586283735972830000e-001) (5, 7.82879998682686350000e-002) (6, 4.80571119937330700000e-001) (7, -1.82329881516635030000e-002) (8, -4.44102164640773570000e-001) (9, 1.39086107129968220000e-001) (10, -6.68857654673554740000e-001) (11, -5.64764249163009380000e-001) (12, -6.13275535094629290000e-001) (13, 2.52305078881478460000e-001) (14, -6.53969197625357880000e-001) (15, -3.57554449692925770000e-001) (16, -1.17271187511657660000e+000) (17, -7.06709849665878690000e-001) (18, 8.18821171482944980000e-001) (19, 1.71186980571877290000e+000) (20, -3.75889587890981370000e-001) (21, 1.68681552710640730000e-001) (22, 2.49521034437761300000e-001) (23, 3.76796627680629710000e-001) (24, 1.29301651873659500000e-001) (25, 3.44162822682161290000e-002) (26, 1.99866070792265540000e-001) (27, 7.11606195259786080000e-001) (28, -4.62820359401900750000e-001) (29, 5.86770351855721130000e-001) (30, 1.79715521620181810000e-001) (31, 7.38602717460673300000e-001) (32, -1.92027379340672100000e-001) (33, 1.02030427561074210000e+000) (34, -1.55725534064846570000e-001) (35, 2.55014054669848550000e-002) (36, 4.67048497573932520000e-001) (37, -8.58405757539387300000e-001) (38, 4.13316010092750990000e-001) (39, -2.22575287910338730000e-001) (40, 1.56131551575143160000e-001) (41, 3.84942343107124090000e-002) (42, 3.57559437202211240000e-002) (43, -4.83154388118926190000e-001) (44, 2.88100612624606620000e-001) (45, -3.95852566660750970000e-001) (46, -5.54701296217508590000e-002) (47, -6.57935525451246450000e-001) (48, -3.33396120645910180000e-001) (49, -1.02921441700958100000e-001) (50, 9.56851078740743600000e-001) (51, -4.65530344631062520000e-001) (52, 8.67165274363914660000e-001) (53, 7.93432837246379700000e-001) (54, 9.65633846804582200000e-001) (55, 5.47336521190643910000e-001) (56, 2.46638333579593990000e+000) (57, 3.16312792599357890000e+000) (58, 1.90672432234658680000e+000) (59, 5.15638410755648650000e-001) (60, 1.06452167970600840000e+000) (61, 1.18451370087391950000e+000) (62, -1.27489069557670000000e-001) (63, 1.37574415195116460000e+000) (64, -6.03690260396608220000e-001) (65, 2.30695671742538580000e+000) (66, 1.90099528547397490000e+000) (67, -4.92352433401721690000e-001) (68, 1.22977183280485790000e+000) (69, 6.54863540142422980000e-001) (70, 4.47947350394341910000e-001) (71, 1.11863563820903140000e+000) (72, 7.14583884612530080000e-001) (73, 3.31260419696826510000e+000) (74, 7.36053668705587970000e-001) (75, -3.25182271457822910000e-001) (76, 1.87128427934191040000e+000) (77, 5.02460795293699030000e-001) (78, -6.76983792541533820000e-002) (0, 3.10119904171290430000e-001) (1, 1.32415776988063860000e+000) (2, 8.93280337769385870000e-001) (3, 1.37278155408485500000e-003) (4, -3.82871357782893150000e-002) (5, 1.10560056197018190000e+000) (6, 8.21484931706485620000e-001) (7, -5.58651607143147430000e-001) (8, 3.33290155720559640000e-001) (9, -5.92418449068681570000e-001) (10, 4.37103570803731300000e-001) (11, 9.42983794925698720000e-003) (12, -2.19393337278166070000e-001) (13, 4.17981681906710200000e-001) (14, -7.53713892335224460000e-001) (15, -9.12176710514804980000e-001) (16, -8.93904259343073830000e-001) (17, -2.44250764848147060000e-001) (18, 2.18253188607404340000e-001) (19, 9.03080406954058670000e-001) (20, 4.09052658051738740000e-001) (21, -2.07610071602695460000e-002) (22, 5.50673920192006560000e-001) (23, 1.02011799780636350000e+000) (24, -6.30490799116137590000e-001) (25, 3.41639050533820490000e-001) (26, -5.70104186067240340000e-001) (27, 6.50535571642188890000e-001) (28, 8.33631888740903330000e-001) (29, -9.28010831504162640000e-001) (30, -6.97802029671009350000e-001) (31, -1.12117317644300860000e+000) (32, -9.24482813133078900000e-001) (33, -2.14922265786070900000e+000) (34, -1.02558760384915450000e+000) (35, 3.98148716830381670000e-001) (36, 2.00496029939233770000e-001) (37, -4.24585087529419260000e-001) (38, 4.30857003250773200000e-001) (39, -1.07847082194983400000e+000) (40, 3.73139813756212870000e-002) (41, 7.37932442155349370000e-001) (42, 9.32492256165026960000e-001) (43, -8.24513612978662880000e-001) (44, 8.79685120074639030000e-002) (45, 3.47282334168074410000e-001) (46, -6.44051557114453050000e-001) (47, 6.98207707610993160000e-001) (48, 1.16610027166132820000e+000) (49, -7.43934669901160780000e-002) (50, -3.63080385055766510000e-001) (51, -5.57934011375334600000e-001) (52, 1.15269666357830160000e+000) (53, -6.08271107068527950000e-002) (54, 4.58656597391095490000e-001) (55, 2.26857196176854510000e-001) (56, 1.99088136725119740000e+000) (57, 2.42111325872540870000e+000) (58, 1.32325765037987390000e+000) (59, 5.56360334108346730000e-001) (60, 1.11148340388040620000e+000) (61, 2.88443171035709420000e+000) (62, 1.04951056419040700000e+000) (63, 2.03390534780122280000e+000) (64, 1.06437170775488220000e+000) (65, 1.28722173406774990000e+000) (66, 3.92227252038834910000e-001) (67, 2.75977350919764050000e+000) (68, 1.98705396138931120000e+000) (69, 8.16300610544460490000e-002) (70, 2.18179772035330850000e+000) (71, 2.90694597143645430000e+000) (72, 2.12809829545515950000e+000) (73, 2.85445066558542320000e+000) (74, 7.98918726910229500000e-002) (75, 2.51802928694113740000e+000) (76, 7.28094663521354100000e-001) (77, 9.54623818368368520000e-001) (78, 1.50957532178220740000e+000) (79, 1.87759787113235580000e+000) (0, 2.16095693312651970000e+000) (1, 1.83143193031190180000e+000) (2, 1.52540638596915110000e+000) (3, 1.33854522165326760000e+000) (4, 2.14291856554726800000e-001) (5, -4.80648164185532080000e-001) (6, 1.24390298553963600000e+000) (7, 2.09183479325559720000e+000) (8, 1.44815419116388380000e+000) (9, 7.85522734930291010000e-001) (10, 2.86901301108278610000e-001) (11, 7.00584361593739930000e-001) (12, 1.97950451450978270000e+000) (13, 8.68389764650180700000e-001) (14, 6.95388636777144800000e-001) (15, 2.31166089338661650000e+000) (16, 2.05489159506265380000e+000) (17, 1.30464427574504340000e+000) (18, 1.48935149177816120000e+000) (19, 2.29121095530420280000e+000) (20, 1.27222077678138110000e+000) (21, 1.26016162023992060000e+000) (22, 2.54356989461955290000e-001) (23, 1.55962664155510880000e+000) (24, 2.07711757621274360000e+000) (25, 6.92100952188504760000e-001) (26, 9.91899152725683080000e-001) (27, 5.57029254608534700000e-001) (28, 1.38185393102934160000e+000) (29, 1.57072900777343550000e+000) (30, 2.01934844803585900000e+000) (31, -3.24930932032330210000e-002) (32, 7.59022276477273490000e-001) (33, 1.71259137464579920000e+000) (34, 1.26442679925126390000e+000) (35, 2.48255974005543140000e-001) (36, 8.47183740793158610000e-001) (37, 1.68335075770280220000e+000) (38, 1.84832505562071740000e+000) (39, 1.61629799288486660000e+000) (40, 9.80163651249105980000e-001) (41, 1.11601995879953480000e+000) (42, 3.55017874667118650000e-001) (43, 9.64466035636578180000e-001) (44, 9.73817778078782110000e-001) (45, 2.13581645180304270000e+000) (46, 1.56910609406491400000e+000) (47, 6.37889330681830510000e-001) (48, 1.92751042371887030000e+000) (49, 6.98652930932970760000e-001) (50, 2.82954899715980360000e+000) (51, 7.90935608419906290000e-001) (52, 1.46810672552047250000e+000) (53, 2.35588835222853010000e+000) (54, 2.44103668172639750000e+000) (55, -4.83474403248900180000e-001) (56, 4.56337420050812790000e-001) (57, 1.05040836906285630000e+000) (58, 9.93705338085001720000e-001) (59, 8.88839976660411260000e-001) (60, 2.40453021975033200000e+000) (61, 1.37284652069241320000e+000) (62, 2.11874130149643760000e+000) (63, 8.54023662475930870000e-001) (64, 3.11456659031889550000e+000) (65, 1.94430178754720410000e-001) (66, 8.59702640955078560000e-002) (67, 2.01091705853922330000e+000) (68, 2.46691181276925150000e+000) (69, 2.26500273433564780000e+000) (70, 1.04978640009902360000e+000) (71, 2.78290489454234800000e+000) (72, 1.84519147993361620000e+000) (73, 5.56064523785087080000e-001) (74, 1.69152422631135660000e+000) (75, 8.65412089399007490000e-001) (76, 8.75526850198722890000e-001) (77, 9.31473162811279230000e-001) (78, 1.56615422284097040000e+000) (79, 8.35278375807104510000e-001) (80, 1.33623627886915510000e+000) (0, -3.69814936014902120000e-001) (1, -2.95155260881327600000e-001) (2, 1.09941585418509250000e+000) (3, 5.65063396758321290000e-001) (4, -3.20059030233936280000e-001) (5, -3.19481643197668360000e-001) (6, -6.81512906037178620000e-001) (7, 1.31690127937180520000e-001) (8, -3.20258944891663800000e-002) (9, 1.77367782952510630000e+000) (10, 1.14843634132699220000e+000) (11, 1.73040812002888370000e-001) (12, 5.36065025278490500000e-002) (13, -2.08069310567554950000e-001) (14, -4.61306816928865600000e-001) (15, -8.58318169705482720000e-002) (16, 6.21180958497684620000e-001) (17, -1.53212813355241840000e-001) (18, -2.69627247589020400000e-001) (19, 4.48220505127339240000e-001) (20, 1.17364561233519790000e+000) (21, -7.07220402468359270000e-001) (22, 9.01271795972039100000e-001) (23, -2.63415721008397500000e-001) (24, -4.93849158957895440000e-001) (25, 4.51088617055591600000e-002) (26, 5.71381309395253670000e-001) (27, 7.69618007901014760000e-001) (28, 4.26832721832806560000e-002) (29, -5.12709824958657250000e-001) (30, 4.96386757724149030000e-002) (31, 7.57723931138943650000e-001) (32, 2.99923660232141290000e-001) (33, 6.40577669616876340000e-002) (34, 8.34259568089843920000e-001) (35, 8.49881783614326980000e-001) (36, -3.10305984387202640000e-001) (37, 3.17372147021503790000e-001) (38, 2.52916717779240190000e-002) (39, -7.69187427483570610000e-001) (40, -2.48963239691531610000e-001) (41, -5.19054728077900540000e-001) (42, -6.52548145638156770000e-001) (43, -6.66541629763139800000e-001) (44, 6.04640398420360210000e-001) (45, -5.22148140364813270000e-001) (46, 4.59038603247948540000e-001) (47, 5.50101331240107180000e-001) (48, -6.71703769715472630000e-001) (49, 4.41459674671812460000e-001) (50, -2.64792069313800170000e-001) (51, -8.02807827743547420000e-001) (52, 3.44226287211770510000e-001) (53, -3.78367077625893940000e-001) (54, -2.85471892857595110000e-001) (55, -1.74921117577616570000e+000) (56, 2.02730162551975320000e-001) (57, 1.47147165297872040000e+000) (58, 2.95622193136552620000e+000) (59, 1.99202943679969560000e+000) (60, 1.79784258751291580000e+000) (61, 1.93606705485039270000e+000) (62, 1.73460463727136950000e+000) (63, 9.06465518875695260000e-001) (64, 1.64677656661225600000e+000) (65, 2.22850910338314190000e+000) (66, 9.76918200436950550000e-001) (67, 1.32531696187774450000e+000) (68, 2.87645102183554480000e+000) (69, 7.36334220507766530000e-001) (70, 1.35332468052487620000e+000) (71, 1.77820499167986950000e+000) (72, 1.08751803630495480000e-001) (73, 2.64852333960772770000e+000) (74, 1.66190580093550830000e+000) (75, 1.83003536756709020000e+000) (76, 7.90006919442414750000e-001) (77, 4.69890410278223370000e-001) (78, 1.78844229573709690000e+000) (79, 2.06613913409908840000e+000) (80, 1.30786847508838200000e+000) (81, -4.92206651919635530000e-001) (0, -7.72007647097839980000e-001) (1, 2.01393583593012850000e-001) (2, -1.43863004140227210000e-001) (3, 4.50516428721979720000e-001) (4, -7.22183893449259260000e-001) (5, -6.94756812148497720000e-001) (6, 8.19841032387907950000e-001) (7, 3.23897609315218490000e-001) (8, 7.95754547566818180000e-001) (9, 9.96753024637696550000e-001) (10, -1.13781033086056420000e-001) (11, -5.73784543170992370000e-001) (12, 2.89099824395245060000e-001) (13, 5.25938385713990570000e-002) (14, 6.45411571243979960000e-001) (15, -4.37659887376183470000e-002) (16, -2.56026721349761230000e-001) (17, 8.87679402984658420000e-001) (18, -8.18031713661991340000e-002) (19, 3.23576620575437230000e-001) (20, 2.35757538570154660000e-001) (21, 1.43392152854749430000e-001) (22, 8.09401889023214300000e-001) (23, -6.09034518051666860000e-001) (24, -9.55128972593973110000e-001) (25, -4.22877359414271310000e-002) (26, -1.28714673099809910000e+000) (27, -5.54735252338210640000e-001) (28, -8.51204621037864980000e-001) (29, 8.35616359407863830000e-001) (30, 8.46455920490802200000e-001) (31, 5.91506009368454770000e-001) (32, 8.78770317100074360000e-001) (33, 7.16892494109517140000e-002) (34, -1.18371202682469440000e-001) (35, 1.38254689324894110000e+000) (36, 5.93259417543807510000e-001) (37, -4.17652842512385100000e-001) (38, 1.14415586103855780000e-001) (39, -2.93452888418932130000e-001) (40, -5.22735149108544570000e-001) (41, -4.36251780221941280000e-001) (42, -4.80339941301153090000e-001) (43, -6.00646289921377590000e-001) (44, -2.80696115453855750000e-001) (45, 1.07107700251127860000e+000) (46, 1.42656869614677380000e-001) (47, -3.66790363560071330000e-001) (48, -1.03695848683732540000e+000) (49, -6.79963923926541810000e-001) (50, -5.08484000881181060000e-001) (51, 1.63351508853649300000e-002) (52, 4.81396026402633570000e-001) (53, 2.20270817509890690000e-001) (54, -8.20693060822348500000e-001) (55, 5.75047363635659630000e-002) (56, 2.72486907147480380000e+000) (57, 3.19461590128302890000e+000) (58, 2.76366376661199100000e+000) (59, 4.97382405196231040000e-002) (60, 1.11209990975123960000e+000) (61, 1.82879573888406940000e+000) (62, 1.28304487291151430000e+000) (63, 2.50324013152770020000e+000) (64, 3.11185822914402180000e+000) (65, 1.42263602433226400000e+000) (66, 9.32623855919362370000e-001) (67, 1.32883382942086900000e+000) (68, 2.49152802775275270000e+000) (69, 9.64781626676628030000e-001) (70, 9.78538205745617450000e-001) (71, 1.24860298511173220000e+000) (72, 2.47398975311282810000e+000) (73, 1.86272357300990390000e+000) (74, 7.33953717341004340000e-001) (75, 1.43024144407801690000e+000) (76, 2.62413653248558230000e+000) (77, 2.13435253730161500000e+000) (78, 1.14819599607308520000e+000) (79, 2.04811667667717810000e+000) (80, 7.96367087317507440000e-002) (81, 5.45805391364044160000e-001) (82, 2.65739745115877570000e+000) (0, 5.51853452757825050000e-001) (1, -6.91183038471752780000e-001) (2, -8.60291778477702770000e-001) (3, 1.00439675159179110000e-001) (4, -3.98895966134956200000e-001) (5, 2.81425141406455360000e-001) (6, -7.03494176913371240000e-001) (7, 7.40039230651347800000e-001) (8, -7.39755091617811940000e-001) (9, 6.93542832146226700000e-002) (10, -1.15793052601427580000e+000) (11, -1.00784100735498220000e+000) (12, 4.19268171908012850000e-001) (13, 1.71868329374126600000e-001) (14, -6.70870584079637290000e-001) (15, -2.62879080702863090000e-001) (16, -2.58206122262629350000e-001) (17, -6.24081534484177470000e-001) (18, -5.69421390419349470000e-001) (19, 4.51352337835912500000e-001) (20, -4.10385438705327510000e-001) (21, 1.08402349648660450000e+000) (22, -7.32469496820407300000e-001) (23, 9.84630232382524340000e-001) (24, 4.95934573894453720000e-001) (25, -1.10176336816223740000e+000) (26, -7.07289412602491450000e-001) (27, -1.29319766150608300000e+000) (28, -8.10974415284081980000e-001) (29, 5.13517096471388880000e-001) (30, -5.48438476227386600000e-002) (31, 5.11862518729907300000e-002) (32, 4.40515036032194660000e-001) (33, 6.96423548641302400000e-001) (34, -8.85169612777638860000e-002) (35, 4.46340124712207240000e-001) (36, -5.96999309509855250000e-001) (37, 7.45841464296574610000e-001) (38, 6.33840670901693940000e-001) (39, 7.49838828632432790000e-001) (40, 4.15823308408618310000e-001) (41, 1.89973122958266090000e-002) (42, -4.35652162061191170000e-001) (43, -1.62532593390058320000e-001) (44, 7.63636074244117610000e-001) (45, 1.61901991015644450000e-001) (46, 2.12764495988471830000e-001) (47, -1.21108539144874250000e-001) (48, 8.94840343440337800000e-001) (49, 9.08171778953408060000e-001) (50, -2.49309364006614710000e-001) (51, 8.91864344368115900000e-001) (52, 2.94267823245589980000e-001) (53, -4.02387188106841430000e-001) (54, -7.69759129757805580000e-001) (55, -5.42770159045574350000e-001) (56, 1.40746880974387830000e+000) (57, 2.91065104666456250000e+000) (58, 2.75733589274981480000e+000) (59, 4.40638382292215860000e-001) (60, 6.71843979671564620000e-001) (61, 1.10039839337889570000e+000) (62, 2.12184911008600710000e+000) (63, -1.63885615868764880000e-001) (64, 7.11041322461749560000e-001) (65, 3.48610744974175010000e+000) (66, 3.85466399657938790000e+000) (67, 3.03701427719445590000e+000) (68, 1.98178138521271040000e+000) (69, 9.51524931714431250000e-003) (70, 5.83583328111403270000e-002) (71, 1.33673558932481720000e+000) (72, 8.59489744484589370000e-001) (73, 3.58287796187695840000e+000) (74, 7.35943869500555460000e-001) (75, -4.95481977696712820000e-001) (76, 2.11407878754716270000e+000) (77, 1.55352697910003790000e+000) (78, 1.60572521376821340000e+000) (79, 7.53144696537002780000e-001) (80, -4.88778993549427050000e-001) (81, 6.11236670620704190000e-001) (82, 1.28273045427252330000e+000) (83, 1.37025958895733800000e-001) (0, -5.98980179161575310000e-001) (1, 8.23426937763083180000e-002) (2, 5.98930914381934800000e-001) (3, 3.16402794164329370000e-001) (4, -1.01703369998190670000e+000) (5, -5.15617361286472060000e-001) (6, 4.20678535271232560000e-001) (7, -2.49083262507614010000e-001) (8, -1.32857717904289820000e+000) (9, -7.16654095866028680000e-001) (10, -2.10439642895813070000e-001) (11, 8.48280617837565810000e-001) (12, 3.97877684602005010000e-001) (13, 5.56854893426380730000e-001) (14, -1.02802966158515410000e+000) (15, 3.88482824047671820000e-001) (16, 6.53849470236760770000e-001) (17, 1.87131196958767930000e-001) (18, -7.42519832467074260000e-002) (19, 2.72237420115601870000e-001) (20, 4.66488415242884040000e-001) (21, -2.05150058389344360000e-001) (22, -3.60332152400136160000e-001) (23, -5.43652822302238440000e-001) (24, -9.41454082698505060000e-001) (25, 5.32465131571985490000e-001) (26, 7.64255862488663730000e-001) (27, -6.30431413098907050000e-001) (28, -1.30114148552527210000e+000) (29, 6.82581184492615730000e-001) (30, 4.98385453010109170000e-001) (31, -1.22144908028217310000e+000) (32, 3.78783015109089740000e-001) (33, -9.85817307293770150000e-001) (34, 1.29287332327972740000e-001) (35, -5.61539747400505720000e-001) (36, 1.13565058757967100000e-001) (37, -9.72035833477551850000e-001) (38, 3.24832094532620910000e-001) (39, -6.71746352094036210000e-001) (40, -5.49179216835458450000e-001) (41, -2.50975405108465890000e-001) (42, 7.52436416491350510000e-001) (43, -6.99261520649086980000e-001) (44, 4.68515059922080030000e-001) (45, -2.10165133408483750000e+000) (46, -9.83217819911587520000e-001) (47, -1.03950954939225570000e+000) (48, -1.85024841410801720000e-001) (49, -2.41403147988453820000e-002) (50, 7.36706037163704420000e-001) (51, -3.45459736231990560000e-001) (52, -9.39311211195116570000e-002) (53, -8.32507040667114780000e-001) (54, -9.60553228174379830000e-001) (55, -2.04249848741483580000e+000) (56, 2.07677350914084970000e+000) (57, 2.14105184667683930000e+000) (58, 2.31024322309150910000e+000) (59, -5.41072166145367130000e-001) (60, -1.16797080848371390000e+000) (61, -6.75831505911245520000e-001) (62, 5.71264458776389870000e-001) (63, 1.62207973135168810000e+000) (64, 3.04798707753884600000e+000) (65, 2.00253520457392130000e+000) (66, 4.16188025739544720000e-001) (67, 5.29999774289033890000e-001) (68, 1.00583663787003590000e+000) (69, 4.06172190652991900000e+000) (70, 9.35675584198369800000e-002) (71, 6.37923362335139470000e-001) (72, 2.12486384950760030000e-001) (73, -8.10156743532187140000e-001) (74, 2.44979494845842940000e+000) (75, 2.30239184105535030000e+000) (76, 2.72284290578301520000e+000) (77, -1.31568916344603220000e-001) (78, 1.02175880465888570000e+000) (79, 2.43469056561681660000e-001) (80, -6.84927277527803140000e-001) (81, 3.42224400557292970000e+000) (82, 2.87910246695623730000e+000) (83, 1.77483708729501030000e+000) (84, 4.87405982226634000000e-001) (0, 5.39337368085485050000e-001) (1, -1.37399684052267680000e-001) (2, 7.87845191283936710000e-001) (3, -2.47561040385248620000e-001) (4, -5.34489753711665070000e-001) (5, 9.14472040071743100000e-001) (6, -3.92778782567796750000e-001) (7, -6.67900545231954410000e-001) (8, -7.54851712361668810000e-001) (9, -1.81881098637758280000e-001) (10, 6.06414952001522730000e-001) (11, 5.19746717575816470000e-001) (12, 9.90396910265038400000e-002) (13, 9.35614432197555270000e-002) (14, -6.83579311997077330000e-001) (15, -8.66331229188324730000e-001) (16, 4.07646150320299380000e-001) (17, 3.35283491781395440000e-001) (18, 6.48713795666400610000e-002) (19, 1.07496515683205820000e+000) (20, -7.14634617766471300000e-001) (21, -1.51073624445914880000e-001) (22, -9.28713232618536780000e-001) (23, 5.67161733733545500000e-001) (24, 7.89020386136808140000e-001) (25, 2.61037460571607320000e-001) (26, 7.49962012249589920000e-001) (27, -6.39264588295999860000e-001) (28, -2.40317887221655040000e-001) (29, -2.74831509815299250000e-001) (30, -3.88068568247057840000e-002) (31, -5.13983823099922850000e-001) (32, 8.73564253415766270000e-001) (33, 1.41900510645393360000e-001) (34, -5.92017858697686310000e-001) (35, -4.53886237491274490000e-001) (36, 6.15697044668282010000e-001) (37, 3.36529165360930250000e-001) (38, -3.57764803117076480000e-001) (39, -7.25785785580946970000e-001) (40, 7.33367112639912500000e-001) (41, 1.28529146688723110000e+000) (42, -4.65001350463138230000e-001) (43, 1.04744890970281320000e+000) (44, 5.25195196066793770000e-001) (45, -5.27078342287115480000e-001) (46, 3.97592211524450680000e-001) (47, -2.42900875958276310000e-001) (48, -5.80160403881355590000e-001) (49, 2.51759044192097710000e-001) (50, -5.20930628689142970000e-001) (51, -2.97714437430754320000e-001) (52, 1.15217718575432680000e+000) (53, -1.96268348929446610000e-001) (54, 8.62741884240259660000e-001) (55, -2.22878159239908460000e+000) (56, 3.11881334428328310000e+000) (57, 1.43220103135913560000e+000) (58, 1.95353277750616170000e+000) (59, -3.17167144275862070000e-001) (60, -5.34046699067238120000e-001) (61, 1.73478393045243570000e-001) (62, 2.42222769713459130000e+000) (63, 7.00911904899014450000e-001) (64, -3.79186262625383190000e-001) (65, 2.40445245737350040000e+000) (66, 1.94185085560677130000e+000) (67, 2.08607508709191290000e+000) (68, 2.18799030530432990000e+000) (69, -2.52446538786439250000e-001) (70, 8.70729492356038910000e-001) (71, 2.28841357847830550000e+000) (72, 2.13500697450223290000e+000) (73, 2.26654427153815610000e+000) (74, -7.46207357333784290000e-001) (75, 2.19678149886520170000e+000) (76, 2.04527777451996640000e+000) (77, 1.94528793177132540000e+000) (78, 1.10723577239426430000e+000) (79, 1.71426969932153120000e+000) (80, 8.63874483371181580000e-002) (81, 1.27092682098468750000e-001) (82, 5.76911584180584410000e-001) (83, 3.45970686756130910000e-001) (84, 3.71414828289661300000e+000) (85, 1.08958886904081580000e+000) (0, 1.37948051496111160000e+000) (1, 1.66204851300193690000e+000) (2, 2.12543022917018820000e-001) (3, 9.23576736475448020000e-001) (4, 4.23795354194041130000e-001) (5, 1.56665321366683960000e+000) (6, 1.51115871367220330000e+000) (7, 1.25593064816782070000e+000) (8, 1.57136194216370440000e+000) (9, 2.28090744563756110000e+000) (10, 5.14555425005978950000e-001) (11, 1.62818688500403570000e+000) (12, 4.48288014178908180000e-001) (13, 1.73988076290976060000e+000) (14, 1.12320821108930110000e+000) (15, 6.75473825108861340000e-001) (16, 1.71462812409577920000e+000) (17, 4.50586236744451310000e-001) (18, 7.79349076114419610000e-001) (19, 1.79272043044999110000e+000) (20, 9.81943845245820790000e-001) (21, 5.23862727337202960000e-001) (22, 2.26030516438018210000e+000) (23, 1.53771565531610690000e+000) (24, -5.17047625034498080000e-001) (25, -7.36690864342409490000e-001) (26, 7.67447758326377350000e-001) (27, 1.38117827341154760000e+000) (28, 5.03101986269923530000e-001) (29, 1.17251614541814850000e+000) (30, 5.26715357389970220000e-001) (31, 3.73929647102493270000e-001) (32, 2.03030108101862930000e+000) (33, 2.39420329855559100000e+000) (34, 5.97195156786574750000e-001) (35, 1.63443948922895400000e-001) (36, -3.90936918458534680000e-001) (37, 6.42633056575655840000e-001) (38, 1.11268665093433960000e+000) (39, 1.87070428585840580000e+000) (40, 9.24674677293447210000e-001) (41, -3.33039122810587230000e-001) (42, 4.44925189935904190000e-001) (43, 3.35928854665903890000e-001) (44, 1.06042829067659210000e+000) (45, 2.70961523700888880000e-001) (46, 2.21053859367443150000e+000) (47, -3.84593520181355900000e-001) (48, 1.27671665373629570000e+000) (49, 1.42670929076399220000e+000) (50, 9.15973056132369010000e-001) (51, 1.02503938500937370000e+000) (52, 2.23644234986045420000e+000) (53, 2.15435444089574450000e+000) (54, 1.86055219855243310000e+000) (55, 4.52560125553796770000e-001) (56, 2.63719665717370330000e+000) (57, 1.92185617191338090000e+000) (58, 2.01265219531008180000e-001) (59, 2.61602614310190110000e-001) (60, 1.01278788808363540000e+000) (61, 8.64155483514926440000e-001) (62, -7.49084201035062010000e-001) (63, 3.09069803961149970000e-001) (64, 7.88321126511977170000e-001) (65, 1.43101016500676390000e+000) (66, 1.70136194525056390000e+000) (67, 1.73807207096409270000e+000) (68, 9.56225342728612040000e-001) (69, 1.92540729733540860000e-001) (70, 1.70112851542752330000e+000) (71, 8.04434867140783720000e-001) (72, 1.50986199819944340000e+000) (73, 1.65559462218424750000e+000) (74, 8.25468185670982650000e-002) (75, 1.48296229266428140000e+000) (76, 1.92280179618549800000e+000) (77, 1.33010652375414140000e+000) (78, 1.35124963838184180000e+000) (79, 1.98777303361584860000e+000) (80, 1.24574141497386020000e+000) (81, 1.50858426199056780000e+000) (82, 1.16368771675969950000e+000) (83, 1.56611531893340180000e+000) (84, 1.45038869491265880000e+000) (85, 3.78692168773098470000e-001) (86, 1.74252570106818320000e+000) (0, -6.57268362225147620000e-001) (1, 1.53805455071810800000e+000) (2, -1.01337236336723270000e+000) (3, -8.43764282388144830000e-001) (4, 2.70645367825494750000e-001) (5, 3.78017791936617550000e-001) (6, -1.25362089346433360000e+000) (7, -9.19885440622910440000e-001) (8, 5.70290401973089440000e-001) (9, -7.01286243160499480000e-001) (10, 2.20797491851289270000e-001) (11, -4.56770125140877340000e-001) (12, 4.77416672395276410000e-001) (13, 7.06239775216880860000e-001) (14, -9.71132078175139800000e-001) (15, 1.00119430993186390000e+000) (16, -4.20860765898212030000e-001) (17, 7.82944292121767080000e-001) (18, -1.09856794688390660000e-001) (19, -9.50825636945673460000e-001) (20, -4.32492183430056800000e-001) (21, -1.02002459036256180000e+000) (22, 7.15259534048245720000e-001) (23, -2.39112951572740400000e-001) (24, 1.09641940825265710000e-002) (25, 1.69350022329063710000e-001) (26, 1.19983104185263230000e-001) (27, 2.59138253377566800000e-001) (28, 5.87782421743790250000e-001) (29, 1.99084076745750710000e-001) (30, -6.73153519015039610000e-001) (31, -6.01450625083355780000e-001) (32, 6.61256500909223500000e-001) (33, 4.45777666203187150000e-001) (34, -4.32500305235913350000e-003) (35, -3.01404801169153410000e-001) (36, 7.95625138033650090000e-001) (37, 6.88914246518981920000e-001) (38, 1.91613458370148680000e-001) (39, 8.57646053628497770000e-001) (40, -1.31706574738779810000e-001) (41, 7.04380307466954790000e-001) (42, -3.64734843667502310000e-001) (43, 4.70349305780530020000e-001) (44, -3.36153416377427350000e-001) (45, -8.20536033826143980000e-003) (46, -6.14554559141485490000e-001) (47, 3.05321630303541760000e-001) (48, -6.94316557060204450000e-001) (49, 7.72234928477885330000e-001) (50, -7.02043519347290370000e-001) (51, -6.23859356430182420000e-001) (52, -4.45433988160889530000e-001) (53, 3.36302330619403400000e-001) (54, 4.72249671816956870000e-001) (55, -1.83338674603726020000e-001) (56, 1.58132647205205570000e+000) (57, 9.71713625014311470000e-001) (58, 2.66445484091068390000e+000) (59, 1.68197697673702500000e+000) (60, 2.33910691857261720000e+000) (61, 2.05419336625153060000e+000) (62, 3.10473535311564940000e+000) (63, 5.09871098927838660000e-001) (64, -7.85440316282158030000e-003) (65, 1.48795460736918980000e+000) (66, 2.55075631292410640000e+000) (67, 3.01118238611383000000e+000) (68, 3.07496203096395560000e+000) (69, 1.09414879230213560000e+000) (70, 1.18808927116219460000e+000) (71, 9.85093204568407320000e-001) (72, 2.23387811597641580000e+000) (73, 1.96567964512958190000e+000) (74, 7.91247658076133290000e-001) (75, 2.08404822249383990000e+000) (76, 1.93997178661035540000e+000) (77, 2.72075795962690000000e+000) (78, 1.32635618252432930000e+000) (79, 1.96994462459276900000e+000) (80, 1.91222447457389010000e+000) (81, -6.21665369918204540000e-001) (82, 2.53103099441603430000e+000) (83, 5.53313821116564460000e-001) (84, 2.25948140009655240000e+000) (85, 1.54866405806195110000e+000) (86, 2.74675247500142560000e+000) (87, 1.55952359714851290000e+000) (0, -8.35887495499728770000e-002) (1, 1.60155733169986840000e+000) (2, 9.17011298802425050000e-001) (3, 1.69410122200632700000e-001) (4, 1.65455782048966670000e+000) (5, 1.60280886686730150000e+000) (6, 2.49476909351718270000e-002) (7, 9.70974740431945760000e-001) (8, 1.22407334929096630000e+000) (9, 1.64213365132349450000e+000) (10, 1.18185820110243060000e+000) (11, 2.19623456602785930000e+000) (12, 1.84979158358276540000e+000) (13, 7.63814511071579490000e-001) (14, 1.70434322093801580000e+000) (15, 1.26754350474990240000e+000) (16, 2.08404021950212210000e+000) (17, 1.17570448892293890000e+000) (18, 2.12572587382425750000e+000) (19, -1.80100771502327480000e-001) (20, 2.08408135399515660000e+000) (21, 6.13328059799390200000e-001) (22, 1.74730343429540250000e-001) (23, 1.54772263852088820000e+000) (24, 2.24831825098939530000e+000) (25, 1.74020762854068510000e+000) (26, 3.10631924583573090000e+000) (27, 1.18837302416690790000e+000) (28, 2.62537266932534540000e-001) (29, 2.93715977546008700000e-001) (30, 1.43597813762902840000e+000) (31, 7.44260051044545850000e-001) (32, 1.39257205825428950000e+000) (33, 1.85668884576485740000e+000) (34, 1.32205325454770870000e-001) (35, 2.71862254404760360000e-001) (36, 2.35302334506180610000e-002) (37, 8.71509470102454390000e-001) (38, 1.13588491016788300000e+000) (39, 1.11381249921344640000e+000) (40, 5.67793952418913850000e-002) (41, 1.45967543811374050000e+000) (42, 1.23562752450295440000e+000) (43, 7.33093698046897500000e-001) (44, 1.06149312030693910000e+000) (45, 1.24564780100458640000e+000) (46, 1.71069289052822460000e+000) (47, 1.00694624050543040000e+000) (48, 8.63719743043758650000e-001) (49, 1.67682168408213510000e+000) (50, 1.22888501567216910000e+000) (51, 4.25253857318738330000e-001) (52, 1.85440408103697880000e+000) (53, 6.60121448082855890000e-001) (54, 1.57513496648425840000e+000) (55, 6.75769448412656270000e-002) (56, 9.47619923294245160000e-001) (57, 2.09101104851048180000e+000) (58, 1.55140451696687260000e+000) (59, 1.65286309944413050000e+000) (60, 9.60074213472308260000e-001) (61, 2.19988213497104640000e-002) (62, 4.96188307217743490000e-001) (63, 1.10954790929079410000e+000) (64, 2.16601897717910190000e-001) (65, 2.37085111753944980000e+000) (66, 2.44247520261951400000e+000) (67, -1.20142934951679680000e-002) (68, 2.13928688303047030000e+000) (69, 1.45101485292323960000e+000) (70, -8.04123579337287920000e-002) (71, 1.11933165331522710000e+000) (72, 1.66768960792599510000e+000) (73, 2.02752986206146830000e+000) (74, 4.78999383922326660000e-001) (75, 4.24466694945651420000e-001) (76, 1.64347209674325080000e+000) (77, 1.31440325160160600000e+000) (78, -3.99631416972782760000e-001) (79, 2.07702316887359920000e+000) (80, 1.45264861988175760000e+000) (81, 1.64037459057712690000e-001) (82, 5.41917931725293470000e-002) (83, -2.76335336687052180000e-001) (84, 2.49961773091804980000e+000) (85, -1.64755565032926290000e-002) (86, 6.88606401911079470000e-001) (87, 1.25251103326510040000e+000) (88, 1.88218797681460850000e-001) (0, -2.77394455201109840000e-001) (1, 3.14292648193682190000e-001) (2, -4.58163006533516330000e-001) (3, 5.93851454513961260000e-001) (4, 5.93332475411375020000e-002) (5, -6.49344542406319890000e-001) (6, -6.27541340351012830000e-001) (7, 5.41153089432284240000e-001) (8, 5.70542165564234540000e-001) (9, 1.27827635308583520000e+000) (10, -5.55481751048362730000e-001) (11, 2.96677841713029300000e-001) (12, -4.00936621237665880000e-001) (13, 2.29264022475209850000e-002) (14, -4.29868958408595960000e-001) (15, -3.91962046106665960000e-001) (16, -6.19306764097727560000e-001) (17, -2.41873908658781360000e-001) (18, -4.25381076372938430000e-001) (19, 7.91640935616344190000e-001) (20, 7.42394035003026250000e-001) (21, 4.16451001611822860000e-001) (22, -1.23232545512769010000e-001) (23, 1.24354041194629520000e+000) (24, 3.05270887735783260000e-001) (25, 7.13407130284309100000e-002) (26, 6.62544676374290820000e-001) (27, -4.97345836618292740000e-001) (28, -6.39385471715011030000e-002) (29, -7.11418130659309810000e-001) (30, -4.82798321103908410000e-001) (31, -1.22581444099207500000e-001) (32, -7.40187240922941080000e-001) (33, 3.80954951909050820000e-001) (34, 7.56894558165255420000e-001) (35, 7.43267551829761230000e-001) (36, 1.97470888251325360000e-001) (37, -4.28769227159326860000e-001) (38, -5.77777115125194700000e-001) (39, -4.05291859815193280000e-001) (40, 8.02769611052925740000e-002) (41, 1.13031033956414980000e+000) (42, 7.16582077344352420000e-001) (43, -9.97481027248512290000e-001) (44, 7.07630350748893470000e-001) (45, 8.12579373932874050000e-001) (46, 9.12489615853214860000e-001) (47, -4.31722650029592920000e-001) (48, -5.20173746430784840000e-001) (49, 7.23015429406332790000e-001) (50, 9.21536213047347010000e-001) (51, 9.72741214923908750000e-001) (52, -7.64925525482565980000e-001) (53, 2.26352330399635370000e-001) (54, 2.39084517211806010000e-001) (55, -2.89863623287074870000e+000) (56, 2.70777753370538530000e+000) (57, -6.07790135407167400000e+000) (58, 2.42144476666049610000e+000) (59, 1.40986125538879750000e+000) (60, 2.40628245730008670000e+000) (61, 1.42888008264980960000e+000) (62, 2.56624762913108740000e+000) (63, 2.20295817769602880000e+000) (64, 1.03335432346026360000e+000) (65, 1.14231979673536130000e+000) (66, 1.75949779859753040000e+000) (67, 2.21872270080211690000e+000) (68, 3.31742181063458870000e-001) (69, 7.14694379430267370000e-001) (70, 2.19593630899556120000e+000) (71, 1.65556956547719160000e+000) (72, 1.72794375966740340000e+000) (73, 1.29799481354486800000e+000) (74, 2.28916093333507800000e+000) (75, 2.83228709780780190000e+000) (76, 1.09280540362025150000e+000) (77, 5.71322487805357060000e+000) (78, 2.56253050744314190000e+000) (79, 8.55699561138000500000e-001) (80, 1.06205298597756760000e+000) (81, 1.34361814466397660000e+000) (82, 3.28900511489172140000e+000) (83, 1.71378145807181090000e+000) (84, 1.02007671843205210000e+000) (85, 1.47238640530275440000e+000) (86, 2.30020372149878270000e+000) (87, -4.35036299250577300000e-001) (88, 5.70964174923849650000e-001) (89, 6.46841363141773320000e-001) (0, 1.50951318333162530000e-001) (1, 7.97363301052374300000e-001) (2, -6.70645178885544310000e-001) (3, 7.76695365529511460000e-001) (4, 2.64031185801219760000e-001) (5, -2.88997689862110880000e-001) (6, -1.03786375284372130000e+000) (7, 1.42407853890680310000e-001) (8, 8.09353057151197430000e-001) (9, -3.92668014651641140000e-001) (10, -3.08541207600256940000e-001) (11, 9.23477158664275710000e-001) (12, 5.46073746843261930000e-001) (13, -5.64468407884551440000e-001) (14, -4.60812514320942950000e-001) (15, 3.09724362840264220000e-001) (16, 9.20290753413819270000e-001) (17, -7.37111988370527050000e-001) (18, -1.53632936660937190000e-001) (19, -1.65639849716337880000e-001) (20, 2.33947910887499530000e-001) (21, -1.13611318582491490000e+000) (22, -1.05660872153816350000e-001) (23, 5.63450528486696080000e-001) (24, -8.60162629566873060000e-001) (25, -7.26429212245225280000e-001) (26, 3.30191332296371210000e-001) (27, -4.77282439066974040000e-001) (28, -1.67794843917626640000e-001) (29, 6.86552483664329530000e-001) (30, -5.35972442659193530000e-001) (31, -1.09419240206922020000e+000) (32, 2.86158115456990940000e-001) (33, 5.40850965295597510000e-001) (34, 4.70765283276180450000e-001) (35, 2.93941458602987760000e-001) (36, -7.10191063539761250000e-001) (37, 5.19161691161051260000e-001) (38, -6.94875435329534020000e-002) (39, 3.16496775889995250000e-001) (40, 6.08156112436907700000e-001) (41, 4.31211251368883160000e-001) (42, -1.40328463919825620000e-001) (43, 8.44157906690353510000e-001) (44, -8.04280010596310380000e-001) (45, 7.80664911990887720000e-001) (46, 8.80354840419944050000e-001) (47, 4.51374065272346910000e-001) (48, 7.82056932855005660000e-001) (49, -3.61721271431243830000e-001) (50, -7.51001496399702260000e-001) (51, -6.95498893627310770000e-001) (52, -1.13909045373668900000e+000) (53, -6.74112216538166110000e-001) (54, 2.81389499201483910000e-002) (55, -7.83328297024646900000e-001) (56, 1.73369359916869410000e+000) (57, -7.06998996976954560000e-001) (58, 2.59839861705470600000e+000) (59, 6.82818551734667770000e-001) (60, 1.23969709766737330000e+000) (61, 2.40404530283247950000e+000) (62, 1.02410435451064050000e+000) (63, 1.86194294882582210000e+000) (64, 8.99800043680075600000e-001) (65, 2.20353474163811610000e+000) (66, 2.85619853127734170000e+000) (67, 2.45395667282545250000e+000) (68, 1.84868797055281190000e+000) (69, 1.15684018112118880000e+000) (70, 1.69821679893243840000e+000) (71, 1.15280128493399280000e+000) (72, 2.88759962538824940000e+000) (73, 1.79926886595781470000e+000) (74, 3.58272981184174500000e-001) (75, 3.25377215425479970000e+000) (76, 2.38043503814237710000e+000) (77, 2.40220874903650470000e+000) (78, 3.07398999589532050000e+000) (79, 1.87485394651242520000e+000) (80, 5.91674872055521610000e-001) (81, 2.45980144751191840000e-001) (82, 1.35681503235375530000e+000) (83, 7.91724355209200260000e-001) (84, 2.18424255159330150000e+000) (85, 1.98655872386621240000e+000) (86, 2.39045071609139500000e+000) (87, -4.23829591247440020000e-001) (88, 1.86263662084453150000e+000) (89, 1.43725897025918150000e-001) (90, 1.88454694845764030000e+000) (0, 1.75337586767449750000e+000) (1, 1.50795596097181690000e+000) (2, 1.82453390304824530000e+000) (3, 7.07186615241828460000e-001) (4, 1.03320336854006740000e+000) (5, 9.34763320265017410000e-001) (6, 2.07072569449310030000e+000) (7, 1.92400120727715260000e+000) (8, -6.70895210122602780000e-001) (9, 1.10951457591556450000e+000) (10, 8.94033462179109730000e-001) (11, 7.70317171062331330000e-001) (12, 5.66373289720781380000e-001) (13, 4.73862205085600670000e-001) (14, 8.51656052118362480000e-001) (15, 2.52122221506670130000e-002) (16, 1.55551543154322910000e+000) (17, 1.37286808382729350000e+000) (18, 2.22561099602825110000e+000) (19, 3.70939933310168890000e-001) (20, 6.63740611051919620000e-001) (21, 1.71167589326753780000e+000) (22, 6.23136419240135080000e-001) (23, 1.42551861569618500000e+000) (24, 1.73324815364750660000e+000) (25, 2.90433181961371250000e-001) (26, 2.66142245677576610000e+000) (27, 1.14939749711457040000e+000) (28, -1.76234244401713260000e-001) (29, 6.79670496027916290000e-001) (30, 4.88874840952173760000e-001) (31, 6.27950139107774310000e-001) (32, 1.99653262942769570000e+000) (33, 9.84629154809890770000e-001) (34, 2.29387407162196450000e+000) (35, 1.82415854056214370000e+000) (36, 9.69632286892260890000e-001) (37, 4.33400519717854540000e-001) (38, 1.20888965670932750000e+000) (39, 6.84940541590316920000e-001) (40, 6.69952224294268150000e-001) (41, 1.21054653845841730000e+000) (42, 7.51699627728055540000e-001) (43, 1.62974099474895160000e+000) (44, 9.02110879050493810000e-001) (45, 4.84201417353777360000e-001) (46, 1.42784862112320150000e+000) (47, 1.00903916361018300000e+000) (48, 9.78337281972189610000e-001) (49, 6.10216602342409860000e-002) (50, 4.15906066132441580000e-001) (51, 7.85670235813033860000e-001) (52, 1.37210542583626580000e-001) (53, 6.02474001145906100000e-001) (54, 9.36583415316473490000e-001) (55, 4.54187023185970820000e-001) (56, 1.84719678155219720000e-001) (57, 2.32298561740646340000e+000) (58, 7.22844317836809140000e-001) (59, 1.83593876518436200000e-001) (60, 1.90971667723488240000e+000) (61, 2.93939534095091600000e-001) (62, 2.15216724576282110000e+000) (63, 1.41335341363214240000e+000) (64, 8.91168325313916430000e-001) (65, 2.19346140538116070000e+000) (66, 1.77217098009317530000e+000) (67, 1.36232610916835540000e+000) (68, 1.55396799646069870000e+000) (69, 5.35029456120814430000e-001) (70, 1.76322554519371580000e+000) (71, 1.14453907932690100000e+000) (72, 1.16572852496523720000e+000) (73, 1.62139111572958660000e+000) (74, 6.58432317507749330000e-001) (75, 1.80143100929320110000e+000) (76, 1.74406781880521770000e+000) (77, 8.55050576074853570000e-001) (78, 2.14299483752437330000e+000) (79, 1.79038517456101780000e+000) (80, 2.01310184434286520000e+000) (81, 1.50383593084507460000e+000) (82, 1.81135112623379000000e+000) (83, 2.17020663072475270000e+000) (84, 1.50329257027153360000e+000) (85, 1.23715216770157690000e+000) (86, 1.85203739042873350000e+000) (87, 7.38231391208508230000e-001) (88, 3.86156647793090780000e-001) (89, 5.94401624203623970000e-001) (90, 1.37366886013917290000e+000) (91, 5.38377914480731360000e-001) (0, 9.57655063751030180000e-002) (1, 1.73407985111536460000e-001) (2, -7.49310649935971850000e-001) (3, -6.04904523243674610000e-001) (4, 8.49588576801890700000e-001) (5, -8.46148158852303320000e-001) (6, 9.13269651256696650000e-002) (7, -2.21917564990538220000e-001) (8, 9.23036257451866350000e-001) (9, -2.28070425364051730000e-001) (10, -6.93599170652710710000e-001) (11, 3.44142685183572550000e-001) (12, -6.99670873624235970000e-001) (13, 4.04275754268172970000e-001) (14, 6.32395173997139960000e-001) (15, -5.60401086237329430000e-001) (16, -7.88216967663568300000e-001) (17, 8.19388826084104790000e-001) (18, 1.01814708503073260000e+000) (19, 