FANN_FLO_2.1
num_layers=55
learning_rate=0.700000
connection_rate=1.000000
network_type=1
learning_momentum=0.000000
training_algorithm=2
train_error_function=1
train_stop_function=0
cascade_output_change_fraction=0.010000
quickprop_decay=-0.000100
quickprop_mu=1.750000
rprop_increase_factor=1.200000
rprop_decrease_factor=0.500000
rprop_delta_min=0.000000
rprop_delta_max=50.000000
rprop_delta_zero=0.100000
cascade_output_stagnation_epochs=12
cascade_candidate_change_fraction=0.010000
cascade_candidate_stagnation_epochs=12
cascade_max_out_epochs=150
cascade_max_cand_epochs=150
cascade_num_candidate_groups=2
bit_fail_limit=3.49999999999999980000e-001
cascade_candidate_limit=1.00000000000000000000e+003
cascade_weight_multiplier=4.00000000000000020000e-001
cascade_activation_functions_count=10
cascade_activation_functions=3 5 7 8 10 11 14 15 16 17 
cascade_activation_steepnesses_count=4
cascade_activation_steepnesses=2.50000000000000000000e-001 5.00000000000000000000e-001 7.50000000000000000000e-001 1.00000000000000000000e+000 
layer_sizes=56 1 1 1 1 1 1 1 1 1 1 1 1 1 1 1 1 1 1 1 1 1 1 1 1 1 1 1 1 1 1 1 1 1 1 1 1 1 1 1 1 1 1 1 1 1 1 1 1 1 1 1 1 1 1 
scale_included=0
neurons (num_inputs, activation_function, activation_steepness)=(0, 0, 0.00000000000000000000e+000) (0, 0, 0.00000000000000000000e+000) (0, 0, 0.00000000000000000000e+000) (0, 0, 0.00000000000000000000e+000) (0, 0, 0.00000000000000000000e+000) (0, 0, 0.00000000000000000000e+000) (0, 0, 0.00000000000000000000e+000) (0, 0, 0.00000000000000000000e+000) (0, 0, 0.00000000000000000000e+000) (0, 0, 0.00000000000000000000e+000) (0, 0, 0.00000000000000000000e+000) (0, 0, 0.00000000000000000000e+000) (0, 0, 0.00000000000000000000e+000) (0, 0, 0.00000000000000000000e+000) (0, 0, 0.00000000000000000000e+000) (0, 0, 0.00000000000000000000e+000) (0, 0, 0.00000000000000000000e+000) (0, 0, 0.00000000000000000000e+000) (0, 0, 0.00000000000000000000e+000) (0, 0, 0.00000000000000000000e+000) (0, 0, 0.00000000000000000000e+000) (0, 0, 0.00000000000000000000e+000) (0, 0, 0.00000000000000000000e+000) (0, 0, 0.00000000000000000000e+000) (0, 0, 0.00000000000000000000e+000) (0, 0, 0.00000000000000000000e+000) (0, 0, 0.00000000000000000000e+000) (0, 0, 0.00000000000000000000e+000) (0, 0, 0.00000000000000000000e+000) (0, 0, 0.00000000000000000000e+000) (0, 0, 0.00000000000000000000e+000) (0, 0, 0.00000000000000000000e+000) (0, 0, 0.00000000000000000000e+000) (0, 0, 0.00000000000000000000e+000) (0, 0, 0.00000000000000000000e+000) (0, 0, 0.00000000000000000000e+000) (0, 0, 0.00000000000000000000e+000) (0, 0, 0.00000000000000000000e+000) (0, 0, 0.00000000000000000000e+000) (0, 0, 0.00000000000000000000e+000) (0, 0, 0.00000000000000000000e+000) (0, 0, 0.00000000000000000000e+000) (0, 0, 0.00000000000000000000e+000) (0, 0, 0.00000000000000000000e+000) (0, 0, 0.00000000000000000000e+000) (0, 0, 0.00000000000000000000e+000) (0, 0, 0.00000000000000000000e+000) (0, 0, 0.00000000000000000000e+000) (0, 0, 0.00000000000000000000e+000) (0, 0, 0.00000000000000000000e+000) (0, 0, 0.00000000000000000000e+000) (0, 0, 0.00000000000000000000e+000) (0, 0, 0.00000000000000000000e+000) (0, 0, 0.00000000000000000000e+000) (0, 0, 0.00000000000000000000e+000) (0, 0, 0.00000000000000000000e+000) (56, 16, 7.50000000000000000000e-001) (57, 15, 1.00000000000000000000e+000) (58, 14, 2.50000000000000000000e-001) (59, 16, 2.50000000000000000000e-001) (60, 15, 2.50000000000000000000e-001) (61, 16, 5.00000000000000000000e-001) (62, 16, 2.50000000000000000000e-001) (63, 15, 5.00000000000000000000e-001) (64, 16, 2.50000000000000000000e-001) (65, 16, 7.50000000000000000000e-001) (66, 3, 5.00000000000000000000e-001) (67, 8, 2.50000000000000000000e-001) (68, 17, 2.50000000000000000000e-001) (69, 5, 2.50000000000000000000e-001) (70, 14, 5.00000000000000000000e-001) (71, 16, 2.50000000000000000000e-001) (72, 3, 7.50000000000000000000e-001) (73, 11, 2.50000000000000000000e-001) (74, 14, 2.50000000000000000000e-001) (75, 15, 2.50000000000000000000e-001) (76, 8, 2.50000000000000000000e-001) (77, 11, 2.50000000000000000000e-001) (78, 8, 7.50000000000000000000e-001) (79, 15, 5.00000000000000000000e-001) (80, 15, 2.50000000000000000000e-001) (81, 11, 5.00000000000000000000e-001) (82, 15, 7.50000000000000000000e-001) (83, 15, 5.00000000000000000000e-001) (84, 5, 2.50000000000000000000e-001) (85, 15, 5.00000000000000000000e-001) (86, 15, 7.50000000000000000000e-001) (87, 11, 5.00000000000000000000e-001) (88, 16, 1.00000000000000000000e+000) (89, 15, 5.00000000000000000000e-001) (90, 5, 2.50000000000000000000e-001) (91, 14, 7.50000000000000000000e-001) (92, 14, 5.00000000000000000000e-001) (93, 17, 2.50000000000000000000e-001) (94, 17, 5.00000000000000000000e-001) (95, 15, 2.50000000000000000000e-001) (96, 16, 2.50000000000000000000e-001) (97, 16, 5.00000000000000000000e-001) (98, 14, 1.00000000000000000000e+000) (99, 3, 5.00000000000000000000e-001) (100, 16, 2.50000000000000000000e-001) (101, 17, 1.00000000000000000000e+000) (102, 16, 5.00000000000000000000e-001) (103, 17, 5.00000000000000000000e-001) (104, 15, 2.50000000000000000000e-001) (105, 17, 2.50000000000000000000e-001) (106, 16, 2.50000000000000000000e-001) (107, 16, 2.50000000000000000000e-001) (108, 3, 5.00000000000000000000e-001) (109, 11, 5.00000000000000000000e-001) 
connections (connected_to_neuron, weight)=(0, -1.35124402152599470000e-001) (1, 5.59805490567095510000e-002) (2, -1.04416166469205820000e+000) (3, -6.99298431884801790000e-001) (4, 1.11466720679470120000e-001) (5, 2.92297063607417700000e-001) (6, 2.49545423176766170000e-001) (7, 8.07827049812118950000e-001) (8, 3.05503959329092070000e+000) (9, 7.58708143785412960000e-001) (10, -1.06041335211817820000e+000) (11, 2.30441374746970550000e-001) (12, 6.58950509457755130000e-001) (13, -2.62121925244612470000e-001) (14, 6.62204874425821990000e-001) (15, 2.18287046737853570000e+000) (16, -2.78040485495135980000e+000) (17, -1.41514616380574960000e+000) (18, -8.86331736175569040000e-001) (19, 8.23982344869156160000e+000) (20, -5.89069078201179370000e-001) (21, -9.68343649481323340000e-001) (22, 2.39878682105373800000e-001) (23, -1.37553593600479580000e+000) (24, -3.09287098628241000000e+000) (25, 2.65871122553824660000e+000) (26, -1.08384328229507830000e-001) (27, 4.83815642400296490000e+000) (28, -6.46357788775806190000e-001) (29, 7.75396185601468700000e+000) (30, -5.76102314752517590000e+000) (31, -8.89125611082383920000e-002) (32, -2.74692777565053950000e-001) (33, 1.17082678341060160000e+000) (34, 7.61042549729220140000e+000) (35, 7.29619054747127740000e+000) (36, 7.05199077355370800000e-001) (37, 7.26026816843695520000e-001) (38, -3.49220105351253700000e-001) (39, -4.79597448508559790000e-001) (40, 3.50815266466394720000e-001) (41, -7.26889916134371260000e-001) (42, -9.86431789954497540000e-001) (43, -9.16028024649552130000e-001) (44, -9.62640242028952180000e-002) (45, -3.18539743881126780000e+000) (46, -5.22870819138545830000e-001) (47, 5.04842453266189370000e-001) (48, 2.76528249537460190000e-001) (49, -4.59929657330830350000e-001) (50, -9.11643656666894950000e-001) (51, 6.99438218006559590000e-001) (52, 3.95834218834944900000e+000) (53, -1.59565179428984720000e+000) (54, -1.02542596329387340000e+000) (55, -2.19039075323131760000e+000) (0, -3.04183784995480750000e+000) (1, 8.34185547390848050000e-001) (2, 4.59722146617481340000e-001) (3, 8.73549160888546730000e-001) (4, 1.23782058280158490000e+000) (5, 8.80979733795288600000e-001) (6, 3.33143858580046970000e-001) (7, 3.26048188643879300000e-002) (8, 7.58265773755570250000e-001) (9, 1.57785628606914650000e-002) (10, 3.42037384531802320000e-001) (11, -5.76012280756663110000e-001) (12, 8.88706475571605310000e-001) (13, -2.30217854245419810000e+000) (14, 7.73512770268030340000e-001) (15, 2.82953714931812780000e+000) (16, 4.88385587365855800000e-001) (17, 1.23274678943149100000e+000) (18, 4.64710031217795030000e-001) (19, -4.68383846252114820000e+000) (20, 3.52692620002524300000e+000) (21, -3.36185411244157920000e-002) (22, 6.49237808256126430000e-001) (23, 1.27516418725080060000e+000) (24, 1.02357031201827460000e+000) (25, 1.10481493213159320000e-001) (26, 5.66926060067665110000e-001) (27, -2.45543754790741970000e+000) (28, 1.41047480299265660000e+000) (29, -2.87300498053060420000e+000) (30, 7.05014454529310440000e-001) (31, 9.19506999759087010000e-001) (32, 1.53100133890159130000e+000) (33, 3.03472743150478140000e+000) (34, -2.13386608885496990000e+000) (35, -1.89165525094947130000e-002) (36, 5.97512588857102790000e-001) (37, 2.55776112946024050000e+000) (38, 3.26662285578320780000e-002) (39, -2.35742631637491620000e-001) (40, 3.30564651455392770000e-001) (41, 1.26662172902689020000e+000) (42, 8.58503785994730540000e-001) (43, 1.46049213123006410000e+000) (44, -1.41614481436659060000e-001) (45, 9.69403506617008470000e-001) (46, 1.32024327100127640000e+000) (47, 2.38316412304636540000e-001) (48, 1.13221891948207820000e+000) (49, 3.51924345176310100000e-001) (50, -1.64773543941991910000e+000) (51, 3.87737076051894340000e-001) (52, 9.06145627092897140000e+000) (53, 1.44858309228644000000e+000) (54, 5.22757006136421620000e-001) (55, 2.94639980790566360000e-001) (56, 2.33156523478167710000e+000) (0, -5.82625379759222240000e-001) (1, -3.70913057929117000000e-001) (2, -4.28817840808748960000e-001) (3, -5.51679912175148000000e-001) (4, -5.25882589033260680000e-001) (5, 1.08128445629789180000e+000) (6, 3.86921974416493670000e-001) (7, 4.93296665381264060000e-002) (8, -3.24149294046515880000e-001) (9, 1.09266744780414430000e+000) (10, -4.84742972991641370000e-001) (11, 7.36927098921330790000e-001) (12, 4.63324118493785850000e-001) (13, 1.20985188901841360000e+000) (14, 3.27408725345760820000e-001) (15, 1.30675287736212060000e+000) (16, 4.24671771093900090000e-001) (17, 1.70448393215930360000e-001) (18, -2.31459500659879390000e-001) (19, 1.79724162460577340000e+000) (20, 7.36761754037136510000e-001) (21, 7.75987121181451740000e-001) (22, -1.05397993751252320000e+000) (23, 9.02060505550268290000e-001) (24, 5.25292883419864130000e-001) (25, 1.34071319094260160000e+000) (26, 6.07145140067428920000e-001) (27, 1.97084095894242250000e+000) (28, 1.48949194942262890000e+000) (29, 1.69079233828339780000e-001) (30, -1.10021029918287790000e-001) (31, 5.59370493479965370000e-001) (32, -3.85173331296913070000e-002) (33, 3.38828050031055320000e-001) (34, 2.83995912060202800000e-001) (35, -1.08354474453361280000e+000) (36, 1.14283922014963730000e+000) (37, 4.90626251934325300000e-001) (38, 8.25971380502762530000e-001) (39, 1.01082126431081880000e+000) (40, 8.07845203810740990000e-001) (41, 1.79058651258840320000e-001) (42, 1.26000979576290970000e+000) (43, 8.12485010131224320000e-001) (44, -2.73105940693328390000e-001) (45, -2.25672588490643760000e-001) (46, -5.66279836063602220000e-001) (47, 1.77388320983466320000e-001) (48, 3.87726207512044120000e-001) (49, 1.21330241213671090000e+000) (50, -5.54755552179385990000e-001) (51, 5.61131235729574020000e-001) (52, 1.01194994608815030000e+000) (53, 1.69471129724492210000e+000) (54, -4.66021227665951890000e-001) (55, -1.25779657006843790000e+000) (56, 1.87732507867268830000e-001) (57, 1.03972625979463370000e+000) (0, 7.98533066267278600000e-001) (1, -1.00256474512989200000e+000) (2, -1.11071058005891080000e+000) (3, -1.65796954922243240000e+000) (4, -6.89321173802998840000e-001) (5, -8.80177739298776960000e-001) (6, -1.36929044298867500000e+000) (7, -6.46348907019817730000e-001) (8, 1.70735248197052150000e+000) (9, -9.07229745160837650000e-001) (10, -2.25884618109869840000e+000) (11, -1.58797318960464370000e-001) (12, -2.15193295741173430000e+000) (13, -1.22645661507414920000e+000) (14, -8.88511000874676050000e-001) (15, -6.38822248393131900000e-002) (16, -5.02296259833968970000e-001) (17, -1.99865145826772310000e+000) (18, -8.91311830375735030000e-001) (19, -1.52925824407277730000e+000) (20, -1.57529928820332250000e+000) (21, 3.25127856761762310000e-001) (22, -1.68549357180237470000e+000) (23, -1.49794169063555850000e+000) (24, -4.63515181936076100000e+000) (25, -1.12391741971023330000e+000) (26, -8.83698448229409790000e-001) (27, -4.50573751085743270000e+000) (28, -5.14252347321839550000e-001) (29, -2.43313404769704130000e+000) (30, -6.93346628926735380000e-001) (31, -2.59749935244013350000e-001) (32, -6.58289102710658210000e-001) (33, 8.98164216135991180000e-001) (34, -1.51266500458562580000e+000) (35, -1.65994540446377690000e+000) (36, -1.06966615737164660000e+000) (37, -3.42113795340959810000e-001) (38, -4.83052506138838710000e-001) (39, -6.57915971595319450000e-001) (40, -1.85038082769878940000e+000) (41, -2.03464541015691580000e+000) (42, -8.96222377258344080000e-001) (43, -1.48067008091729630000e+000) (44, -5.87083248200177210000e-001) (45, -2.76505059758460980000e+000) (46, -1.20660527670097340000e+000) (47, -2.21052570166232830000e+000) (48, -1.07623209744977170000e+000) (49, -7.94917279443869360000e-001) (50, -2.48142093299686280000e+000) (51, -1.74360314019267900000e+000) (52, 5.72826813562644950000e+000) (53, -2.35569700885975180000e-001) (54, -2.61608202193363360000e+000) (55, -4.32604358945227040000e+000) (56, -4.60102234767545580000e-001) (57, 2.07549377985019580000e+000) (58, 2.59689076184653180000e+000) (0, -1.36714883122560330000e+000) (1, 2.70833237821904400000e+000) (2, 2.05806829550971710000e+000) (3, 2.64532906926439540000e+000) (4, 3.28672648213074850000e+000) (5, 2.28416837650553810000e+000) (6, 1.66243998476972130000e+000) (7, 1.66293951546510010000e+000) (8, 6.29070519314191310000e+000) (9, 2.15585142913011340000e+000) (10, 3.27480018677858010000e+000) (11, 4.63883819811448550000e+000) (12, 2.87673666389861450000e+000) (13, 5.13927575609558750000e+000) (14, 1.89671988090236930000e+000) (15, 1.30351536641381170000e+000) (16, 1.94454810175028010000e+000) (17, 3.98905688847570070000e+000) (18, 8.63804417922674040000e-001) (19, 6.13798454925187360000e+000) (20, 4.56350137603514130000e+000) (21, 1.49731302581733460000e+000) (22, -1.74025186172735880000e+000) (23, 2.51870043708005520000e+000) (24, -2.95734755612261060000e+000) (25, 6.30615110859259610000e+000) (26, 2.15630637279621680000e+000) (27, 4.31461775938930450000e+000) (28, 4.92472004124265790000e+000) (29, 4.64707341254503350000e+000) (30, 2.02774117493887210000e+000) (31, 1.77077159155404500000e+000) (32, 2.74404882293862680000e+000) (33, 1.04102156416076500000e+000) (34, 6.53201808621009760000e+000) (35, 6.27179699926451750000e+000) (36, 1.67680149226186130000e+000) (37, 4.25208715934068240000e+000) (38, 2.42603509399311080000e+000) (39, 3.33143447936714930000e+000) (40, 2.57583186126982260000e+000) (41, 2.72837604737111760000e+000) (42, 2.42653462468848960000e+000) (43, 1.98819643949360850000e+000) (44, 2.80199438360256540000e+000) (45, 1.40834222544572340000e+000) (46, 2.89166014342305560000e+000) (47, 2.86655872598027180000e+000) (48, 2.96945910272552770000e+000) (49, 2.46081491865885750000e+000) (50, 4.26978013945189790000e+000) (51, 3.27155323725861800000e+000) (52, 6.23101297184656660000e+000) (53, 1.79516637575600460000e+000) (54, 4.14794965308071720000e+000) (55, 3.33938100409855780000e-001) (56, 9.11132589258395690000e-001) (57, 8.73087952694134530000e-001) (58, 4.42607048162110050000e+000) (59, -4.06993217087633230000e+000) (0, -6.12627952328520190000e-001) (1, -2.08980227971505510000e-001) (2, 8.62312073668408670000e-001) (3, -6.96261603536140640000e-001) (4, 6.90709784435089920000e-003) (5, -3.49689146654736330000e-001) (6, 2.95780127251464690000e-001) (7, 5.25575458386856600000e-001) (8, -5.31602487382780820000e-001) (9, -6.21396439766567670000e-001) (10, -5.69084798136782370000e-001) (11, -8.49592897308449470000e-002) (12, 1.01999878262909130000e+000) (13, -3.61490530633685970000e-001) (14, 1.07337545169325520000e+000) (15, 2.05864766541734090000e-002) (16, 3.96911231029345580000e-002) (17, 7.42228112961419330000e-001) (18, 4.54121971270429970000e-001) (19, -3.31171652092225830000e+000) (20, -2.10297503477040710000e-001) (21, 4.06892829043691620000e-001) (22, 3.60575000915243220000e-002) (23, -9.02814277133029420000e-001) (24, -8.02562856268815290000e-001) (25, -2.83276496301578250000e-002) (26, -7.52626639402328430000e-001) (27, -1.70391883126308130000e+000) (28, -4.50428212212454710000e-001) (29, -6.88009324268528450000e-001) (30, 5.82729817290933430000e-001) (31, 5.86130681382393210000e-001) (32, -1.60928696079235710000e-001) (33, -4.44428455155477730000e-002) (34, -2.24378256746313870000e-001) (35, -1.73820777949623220000e-001) (36, 6.52000479714888610000e-001) (37, -4.67083426281055760000e-001) (38, 6.10276463756281420000e-001) (39, 7.46098785975891630000e-001) (40, -3.76440129859428930000e-001) (41, -2.97440153697561550000e-001) (42, -2.79255641270989700000e-002) (43, 6.05343615989571700000e-002) (44, -9.08076765632313210000e-001) (45, -8.72608284088960520000e-001) (46, 6.68915621319729370000e-001) (47, -8.58755862918311460000e-002) (48, -1.59850123957476970000e-001) (49, 2.84127474145907720000e-001) (50, -8.30478493796048660000e-001) (51, 3.24974408687967620000e-001) (52, 1.05399979310863150000e-002) (53, -2.46049472673653150000e-001) (54, 8.11184510500452400000e-002) (55, -2.83239339353708530000e+000) (56, 7.30247666630282620000e-001) (57, 2.19527412368459360000e+000) (58, 2.63544369744611550000e+000) (59, 9.98160277854440060000e-001) (60, 1.47503787922559330000e-001) (0, 1.94210861630973790000e-001) (1, -1.50579421682326160000e+000) (2, -1.87093023059699730000e+000) (3, -2.72609737090809200000e+000) (4, -2.84628064591654970000e+000) (5, -2.78477545708577080000e+000) (6, -2.73614929145244810000e+000) (7, -2.61734815551883940000e+000) (8, -8.19351622610755000000e-001) (9, -2.59020797004907790000e+000) (10, -2.24303976424837880000e+000) (11, -4.73393907223801240000e+000) (12, -2.10834402895400740000e+000) (13, -2.29205920148608170000e+000) (14, -2.12354755877734600000e+000) (15, -1.55314344119769830000e+000) (16, -8.41601311503184510000e-001) (17, -2.47772211118718970000e+000) (18, 6.12279625610345770000e-002) (19, -2.30321391701098040000e+000) (20, -2.50419744544973980000e+000) (21, 1.48490628227851240000e-002) (22, -1.20950160342661840000e+000) (23, -2.21508286023438840000e+000) (24, -2.31982763198986540000e+000) (25, -1.92038028721779240000e+000) (26, -2.00649638248400830000e+000) (27, -1.12653662394452270000e+001) (28, -1.00047626899808350000e+000) (29, -7.83115541671793200000e+000) (30, -6.91800632790315230000e-001) (31, -3.35085705947132120000e+000) (32, -1.37342298815477170000e+000) (33, -1.59767387927715190000e+000) (34, -1.61847137815494870000e+000) (35, -6.39014978218108180000e+000) (36, -2.18115762839718650000e+000) (37, -1.88810463351694620000e+000) (38, -1.72838143237734720000e+000) (39, -1.85654341931788760000e+000) (40, -1.60637624677022490000e+000) (41, -2.15596500253289450000e+000) (42, -1.53312287580322980000e+000) (43, -2.14245773430141600000e+000) (44, -1.72473761118001810000e+000) (45, -2.74075879369195220000e+000) (46, -1.64507614086599600000e+000) (47, -2.20107299597569210000e+000) (48, -2.92383890984639330000e+000) (49, -2.04809533019127300000e+000) (50, -2.06243564155094590000e+000) (51, -1.85321372063756960000e+000) (52, -1.06475822021670080000e+001) (53, -2.29259604208098850000e+000) (54, -1.74971176576219810000e+000) (55, -1.71688454825473990000e+000) (56, -2.08460528164573780000e-001) (57, 2.91958644080104300000e+000) (58, 3.07042807346978690000e+000) (59, -2.00766787510071070000e+000) (60, -1.23329515520295230000e+000) (61, -1.26381754320902930000e+000) (0, 8.33607565414674960000e-001) (1, 1.86049714372477720000e-001) (2, 4.06973796788354940000e-001) (3, -2.40369031932511440000e-001) (4, 1.59799895261762040000e+000) (5, 1.72521293394033170000e+000) (6, 4.09052044998082400000e-001) (7, 1.48892241021616690000e+000) (8, 1.76204895938837370000e+000) (9, 1.12428431523671210000e+000) (10, 5.90890884972938960000e-001) (11, -7.13145673084022570000e-002) (12, 1.09303960396463480000e+000) (13, 1.85012338862214910000e+000) (14, 1.00424973682033200000e+000) (15, 4.89012867822349540000e-001) (16, 1.64200299193694080000e-001) (17, 1.43854208801985490000e+000) (18, 4.57808697695647300000e-001) (19, 6.70357642470795880000e-001) (20, 6.28175225680197570000e-001) (21, 9.42449507481548100000e-001) (22, -1.18526613174669950000e+000) (23, 1.43505299153528700000e+000) (24, 2.43225383825578820000e-001) (25, 1.00660250402014450000e+000) (26, 1.32858157233560380000e+000) (27, 2.37667389913750330000e-001) (28, 1.01547312839295460000e+000) (29, -4.09907947845926320000e-001) (30, 5.29238680740577340000e-001) (31, 6.07805527391140690000e-001) (32, 1.36864506742261190000e-001) (33, -7.61128478076018720000e-002) (34, -3.61745083683005560000e-001) (35, 3.38199602381084430000e-001) (36, 1.80198216326329460000e+000) (37, 1.40167079817801900000e+000) (38, 5.25119058650437620000e-001) (39, 3.42037369644187460000e-001) (40, 2.80893405398222220000e-001) (41, 6.19647863583798750000e-001) (42, 1.06949413516207900000e+000) (43, 1.11250757538158980000e+000) (44, 1.10136060771123350000e+000) (45, 6.40884733813357420000e-001) (46, 1.68308117477949310000e+000) (47, 2.55592350559083860000e-001) (48, 5.38534658770910450000e-001) (49, 5.18750348676611180000e-001) (50, 2.30270594932910290000e+000) (51, 7.78602363018711330000e-001) (52, 1.74785325827044980000e-001) (53, 1.39463849485413640000e+000) (54, 1.36956685927372330000e+000) (55, 1.36832103683349750000e+000) (56, 3.01834333786104190000e-001) (57, 7.62391298109705630000e-001) (58, 1.92835483834774870000e+000) (59, -2.50329293055925550000e-001) (60, -6.44629657937854210000e-001) (61, 5.18326147887235190000e-001) (62, -9.13626596257460120000e-001) (0, 5.04893065580699310000e+000) (1, -9.52520980130134640000e-001) (2, -1.48519626845303600000e+000) (3, -8.39550086378654030000e-001) (4, -1.90721970067686610000e+000) (5, -5.19066176618867110000e-001) (6, -7.86662036678240200000e-001) (7, -1.86032731293532970000e+000) (8, -3.50423769198548210000e+000) (9, -4.75329400434635170000e-001) (10, -7.35107401281892450000e-001) (11, -2.75387480834471530000e+000) (12, -2.37467458695063060000e-001) (13, -2.73226867999207320000e+000) (14, -2.71035108214778890000e-001) (15, -4.23688343325594370000e+000) (16, -7.63129231910751330000e-001) (17, -3.53975329857573010000e+000) (18, 1.05484288720911800000e+000) (19, -3.02991415717129000000e+000) (20, -3.16259257645582050000e+000) (21, 1.98197184383359010000e-001) (22, -1.34356888927296760000e+000) (23, -1.05787889783682740000e+000) (24, -3.05224769190269150000e+000) (25, -1.08749538096819510000e+000) (26, -5.95179527381037850000e-001) (27, -8.30398912572733040000e+000) (28, -4.72363125570769480000e-001) (29, -9.61767938989112280000e+000) (30, -1.87958460088488130000e+000) (31, -1.38216412873467150000e+000) (32, -1.94754841637921030000e+000) (33, -1.20560594964506280000e+000) (34, -2.26510346060665980000e+000) (35, -3.58195502208323810000e+000) (36, -1.53542554699531690000e+000) (37, -3.49314125424705630000e+000) (38, -3.48726264755601590000e-001) (39, -1.81016114662419490000e+000) (40, -6.09001106002029060000e-001) (41, -2.20454142160604110000e+000) (42, -4.63590525441464560000e-001) (43, -5.17172809684484760000e-001) (44, -8.59367326958522690000e-001) (45, -1.79650362878916820000e+000) (46, -8.83917984874347250000e-001) (47, -9.90585712961218220000e-001) (48, -3.55502147051303650000e+000) (49, -9.47858732475323040000e-001) (50, -1.93175314013521440000e+000) (51, -7.85967802135633330000e-001) (52, -1.68038544528025500000e+001) (53, -1.07087440630373430000e+000) (54, -2.05459128724616400000e+000) (55, -3.16353177387070470000e+000) (56, -1.31445664407863560000e+000) (57, 2.87629273014332830000e+000) (58, 3.17607922574558810000e+000) (59, -1.91694704172335980000e+000) (60, -1.56326709367005320000e-001) (61, -1.75702164328851440000e-001) (62, -1.87260072315346650000e+000) (63, 2.54949346264098100000e-001) (0, -1.44294357375068620000e+000) (1, 2.54249633760771540000e+000) (2, 8.28124555601298830000e-001) (3, 1.38115456226803770000e+000) (4, 2.05845380109754790000e+000) (5, 1.58660732785434510000e+000) (6, 2.86947544684660730000e+000) (7, 1.65438541336477910000e+000) (8, 5.94510924400130140000e+000) (9, 9.18476909531435790000e-001) (10, 1.03949321561108850000e+000) (11, 3.91800146673072460000e+000) (12, 7.56354822670310290000e-001) (13, 7.06719164088167510000e+000) (14, 2.60180912129869980000e+000) (15, 5.46589706439139070000e-001) (16, 1.12619512811748220000e+000) (17, 2.62660880996923970000e+000) (18, 5.72383316900524800000e-001) (19, 2.05539900552597960000e+000) (20, 5.69765063602497610000e+000) (21, 1.04862651557589510000e+000) (22, 7.60603503799266110000e-001) (23, 8.83725303566072930000e-001) (24, 1.16845621476995840000e+000) (25, 1.00204618125921650000e+000) (26, 2.51140209030423380000e+000) (27, 9.40402220149537270000e+000) (28, 1.27512036360936750000e+000) (29, 5.80966714194115850000e+000) (30, 1.25059434751400580000e+000) (31, 1.46289670318591810000e+000) (32, 2.61888209741444160000e+000) (33, 8.62661633273325230000e-001) (34, 4.00907640584688000000e+000) (35, 5.14590777050804430000e+000) (36, 1.07694737417701720000e+000) (37, 2.72683266630980010000e+000) (38, 1.73089763966125140000e+000) (39, 6.81486660740538990000e-001) (40, 1.66873935995097680000e+000) (41, 1.51414202922975230000e+000) (42, 1.64433928042350150000e+000) (43, 1.81898950276305250000e+000) (44, 2.44721179057747570000e+000) (45, 2.96681880182666240000e+000) (46, 1.93128379266416130000e+000) (47, 1.96137069261627020000e+000) (48, 2.70037934726989760000e+000) (49, 2.25144166445030300000e+000) (50, 7.66133120970948770000e+000) (51, 2.04282723662033930000e+000) (52, 8.12677999398852970000e+000) (53, 2.19618436461174180000e+000) (54, 2.88035146463883600000e+000) (55, 1.19651348723853460000e+000) (56, 1.25909658293406150000e+000) (57, 1.16343693136221880000e+000) (58, 6.11929863135414420000e-001) (59, 9.02017156768491040000e-001) (60, 1.12510404468084980000e+000) (61, 1.25618656130282270000e+000) (62, 9.78402916575217160000e-001) (63, 1.16924084960228590000e+000) (64, 2.37712229316858000000e+000) (0, -1.46347620804092860000e+002) (1, -1.25176595223704750000e+000) (2, -8.71092345523560520000e-001) (3, -6.28471593280420130000e-001) (4, -1.19716435290568390000e+000) (5, -1.24798273533981410000e+000) (6, 2.46610883242527890000e-001) (7, -1.40841299997076040000e+000) (8, -5.33979128235462050000e+000) (9, -9.14844946618114550000e-001) (10, -1.38985352363190960000e+000) (11, -9.15275977262347240000e+000) (12, -4.70638388478459180000e-001) (13, -5.70635101241618690000e+000) (14, -1.43514371333251820000e+000) (15, -1.97125779537110940000e+001) (16, 2.76053773186079150000e-001) (17, -3.50138176443031890000e+000) (18, -2.54323598453466730000e+000) (19, -1.07093005269989250000e+001) (20, -5.48866260210410850000e+000) (21, -1.69535643961237860000e+000) (22, 1.33710683712927160000e+000) (23, -6.94981662071523680000e-001) (24, -7.17963719454277500000e-001) (25, -5.94869240787895050000e+000) (26, -9.87516372172227210000e-001) (27, -9.48499340196569920000e+000) (28, -4.30197397792824890000e+000) (29, -8.28084444223343400000e+000) (30, -1.79128469035702010000e-001) (31, -3.43865627812184590000e+000) (32, 1.37344341657143460000e-001) (33, -2.76093580641097080000e+000) (34, -2.03283625949573610000e+000) (35, -8.57709929150580660000e+000) (36, 5.95042942322994370000e-001) (37, 2.61523979881579830000e-001) (38, 2.81322804859217960000e-001) (39, -8.79580297159758500000e-001) (40, -1.06399224731586540000e-001) (41, -3.57997313529932530000e-001) (42, -1.11697221282041090000e+000) (43, -1.49139222865299440000e+000) (44, -9.32074221581143280000e-001) (45, -5.98458617032945450000e-001) (46, 1.99800463398122630000e-001) (47, -6.71861495301282920000e-001) (48, -9.64499762460029690000e+000) (49, -8.95099313211015880000e-001) (50, -6.94388169238932030000e+000) (51, 2.05311297669385500000e-001) (52, -1.48225041688759060000e+002) (53, 6.96397407945853250000e-001) (54, -8.28952242263760650000e+000) (55, -3.64587505702614400000e+000) (56, -2.38801735683932950000e-001) (57, 1.75666244353326560000e+000) (58, 1.07483922404046610000e+000) (59, 1.52755595599251740000e+000) (60, 1.11823398977526890000e+000) (61, 2.05850126801712150000e+000) (62, 3.71742580552077100000e-001) (63, 1.77517883966966240000e+000) (64, 3.64901544904992160000e-001) (65, 2.37724285483315260000e+000) (0, -1.55067822697012800000e+000) (1, 1.99487788088691680000e+000) (2, 4.32888775699787900000e-001) (3, 1.52117487764084000000e+000) (4, 1.85549315470808370000e+000) (5, 1.33909287302852830000e+000) (6, 9.77849848817561430000e-001) (7, 1.93815965366621690000e+000) (8, 2.40626179328993040000e+000) (9, 1.26226314913113820000e+000) (10, 2.06211312302657430000e+000) (11, 9.86488516574594580000e-001) (12, 9.63710428815248930000e-001) (13, 2.18849606973620190000e+000) (14, 7.45518226633829270000e-001) (15, 9.57418897577733570000e-001) (16, 4.24870850804661910000e-001) (17, 6.72313666242911110000e-001) (18, 5.64689527742918360000e-001) (19, 6.35809043083819360000e-001) (20, 7.54363049004974750000e-001) (21, 1.32660214375447840000e+000) (22, -1.99192539079518170000e+000) (23, 2.83397905520213040000e-001) (24, -1.85801106750667270000e-001) (25, 1.77323795821858110000e+000) (26, 1.74729183544282770000e+000) (27, 9.21414270583309820000e-001) (28, 2.25836579259090750000e+000) (29, 9.71383976768835050000e-003) (30, 1.54275413813451670000e-001) (31, 1.54452539574301650000e+000) (32, 1.95148404330064700000e-001) (33, 3.37150631458148360000e-002) (34, -1.17515149756315940000e+000) (35, 4.58003541715630900000e-001) (36, 2.03017972886194900000e+000) (37, 1.99753637038221910000e-001) (38, 8.31931153211035720000e-001) (39, 1.07645666935389510000e+000) (40, 1.87601273540971090000e+000) (41, 1.17553628491335770000e+000) (42, 1.88146885122736210000e+000) (43, 4.12631718549926970000e-001) (44, 2.05359286979538740000e+000) (45, 7.22806050787260900000e-001) (46, 1.58607727858801590000e+000) (47, 7.09435289903888040000e-001) (48, 1.83815381839274370000e+000) (49, 7.52698321727950040000e-001) (50, 1.92907679556904200000e+000) (51, 2.09673165319585660000e+000) (52, 1.83425176737629950000e+000) (53, 1.13696848989992570000e+000) (54, 1.16825746716331210000e+000) (55, 9.60083153323319730000e-001) (56, 1.48551234964264620000e-001) (57, 1.12281503731889360000e+000) (58, 1.74409712735125360000e+000) (59, 1.21502806395709760000e+000) (60, 2.25264114263711760000e-001) (61, 1.18507092137149140000e+000) (62, -3.39057294027619300000e-001) (63, -4.06564404584387640000e-001) (64, 1.28800972983096700000e+000) (65, -4.09738946420827420000e-001) (66, 3.89780802548350400000e-001) (0, -6.00382219181228830000e+000) (1, 4.44970802594282410000e+000) (2, 2.96875661907354700000e+000) (3, 3.61224522213554430000e+000) (4, 3.49051100378376860000e+000) (5, 3.25542926688315770000e+000) (6, 4.81694382034431890000e+000) (7, 3.51961031067579010000e+000) (8, 6.46015012789046410000e+000) (9, 3.15542422529354560000e+000) (10, 4.38083543059140190000e+000) (11, 5.52433224509134570000e+000) (12, 1.85667332151062260000e+000) (13, 6.07449926322089610000e+000) (14, 4.06042537675632700000e+000) (15, -2.60880806018544440000e+000) (16, 5.03714261484496180000e+000) (17, 4.98923538342190120000e+000) (18, 2.09195316419783550000e+000) (19, -2.25363135612094640000e+000) (20, 1.00217192560876070000e+001) (21, 3.11699138599928500000e+000) (22, 2.86975586646580070000e-001) (23, 4.07954959373121450000e+000) (24, 2.42748082079454710000e+000) (25, 3.46090659786866790000e+000) (26, 2.70159302868435970000e+000) (27, 9.55198668909205040000e+000) (28, 4.66591968828681840000e+000) (29, 7.45251158909620410000e+000) (30, 1.01231863113438700000e+000) (31, 4.29442700837928640000e+000) (32, 3.41039260642385770000e+000) (33, 1.32070150014635380000e+000) (34, 6.72263662390824380000e+000) (35, 6.13338536706093680000e+000) (36, 4.65416560144178780000e+000) (37, 6.17050156172274010000e+000) (38, 2.91964359674268970000e+000) (39, 3.02784473132153840000e+000) (40, 4.12554937143825300000e+000) (41, 4.23749910668659790000e+000) (42, 2.94016559701806730000e+000) (43, 3.81517794312488160000e+000) (44, 4.00197262055401470000e+000) (45, 2.20885480547697900000e+000) (46, 4.79127543609895490000e+000) (47, 4.01385377860817980000e+000) (48, 4.53025417602459960000e+000) (49, 3.81714754686648130000e+000) (50, 6.23988244191070600000e+000) (51, 2.94391419768756360000e+000) (52, 1.65308907007424570000e+001) (53, 3.15063944413706620000e+000) (54, 5.31099190313045440000e+000) (55, 3.70163981776234330000e+000) (56, 2.41959199291326810000e-001) (57, 2.27568341550932600000e+000) (58, 1.50158043681115210000e+000) (59, 2.41538942876602870000e+000) (60, 2.54775139293048180000e+000) (61, 2.05804357535342900000e+000) (62, 2.29274409862663300000e+000) (63, 4.67169698771274790000e-001) (64, 2.68418695836843390000e+000) (65, 1.14192369309129130000e+000) (66, 1.33024322503005130000e+000) (67, 2.09641908051233950000e+000) (0, -1.14289776987444250000e+000) (1, 7.20168806470419700000e-001) (2, -1.43225709250500130000e-001) (3, -8.95238903078470210000e-001) (4, 8.08793237938325800000e-001) (5, 1.07570663801802290000e+000) (6, -9.64904195581957060000e-001) (7, 9.41825317047723990000e-001) (8, 1.36587858144458840000e+000) (9, 1.43887327478105900000e-001) (10, 2.00250803135477190000e-001) (11, 9.15306922483775760000e-001) (12, -1.11719353486983900000e+000) (13, 5.06709298634292690000e-002) (14, 8.66434110091895750000e-001) (15, 2.38441761924235750000e-001) (16, -4.53749521738625980000e-001) (17, -5.37320362018254170000e-001) (18, 3.83648460642857240000e-001) (19, 6.19109890806071480000e-001) (20, -1.33977675658486310000e-001) (21, 1.84099435288336920000e-001) (22, -2.34217246804456740000e-001) (23, -6.36933140567982780000e-001) (24, -5.54300696802091490000e-001) (25, 6.34613460185909920000e-001) (26, 8.89010247616472270000e-002) (27, 6.89982982342445820000e-001) (28, 1.01645265260364550000e+000) (29, 3.51592963641128460000e-001) (30, 1.39862076599531430000e+000) (31, 2.09252309349654380000e+000) (32, 1.22955929091213530000e-001) (33, -1.49500027704509180000e-001) (34, 6.78661550912663560000e-001) (35, 1.62565794941626760000e-001) (36, 8.96167409301273810000e-001) (37, 8.62364014520392800000e-001) (38, 6.87744123236047390000e-001) (39, -7.15371805582789790000e-001) (40, 1.84350456274651630000e-001) (41, -5.12111604945139080000e-001) (42, 3.06080114351647780000e-001) (43, 1.01212682226813830000e+000) (44, 1.02599625949714300000e+000) (45, 7.24247871850709160000e-001) (46, 7.84362669608335890000e-001) (47, 5.12631247146546070000e-001) (48, -3.20715141891195210000e-001) (49, 7.82855744232109910000e-001) (50, 1.10869267811273220000e+000) (51, -9.43993730125782320000e-003) (52, -1.27136886430151240000e+000) (53, 4.18292798792089860000e-001) (54, -5.21440254081607430000e-001) (55, -5.26362769804299860000e-001) (56, 6.49944987978971770000e-002) (57, 1.47670071098023910000e-001) (58, 1.91759139078899100000e+000) (59, 2.94731763840674400000e-001) (60, -2.77056822198812500000e-001) (61, 1.28156130906586660000e+000) (62, 8.01220707786115760000e-001) (63, 3.70862208719461570000e-001) (64, 1.16072029678410990000e+000) (65, 9.64194188525413940000e-001) (66, 3.67808387678212830000e-001) (67, 1.18196980152946570000e+000) (68, -3.72615972281220950000e-001) (0, -3.48992886521741900000e+000) (1, 1.20523521351464710000e+000) (2, 5.92234420603609530000e-001) (3, -1.61569479334123040000e-002) (4, 8.91825641105646770000e-001) (5, 1.64343051082582980000e+000) (6, 6.48436968518437350000e-001) (7, 1.07931142944820930000e+000) (8, -6.39162860709576950000e-001) (9, 7.46263759238764530000e-001) (10, -2.38416248322097570000e-001) (11, 1.66354810472922400000e+000) (12, 1.43030219868764410000e+000) (13, 5.15477831799729170000e-001) (14, -2.78350809729234540000e-001) (15, 5.49839280531759230000e-001) (16, 1.32565604758638340000e+000) (17, 1.56368879302965410000e+000) (18, 7.29479989623568750000e-001) (19, 1.26708632598305490000e+000) (20, 3.58406963739552030000e+000) (21, 1.97074857224695120000e-001) (22, 7.20559560560247500000e-001) (23, 1.09131324567887630000e+000) (24, -2.05485315486774620000e+000) (25, 9.62338396792183030000e-001) (26, 1.44225037006482020000e+000) (27, -7.44838279020126450000e-001) (28, 6.06091766660118770000e-001) (29, 1.33548004777589550000e+000) (30, 8.36636117530261680000e-001) (31, 3.18760220826092570000e-001) (32, 1.46584990208597650000e+000) (33, 2.50797180065057020000e-001) (34, -3.04887817895682870000e-001) (35, 8.38738615734150540000e-001) (36, 1.37142667460907550000e+000) (37, -1.16929787178679760000e-001) (38, 6.63738158561386960000e-001) (39, 2.31749711200656070000e-001) (40, 1.58452511212621380000e+000) (41, 1.42099094964255030000e+000) (42, -7.57356558762228710000e-002) (43, 1.40539752724529740000e+000) (44, 3.04323450194571410000e-001) (45, 1.28552248701355290000e+000) (46, 1.04878043797257400000e+000) (47, 7.13533477303938790000e-001) (48, 1.08876678831607940000e+000) (49, 1.02503559306446150000e+000) (50, 1.62317682664121450000e+000) (51, 8.96425477743688970000e-001) (52, 9.67337396582376830000e-001) (53, 1.00523299779197120000e+000) (54, 1.71820665551446760000e-001) (55, -1.91279447006869100000e+000) (56, 4.63271041715812290000e-001) (57, 1.04570033831658770000e+000) (58, 8.22113946488610910000e-001) (59, 1.83905979553452310000e+000) (60, 1.60703409850879590000e+000) (61, 1.90698694458714920000e+000) (62, 1.32723842806973660000e-001) (63, 1.85310749047794610000e+000) (64, 7.17372837841487090000e-001) (65, 4.31800660380196540000e-001) (66, 7.84131624809908280000e-001) (67, 5.82836045782989420000e-001) (68, 1.63556096318769130000e+000) (69, 2.04095737626112590000e+000) (0, -5.66480874513079070000e+000) (1, -1.56874142064686130000e+000) (2, -4.89333937889628030000e-001) (3, -7.68289821468956860000e-001) (4, -1.49089393103227080000e-001) (5, -1.21166003240711250000e+000) (6, 2.10606807945564330000e-001) (7, -1.66293845769456810000e+000) (8, -2.68792246414233380000e+000) (9, -1.74769665826085240000e+000) (10, -7.30598251465439890000e-001) (11, -4.74702209956050950000e+000) (12, -1.50872350376604110000e+000) (13, -2.70074022898006590000e+001) (14, -1.39514336049529920000e+000) (15, 2.28336091425899350000e+000) (16, -1.34220934509272880000e+000) (17, -5.03248312720135880000e+000) (18, -4.34039636981811410000e+000) (19, -1.07122312488676630000e+001) (20, -3.79556754376340200000e+000) (21, -4.28785723801913670000e+000) (22, 2.18641104336658150000e+000) (23, -5.59104796745546030000e-001) (24, -9.40787058241288050000e-001) (25, -1.00813841168935080000e+001) (26, -6.59589700337387840000e-001) (27, -1.53436336351927200000e+001) (28, 1.42178322215375140000e-003) (29, -1.07366408259550350000e+001) (30, -9.21013025189763020000e-001) (31, -1.02092993700785020000e+000) (32, -3.01067415638558600000e-001) (33, 1.75555138236541270000e+000) (34, -7.93035064932049120000e-001) (35, -1.03521357911814250000e+001) (36, -1.52741462307955330000e+000) (37, -1.59523334381288050000e-001) (38, -5.45711853089474010000e-001) (39, 9.68943387132957110000e-002) (40, 2.00338884475909080000e-001) (41, -1.11510328623905040000e+000) (42, -1.59890435307398770000e-002) (43, -1.21759119316908730000e+000) (44, -2.35633319490321040000e-001) (45, -1.08104694379932440000e+000) (46, -1.12505233009784680000e+000) (47, -1.28206865048474830000e+000) (48, -4.35301445238330590000e+000) (49, -1.78602598748608710000e+000) (50, -2.57975730462021530000e+001) (51, -7.00878671733394350000e-001) (52, 1.20873267368291110000e+001) (53, -1.76610776988790770000e+000) (54, -7.83123994829369700000e+000) (55, -8.04665008464009040000e-002) (56, 3.19268752119170960000e+000) (57, -2.16022478372346690000e+000) (58, -2.34776135229156460000e+000) (59, 6.40649296513383430000e+000) (60, 5.95291860664819520000e+000) (61, 4.70303808392581680000e+000) (62, 5.57300543827095220000e+000) (63, 5.07472415834290300000e+000) (64, 6.30825678210145830000e+000) (65, 5.69383954789861150000e+000) (66, 4.87310720547008370000e+000) (67, 4.86468878374340990000e+000) (68, 5.02706228159274100000e+000) (69, 6.09894420553370420000e+000) (70, 5.87885349811892070000e+000) (0, -6.93174120698455680000e+002) (1, 1.57921214140417320000e-001) (2, -1.13582963181520280000e+000) (3, -6.41914973320443340000e-001) (4, -5.69002545709143550000e-001) (5, -5.46303021019509890000e-001) (6, -4.46970679998667310000e-002) (7, -1.15028862977861300000e+000) (8, -6.92824498584971020000e+002) (9, -1.19303587974841150000e+000) (10, -4.15799018279057300000e-001) (11, -2.12863247081377080000e-001) (12, 1.28517832271110770000e-001) (13, 2.50673739974650590000e-002) (14, 4.71776984910793270000e-002) (15, -3.48164344925270430000e-001) (16, -3.83086312121163450000e-001) (17, -7.15205611744868300000e-001) (18, 1.16870319340097060000e-001) (19, -2.12418911453632690000e+001) (20, 2.10282220566802620000e-001) (21, -1.31957429805709590000e+000) (22, 1.68851538163596370000e+000) (23, -1.46453991585813830000e+000) (24, 4.70705798872622320000e-001) (25, -3.39902476317217190000e+000) (26, 2.86724302479945850000e-001) (27, -1.32796014858015670000e+000) (28, -7.43742484047265620000e-001) (29, -2.11845852439706570000e+000) (30, 8.97260404633562380000e-001) (31, -1.15172248352985670000e+000) (32, -4.43033876990146680000e-001) (33, -5.57069303895649570000e-001) (34, -1.67340864518455230000e-001) (35, -7.58341672029710920000e-001) (36, -6.07212351966252450000e-001) (37, -1.50681416678057860000e+000) (38, -9.80712966262315190000e-001) (39, -1.53250643807527780000e+000) (40, -4.41437720518795980000e-001) (41, 3.75092083965366140000e-001) (42, -6.07978507072500780000e-001) (43, -1.70813813784729640000e-002) (44, -8.03667290460095880000e-001) (45, 9.64099410092655650000e-001) (46, -1.46212619577770930000e-001) (47, -1.53949317410994730000e+000) (48, -6.98629970112940700000e-001) (49, -6.68666555780281000000e-001) (50, -3.64650190047521030000e-001) (51, -2.72245134555622210000e-001) (52, -3.93971228462261460000e+001) (53, 2.45479619260243860000e-001) (54, -4.72294982475411960000e-001) (55, -2.94069952335971370000e+000) (56, 1.08413354437073760000e+000) (57, 1.57803941800684310000e+000) (58, 3.22233498443664380000e+000) (59, -6.93555664506352590000e-002) (60, 8.80102148967612740000e-001) (61, 2.28540454005521890000e-001) (62, 6.44945754251491590000e-001) (63, 4.38466953117565280000e-001) (64, 1.40216238426026110000e+000) (65, 6.60268856376458270000e-001) (66, 4.91012424154430190000e-001) (67, 1.25652906781422380000e+000) (68, 1.18457433408573440000e+000) (69, 1.98753559928214860000e+000) (70, 4.26783087747278190000e-001) (71, -3.31582774920864580000e-001) (0, -3.37246824072648850000e+000) (1, 2.23068172009836830000e-001) (2, 1.74770431112078950000e+000) (3, 9.71357416055573020000e-001) (4, 1.55999287366244240000e+000) (5, 1.42729977632873180000e-001) (6, 1.64907665340754160000e-001) (7, 3.47250440645031910000e-001) (8, 1.21816660614261640000e+000) (9, 8.62514182146289830000e-001) (10, 1.53603239906813570000e+000) (11, 1.80846909197050130000e+000) (12, -6.23017865368161310000e-002) (13, 1.23951448882498090000e+000) (14, 9.23167281958333200000e-001) (15, 1.43665434438896480000e+000) (16, 6.38130971309370020000e-001) (17, 1.25873656942262090000e+000) (18, 8.02504239976287060000e-001) (19, 1.19203328648547590000e+000) (20, 2.50214043083094270000e+000) (21, 6.91132690992075300000e-001) (22, -7.03612308236883140000e-001) (23, 9.21341453068412750000e-001) (24, -1.39671624326119280000e+000) (25, 7.75038649339284120000e-001) (26, 1.39374478380536600000e+000) (27, 1.35795938306924360000e+000) (28, 8.26634906992956280000e-001) (29, 3.66713580367948770000e-001) (30, 4.90473169315616410000e-001) (31, 6.54361148275002690000e-001) (32, 1.59955480072635690000e+000) (33, 2.12249507529127500000e-001) (34, 1.36169792132795630000e+000) (35, 7.23144369305695370000e-001) (36, 9.33265479819558540000e-001) (37, 1.04691699189323170000e+000) (38, 1.92966361055691960000e+000) (39, 8.13557096312754300000e-001) (40, 1.75658816873288020000e+000) (41, 1.90901982632162980000e+000) (42, -2.43376755901841200000e-002) (43, 1.41235466442554030000e+000) (44, -8.39681730871667110000e-002) (45, -9.03855576123232390000e-003) (46, 1.18207740560278760000e+000) (47, 1.98112005669834650000e+000) (48, 1.93390531114637040000e+000) (49, 1.40545209879887990000e+000) (50, 4.72626665174077030000e-001) (51, 1.03443919636588500000e+000) (52, 6.52003497492736120000e-001) (53, 8.74877512818517890000e-001) (54, 7.33518034535914460000e-001) (55, -2.03586034195945850000e+000) (56, -1.81813265263262860000e-001) (57, 4.87120940566092120000e-001) (58, 2.48557717381737350000e+000) (59, 8.55306998547980530000e-001) (60, 8.56468803974755890000e-002) (61, 5.69683986991682210000e-001) (62, 1.35305574308822400000e-002) (63, 1.65755667258069270000e+000) (64, -3.22485115846779450000e-002) (65, 1.27374402205358960000e+000) (66, 6.11423121449639170000e-001) (67, 1.18115920673277320000e+000) (68, 1.11021622602759940000e+000) (69, 1.70406380806356330000e+000) (70, 8.84139790711205630000e-001) (71, 1.92894427953687280000e+000) (72, 1.37722956673766020000e+000) (0, 2.71244060717891260000e-001) (1, 8.19773986288948260000e-001) (2, 4.09090522479589490000e-001) (3, 6.02488486081045220000e-001) (4, -7.80317468436822480000e-001) (5, -1.15767221640094900000e-001) (6, -3.12105390083827040000e-001) (7, 1.00694165375831960000e+000) (8, -1.36933372950868250000e+000) (9, 2.16204362949854680000e-001) (10, 9.14073886503485310000e-001) (11, -6.66924499999844160000e-001) (12, -6.82866393089365920000e-001) (13, 5.75672951078685440000e-001) (14, 3.11655822325763220000e-001) (15, 7.91460245468057710000e-001) (16, -2.35333841917976350000e-001) (17, 7.35070412419174150000e-001) (18, -3.31607616366833560000e-001) (19, -7.40187796584914630000e-001) (20, -3.25345708241724820000e+000) (21, 1.19665663332271200000e-001) (22, -5.59257772886425640000e-002) (23, -7.08984775940751380000e-001) (24, 3.67643229447719210000e-001) (25, -2.02291336493306330000e+000) (26, 8.77521043488063810000e-001) (27, -7.75872918403235800000e-001) (28, 3.31311280542483860000e-002) (29, -2.91199112651086360000e+000) (30, -3.84996727647051340000e-001) (31, -8.62007499331085340000e-001) (32, 8.64724097328933520000e-001) (33, 1.04503314767112940000e-001) (34, -7.26268846324793830000e-001) (35, -5.87890746778177680000e+000) (36, 8.78028478868093930000e-002) (37, 5.27516652102325680000e-001) (38, -8.73529784998953280000e-001) (39, 8.53744471162534710000e-002) (40, -6.77981325855154910000e-001) (41, -8.26229100183325740000e-001) (42, 6.74202363060789620000e-001) (43, 2.05648403970615460000e-001) (44, 4.81254896592206720000e-001) (45, 7.21781889529440220000e-001) (46, 1.00502238848936700000e+000) (47, -7.46282497667396630000e-001) (48, -2.59428752792810690000e-001) (49, 5.57383083690542240000e-001) (50, 9.34959409426609490000e-001) (51, -4.67821778904846890000e-001) (52, -4.89084828366555070000e+000) (53, 2.33542516363797280000e-001) (54, -7.68481877628001460000e-001) (55, 4.25212350738791210000e-001) (56, 6.03810889966104320000e-001) (57, 6.58961995575974790000e-001) (58, -6.86080623137937660000e-002) (59, 2.02470694408066980000e+000) (60, 1.71261105495059170000e+000) (61, 9.96737234250354210000e-001) (62, 4.37099863433247580000e-001) (63, 3.78390887125853400000e+000) (64, 1.15238465030340160000e+000) (65, 1.32588623061671540000e+000) (66, 1.25461751362960940000e+000) (67, 2.23632169869885720000e+000) (68, 2.16972319386620250000e+000) (69, 5.38672660872385030000e+000) (70, 5.76200694431304590000e+000) (71, 3.73572183030916990000e-001) (72, 2.50425113024463820000e+000) (73, 2.80894551206589860000e+000) (0, 1.19724101122941980000e+000) (1, 3.80584533250013730000e+000) (2, 2.13708799648967940000e+000) (3, 3.05900278415439790000e+000) (4, 2.25881891344117220000e+000) (5, 3.39685250421545600000e+000) (6, 3.50705708500110450000e+000) (7, 2.83545589773795470000e+000) (8, 4.28532831929686610000e+000) (9, 3.20922936551589190000e+000) (10, 2.81541287984957120000e+000) (11, 3.74047996430929830000e+000) (12, 3.46325700757089900000e+000) (13, 3.78986913712848760000e+000) (14, 2.53660361503800140000e+000) (15, -7.54801395803962660000e-001) (16, 2.91035113717287920000e+000) (17, 2.00428702285012950000e+000) (18, 1.44598751730974940000e+000) (19, 2.48477758371083630000e+000) (20, 3.53832761038574660000e+000) (21, 2.75438090210643430000e+000) (22, -3.38040095873195100000e+000) (23, 3.26682495607491100000e+000) (24, 3.30994858476326810000e-001) (25, 4.62954981671480950000e+000) (26, 3.37976551228184260000e+000) (27, 3.56735395048270880000e+000) (28, 2.35619702055761770000e+000) (29, 2.20856360908873750000e+000) (30, 1.99862559191026510000e+000) (31, 2.94261795639567400000e+000) (32, 2.12492130831462190000e+000) (33, 2.08167619939389810000e-001) (34, -2.05988695428774400000e+000) (35, -8.62667506561088810000e-001) (36, 1.76645225355689010000e+000) (37, 2.88182105447963720000e+000) (38, 3.01597112913524870000e+000) (39, 3.36624367817504930000e+000) (40, 3.19751092374728430000e+000) (41, 2.79005494028471550000e+000) (42, 2.60486513922016270000e+000) (43, 1.99262458321110870000e+000) (44, 3.56942737069850220000e+000) (45, 2.69728129564897620000e+000) (46, 3.79470320753982190000e+000) (47, 2.29653564678384910000e+000) (48, 2.39122427546159780000e+000) (49, 3.55809314013542280000e+000) (50, 3.73940939880246150000e+000) (51, 1.91078759643361960000e+000) (52, 2.66024047842483840000e+000) (53, 2.21652323553889950000e+000) (54, 3.74075312306986340000e+000) (55, 6.93273235382729640000e-002) (56, -4.26301710601314390000e-001) (57, 1.75131697527642060000e+000) (58, 2.97278242365544720000e+000) (59, -1.85536832160207640000e-001) (60, -4.27513474540741350000e-001) (61, -6.12076617152692130000e-001) (62, 4.03585704660886890000e-001) (63, 1.24130789667063830000e+000) (64, 1.03849472179610180000e+000) (65, 6.49096664993354500000e-001) (66, 6.50057193007174790000e-001) (67, -2.87159367591667890000e-002) (68, 8.29547861189727560000e-001) (69, -1.48986425990726780000e-001) (70, 5.30875302191277880000e-001) (71, 4.07415434814909050000e-001) (72, -2.43554035850305990000e-001) (73, 1.68384411676757660000e-001) (74, 2.08207390657150300000e+000) (0, 5.05134175025661600000e-002) (1, 1.47329738345208460000e+000) (2, 1.89092102584756790000e+000) (3, 2.12947154717905600000e+000) (4, 2.35252474726331240000e+000) (5, 2.60926445494034940000e+000) (6, 1.55289967993078170000e+000) (7, 1.25576904669789950000e+000) (8, 4.40609450272980310000e+000) (9, 9.42359038822835560000e-001) (10, 2.10115582070175930000e+000) (11, 1.33976997780092780000e+000) (12, 2.53939380062241020000e+000) (13, 1.21432483661588700000e+000) (14, 1.11726617818705850000e+000) (15, -4.65071693138805750000e-001) (16, 2.07733612273071830000e+000) (17, 1.92567055771262790000e+000) (18, 5.20107449170851390000e-001) (19, 1.13067340785155920000e+000) (20, 1.97519474899797040000e+000) (21, 1.92433407978596800000e+000) (22, -2.09173032029329060000e+000) (23, 1.26129274134468860000e+000) (24, 4.23152455090074150000e-001) (25, 1.78274888211164860000e+000) (26, 1.79762060765146310000e+000) (27, 2.14600133754068970000e+000) (28, 2.61825357437179210000e+000) (29, -1.05269023064508670000e+000) (30, 2.33696755248500130000e+000) (31, 1.01273728641078800000e+000) (32, 2.03211575945672070000e+000) (33, 4.72844457129465050000e-001) (34, 1.39065777674517380000e+000) (35, 2.07017385824177860000e+000) (36, 2.59939428291320020000e+000) (37, 1.06949053670781870000e+000) (38, 2.68912311952364780000e+000) (39, 2.19952413176135540000e+000) (40, 1.03298516379938810000e+000) (41, 1.51034257456696940000e+000) (42, 9.76968732944008320000e-001) (43, 2.33289963818016990000e+000) (44, 1.09303939230223770000e+000) (45, 1.98736301384922020000e-001) (46, 1.29768523180020860000e+000) (47, 1.85805476551359660000e+000) (48, 7.76577840442826290000e-001) (49, 2.45658690283619710000e+000) (50, 2.66376600800536560000e+000) (51, 1.24948802813516810000e+000) (52, 3.98825165895874980000e+000) (53, 1.59461520599552790000e+000) (54, 1.91985659526280310000e+000) (55, -5.69635950089356860000e-001) (56, 7.54022277506695040000e-001) (57, 1.54948944633853820000e+000) (58, 2.31644352356049140000e+000) (59, -8.43082186059177820000e-003) (60, -2.75453157759650460000e-001) (61, 1.06972815936199580000e-001) (62, -3.34593570685904730000e-001) (63, 1.07168190737796600000e+000) (64, -1.27095349737614740000e-001) (65, -3.86475779567958810000e-001) (66, 1.40322807813123340000e+000) (67, 1.17435545274844190000e+000) (68, 6.47198537662061810000e-001) (69, -1.24134407723567000000e-001) (70, 9.41972355260851430000e-001) (71, -3.19059845557122110000e-002) (72, 1.08039654241207290000e+000) (73, 8.20182916241774750000e-001) (74, 2.80973980017123900000e+000) (75, -1.48247598889556190000e-001) (0, 9.93205508592398530000e-001) (1, 1.48942421785593550000e-001) (2, 6.91042474666007990000e-001) (3, -3.16293033189344530000e-002) (4, 1.14911092545514950000e+000) (5, 6.54158374511441880000e-001) (6, 9.83951680085534550000e-002) (7, 2.46444738715924930000e-001) (8, 2.28904972250663350000e+000) (9, -1.00201656475858170000e-001) (10, 1.06277005796289510000e+000) (11, 1.24959635443661780000e+000) (12, 1.10517073657536160000e+000) (13, 1.33131572994527250000e+000) (14, 1.28375392758460040000e+000) (15, 1.51013754748331230000e-001) (16, 1.99832364104720180000e+000) (17, 3.12963160363501750000e-001) (18, 6.92629864640500580000e-001) (19, 4.28530558888243260000e-001) (20, 5.95938057618026870000e-001) (21, 1.81873742920024830000e+000) (22, -2.13488714338006070000e+000) (23, 1.33030461860525380000e+000) (24, 1.30838568923461710000e-001) (25, 6.22066409419923860000e-001) (26, 1.56742343451573070000e+000) (27, -1.23950476840334540000e-001) (28, 3.27984809931335590000e-002) (29, -2.30728091831201270000e+000) (30, -5.37259554318104130000e-001) (31, 7.60179927837046770000e-002) (32, 9.69501394267697550000e-001) (33, -4.00779571828904780000e-002) (34, 8.50631524707680660000e-002) (35, 1.07657701124252840000e+000) (36, 1.09997488942315310000e+000) (37, 1.36973744496856660000e+000) (38, 1.26034054226909320000e+000) (39, 5.12715868701323020000e-001) (40, -2.40810260891178100000e-001) (41, -8.91043532989191510000e-002) (42, 1.89931882653015780000e-001) (43, 2.65432032012884180000e-001) (44, 1.61846911820464560000e+000) (45, -1.12036224264690240000e+000) (46, 1.48286392215811900000e+000) (47, 1.41653668814103840000e+000) (48, 5.04039530067292960000e-001) (49, 1.37753576136890590000e+000) (50, 1.99176563462599020000e+000) (51, 6.49732282492893940000e-001) (52, 1.60008718108194370000e+000) (53, 1.62366496535685400000e+000) (54, 2.00132004303846230000e+000) (55, -2.20445560685914010000e+000) (56, 5.77058493584956310000e-001) (57, 1.63066411244875860000e+000) (58, 2.49904126868647360000e+000) (59, 5.18460574074650520000e-001) (60, -7.99066806486142140000e-001) (61, 9.71103750041448220000e-001) (62, 1.15091151832980490000e+000) (63, 4.00534902475491170000e-001) (64, 2.57672690736264640000e-001) (65, 8.61035446568107040000e-001) (66, -2.79451459732269810000e-001) (67, -3.48649739389425890000e-001) (68, -2.48549492740560850000e-002) (69, 1.08008299159171100000e+000) (70, 2.13762730274385800000e-002) (71, -6.52113730989319910000e-001) (72, -4.15818370783884230000e-001) (73, 1.59908011707917200000e+000) (74, 2.87918712130504680000e+000) (75, -3.25617941125003360000e-001) (76, -2.22277244399690540000e-001) (0, 1.25915474139042140000e-001) (1, -3.43898344304103380000e-001) (2, 3.00610462709482330000e-001) (3, -2.05679782978473860000e-001) (4, -1.95694210263137290000e-002) (5, -1.68573267211537480000e-001) (6, 3.47964839814016210000e-001) (7, -4.31301325945934180000e-002) (8, 9.25528840969651930000e-001) (9, 4.68593115118641430000e-001) (10, 7.32663838334882800000e-001) (11, -5.27239306538114900000e-001) (12, -4.61100280499340930000e-001) (13, -9.46518730573144560000e-002) (14, 8.20784024283715220000e-001) (15, -1.49707117500645190000e-001) (16, -3.22139300898645620000e-001) (17, 1.41511475942011580000e-001) (18, -4.92328436726600040000e-001) (19, -7.33355454310069370000e-003) (20, 5.89072511888904800000e-002) (21, -1.92672116152119790000e-001) (22, 1.32472821845870640000e-001) (23, 1.17214035783465450000e+000) (24, -4.62006070850586700000e-001) (25, 6.35378631504452400000e-001) (26, -2.60811125859186200000e-001) (27, 1.71021015140070460000e+000) (28, 1.05412655166178810000e+000) (29, 1.46254491172498290000e+000) (30, -6.25563929573205720000e-001) (31, 2.14563989509936850000e-001) (32, 1.90615237487439800000e-001) (33, -1.90860531070948800000e+000) (34, 1.87505967698818780000e-001) (35, -1.32714275632458970000e-001) (36, -3.58535516613552320000e-001) (37, 1.97048011515250840000e-001) (38, 1.23569650075726180000e+000) (39, 3.10175983209955540000e-001) (40, 3.06300257231418130000e-001) (41, -2.04395820495188870000e-001) (42, 1.08515189959209630000e+000) (43, 2.15459911539004460000e-001) (44, 6.88150699760375240000e-001) (45, -3.86231611273119450000e-001) (46, 4.45802781040332770000e-001) (47, 1.75873507458344820000e-001) (48, -5.39061778357728170000e-001) (49, 9.04393820474250880000e-001) (50, -2.34411189362886270000e-001) (51, 1.90872029984096800000e-001) (52, 1.95325219579389890000e+000) (53, 9.89725072523482190000e-001) (54, -3.37611048822229920000e-001) (55, 1.10229279874395080000e+000) (56, 7.78671498559802830000e-002) (57, 9.20497250554098920000e-001) (58, 2.45521933593693120000e+000) (59, 5.88108554430965440000e-001) (60, 3.42304745048718990000e-001) (61, 4.19528199656629410000e-001) (62, -9.02700284911241990000e-001) (63, 6.04527864227840550000e-001) (64, 1.25812251258652250000e+000) (65, -4.94973060489394360000e+000) (66, 3.62957799386016820000e+000) (67, -7.63679940835218220000e+000) (68, -3.39237149811830510000e+000) (69, 1.79971916683812180000e+000) (70, 5.69719808029113130000e+000) (71, 3.02422162624805920000e-001) (72, -5.48897798930391150000e-001) (73, 1.41170692013729780000e+000) (74, 9.62248879415760090000e-001) (75, 3.01622868257437740000e+000) (76, 3.33751661577169400000e+000) (77, -8.45990310980300970000e-001) (0, -2.91694713458797670000e+000) (1, 1.34424028926157210000e+000) (2, 2.02295561549431250000e+000) (3, 1.92658252026746800000e+000) (4, 9.26436722598803280000e-001) (5, 1.56628211836391750000e+000) (6, 1.30601283698349310000e+000) (7, 1.70145816265000780000e+000) (8, 2.03951223607770690000e+000) (9, 2.31211073689403330000e-001) (10, 1.83747079537722340000e+000) (11, 7.64877100997723880000e-001) (12, 2.93230523567902520000e-001) (13, 1.91578280225879110000e+000) (14, 2.12196013770887730000e+000) (15, 2.94243493378720040000e+000) (16, 9.75913280542644150000e-001) (17, 1.82766452214727450000e+000) (18, 3.91567082518737230000e-001) (19, 6.62093793645933680000e-001) (20, 4.14879945683060840000e+000) (21, 2.14061380251885400000e-001) (22, 6.26446255836219490000e-001) (23, 1.73586927123669370000e+000) (24, 5.36315638517836920000e-001) (25, 6.07247319293817700000e-001) (26, 8.21951722606045430000e-001) (27, 1.03112202455437680000e+000) (28, 1.14201557311271730000e+000) (29, 1.92969546684864660000e+000) (30, 1.14882763238626500000e+000) (31, 1.42937001617133540000e+000) (32, 1.44093325678847780000e+000) (33, 2.79513225539909590000e-001) (34, 2.19047898895487280000e+000) (35, 5.86789180025242720000e-001) (36, 2.05964112011747820000e+000) (37, 1.89611013785399240000e+000) (38, 9.25408757495527200000e-001) (39, 1.65777101255548810000e+000) (40, 1.58247120194580230000e+000) (41, 9.81047368710344700000e-001) (42, 2.27229075708922030000e-001) (43, 1.17494728631579370000e+000) (44, 7.18402284823307810000e-001) (45, 7.21593909721910070000e-001) (46, 1.86541859662254160000e+000) (47, 2.01248185420997490000e+000) (48, 4.65830032277323500000e-001) (49, 1.35402626232985530000e+000) (50, 5.28800886663548850000e-001) (51, 9.53228063102935950000e-001) (52, 3.87432069928030700000e+000) (53, 1.03750415365975160000e+000) (54, 1.42485722581494520000e+000) (55, 7.05616968851311640000e-001) (56, 7.27039831331256600000e-001) (57, 4.00319332674664130000e-001) (58, 3.21262406636311280000e-001) (59, 8.05636549090966380000e-001) (60, 8.76338226279815390000e-001) (61, 5.97484531708990850000e-001) (62, 1.31645528692933380000e+000) (63, 2.20215310068923030000e+000) (64, 2.82347962939490050000e-001) (65, 1.00259144705538920000e+000) (66, 1.84294702417390880000e+000) (67, 1.88430365475109630000e+000) (68, 1.36892661592572920000e+000) (69, 5.99256755203451230000e-001) (70, 7.18677965071379150000e-001) (71, 2.03575472885712740000e+000) (72, 6.14483488295727960000e-001) (73, 1.11234613201393520000e+000) (74, 4.56667266489602860000e-002) (75, 2.02646410010218240000e+000) (76, 7.60819371121347450000e-001) (77, 1.06931406026643640000e+000) (78, 1.71823019749808800000e+000) (0, 1.28970796605312900000e+000) (1, 1.74906766983093350000e+000) (2, 1.57810586245085240000e+000) (3, 2.21971093046357470000e+000) (4, 2.68521054890350990000e+000) (5, 1.58955046632962430000e+000) (6, 1.57411953975150490000e+000) (7, 2.92619018563180780000e+000) (8, 1.15876914677158370000e+001) (9, 2.22356866210810460000e+000) (10, 1.88678868954064920000e+000) (11, 3.75646081210522140000e+000) (12, 2.46287661512377290000e+000) (13, 4.95039960234265490000e+000) (14, 2.75921470095107410000e+000) (15, 1.30989776302129530000e+000) (16, 3.67407309603245120000e+000) (17, 4.21057838705888800000e+000) (18, 5.93603428989309290000e-001) (19, 9.60110509401514880000e-001) (20, 6.98263982008957830000e+000) (21, 2.39013316462128780000e+000) (22, -1.82724776436415980000e+000) (23, 1.26280667387709220000e+000) (24, -2.92133710038625210000e-001) (25, 1.52157850561636270000e+000) (26, 4.48545543142428830000e+000) (27, 2.93704655711734830000e+000) (28, 2.93481889200154590000e+000) (29, 4.26614086962667650000e+000) (30, 1.92352223290546400000e+000) (31, 1.59088475873516400000e+000) (32, 2.84459916135000150000e+000) (33, 8.80896838882381020000e-001) (34, 2.83525566834478760000e+000) (35, 3.49881492598627640000e+000) (36, 2.37286287675140970000e+000) (37, 3.51074097210418360000e+000) (38, 2.80589325384988530000e+000) (39, 2.95988104199403510000e+000) (40, 1.46880346585584000000e+000) (41, 1.53927136389591860000e+000) (42, 2.24382175324188630000e+000) (43, 1.60318111814029640000e+000) (44, 2.24440041298856570000e+000) (45, 2.66452616277921140000e+000) (46, 2.16293797976157710000e+000) (47, 1.49786504424463150000e+000) (48, 4.29699331103126080000e+000) (49, 2.36096820418077600000e+000) (50, 4.93490438023712660000e+000) (51, 2.64509013980039940000e+000) (52, 1.31411003653187230000e+001) (53, 1.43030926031261420000e+000) (54, 5.10156212615655940000e+000) (55, 9.61647131242436730000e-003) (56, 9.31106259240850330000e-001) (57, 2.12755515601725080000e+000) (58, 8.01398084543205600000e-001) (59, 5.14992101835531350000e-001) (60, 1.52419266150150870000e+000) (61, 7.89418196220083580000e-001) (62, 6.12434762403258340000e-001) (63, -4.05186682104886230000e-001) (64, 1.56310843067023140000e+000) (65, 1.15033114470553750000e+000) (66, 1.28417466087799710000e+000) (67, 7.14648518774720460000e-001) (68, 1.74712223011430520000e+000) (69, 5.15687446074479390000e-002) (70, 4.24418508051258080000e-001) (71, -1.44600549201041870000e-001) (72, 4.33419881888494400000e-001) (73, -8.48697230171001180000e-001) (74, 3.53061893739387280000e+000) (75, 1.12361186275002000000e+000) (76, 3.65101108282991030000e-001) (77, 3.31342896459496170000e+000) (78, 3.12671475299971700000e+000) (79, 1.16873090536596820000e+000) (0, 1.78251055511192740000e+000) (1, -3.89310897449086020000e-002) (2, -5.11068246589746370000e-001) (3, 2.30296736840336810000e-002) (4, 6.55248221402400130000e-001) (5, 6.72620398064720400000e-001) (6, -4.03682458258588890000e-001) (7, 1.23123238985088610000e+000) (8, 1.10889020747162140000e+000) (9, 5.81126934309833750000e-001) (10, 2.98217820294195690000e-001) (11, 2.93336357059201410000e-001) (12, 1.13201795869052370000e+000) (13, 5.89864988082553940000e-001) (14, 1.16399563202820210000e+000) (15, 4.13634497145732140000e-001) (16, 1.23903134136262480000e+000) (17, 7.71803374912086840000e-001) (18, 1.67708493025057220000e-001) (19, 2.06405214717742090000e-001) (20, 9.76036314169521860000e-001) (21, -3.04063108741131020000e-001) (22, 5.16612529091819090000e-001) (23, 9.58988145210808330000e-001) (24, -1.58610539330523850000e+000) (25, -4.97373071698976770000e-001) (26, 4.25012012744879260000e-001) (27, -7.42836250509602000000e+000) (28, 5.45720838718272370000e-001) (29, 1.20796072630171050000e+000) (30, 9.21645225740595490000e-001) (31, 1.30093958535579460000e+000) (32, 1.21804240386653180000e+000) (33, -3.29688197667231730000e-001) (34, -6.57759745200973410000e-002) (35, 2.54614275910601150000e-001) (36, -3.87146719731861820000e-001) (37, 1.27284140668327960000e+000) (38, -2.76222154673194610000e-001) (39, -3.85666867645812320000e-001) (40, 7.67009224596660540000e-001) (41, 1.43026375444134800000e-001) (42, -2.70367087724042220000e-001) (43, 7.70934049694444010000e-001) (44, 1.48756850771267860000e+000) (45, -4.75254961851759860000e-002) (46, 1.04329117492259880000e+000) (47, 1.09264102492259750000e+000) (48, 1.02515071241913500000e+000) (49, 8.94299933711244780000e-002) (50, 7.37721513897413580000e-001) (51, 1.38329453605803760000e-001) (52, -1.37284986819282810000e-001) (53, 6.62698241842763050000e-001) (54, 1.00241693038374000000e+000) (55, -4.25558532574103530000e-001) (56, 9.37896899878109760000e-001) (57, 1.41172916180699890000e+000) (58, 4.16246035460407340000e-001) (59, 1.41809989666129900000e+000) (60, 6.12301075572453720000e-001) (61, -4.13204286256729950000e-001) (62, -7.06888390589477670000e-002) (63, 1.35131966068604200000e+000) (64, -3.82377909613707600000e-001) (65, -4.53997375309668990000e-001) (66, 8.75997125348307430000e-001) (67, -2.58060475290457060000e-001) (68, 9.92154003272141090000e-001) (69, -2.71971870104087350000e-001) (70, -4.48897726952959930000e-001) (71, 3.84091071005633330000e-001) (72, -3.34614936561017650000e-001) (73, -1.38405982399703090000e-001) (74, 2.48320430388990230000e+000) (75, 9.54177505083348090000e-001) (76, 9.49806988702976530000e-001) (77, 2.90085808341915860000e+000) (78, 3.10729335766176810000e+000) (79, 6.95146311038227550000e-001) (80, 1.17378081733730990000e+000) (0, 9.48636004069354890000e-001) (1, 1.80981015707639910000e+000) (2, 1.06753860201813340000e+000) (3, 2.51089716757867730000e-001) (4, 6.38694737003576150000e-001) (5, 1.82599936309307040000e+000) (6, 1.73688670577117120000e+000) (7, 1.18291334659893880000e+000) (8, 2.13467592383537410000e+000) (9, 2.27299556402755200000e-001) (10, 8.45090123742873730000e-001) (11, 1.10512258432440100000e+000) (12, 1.81391879914804830000e+000) (13, 7.09235700146582190000e+000) (14, 8.76724204330692090000e-001) (15, 3.47060322751120420000e-002) (16, 2.07155918629166890000e+000) (17, 2.40429236545007900000e+000) (18, 8.42374880296319240000e-001) (19, 2.11997721736544250000e+000) (20, 3.98144626070759380000e+000) (21, 1.68176786226223430000e+000) (22, -1.34404823440122500000e+000) (23, 1.70507642648558800000e+000) (24, 5.60585517444839530000e-001) (25, 2.07217596503958520000e+000) (26, 2.45238696677351250000e+000) (27, 4.25830990213860350000e+000) (28, 8.91536118912293120000e-001) (29, 2.28587309547932180000e+000) (30, 7.34119374927786230000e-001) (31, 1.25845395719537030000e+000) (32, 3.27644147726694420000e-001) (33, 6.92855227702652290000e-001) (34, -9.78066624022193160000e-002) (35, 1.71515949067891830000e+000) (36, 2.12713062771981590000e+000) (37, 2.35538377448382440000e+000) (38, 2.42378706256674900000e+000) (39, 1.75073378032782180000e+000) (40, 2.71178011511672590000e-001) (41, 1.65331097479799590000e+000) (42, 2.07034256370425230000e+000) (43, 1.83604046833802830000e+000) (44, 7.53075347315601880000e-001) (45, 1.07414985433563400000e+000) (46, 8.46559873524853180000e-001) (47, 9.37740944738787550000e-001) (48, 9.43916755100606690000e-001) (49, 1.00072917497960390000e+000) (50, 7.84073468867234880000e+000) (51, 1.82666875816927000000e+000) (52, 2.92051772020020860000e+000) (53, 7.79138032457433070000e-001) (54, 2.50944632390216920000e+000) (55, -1.75271768493416080000e+000) (56, 1.99069777315783990000e-001) (57, 7.40578545836706010000e-001) (58, 1.68370511274899570000e+000) (59, 7.07464924262583230000e-001) (60, 1.09436872270799010000e+000) (61, 2.04593400539524820000e+000) (62, 1.63026082933574950000e+000) (63, 2.45685725574090210000e+000) (64, 8.82630311091776700000e-001) (65, 2.04388827320595330000e+000) (66, 1.42649513732699870000e+000) (67, 2.30999379313375860000e+000) (68, 1.82697332120092780000e+000) (69, 2.14044961858847540000e+000) (70, 2.05768950043984280000e+000) (71, 1.44529572087863660000e+000) (72, 8.62606401898080240000e-001) (73, 9.62153179799034470000e-001) (74, 4.96423503637830940000e-001) (75, 1.25471446295792430000e+000) (76, 2.44827731614957140000e+000) (77, 8.49694542228843220000e-002) (78, 1.78962670645605400000e+000) (79, 2.26737725431547910000e+000) (80, 2.00584310915536660000e+000) (81, 2.62446378204091500000e-001) (0, -2.30220559458822250000e+000) (1, 4.40112102095866650000e-001) (2, 1.06467855221430270000e+000) (3, 1.43327197712946440000e+000) (4, 1.42566945586744920000e+000) (5, 1.06828652840644560000e+000) (6, 1.92750028730674170000e+000) (7, 8.82346898218514090000e-001) (8, 1.87603861646571210000e+000) (9, 2.10164956672392030000e+000) (10, 2.08412511093351240000e+000) (11, 2.04427446787530890000e+000) (12, 1.66083218981961480000e+000) (13, 1.39860963442637810000e+000) (14, 1.46587261915132630000e+000) (15, -4.61649857144377450000e-001) (16, 9.83015773682613950000e-002) (17, 1.09276540541714670000e+000) (18, 8.10420330905754940000e-001) (19, 6.38814219852456790000e-001) (20, 2.94148339028390990000e+000) (21, 2.81221780924853390000e-001) (22, 3.93461460788384230000e-001) (23, 1.47682654833679480000e+000) (24, -1.44453205512412720000e-001) (25, 6.47818518449827300000e-001) (26, 1.25920563296958530000e+000) (27, 1.15564570537834620000e+000) (28, 1.09667595047795930000e+000) (29, -8.62455040234036750000e-003) (30, 2.26511579290400500000e-001) (31, 1.35330509694322140000e+000) (32, 1.67771236414714010000e+000) (33, 5.96682521072087610000e-002) (34, 1.17546198352150340000e+000) (35, -5.73753464838799410000e-001) (36, 1.25648114371446650000e+000) (37, 1.21678726900435060000e+000) (38, 1.57559375228024080000e+000) (39, 4.29739170543456060000e-001) (40, 1.07092808240426440000e+000) (41, 6.70249440637547210000e-001) (42, 2.06956434987236460000e+000) (43, 9.27897597644317120000e-001) (44, 7.30005245453351210000e-002) (45, 2.64757782272174860000e+000) (46, 5.86492850462803310000e-001) (47, 5.11240775598110320000e-001) (48, 1.04892403586790990000e+000) (49, 4.96775355889833220000e-002) (50, 1.85063750878484210000e+000) (51, 1.27039762331273160000e+000) (52, 6.34555289761157940000e-001) (53, 1.77160377494787680000e+000) (54, 9.76424559216842460000e-002) (55, 8.68108277888807620000e-001) (56, 1.33999275014262230000e+000) (57, 7.30839138531336750000e-001) (58, 9.17685619668323400000e-001) (59, 4.97265922617578130000e-001) (60, 7.55080594030408500000e-001) (61, 2.01832583836656230000e+000) (62, 4.04271917552959830000e-001) (63, 6.34989109411235540000e-001) (64, 2.02476865299538880000e+000) (65, 4.77848860614157930000e-001) (66, 1.25813814031132960000e+000) (67, 1.81527537680630550000e+000) (68, 9.18537381225887790000e-001) (69, 4.15825484620010180000e-001) (70, 2.11627754960617810000e+000) (71, 7.16490714465890190000e-001) (72, 2.68650669616162960000e-001) (73, 7.26743092716547470000e-001) (74, 1.84381385406282080000e+000) (75, 1.99955407932703320000e+000) (76, 2.26965947994627730000e+000) (77, 1.07544206396833910000e+000) (78, 1.59164208949055340000e+000) (79, 8.58001979255271000000e-001) (80, 1.06971286795850820000e+000) (81, 2.07978184368897660000e+000) (82, 2.06580882509020690000e+000) (0, -5.53980352743514630000e+000) (1, 6.97620181611990580000e-001) (2, 1.09043139939384500000e+000) (3, 8.16759379127314330000e-001) (4, 1.49278406805896170000e+000) (5, 1.69779632352364220000e+000) (6, 6.08910476102745180000e-001) (7, 3.53031972348243130000e-001) (8, 3.69794059004172930000e+000) (9, 1.60715254013265450000e+000) (10, 4.81454743695929720000e-001) (11, 1.36557575695196290000e+000) (12, -2.39645915898190070000e-001) (13, 2.60815952406087130000e-001) (14, 9.98820577061986350000e-001) (15, 2.08888698145680650000e+000) (16, -1.54608898727304990000e-001) (17, 1.10144800232563720000e+000) (18, 7.47672245133025550000e-001) (19, 1.57576959598033000000e+000) (20, 1.70626909073599340000e+000) (21, 1.01940100705341850000e+000) (22, -1.34647575475087770000e+000) (23, 6.11620841314421400000e-001) (24, -1.11910171397008850000e+000) (25, 1.53872008337931490000e+000) (26, 1.50417432916289620000e+000) (27, 1.48661930447656170000e+000) (28, 1.33649926982710830000e+000) (29, 1.92992102013383220000e+000) (30, 2.66732644451598560000e-001) (31, 1.34285019149913280000e-001) (32, 1.28667583512796060000e+000) (33, 5.21815033723647570000e-001) (34, 1.23960096347731840000e+000) (35, 1.71053513337012130000e+000) (36, 1.08985117602932240000e+000) (37, 1.49210198079845010000e+000) (38, 1.39221201820836370000e+000) (39, 9.44408519322304070000e-001) (40, -2.05029358789139350000e-002) (41, 1.61198773483701020000e+000) (42, 7.68278493558308130000e-001) (43, -1.56726488016294320000e-001) (44, 6.03108242457518370000e-001) (45, 3.42080014397366130000e-001) (46, -1.03263377612367540000e-001) (47, 2.56392547523854320000e-001) (48, 9.24519558333293910000e-001) (49, 1.14541172448017310000e+000) (50, 1.82677434399007680000e+000) (51, 1.82525205593045770000e+000) (52, 3.14785308489307300000e+000) (53, 1.12717075182416050000e+000) (54, 1.31010403796588300000e+000) (55, -2.26564501026806560000e+000) (56, 9.95174460794273520000e-001) (57, 1.80450273299057470000e+000) (58, 1.40523165227620630000e+000) (59, -1.96682218937012930000e-001) (60, 3.83670084111117080000e-001) (61, 1.18003613102965590000e+000) (62, 1.14312366205867130000e+000) (63, 1.41455810317383280000e+000) (64, 2.82974758785159150000e-001) (65, 5.89590572304033670000e-001) (66, 9.85302906908502090000e-001) (67, 4.12336150503424150000e-001) (68, 7.69237988947597650000e-001) (69, 4.09278262220800830000e-001) (70, 7.18989674392187940000e-002) (71, 1.60914354372554060000e+000) (72, 9.09551523206929890000e-001) (73, 3.79185026146000800000e-001) (74, 2.36727873810270270000e+000) (75, -5.57837766479525430000e-001) (76, 1.28082560643012420000e+000) (77, 1.91940658335621260000e+000) (78, 2.61365919958352500000e+000) (79, -6.33835498411381980000e-001) (80, -2.17444535484326960000e-001) (81, 3.19544670046703640000e+000) (82, 1.66474400232954070000e-001) (83, 1.11837459318438850000e+000) (0, 1.14779654618745750000e+000) (1, 9.32228489345776290000e-001) (2, 7.45540471222515320000e-001) (3, 2.23498811910734440000e+000) (4, 1.63498973750732630000e+000) (5, 2.54755744321181470000e+000) (6, 2.53934166865996010000e+000) (7, 2.23414950186610150000e+000) (8, 1.59975320333037830000e+000) (9, 2.33691236842763540000e+000) (10, 1.30537178187540850000e+000) (11, 6.78223495271343620000e-001) (12, 5.16772654803410950000e-001) (13, 8.91290806601642620000e-001) (14, 1.28825376276266560000e+000) (15, 4.68573925002474520000e-001) (16, 1.91839570548263350000e+000) (17, 1.63403781506872710000e+000) (18, 8.32779919609992090000e-001) (19, 5.53057804182373190000e-002) (20, 3.95874609746944460000e+000) (21, 1.44779067359083370000e+000) (22, -1.15380235289711640000e+000) (23, 2.02088971296837270000e+000) (24, 7.48499776388144470000e-001) (25, 1.36903385824492400000e+000) (26, 2.67370023372462160000e+000) (27, 2.06604016751533860000e+000) (28, 9.18887686950552120000e-001) (29, -2.09243625838591910000e+000) (30, 1.54559939325541440000e+000) (31, 1.64133518641942790000e+000) (32, 1.13530287976367190000e+000) (33, 3.53615144923067610000e-001) (34, 1.11535049472311210000e+000) (35, -2.72564555355786500000e-001) (36, 7.20339492580649000000e-001) (37, 2.01020389193634810000e+000) (38, 1.53267327108830420000e+000) (39, 1.41114452469514990000e+000) (40, 2.33710589548330680000e+000) (41, 1.88393004011935350000e+000) (42, 1.77319118445183270000e+000) (43, 1.08846933229118400000e+000) (44, 9.43775603667505460000e-001) (45, 1.32623499087337330000e+000) (46, 1.81703418787559290000e+000) (47, 1.12313380445147070000e+000) (48, 2.03731705572381780000e+000) (49, 2.12136998239386590000e+000) (50, 1.06887545874828000000e+000) (51, 1.35985877336109780000e+000) (52, 2.78920089035734490000e+000) (53, 9.67534837097145720000e-001) (54, 1.26318319505505980000e+000) (55, -4.62908054989624450000e-001) (56, 4.45729428716641730000e-001) (57, 1.63024456680728070000e+000) (58, 1.33527667673276310000e+000) (59, 2.06634082081696890000e+000) (60, 4.76903112587444330000e-001) (61, 1.64490340258313220000e+000) (62, 2.12016124920297950000e+000) (63, 1.87059031964129450000e+000) (64, 1.36321242545342500000e+000) (65, 1.79845477365849040000e+000) (66, 3.17052170827034190000e-001) (67, 2.33293998641221420000e+000) (68, 3.77966185030132240000e-001) (69, 7.89298841689564100000e-001) (70, 1.34749537926454900000e+000) (71, 1.45189482528434950000e+000) (72, 1.93037571660785430000e+000) (73, 2.33570941455615570000e+000) (74, 2.24926359932873150000e+000) (75, 6.98110810113830470000e-001) (76, 2.29904002099874290000e+000) (77, 9.38698378321749070000e-001) (78, 8.80470116099777320000e-001) (79, 1.24630458314272460000e+000) (80, 3.13452429809782550000e-001) (81, 2.13343718980410250000e+000) (82, 9.53627165948953250000e-001) (83, 6.90701170331973760000e-001) (84, 1.27661999905921260000e+000) (0, 8.33522455665205220000e-001) (1, 2.17468071499351320000e+000) (2, 1.00036829227937550000e+000) (3, 1.89088319936367790000e+000) (4, 1.61905516589699690000e+000) (5, 2.19895056993445290000e+000) (6, 3.55492136916517150000e-001) (7, 1.23127243435978760000e+000) (8, 1.01870117592757730000e+000) (9, 3.39936192659159530000e-001) (10, 1.93615918458407910000e+000) (11, 2.49307987103362550000e+000) (12, 5.69578367077695600000e-001) (13, 9.33895623268824470000e-001) (14, 2.14984771538242780000e+000) (15, -9.58068303021291530000e-001) (16, 3.37616010230892360000e+000) (17, 7.65587751503024940000e-001) (18, 6.39469418821105860000e-001) (19, 1.68729798943672900000e+000) (20, 6.86265244482576000000e+000) (21, 4.04371126189188970000e-001) (22, 1.33968788912102840000e+000) (23, 7.13506300435275690000e-002) (24, -1.67054801652984230000e-002) (25, 7.17945374168989850000e-001) (26, 1.26271340771368120000e+000) (27, 1.52253814033552580000e+000) (28, 1.37748077283391890000e+000) (29, 1.51439884873160690000e+000) (30, 1.93094025945529160000e+000) (31, 5.36501631343288880000e-001) (32, 2.24079512392440660000e+000) (33, 2.49357478332750820000e-001) (34, 9.84193225622113420000e-001) (35, 1.24509459513053990000e+000) (36, 1.60433912388143020000e+000) (37, 8.13242410634142490000e-001) (38, 1.66514285620686950000e+000) (39, 9.31302481676169140000e-001) (40, 6.07420976901855920000e-001) (41, 2.40966328160128830000e-001) (42, 1.41592501065642230000e+000) (43, 2.06296679849278730000e+000) (44, 8.54315112936681280000e-001) (45, 1.49041392477436000000e+000) (46, 2.00164668627498750000e+000) (47, 2.04595445919721360000e+000) (48, 1.70312349723889820000e+000) (49, 1.00863037055714220000e+000) (50, 1.42089686439163310000e+000) (51, 2.62737398751276880000e-001) (52, 2.40971938138396570000e+000) (53, 2.24596277922993570000e+000) (54, 7.77516614744118820000e-001) (55, -1.26974902680135690000e+000) (56, 1.08966394790566820000e+000) (57, 2.80697550891534640000e-001) (58, 1.64002683133615750000e+000) (59, 1.31756942058667950000e+000) (60, 1.86652838057561250000e+000) (61, 7.97549855860590460000e-001) (62, 2.45259929329579810000e+000) (63, 5.63641544689602370000e-001) (64, 2.29955720269747890000e+000) (65, 2.50656099204746190000e+000) (66, 1.60347710779563510000e+000) (67, 7.42216774499124710000e-001) (68, 9.28307178208510720000e-001) (69, 1.65595099403088630000e+000) (70, 1.94267092926400900000e+000) (71, 1.11995188608664730000e+000) (72, 1.14996646733009670000e+000) (73, 1.50756009556957920000e+000) (74, -9.55080148792120660000e-002) (75, 6.55077667663304220000e-001) (76, 1.17879904793692040000e+000) (77, 1.93758074232600540000e+000) (78, 1.15655449769844280000e+000) (79, 2.49259858907491740000e+000) (80, 6.57853209584741470000e-001) (81, 1.83417566888083170000e+000) (82, 9.63016800416810700000e-001) (83, 1.84544548897422180000e+000) (84, 4.29101318615079800000e-002) (85, 1.37102146286808680000e+000) (0, -1.17534443142016240000e+000) (1, -1.60805270580820170000e-001) (2, 7.49701853234791770000e-001) (3, 4.57516470436443560000e-001) (4, 5.88042258270346950000e-001) (5, 5.84988664315531870000e-001) (6, -3.22943038991942990000e-002) (7, 6.88582609731455240000e-001) (8, 7.47940820120156390000e-001) (9, 6.80527625998278540000e-001) (10, 1.21225786138244910000e+000) (11, 8.86469091446030620000e-002) (12, 1.71593513889381350000e+000) (13, 4.34060917582854200000e-001) (14, -1.56619955349102280000e-001) (15, -3.04769263112875170000e-001) (16, 1.31969860181869890000e+000) (17, 1.51108308095342150000e+000) (18, 8.53174928728290150000e-001) (19, 6.77984208642392510000e-001) (20, 1.60257379983546430000e+000) (21, -6.14230707931424990000e-002) (22, 4.82185517499847060000e-001) (23, 1.38486384177662970000e+000) (24, -2.32036955897468200000e+000) (25, -1.46302487035614910000e-001) (26, 1.16042663496761910000e+000) (27, -2.61400106494793330000e+000) (28, 2.10834175045495400000e+000) (29, 6.56052513577764170000e-001) (30, 1.17118747860489550000e+000) (31, 8.77066618998822880000e-001) (32, 1.50415965166670610000e-001) (33, 2.97797626068775670000e-002) (34, 6.85839347754220310000e-002) (35, 1.74238710458714370000e+000) (36, 9.10237485459291280000e-001) (37, 2.87103014218045030000e+000) (38, 6.73113073066563320000e-001) (39, 1.31100795024837600000e+000) (40, 1.33496493827979390000e+000) (41, 5.21713715912395790000e-001) (42, 1.48859395752886380000e+000) (43, 6.23305533954320870000e-001) (44, 7.53167363731407470000e-001) (45, -1.48528336689930100000e-001) (46, 1.32784535210810060000e+000) (47, 9.00571838578680170000e-001) (48, 8.63977704878435840000e-001) (49, 1.58831566498990790000e+000) (50, 2.28616815109006250000e-001) (51, 1.71950256359550950000e+000) (52, 8.00913831004747110000e-001) (53, 3.13732898781155840000e-001) (54, 9.78014326278977770000e-001) (55, -1.50321207624810670000e+000) (56, 8.36360045920363840000e-001) (57, 8.71795112167286780000e-001) (58, 2.37732746053157530000e+000) (59, 4.63821716409605340000e-001) (60, 1.01680690038516050000e+000) (61, -2.54452344454293600000e-001) (62, 9.34804132909807680000e-001) (63, -5.01895674079461780000e-001) (64, 1.10644749514575900000e+000) (65, 2.93822598973387580000e-001) (66, 2.46286105170636340000e-001) (67, 2.62640686403670500000e-001) (68, -7.40521025221091200000e-001) (69, 1.68593091312091240000e+000) (70, 2.72531492659075500000e-002) (71, 6.87897102191584060000e-001) (72, -5.92757663164010800000e-001) (73, -3.13876309093768510000e-001) (74, 4.12242407837339100000e+000) (75, 5.61370369671537420000e-001) (76, 1.87957721979527600000e+000) (77, 1.73299127785920850000e+000) (78, 2.37345028698496340000e+000) (79, 1.85641080933831450000e+000) (80, -8.09904137336902810000e-001) (81, 2.93828849771933690000e+000) (82, 5.51068364440253870000e-001) (83, 1.33119174264434940000e+000) (84, 1.61184805681066060000e+000) (85, 8.55640189941451520000e-001) (86, 9.49313503037365840000e-001) (0, 3.32434272617781490000e+000) (1, -4.93806962005917450000e-001) (2, 7.14607982887723200000e-001) (3, 6.97996314351032380000e-001) (4, 1.18937364523094650000e+000) (5, -4.72546685590939490000e-001) (6, 2.61328070971582160000e-002) (7, 6.74732790006375760000e-001) (8, 4.89947527755757170000e-001) (9, 1.24255664671886980000e+000) (10, 9.79912489617642270000e-002) (11, 5.10351052459575900000e-001) (12, 9.24751055810477010000e-001) (13, -7.97240735451525300000e-001) (14, -5.72838323876792680000e-001) (15, 3.47197714211076810000e-001) (16, -6.74162005854030300000e-001) (17, 1.60982138494861140000e+000) (18, -1.07993287450475540000e-001) (19, -1.78206021180516800000e+000) (20, -4.01096789082014070000e-001) (21, -2.65943152208695080000e-001) (22, 2.15207005440747970000e-001) (23, 1.11367775459941780000e-001) (24, 4.36141214806405390000e-001) (25, -2.97277057135607760000e-001) (26, -6.63558003922402380000e-001) (27, -1.36825896262672740000e+000) (28, 5.03877018598997810000e-001) (29, -6.31082404872151390000e-001) (30, 1.15430216407100850000e+000) (31, 1.69968195802778090000e+000) (32, 2.78929771642426720000e-001) (33, -8.55518178278842980000e-003) (34, 1.15481931874677300000e+000) (35, 1.94157722352139540000e-001) (36, 9.88313206742101600000e-002) (37, 1.14870517393709970000e+000) (38, 4.84101132182106490000e-001) (39, 2.19607784563552320000e-001) (40, -3.91188971285598600000e-001) (41, 5.49562104851931910000e-001) (42, -1.65726647845301580000e-001) (43, 5.38318068085347990000e-001) (44, -2.39652958540543720000e-001) (45, 1.61313647572954910000e-001) (46, -5.70835075947113910000e-001) (47, 9.71924313509363920000e-001) (48, 1.51509454532935120000e+000) (49, -3.44661922596285360000e-001) (50, 3.01185339022011110000e-001) (51, 1.08804807252977590000e+000) (52, -1.48151772168030150000e+000) (53, 1.09571336969544180000e+000) (54, 1.60243212381804570000e+000) (55, -1.66279906032491210000e+000) (56, 2.18718070894237160000e+000) (57, 1.46246437155741330000e+000) (58, 1.10711403719278350000e+000) (59, 9.74180172180098670000e-001) (60, 1.41145924423327050000e+000) (61, 6.01921078930232720000e-001) (62, 1.39533650088493850000e+000) (63, 2.42209799619674060000e+000) (64, 2.45744562902042720000e+000) (65, 6.38238025268280000000e-001) (66, 2.09815341969739810000e+000) (67, 2.18312990445635210000e+000) (68, 1.58945768736090650000e+000) (69, 2.27670096904263670000e+000) (70, 2.41621749420961910000e+000) (71, 1.81155972395141980000e+000) (72, 8.12262111546502740000e-001) (73, 2.24846163532426280000e+000) (74, 1.64978180000331580000e+000) (75, 4.52075337315070940000e-001) (76, 1.66811145153103820000e+000) (77, 1.90290186905337120000e+000) (78, 1.07646516670944490000e+000) (79, 1.35360152657147230000e+000) (80, 2.46514564393935580000e+000) (81, 6.90419904390060960000e-001) (82, 2.40097708928867790000e+000) (83, 1.01304937852608230000e+000) (84, 1.19795246050931840000e+000) (85, 1.35049972332551800000e+000) (86, 1.03275875331808260000e+000) (87, 1.91576142834388970000e+000) (0, -7.90810435883592680000e-001) (1, 1.97292515585469250000e+000) (2, 1.27755003045787040000e+000) (3, 2.41077549050715810000e+000) (4, 2.19282939277369500000e+000) (5, 1.87665239325907480000e+000) (6, 2.27855399990404320000e+000) (7, 1.43026746850410880000e+000) (8, 9.78368564281478780000e-001) (9, 1.90794589030157250000e+000) (10, 5.61235595526942800000e-001) (11, 1.65588799896960540000e-001) (12, 1.31168839086786780000e+000) (13, 1.68481577405332920000e+000) (14, 1.42871572484910890000e+000) (15, -4.79875530640006490000e-001) (16, 2.37862507460109860000e+000) (17, 2.24744034154888350000e+000) (18, 1.03427030970726450000e+000) (19, 1.05001450303505670000e+000) (20, 2.96291145417728650000e+000) (21, 8.04755309634829770000e-001) (22, 2.11539537092989560000e-001) (23, 1.82538679104171700000e+000) (24, 1.19629839540540410000e-001) (25, 7.90363575494493880000e-001) (26, 1.77339754058102940000e+000) (27, -5.48864840423935020000e-001) (28, 1.83271505381454870000e+000) (29, -1.12020648549770590000e+000) (30, 1.84369601085837290000e+000) (31, 1.90239843561519820000e+000) (32, 1.97363637169656750000e+000) (33, 6.00888244837152890000e-002) (34, 7.32113599362140930000e-001) (35, -1.33227811834768930000e+000) (36, 8.15906293095403970000e-001) (37, 2.15892732661536480000e+000) (38, 1.57716586784409760000e+000) (39, 2.41762902498340760000e+000) (40, 7.82349836556031520000e-001) (41, 2.04805541115093570000e+000) (42, 4.64113075309806390000e-001) (43, 2.45280188116340490000e+000) (44, 5.62325517474173250000e-001) (45, 1.59761617970587900000e+000) (46, 1.13627670186725620000e+000) (47, 2.10114720515745200000e+000) (48, 2.25500199040245960000e+000) (49, 4.38961896901683300000e-001) (50, 2.14865781492704320000e+000) (51, 2.03803373337906150000e+000) (52, 3.88384215461380080000e-001) (53, 2.70702676640404280000e+000) (54, 2.16228238773584950000e+000) (55, -4.62730478624498120000e-001) (56, 2.47569536899277010000e+000) (57, 1.34847905637829160000e+000) (58, 1.34889467331116490000e+000) (59, 1.28651737562521150000e+000) (60, 1.91223678450968280000e+000) (61, 2.62665943737178290000e+000) (62, 1.19182676634713110000e+000) (63, 1.08502041167180140000e+000) (64, 1.08443709389540270000e+000) (65, 2.83544409113700090000e+000) (66, 9.48292697283237170000e-001) (67, 2.86108221783751570000e+000) (68, 8.53168998363653560000e-001) (69, 2.52649148427847830000e+000) (70, 2.89492130625691810000e+000) (71, 2.54423074685800680000e+000) (72, 1.23042390398212450000e+000) (73, 3.58164355488442520000e+000) (74, 1.85840409923894350000e+000) (75, 1.27480051707452960000e+000) (76, 1.78297742137627240000e+000) (77, 1.07463412452483900000e+000) (78, 7.53259172503729200000e-001) (79, 1.98754269331264700000e+000) (80, 8.67068909979693880000e-001) (81, 1.16007845282786740000e+000) (82, 2.09150912139529770000e+000) (83, 7.51722631624702650000e-001) (84, -1.29300742087425650000e-001) (85, 1.61096085513925380000e+000) (86, 2.37332641586560640000e+000) (87, 1.97425663121047550000e+000) (88, 2.30115895419890840000e+000) (0, -4.21021301607436000000e+000) (1, 8.60861724079787670000e-001) (2, -3.57426944419593010000e-002) (3, -3.46125667029790700000e-001) (4, 1.82456923427727010000e-001) (5, -6.13358931368877870000e-001) (6, -4.88249758479449960000e-001) (7, 1.00301959333280470000e-001) (8, 1.46592179600489450000e+000) (9, 9.95028936490617740000e-001) (10, 1.27132024035110770000e+000) (11, 1.11005220277752480000e+000) (12, 5.77648582356251720000e-001) (13, 2.62886370818883270000e-001) (14, 1.34040923883460160000e+000) (15, 3.16322109319589430000e-001) (16, 3.36218181997204990000e-001) (17, 1.31215452914812510000e+000) (18, 1.08126620012662800000e+000) (19, 5.62835655048841590000e-001) (20, 3.15377145799414120000e-001) (21, -1.69547325716473630000e-001) (22, 2.63923137884202740000e-001) (23, -5.70018011366281830000e-001) (24, -2.04342088952439620000e+000) (25, 4.48102302558951340000e-001) (26, 4.26396920259894730000e-001) (27, -3.47476626783274110000e+000) (28, 1.10029503982876480000e+000) (29, 1.55247359463263490000e+000) (30, 1.40454387295050180000e+000) (31, 1.00079656161613540000e+000) (32, 7.25141949905283690000e-001) (33, 3.48909217060144610000e-002) (34, -4.05841550438833800000e-002) (35, 4.83987650857476640000e-001) (36, 3.54145807693982680000e-001) (37, 1.87422584376265600000e+000) (38, 1.34338498221497680000e+000) (39, -1.88928788457796260000e-001) (40, 9.57379313721522630000e-001) (41, -3.03236148308295870000e-001) (42, 1.31628127065747160000e+000) (43, 1.40037693695651070000e+000) (44, 2.91008295971239170000e-001) (45, 1.27709777051901740000e+000) (46, -5.88356214433066670000e-002) (47, 1.22584311869015620000e+000) (48, 2.65066147269882040000e-001) (49, 1.06243599306346500000e+000) (50, 1.54801937070005450000e+000) (51, 1.83168514236077610000e-001) (52, -9.88307029203086770000e-001) (53, 4.58483196709157710000e-001) (54, 4.70395526279720170000e-003) (55, -8.75549228442631720000e-001) (56, 1.34847445190547210000e+000) (57, 1.55548210881884730000e+000) (58, 3.12750990760722920000e+000) (59, 2.33550526782064590000e-001) (60, 9.40189007981069750000e-001) (61, -5.26364563472481840000e-001) (62, -3.29642050000286180000e-001) (63, 1.03134541623847250000e-001) (64, 1.45250478447703070000e+000) (65, 9.28256428943102900000e-001) (66, 9.82919541039125710000e-001) (67, 4.70250708659266600000e-001) (68, -2.54342804462096060000e-001) (69, 1.26542085979608230000e+000) (70, -3.11528829424089270000e-001) (71, 9.12148600644984930000e-001) (72, 9.81302289201965270000e-001) (73, -1.83661039508284080000e-001) (74, 1.99300931246233580000e+000) (75, 1.65689842685212970000e-001) (76, 8.76367991490193400000e-001) (77, 1.93972075723928780000e+000) (78, 1.90761841546026470000e+000) (79, -3.95431854735972810000e-001) (80, -5.89243314901279680000e-001) (81, 2.24607687994120160000e+000) (82, -1.35895279908465620000e-001) (83, 1.56412713401819990000e+000) (84, 3.19730593615342860000e+000) (85, 2.36421396289821170000e+000) (86, 3.46563288153236280000e-001) (87, 2.72116077962545200000e+000) (88, 4.10320710768864030000e-002) (89, 1.27641840444700220000e+000) (0, -1.81616361227517160000e+000) (1, -2.12157245398210440000e-002) (2, 1.62883793073776810000e+000) (3, -5.61742961074366150000e-003) (4, 6.57860252206568410000e-001) (5, -4.34863216194274430000e-001) (6, 5.99997697573393610000e-001) (7, -3.52404418116953500000e-001) (8, 4.21156906848377140000e-001) (9, 1.89781957903300410000e-001) (10, 7.86348839939559840000e-001) (11, -7.95595453454795100000e-001) (12, 1.42308282874798800000e+000) (13, 1.69711217268326850000e+000) (14, 9.89752865941901510000e-002) (15, -3.97429885042823030000e-002) (16, 3.57477573308309540000e-001) (17, -6.07370729509322580000e-001) (18, 1.18273309926399730000e-001) (19, -7.84535119153844660000e-002) (20, 2.07675134737110720000e+000) (21, 7.55754264196371460000e-002) (22, 6.52363901818868050000e-001) (23, 1.54269828379643620000e-001) (24, -3.70546328713649230000e-001) (25, -2.94913058097702460000e-001) (26, 1.52747703183957180000e+000) (27, 3.67266201931365890000e-001) (28, -3.04089421261772240000e-001) (29, 1.08584699032841640000e-001) (30, 2.22731616052423840000e+000) (31, 1.14695394452413100000e+000) (32, 1.44360008805304000000e+000) (33, 1.21021067618567730000e-001) (34, 3.47688679762704230000e-001) (35, 1.03777174993301040000e-001) (36, 1.31887703027162150000e+000) (37, 1.29238781161351150000e-002) (38, 1.11461198380200080000e+000) (39, 7.07049895966314510000e-001) (40, 4.17219337076652990000e-001) (41, 6.16566840734571020000e-001) (42, -3.77453724069412850000e-001) (43, 1.44625373988744730000e+000) (44, 1.13991876105208070000e+000) (45, -7.36434872944355280000e-001) (46, -3.16936096037557620000e-001) (47, 2.59501865986489550000e-001) (48, 1.04095539080869930000e+000) (49, 1.58670311746461710000e+000) (50, 1.21026414589272880000e+000) (51, -4.49489241326978820000e-001) (52, 2.61186713728241090000e+000) (53, 1.69216975777074460000e+000) (54, 4.24197672664382020000e-001) (55, -1.49237441224906900000e+000) (56, 9.94738540596516010000e-001) (57, 7.51457911678281460000e-001) (58, 4.18414786050366080000e-001) (59, 2.02875870423599340000e+000) (60, 7.13311836009478010000e-001) (61, 1.94773037891802800000e+000) (62, 6.74068450246817610000e-001) (63, 1.09112832150382320000e+000) (64, 5.31418483343553900000e-001) (65, 1.18905454651500200000e+000) (66, 1.76459840434439190000e-001) (67, 1.31501533948277880000e+000) (68, 1.45106353840776080000e+000) (69, 1.57336725740473680000e+000) (70, 2.07249051427884940000e+000) (71, 1.38006928463012060000e+000) (72, 1.19354427581003160000e+000) (73, 2.61835457495643460000e-001) (74, 1.50798988829921910000e+000) (75, 2.26377896778207740000e+000) (76, 5.04179262249467740000e-001) (77, 1.47929334137595190000e+000) (78, 1.71200987630819480000e+000) (79, 2.36225150189797950000e-001) (80, 1.18782685197387270000e-001) (81, 1.02705089554916350000e+000) (82, 1.43488906736672320000e+000) (83, 1.85130305326055060000e+000) (84, 9.88162375328213720000e-001) (85, 1.09699795544576450000e+000) (86, 1.56120426523646860000e+000) (87, 1.49791228811778600000e+000) (88, 1.53538847251289860000e+000) (89, 7.68711614220442210000e-001) (90, 3.34265422841755090000e-001) (0, -2.41372920619430790000e+000) (1, 8.14355353260604040000e-001) (2, 4.35120643109295350000e-002) (3, 4.40781089997168750000e-001) (4, 8.28277777701865730000e-001) (5, -2.68365209497995020000e-004) (6, 1.22989115623537670000e+000) (7, 1.00654956601253250000e+000) (8, 2.29046325549503880000e+000) (9, 9.89777901220501240000e-001) (10, 1.44546782781472300000e+000) (11, -2.17077227989874940000e+000) (12, 7.93953752571073590000e-001) (13, 1.96615080553943280000e+000) (14, 1.70040434688750410000e+000) (15, -1.33590119090839260000e-001) (16, 1.39681964307406870000e+000) (17, -8.96742434745453340000e-002) (18, 7.43624406950974090000e-001) (19, -9.35592085044335280000e-002) (20, 2.60738928891397490000e+000) (21, 2.89270290990633230000e-001) (22, 4.54488655039786030000e-001) (23, 6.68910954449788210000e-001) (24, 7.74551981461682690000e-001) (25, 3.93982066704792970000e-001) (26, 1.49142129135690320000e+000) (27, -1.48462307662680910000e+000) (28, 5.42161084319387140000e-001) (29, 3.25427834141796270000e-001) (30, 3.18184611631269040000e-001) (31, 5.63212954807978840000e-001) (32, 1.60450150689909220000e+000) (33, 9.48023972083697620000e-002) (34, 2.13411352181797250000e+000) (35, -1.73796948341266400000e-002) (36, 1.30176971962979750000e+000) (37, 2.54143038299850280000e+000) (38, 1.25294410089160540000e+000) (39, 5.66865712377333630000e-001) (40, 5.21919684531591320000e-001) (41, 6.48969901990918750000e-001) (42, 1.20664394519159560000e+000) (43, 4.45767260611015960000e-001) (44, 4.76008061606686790000e-001) (45, -1.54033086919330220000e-002) (46, 7.62262983223718880000e-001) (47, -2.38756996802836320000e-001) (48, 2.04011338781318010000e+000) (49, 9.70865676168873200000e-001) (50, 1.88850900598095510000e+000) (51, 3.44619228158686900000e-001) (52, 3.89736124342821140000e+000) (53, 1.71771680174460180000e+000) (54, 8.66798318111138830000e-001) (55, -2.24890180112955340000e+000) (56, 9.54501681289329220000e-001) (57, 2.78802270245501580000e-001) (58, 1.03945115971809400000e+000) (59, 5.12316362879385090000e-001) (60, 1.09673987951862100000e+000) (61, 2.28282505750321270000e+000) (62, 8.14693296654108060000e-001) (63, 1.22219533692914250000e+000) (64, 1.78905534900278760000e+000) (65, 9.33700444609179780000e-001) (66, 3.38532988610872330000e-001) (67, 1.83406413365575840000e+000) (68, 9.39855951751652490000e-001) (69, 3.35618569736179930000e-001) (70, 7.10164587998782900000e-001) (71, 2.21747748901854270000e+000) (72, 3.79328929996894940000e-001) (73, 2.30891220209324730000e+000) (74, 1.28060674264392490000e+000) (75, 4.55888756746194500000e-001) (76, 1.07015359628563100000e+000) (77, 1.72727487392139430000e+000) (78, 6.20150731259761830000e-001) (79, 2.11213515809687990000e+000) (80, 1.01414153565021550000e+000) (81, 3.56151287210579260000e-001) (82, 1.70592414172462740000e+000) (83, 1.56035792544461030000e+000) (84, 2.12623327849168970000e+000) (85, 1.80292474979431860000e+000) (86, 2.26605581771945100000e+000) (87, 1.23967481779929690000e+000) (88, 2.11076307733621070000e+000) (89, 1.71492207623304130000e+000) (90, 1.98399706204890470000e+000) (91, 4.32072863919170270000e-001) (0, -5.63055644549993130000e-001) (1, 4.17722998698073680000e+000) (2, 3.06198875814507950000e+000) (3, 3.25427619669418090000e+000) (4, 3.72812738454732260000e+000) (5, 4.21597253693099370000e+000) (6, 4.13006514356303270000e+000) (7, 3.35145650593395580000e+000) (8, 1.15635772278280200000e+001) (9, 3.31031684168911780000e+000) (10, 3.66871782216540690000e+000) (11, 8.58165362684723120000e+000) (12, 3.70442789223139450000e+000) (13, 1.53112689815169300000e+001) (14, 3.03847112330905400000e+000) (15, 1.93800571490215170000e+000) (16, 5.76106587783646070000e+000) (17, 4.98833744457018650000e+000) (18, 1.33446981517389760000e+000) (19, 9.64560243278687720000e-001) (20, 2.25759503992571740000e+001) (21, 2.77890605207261430000e+000) (22, 1.16339348425959630000e+000) (23, 4.56109220847784780000e+000) (24, 2.58425305510894620000e+000) (25, 1.27078860214436630000e+001) (26, 5.67148388732490090000e+000) (27, 4.99745651006942100000e+000) (28, 3.94682537418892390000e+000) (29, 7.39317044665591800000e+000) (30, 4.54845027100899820000e+000) (31, 4.01617805810462510000e+000) (32, 3.00251440889033640000e+000) (33, 2.71830167619150130000e+000) (34, 5.97204065939880910000e+000) (35, 