FANN_FLO_2.1
num_layers=47
learning_rate=0.700000
connection_rate=1.000000
network_type=1
learning_momentum=0.000000
training_algorithm=2
train_error_function=1
train_stop_function=0
cascade_output_change_fraction=0.010000
quickprop_decay=-0.000100
quickprop_mu=1.750000
rprop_increase_factor=1.200000
rprop_decrease_factor=0.500000
rprop_delta_min=0.000000
rprop_delta_max=50.000000
rprop_delta_zero=0.100000
cascade_output_stagnation_epochs=12
cascade_candidate_change_fraction=0.010000
cascade_candidate_stagnation_epochs=12
cascade_max_out_epochs=150
cascade_max_cand_epochs=150
cascade_num_candidate_groups=2
bit_fail_limit=3.49999999999999980000e-001
cascade_candidate_limit=1.00000000000000000000e+003
cascade_weight_multiplier=4.00000000000000020000e-001
cascade_activation_functions_count=10
cascade_activation_functions=3 5 7 8 10 11 14 15 16 17 
cascade_activation_steepnesses_count=4
cascade_activation_steepnesses=2.50000000000000000000e-001 5.00000000000000000000e-001 7.50000000000000000000e-001 1.00000000000000000000e+000 
layer_sizes=56 1 1 1 1 1 1 1 1 1 1 1 1 1 1 1 1 1 1 1 1 1 1 1 1 1 1 1 1 1 1 1 1 1 1 1 1 1 1 1 1 1 1 1 1 1 1 
scale_included=0
neurons (num_inputs, activation_function, activation_steepness)=(0, 0, 0.00000000000000000000e+000) (0, 0, 0.00000000000000000000e+000) (0, 0, 0.00000000000000000000e+000) (0, 0, 0.00000000000000000000e+000) (0, 0, 0.00000000000000000000e+000) (0, 0, 0.00000000000000000000e+000) (0, 0, 0.00000000000000000000e+000) (0, 0, 0.00000000000000000000e+000) (0, 0, 0.00000000000000000000e+000) (0, 0, 0.00000000000000000000e+000) (0, 0, 0.00000000000000000000e+000) (0, 0, 0.00000000000000000000e+000) (0, 0, 0.00000000000000000000e+000) (0, 0, 0.00000000000000000000e+000) (0, 0, 0.00000000000000000000e+000) (0, 0, 0.00000000000000000000e+000) (0, 0, 0.00000000000000000000e+000) (0, 0, 0.00000000000000000000e+000) (0, 0, 0.00000000000000000000e+000) (0, 0, 0.00000000000000000000e+000) (0, 0, 0.00000000000000000000e+000) (0, 0, 0.00000000000000000000e+000) (0, 0, 0.00000000000000000000e+000) (0, 0, 0.00000000000000000000e+000) (0, 0, 0.00000000000000000000e+000) (0, 0, 0.00000000000000000000e+000) (0, 0, 0.00000000000000000000e+000) (0, 0, 0.00000000000000000000e+000) (0, 0, 0.00000000000000000000e+000) (0, 0, 0.00000000000000000000e+000) (0, 0, 0.00000000000000000000e+000) (0, 0, 0.00000000000000000000e+000) (0, 0, 0.00000000000000000000e+000) (0, 0, 0.00000000000000000000e+000) (0, 0, 0.00000000000000000000e+000) (0, 0, 0.00000000000000000000e+000) (0, 0, 0.00000000000000000000e+000) (0, 0, 0.00000000000000000000e+000) (0, 0, 0.00000000000000000000e+000) (0, 0, 0.00000000000000000000e+000) (0, 0, 0.00000000000000000000e+000) (0, 0, 0.00000000000000000000e+000) (0, 0, 0.00000000000000000000e+000) (0, 0, 0.00000000000000000000e+000) (0, 0, 0.00000000000000000000e+000) (0, 0, 0.00000000000000000000e+000) (0, 0, 0.00000000000000000000e+000) (0, 0, 0.00000000000000000000e+000) (0, 0, 0.00000000000000000000e+000) (0, 0, 0.00000000000000000000e+000) (0, 0, 0.00000000000000000000e+000) (0, 0, 0.00000000000000000000e+000) (0, 0, 0.00000000000000000000e+000) (0, 0, 0.00000000000000000000e+000) (0, 0, 0.00000000000000000000e+000) (0, 0, 0.00000000000000000000e+000) (56, 5, 5.00000000000000000000e-001) (57, 11, 5.00000000000000000000e-001) (58, 14, 5.00000000000000000000e-001) (59, 8, 2.50000000000000000000e-001) (60, 16, 5.00000000000000000000e-001) (61, 8, 7.50000000000000000000e-001) (62, 11, 2.50000000000000000000e-001) (63, 11, 5.00000000000000000000e-001) (64, 14, 2.50000000000000000000e-001) (65, 11, 2.50000000000000000000e-001) (66, 11, 7.50000000000000000000e-001) (67, 11, 2.50000000000000000000e-001) (68, 11, 5.00000000000000000000e-001) (69, 11, 2.50000000000000000000e-001) (70, 5, 5.00000000000000000000e-001) (71, 14, 2.50000000000000000000e-001) (72, 11, 2.50000000000000000000e-001) (73, 14, 2.50000000000000000000e-001) (74, 11, 2.50000000000000000000e-001) (75, 11, 2.50000000000000000000e-001) (76, 14, 2.50000000000000000000e-001) (77, 8, 2.50000000000000000000e-001) (78, 11, 1.00000000000000000000e+000) (79, 5, 2.50000000000000000000e-001) (80, 11, 1.00000000000000000000e+000) (81, 11, 2.50000000000000000000e-001) (82, 11, 7.50000000000000000000e-001) (83, 11, 2.50000000000000000000e-001) (84, 11, 5.00000000000000000000e-001) (85, 15, 7.50000000000000000000e-001) (86, 5, 7.50000000000000000000e-001) (87, 11, 2.50000000000000000000e-001) (88, 11, 5.00000000000000000000e-001) (89, 8, 5.00000000000000000000e-001) (90, 5, 2.50000000000000000000e-001) (91, 15, 5.00000000000000000000e-001) (92, 8, 2.50000000000000000000e-001) (93, 3, 7.50000000000000000000e-001) (94, 8, 5.00000000000000000000e-001) (95, 8, 1.00000000000000000000e+000) (96, 5, 1.00000000000000000000e+000) (97, 8, 2.50000000000000000000e-001) (98, 8, 2.50000000000000000000e-001) (99, 11, 2.50000000000000000000e-001) (100, 3, 5.00000000000000000000e-001) (101, 11, 5.00000000000000000000e-001) 
connections (connected_to_neuron, weight)=(0, 8.18156599707460690000e-001) (1, 5.50299532542737110000e-001) (2, -2.92965025089079790000e-001) (3, 3.60615658405037340000e-001) (4, -7.13754289835890950000e-001) (5, -1.63012166304843910000e-001) (6, 6.04269688547389610000e-001) (7, 8.90129593497874130000e-001) (8, -1.53433306515084960000e+000) (9, 5.26528407650800330000e-001) (10, 4.00213986350023980000e-001) (11, -2.12520052176163740000e-001) (12, 4.81836267228970160000e-001) (13, -2.99370955464398460000e-001) (14, -4.93810743960751530000e-001) (15, -1.58019078053209030000e+000) (16, 8.95569059221516080000e-001) (17, -1.66629419719226400000e-001) (18, 8.51570362648240040000e-001) (19, -8.72137933327718500000e-001) (20, -2.05129490453638530000e+000) (21, 4.70747398406070220000e-001) (22, 3.61200954295705230000e-002) (23, 4.20774175616246140000e-001) (24, 1.63153927586206990000e+000) (25, -1.73272146732122550000e+000) (26, 1.08111017572379490000e+000) (27, -1.88343680125528600000e+000) (28, 2.57452027712040900000e-001) (29, -4.54109304476077910000e+000) (30, 8.01598251185050130000e-001) (31, -8.76810557680198440000e-001) (32, 7.56780859729075720000e-001) (33, -7.04176315764440510000e-001) (34, -2.67549170478365990000e+000) (35, -3.66277052793887670000e+000) (36, 1.47519431062289130000e+000) (37, -1.23235390633250120000e-001) (38, 6.28101454064050710000e-001) (39, 4.24777409148072490000e-001) (40, -3.81868150719641140000e-001) (41, -6.08482165314456540000e-001) (42, 5.50182221077983980000e-001) (43, 4.60308845451833540000e-001) (44, 9.49739327601888950000e-001) (45, 2.10818100654534880000e+000) (46, 9.04986546555334610000e-001) (47, -3.79927650728462630000e-001) (48, -1.16306184473001320000e+000) (49, -9.83665710483876850000e-001) (50, -9.87460124211353870000e-001) (51, 3.90996611391926040000e-001) (52, -3.38396460508051080000e+000) (53, 9.58890535986121730000e-001) (54, -1.10817026686407800000e+000) (55, -4.76224962790696150000e-001) (0, 2.51323799111681180000e-001) (1, -3.03926991122715730000e-002) (2, 7.40667411772446770000e-001) (3, 9.76989736389179850000e-001) (4, -4.38565107191868640000e-001) (5, 5.78238772612676090000e-001) (6, 4.06002406745494700000e-001) (7, -6.23653923232530110000e-001) (8, 8.89462587894087160000e-001) (9, 6.59870079443601100000e-001) (10, -3.89108222573555510000e-002) (11, 7.78256503656617580000e-001) (12, 5.75536746101133590000e-001) (13, 1.23989550093192830000e-001) (14, -2.06436465972990420000e-001) (15, -1.54086518626722290000e-001) (16, 3.99635445619579140000e-001) (17, -7.12196190666598120000e-001) (18, -3.26413184029189730000e-001) (19, 3.18063725733475190000e-001) (20, -7.62042260613638560000e-001) (21, 8.61625798303923830000e-002) (22, -3.62784687132675980000e-001) (23, -4.80630747201109820000e-001) (24, 3.14687759002285740000e-001) (25, -1.18826761213568140000e+000) (26, 3.70951107216713590000e-001) (27, -4.84786417250073140000e+000) (28, 3.63608656391061660000e-001) (29, 1.04232110658189770000e-001) (30, -3.69527102012500940000e-001) (31, -4.62637707021974540000e-001) (32, -5.13791981660949970000e-001) (33, -2.10276388128117610000e-001) (34, 1.50122424954062470000e-001) (35, -6.62955264348145220000e-001) (36, -2.65161957149248170000e-001) (37, -1.18450410970830950000e+000) (38, 1.20050319628222500000e+000) (39, -1.20357900007947970000e-001) (40, -6.24329429860415730000e-001) (41, 9.69190705321773090000e-001) (42, 1.06841094568386370000e+000) (43, 2.16614912163743010000e-001) (44, 1.15047212036889770000e+000) (45, -2.20948642970445560000e-001) (46, -4.02824665607374730000e-001) (47, 2.69120200058489410000e-001) (48, 9.86639449087710510000e-001) (49, 2.74752067611698460000e-001) (50, 9.25411899204861110000e-001) (51, -7.03363705323033830000e-001) (52, -2.49223728500344200000e+000) (53, 9.41933192260370980000e-001) (54, -9.24398159516155030000e-002) (55, -3.19715268981668470000e-002) (56, 1.15270674112117640000e+000) (0, 6.45141265731101200000e-001) (1, 1.01321814925988260000e+000) (2, 1.21591934741962370000e+000) (3, 1.62277670083239960000e-001) (4, 1.35971888527357800000e+000) (5, 4.03891377250767680000e-001) (6, -3.63628910322477290000e-001) (7, 1.45329183877555050000e+000) (8, -1.92559669679735170000e-001) (9, 7.05568058169701140000e-001) (10, 8.94411701452265230000e-001) (11, -2.97123993703510500000e-001) (12, 1.62958175010244180000e-001) (13, -2.38032545110235030000e-001) (14, 1.38044335350506970000e+000) (15, -7.70597595539391890000e-001) (16, 4.61020301189691080000e-002) (17, -2.26507849067484700000e-001) (18, -5.72436345859841240000e-002) (19, 1.28634433858127160000e+000) (20, 2.00131537973327370000e+000) (21, 3.27379723341883480000e-001) (22, 6.99855750971027590000e-001) (23, 1.21837010908859460000e+000) (24, 7.38604355465236620000e-001) (25, -1.50023808896908140000e+000) (26, 8.17082498836258280000e-001) (27, 4.36345237805920850000e+000) (28, 1.10653943884951270000e+000) (29, 9.07525536634372630000e-001) (30, -4.12642014690950300000e-001) (31, 9.86272280453206750000e-002) (32, 6.62015742841430940000e-001) (33, 5.72593329322380500000e-001) (34, 1.84850175600761600000e+000) (35, 2.24360454006406360000e-001) (36, -4.50513490645169490000e-001) (37, 1.64023196380214590000e+000) (38, 1.00267384893020960000e+000) (39, -4.60844792718779090000e-001) (40, 8.19026788726586850000e-001) (41, 6.76600792264090980000e-002) (42, 2.43044758140678940000e-001) (43, -4.24441305162945590000e-001) (44, 2.67604799597103980000e-001) (45, 6.48713084710678010000e-001) (46, 6.07085729363456270000e-003) (47, 1.00910771369461320000e+000) (48, -3.61209396708821020000e-001) (49, 1.35260451558217020000e+000) (50, 9.42148590567904900000e-001) (51, -2.49849130114671960000e-002) (52, 5.69329332083911790000e-001) (53, -9.59891150772917150000e-002) (54, 1.94757340351995740000e-001) (55, -1.15350953832155990000e+000) (56, 1.99853991949282950000e+000) (57, 1.02899035700763750000e+000) (0, 1.69234308277892940000e+000) (1, 7.19722614515186150000e-001) (2, 1.24570704200699470000e+000) (3, 1.14192047152099810000e+000) (4, 1.79428759504654200000e-001) (5, 4.98144920523182540000e-001) (6, 3.93668208228328490000e-001) (7, 1.39484117920145770000e+000) (8, 1.93511196827542920000e+000) (9, 8.18988217509288070000e-001) (10, -1.42884778753879630000e-002) (11, 2.18869007006107450000e-001) (12, 1.73003729781411500000e+000) (13, 1.00927463360078430000e+000) (14, 3.57971998194253290000e-001) (15, 5.25115155717884920000e-001) (16, 4.70302172120126210000e-001) (17, 1.07333926113187880000e+000) (18, 2.96391173793490340000e-001) (19, 1.69524763182323720000e+000) (20, 1.83386868101849230000e+000) (21, 1.10812372942293220000e+000) (22, -5.04390387285945210000e-001) (23, 1.50607784642728420000e+000) (24, 9.65987456787846700000e-001) (25, -7.18749071201196800000e-001) (26, 1.70796037348990470000e+000) (27, 1.71878465293768290000e+000) (28, 1.26434540135216870000e+000) (29, -1.44169237636015330000e-001) (30, 6.00808463271240820000e-001) (31, 1.97325210861522570000e+000) (32, 6.41116326217152980000e-001) (33, 1.29720550497239960000e-001) (34, 5.73107818202090890000e-001) (35, 9.28271776366818900000e-001) (36, 3.06915223912065600000e-001) (37, 1.64303555942095960000e+000) (38, 5.04497706358877710000e-002) (39, 7.06877793425147230000e-001) (40, 7.88938436410527080000e-001) (41, 4.34224679636743620000e-002) (42, 6.06486877884806830000e-002) (43, 2.13943387673489970000e-001) (44, 1.17612415709371820000e+000) (45, 9.23354724528266170000e-001) (46, 7.45468661473560950000e-001) (47, 3.51566580714271160000e-001) (48, 1.87370296300864990000e-001) (49, 1.63781172380621690000e+000) (50, 1.71617773063945940000e+000) (51, 1.96592790810237390000e-001) (52, 2.26491468660707000000e+000) (53, 1.44735379153011400000e+000) (54, 9.92680751699483110000e-001) (55, 9.84956649001824340000e-001) (56, -8.29841360840501090000e-001) (57, -1.36005084614274810000e+000) (58, -4.36141418895117710000e-001) (0, -4.00974370342666700000e-001) (1, 9.81792934818946690000e-001) (2, -3.34532888841061920000e-001) (3, 4.72334066869513070000e-001) (4, -6.03342844291767880000e-001) (5, -6.96942408338366850000e-001) (6, 2.41176237582982460000e-001) (7, -1.62069916261537990000e-001) (8, -6.42359293524579990000e-001) (9, 6.61968407102682570000e-001) (10, 1.51476789196673900000e-001) (11, -6.38539309577132340000e-001) (12, -2.32378861636101330000e-001) (13, -1.33872888204376460000e+000) (14, 7.78359059125938390000e-001) (15, 4.13769759694093960000e-001) (16, 2.20008624366306690000e-001) (17, -9.96797530492775750000e-001) (18, -3.62800647656235710000e-001) (19, -1.16330736746772550000e+000) (20, -8.88402577534465280000e-001) (21, -5.14988898146566880000e-002) (22, 6.54880659444885270000e-001) (23, -7.42212377607068820000e-001) (24, -9.46208225332378030000e-001) (25, -1.93746576606195940000e+000) (26, -3.82336867151911180000e-001) (27, -4.71613093012112910000e-001) (28, 5.72865003466690100000e-002) (29, -9.04256429512224070000e-001) (30, 5.49886207327068720000e-001) (31, -1.60172996158577870000e+000) (32, 3.28656550611191370000e-001) (33, -1.95484407150870450000e-001) (34, 7.95711972791909190000e-001) (35, -2.18055735620500890000e+000) (36, 9.51384003737763440000e-001) (37, 1.01989806593962660000e+000) (38, -7.40901109531699520000e-001) (39, -9.01374961269936350000e-002) (40, -1.52953481070875360000e-001) (41, 9.48012171543956670000e-001) (42, 7.40894256972529860000e-001) (43, 1.50074327013277500000e-001) (44, 7.70741216021411990000e-001) (45, -6.42708670430940790000e-002) (46, 1.72740532316089660000e-001) (47, -9.80709531879331740000e-001) (48, -9.99995732513133810000e-002) (49, 8.65964254827992000000e-001) (50, -2.53498446333364210000e-001) (51, -9.52951889719991560000e-001) (52, -2.33834031243158200000e+000) (53, 8.96478015953123150000e-001) (54, -1.83858288738026090000e-001) (55, -2.73215534398536340000e+000) (56, 2.23274635192853530000e+000) (57, 2.46352953319353230000e+000) (58, 1.43923317163317850000e+000) (59, 2.31509780464294760000e+000) (0, 1.41568370069438190000e+000) (1, 8.80796894549702450000e-002) (2, 3.50871971404473290000e-001) (3, 1.12683106688375500000e-001) (4, 1.81210851102390550000e+000) (5, 6.88881832920105520000e-001) (6, 6.08816829323859280000e-001) (7, 1.19295305274435990000e+000) (8, 1.45377101093868990000e+000) (9, 8.22240235032401960000e-001) (10, 5.59492051197509330000e-001) (11, 2.56638042481956710000e-001) (12, 9.89658110123218470000e-001) (13, 1.59483855271805930000e+000) (14, 8.75368047048862290000e-001) (15, -5.22282671356355120000e-002) (16, 8.95558573316668990000e-001) (17, 1.58924736301405420000e+000) (18, 4.13949868140067790000e-001) (19, 5.29081571071705060000e-001) (20, 1.83270923550294220000e+000) (21, 6.22657935965758020000e-001) (22, -4.46895685502816110000e-001) (23, 2.97835438854383680000e-001) (24, 1.19898534844072550000e-001) (25, 1.15048045670590730000e+000) (26, 2.60998763268266040000e-001) (27, 1.64545729060545960000e-001) (28, 1.53665422468112160000e-001) (29, 3.49055486151572340000e-001) (30, 1.47193071131598140000e+000) (31, 1.44765063571532570000e-001) (32, 1.48105541384738100000e+000) (33, 5.34639281776521680000e-003) (34, -2.93887539245873080000e-001) (35, 9.96905409616973490000e-001) (36, 4.44552009739072330000e-001) (37, 1.34681953946999270000e+000) (38, 1.40900944034528150000e+000) (39, -4.53599633587231040000e-001) (40, -1.03329516472701940000e-001) (41, 1.06024427992250960000e+000) (42, 1.12322508012884970000e+000) (43, 1.23367468994119880000e+000) (44, 1.01941622961321590000e+000) (45, 1.54361059687547080000e+000) (46, -5.59932484302679780000e-003) (47, -4.45392657475252750000e-001) (48, 7.65211875099933990000e-002) (49, 1.20407777652234970000e-001) (50, 4.50895924580426210000e-001) (51, 5.77473608785833430000e-001) (52, 1.47355753944273830000e+000) (53, 6.63011829722867210000e-001) (54, -1.52960900262346210000e-001) (55, -4.62181113185767990000e-001) (56, 2.00257263049016060000e-001) (57, 1.06124934901864320000e+000) (58, -5.43248851585859120000e-001) (59, -1.06409647949699840000e-001) (60, -7.86918962326481060000e-001) (0, 1.05763239747008650000e+000) (1, 2.78842988258058030000e-001) (2, 5.28633213785307250000e-001) (3, 4.35841422260219990000e-001) (4, -3.07435277491512060000e-001) (5, 1.11428323450085530000e+000) (6, -4.30068708132656460000e-001) (7, 2.97878812788932410000e-001) (8, -6.44399861364343130000e-001) (9, -1.21286273910717270000e-001) (10, 1.05258885357708540000e-001) (11, 1.78665194027742920000e-001) (12, 6.64961667585352720000e-002) (13, 1.40343652309646630000e+000) (14, 9.98686148240759740000e-001) (15, 7.28447343133489910000e-001) (16, -3.48759907517813770000e-001) (17, 6.55942946374451390000e-001) (18, -1.00690218445445320000e-001) (19, 1.36803645740012380000e+000) (20, 1.07946720020472560000e+000) (21, 2.26884946042951940000e-002) (22, 2.57958324326246320000e-001) (23, 3.48779422923341410000e-001) (24, 1.42946142460163990000e+000) (25, -1.45027648022272030000e-001) (26, -2.45227256427674120000e-001) (27, 3.67542662011120170000e-002) (28, 1.26998895904684010000e+000) (29, 4.68292883830808190000e-001) (30, 6.07439020949581690000e-001) (31, 1.34292889107778830000e+000) (32, 1.20418509886944030000e+000) (33, -6.34604820544986540000e-002) (34, 1.33171084287327000000e+000) (35, 6.26610632404416830000e-001) (36, 1.43983981113118880000e+000) (37, -4.17254605631030890000e-001) (38, 1.28780451289780260000e+000) (39, 6.26263364580643270000e-002) (40, -1.94916591898125740000e-001) (41, 1.43456183426261740000e-001) (42, 1.10529933051433700000e+000) (43, 1.41942184752546540000e+000) (44, -4.86296638677648440000e-001) (45, -1.05314956834189180000e-001) (46, 7.54927075040124240000e-001) (47, 1.44078217868222210000e+000) (48, -1.00338425581541300000e-001) (49, -5.25687602310843880000e-001) (50, -1.76536912966106550000e-001) (51, 6.57172147746261090000e-001) (52, -8.03803937354113260000e-001) (53, 2.71478372161557730000e-001) (54, 1.60733794370151140000e-002) (55, -4.33335582309572200000e-001) (56, -2.23643477131188320000e-001) (57, -8.62077689449555650000e-001) (58, 2.76004413172765920000e-001) (59, -2.38180413023856620000e-001) (60, 2.99869312239159250000e-001) (61, 1.55465470422000540000e+000) (0, 5.86488305808631410000e-002) (1, 4.59825646588075900000e-001) (2, 7.20195393713761840000e-001) (3, 7.04594306907851960000e-002) (4, 2.48726010254546800000e-001) (5, 1.07116743228379650000e+000) (6, 1.84037117875686400000e+000) (7, -1.15764204344490720000e-001) (8, 1.50304470782239120000e+000) (9, 1.94489143548453880000e+000) (10, 6.38155246820429900000e-001) (11, 1.27280576303737750000e+000) (12, -2.03537183524572750000e-002) (13, 1.01591506692368560000e+000) (14, 5.32334350998094560000e-001) (15, -3.04098575566993550000e-001) (16, -1.50979124578467650000e-001) (17, 1.58725101489099020000e+000) (18, 3.24141881847703430000e-001) (19, 1.18281947903173120000e+000) (20, 2.58109914651930160000e+000) (21, 3.99115090242273930000e-001) (22, 6.11406052959456160000e-001) (23, -3.09503245282639300000e-002) (24, 6.77383702351496810000e-001) (25, -6.53918665151456910000e-001) (26, 3.94804711644090920000e-001) (27, 2.26241673571656010000e+000) (28, 2.09629920233927700000e+000) (29, 3.51504302924291740000e-001) (30, 1.07899982517775280000e+000) (31, 1.85209268255411150000e+000) (32, 1.52140883054922040000e-001) (33, 4.99780899755776980000e-002) (34, 1.12151309539502850000e+000) (35, 1.21807660621481560000e+000) (36, 1.18427451666775170000e+000) (37, 4.90256596541451150000e-001) (38, 4.79852402063631440000e-001) (39, 1.55130574594931690000e+000) (40, 1.78276428722706800000e-001) (41, 2.09225812671975970000e+000) (42, 1.43265666633942180000e+000) (43, 5.87502394383587200000e-001) (44, 1.21030137127486780000e-001) (45, 1.56825590703982880000e+000) (46, 1.15736131843478370000e+000) (47, 1.27535874336656520000e+000) (48, 2.35570974727944190000e-001) (49, -4.09472687943021330000e-002) (50, 6.50962085851847670000e-001) (51, 3.91202404392057000000e-001) (52, 1.30576238222385180000e+000) (53, 1.25356186715224500000e+000) (54, 1.33676440905687910000e+000) (55, -1.60328610476154120000e+000) (56, -6.80753220296020590000e-001) (57, 5.00599202779059890000e-001) (58, 1.16019990813578250000e-001) (59, 8.68282865516442960000e-001) (60, -3.75954769384643450000e-001) (61, 1.44093926037498330000e+000) (62, 8.02739282901861580000e-001) (0, 2.21135944565083400000e-001) (1, 9.27472549482207030000e-001) (2, -4.86362699568503420000e-001) (3, -8.81513331857842640000e-001) (4, 9.03416745281454990000e-001) (5, -8.64204907958037590000e-002) (6, -7.82184724168011100000e-001) (7, 2.62022137361696050000e-001) (8, -7.68097979105331400000e-001) (9, -9.83818258545636090000e-001) (10, -7.44345894920131810000e-001) (11, 1.47862898721743240000e-001) (12, -5.62859676801292010000e-001) (13, 6.92149267263065360000e-001) (14, -6.05649769518333270000e-001) (15, 1.40042224529359170000e+000) (16, -1.00012665376588680000e+000) (17, -6.81131962148122330000e-001) (18, -5.27934298268887270000e-001) (19, -1.87570369804734740000e+000) (20, -7.98660075918361080000e-001) (21, 1.81688066735205270000e-001) (22, -5.29236576133777730000e-001) (23, -9.38147187479100200000e-001) (24, 9.06088602537660660000e-001) (25, -1.46881796269849610000e+000) (26, 4.83406115243884380000e-001) (27, 5.53792883910239620000e-001) (28, -4.04133274900183250000e-001) (29, -9.86992844542874390000e-001) (30, 7.79225860864048850000e-002) (31, 5.56298849209163500000e-001) (32, -1.03023960670963480000e-001) (33, -3.06149939871190160000e-001) (34, -9.41993823735720270000e-001) (35, -1.01400487947339600000e+000) (36, -3.27887887160700220000e-001) (37, -1.06237692191646920000e+000) (38, 1.66848892793409560000e-001) (39, -4.92989483838841610000e-001) (40, -8.09249827195582690000e-001) (41, 8.63908488584009810000e-001) (42, -4.68186376998432910000e-001) (43, 7.08788668561044830000e-001) (44, -9.94289935832143980000e-001) (45, -9.26818424665283860000e-001) (46, 9.27724998406791350000e-001) (47, -3.99067764411438490000e-002) (48, 6.61471805603765060000e-001) (49, 2.69590652015484320000e-001) (50, 8.11368271898007750000e-001) (51, 6.25291186754782900000e-001) (52, -3.35466531581839480000e+000) (53, -1.54897675384373160000e-001) (54, 6.30241814442308200000e-001) (55, 8.81653069670154000000e-001) (56, 2.67187185377293490000e+000) (57, 2.15035274868115290000e+000) (58, 2.57366101775421360000e+000) (59, 1.70593095172677910000e+000) (60, 3.26669642796930230000e+000) (61, 4.47077775892014010000e+000) (62, 2.54996922986236550000e+000) (63, 4.06523078744856470000e+000) (0, 1.10059077054494690000e+000) (1, -2.49236179793327960000e-001) (2, -2.01668040820151520000e-001) (3, -2.97736078611009310000e-001) (4, -5.06911652651282350000e-001) (5, -4.36136912809671930000e-001) (6, 1.75564759264276450000e-001) (7, 1.25604795323982970000e+000) (8, 1.11148977546887220000e+000) (9, 4.67196484619094960000e-001) (10, 1.16910224153929290000e+000) (11, 8.68257895394467630000e-001) (12, 9.95969617076696730000e-001) (13, 7.68988565299528640000e-001) (14, 1.29973589710758620000e-001) (15, -2.86705130815720080000e-001) (16, 6.26327500509919480000e-001) (17, 9.66340180442408990000e-001) (18, -7.67316585865439050000e-002) (19, 5.60059797500842340000e-001) (20, 5.78673762508264080000e-001) (21, 1.39348213808507200000e-001) (22, 3.67913516482254590000e-002) (23, 6.97808128671355220000e-001) (24, 1.05804722735687480000e+000) (25, 7.44787491130698860000e-001) (26, -7.67089782380364400000e-001) (27, 2.75069449884879140000e-001) (28, -1.59140985695123640000e-001) (29, -3.50699799655231900000e-002) (30, 5.31979983452096180000e-001) (31, 3.55519210724029200000e-001) (32, 1.10877149759077000000e-001) (33, -1.12940173904392770000e-001) (34, -3.45644499287539990000e-001) (35, 1.42144458244186890000e+000) (36, 1.08266239579774100000e+000) (37, -5.26373449050823950000e-001) (38, -5.23082624510208480000e-001) (39, -1.93510952231519350000e-001) (40, -1.94792355957573660000e-001) (41, 1.93712700542861220000e-001) (42, -4.15206708756669980000e-001) (43, 4.85291703141829960000e-002) (44, 5.29814135872073600000e-001) (45, 1.11964698543938670000e+000) (46, 1.04377395020077370000e+000) (47, -7.81735135829528110000e-002) (48, 1.33504570904782140000e+000) (49, 1.06698055106920790000e+000) (50, 1.51906131598444950000e+000) (51, 6.14340245438839920000e-001) (52, 4.37675676767348480000e-001) (53, 9.35248963169911800000e-001) (54, 1.07623203778215080000e+000) (55, -5.25565459888852060000e-001) (56, -2.04498371254753400000e-001) (57, 9.20634043622481020000e-001) (58, -6.78438708310999060000e-001) (59, 3.99815624362083680000e-001) (60, -2.90438476672868540000e-001) (61, 1.79006263438127020000e+000) (62, 8.39965585789707040000e-001) (63, 2.10741279205742500000e+000) (64, 1.85498287597879760000e+000) (0, 1.32185629866584530000e-001) (1, 9.39957401630763690000e-001) (2, -4.60536858579258860000e-001) (3, 4.80911241126832980000e-001) (4, 2.12527277824065800000e-001) (5, -5.29171066993943340000e-001) (6, 3.67844124181956830000e-001) (7, 1.25050701633100090000e-001) (8, -1.06322898955361930000e+000) (9, -8.49036763004605290000e-001) (10, -3.31649599062090600000e-002) (11, 8.22927877214523980000e-001) (12, 9.94178943426178190000e-001) (13, 3.12969453973234720000e-001) (14, 6.04809997846260110000e-001) (15, 1.12822927998146260000e+000) (16, -2.98166717260613280000e-001) (17, 4.59610894327674100000e-001) (18, 9.10428010999670410000e-001) (19, 5.23357955659680130000e-001) (20, 1.91779745624435210000e+000) (21, 2.64051931332218490000e-001) (22, 2.38920675713037460000e-001) (23, 8.83059393670488690000e-001) (24, 1.85970270762146010000e-001) (25, 2.75798830397993360000e-001) (26, 4.84855669806481540000e-001) (27, -9.07856440311626380000e-001) (28, 2.71169561294120180000e-001) (29, 2.66949313090096340000e-001) (30, 6.53441299034535960000e-001) (31, 7.91956014052641270000e-001) (32, -1.63286282306998350000e-001) (33, -3.94281209030885200000e-001) (34, 1.79297430166421580000e-001) (35, 2.63972195725161230000e-001) (36, -8.09336813911134770000e-001) (37, 6.40803873762100910000e-001) (38, 1.07950186024676540000e+000) (39, 1.09455079747751370000e-001) (40, 1.12698831714752220000e-001) (41, -8.23192850560062190000e-001) (42, -5.28854352380652370000e-001) (43, -1.28384331922333620000e-001) (44, 3.74241759370434410000e-001) (45, 1.58702289786977580000e+000) (46, 9.79356699524160600000e-001) (47, -3.80474204841086240000e-001) (48, 2.49864455925844250000e-001) (49, 4.10220539440288520000e-001) (50, 3.22217520681331030000e-001) (51, -4.10640395287245660000e-001) (52, -8.18188216831538420000e-001) (53, 2.94086916235818730000e-001) (54, 2.50927436604959750000e-002) (55, -7.96905537656911740000e-001) (56, -3.84294237911934230000e-001) (57, 6.83134269173325980000e-001) (58, 5.50189790253409640000e-001) (59, -7.26970498104624440000e-001) (60, -4.64026114461916990000e-001) (61, 2.52390088355111650000e+000) (62, 1.78701950881588600000e+000) (63, 4.75427398889505460000e-002) (64, 3.20275696384128540000e+000) (65, 1.76334241119418200000e+000) (0, 2.20676931336070300000e-001) (1, 2.85285098290566640000e-002) (2, 1.65132986557933090000e+000) (3, 1.10674581588697850000e+000) (4, 9.51373401498285530000e-001) (5, 1.30335631494396600000e+000) (6, 4.51060269661110960000e-001) (7, -3.04231111840481740000e-001) (8, 2.21491990886687470000e-001) (9, 1.89991472107221640000e-001) (10, 9.75073082571604520000e-001) (11, 5.77489604619870870000e-001) (12, -9.29652319244544670000e-002) (13, -1.55244078012039770000e-001) (14, 1.36889314796296180000e+000) (15, 7.93596082295350720000e-001) (16, 7.93386822066247220000e-001) (17, 1.55645256987171180000e+000) (18, 3.78104984506430430000e-001) (19, 1.48265499201644180000e+000) (20, 1.28330884648345570000e+000) (21, 3.01303586895763530000e-001) (22, 4.81087004839534590000e-001) (23, -1.25828813244725280000e-001) (24, -9.83969991182112450000e-002) (25, -3.31082300733037850000e-001) (26, -2.28022954196823060000e-001) (27, 4.62907860537816850000e-001) (28, 8.56630384438186510000e-001) (29, 5.68990886493216160000e-001) (30, 7.65642930617518980000e-001) (31, 5.09813598677692270000e-001) (32, 1.72195459593073700000e+000) (33, -3.83346934820862840000e-002) (34, 1.28835888834079480000e+000) (35, 3.23882401479431630000e-002) (36, 8.84948363578741850000e-001) (37, 5.86175713025846700000e-001) (38, 2.50960394209114150000e-001) (39, 1.33195676062519250000e+000) (40, 1.12165496957474620000e+000) (41, 3.16560670435291850000e-001) (42, 1.72480954025392650000e+000) (43, -1.17263980275156680000e-001) (44, 1.21574124582563760000e+000) (45, 3.03837733467161030000e-001) (46, 1.64201615488142940000e+000) (47, 1.28385117192634990000e+000) (48, 6.34136721288215410000e-001) (49, 1.58460005238172830000e+000) (50, 1.46568942025608020000e+000) (51, 2.50770064587568180000e-001) (52, 5.53266861233986940000e-001) (53, 3.06465284050419190000e-002) (54, 1.39957901593892610000e+000) (55, -1.15957243106807350000e+000) (56, -4.84519278376558060000e-001) (57, 1.23395115182470620000e+000) (58, -6.77906765107273100000e-001) (59, 1.09231259244239420000e+000) (60, -2.46763063482515250000e-001) (61, 4.82062139272333550000e-001) (62, 1.84469534312711870000e+000) (63, 6.78687501039930250000e-001) (64, 2.08820060691709260000e+000) (65, 3.08735297251136630000e-001) (66, 1.44926869547238300000e+000) (0, 2.88443904191060310000e-001) (1, 7.18701415260938230000e-001) (2, 9.59254192880230620000e-002) (3, -1.85918522574438890000e-001) (4, -7.34294325598540020000e-001) (5, 5.20978613846154180000e-001) (6, 1.88496795143209630000e-001) (7, -2.91069948134036300000e-001) (8, 1.01495840518726020000e+000) (9, 9.12873201545785770000e-002) (10, 4.24531566112336560000e-001) (11, 6.34707346022395650000e-001) (12, -5.23666817730649230000e-002) (13, 8.15012477526976700000e-001) (14, 5.80892688953526080000e-001) (15, 9.37655687451874440000e-001) (16, 5.00437985314756760000e-002) (17, -4.58445415408425760000e-001) (18, 7.47694661240739020000e-001) (19, -1.49929529553546800000e-001) (20, 1.68255256356227450000e+000) (21, 7.91207613595222630000e-001) (22, -5.74759590798816890000e-001) (23, -4.95769425905697230000e-001) (24, 7.15240677540271210000e-001) (25, -3.76712424530268990000e-001) (26, 6.43076968742975820000e-001) (27, -3.01876251572102900000e-001) (28, 1.37796079526138640000e+000) (29, 3.03766290191905320000e-001) (30, 7.62404996944894050000e-001) (31, 1.23929824946966720000e-001) (32, 1.20627364471371920000e+000) (33, -2.51095474010403550000e-001) (34, -3.42899093098477830000e-001) (35, -7.11342295801079510000e-003) (36, -4.58092841227342020000e-004) (37, 2.71521024563392440000e-001) (38, 3.45048524798103000000e-001) (39, 1.11872856034523990000e-001) (40, 1.68991364540915650000e-001) (41, 5.24981356933921340000e-001) (42, 1.03371094270775780000e+000) (43, 9.16551287884857730000e-001) (44, 4.84000891987734440000e-001) (45, 1.14511752170813000000e+000) (46, 1.10067746992214750000e+000) (47, -5.75137636156369700000e-001) (48, 1.08531409376233050000e+000) (49, -2.90879341320333110000e-001) (50, 8.78421010885573890000e-001) (51, 2.76239465051248520000e-001) (52, -3.00334643920891100000e-001) (53, -3.03980996263094830000e-001) (54, 5.80879368551717510000e-001) (55, -8.33854617956177100000e-001) (56, -2.38918624282479670000e-001) (57, 1.81717163058315380000e+000) (58, 8.18679931556329340000e-001) (59, 8.54729038066198380000e-001) (60, 9.35217315101179890000e-001) (61, 3.04669207402874730000e+000) (62, 6.61854754840042640000e-001) (63, 1.84147506657633420000e+000) (64, 2.87106010282713710000e-001) (65, 1.48346163044780430000e+000) (66, 1.83602070019415290000e+000) (67, 2.06608709644058890000e+000) (0, 4.18559966453911580000e-001) (1, -5.61324344725439680000e-001) (2, -4.49987119263245810000e-001) (3, -2.27058183252087960000e-001) (4, 9.01710419119476910000e-001) (5, -5.61515208540517730000e-001) (6, 8.53222607589809030000e-002) (7, 1.65866790721916320000e-001) (8, -8.92430549513449580000e-001) (9, 7.44375014223474190000e-001) (10, 5.45813025270613710000e-001) (11, 2.92956433881676860000e-001) (12, 1.05548303280068940000e+000) (13, -9.43476106274760200000e-001) (14, -1.21828599872391900000e-001) (15, 1.45935070829588790000e-001) (16, 8.98880375760308550000e-001) (17, 5.24905743898470940000e-003) (18, -1.72875847273856920000e-002) (19, 2.60013371104356600000e-002) (20, -4.28234576023121480000e-001) (21, -2.12285018126372900000e-001) (22, 1.60173281107966750000e-001) (23, 4.48286590418998650000e-001) (24, -1.29972237722034120000e-001) (25, 1.04948590403590140000e-001) (26, -4.24310387179373600000e-003) (27, -3.39447415660453220000e-001) (28, -6.64917287195175510000e-001) (29, 7.08365468762626670000e-003) (30, -7.64594307783558860000e-001) (31, 1.38005363204048660000e-001) (32, 1.26689651863547190000e+000) (33, -7.72688820330019730000e-002) (34, -9.36267595603087200000e-002) (35, 1.27705580966109220000e+000) (36, 6.53905565876480300000e-001) (37, -5.49429765188639560000e-002) (38, -2.24258847297609950000e-001) (39, 1.19417740509073630000e+000) (40, 6.72292113395665410000e-001) (41, 8.13276851466648850000e-001) (42, -6.87103598861872110000e-001) (43, 1.21014634428559950000e+000) (44, 1.03270661753470930000e+000) (45, -4.06506499298734390000e-001) (46, -6.03059898955839110000e-001) (47, 6.13951407253475970000e-001) (48, -4.71117672295361440000e-001) (49, 3.84214995171201330000e-001) (50, -2.27418693373623390000e-001) (51, -2.67139584418477460000e-001) (52, -1.25140813786731320000e+000) (53, -8.01532288895916540000e-001) (54, -1.15488286275957160000e-001) (55, -4.87277586975001720000e-002) (56, 7.27860477609838630000e-001) (57, 5.87511861449640400000e-001) (58, 1.48124659597645270000e+000) (59, -8.60229699169637210000e-001) (60, 7.59288258917477530000e-001) (61, 9.48366435247986920000e-001) (62, 5.45799694238609080000e-001) (63, 7.53961919497764030000e-001) (64, 4.94171990733633770000e-001) (65, 2.44502189680855380000e+000) (66, 8.61615686921082810000e-001) (67, 9.49413041856984050000e-001) (68, 1.67053733269356260000e+000) (0, 1.01150864551976540000e-001) (1, 1.09440362190070340000e+000) (2, 9.66391268358999580000e-001) (3, -7.78510155914848960000e-001) (4, 7.18976069327179060000e-001) (5, -7.57233977625294870000e-001) (6, -6.20595048190883180000e-001) (7, 7.06235842806487990000e-001) (8, 1.44043307796698690000e+000) (9, 1.20631330782923220000e-001) (10, 4.40719483662517920000e-002) (11, -9.31766178730571220000e-001) (12, -4.54139478286647720000e-003) (13, 1.66340938560851000000e-001) (14, 9.99324753914985990000e-001) (15, 2.72801988884623540000e-001) (16, 4.70643396218634050000e-002) (17, -3.79984327656168130000e-001) (18, -4.09668517795131750000e-001) (19, -1.80234376335385470000e-001) (20, 6.14670048078298170000e-001) (21, -2.41721999455201260000e-001) (22, 4.45422652879300220000e-001) (23, -6.68642840395704210000e-001) (24, 4.17685140539989450000e-001) (25, -9.15720221786982760000e-001) (26, -4.43350537526730980000e-001) (27, -1.01477905664770660000e+000) (28, 9.64015861107908600000e-001) (29, 6.24853459750814630000e-001) (30, 6.56820700564518580000e-001) (31, -5.36990951915455090000e-001) (32, -1.10348976037205770000e-001) (33, -2.77703199074437410000e-001) (34, 4.70056230769819800000e-002) (35, -6.85287734504451240000e-001) (36, 8.14718871630172430000e-001) (37, 1.25042582523727770000e-001) (38, -1.26974971646707570000e-001) (39, 4.79205006207773400000e-001) (40, 6.20239313791823290000e-001) (41, -1.30032626011673420000e-001) (42, 1.50148529263943090000e-002) (43, -4.96123035083731350000e-001) (44, 6.15843935642184870000e-001) (45, 3.74514454480573740000e-001) (46, 1.03837354820090420000e+000) (47, -2.62649005119385550000e-001) (48, -7.66615182339818510000e-001) (49, -4.89689220690782360000e-001) (50, 4.19664832149542420000e-001) (51, 2.28413647147969690000e-001) (52, -2.15592277886888930000e+000) (53, 9.16729582065333390000e-001) (54, 9.33847806594564900000e-001) (55, 2.76762806793992230000e-001) (56, 1.54727020132258100000e+000) (57, 8.08474962804715540000e-001) (58, 1.73894690932637810000e+000) (59, 8.45220018899899170000e-001) (60, 5.81943237849818270000e-001) (61, 4.23023155823220530000e-001) (62, 1.45284492849322260000e+000) (63, 6.45624176142236440000e-001) (64, 5.51812602128384010000e-001) (65, 4.19994764460797590000e-001) (66, 2.20149507697908970000e+000) (67, 1.46801882396642980000e+000) (68, 2.31102658692697330000e+000) (69, 7.84094201333190300000e-001) (0, 2.26380931952057680000e+000) (1, 1.40639020313004930000e+000) (2, 7.67936327084000720000e-001) (3, 1.46239577252733550000e+000) (4, 8.94850412205826060000e-001) (5, 1.11984844280556820000e+000) (6, 1.21570707665200910000e+000) (7, 5.76736112413029690000e-001) (8, 7.04592512901331070000e-001) (9, 8.82927743674619900000e-001) (10, -2.19250400984743670000e-002) (11, 6.49706300415850420000e-001) (12, 8.75465960780522630000e-001) (13, 1.71964022993027000000e+000) (14, 3.98549614780015330000e-001) (15, -1.36635516926617100000e-003) (16, 3.45429667956100250000e-001) (17, -6.72925166683172480000e-001) (18, -1.03831295154604150000e-001) (19, 1.17442107866144510000e+000) (20, 2.83762226451219890000e+000) (21, 2.72386521357197820000e-001) (22, 6.86790677757321940000e-001) (23, 2.03168256273003230000e+000) (24, 5.47312622252213670000e-001) (25, -5.90100867744821960000e-001) (26, 8.91606665435151440000e-001) (27, 2.98976841282708030000e+000) (28, 1.39736184183027180000e+000) (29, 7.73043955901446260000e-001) (30, 2.10064625963144850000e-001) (31, 8.74802102737293530000e-001) (32, 1.30155289681012780000e+000) (33, 2.17485258348701830000e-001) (34, 4.85581280376141730000e-001) (35, 1.62527172903308200000e+000) (36, 1.01557481005472150000e+000) (37, 1.01117113754793460000e+000) (38, 1.41123717321510390000e+000) (39, 1.24115366959854590000e+000) (40, 7.54164156809813190000e-001) (41, 1.67655189026523010000e+000) (42, 1.47673850327880140000e+000) (43, 1.24689350259400530000e+000) (44, 1.94823731871697680000e+000) (45, 1.55378534689837090000e+000) (46, 1.21692224808818690000e+000) (47, 1.42106897496002760000e+000) (48, 5.31802003141591980000e-001) (49, 1.97591684016763220000e-001) (50, 6.23630486345638170000e-003) (51, 4.85157317089281060000e-001) (52, 1.57878662910921450000e+000) (53, 9.65151703855642530000e-001) (54, 5.44070547804551900000e-002) (55, -1.89929686106891360000e+000) (56, 4.88497647867690620000e-001) (57, 7.13548956494721030000e-002) (58, -3.15439416086348180000e-001) (59, 9.16392520661418740000e-001) (60, -1.81798428437210530000e-002) (61, 1.86933647360531390000e-001) (62, 6.78773559149233540000e-001) (63, 5.15158383358300220000e-001) (64, 2.41307125811209030000e+000) (65, 2.06634629784046540000e+000) (66, 3.28613811005868280000e-001) (67, -3.38099679377831360000e-001) (68, 5.53934144038737420000e-001) (69, -2.47729197660431000000e-001) (70, -1.61057719428993380000e-001) (0, 7.25587903972296440000e-001) (1, -1.90380938206537790000e-001) (2, 8.10224777504197970000e-001) (3, 6.26787328866164510000e-001) (4, -5.12038390313130140000e-001) (5, 1.27284762221007240000e+000) (6, 6.60625846058799260000e-001) (7, 2.33238989289936780000e-001) (8, 8.27939235117116870000e-001) (9, 8.20879955782409130000e-001) (10, 5.11679671102763910000e-001) (11, -3.33380702935663130000e-001) (12, -6.55756318993546690000e-001) (13, 1.13856210060978240000e+000) (14, -3.28671934884361920000e-001) (15, 2.16926316769902120000e-001) (16, 4.15073134506208360000e-001) (17, -4.07732986076537120000e-002) (18, -1.68341529975803340000e-001) (19, -9.17961261848193380000e-001) (20, -7.25749308826064920000e-001) (21, 5.96927290328949230000e-002) (22, -3.90123639914788540000e-001) (23, -4.64465780516467590000e-001) (24, 1.04648608982468900000e+000) (25, 6.64195803956551670000e-002) (26, -5.31864619533834130000e-001) (27, -6.07539428692032370000e-001) (28, 3.16520597666362150000e-001) (29, -8.71382543547002290000e-001) (30, 7.77343954194373630000e-001) (31, -5.70075623737814730000e-001) (32, -5.68414636881236610000e-001) (33, -3.24471618298056600000e-001) (34, 6.07041299457257040000e-001) (35, -8.15644759567435980000e-001) (36, 9.18564731829071720000e-001) (37, -1.38529759236608000000e+000) (38, 1.25235297311792950000e+000) (39, -3.66844850728659020000e-001) (40, 6.94400516992579990000e-001) (41, 1.12274506764425340000e+000) (42, 8.24455346278234690000e-001) (43, -4.73602942483005050000e-001) (44, 3.75807685310981240000e-001) (45, 4.87676671662477130000e-001) (46, -2.44777950750169500000e-001) (47, 1.34156742498897170000e-001) (48, 6.11416235586240590000e-001) (49, -5.29659957756841830000e-001) (50, 3.76940078740083730000e-001) (51, -4.21121317704994220000e-001) (52, -2.09024813371984220000e+000) (53, -2.79439322357494910000e-001) (54, 7.50154156076043080000e-001) (55, 2.87955233127838940000e-001) (56, 5.77203080053547040000e-001) (57, 1.44481874662832400000e+000) (58, 1.99928297068087390000e+000) (59, 4.42264256007698090000e-001) (60, 8.17807950587089770000e-001) (61, 1.92131067490444460000e+000) (62, 2.67859115117206990000e+000) (63, 1.08601007031719870000e+000) (64, 1.42315109243716600000e+000) (65, 9.09283625809249480000e-001) (66, 1.41410805706652990000e+000) (67, 2.66620497695438850000e+000) (68, 1.01622610938974620000e+000) (69, 8.24231020505469590000e-001) (70, 1.04866460451325640000e+000) (71, 2.78918478988967320000e-001) (0, -2.40568872525692610000e+000) (1, -3.10481918686722760000e-001) (2, 3.79051237269948330000e-001) (3, 1.90529303048375180000e-001) (4, 3.33246238644047180000e-001) (5, -8.65691063120042510000e-001) (6, -4.22201221607114650000e-001) (7, 2.05855808142093620000e-002) (8, -1.30078154998347600000e-001) (9, 8.15786706063359900000e-001) (10, -6.23781702963473350000e-001) (11, 1.61390530713420880000e-001) (12, 2.65434922626578310000e-001) (13, 1.14901165090209560000e+000) (14, -4.21178619292053860000e-001) (15, -5.14505227380240520000e-001) (16, 3.42220866595390330000e-002) (17, 6.40741151833836730000e-001) (18, 1.43117588369518600000e+000) (19, 7.68134902040222390000e-001) (20, 1.04774243204367300000e+000) (21, 1.20798873225031710000e+000) (22, -1.28632263091403790000e+000) (23, 4.15250229835542270000e-001) (24, 2.10984334786647930000e+000) (25, -8.70843675606110760000e-001) (26, 4.29403331740856540000e-001) (27, -2.75662415465810850000e+000) (28, 8.12513519039046670000e-001) (29, -4.21305918490658570000e-001) (30, -1.12155088042366070000e-001) (31, 9.44497507547282460000e-001) (32, -1.24496122635040800000e-001) (33, -5.48823072858433460000e-001) (34, -8.91641133761361810000e-002) (35, 1.70397346061393530000e-001) (36, 8.37005704100871380000e-001) (37, 1.03691453295118860000e+000) (38, 9.97873830788872600000e-001) (39, 6.78354152359304740000e-001) (40, 2.76108334290025350000e-001) (41, 1.18258137394672840000e+000) (42, 9.94230810041468520000e-001) (43, 5.29969359003867880000e-001) (44, 1.02529235536143970000e+000) (45, 7.34781097444665020000e-001) (46, 6.55749443756345580000e-001) (47, -2.20301177027298930000e-001) (48, -2.55897403809891840000e-001) (49, 8.44611308819136040000e-001) (50, 7.37760244836132010000e-001) (51, -8.53675485918078180000e-001) (52, -5.36487869893518620000e+000) (53, -6.79043028095364760000e-001) (54, 3.75629694352686560000e-002) (55, -8.28302165975632220000e-001) (56, 3.22399019953523070000e+000) (57, 4.02668446065689340000e+000) (58, 1.24708308842102310000e+000) (59, 8.86810979053769930000e-001) (60, 1.70984088241183660000e-001) (61, 2.88750983174031890000e+000) (62, 1.20298747839055230000e+000) (63, 1.18553285072752560000e+000) (64, 1.47874224384335400000e+000) (65, 1.41664744959356700000e+000) (66, 1.36935209252200530000e+000) (67, 1.21184163756152330000e+000) (68, 2.62284109441134470000e+000) (69, 1.06232973779496030000e+000) (70, 1.10577105384156350000e+000) (71, 2.31698989099435430000e+000) (72, 2.83225363249561250000e+000) (0, 3.07851664466061160000e-001) (1, -5.28935180363520940000e-001) (2, 7.53998398422798030000e-001) (3, -3.04573070422963670000e-001) (4, 3.69313663015734760000e-001) (5, -2.36086578320876010000e-001) (6, -1.22849927452673480000e-001) (7, 1.16994255657434680000e-001) (8, 3.61736998672661060000e-003) (9, -9.75676159466717820000e-001) (10, 1.56467144688892810000e-001) (11, -2.79477652999701120000e-001) (12, 2.64553057330442930000e-001) (13, -1.02791798217723260000e+000) (14, -1.11239082330473350000e-001) (15, -2.31757302024488720000e-004) (16, 1.07267703067202210000e+000) (17, -4.08110312579646750000e-001) (18, 4.31196445750747450000e-001) (19, -2.65879994554450160000e-001) (20, 6.40190548934068680000e-001) (21, 2.58749805564032380000e-001) (22, -3.75894038484167680000e-002) (23, -1.85959390978660240000e-001) (24, -1.11707765731234560000e-001) (25, -2.88832640481795580000e-001) (26, -7.37569074768265750000e-002) (27, -9.46674727943647270000e-001) (28, -2.35585364055090700000e-001) (29, 3.87928727361848580000e-001) (30, 1.23711684098768730000e-001) (31, -7.16761251321063940000e-001) (32, -2.03875619311918140000e-001) (33, -1.15579599966074960000e-001) (34, -5.44125146819041780000e-001) (35, 4.68217991113031860000e-001) (36, 9.30250925621610600000e-001) (37, 8.45889429898054930000e-001) (38, 1.01559425458103570000e+000) (39, 2.57612424362694100000e-001) (40, -4.63552210201202800000e-001) (41, -3.31218160151959040000e-001) (42, -3.43181580328430160000e-001) (43, -5.77555568356612900000e-002) (44, -6.62035517010419740000e-001) (45, 8.08731880819449130000e-001) (46, -7.91682595683129930000e-001) (47, -1.16260450029269600000e-001) (48, 5.87140768363257020000e-001) (49, -1.67409579201819010000e-001) (50, -3.55791284990036980000e-001) (51, -8.83935279610784220000e-001) (52, -1.41906327770156970000e+000) (53, -4.44743410565467510000e-001) (54, 2.61421343214187470000e-001) (55, -1.02154560057431110000e-001) (56, 1.41601672236442670000e+000) (57, 1.93421240462554330000e+000) (58, 2.09671902774912630000e-001) (59, 1.14582621357888150000e+000) (60, 3.35640368045029840000e-001) (61, 1.72125698903039080000e+000) (62, 9.15486036210424900000e-001) (63, 7.63480226909380000000e-001) (64, 2.48060636438096660000e+000) (65, 1.15417866015916190000e+000) (66, 1.83692529183456220000e+000) (67, 8.65905016762482990000e-001) (68, 1.96705147706954730000e+000) (69, 8.88168493882333100000e-001) (70, 1.84084414766970460000e+000) (71, 2.04732528908304220000e+000) (72, 1.19295375402240390000e-001) (73, 2.67039397347422680000e+000) (0, 1.04291928584378750000e+000) (1, 3.30569629438997700000e-001) (2, 5.77623118312813990000e-001) (3, -7.45221746039731900000e-001) (4, 7.19263299031610130000e-001) (5, 8.47013524869709270000e-001) (6, 1.13626052743146080000e+000) (7, 6.55932485320392060000e-001) (8, 1.06892314282034160000e+000) (9, -6.03832022405384580000e-001) (10, 5.99702226766133490000e-001) (11, -3.92648922359973560000e-001) (12, 1.01824365213340730000e+000) (13, 3.14952850531174390000e-001) (14, 7.80865162317951670000e-001) (15, 5.13780142227499900000e-001) (16, 6.25778536687552460000e-001) (17, -2.54719459127478560000e-001) (18, -2.65263032412286490000e-001) (19, -5.74683957118890860000e-001) (20, 4.60808807469656860000e-001) (21, 3.99958781496881350000e-001) (22, -3.29713000945630770000e-001) (23, 2.21965928676383010000e-001) (24, 3.08420409368661050000e-001) (25, -3.87901290761713480000e-001) (26, 5.71985433989988020000e-001) (27, 3.57230541041884180000e-001) (28, -4.53635920237963480000e-002) (29, -6.85778671367995530000e-001) (30, 1.14730981998763700000e+000) (31, -3.39085940111255650000e-001) (32, 9.71369885058976700000e-001) (33, 2.83933192436444310000e-002) (34, 1.64897195637465630000e-001) (35, -1.48011054030473180000e-001) (36, 6.65345659855830940000e-001) (37, 5.22771200957122190000e-002) (38, 8.40341058917888770000e-002) (39, -7.31192353318719010000e-001) (40, 2.64037055681711990000e-001) (41, 1.10546527950752660000e+000) (42, 2.07558008469078600000e-001) (43, -3.78684255965907600000e-001) (44, 1.17634656320822770000e+000) (45, 7.04714004894728800000e-001) (46, 2.12552754140944130000e-001) (47, -2.88017763606582040000e-001) (48, -2.42221993264672700000e-001) (49, 4.34882971739881660000e-001) (50, 1.02183743350199000000e+000) (51, 5.42974390895125450000e-001) (52, -3.08900724820701630000e-001) (53, 8.28075171760032980000e-001) (54, 1.10150547969421010000e+000) (55, -5.66627570670078520000e-001) (56, 1.72793989108727700000e+000) (57, 8.20410995095065210000e-001) (58, -1.07729593053123210000e-001) (59, -1.07246265604543460000e-001) (60, 1.77005991285342330000e-001) (61, 1.67393027736002780000e+000) (62, 7.58451688748600140000e-001) (63, 1.21713583294825200000e+000) (64, 1.46400073188882510000e+000) (65, 1.99401089052610650000e+000) (66, 1.56475025978912100000e+000) (67, -8.83213877313053650000e-002) (68, 1.00262278982079050000e-001) (69, 1.66112030144005860000e+000) (70, 1.37933479874378740000e+000) (71, 1.07036052258465860000e+000) (72, -7.90024490224787490000e-001) (73, 3.18942199231081910000e+000) (74, -3.71603242950390960000e+000) (0, 1.25142137472805400000e+000) (1, 1.10483678830425270000e+000) (2, 2.06907501938273560000e-001) (3, 1.28935773159102320000e+000) (4, 6.60294494925635970000e-001) (5, 2.90739872142891820000e-001) (6, 8.26100566576513100000e-001) (7, 9.18200808154522650000e-001) (8, 3.46431040921825610000e-002) (9, 1.36745135761151380000e-001) (10, 1.33586224022307850000e-001) (11, -1.99521176463559980000e+000) (12, 1.36854917355974160000e-001) (13, -1.22168581311017350000e-001) (14, 4.05623917251177540000e-003) (15, -2.00522098853813450000e+000) (16, 4.81144547913849460000e-003) (17, -2.98308724426561380000e+000) (18, -1.17478242683752010000e-001) (19, -1.92758794855514750000e+000) (20, -1.38560732208163380000e+000) (21, 4.09729990318985440000e-001) (22, -3.92160586736654160000e-001) (23, -1.17911623598974490000e+000) (24, 3.47433694292375310000e-001) (25, -2.33380156260112460000e+000) (26, 9.71496231603397260000e-001) (27, 5.81385059995333190000e-001) (28, -4.99197399130218930000e-001) (29, -2.26631558623463650000e+000) (30, 7.58757794934707130000e-002) (31, 2.08713611514066810000e-001) (32, 8.38508117296598160000e-002) (33, 1.15155033015901680000e-002) (34, -1.34915201588586030000e+000) (35, -1.01376511917893810000e+000) (36, -2.70065356672405780000e-001) (37, 2.54022338743271460000e-001) (38, 4.05336414899663540000e-001) (39, 6.05175352436361000000e-001) (40, 5.22304362623997490000e-001) (41, -5.39470444935275660000e-002) (42, 9.24674102795704940000e-001) (43, 4.63724250722604810000e-001) (44, 1.09823530961076980000e+000) (45, -7.62380488858495740000e-001) (46, -4.36640532637086690000e-001) (47, 9.74665883192954330000e-001) (48, -3.34533970219171460000e+000) (49, 9.36723403711965050000e-001) (50, 1.46500635427550010000e+000) (51, -1.79951967905056240000e-001) (52, -1.93115244537866060000e+000) (53, -2.03250331176859850000e-003) (54, -2.63725099728298230000e+000) (55, -3.70908416159934920000e-002) (56, 1.22041432708422960000e+000) (57, 1.98762987975084540000e+000) (58, 9.41478887422078080000e-001) (59, 1.51080159718950240000e+000) (60, 7.56919860279201110000e-001) (61, 1.01758676098331140000e+000) (62, 1.61714918445232230000e+000) (63, 1.06268906622590610000e+000) (64, 2.49816897255555980000e+000) (65, 2.27661052268019270000e+000) (66, 1.44706742821660380000e+000) (67, 8.16017751748011060000e-001) (68, 5.51355919168319390000e-001) (69, 1.91146258611891520000e+000) (70, 1.50768282137190090000e+000) (71, 1.81511958531463250000e+000) (72, 1.39789318057640320000e+000) (73, 1.38157566696041380000e+000) (74, 2.56913955213018070000e-001) (75, 1.02240502462189590000e+000) (0, 5.15149354883621120000e-001) (1, 1.09444228943761130000e+000) (2, 9.14919879974870790000e-001) (3, 1.16083514555103250000e-001) (4, -1.34856659018223050000e-001) (5, 1.62846138924979180000e-001) (6, -8.05247758340186660000e-002) (7, 1.89742518636780040000e+000) (8, -2.13295866695107030000e-001) (9, 9.62044406448004150000e-001) (10, 1.16772029512121020000e+000) (11, 2.66763201291919990000e-001) (12, 1.34037905464214460000e+000) (13, 8.43766955012890450000e-001) (14, 2.47262618583081850000e-001) (15, -4.89455123809671320000e-001) (16, 1.45838490180436580000e+000) (17, 1.16457921087070200000e+000) (18, 6.87445649923436150000e-001) (19, 1.48328808280299820000e+000) (20, 4.67219476029693580000e+000) (21, 1.05096775405763120000e+000) (22, -8.40771346254981400000e-001) (23, 1.78318651988703970000e-001) (24, 6.90401982644484160000e-001) (25, 1.02886305436563760000e+000) (26, 7.79241610158345590000e-001) (27, 1.36084533716688210000e+000) (28, 5.29888139716609640000e-001) (29, 8.80235650377819590000e-001) (30, 6.26931820973014140000e-001) (31, 4.42101333370546910000e-001) (32, 1.26064525204714340000e+000) (33, 2.09322311220817460000e-001) (34, 4.16764509520377860000e-001) (35, 1.98874718911009190000e+000) (36, 1.77984508970115750000e+000) (37, 1.63090786754642520000e+000) (38, 9.01426189672238980000e-001) (39, 4.41343850214184970000e-002) (40, 8.89687423883916200000e-001) (41, 1.65540134309270840000e+000) (42, 3.36939091654531340000e-001) (43, 1.64674159783902760000e+000) (44, 1.62955039985394290000e+000) (45, -1.71362289617427300000e-001) (46, 4.11797778403015960000e-001) (47, 1.69230841871084790000e+000) (48, 6.12793567763460500000e-001) (49, -2.12181053569935690000e-005) (50, 1.05063864718415220000e+000) (51, 1.15018539036686020000e+000) (52, 3.32851835110851040000e-001) (53, -4.92640485162122440000e-002) (54, 1.34690210997767770000e+000) (55, 1.29579740315097340000e+000) (56, 1.60538768899998300000e+000) (57, 1.27200626431963900000e+000) (58, 2.06879817692878550000e+000) (59, 1.44463227516836820000e+000) (60, 3.76299076792737890000e-001) (61, 1.17841972211483140000e+000) (62, 1.49254396290945790000e+000) (63, 1.93991293326612690000e+000) (64, 7.64255664157635570000e-001) (65, 1.32531466012171210000e+000) (66, 8.34467469890859960000e-001) (67, 1.75580266179132470000e+000) (68, 1.17566143288588120000e+000) (69, 2.33940534562826840000e+000) (70, 6.07325559199871300000e-001) (71, 1.36106113501598780000e+000) (72, 2.32548316379126960000e+000) (73, 1.13701219749816020000e+000) (74, 4.49913077536269300000e-001) (75, 2.20033380831029830000e+000) (76, 5.10018124222927470000e-001) (0, -2.88795228276185640000e-001) (1, -4.27728531148359290000e-001) (2, 1.03469912229225810000e+000) (3, 8.21695361336269190000e-001) (4, 5.44680455567531530000e-001) (5, -1.22346084555787770000e-001) (6, -1.30876405012868540000e-001) (7, 4.15834820369882400000e-001) (8, -3.39047815243209930000e-001) (9, 4.80161340782460420000e-001) (10, 1.05966977755637860000e+000) (11, -7.88422991712922210000e-002) (12, 1.58015153726255330000e-001) (13, 2.05611609391732090000e+000) (14, -3.15574408233414980000e-001) (15, 2.60024387472916970000e-002) (16, 7.31210541372642960000e-001) (17, 1.30075155194755520000e+000) (18, 2.95817456560933780000e-001) (19, 7.14456929259471800000e-001) (20, 2.36898294107612720000e+000) (21, 9.48662199023165400000e-001) (22, -1.01600466292195860000e+000) (23, -5.32307456517808420000e-001) (24, 1.60318841946525190000e+000) (25, 7.54623702213579440000e-001) (26, 2.60286877807730020000e-001) (27, 1.39688970116237670000e+000) (28, 1.32277963256252520000e-001) (29, 5.34135945582322330000e-002) (30, 1.83693425464941560000e+000) (31, 3.68296154274399660000e-001) (32, 8.67982208858693260000e-001) (33, 1.22989149158870670000e-001) (34, 1.46937089379737110000e+000) (35, -2.95567408398629440000e-001) (36, 1.25078759319335050000e+000) (37, 7.88208756899181240000e-001) (38, 6.32587224598227800000e-002) (39, 2.17777992302180510000e-001) (40, 1.14717985084901540000e+000) (41, 1.15636018260450310000e+000) (42, 2.78442804601623410000e-001) (43, 1.46168646112967490000e+000) (44, -2.32630431813204390000e-001) (45, -9.38842009614593740000e-001) (46, 8.45898054146191350000e-001) (47, 2.86018183253004880000e-001) (48, 4.54256254212799190000e-001) (49, 8.61369802069775540000e-001) (50, 4.09691001600972330000e-001) (51, 3.43290940064280180000e-001) (52, 7.73646012444723780000e-002) (53, 5.95278415681599230000e-001) (54, 5.47112710454317200000e-001) (55, -1.33670977118997160000e+000) (56, 1.64094300306575520000e+000) (57, 1.10989170665379990000e+000) (58, 1.02254732480197160000e+000) (59, 1.64224838938477260000e+000) (60, 1.02627081600349810000e+000) (61, 1.74942191054231340000e+000) (62, 1.20393044951868380000e+000) (63, 1.63200354144590070000e+000) (64, 1.94647038116097320000e+000) (65, 1.03688693044330620000e+000) (66, 8.23299771348847130000e-001) (67, 9.32308186179743200000e-001) (68, 7.07550553480704840000e-001) (69, 2.39698838898710240000e+000) (70, 1.88764047186794310000e+000) (71, 1.05641309079076300000e+000) (72, 2.53572053530604660000e+000) (73, 1.65075526573507100000e+000) (74, 1.10698841548179590000e+000) (75, 1.31769299678106220000e+000) (76, 5.09371411113099460000e-002) (77, 1.24889940642530850000e+000) (0, -3.14834649623151500000e-001) (1, 1.16242186695263430000e+000) (2, 1.69565417629927010000e+000) (3, 1.32368389252906840000e+000) (4, 1.22289139822597100000e+000) (5, 6.48130409856736310000e-001) (6, 5.80541704316334450000e-001) (7, 6.76977680567421140000e-001) (8, 1.30585049286099180000e+000) (9, 1.80624926069823030000e+000) (10, 1.15128240629563420000e+000) (11, 1.71115057898197120000e+000) (12, -3.41295132607158450000e-002) (13, 1.49817275797053040000e+000) (14, 1.01497312245147240000e+000) (15, 3.91832292367963460000e-001) (16, 1.47717394938048090000e-003) (17, 1.58750478826236960000e+000) (18, -6.52897922909066870000e-002) (19, 4.68941169993773390000e-001) (20, 3.51447424784279990000e+000) (21, 3.73823436523624210000e-001) (22, -7.60335700469971610000e-003) (23, 8.60631622182232990000e-001) (24, 9.75588987120053930000e-001) (25, 1.19433820495933410000e+000) (26, 5.66886890074667640000e-001) (27, 2.36717047100338100000e+000) (28, -4.20960080987709470000e-002) (29, 2.99941336603283090000e-001) (30, 1.35012940596059970000e+000) (31, 6.61081712486865200000e-001) (32, 1.85983514478273410000e-001) (33, 3.81820416351725700000e-001) (34, 1.37504766313087550000e+000) (35, 1.20625990441732170000e+000) (36, 1.02828475461201930000e+000) (37, 1.70856875917742480000e+000) (38, 6.93218088933518910000e-002) (39, 1.25851201613111960000e+000) (40, 7.22260059293610370000e-001) (41, -2.73376057411309100000e-001) (42, 1.10229824204789660000e+000) (43, 1.55094076180894810000e+000) (44, 7.91517251934293480000e-002) (45, 1.47818740312886690000e+000) (46, 1.07915669358727230000e+000) (47, 1.30991027129492330000e+000) (48, 9.23527856365205290000e-001) (49, 5.35491649592138690000e-001) (50, 3.85914516225818130000e-001) (51, 1.83753794852919580000e+000) (52, 3.45034496539453660000e+000) (53, 1.66653477935804940000e+000) (54, 8.31460731803042140000e-001) (55, -1.87360881775429530000e+000) (56, 8.98253471920094640000e-001) (57, -6.48069263918537030000e-001) (58, 1.78325289844960790000e-001) (59, 4.82180611727096640000e-001) (60, 1.11188590481132650000e+000) (61, 1.15705336105749290000e+000) (62, -2.62052464015127440000e-001) (63, 1.45657669302455890000e+000) (64, 2.46139798031022080000e+000) (65, -2.53186264999371300000e-001) (66, 1.23575693927706730000e+000) (67, 1.36688673776372150000e+000) (68, 1.07661509172613970000e+000) (69, 9.99774700256253260000e-001) (70, 7.25115274224677030000e-001) (71, -7.58131363798516640000e-001) (72, 4.36685325303055260000e-001) (73, 1.90096182293230180000e+000) (74, 6.65793047695710130000e-001) (75, -3.49643730884186540000e-001) (76, -5.55300999358356310000e-001) (77, 2.78250614681049010000e+000) (78, 6.48189491929353630000e-002) (0, 7.80442313468485140000e-001) (1, 1.00489670549709360000e+000) (2, 1.48505570418624240000e+000) (3, 1.39254188798964580000e+000) (4, 6.53400504897726390000e-001) (5, -3.94173970919064980000e-001) (6, 6.52371776459185090000e-001) (7, 7.71575684275157440000e-001) (8, 1.58727780966545580000e+000) (9, 1.48397012796500330000e+000) (10, 1.21797208332995920000e+000) (11, 1.99692798174312370000e-001) (12, 1.52980967330085320000e-001) (13, 9.50400557970640710000e-001) (14, 6.63302016118686330000e-001) (15, 3.44209025632589980000e-002) (16, 1.09700902376198210000e+000) (17, 9.97813776150733160000e-002) (18, -5.51091665254234000000e-002) (19, 9.43856707667332370000e-002) (20, 3.93264324827380880000e-001) (21, 9.37622486747758280000e-001) (22, -1.75949332940443970000e+000) (23, 3.70978736932129850000e-001) (24, 5.33297489411999500000e-001) (25, 1.25096953088766760000e+000) (26, 4.42956197421549850000e-001) (27, -1.97771173750260100000e-001) (28, -6.09073307841081710000e-001) (29, 7.73935046839252410000e-001) (30, -2.36687764578602660000e-001) (31, 1.17733716869004360000e+000) (32, 1.53720682465951520000e+000) (33, -1.52029725827743360000e-003) (34, -6.74321708044661850000e-001) (35, 5.48257745634256220000e-001) (36, -8.96060575834333460000e-002) (37, 4.31380771161592040000e-002) (38, 1.50627322823115660000e+000) (39, 4.55105650624181350000e-001) (40, 1.57366238870032230000e+000) (41, -3.83243731259563740000e-001) (42, 1.44229917845936990000e+000) (43, 2.59076035299367460000e-001) (44, 1.03325848082909940000e+000) (45, -1.86490752206291580000e-001) (46, -2.04623308373120540000e-001) (47, -5.91299775916475580000e-002) (48, 1.12554701716340120000e+000) (49, -1.73961789543819410000e-001) (50, 1.53844745165180700000e+000) (51, 1.07215727491144210000e+000) (52, -9.04944343853674950000e-001) (53, 1.18126870200790690000e+000) (54, -1.17597127737331200000e+000) (55, -1.05686052417717310000e+000) (56, 2.21361582646469430000e+000) (57, 1.02194735620145490000e+000) (58, 5.00042022307491170000e-001) (59, 1.70233444993123380000e+000) (60, 4.46612439030752710000e-001) (61, 1.90338756329528460000e+000) (62, 7.31310048207387870000e-001) (63, 2.16588544807859450000e+000) (64, 2.32195044757013490000e+000) (65, 1.96883243237137750000e+000) (66, 3.63097428702462140000e-002) (67, 1.46307640242220980000e+000) (68, 2.43638209633709170000e+000) (69, 1.83820170186161060000e+000) (70, 2.04307888588577140000e+000) (71, 8.43384577286365870000e-002) (72, 8.41459982571469150000e-001) (73, 1.53772398847407030000e+000) (74, -1.97229992583259910000e-001) (75, 6.84624249072623200000e-001) (76, -6.96683166157598680000e-002) (77, 1.74335562592909170000e+000) (78, 1.65135628942877840000e-001) (79, -2.72326181143112410000e-002) (0, 8.16380353237700640000e-002) (1, 1.25167483332556650000e+000) (2, 9.40712871070033320000e-001) (3, 3.84931900665876180000e-001) (4, 5.37871396689339920000e-001) (5, 4.25145272569395330000e-001) (6, 7.20279251643702770000e-001) (7, 1.40177233912297190000e-001) (8, 1.32034437156633900000e+000) (9, 1.91779032738892960000e-001) (10, 5.64894782608504790000e-001) (11, 1.03748596938896750000e+000) (12, 1.37456689786272100000e+000) (13, 8.69010880554871300000e-001) (14, 3.98765300600686770000e-001) (15, 1.09477785925648670000e+000) (16, 4.71379688414077120000e-001) (17, 2.28759476056336700000e-001) (18, 3.33499650148642510000e-002) (19, 7.33583094371941140000e-004) (20, 1.21438837334725450000e+000) (21, 2.48115222069878290000e-001) (22, -4.81202289645269400000e-001) (23, 1.02120331860324500000e+000) (24, 1.08504757592684120000e+000) (25, 1.18495371620170230000e+000) (26, -2.05175186265960650000e-001) (27, -4.86145047014158890000e-001) (28, 8.58382192207480690000e-001) (29, 7.22603101971412700000e-002) (30, 1.64123795741571850000e-001) (31, -3.18133908573981110000e-001) (32, 1.40435696376884800000e+000) (33, 1.42453324608539030000e-003) (34, 9.09535178756780800000e-001) (35, 3.00221872843810580000e-001) (36, 9.77323124850996930000e-001) (37, 1.37540539817868910000e+000) (38, -4.32332499203724130000e-001) (39, 5.69076973286470780000e-001) (40, 1.15406893704134480000e+000) (41, -4.28600698291077550000e-001) (42, -5.55288905135924550000e-001) (43, 1.16822404395138360000e+000) (44, 1.24571739038217740000e+000) (45, 7.28587923204056630000e-001) (46, 2.94558547422619670000e-001) (47, 7.63902717484640340000e-001) (48, 6.99157928535964760000e-002) (49, -2.68519307417548540000e-001) (50, -2.17779623160875370000e-001) (51, -2.33774954092908050000e-001) (52, 6.89095190489152240000e-001) (53, 6.45937893172872760000e-001) (54, 1.34853622232227060000e+000) (55, -8.59623703701757450000e-001) (56, 1.75787132480194420000e+000) (57, 1.17867130662309800000e+000) (58, 4.21605980799379780000e-001) (59, 7.83611494447634890000e-001) (60, 8.25565127815899640000e-001) (61, 9.46655233834638340000e-001) (62, 2.55615521761525380000e+000) (63, 8.19082286582855200000e-001) (64, 1.20068763620077100000e+000) (65, 2.18767206147476220000e+000) (66, 2.06202935607434810000e+000) (67, 1.64116972576652650000e+000) (68, 9.09415039912569780000e-001) (69, 3.14432003399859490000e-001) (70, 3.58439084905709910000e-001) (71, 1.82214148079876150000e+000) (72, 1.31056284374815530000e+000) (73, 1.14805511321801610000e+000) (74, -1.86255895003167000000e-001) (75, 3.38364364608676750000e-001) (76, -9.95520597916090600000e-001) (77, 2.00389654475653870000e+000) (78, 1.87355110436581400000e-001) (79, 4.34578378667322750000e-002) (80, -1.38370944532219930000e-001) (0, -8.18757850989879770000e-002) (1, 1.07382941775785490000e+000) (2, 6.53406709124755400000e-001) (3, 8.78354857268908050000e-001) (4, 1.62213684764055270000e+000) (5, 1.51121552644828650000e+000) (6, 8.55754556548103120000e-002) (7, 1.38300887739814550000e+000) (8, 7.78665866450416690000e-001) (9, 1.18289855658139760000e+000) (10, 2.05605138571190370000e-001) (11, 5.64435080679288160000e-001) (12, 1.03720903293062320000e+000) (13, 1.72444965819363420000e+000) (14, 1.31720683496741310000e+000) (15, 7.14853828341018880000e-003) (16, 1.27600984806119520000e+000) (17, 8.35873549638510710000e-002) (18, 4.37697045643757170000e-001) (19, 8.90001352159736910000e-002) (20, 2.34887163554691190000e+000) (21, 6.46889045941022030000e-001) (22, -4.51595670228649050000e-001) (23, 3.85010313325866600000e-001) (24, 5.52793532750820370000e-002) (25, 5.80460407236416120000e-001) (26, 2.75782225114435840000e-001) (27, 1.25428528154211620000e+000) (28, 7.33192547941761920000e-001) (29, 3.36912409972033810000e-001) (30, 1.85754545427109430000e+000) (31, 1.43253615351386760000e+000) (32, 4.33772564720760150000e-001) (33, -9.37117807345561470000e-002) (34, -9.59591797472033880000e-002) (35, -4.26056477311898720000e-001) (36, 1.99037286477461770000e+000) (37, 3.52879178027630690000e-001) (38, 1.05464252084556700000e+000) (39, 1.62099290643302110000e+000) (40, 1.21567080667654710000e+000) (41, 1.71280671514752640000e+000) (42, 4.15180136723865500000e-001) (43, -1.29472315107074490000e-001) (44, 2.94635369326618550000e-001) (45, 1.85070772995993750000e-001) (46, 9.28575594153420060000e-001) (47, 1.48990390605242310000e+000) (48, 1.60928843415816570000e+000) (49, 9.84863572562534650000e-001) (50, 1.53313220429707960000e-001) (51, 9.78152475436848580000e-001) (52, 1.08359382254508960000e-001) (53, 1.04275972970377260000e-001) (54, 8.12058443686866080000e-001) (55, -1.48201977630315620000e+000) (56, 4.68216678369865690000e-001) (57, 2.06496772757096150000e+000) (58, 1.65692193810367480000e+000) (59, 2.74898877457974480000e-001) (60, 4.20185050529037650000e-001) (61, 8.59323398330023690000e-001) (62, 9.81222543440884000000e-001) (63, 6.64831901068458460000e-001) (64, 1.00258401340518780000e+000) (65, 3.12496836329818170000e-001) (66, 1.61040424578338710000e+000) (67, 4.45218764502601170000e-001) (68, 4.57703554199900890000e-001) (69, 2.08342929093087160000e+000) (70, 4.75673134433850120000e-001) (71, 9.06115632194835600000e-001) (72, 1.64487713497220240000e+000) (73, 1.21609861095129520000e+000) (74, 5.46677969278827720000e-001) (75, 1.97646276953019860000e+000) (76, 5.08669942017612950000e-001) (77, 5.72224475498797180000e-001) (78, 1.03117058872217250000e+000) (79, 1.24280228348424670000e+000) (80, -3.06089727291710800000e-001) (81, 8.47611733402904080000e-001) (0, 2.35543475833070860000e-001) (1, 2.77220619541459490000e-001) (2, 5.25159668629910480000e-001) (3, 4.07107762458600700000e-001) (4, -1.36939369429696670000e-005) (5, 1.21336158510994310000e+000) (6, 1.34878954860787510000e+000) (7, 5.29199099674862010000e-001) (8, 9.24886059642347070000e-002) (9, 1.16555590056405080000e+000) (10, 9.23969894154268000000e-001) (11, 1.64454449800176780000e+000) (12, -2.87105513797449750000e-001) (13, 1.80570111429806750000e+000) (14, 8.55914229502651500000e-001) (15, 8.60887118262252620000e-001) (16, 9.02597864847821560000e-001) (17, 2.79116025405878710000e-001) (18, 4.06912053271890230000e-001) (19, 5.35479899094447930000e-001) (20, 1.27540575099717060000e+000) (21, 1.52497649959876870000e+000) (22, -1.92806259210930060000e+000) (23, 1.03904933234340380000e+000) (24, -3.73580160361209220000e-001) (25, 7.01743089603668710000e-001) (26, 1.63925862169743140000e+000) (27, 1.42525524904358460000e+000) (28, 5.67772608737762490000e-002) (29, -8.53799368612162550000e-001) (30, 7.76860894006950910000e-001) (31, 3.52808914600751090000e-001) (32, 1.60579342415176240000e+000) (33, -6.19536011199947330000e-002) (34, -1.20726694516580600000e+000) (35, 5.39428712201302730000e-001) (36, 1.27521260554667700000e+000) (37, -1.72958308510826660000e-001) (38, -3.23571844596607480000e-001) (39, 5.78441745610305260000e-001) (40, 7.80597726491670250000e-001) (41, -1.90076725487323350000e-001) (42, 9.00240794148977510000e-001) (43, 2.68844960523985100000e-001) (44, 1.66564717205356020000e+000) (45, -3.34433518728135930000e-001) (46, 1.86763502152735960000e-001) (47, -3.10731101314033590000e-001) (48, 7.81140141284035860000e-001) (49, 1.37398095380658660000e+000) (50, 2.12604551229156070000e+000) (51, 5.94400383718585720000e-001) (52, -1.27424250536578800000e+000) (53, 1.18297104223309150000e+000) (54, 1.21096416059875690000e+000) (55, -1.60710937495141380000e+000) (56, 2.18988455575661730000e+000) (57, 1.92880056014963760000e+000) (58, 5.87091859864715960000e-002) (59, 1.47995081180623010000e+000) (60, 2.29443773650372660000e-001) (61, 2.02715092321063040000e+000) (62, 2.34157145174268160000e+000) (63, 4.70191514653749420000e-001) (64, 1.50475564812721200000e+000) (65, 4.54189096274712270000e-001) (66, 1.18952059331690310000e+000) (67, 1.68562849438186090000e+000) (68, 3.52803432116531420000e-001) (69, 1.70004922450511130000e+000) (70, 1.46927877914586860000e+000) (71, 1.18591261712476030000e+000) (72, 1.65952392048979290000e+000) (73, 1.84122660747053500000e+000) (74, 1.65971720492865770000e+000) (75, 2.80939459484718320000e-001) (76, 8.74990937422930990000e-001) (77, 1.46096049941954350000e+000) (78, 1.48976432494685620000e+000) (79, 5.67446084656014980000e-001) (80, 8.20782897234087590000e-001) (81, 1.82700092255060630000e+000) (82, 6.87932059587685880000e-001) (0, -1.08644955218380220000e+000) (1, 7.60677229987700600000e-001) (2, 1.97337785591543880000e-001) (3, -8.50950276981937840000e-002) (4, 4.45551473789159940000e-001) (5, 4.86353490386563670000e-001) (6, -1.08884185643623690000e-001) (7, 3.06620212617340290000e-001) (8, -6.81134970450912310000e-001) (9, 4.53674600892477460000e-001) (10, 1.14817129303873740000e-001) (11, -3.05643905849389270000e-001) (12, -2.13969083884953640000e-001) (13, 9.52886548842351160000e-002) (14, 1.20441916532210120000e+000) (15, -1.17798274751780530000e+000) (16, 2.99149708638529740000e-001) (17, 2.72782345453013000000e-001) (18, 4.27985666895744910000e-001) (19, 9.36219565120151920000e-001) (20, 1.86628809764533980000e+000) (21, 5.10198059900363820000e-001) (22, -3.58515742361608210000e-001) (23, 1.66505300497907530000e+000) (24, 1.84199483189839590000e+000) (25, 7.94313309973375900000e-001) (26, -3.68979662842994160000e-001) (27, -1.14858174513692070000e+000) (28, 5.93404252265787410000e-001) (29, 7.05336704316682830000e-001) (30, 1.19633264163928740000e+000) (31, 1.25643883363360960000e+000) (32, 8.69759222517964560000e-001) (33, 3.03001744693144270000e-002) (34, 1.86738770734171500000e-001) (35, -2.54481679129280210000e-001) (36, 1.14787259520514360000e+000) (37, 7.22533417825815820000e-001) (38, 8.57252185549364550000e-001) (39, 1.52127856490685100000e+000) (40, 1.41581387779653120000e+000) (41, 3.39306128818784640000e-001) (42, 1.66005723907319130000e-001) (43, -2.46228592623855410000e-002) (44, 1.56112759597810040000e+000) (45, 3.25146721761749470000e-001) (46, 9.75463936010011330000e-002) (47, 7.71694447206273120000e-001) (48, 8.85111071076344680000e-001) (49, 6.92791096338546960000e-001) (50, 1.27862197219687920000e+000) (51, 1.60090513107926640000e+000) (52, -2.80239611582969010000e-001) (53, 1.14542276322160340000e+000) (54, -3.08764337151945790000e-001) (55, -8.37515792958660850000e-001) (56, 7.90522913160261580000e-001) (57, 7.64792929078442100000e-001) (58, 7.40560034887092660000e-001) (59, 1.30452764060512690000e+000) (60, 7.73181481825812260000e-001) (61, 1.55907191372520670000e+000) (62, 1.01455478341763670000e+000) (63, 7.26633151034811410000e-001) (64, 1.29023695939987790000e+000) (65, 3.42978473613995970000e-001) (66, 9.16883850389651920000e-001) (67, 4.34202480369506320000e-001) (68, 1.63365202608737910000e-001) (69, 2.02463992973766070000e+000) (70, 8.36371478580845710000e-001) (71, 6.52411672641522220000e-001) (72, 5.02512660430255220000e-001) (73, 1.55750698354187310000e+000) (74, 9.09736518570435910000e-001) (75, 6.60737736998871950000e-001) (76, -6.04357616142781830000e-001) (77, 1.72293548397767000000e+000) (78, 2.01040175214135040000e+000) (79, 1.95288149054841570000e-001) (80, 1.85376163385925200000e+000) (81, 1.28134777583957660000e+000) (82, 1.37731359218438220000e+000) (83, 1.95571718368695650000e+000) (0, 2.36393146662486720000e+000) (1, 4.20775930261747920000e-001) (2, 4.34193806121634330000e-001) (3, 1.28739008555845080000e+000) (4, 7.85896975295194870000e-001) (5, 1.98189417934468560000e+000) (6, 1.80346223401562030000e+000) (7, 5.10443466056180630000e-001) (8, 6.27605603353105890000e-001) (9, 1.00651781876063630000e+000) (10, 5.16900697740537370000e-001) (11, 1.04372369267500490000e+000) (12, 1.82829820616012160000e+000) (13, 1.06569699298594460000e+000) (14, 7.36289540024749440000e-001) (15, 5.78355337436782800000e-001) (16, 2.63364372154993950000e+000) (17, 8.84515434875966620000e-001) (18, 1.35019613016163210000e+000) (19, 1.64306886423320230000e+000) (20, 9.16413382655383480000e+000) (21, 1.58382301002172230000e+000) (22, 1.06578914152520950000e-001) (23, 1.52720566244408350000e+000) (24, 3.03260134848694350000e-001) (25, 5.95042041427363500000e-001) (26, 1.90555301020710170000e+000) (27, 2.72176512252808630000e+000) (28, 1.42091921396868080000e+000) (29, 7.19023558054807780000e-001) (30, 1.69786241528944480000e+000) (31, 1.86243105529591360000e+000) (32, 9.55104130970589550000e-001) (33, 8.86191429455940040000e-002) (34, 1.78772070049812730000e+000) (35, 1.32624694973322480000e+000) (36, 6.63716894147959980000e-001) (37, 1.90249890194702660000e+000) (38, 8.98529721695972120000e-001) (39, 1.19894822111660340000e+000) (40, 1.66638056958168470000e+000) (41, 8.18151484573767960000e-001) (42, 1.46014523725448830000e+000) (43, 6.79457094675903650000e-001) (44, 1.64883411653414090000e+000) (45, 2.35369364667754820000e+000) (46, 1.51433281284249110000e+000) (47, 1.71599433468077200000e+000) (48, 3.62572965730097120000e-001) (49, 9.76392107094448240000e-001) (50, 2.14583599970680130000e+000) (51, 1.75662868654313220000e+000) (52, 4.53023139475723190000e+000) (53, 1.30910456999153870000e+000) (54, 1.79796313764515810000e+000) (55, 2.30482632624175880000e+000) (56, -4.93525338513250090000e-001) (57, 9.04686541984224710000e-001) (58, 1.39462125179548660000e+000) (59, 9.21953109910674700000e-001) (60, 1.25823862364907750000e+000) (61, 6.18041880421903890000e-001) (62, 1.09111292028315910000e+000) (63, 5.95076669815559840000e-001) (64, 7.90052583039511310000e-001) (65, 7.32571795142540560000e-001) (66, 1.00967613208233860000e+000) (67, 1.76993720546695490000e-001) (68, 7.67315749363140180000e-001) (69, 1.86700714551660510000e+000) (70, 1.70182500507640990000e+000) (71, 9.75517965141500580000e-001) (72, 4.24417419607800990000e-001) (73, 1.82412341555562030000e+000) (74, 1.32496331866556180000e+000) (75, -9.90087569648831630000e-002) (76, 2.87836087968234290000e-002) (77, 2.29645844943104290000e+000) (78, 8.34243214501350640000e-001) (79, 1.34513890211986060000e-001) (80, 5.38533873435392500000e-001) (81, 1.77272041647071350000e+000) (82, 1.81968298198031600000e+000) (83, 4.98602790948518950000e-001) (84, -8.24456785497845390000e-003) (0, 7.71255721154892490000e-001) (1, 5.88122894797463490000e-001) (2, -3.56465023302832700000e-001) (3, -1.99743725971445550000e-001) (4, 1.01478178086026080000e+000) (5, -2.76619782446602900000e-001) (6, 7.61949276063289550000e-001) (7, 8.93238863695926090000e-001) (8, -9.11191056362862680000e-001) (9, -7.62920546077027860000e-001) (10, 1.00580968023049850000e+000) (11, -9.42515132784969790000e-001) (12, 3.58075652750896920000e-001) (13, 5.28762903910467870000e-001) (14, 2.47828545731947600000e-001) (15, 2.58519951921888090000e-002) (16, 1.28111472214118630000e-002) (17, 3.04178501485778300000e-001) (18, 2.63474131642954800000e-001) (19, 9.38471129597577170000e-001) (20, 1.57582540797793300000e+000) (21, 6.56447534039720230000e-002) (22, -3.72061290635160510000e-002) (23, 7.57853059808738740000e-001) (24, 3.59843305434204290000e-001) (25, 1.16283230011326500000e+000) (26, -7.42002083170746780000e-001) (27, -4.45171753511534040000e-001) (28, 8.20408756820405620000e-002) (29, 9.39832236373847940000e-001) (30, 4.90893541558718620000e-001) (31, 5.65458607910956480000e-001) (32, 9.96920641110523450000e-002) (33, 1.00378601818552310000e-001) (34, 3.08183532681404970000e-001) (35, 9.81336270222316730000e-001) (36, 7.20638884674456030000e-001) (37, 1.02181575876870710000e+000) (38, 9.89414618648054360000e-001) (39, 7.72986896262493510000e-001) (40, 7.50459823458270230000e-001) (41, 8.37147097888275570000e-001) (42, -8.94016491250029240000e-001) (43, -7.93709697159017850000e-001) (44, -6.54868053600610180000e-001) (45, 9.43445474880288850000e-001) (46, 6.67903588167148230000e-001) (47, 6.66741733409337290000e-001) (48, -1.41190269574766710000e-001) (49, -7.61758691319216920000e-001) (50, 1.19773305446339130000e+000) (51, -4.46896051952451190000e-001) (52, -4.73098009320755300000e-001) (53, -1.49323252879443310000e-001) (54, 1.01445904342753560000e+000) (55, -3.16316486671810120000e-001) (56, 5.40748322249347880000e-001) (57, 6.10948963496925510000e-001) (58, 6.35181295064759290000e-001) (59, 2.11969083116825050000e+000) (60, 1.64065832946140340000e+000) (61, 1.94611662517032590000e+000) (62, 1.98031736994146470000e+000) (63, 2.30392457558249000000e+000) (64, 6.49983780161145660000e-001) (65, 8.15603963253787920000e-001) (66, 1.32675550920405820000e+000) (67, 1.53731885918163180000e+000) (68, 4.56277554525093330000e-001) (69, 1.96667563640892630000e-001) (70, 1.69223282688975750000e+000) (71, 1.06430177450909490000e-001) (72, 1.10372504449680230000e+000) (73, 3.21843037861991600000e+000) (74, -7.44961240137104960000e-001) (75, 1.85857275156822570000e-001) (76, -7.41667924794228830000e-001) (77, 2.96893923633424570000e+000) (78, -1.26019953166141700000e-001) (79, 1.73678588372080310000e-001) (80, 2.13971717875882040000e-001) (81, -5.54915330003493690000e-001) (82, 1.82075600128531690000e-001) (83, 1.51715145721208320000e+000) (84, -1.36545483476561570000e+000) (85, -3.15198236214552060000e-001) (0, 3.70727716270258520000e-001) (1, 1.04900656188434650000e+000) (2, 1.62904223755791740000e+000) (3, -1.23400477476786160000e-001) (4, 1.41655839689807460000e+000) (5, 1.22306247391421770000e+000) (6, 1.29591407642616390000e+000) (7, 1.32174797802614470000e+000) (8, 8.87222366574410560000e-001) (9, 9.19578714868442560000e-001) (10, 1.26226541959218870000e+000) (11, 1.27277047350227600000e+000) (12, 1.14956502386227210000e+000) (13, 5.85828586922691690000e-001) (14, 1.36811983139811040000e+000) (15, -1.22073723410254690000e-001) (16, 1.57755946315997610000e+000) (17, -8.80576568591951850000e-002) (18, 7.53605405934303360000e-001) (19, -1.35915417840069610000e-001) (20, 3.60089052031044470000e+000) (21, 9.10062458051748680000e-001) (22, -7.99953507704219020000e-001) (23, 1.24915172014130600000e+000) (24, 4.70497602271043370000e-001) (25, 8.84963959629039070000e-001) (26, 4.60876322250414530000e-001) (27, -3.33015230410801720000e-001) (28, 7.18933968417074240000e-001) (29, 3.66809604483395390000e-001) (30, 1.66123454782367430000e+000) (31, 6.69469382979197560000e-001) (32, 9.57425380712414340000e-001) (33, -1.59345492628505390000e-001) (34, -1.57151833344292560000e-001) (35, 2.50184210133406190000e-001) (36, 1.52609413968199360000e+000) (37, 7.32309739997389690000e-001) (38, 1.14820874402827310000e+000) (39, 1.20052239476823440000e+000) (40, 1.40958324346607980000e+000) (41, -3.12440052434646230000e-001) (42, 7.21497274350588860000e-001) (43, 1.57860154468395470000e+000) (44, 8.02809479636528710000e-001) (45, 3.65042094004919710000e-001) (46, 9.68017280368406510000e-001) (47, 8.00414976230633540000e-002) (48, 6.03206410149945210000e-002) (49, 1.22874593226621350000e+000) (50, 1.55023742554462140000e+000) (51, 4.08002878434820860000e-001) (52, 4.83437264218341050000e-001) (53, 5.05523790029042130000e-001) (54, 5.13059766554659900000e-001) (55, -1.84167785764551530000e+000) (56, 9.33801191523011780000e-001) (57, 2.46168562333490830000e+000) (58, 2.11350921452116620000e+000) (59, 1.59696035202954880000e+000) (60, 1.59560407219554980000e+000) (61, 3.52452523022059700000e-001) (62, 9.15179484623643070000e-001) (63, 2.18459282449270600000e+000) (64, 1.21094116067970760000e+000) (65, 2.06078385107479710000e+000) (66, 1.35926425312731540000e+000) (67, 1.57880400007155640000e+000) (68, 1.92702882554089540000e+000) (69, 1.71021780636305580000e+000) (70, 2.08849071054077620000e+000) (71, 2.27545608786152040000e-001) (72, 9.77439187479597240000e-001) (73, 1.75829695082930270000e+000) (74, 6.79251378261817580000e-001) (75, 8.98717343391438940000e-001) (76, 9.09147208594779930000e-001) (77, 1.60213101565741820000e+000) (78, 1.15311616738419030000e+000) (79, 1.17033800539582320000e+000) (80, 2.11930460923653640000e+000) (81, 1.87315756068904160000e-001) (82, 1.44723513709997230000e+000) (83, 1.39698819848800950000e+000) (84, 1.17343807358782090000e+000) (85, 1.88951153249164520000e+000) (86, 6.60399079118554330000e-001) (0, -2.73705826878519690000e-001) (1, 1.27347999342774600000e-001) (2, -3.20717633190806820000e-002) (3, -3.88068306693284180000e-001) (4, 1.43617972733353860000e+000) (5, -7.64506275719122570000e-003) (6, -1.87097304715834110000e-001) (7, 6.85737204515490690000e-001) (8, -6.24108177718464050000e-001) (9, 1.61532455949228350000e-001) (10, -2.43317488548754320000e-001) (11, -6.05267012731380950000e-001) (12, 3.83117525332082650000e-001) (13, -1.86668141524573600000e-002) (14, -1.44124405579176690000e-001) (15, -3.87996128773642590000e-001) (16, 9.66161497184247930000e-001) (17, 8.31413259145213580000e-001) (18, 7.14496658959853260000e-001) (19, 4.97043155959528030000e-001) (20, 3.12761621868573810000e+000) (21, 4.12710192231486030000e-001) (22, 6.57116365846300950000e-001) (23, 1.00486625472303270000e+000) (24, 1.47832451622488840000e+000) (25, -7.24678112020564310000e-001) (26, 6.67388044509613530000e-001) (27, 9.18026188804088370000e-001) (28, 1.18162922343006830000e+000) (29, -2.93293396787975720000e-001) (30, 1.28822730456999950000e+000) (31, 9.82039352040368520000e-001) (32, 1.39928119288687490000e+000) (33, -7.68184200009078140000e-002) (34, 6.38065181852577660000e-001) (35, -1.15198193749437750000e-001) (36, 1.60484027883229910000e+000) (37, 1.62231188711401480000e+000) (38, 8.37919426270119390000e-001) (39, -3.43156780527905440000e-001) (40, 2.89094114439095500000e-001) (41, 4.36946735829579770000e-001) (42, 1.60950867840611940000e-001) (43, -4.20314136271016550000e-001) (44, 8.62113676417874730000e-001) (45, 1.11945881151693480000e+000) (46, 1.89280855649639400000e-001) (47, 7.35883023658417180000e-001) (48, -6.06717738964740670000e-002) (49, 2.06120877609820200000e-001) (50, 9.82375562578308380000e-001) (51, 2.96977864355895790000e-001) (52, 4.64121489677602190000e-002) (53, 8.90200705328195170000e-001) (54, 1.18519261815400450000e+000) (55, -1.27098367647396040000e+000) (56, 4.00490773610994000000e-001) (57, 1.36277889401939100000e+000) (58, 2.07266487498761580000e+000) (59, 7.53773239144987730000e-001) (60, 1.43097932848083740000e+000) (61, 2.02281327438765260000e-001) (62, 1.66745577336763380000e+000) (63, 1.87643976706379910000e+000) (64, 2.08025946325901720000e+000) (65, 1.07152182473868040000e+000) (66, 1.12593262334479420000e+000) (67, 2.25292113604149250000e+000) (68, 5.12185074183716390000e-001) (69, 9.52912584087723390000e-001) (70, 1.02557636415798360000e+000) (71, 9.27412086731761450000e-001) (72, 6.93852521021550590000e-001) (73, 2.34223259574023320000e+000) (74, 3.99006979603269640000e-001) (75, 1.00627328913319510000e+000) (76, 2.25344456590782890000e-001) (77, 7.41572879025942490000e-001) (78, 1.42978095175861420000e+000) (79, 7.83970914998375460000e-001) (80, 6.12842669743200010000e-001) (81, 6.56139569419764920000e-001) (82, 1.84883137924479480000e+000) (83, 8.78031584162082710000e-001) (84, 7.13287959322100540000e-001) (85, 7.54799526036359800000e-001) (86, 1.99770711054284460000e+000) (87, 6.67027440359289760000e-002) (0, 1.04237881923916850000e+000) (1, 1.69249635712878210000e+000) (2, -2.54080227507442710000e-002) (3, 1.13179964978882470000e+000) (4, 1.96321096894063650000e+000) (5, 1.16231582771671560000e-001) (6, 1.93573217505001360000e+000) (7, 1.89679277089841090000e+000) (8, 2.55582622148869680000e-001) (9, 1.15960172360757260000e+000) (10, 7.64216664509983930000e-001) (11, 1.19180040444882020000e+000) (12, 3.70798698982632900000e-001) (13, 2.79030128634881440000e+000) (14, 7.82950200151550780000e-002) (15, 1.45872520749287980000e+000) (16, 1.64883706602655480000e+000) (17, 8.51012081210473000000e-001) (18, 5.97204448795888740000e-001) (19, 8.56325591388553580000e-001) (20, 4.87989139378578860000e+000) (21, 1.27435514537299870000e+000) (22, -9.06552605428301520000e-001) (23, 7.96549146476327020000e-001) (24, 1.29249854741098200000e+000) (25, 6.68159126821057490000e-001) (26, 1.31844312049162650000e+000) (27, 1.86302406276868940000e+000) (28, 1.48012558718968550000e+000) (29, 5.12020974901166270000e-001) (30, 6.92600595610794730000e-002) (31, 2.30311885556449630000e-001) (32, 3.57802845872008890000e-001) (33, 5.50437595742374400000e-002) (34, 1.84529205447418910000e+000) (35, 6.82324841037403540000e-001) (36, 1.36228173773657660000e+000) (37, 2.40924474874051330000e+000) (38, 1.42241180436782200000e+000) (39, 1.75664025304537020000e+000) (40, 1.94675794140146210000e-001) (41, 1.10496741575445180000e+000) (42, 9.16801996780361010000e-001) (43, 1.89299456855189190000e+000) (44, 6.61734133489755410000e-001) (45, -5.20643260075386300000e-001) (46, 1.15499464782284230000e+000) (47, 7.30530895999361500000e-001) (48, 4.95057122369740090000e-001) (49, 8.73369675245719400000e-001) (50, 1.50558685198016320000e+000) (51, 3.99053364700755750000e-001) (52, 1.93808117082045590000e+000) (53, 1.29445115292671860000e+000) (54, 9.08790774384083400000e-001) (55, -1.07788331493100720000e+000) (56, 1.70016686945566040000e+000) (57, 1.05562216431108240000e+000) (58, 1.72170371555316760000e+000) (59, 1.07463158734555230000e+000) (60, 9.87134948595107310000e-001) (61, 1.01611579289927210000e+000) (62, 4.65182139388688910000e-001) (63, 1.63505601737410400000e+000) (64, 2.44705572519577740000e+000) (65, 2.22075633438707510000e-001) (66, 1.72862475448671790000e+000) (67, 1.94907388032020990000e+000) (68, 1.29915191281775930000e+000) (69, 1.82486973193459430000e+000) (70, 1.26576108280922940000e+000) (71, 1.13361136455349470000e-001) (72, 1.84507018459733410000e+000) (73, 2.22567363041579420000e+000) (74, 7.32506854800302200000e-001) (75, 4.79337306628673740000e-001) (76, 1.09368271089964430000e+000) (77, 2.11937919004830230000e+000) (78, 1.87431309603942340000e+000) (79, 4.48925701849073820000e-001) (80, 2.48927015684248490000e-002) (81, 1.23139243988276450000e+000) (82, 1.06565880995066500000e+000) (83, 1.41920885119023650000e+000) (84, 1.85072342675073350000e+000) (85, -6.88161395000347060000e-002) (86, 2.72671930651295580000e-001) (87, 1.54578810217095030000e+000) (88, 7.14640577703526400000e-002) (0, -9.15730943494217130000e-001) (1, 2.64671136411897600000e-001) (2, -5.72938445424102220000e-001) (3, 6.49835833950027310000e-001) (4, 1.66579343805421590000e+000) (5, 1.40854335758894420000e-001) (6, 1.47476365104882490000e+000) (7, 3.22397023751993810000e-002) (8, 7.68119966959048050000e-001) (9, 9.24509885973356150000e-001) (10, 1.01690963472817670000e+000) (11, 8.82933668723011820000e-001) (12, 2.23463559601049610000e-001) (13, 1.05414027084963480000e+000) (14, -9.77226552590134270000e-002) (15, 1.03835200603423660000e-001) (16, 6.29325182910261850000e-001) (17, 8.50184391730452790000e-001) (18, 4.75104570915199590000e-001) (19, 2.40781853953642470000e+000) (20, 1.83344039262921530000e+000) (21, 3.66746950211439940000e-001) (22, 3.59434338747127770000e-001) (23, 1.03091046789674820000e-001) (24, -3.21712440458492510000e-001) (25, -1.19512390334736210000e-001) (26, 1.02287700911241910000e+000) (27, 4.50133814302056120000e+000) (28, -6.58623579139972940000e-001) (29, 2.33510689070432910000e+000) (30, 5.22396389181784770000e-001) (31, 8.97370581596834800000e-001) (32, 8.50051611390489570000e-001) (33, 7.76223824421247490000e-001) (34, 1.13266787516679580000e+000) (35, 8.17089626272055840000e-001) (36, 1.42327035255363650000e+000) (37, 1.88263060857359870000e+000) (38, 5.67614750548790630000e-001) (39, 2.19709025004971800000e-001) (40, 9.50256535220950330000e-001) (41, 1.18859710773512470000e-001) (42, 4.49425986289106070000e-001) (43, 1.61656429213105210000e+000) (44, 1.45386875731271200000e+000) (45, 8.99178522028143520000e-001) (46, 1.01714607120590730000e+000) (47, -3.09517955853544410000e-001) (48, 1.82856142242209670000e+000) (49, 6.96024546419329430000e-001) (50, -3.03209944103717320000e-001) (51, 3.43593026065326990000e-001) (52, 1.41575434614853070000e+000) (53, -7.75133620102628100000e-001) (54, 1.81950689729556390000e+000) (55, -1.73483434497978100000e+000) (56, -4.11222818288548400000e-001) (57, 1.21808142826959200000e+000) (58, 5.08739269458844290000e-001) (59, -1.89396003606573990000e-001) (60, 5.66507505082214920000e-001) (61, 1.28939003406502000000e-001) (62, 2.03564198552353580000e-001) (63, 1.17572662290623640000e+000) (64, 1.39465524988472690000e+000) (65, 7.79305852581469670000e-001) (66, 9.86249397664519360000e-001) (67, 2.56766588615662870000e-001) (68, 1.08302869964334760000e-001) (69, 9.17832275972014110000e-001) (70, 5.71222862231788970000e-001) (71, 1.70232879714179930000e+000) (72, 1.24238237465337060000e+000) (73, 2.87454848121395080000e+000) (74, 7.05067416181276550000e-001) (75, 1.03796174243629120000e+000) (76, -1.20167249983088010000e+000) (77, 3.32382104157711970000e+000) (78, 4.67266273792109780000e-001) (79, -5.55612735922028090000e-001) (80, -1.22838950018077050000e+000) (81, -1.46001794069179610000e+000) (82, 1.31289491440656030000e+000) (83, -5.51408313398506710000e-001) (84, 7.91909552001872490000e-002) (85, 6.14112740606277520000e-001) (86, 2.87363179426382950000e-001) (87, -4.60130187456075760000e-001) (88, -2.07127310050696790000e-001) (89, 2.54637573841735470000e+000) (0, 1.39348653156549920000e+000) (1, 3.49194459571199100000e-001) (2, 2.08311190764281970000e+000) (3, 6.20514178835482880000e-001) (4, 5.28930828940692430000e-001) (5, 1.70572519501343070000e+000) (6, 2.28940228981581620000e+000) (7, 9.70860944192727170000e-001) (8, 6.74033870191430570000e-001) (9, 1.25447807439694750000e+000) (10, 9.34857291333106580000e-001) (11, 2.31458723627110040000e-001) (12, 1.87892765728382960000e+000) (13, 1.77871504253925420000e+000) (14, 1.03331884712450980000e+000) (15, -1.64789640471734630000e+000) (16, 1.51175786460100240000e+000) (17, 1.81609513109147700000e+000) (18, 9.17308995090176940000e-001) (19, 1.87846742978691860000e+000) (20, 2.12363818539323650000e+000) (21, 1.34865307622812010000e+000) (22, -1.09649897136170700000e+000) (23, 6.42185350097438380000e-001) (24, 1.02648011645804680000e+000) (25, 7.02046312807782620000e-001) (26, 1.33810874803994670000e+000) (27, 4.34603372842285170000e-001) (28, 1.04569495129678720000e+000) (29, 5.53243149103179730000e-001) (30, 1.29871930370794250000e+000) (31, 1.46581653051966310000e+000) (32, 2.25639344992440760000e+000) (33, -1.46863617647201290000e-001) (34, 7.54178141851094110000e-001) (35, 6.67544347629116070000e-001) (36, 1.91937652929095950000e+000) (37, -3.61807258162361800000e-002) (38, 6.00705737236923890000e-001) (39, 1.02902962044383830000e+000) (40, 1.83265055822038430000e+000) (41, 2.28610140582667530000e+000) (42, 1.77154870514982780000e+000) (43, 1.05707226720322960000e+000) (44, 2.07555678589186730000e+000) (45, 1.40884552038448070000e+000) (46, 1.60042366110200400000e+000) (47, 1.10889801774094490000e+000) (48, 4.22230472820419310000e-001) (49, 1.12308994698604670000e+000) (50, 1.31659128405953420000e+000) (51, 1.82572517416473580000e+000) (52, -1.15639714382561690000e+000) (53, 4.76380586673820160000e-001) (54, -2.14166501856096040000e-001) (55, 5.24011864564717820000e-001) (56, 1.29673589405562370000e+000) (57, 2.39076939410002560000e+000) (58, 1.45962873771623760000e+000) (59, 1.34869314639491540000e+000) (60, 1.45969346093171090000e+000) (61, 1.70402994383115900000e+000) (62, 1.85301419257498570000e-001) (63, 2.03043084597176500000e+000) (64, 8.59379936146884790000e-001) (65, 1.87082339661448250000e+000) (66, 6.29236227680706860000e-001) (67, 2.60702238775451230000e-001) (68, 2.84106184415976040000e-002) (69, 1.52355576073063080000e-001) (70, 1.49448626411759930000e+000) (71, 2.07492406048260310000e+000) (72, 1.31662686799683320000e+000) (73, 5.61065821884433210000e-001) (74, 6.18586989116752030000e-001) (75, 4.19563101536200580000e-001) (76, 9.10229798039667750000e-001) (77, 4.54919748508138770000e-001) (78, 2.10404008300420390000e+000) (79, 9.18514369620256570000e-001) (80, 1.67830019606191370000e+000) (81, 1.27002615285602110000e+000) (82, 4.53921704511143330000e-001) (83, 1.51590022399787230000e+000) (84, 7.06157499652194760000e-001) (85, 3.52435702648930430000e-001) (86, 1.97310501810161760000e+000) (87, 7.73330772872126150000e-001) (88, 1.83214727924206700000e+000) (89, 1.33540091808527510000e+000) (90, 3.49666346426152570000e-001) (0, 1.55555724613112070000e-001) (1, 2.38722986943536550000e+000) (2, 4.39654113794762710000e-001) (3, 7.02033712880044900000e-001) (4, 2.99060469633666170000e-001) (5, 1.68314372548262980000e+000) (6, 1.35632290615682650000e+000) (7, 2.21077123407518840000e+000) (8, 4.55610795112930510000e-001) (9, 9.46097051108488300000e-001) (10, 1.88098625127292540000e+000) (11, 2.09518273348145810000e+000) (12, 5.46879624688124230000e-001) (13, 9.98394837954858280000e-001) (14, 1.20829191884183020000e+000) (15, -7.99786499093820050000e-001) (16, 1.26768132663112350000e+000) (17, 7.16041436907311480000e-001) (18, 8.55668802646809330000e-001) (19, 1.95601234520271520000e+000) (20, 3.68409756855826180000e+000) (21, 8.54039499573374330000e-001) (22, 1.06047974376974300000e-001) (23, 8.62449154131370130000e-001) (24, 1.63275014266912270000e+000) (25, 6.24229800078354710000e-001) (26, 7.74669738758987920000e-001) (27, 1.18841979628932810000e+000) (28, 2.09330381080505880000e+000) (29, 1.98906322032782050000e+000) (30, 8.07634813905992340000e-001) (31, 1.01527912702934110000e+000) (32, 1.78144251758418900000e+000) (33, -4.54533595760959340000e-002) (34, 2.26063990044272690000e+000) (35, 3.85199924694474230000e-001) (36, 1.28994855707639290000e+000) (37, 1.11496366588411290000e+000) (38, 1.26993911915848660000e+000) (39, 1.62619405039006510000e+000) (40, 9.91166853020665650000e-001) (41, 1.06641270046599560000e+000) (42, 4.89571040360139760000e-001) (43, 1.61029383015044660000e+000) (44, 1.88362663743679800000e+000) (45, 1.15836770368316850000e+000) (46, 6.05807095579045550000e-001) (47, 4.61352246501855860000e-001) (48, 2.25648859061254070000e+000) (49, 9.90907831170595670000e-001) (50, 2.09155260791613980000e-001) (51, 1.51497378932469220000e+000) (52, 1.03005478896798540000e+000) (53, 1.81368668706557700000e+000) (54, 2.12413443056237970000e+000) (55, 7.27288343261868420000e-001) (56, 1.00897051736417340000e+000) (57, 2.45453351293398690000e+000) (58, 1.47805908784091590000e+000) (59, 1.46951136678860640000e+000) (60, 5.50501842740300450000e-001) (61, 1.85651613055196480000e+000) (62, 2.06561151902096010000e+000) (63, 1.12445407622360840000e+000) (64, 2.25075776614275600000e+000) (65, 1.97877444378499770000e+000) (66, 1.44790916206656380000e+000) (67, 5.95403498023726500000e-001) (68, 6.29657587127420370000e-001) (69, 2.97069543626172770000e-001) (70, 1.87782067772022110000e+000) (71, 5.07136264032930220000e-001) (72, 6.10102988015198130000e-001) (73, 2.79458188899586220000e+000) (74, 1.53349146055444230000e+000) (75, 1.84317650527336060000e+000) (76, -4.03326091921805850000e-001) (77, 1.19449491747680000000e+000) (78, 2.08240260632448180000e+000) (79, 3.25606490694891230000e-001) (80, 1.22664788982754750000e+000) (81, -5.17879848634028580000e-001) (82, 1.25131157786344540000e+000) (83, 2.74092696582103170000e-001) (84, -2.45989976947047830000e-001) (85, 1.28679757132303330000e+000) (86, 1.72861818530734430000e+000) (87, 3.64886900850859950000e-001) (88, 6.02694704151668150000e-001) (89, 2.27020661213928100000e+000) (90, 1.63695858885631940000e+000) (91, 1.69937085412497350000e+000) (0, -2.45081660558068820000e+002) (1, -9.84823867033769010000e-001) (2, -8.15730128956560160000e-001) (3, -8.59720415605764950000e-001) (4, -1.40522588480503520000e+000) (5, -9.34030958737779530000e-001) (6, -9.34354893101912110000e-001) (7, 1.28291876217608810000e-002) (8, -2.44463075496321240000e+002) (9, -1.06697362177779210000e+000) (10, -8.40154780012156930000e-001) (11, -2.80882987171311440000e-001) (12, -1.76738450390526340000e+000) (13, -3.68247198343809870000e-001) (14, -1.72507867594954800000e+000) (15, -1.77722103700498300000e+000) (16, -1.02190781595453120000e+000) (17, -1.23450886202876160000e-001) (18, -3.17422783445466820000e-001) (19, -2.84283552125552900000e+000) (20, -9.23568765610356390000e-001) (21, -4.91505110730317110000e-001) (22, -1.76773429593339060000e+000) (23, -1.13137177336734960000e+000) (24, -1.12887094299111010000e+000) (25, -1.25624935757451970000e+000) (26, -1.79300117633573210000e+000) (27, -2.35874623382767810000e+000) (28, -1.26126945338451520000e+000) (29, -1.48120804139250990000e+000) (30, -1.87945331267614170000e-001) (31, -1.99559715027072770000e+000) (32, -1.04352077381459310000e+000) (33, -1.56469965910156540000e+000) (34, -4.45991445735629930000e-001) (35, -1.84483809720342350000e+000) (36, -2.18654308987383060000e-001) (37, -1.80174740416731180000e+000) (38, -9.02220604179959860000e-001) (39, -1.77671381359228180000e+000) (40, -1.98778944526107270000e+000) (41, -4.43853478932354880000e-001) (42, -9.50551611308541270000e-001) (43, -1.59395004534867830000e+000) (44, -1.51678887981229680000e+000) (45, -1.91408784164849190000e+000) 