FANN_FLO_2.1
num_layers=41
learning_rate=0.700000
connection_rate=1.000000
network_type=1
learning_momentum=0.000000
training_algorithm=2
train_error_function=1
train_stop_function=0
cascade_output_change_fraction=0.010000
quickprop_decay=-0.000100
quickprop_mu=1.750000
rprop_increase_factor=1.200000
rprop_decrease_factor=0.500000
rprop_delta_min=0.000000
rprop_delta_max=50.000000
rprop_delta_zero=0.100000
cascade_output_stagnation_epochs=12
cascade_candidate_change_fraction=0.010000
cascade_candidate_stagnation_epochs=12
cascade_max_out_epochs=150
cascade_max_cand_epochs=150
cascade_num_candidate_groups=2
bit_fail_limit=3.49999999999999980000e-001
cascade_candidate_limit=1.00000000000000000000e+003
cascade_weight_multiplier=4.00000000000000020000e-001
cascade_activation_functions_count=10
cascade_activation_functions=3 5 7 8 10 11 14 15 16 17 
cascade_activation_steepnesses_count=4
cascade_activation_steepnesses=2.50000000000000000000e-001 5.00000000000000000000e-001 7.50000000000000000000e-001 1.00000000000000000000e+000 
layer_sizes=56 1 1 1 1 1 1 1 1 1 1 1 1 1 1 1 1 1 1 1 1 1 1 1 1 1 1 1 1 1 1 1 1 1 1 1 1 1 1 1 1 
scale_included=0
neurons (num_inputs, activation_function, activation_steepness)=(0, 0, 0.00000000000000000000e+000) (0, 0, 0.00000000000000000000e+000) (0, 0, 0.00000000000000000000e+000) (0, 0, 0.00000000000000000000e+000) (0, 0, 0.00000000000000000000e+000) (0, 0, 0.00000000000000000000e+000) (0, 0, 0.00000000000000000000e+000) (0, 0, 0.00000000000000000000e+000) (0, 0, 0.00000000000000000000e+000) (0, 0, 0.00000000000000000000e+000) (0, 0, 0.00000000000000000000e+000) (0, 0, 0.00000000000000000000e+000) (0, 0, 0.00000000000000000000e+000) (0, 0, 0.00000000000000000000e+000) (0, 0, 0.00000000000000000000e+000) (0, 0, 0.00000000000000000000e+000) (0, 0, 0.00000000000000000000e+000) (0, 0, 0.00000000000000000000e+000) (0, 0, 0.00000000000000000000e+000) (0, 0, 0.00000000000000000000e+000) (0, 0, 0.00000000000000000000e+000) (0, 0, 0.00000000000000000000e+000) (0, 0, 0.00000000000000000000e+000) (0, 0, 0.00000000000000000000e+000) (0, 0, 0.00000000000000000000e+000) (0, 0, 0.00000000000000000000e+000) (0, 0, 0.00000000000000000000e+000) (0, 0, 0.00000000000000000000e+000) (0, 0, 0.00000000000000000000e+000) (0, 0, 0.00000000000000000000e+000) (0, 0, 0.00000000000000000000e+000) (0, 0, 0.00000000000000000000e+000) (0, 0, 0.00000000000000000000e+000) (0, 0, 0.00000000000000000000e+000) (0, 0, 0.00000000000000000000e+000) (0, 0, 0.00000000000000000000e+000) (0, 0, 0.00000000000000000000e+000) (0, 0, 0.00000000000000000000e+000) (0, 0, 0.00000000000000000000e+000) (0, 0, 0.00000000000000000000e+000) (0, 0, 0.00000000000000000000e+000) (0, 0, 0.00000000000000000000e+000) (0, 0, 0.00000000000000000000e+000) (0, 0, 0.00000000000000000000e+000) (0, 0, 0.00000000000000000000e+000) (0, 0, 0.00000000000000000000e+000) (0, 0, 0.00000000000000000000e+000) (0, 0, 0.00000000000000000000e+000) (0, 0, 0.00000000000000000000e+000) (0, 0, 0.00000000000000000000e+000) (0, 0, 0.00000000000000000000e+000) (0, 0, 0.00000000000000000000e+000) (0, 0, 0.00000000000000000000e+000) (0, 0, 0.00000000000000000000e+000) (0, 0, 0.00000000000000000000e+000) (0, 0, 0.00000000000000000000e+000) (56, 15, 2.50000000000000000000e-001) (57, 5, 7.50000000000000000000e-001) (58, 11, 2.50000000000000000000e-001) (59, 11, 2.50000000000000000000e-001) (60, 11, 5.00000000000000000000e-001) (61, 11, 5.00000000000000000000e-001) (62, 11, 7.50000000000000000000e-001) (63, 8, 5.00000000000000000000e-001) (64, 11, 5.00000000000000000000e-001) (65, 7, 5.00000000000000000000e-001) (66, 7, 7.50000000000000000000e-001) (67, 16, 2.50000000000000000000e-001) (68, 8, 7.50000000000000000000e-001) (69, 11, 2.50000000000000000000e-001) (70, 5, 2.50000000000000000000e-001) (71, 8, 7.50000000000000000000e-001) (72, 11, 2.50000000000000000000e-001) (73, 11, 2.50000000000000000000e-001) (74, 11, 2.50000000000000000000e-001) (75, 7, 7.50000000000000000000e-001) (76, 7, 7.50000000000000000000e-001) (77, 11, 5.00000000000000000000e-001) (78, 5, 2.50000000000000000000e-001) (79, 7, 1.00000000000000000000e+000) (80, 5, 7.50000000000000000000e-001) (81, 7, 7.50000000000000000000e-001) (82, 7, 1.00000000000000000000e+000) (83, 7, 1.00000000000000000000e+000) (84, 7, 1.00000000000000000000e+000) (85, 8, 7.50000000000000000000e-001) (86, 5, 1.00000000000000000000e+000) (87, 15, 2.50000000000000000000e-001) (88, 7, 7.50000000000000000000e-001) (89, 11, 2.50000000000000000000e-001) (90, 7, 7.50000000000000000000e-001) (91, 8, 1.00000000000000000000e+000) (92, 11, 2.50000000000000000000e-001) (93, 11, 7.50000000000000000000e-001) (94, 11, 2.50000000000000000000e-001) (95, 11, 5.00000000000000000000e-001) 
connections (connected_to_neuron, weight)=(0, 4.99208300448175780000e+001) (1, 1.94797260553832570000e+000) (2, 1.15798303235631180000e+000) (3, 1.82784352795943140000e+000) (4, 1.71890873713710830000e+000) (5, 1.84271861830355240000e+000) (6, 1.50321010891191410000e+000) (7, 1.87257208018855680000e+000) (8, 1.53185663867998390000e+000) (9, 1.41996139799705690000e+000) (10, 1.51703609742981870000e+000) (11, 3.02712074154596240000e+000) (12, 1.35233680998609880000e+000) (13, -4.76582962013210650000e+001) (14, 2.27712991654198270000e+000) (15, 1.57230393537111100000e+000) (16, 1.54954811585399700000e+000) (17, 9.31612455019059380000e+000) (18, -1.84805793992216500000e+000) (19, 4.41566203732586970000e+001) (20, 5.81529383112728060000e+001) (21, 4.71038281597207510000e-001) (22, -3.28877922881126760000e+000) (23, 2.59607724502370550000e+001) (24, -9.37826967164125060000e+000) (25, -6.09719507608374480000e+000) (26, -1.25978693762587090000e+001) (27, 3.02159485259305290000e+000) (28, 5.19839486616999480000e+000) (29, 2.36007566688598910000e+001) (30, 1.96158677735804180000e+000) (31, 5.64396931822894320000e+001) (32, 2.35717554117809640000e+000) (33, 1.37224167856384180000e+000) (34, 2.39921312608307070000e+001) (35, 2.32872056251021890000e+001) (36, 1.86165676773817770000e+000) (37, -2.61639675718407040000e+001) (38, 2.00186883285171510000e+000) (39, 2.71529491590179230000e+000) (40, 2.36219738133787470000e+000) (41, 2.08796765312861550000e+000) (42, 1.13752879338433610000e+000) (43, 1.31825620350271170000e+000) (44, 1.43826392591291600000e+000) (45, 2.64982719609770580000e+000) (46, 1.12306489934674450000e+000) (47, 2.98615868548261610000e+000) (48, 1.94918803993989290000e+000) (49, 2.17886852497869830000e+000) (50, -9.75856266053639840000e+001) (51, 1.30578838970768720000e+000) (52, 2.33515306225694410000e-001) (53, 1.68737160633254300000e+000) (54, 1.36238715895901200000e+000) (55, -4.80199289673236610000e-001) (0, 4.48458763604987800000e+000) (1, 4.23398440333528970000e-001) (2, 1.14824399780778650000e+000) (3, 1.13976653152035200000e-001) (4, -3.29585562595043460000e-001) (5, 3.03096850876443560000e-001) (6, 8.05041508727925850000e-002) (7, 5.87116683055626250000e-001) (8, 6.85885128197382680000e-001) (9, -3.55684682308806230000e-001) (10, 1.14760266405258830000e+000) (11, -6.66567285422237090000e-001) (12, -1.95215865669833620000e-001) (13, 4.94246839226673900000e+000) (14, 2.27832583874759100000e-002) (15, 7.78061078057048380000e-001) (16, 2.44655245752711860000e-001) (17, 1.54716136642097020000e+000) (18, -2.08884978180322450000e-001) (19, 1.38400846910863780000e+000) (20, 3.86171223302197160000e-001) (21, -3.60216790483098150000e-002) (22, -3.16447377593152500000e-001) (23, 7.55878785172599650000e-001) (24, -1.52297887267716200000e+000) (25, -1.20097237181279310000e+000) (26, 4.37272371083810230000e-001) (27, -9.06472520098898890000e-001) (28, -3.19703452932727890000e-001) (29, 3.35693451995876020000e-001) (30, 1.49304134873202870000e+000) (31, 7.26038445646508210000e-001) (32, 9.16969804627710490000e-001) (33, 3.09761304156357050000e-001) (34, 6.17932403065178940000e-001) (35, 4.27439534001432700000e-001) (36, 8.92506797485598140000e-001) (37, -9.02388233273073440000e-002) (38, 3.92206535416084080000e-001) (39, -3.78281090418978590000e-002) (40, 4.74387786343240250000e-001) (41, 1.30843916160276820000e+000) (42, -4.00658235993489150000e-001) (43, -7.05294286438521660000e-001) (44, -4.50215858602916300000e-001) (45, 9.41165223844704690000e-001) (46, 1.29734144582076220000e+000) (47, 3.44363873803135820000e-001) (48, 3.96706881768891520000e-001) (49, 1.23212963905249250000e+000) (50, 6.40782649723099150000e+000) (51, 1.28874408873858150000e+000) (52, -2.53319245241554600000e+000) (53, -1.23422856124205730000e-001) (54, -3.89543372547873410000e-001) (55, -4.98155171099228970000e-001) (56, 6.80018568458044200000e-001) (0, 2.45903730297100360000e-001) (1, 6.88505940853886560000e-002) (2, 8.62319338972311390000e-001) (3, 1.29221286058616000000e+000) (4, 1.52659729809288550000e+000) (5, -1.47735564954773050000e-001) (6, 6.58811180402793520000e-002) (7, 1.54616492652728100000e+000) (8, 2.35326844864330700000e-001) (9, 1.77516718870224580000e+000) (10, 5.90426688591988210000e-001) (11, 4.17698908629802750000e-002) (12, 4.56472368336610090000e-001) (13, -1.16045388117726010000e-001) (14, 1.59107825170955960000e+000) (15, 1.64465254869007380000e+000) (16, -1.46611159201546240000e-001) (17, -1.93932270217572780000e-001) (18, 3.66744197929495030000e-001) (19, 9.75077395292959560000e-001) (20, 1.80236509391583110000e+000) (21, 2.87468037529038270000e-001) (22, 9.57297025767810390000e-001) (23, 8.92581537459492760000e-001) (24, -2.83899594675480200000e-001) (25, 5.88298612319206550000e-001) (26, 7.66970023366823180000e-001) (27, 4.59727923705950500000e-001) (28, 1.24136670655257490000e+000) (29, 1.06306755092453690000e+000) (30, -1.23226250445995870000e-001) (31, 6.89730303224499240000e-001) (32, 1.80556103188443570000e+000) (33, 1.34362191461711530000e+000) (34, -2.71773795436380690000e-001) (35, 7.11617688168993180000e-001) (36, 1.15035851534791630000e+000) (37, 7.45602925971119100000e-001) (38, 1.70206241889552090000e+000) (39, 1.02867186158270680000e+000) (40, 1.22661829984650760000e+000) (41, 3.56685600404081930000e-001) (42, 1.61089943736597380000e-001) (43, 8.46049084808483180000e-001) (44, 5.42605751448873350000e-001) (45, 1.15091529210637430000e+000) (46, 5.81870867158206350000e-001) (47, 5.30727847268436030000e-001) (48, 9.83093797162638120000e-001) (49, 4.76207011219732520000e-001) (50, 1.24236617435124690000e+000) (51, 9.19605481009212240000e-001) (52, -2.27292420708196770000e+000) (53, 2.99124481439122290000e-001) (54, -1.12663692906937640000e-002) (55, -1.43704494529068130000e+000) (56, -1.85022011062250690000e-001) (57, 1.72191230599724520000e+000) (0, 7.03541655220823320000e-002) (1, 1.01319768880261880000e+000) (2, 1.08466103814277590000e+000) (3, 1.53688720918057540000e+000) (4, 1.55243433898635730000e+000) (5, 5.17741756151962050000e-001) (6, 2.01015627748573840000e-001) (7, 1.02041155703250190000e+000) (8, 5.85713807662840540000e-001) (9, 9.66011039729427200000e-002) (10, 1.24304645585129790000e+000) (11, 5.87171043628323170000e-001) (12, -6.01512886711765840000e-002) (13, 2.86832655874122280000e+000) (14, 8.16495402499866740000e-001) (15, -1.00412124925925130000e-001) (16, 8.18897422676323820000e-001) (17, 1.09096023785487910000e+000) (18, 4.12665960028355260000e-001) (19, -1.00876818741959240000e+000) (20, 5.84023907084724960000e-001) (21, 1.10077564898738110000e-001) (22, 6.98881051265765050000e-001) (23, 2.06523464643267340000e+000) (24, 5.70000153049766700000e-001) (25, 1.26986279922609450000e+000) (26, 9.78479076539167550000e-001) (27, 8.75412645922052920000e-001) (28, -9.60514603231932830000e-002) (29, 5.62386421890020860000e-001) (30, -2.19184728384985730000e-001) (31, -6.71412671415519690000e-002) (32, -2.87709507808823070000e-002) (33, 9.64979067808654780000e-002) (34, 4.98136160082184800000e-002) (35, 1.06504086902492450000e-001) (36, 9.75884577268742780000e-001) (37, 1.08628876061186270000e+000) (38, 7.06172969398038530000e-001) (39, 6.27815435176897860000e-001) (40, 1.46920072332977880000e+000) (41, 1.20579553283664450000e+000) (42, 4.25592807680449030000e-002) (43, 2.01236623456579370000e-003) (44, 1.56704864100379230000e+000) (45, 6.24084124023510210000e-001) (46, 1.57264560773387370000e+000) (47, 1.71219664487057190000e+000) (48, 1.50987405976449400000e+000) (49, 8.79641613828726410000e-001) (50, 1.51417155265762030000e+000) (51, 1.28614309967292530000e+000) (52, -2.38693045110608180000e+000) (53, 7.73002295489655710000e-001) (54, 7.72940106970432580000e-001) (55, -1.61308566650927940000e+000) (56, -6.23276588165409320000e-001) (57, 6.34932282254299760000e-001) (58, -2.15745812509875100000e+000) (0, -1.09146283209543850000e+000) (1, 1.42283493913709450000e+000) (2, 8.49925652814412510000e-002) (3, 4.41194681380868150000e-001) (4, 3.84060858096920200000e-001) (5, -6.15474352313453380000e-001) (6, 6.66170818312086350000e-001) (7, 1.32704992829821330000e+000) (8, 1.06261086643207130000e+000) (9, -4.62456346559345530000e-001) (10, 1.53585375896654350000e+000) (11, -5.92562236083303720000e-001) (12, 8.39445528271600790000e-001) (13, -1.95748241480913300000e+000) (14, 5.56836037361055910000e-001) (15, 1.23232642018701210000e+000) (16, -1.76091708617758290000e+000) (17, 8.20029106273356900000e-001) (18, 2.04073933473138240000e-001) (19, 8.75370524704704110000e-001) (20, 1.51824447279072580000e+000) (21, 3.45668313746021470000e-001) (22, 2.34351149510071740000e-001) (23, -2.65987475995283830000e-001) (24, 5.00372567004981560000e-001) (25, -2.21139289249388110000e-001) (26, -7.55280793105882480000e-002) (27, 1.04280180073228990000e+000) (28, 1.09050698214096340000e+000) (29, -8.78475431853311670000e-001) (30, 4.57168696649380040000e-001) (31, -5.92000264051002590000e-001) (32, 9.33045092318199760000e-001) (33, -1.02919128560468270000e-001) (34, -3.28324059139585980000e-002) (35, 4.48777625768107980000e-001) (36, 1.37481755104380920000e+000) (37, 7.44831047692864790000e-001) (38, 1.05197847401716200000e-001) (39, -6.41325065799305260000e-001) (40, 6.46297054275975840000e-001) (41, 1.05674138076137060000e+000) (42, 8.09499397591440070000e-001) (43, 5.15562313655384070000e-001) (44, 2.66733586019829160000e-001) (45, -2.72447358304641900000e-001) (46, 2.57429826818399490000e-001) (47, 1.41790207352022900000e+000) (48, -8.05457737210093060000e-001) (49, 1.52448943564667630000e+000) (50, -1.18345960231971280000e+000) (51, 1.35483632322865800000e+000) (52, 3.81381772079890320000e-001) (53, -8.48111518585332290000e-001) (54, -9.17147300345900970000e-001) (55, -6.17623068811379180000e-001) (56, -5.67456580623671160000e-002) (57, 2.03963920712419890000e+000) (58, 1.51192235504991300000e+000) (59, 8.39613415185655240000e-001) (0, 1.35071006242167280000e+000) (1, -2.75246375037846210000e-001) (2, 1.34768839720939920000e-001) (3, 4.18022395730734240000e-001) (4, 1.47553820033398590000e+000) (5, 6.99859866667842610000e-001) (6, -4.85872652693867310000e-001) (7, 1.38482292239395100000e+000) (8, -5.04354011113970710000e-001) (9, 3.39467171214791920000e-001) (10, 4.42831270084500680000e-001) (11, -1.16327040102029460000e-001) (12, -8.34161395044298180000e-002) (13, -2.10966860609657260000e+000) (14, 5.84918459565163420000e-001) (15, 4.52792409029573570000e-001) (16, 6.71111085304261780000e-001) (17, 1.94723619409208820000e-001) (18, -6.26132448412062680000e-003) (19, 1.22416604619506790000e+000) (20, 9.61865335957248550000e-001) (21, 3.28523953085162300000e-001) (22, 8.90666533100616390000e-002) (23, -6.22674414002039710000e-001) (24, -2.49337791949414410000e-002) (25, 4.48962271741800260000e-001) (26, -9.16313272466492970000e-002) (27, 6.47677590773860220000e-002) (28, 6.73315495795006820000e-001) (29, -5.82562363485682690000e-001) (30, 2.81855599735234660000e-001) (31, -1.93507967170963930000e-002) (32, -5.10556229702412320000e-001) (33, 7.83583611350778030000e-001) (34, 1.29296357070385270000e+000) (35, 7.10005049814593110000e-001) (36, 1.71499869008333110000e-001) (37, 4.40797771348303220000e-001) (38, 8.52240345594257880000e-001) (39, 8.64312632270461070000e-001) (40, 7.72747709066646690000e-001) (41, 1.32787527899098710000e+000) (42, 1.35823476713181000000e+000) (43, 1.79581547775090360000e-001) (44, 1.10873022219938360000e+000) (45, 1.09978872504801140000e-001) (46, -3.05438264637914510000e-001) (47, 7.01154095868819490000e-002) (48, -2.32345422412065960000e-001) (49, 5.41253775095078550000e-001) (50, -1.76898512444055700000e+000) (51, 4.07372121386945620000e-001) (52, -1.05933114723413760000e+000) (53, 9.19513072204978350000e-001) (54, 1.82263492924364110000e-001) (55, -7.94104121937631800000e-001) (56, 2.34088837301079820000e-001) (57, 1.05328031080919530000e+000) (58, 6.26937207108093860000e-001) (59, -7.78978317948877040000e+000) (60, 3.15008294528242820000e+000) (0, -5.35248283048343820000e-001) (1, 1.32226716162382730000e+000) (2, 4.12969033573651940000e-001) (3, 2.75407052009973420000e-002) (4, 5.16692288690726590000e-001) (5, 7.23573378394255620000e-001) (6, 1.20669380955737050000e+000) (7, -3.18182537021450500000e-001) (8, -7.75018644875240110000e-002) (9, 1.51367801406784210000e-001) (10, 8.56761325606974040000e-001) (11, 1.22242575004562530000e+000) (12, 1.24080751490477900000e+000) (13, 1.04106902471111180000e+000) (14, 1.22616940561206040000e+000) (15, 5.51685537085766180000e-001) (16, 4.32514512169021870000e-002) (17, -3.94361995171357890000e-001) (18, 3.57762684039564670000e-003) (19, 9.42636393044703590000e-001) (20, 1.39491277191455510000e+000) (21, 3.50952763722775950000e-001) (22, 8.47341442930577890000e-001) (23, -7.00170440608301800000e-001) (24, 3.86783703639547280000e-001) (25, 4.41141465342661630000e-001) (26, 6.74864418961420350000e-001) (27, -3.52823108964055550000e-001) (28, 1.16552610580731880000e-001) (29, -3.47079285447318480000e-001) (30, 1.80990054109068340000e+000) (31, 1.85451320036805530000e+000) (32, 1.55838537960302980000e+000) (33, -1.88285198179285880000e-001) (34, -3.17376113580800030000e-001) (35, 4.97156391271790400000e-001) (36, 7.33059878407991690000e-001) (37, 3.85079408390611170000e-001) (38, 1.70493121184678390000e+000) (39, 8.45853542902182810000e-002) (40, 1.07760742069495110000e+000) (41, -2.38607625404468590000e-001) (42, 1.01815747484729120000e+000) (43, 4.80505374731044490000e-001) (44, -4.02555845090639570000e-001) (45, 1.01288021656150430000e+000) (46, 9.01052600505543030000e-001) (47, 1.08548160830083870000e+000) (48, 1.45751504177675370000e+000) (49, 9.97865160248372910000e-001) (50, 4.66224818580747820000e-001) (51, 1.46471404503031130000e+000) (52, -5.33298147482086700000e-001) (53, 3.55973695438201450000e-001) (54, -5.90113421125736610000e-001) (55, -1.19131748530558350000e+000) (56, 1.74079066005961320000e-001) (57, 1.24826402072422680000e+000) (58, 1.05271138333737510000e+000) (59, 2.26403667498628100000e+000) (60, 1.30429641884833770000e+000) (61, 6.03901954529649900000e-001) (0, 1.10449065234873230000e+000) (1, 1.00305824618725260000e+000) (2, -7.41040986363392800000e-002) (3, 6.52841934238936110000e-001) (4, 1.44622893260701440000e+000) (5, 6.66067150119019960000e-001) (6, 6.88361085459732740000e-001) (7, 1.16226465449607110000e+000) (8, -1.81984073886737570000e-001) (9, -4.49322366319861000000e-001) (10, -3.39049256767352310000e-001) (11, -1.22101397346873200000e-001) (12, 1.14297958460961220000e+000) (13, 2.43961787566068980000e-001) (14, -6.13827005040681610000e-002) (15, 6.84771384006567120000e-001) (16, 3.23851990421631320000e-001) (17, 2.71769140632836140000e-001) (18, -3.91876443318552200000e-001) (19, 1.37751507107594270000e+000) (20, 2.90299169203432350000e-001) (21, -3.81465882530856000000e-001) (22, -4.88051655990250560000e-002) (23, 1.52646364511035020000e+000) (24, 9.67171982660122160000e-001) (25, -5.35562321228671980000e-001) (26, 7.76115392708233150000e-001) (27, -5.12138508667418830000e-001) (28, 6.88585846319011650000e-001) (29, 2.72931165101759980000e-002) (30, 1.34102687753193010000e+000) (31, 3.38799823566493520000e-001) (32, 1.48886450951566560000e+000) (33, 2.07844908483353100000e-001) (34, -4.98629634987825250000e-001) (35, 1.53310530681832120000e-001) (36, -2.79283876433068620000e-001) (37, -3.89994781010513710000e-001) (38, 1.17158528283060640000e+000) (39, 6.99193167037706180000e-001) (40, -4.64931321194431040000e-001) (41, 9.83913171770368520000e-001) (42, 1.06666523684860800000e+000) (43, -1.42686289557345550000e-001) (44, 1.02314797888128450000e+000) (45, 1.34389095258255600000e+000) (46, 6.62918289195190470000e-001) (47, 7.04483253389739720000e-001) (48, 7.71419378398982340000e-001) (49, -1.00253685336745850000e-001) (50, -6.25249781847822870000e-001) (51, -3.36215281935905770000e-001) (52, 1.23529589402287930000e+000) (53, 1.25517404910952290000e+000) (54, 4.92160003338079580000e-001) (55, 9.82842559056266500000e-001) (56, 9.49663210618536760000e-001) (57, 8.05094333993206180000e-001) (58, 7.10448314188624150000e+000) (59, 2.13980900718343300000e+000) (60, 5.01359776601737560000e+000) (61, 4.54612651718487550000e+000) (62, -9.27654080907996840000e-001) (0, 1.18181333018927860000e+000) (1, -6.94825978749494950000e-002) (2, -1.86828609467277810000e-001) (3, 7.57540079063264040000e-001) (4, 9.49065326699844230000e-001) (5, 7.19104730295302200000e-001) (6, -6.49659119116312650000e-003) (7, 3.23138592084805050000e-001) (8, -7.63906477175251730000e-001) (9, 6.94070489858011480000e-002) (10, -3.76670200754682160000e-001) (11, -1.52361883430855750000e+000) (12, -4.82698749080094190000e-001) (13, -8.04602900644323940000e-001) (14, 1.00986277918528570000e+000) (15, -7.37525564556190890000e-001) (16, 3.28911856346635390000e-001) (17, 3.28220251979679740000e-001) (18, -1.39480979850812230000e-001) (19, 5.14331417911359940000e-001) (20, 3.42447010009524820000e-001) (21, -1.51833353240367920000e-001) (22, -6.65385071943273230000e-001) (23, 9.06093023531128190000e-001) (24, -5.12158704768405970000e-001) (25, -4.96176129560823520000e-001) (26, -2.36658462410982210000e-001) (27, 2.88920279795340910000e-001) (28, -5.81657275439906310000e-001) (29, 3.53659496840539100000e-001) (30, 9.67216235038067200000e-001) (31, 4.93201853808544980000e-001) (32, -3.91922986800264990000e-001) (33, 9.34612625767392240000e-001) (34, 2.49471057232656890000e-001) (35, -9.75484091095875310000e-001) (36, 2.66569659086150490000e-001) (37, -2.97305365939658230000e-001) (38, -7.60750865617947800000e-001) (39, -7.24923492218743410000e-001) (40, 7.47611084881561470000e-001) (41, 1.48191487347875350000e-001) (42, 1.09979770856844760000e+000) (43, 8.79599134099779970000e-001) (44, 4.53402237170311080000e-001) (45, 5.11248758452066130000e-002) (46, -5.86076583697370370000e-001) (47, -3.54896481009285060000e-001) (48, -1.61343955196102810000e-001) (49, -7.42405580246207180000e-001) (50, 5.37541806908182650000e-001) (51, -3.27674735493557020000e-001) (52, 7.75718341058225460000e-001) (53, -2.24582410804473470000e-001) (54, -5.33958567882550810000e-001) (55, 5.71205378040840480000e-002) (56, 3.36543390349984260000e-001) (57, -6.85861832771407640000e-002) (58, -7.58059035915402140000e-001) (59, 3.11678208526806790000e+000) (60, 3.77493991376467770000e-001) (61, -1.06740341558088340000e-001) (62, -1.64734602737988500000e+000) (63, 2.95472392197486980000e+000) (0, 2.83923865716247860000e+000) (1, 1.26520416888518410000e+000) (2, 2.34752784661430440000e+000) (3, 1.26754379894548940000e+000) (4, 5.43839311372657510000e-001) (5, 1.81305700246587540000e+000) (6, 9.77239971733005920000e-001) (7, 1.47560463305888630000e+000) (8, 2.37564318210200300000e+000) (9, 2.20314289008813800000e+000) (10, 2.71238366953219320000e+000) (11, 2.46096828791667700000e+000) (12, 2.21009854702418100000e+000) (13, 4.66694752627453910000e-001) (14, 1.96690348724217070000e+000) (15, 2.12757916246476240000e+000) (16, 2.51971197240380330000e+000) (17, 2.76518342900124650000e+000) (18, 4.98311375064012630000e-001) (19, 4.25058741499428130000e-001) (20, 1.38530755938007430000e+000) (21, 1.07274562997225380000e+000) (22, 2.07311461736644500000e+000) (23, 2.06070184786984310000e+000) (24, 1.21493373921105550000e+000) (25, 1.90477990477525470000e+000) (26, 1.79060920053591870000e+000) (27, 2.42928843223524500000e+000) (28, 2.82019635204085880000e+000) (29, 2.66894243030436140000e+000) (30, 1.45850819846230470000e+000) (31, 1.22754061342164580000e+000) (32, 1.43422663243102750000e+000) (33, 2.30539104704796930000e+000) (34, 2.82550794461020070000e+000) (35, 1.30683510249253530000e+000) (36, 1.01703714123903710000e+000) (37, 1.94002935817109570000e+000) (38, 2.13137315715714950000e+000) (39, 1.59846682784735390000e+000) (40, 1.90227911098184440000e+000) (41, 9.90582186401233740000e-001) (42, 1.91347139532438630000e+000) (43, 9.18053654531767790000e-001) (44, 2.77479488222196040000e+000) (45, 9.63518357595539390000e-001) (46, 1.11413994688330600000e+000) (47, 2.09168613785767030000e+000) (48, 2.01903113949845860000e+000) (49, 1.58396295629057020000e+000) (50, 6.03910894002119280000e-001) (51, 1.59774780367290980000e+000) (52, 1.49040121235919590000e+000) (53, 5.21138576463208270000e-001) (54, 1.15463268208294110000e+000) (55, 2.03013673211528770000e+000) (56, -1.48810648805272450000e-001) (57, 1.01226171050219830000e+000) (58, 9.68647254592462810000e-001) (59, 4.81333842058408570000e-001) (60, 8.51412818597702680000e-001) (61, 1.15619705888612990000e+000) (62, 5.41380218984806820000e-001) (63, 2.21803211098367740000e+000) (64, 1.45727294191519970000e+000) (0, 2.53272668767267240000e+000) (1, 1.77107271869032500000e+000) (2, 9.60853394969367720000e-001) (3, 2.75605516602524010000e+000) (4, 9.50085098117474770000e-001) (5, 2.02533121024031490000e+000) (6, 1.97985099177173200000e+000) (7, 2.40120811329403770000e+000) (8, 9.01374390593323690000e-001) (9, 1.13713674872712090000e+000) (10, 2.18894597946643050000e+000) (11, 9.06631853173953780000e-001) (12, 1.55329975059145450000e+000) (13, 9.18730351401668810000e-001) (14, 1.99841046811058300000e+000) (15, 1.29524068368197280000e+000) (16, 7.95148309295532600000e-001) (17, 2.39633070824935680000e+000) (18, 2.83060978599393430000e+000) (19, 1.36415778353408770000e+000) (20, 2.15512085876695460000e+000) (21, 1.11173623674118520000e+000) (22, 3.41129302494182120000e+000) (23, 1.73458719523920530000e+000) (24, 1.28979319233336810000e+000) (25, 1.96844926569325710000e+000) (26, 2.21871715311578170000e+000) (27, 9.16196634495341060000e-001) (28, 1.04959682961349740000e+000) (29, 2.31449165217497080000e+000) (30, 2.77873193233687350000e+000) (31, 1.32140131073980680000e+000) (32, 1.99809375349729180000e+000) (33, 9.26331502120652070000e-001) (34, 1.55348977935942910000e+000) (35, 1.38683454984572110000e+000) (36, 1.39969316314533440000e+000) (37, 2.34305931029381620000e+000) (38, 1.11857727238827010000e+000) (39, 1.88743366761342710000e+000) (40, 1.51934794404666260000e+000) (41, 1.56653842142701700000e+000) (42, 1.73718425506819130000e+000) (43, 1.60131368596636550000e+000) (44, 2.13225406368734660000e+000) (45, 1.60346734533674410000e+000) (46, 8.84588516088902320000e-001) (47, 2.10761366677330920000e+000) (48, 9.18096922175086870000e-001) (49, 1.12529162219003860000e+000) (50, 1.46911700637871490000e+000) (51, 1.02679337745654760000e+000) (52, 1.54614200033107860000e+000) (53, 2.64533173721871730000e+000) (54, 2.08962427673838210000e+000) (55, 7.19516859641649130000e-001) (56, -3.56765097690196600000e-001) (57, 1.32190805412107240000e+000) (58, 1.22457767595196090000e+000) (59, 1.60909428335366940000e+000) (60, -4.12063469170799830000e-001) (61, 1.11956840070432760000e+000) (62, 6.07870980951785600000e-001) (63, 2.05721116506190830000e+000) (64, 2.08185156197594570000e+000) (65, 2.59389728402026390000e+000) (0, -2.29634067261824050000e+000) (1, -2.48186916838971430000e+000) (2, -2.92876311977965290000e+000) (3, -1.44920408508846110000e+000) (4, -2.38334186763608360000e+000) (5, -2.10888655336679420000e+000) (6, -1.63502923892451020000e+000) (7, -1.60203877118987540000e+000) (8, -2.35434832195391410000e+000) (9, -1.99158006328729420000e+000) (10, -1.42649141691730860000e+000) (11, -1.19244942562294700000e+000) (12, -2.36449923510303250000e+000) (13, -1.89307174612099160000e+000) (14, -2.11478677163471930000e+000) (15, -1.85631914557529100000e+000) (16, -1.56974617873424240000e+000) (17, -1.70659317662579510000e+000) (18, -9.77036090156393810000e-001) (19, -2.78482946627104560000e+000) (20, -2.90745319203549000000e+000) (21, -1.67237259423085050000e+000) (22, -9.55428050084528020000e-001) (23, -2.48443365244198140000e+000) (24, -2.51589371102658930000e+000) (25, -1.94824835278199470000e+000) (26, -2.03245647229982440000e+000) (27, -2.67105681220640890000e+000) (28, -1.20799301138253460000e+000) (29, -1.58976309665884140000e+000) (30, -2.22048315479991490000e+000) (31, -2.21816251189916880000e+000) (32, -1.45332789355529050000e+000) (33, -1.65095348392718980000e+000) (34, -2.46044907405203440000e+000) (35, -2.06742700353204610000e+000) (36, -2.25125311028318010000e+000) (37, -1.29556362088100930000e+000) (38, -1.30258683329088190000e+000) (39, -1.33094594690123150000e+000) (40, -2.78258997043234760000e+000) (41, -1.95973157328193490000e+000) (42, -1.62900213424222120000e+000) (43, -1.14106042780553500000e+000) (44, -2.37668033088197460000e+000) (45, -1.92559912781802420000e+000) (46, -1.38963091354457240000e+000) (47, -2.70157299486094620000e+000) (48, -1.95300659332064400000e+000) (49, -1.25227636999556370000e+000) (50, -1.63733217797039020000e+000) (51, -2.47825290558034080000e+000) (52, 1.96638536262439920000e+000) (53, -1.27923973304790950000e+000) (54, -2.36088297229365910000e+000) (55, -1.27378361723025830000e+000) (56, 6.37317739104158230000e-001) (57, -2.30913229882048340000e+000) (58, 1.77516780790595470000e+000) (59, 4.83720687104827810000e+000) (60, 1.73675740321251660000e+000) (61, 7.62677664488573770000e-001) (62, -2.12433753421738110000e+000) (63, 4.15679582411208410000e+000) (64, 4.64789234081722040000e+000) (65, -2.89060459056145810000e+000) (66, 2.61748185441666450000e-002) (0, 1.18053983431036920000e+000) (1, 1.41840895051608260000e+000) (2, 3.14668427965430760000e-001) (3, 2.34213170877699640000e+000) (4, 2.31767050101841930000e+000) (5, 1.72909805685229530000e+000) (6, 1.44831282371813400000e+000) (7, 1.17100130632933160000e+000) (8, 4.16049856306180910000e-001) (9, 1.11788554091070710000e+000) (10, 2.10815147370338800000e+000) (11, 1.71030985568278560000e+000) (12, 4.44767949570796070000e-001) (13, 1.28647043275978200000e+000) (14, 7.60794046690698170000e-001) (15, 1.77037480327197080000e+000) (16, 1.08230127439152770000e+000) (17, 1.09275509251173860000e+000) (18, -3.29068722870599910000e-003) (19, 9.21409877956047230000e-001) (20, 1.78049523472720940000e+000) (21, 2.67486228273086320000e-001) (22, 1.00393235374551200000e+000) (23, 4.83811497360846830000e-001) (24, 1.39523999742258350000e+000) (25, 9.08231411993837390000e-001) (26, 6.17458542387020910000e-001) (27, 4.97555721244580860000e-001) (28, 1.67683140211011960000e+000) (29, 3.61464621411238420000e-001) (30, 3.40467820042426440000e+000) (31, 9.47449164865333700000e-001) (32, 5.04364346655329370000e-001) (33, 2.21938092075213690000e+000) (34, 1.14848015519174270000e+000) (35, 1.61813534415642260000e+000) (36, 1.19908404354826950000e+000) (37, 1.61772734667523550000e+000) (38, 1.47107996670273300000e+000) (39, 1.83132684460177720000e+000) (40, 6.15630101051403700000e-001) (41, 7.45418430385306860000e-001) (42, 1.55983920628385550000e+000) (43, 1.26723635070009590000e+000) (44, 8.97226386246971150000e-001) (45, 8.89961930776898670000e-001) (46, 1.84765549497568450000e+000) (47, 1.58798547910736110000e+000) (48, 1.99965099888423880000e+000) (49, 1.55155818114069950000e+000) (50, 6.81293799252127740000e-001) (51, 7.81252511361508080000e-001) (52, -1.01298077316030670000e+000) (53, 1.60780858773249370000e+000) (54, 1.81265356169220280000e+000) (55, -1.40729492357861050000e+000) (56, 5.86587741570572360000e-003) (57, 1.78520939127813440000e+000) (58, -2.02187149980792300000e+000) (59, 1.89617458881689130000e+000) (60, 1.64183850909746050000e+000) (61, 1.62821790789347260000e+000) (62, 4.54310145222278430000e-002) (63, 2.18460842447878930000e+000) (64, 1.39284306618931990000e+000) (65, 1.72457885701626430000e+000) (66, 8.18138523014890210000e-001) (67, 1.38694426743949610000e-001) (0, -4.54493553844892150000e-001) (1, -2.06069769504462600000e-001) (2, 2.30307721061129870000e-001) (3, -1.20613253924173260000e+000) (4, -5.60758359191164790000e-001) (5, -1.25785663312788310000e+000) (6, -9.87084500803827920000e-001) (7, -9.84666892479505900000e-001) (8, -9.61317885768291360000e-001) (9, -1.25041294433983930000e+000) (10, -3.87008666198450480000e-001) (11, 5.87855845521727050000e-002) (12, 3.16641786748099230000e-001) (13, -1.17857790261756330000e+000) (14, -5.67311350175511040000e-001) (15, -1.20944507979654030000e-001) (16, 7.05750296395056820000e-001) (17, -9.30826015008002550000e-001) (18, -3.02189043485050980000e-002) (19, 4.75515984562808140000e-001) (20, -3.45273923942564900000e-001) (21, -2.32977306044334610000e-001) (22, 3.92861129143096570000e-001) (23, 9.02263574374494310000e-002) (24, 4.47876578216482360000e-001) (25, -2.95201575041025950000e-001) (26, 2.79114010765242450000e-001) (27, -3.19529397928148330000e-001) (28, 7.89104758862046450000e-002) (29, 9.84093937661900230000e-001) (30, -2.82734213868658320000e-001) (31, -1.02304287348211940000e-001) (32, -1.70569099899946010000e-001) (33, -6.54154386036022050000e-001) (34, 8.60859534393175750000e-001) (35, -3.26313395392271610000e-001) (36, -5.40590416064584580000e-001) (37, -3.28404344456435070000e-001) (38, -1.47410957003809740000e-001) (39, 5.44978530853135300000e-001) (40, -9.27981151375839700000e-001) (41, 1.46837424574844720000e-001) (42, -4.37778441009210820000e-001) (43, 7.20319567612681120000e-001) (44, -2.67782403046364300000e-001) (45, 4.36568695863318760000e-001) (46, -1.11101873806117310000e+000) (47, 6.74194145635486520000e-001) (48, 2.28568476653013380000e-002) (49, 3.28909149987373710000e-002) (50, 3.20084773375255370000e-001) (51, 3.55133468096685720000e-001) (52, -7.98471249643344590000e-001) (53, -1.17724848189325490000e+000) (54, 2.38174669729902750000e-001) (55, 4.29952083607279820000e-001) (56, 4.12494028908305550000e-001) (57, 1.74543237252150910000e+000) (58, 2.92032207238120730000e+000) (59, 4.11425204569832170000e-001) (60, 3.50925324849506470000e+000) (61, 2.96459611188687110000e+000) (62, 1.09246147206883700000e+000) (63, 2.48751232582949730000e+000) (64, 1.32615976335849740000e+000) (65, 8.39106448412910040000e-001) (66, 8.11518394894710340000e-001) (67, 1.41673160198111580000e+000) (68, 1.76987521256485400000e+000) (0, 4.92734840278300150000e-002) (1, 8.43921554738600170000e-002) (2, 7.43507774521812490000e-001) (3, 6.79742940785753700000e-001) (4, 1.37949988243471040000e+000) (5, 9.25629312635091290000e-001) (6, 1.40650916265857550000e+000) (7, -1.67036214911978260000e-001) (8, -3.01827811500889780000e-001) (9, 1.45800047303590950000e-001) (10, -5.49434113930520440000e-001) (11, -5.52892530104027610000e-001) (12, -3.46354903190704940000e-001) (13, 6.18198249970610130000e-001) (14, 1.39007427044688400000e+000) (15, 2.66004084526311080000e-001) (16, 1.62489749658752650000e-002) (17, -6.38725846862105650000e-001) (18, 1.56957397457879430000e-001) (19, 4.61738506148585690000e-002) (20, 1.35452566595035640000e+000) (21, 1.21582291576429650000e-001) (22, 6.91223304446390690000e-001) (23, -2.86729410056600850000e-001) (24, -3.10124315442758760000e-001) (25, -3.97859557309256260000e-001) (26, 9.06785245078196690000e-001) (27, -5.31954366665230660000e-001) (28, 1.26074022661103950000e+000) (29, -6.77652666566463830000e-001) (30, -3.42451357395048840000e-001) (31, -1.10844990892198460000e+000) (32, -6.66644197920878260000e-001) (33, 1.31102116488599600000e+000) (34, 4.22083686699588460000e-001) (35, -7.01795395823173410000e-001) (36, 7.77524179332057640000e-001) (37, -3.73831056474580540000e-001) (38, -3.93621143582468800000e-001) (39, -2.74945933542231620000e-001) (40, 1.06262439190587530000e-002) (41, 8.40206093813857690000e-001) (42, 2.02239250790252430000e-001) (43, -1.59264676734356710000e-001) (44, 1.05213976198555350000e+000) (45, -6.07656949130078620000e-001) (46, 7.75294639690936700000e-001) (47, -6.08230259323509710000e-001) (48, -1.68864791443225640000e+000) (49, -3.29155597387772000000e-001) (50, 3.16509685960645330000e-001) (51, -1.80158648228290060000e-001) (52, -1.17078030913986360000e+000) (53, 3.45966037321359890000e-001) (54, -5.16564323894081330000e-002) (55, -4.31714420879335090000e-001) (56, 1.05967739068922510000e-001) (57, 1.01019105922984910000e+000) (58, -1.01758087690416670000e-001) (59, 2.26605407651458760000e+000) (60, 2.28274250042433420000e+000) (61, 3.21325744536384960000e-001) (62, 3.67351518749990110000e-002) (63, 2.60062081644010590000e+000) (64, 2.80083347621276600000e+000) (65, -1.02681895807229110000e+000) (66, 5.30372110014358020000e-001) (67, 6.00952964938986530000e-001) (68, 6.30915793203742800000e-001) (69, -3.87370107403623260000e-001) (0, 1.63301224901331480000e+000) (1, 7.87387828811996070000e-002) (2, -5.86819237427302350000e-001) (3, -4.64635394724567050000e-001) (4, 1.23825039154368780000e-001) (5, 4.88817962445690310000e-001) (6, 8.35691882435683040000e-001) (7, -2.65204765391164440000e-001) (8, 1.87664737248312060000e-001) (9, 1.28735785161595170000e-001) (10, 6.98002987169101250000e-001) (11, 1.09560448374070620000e+000) (12, 9.99032843295967980000e-001) (13, 1.71824836988444570000e+000) (14, -4.03856940894868790000e-001) (15, -9.50033938373919700000e-001) (16, -1.44964237385182910000e-002) (17, 3.37209292388434630000e-002) (18, -1.94227835244319580000e-001) (19, 1.33805112868787780000e+000) (20, -1.07880039434435200000e+000) (21, -2.01215357068224940000e-001) (22, -9.14255941192996520000e-002) (23, 7.82114200113017580000e-001) (24, 1.93185823253544360000e-001) (25, -7.03293260844014890000e-001) (26, -3.45288028828673390000e-002) (27, -1.07132737189926860000e-001) (28, -7.50085598187037350000e-001) (29, -3.33211836049399910000e-002) (30, 5.08042769147084680000e-001) (31, -7.24065021940954570000e-001) (32, -7.02838464036133260000e-001) (33, 5.72563251733332330000e-001) (34, 1.46944509899576240000e+000) (35, 4.61197316914976400000e-001) (36, -6.20883083343133910000e-001) (37, 4.69509239242239530000e-001) (38, -5.99581925337762220000e-001) (39, -4.28144743063935240000e-001) (40, 5.17381191069124610000e-001) (41, 5.60243674575801820000e-001) (42, -4.39057929231413680000e-001) (43, 5.06863227718028940000e-001) (44, 2.89964637114106800000e-001) (45, 9.09353072544079160000e-001) (46, -9.81985675381977340000e-001) (47, 2.53867465164884070000e-001) (48, 3.47531012535799210000e-001) (49, 2.42969285949616590000e-001) (50, 9.74557341439418300000e-001) (51, 8.93855523456338670000e-001) (52, 4.32229945993536650000e-002) (53, -5.27410863738734690000e-001) (54, 4.75337960568029350000e-001) (55, 9.02146393338668970000e-001) (56, 6.25425684991998240000e-001) (57, 9.15489996180811170000e-001) (58, 1.88089220703668850000e+000) (59, 1.61426621225791370000e+000) (60, 2.93399360971061010000e+000) (61, 2.94159128924428130000e+000) (62, 2.71460500514286360000e+000) (63, 1.29774263470371660000e+000) (64, -8.26951274037381060000e-003) (65, 1.30254177688325590000e+000) (66, 2.34325807623452680000e+000) (67, -1.65393855693848570000e-001) (68, 9.89040032503233360000e-001) (69, 1.50120450950871390000e+000) (70, 1.80510775634808020000e+000) (0, 7.36767446992704800000e-001) (1, 4.43855280268964150000e-001) (2, 4.08420606604978700000e-001) (3, 3.70176697551416020000e-001) (4, -1.11440749083512620000e+000) (5, -1.07070567226628400000e+000) (6, -2.78756677440922920000e-001) (7, -9.29669286457736940000e-001) (8, -1.14955580195100840000e+000) (9, 1.59420197074270100000e-001) (10, 3.83967489463886040000e-001) (11, -6.01226666705311000000e-001) (12, 1.35350157486301720000e-001) (13, -5.21457369974782310000e-001) (14, 6.41523297681033890000e-001) (15, -6.13757997648007200000e-001) (16, -7.56596662596487060000e-002) (17, -7.58438258183829370000e-001) (18, -1.60240313704890500000e-001) (19, 1.35967742373957230000e+000) (20, 1.25234900780284870000e+000) (21, 8.61536946217065920000e-002) (22, -1.15184387416844960000e-001) (23, -5.82104647070996630000e-001) (24, 5.50962123166077960000e-001) (25, -5.66105133572627590000e-001) (26, -8.52218659212724880000e-001) (27, 2.48008176235398780000e-001) (28, 6.20146641278719990000e-001) (29, 1.49219930827298720000e+000) (30, -3.00086268963614190000e-002) (31, 5.17542136943860840000e-002) (32, -3.72802216732905810000e-001) (33, 3.91884425561785490000e-001) (34, 1.95545637206536170000e-001) (35, 9.23062366395731170000e-002) (36, 1.09776452386554180000e-002) (37, 5.04298053430291550000e-001) (38, -7.31937422786812730000e-001) (39, 5.24748490237017200000e-001) (40, 1.94722237155102420000e-002) (41, -3.73696064356862200000e-001) (42, -6.11842609882386370000e-001) (43, -3.61884506468867050000e-001) (44, 6.52249469168510560000e-001) (45, 6.19624030894102340000e-001) (46, -7.90165210861686120000e-001) (47, -1.00353940795184690000e+000) (48, -6.71288114848081370000e-001) (49, -6.27995713372455410000e-001) (50, -1.33383716763343260000e+000) (51, 1.54950958954488210000e-001) (52, 1.02172627119011580000e+000) (53, -1.21215292598624110000e-001) (54, 4.25271380969846850000e-001) (55, 3.37806644312423910000e-001) (56, 3.72500239551449950000e-001) (57, 1.12626228252781680000e+000) (58, -9.45982248241728720000e-001) (59, 2.59832149417657820000e+000) (60, 1.30784562909848440000e-001) (61, 7.57735211788401200000e-001) (62, 1.25718635736101430000e+000) (63, 2.09257555781514700000e+000) (64, 2.60180434986778990000e+000) (65, 3.84764913736541430000e-001) (66, 1.23501338269686080000e+000) (67, 9.06005345177557820000e-001) (68, 9.76236229916988440000e-001) (69, 1.82150511652996010000e+000) (70, 2.13152959679894450000e+000) (71, 2.38708938134169420000e+000) (0, 1.07728485885783390000e+000) (1, 1.07947306496037120000e+000) (2, 1.40050627924476960000e+000) (3, 8.70926105332660790000e-001) (4, 3.47801108534373020000e-001) (5, 1.26117671381773630000e+000) (6, 1.56802132098066590000e+000) (7, 1.88317457195346450000e+000) (8, 6.57330046774337370000e-001) (9, 1.31201155675558510000e-001) (10, 1.18134982059830310000e+000) (11, 3.02851551952180330000e-001) (12, 1.49893175206937100000e+000) (13, -1.72361691174029750000e-001) (14, 1.86509883741798090000e-002) (15, 1.09193603067517510000e+000) (16, 8.73388884959561800000e-001) (17, 1.32666820726210880000e+000) (18, 1.77402616281581600000e-001) (19, -4.56689283730501940000e-001) (20, 1.51221286989229720000e+000) (21, 2.56010915478779740000e-001) (22, 1.02337948517248620000e+000) (23, 1.15430237909677720000e+000) (24, 1.15653914937824640000e+000) (25, 3.78710056399121860000e-001) (26, 1.47118664705799280000e+000) (27, 3.20247095095571590000e-002) (28, 9.44755201089681030000e-001) (29, 1.33440449572810050000e+000) (30, 3.52642566586418180000e-001) (31, 1.71281758498778670000e+000) (32, 1.46448283658076050000e+000) (33, 6.95254535484543250000e-002) (34, -2.05570678108764670000e-001) (35, 1.00391221002938980000e+000) (36, 1.44473382937114890000e+000) (37, 6.35717004640157120000e-001) (38, 1.43834256490201890000e+000) (39, 1.81306240072710880000e+000) (40, 1.66167241634728580000e+000) (41, -1.57811823618498440000e-001) (42, 1.19170366903829360000e+000) (43, 1.42146962670351580000e+000) (44, 9.28191834976065280000e-001) (45, 1.47132148956272960000e+000) (46, 5.56923281964305630000e-001) (47, 1.11196497887181670000e-001) (48, 5.34362118388276960000e-001) (49, 9.87055380736752250000e-001) (50, 5.32403041836931550000e-001) (51, -1.68613060571328080000e-001) (52, -3.36688535380034320000e+000) (53, -1.04444537330795640000e-001) (54, 4.04635658963485190000e-001) (55, -1.87329111977767230000e+000) (56, -2.92532045322945910000e-001) (57, 1.23116015361731890000e+000) (58, -4.19172291305090040000e-001) (59, 1.92314060120568130000e+000) (60, 1.13551703589470480000e-001) (61, 1.25967191718336280000e+000) (62, 9.28801535616152200000e-001) (63, 2.43169270714769730000e+000) (64, 2.22697433010901770000e+000) (65, 1.34722166293363470000e+000) (66, 7.78762859803137090000e-001) (67, 1.70815349483210780000e+000) (68, 1.28194122765490230000e+000) (69, 8.34073633570517340000e-001) (70, 9.55146287204771240000e-001) (71, 8.01238913452060110000e-001) (72, 2.12367505872020110000e+000) (0, 3.42057612645290440000e-001) (1, 1.40918980171086150000e+000) (2, 1.78658132909590490000e+000) (3, 1.05981954725252580000e+000) (4, 7.85940393372991710000e-001) (5, 1.13826562609310990000e+000) (6, 7.62269455055909820000e-001) (7, 7.24971733329264570000e-001) (8, 6.51847726582171050000e-001) (9, 1.32301479113489040000e+000) (10, 1.40842209560328050000e+000) (11, 1.75314877512859120000e-001) (12, -3.05150520394381970000e-002) (13, 7.97143690668051910000e-001) (14, 7.41861267696047320000e-001) (15, 1.45173351517264380000e+000) (16, 5.15037354790727420000e-002) (17, 1.12535118564438900000e+000) (18, -6.60025761504653280000e-003) (19, 2.12718466296121990000e+000) (20, 1.68109773124457630000e-001) (21, 8.13427280118564530000e-003) (22, 3.01256440264818510000e-001) (23, 1.17477976624209710000e+000) (24, -1.85098120133343620000e-001) (25, -3.99777580554442180000e-001) (26, -7.70818165711454620000e-002) (27, 3.23386989149055000000e-001) (28, 5.30572840883746340000e-001) (29, 1.08895108313101870000e+000) (30, 1.61994780754123460000e+000) (31, 1.02826554632013780000e+000) (32, 6.66817995680001220000e-001) (33, 1.39006112453030070000e+000) (34, 6.11862424601727680000e-001) (35, 5.08204991545649910000e-002) (36, 1.03422934366649110000e+000) (37, 4.99193446777197510000e-001) (38, 7.66427863138640420000e-001) (39, 1.68294100457246530000e+000) (40, 1.69843518259140460000e+000) (41, 1.43708312361963910000e+000) (42, 3.67424718572786250000e-001) (43, 7.95408768699824460000e-001) (44, 5.14620259852061060000e-001) (45, 4.51860285557311780000e-001) (46, 5.70151001633755980000e-001) (47, 1.44386452756993820000e+000) (48, 1.44239167795340870000e+000) (49, 2.93456925359758480000e-001) (50, 5.75724454139888380000e-001) (51, 1.83149213638939550000e+000) (52, 4.47504851608293060000e-001) (53, -3.74287907651632830000e-001) (54, 4.15008979483089240000e-001) (55, -1.16755177287591510000e+000) (56, 5.76233754263862590000e-001) (57, 2.10997506492345590000e+000) (58, -2.76979105441316100000e-001) (59, 1.41480816595722000000e+000) (60, 2.76481416827499870000e+000) (61, 2.48267690200754030000e+000) (62, 1.39627990165248360000e+000) (63, 2.11934764894876220000e+000) (64, 4.09926934176311820000e-001) (65, 2.21862467343482450000e+000) (66, 3.99025567129662580000e-001) (67, 2.21503436461259890000e+000) (68, 5.57244681120501520000e-001) (69, 1.00333822481386690000e+000) (70, 9.41550432822811260000e-001) (71, 1.72104101490678830000e+000) (72, 1.14954290854701860000e+000) (73, 1.87694444548004860000e+000) (0, 1.42227711552933770000e+000) (1, 7.41646055394480470000e-001) (2, 1.61354935113962190000e+000) (3, 1.67118103196883960000e+000) (4, 2.58355457469627800000e+000) (5, 1.79848301140048930000e+000) (6, 2.60775988064454940000e+000) (7, 1.32929709424973620000e+000) (8, 6.41751141957169870000e-001) (9, 1.66163978703155800000e+000) (10, 2.54891153099782610000e+000) (11, 1.32776024942762370000e+000) (12, 1.74206799938877730000e+000) (13, 1.78285842237567920000e+000) (14, 1.16901698634358970000e+000) (15, 1.75039257550855320000e+000) (16, 2.54769486218032040000e+000) (17, 1.49329124380932110000e+000) (18, 2.08593702833644420000e+000) (19, 5.47619396602781030000e-001) (20, 6.31185333805146630000e-001) (21, 1.28159086956332820000e+000) (22, 2.67730301838693260000e+000) (23, 2.57798351221612030000e+000) (24, 2.23244956804449930000e+000) (25, 7.64378551721560770000e-001) (26, 1.10811951026738310000e+000) (27, 1.86860155640937080000e+000) (28, 1.25175046593397780000e+000) (29, 1.11983795203599070000e+000) (30, 1.57679314581076540000e+000) (31, 1.94333063588458970000e+000) (32, 1.40870074339221380000e+000) (33, 1.82063919091927740000e+000) (34, 1.60266336698299190000e+000) (35, 1.63224762980865700000e+000) (36, 1.37444191089929000000e+000) (37, 1.43649202059208100000e+000) (38, 1.79336019532678100000e+000) (39, 7.19874087081220470000e-001) (40, 2.21842585904272300000e+000) (41, 7.35690781708794650000e-001) (42, 1.55406064948368510000e+000) (43, 1.10658266544527060000e+000) (44, 1.03966588048245680000e+000) (45, 1.06963435451365000000e+000) (46, 1.04863080861144620000e+000) (47, 1.18694684260156860000e+000) (48, 7.49906596313335010000e-001) (49, 2.56472822562540030000e+000) (50, 1.64063624112935420000e+000) (51, 1.08442648592648250000e+000) (52, 1.97547630674710860000e+000) (53, 1.40044020247335930000e+000) (54, 6.82477529743150350000e-001) (55, 8.82523497421456970000e-001) (56, 2.48690744063755690000e-001) (57, 1.18925210983473730000e+000) (58, 1.51165133060535110000e-001) (59, 7.78876161806800640000e-001) (60, 1.53061143130831990000e+000) (61, 1.56493429900216510000e+000) (62, 7.31067912604307480000e-001) (63, 2.30931746382713450000e+000) (64, 1.20983306400750680000e+000) (65, 1.11678663637506270000e+000) (66, 1.13896646124307640000e-001) (67, 1.64753970819071040000e+000) (68, 9.18434910500186220000e-001) (69, 6.32581773587266640000e-001) (70, 1.75682175027770370000e+000) (71, 2.16607071936606890000e+000) (72, 7.55375243068664100000e-001) (73, 1.15457068561237900000e+000) (74, 1.31634396779522490000e-001) (0, 2.10570356876855770000e+000) (1, 3.01343893513553510000e+000) (2, 2.65574133719060160000e+000) (3, 3.89169196947336630000e+000) (4, 2.06936338994132640000e+000) (5, 2.10845952589302140000e+000) (6, 3.93745367614469450000e+000) (7, 3.07016037827856800000e+000) (8, 3.49021951766776350000e+000) (9, 2.09660250105521230000e+000) (10, 2.56223107103728510000e+000) (11, 2.60485226842724770000e+000) (12, 3.12489496861094110000e+000) (13, 2.57357535966589170000e+000) (14, 3.89515293888548350000e+000) (15, 2.29663371467036010000e+000) (16, 3.23724829045245150000e+000) (17, 3.29922527973981070000e+000) (18, 1.71030418572314650000e+000) (19, 2.51446683783120850000e+000) (20, 2.56152605874963160000e+000) (21, 3.21949479920881300000e+000) (22, 2.89941922061411630000e+000) (23, 2.72848578687121450000e+000) (24, 2.49519081168405070000e+000) (25, 2.10140940301648630000e+000) (26, 2.90813573617055980000e+000) (27, 3.12816366194460740000e+000) (28, 3.64846273023290290000e+000) (29, 3.79613075848323960000e+000) (30, 2.43077832540297930000e+000) (31, 1.93393693868570130000e+000) (32, 2.52948004567447170000e+000) (33, 2.29503141401660220000e+000) (34, 2.79129597249852690000e+000) (35, 2.22613248590500850000e+000) (36, 3.39356874223308140000e+000) (37, 2.09794843360436900000e+000) (38, 2.74784157876861010000e+000) (39, 3.51015213780051290000e+000) (40, 2.53242827887738640000e+000) (41, 3.65346190827262780000e+000) (42, 2.53056961011902710000e+000) (43, 3.51765090486010030000e+000) (44, 2.03526643202935590000e+000) (45, 3.29185469673252400000e+000) (46, 2.20594349766765770000e+000) (47, 2.32489829820265110000e+000) (48, 3.99577741994148510000e+000) (49, 3.51470267165718560000e+000) (50, 2.57248579522133620000e+000) (51, 3.07906916991346250000e+000) (52, 2.29586461035655630000e+000) (53, 3.25532224182684170000e+000) (54, 3.13963613462551460000e+000) (55, 1.11727634147832710000e+000) (56, -4.50732127479475660000e-001) (57, 2.93587190976956070000e+000) (58, 9.87288127072153960000e-002) (59, 1.50155234205851550000e+000) (60, 7.45943663108651790000e-001) (61, -5.66033682523900740000e-001) (62, 1.96999467216196940000e+000) (63, 3.86066357693972950000e+000) (64, 2.55523718831001820000e+000) (65, 2.06870679595573480000e+000) (66, 1.54218039760858480000e+000) (67, 1.70472817944806860000e+000) (68, 1.80335540417113770000e+000) (69, 2.34058517088539110000e+000) (70, 3.87767038962313510000e-001) (71, 3.81208182111778720000e+000) (72, 1.76093277188885940000e+000) (73, 3.39003582891793180000e+000) (74, 6.56265348188846630000e-001) (75, 1.63267833853283630000e+000) (0, 7.89244757608523200000e-001) (1, -2.00037103025750950000e-001) (2, 3.85489968645343790000e-001) (3, 3.63418692691640650000e-002) (4, -1.92082966644592350000e-001) (5, 7.35920993244290940000e-001) (6, 6.22125525984812190000e-001) (7, 6.24691376430347220000e-001) (8, 6.88003736173924190000e-001) (9, -3.21021913654829450000e-002) (10, 1.51747903895426270000e+000) (11, -1.49472775098538820000e-001) (12, 3.15378105221099100000e-001) (13, 6.79842641756261630000e-001) (14, 1.38963554050547970000e+000) (15, 1.45596277452256030000e+000) (16, -4.33423063177877380000e-002) (17, 6.54600608271002750000e-001) (18, 4.38276692977482150000e-002) (19, 5.42060661484960680000e-001) (20, 1.41173460448048290000e-002) (21, 2.41384555375771220000e-001) (22, 4.76792672702280480000e-001) (23, 3.48551251464194190000e-001) (24, 8.41467307541309610000e-001) (25, -1.26092873631677570000e-001) (26, 5.47347325067070730000e-001) (27, 1.14231448111991070000e-001) (28, 1.87855338078007810000e-001) (29, 2.99003217150659200000e-001) (30, 2.22750904137284270000e-001) (31, 1.03631793415530530000e+000) (32, 1.30123703053469510000e-001) (33, 4.56948903553494490000e-001) (34, 3.41459646894271410000e-002) (35, 7.47881652383755150000e-001) (36, 7.17831747603268950000e-001) (37, 8.91936607336623940000e-001) (38, 7.91728240434677930000e-001) (39, 1.09347225282959840000e+000) (40, 1.63659864588822670000e+000) (41, 1.51985245061638260000e+000) (42, 1.83083352461522870000e+000) (43, 1.18282799459535590000e+000) (44, 7.19242965348313220000e-001) (45, 3.28528088754466040000e-001) (46, 1.27673812090193820000e+000) (47, 4.31413729498319050000e-002) (48, 1.07440629401841180000e+000) (49, 4.59065730171060890000e-001) (50, 9.98136389524883150000e-001) (51, 5.91399466899530160000e-001) (52, -1.00999312012204090000e+000) (53, -1.93299062322206620000e-001) (54, 3.30822834902358700000e-001) (55, -1.09782817391845900000e+000) (56, 1.40151664870432460000e-001) (57, 1.23470242921989780000e+000) (58, 9.89205215762928860000e-001) (59, 1.06277671226864930000e+000) (60, 2.43617482993171830000e+000) (61, 4.51668106407298040000e-001) (62, 1.82132753609531450000e+000) (63, 2.00338112841536330000e+000) (64, 1.96758751470014850000e+000) (65, 1.72728911726645550000e+000) (66, 5.50205225377258130000e-001) (67, 2.44559894949398740000e+000) (68, 1.19795417035257780000e+000) (69, 2.49114279490223420000e+000) (70, 1.36442022121600020000e+000) (71, 1.64608645387460850000e+000) (72, 2.60014043196583610000e-001) (73, 1.26252645579313260000e+000) (74, 4.04464920070868210000e-001) (75, 1.98425903938678920000e+000) (76, 1.34420764574807470000e+000) (0, 4.88851953308608260000e-001) (1, 6.12017632332936060000e-002) (2, 1.05543387726878550000e+000) (3, 6.01103951225013600000e-002) (4, -2.76484406100280110000e-002) (5, -2.60495036953761800000e-001) (6, -3.29829011051151640000e-001) (7, -5.14398618023369610000e-001) (8, -1.60538557630025030000e-001) (9, 3.54137803794765170000e-001) (10, 6.17478509116517690000e-001) (11, 1.02873050648437770000e+000) (12, 3.91416337224893480000e-003) (13, -7.34081973940473190000e+000) (14, -3.61093497519141270000e-001) (15, 5.29141890266509930000e-001) (16, 5.86036068110495580000e-001) (17, -5.89145575759631450000e-001) (18, 9.36524471015875580000e-002) (19, -8.90790673313936240000e-001) (20, 5.29193974862212310000e-001) (21, 2.96462373446588390000e-002) (22, 2.20017792444173050000e-001) (23, 1.18777344229032940000e-001) (24, 1.26759693197355560000e+000) (25, 1.87374949019324140000e-001) (26, 6.02056354168855500000e-001) (27, 5.44011826368707930000e-001) (28, 1.30019539922049530000e+000) (29, -1.85688056483847670000e-001) (30, 4.65485564136631880000e-003) (31, -5.07049627796014370000e-001) (32, 8.19702600233904400000e-001) (33, -6.51630182284837910000e-002) (34, 3.05042404627677510000e-001) (35, -2.24527921603218770000e-001) (36, 5.22978870346741950000e-001) (37, 1.04159867726767200000e+000) (38, 5.58031046140422430000e-001) (39, 4.01704378904229780000e-001) (40, -7.82939582888842690000e-001) (41, 1.76886782977271590000e-001) (42, -7.55013187390977670000e-001) (43, 1.22633351869026220000e+000) (44, 6.70249367179530990000e-001) (45, -5.71727542902044640000e-001) (46, 5.23556653464220200000e-001) (47, 2.96937275164418650000e-001) (48, 9.22783905889071220000e-001) (49, -6.81914397074431130000e-001) (50, -6.80900247882808700000e+000) (51, 1.17702935933211840000e+000) (52, -9.92841030055447440000e-002) (53, 7.18604771209007680000e-001) (54, 6.38837580829814120000e-001) (55, -5.51633530038634470000e-001) (56, -2.27147461305916700000e-001) (57, 5.48797973651043770000e-001) (58, 8.52045302408960480000e-001) (59, 2.04154914394824290000e+000) (60, 9.97963763010913720000e-001) (61, 1.44415703965940970000e+000) (62, 1.35354580681070450000e+000) (63, 1.91480616287934510000e+000) (64, 2.21185088338732920000e+000) (65, 1.46640610909145550000e+000) (66, 5.36753073068953810000e-001) (67, 1.39026713383265530000e+000) (68, 3.82228188205604950000e-001) (69, 2.04290526408641650000e+000) (70, 1.18923896357499430000e+000) (71, 5.96369286918147950000e-001) (72, 1.66019640244393060000e+000) (73, 2.37838081746939430000e+000) (74, 6.24832899422304470000e-001) (75, 1.02106372176405550000e+000) (76, 1.58343928944288280000e+000) (77, 9.28104837974220720000e-001) (0, 2.17852181495645430000e+000) (1, 8.12548936159416040000e-001) (2, 2.37833253190574110000e+000) (3, 2.50085312265245820000e+000) (4, 1.26639552925580310000e+000) (5, 1.52891211750493050000e+000) (6, 7.66932984701540250000e-001) (7, 1.23549232833856610000e+000) (8, 1.02932107731275860000e+000) (9, 1.33372724352038600000e+000) (10, 9.83833621492791850000e-001) (11, 2.53406924505206630000e+000) (12, 1.38853063308879170000e+000) (13, 1.39367045860517200000e+000) (14, 2.00081234772760340000e+000) (15, 1.01184567055706530000e+000) (16, 7.48301117204661410000e-001) (17, 1.85040820355452260000e+000) (18, 7.36822681257166210000e-001) (19, 1.69505697732192600000e+000) (20, 1.03349718554481760000e+000) (21, 1.70842052366451490000e+000) (22, 1.93418735947152260000e+000) (23, 2.69892914848996670000e+000) (24, 2.02349182781863140000e+000) (25, 1.35916937982646880000e+000) (26, 1.76836373874930100000e+000) (27, 1.62714703268675030000e+000) (28, 2.41758794928709620000e+000) (29, 1.75365098820866220000e+000) (30, 1.77999259398011160000e+000) (31, 1.28419217510627020000e+000) (32, 8.54759753212689820000e-001) (33, 1.60568826115586230000e+000) (34, 1.93476558984211540000e+000) (35, 1.87283069236973200000e+000) (36, 1.69133060382255020000e+000) (37, 1.37542407802202170000e+000) (38, 1.31766528878169730000e+000) (39, 1.58268754197006010000e+000) (40, 1.91716168744851270000e+000) (41, 6.78206746725024120000e-001) (42, 9.06993230022905330000e-001) (43, 1.16475547966938130000e+000) (44, 1.90835973625171130000e+000) (45, 2.07906619121449410000e+000) (46, 1.92731284284336390000e+000) (47, 7.12322338589998830000e-001) (48, 1.66119837673277030000e+000) (49, 1.60164064856171270000e+000) (50, 1.95416843116645130000e+000) (51, 1.08540942326025910000e+000) (52, 2.04655679482338780000e+000) (53, 2.07052123129351170000e+000) (54, 2.51903525541665370000e+000) (55, 2.06204051919148370000e+000) (56, 1.40005291632709830000e+000) (57, 1.44406267231110520000e+000) (58, 1.09699720439806370000e-001) (59, 1.36092446511399250000e+000) (60, 1.27945976014902390000e+000) (61, 1.28402135529481140000e+000) (62, 1.85833385901190560000e-001) (63, 1.93709890550023190000e+000) (64, 1.05818874219918850000e+000) (65, 1.54300431350142730000e+000) (66, 1.27560614109228120000e-001) (67, 7.23074898081392110000e-002) (68, 1.56279389182003430000e-001) (69, 1.60776736508836250000e-001) (70, 9.91949240856836560000e-001) (71, 1.74197827933464210000e+000) (72, 2.17969866987338530000e+000) (73, 2.14025050903516600000e+000) (74, 3.57824797243068760000e-001) (75, 1.34364333128482370000e+000) (76, 1.38527591796750470000e+000) (77, 1.18893458324177460000e+000) (78, 2.12566625413243670000e+000) (0, 1.64376211924249800000e+000) (1, 1.33445561152082640000e-001) (2, 1.21811110853905900000e+000) (3, 6.37779678146951580000e-001) (4, 1.42061161824865940000e-001) (5, 4.59385560499451280000e-001) (6, 2.65251392340186020000e-001) (7, 1.43710167489353680000e+000) (8, 1.25996749688220790000e+000) (9, 8.73294195045498880000e-001) (10, 1.72501704663028120000e+000) (11, -2.25536684084519050000e-001) (12, 1.39710985684524400000e+000) (13, 1.49756309400826460000e-001) (14, 2.25228360985207710000e-004) (15, 9.35725152159473610000e-001) (16, 1.76267390997875650000e+000) (17, -6.09293917260263840000e-002) (18, -7.37466573504802770000e-002) (19, 2.56879795735460770000e-001) (20, 8.29388415162771950000e-001) (21, 2.48766013907623180000e-001) (22, 4.09489768166522270000e-001) (23, 5.18663684533005260000e-001) (24, 1.72125889179474890000e+000) (25, 7.78006620082979380000e-001) (26, 1.21138475022771000000e-001) (27, 5.71191437398246850000e-001) (28, 5.02496631449719790000e-001) (29, 1.60207350435267480000e+000) (30, 1.58133224910546240000e+000) (31, 6.35940404846480070000e-001) (32, 3.19131044308786030000e-001) (33, 1.51187878656981130000e+000) (34, 1.03833032003204620000e+000) (35, 3.16098660648649500000e-001) (36, 7.03939775850638490000e-001) (37, 1.91927075377677150000e+000) (38, 1.50178297546682060000e+000) (39, -2.45319390813339810000e-001) (40, 1.31204687408336080000e+000) (41, -1.97740700530804890000e-001) (42, 5.97813831010664210000e-001) (43, 1.57887331283000880000e+000) (44, 3.20224068274736150000e-001) (45, 5.48601781630903120000e-001) (46, 9.08913917229991150000e-001) (47, 1.25424519494282190000e+000) (48, 1.33746723076027530000e-001) (49, 4.32612650185372430000e-001) (50, 2.54172245912767710000e-001) (51, 1.70810732292175870000e+000) (52, -2.53658912168888280000e-002) (53, 1.46927306194837900000e-001) (54, 7.21465527633831430000e-001) (55, -1.79702764929806240000e+000) (56, -1.28883629270305780000e-001) (57, 9.65376299059121920000e-001) (58, -9.19452365493044990000e-001) (59, 1.98012042970439480000e+000) (60, 7.83555833150145880000e-001) (61, 3.36254167417909920000e-001) (62, 3.15449753922870450000e-001) (63, 2.36308711090589440000e+000) (64, 2.92389761113005520000e+000) (65, 7.67882111152004110000e-001) (66, 1.70254909320408850000e+000) (67, 1.85500372941750280000e+000) (68, -8.85393008022140380000e-001) (69, 9.38856759369072870000e-001) (70, 1.63239335206887050000e+000) (71, 1.81185225637361970000e+000) (72, 1.71188620949674950000e+000) (73, 2.32293740374641540000e+000) (74, -2.32489099692083870000e-001) (75, 8.28708580190668950000e-001) (76, 4.56758954130582100000e-001) (77, 3.62842302331581210000e-001) (78, 2.93694960319404790000e+000) (79, -2.93152330801784220000e-002) (0, 3.10336247687233690000e+000) (1, 2.26913474667097150000e+000) (2, 1.21097616375053010000e+000) (3, 2.60454643904384400000e+000) (4, 1.92034004412860780000e+000) (5, 2.18362503265532840000e+000) (6, 2.79950086603210480000e+000) (7, 1.24256778871793470000e+000) (8, 1.00469765123423870000e+000) (9, 2.19951735723159910000e+000) (10, 9.01429712186001100000e-001) (11, 2.55995785227722150000e+000) (12, 2.01743120925246360000e+000) (13, 2.43906037098648150000e+000) (14, 1.19173808663188700000e+000) (15, 1.97708915455885400000e+000) (16, 1.39074602150802210000e+000) (17, 1.22030566603214650000e+000) (18, 2.65190170579742810000e+000) (19, 2.82227771987825800000e+000) (20, 2.02573124921334990000e+000) (21, 2.83662585097343370000e+000) (22, 1.40333413697668540000e+000) (23, 2.54406552770095070000e+000) (24, 1.15544953982615130000e+000) (25, 1.52361100227724930000e+000) (26, 1.50823340886134360000e+000) (27, 2.84466852535413750000e+000) (28, 1.32119297346369540000e+000) (29, 1.50128453819641550000e+000) (30, 1.76907342437633020000e+000) (31, 8.42171287348975280000e-001) (32, 2.36133596577136020000e+000) (33, 1.21277772281180770000e+000) (34, 2.93809223096039320000e+000) (35, 1.65004184354191350000e+000) (36, 8.33420857622769520000e-001) (37, 1.64766121192522520000e+000) (38, 1.59889043448063720000e+000) (39, 1.04812809289003940000e+000) (40, 1.15068827659277460000e+000) (41, 2.71116013063445390000e+000) (42, 1.82106127157319970000e+000) (43, 1.82582253480657640000e+000) (44, 1.60468116003474390000e+000) (45, 1.14599135475444360000e+000) (46, 1.62925957294217480000e+000) (47, 1.92999125338545240000e+000) (48, 1.72158947483265480000e+000) (49, 2.45907054484567270000e+000) (50, 2.81603660455883190000e+000) (51, 1.13119283389394850000e+000) (52, 2.55757722066053320000e+000) (53, 1.32556818832679820000e+000) (54, 1.47130144810515160000e+000) (55, 1.64058365847020580000e+000) (56, 7.61319336651765880000e-001) (57, 1.95772239465011920000e+000) (58, 1.45916175315148530000e+000) (59, 4.75377962896412880000e-001) (60, 1.68974048428506760000e+000) (61, -5.94838399453440220000e-002) (62, 2.57041670950709890000e-002) (63, 1.70030944177512850000e+000) (64, 2.58148424437056570000e+000) (65, 2.21064841857449320000e+000) (66, 8.44765771860758300000e-001) (67, 1.43451899884900880000e+000) (68, 1.45826532778603690000e+000) (69, 3.65744085746038010000e-001) (70, 1.85564896686080650000e+000) (71, 1.07124362241399810000e+000) (72, 5.71310982909448150000e-001) (73, 2.88356709410980150000e+000) (74, 3.36601787955558280000e-001) (75, 1.59144766136530190000e+000) (76, 1.11764198241446830000e+000) (77, 6.18545781045511500000e-001) (78, 1.41806313915547260000e+000) (79, -4.65864091053546920000e-001) (80, 1.55581806594816770000e+000) (0, 1.11978419884082770000e+000) (1, 1.46997726027013660000e+000) (2, 6.69600362563253610000e-001) (3, 6.17190516635057750000e-001) (4, 1.63976198227585220000e+000) (5, 1.74780095213766140000e+000) (6, 9.52896827039988010000e-001) (7, 1.84373543669910100000e+000) (8, 7.67080100567293590000e-001) (9, 2.59170248847778950000e+000) (10, 6.82026775664164920000e-001) (11, 8.39256313448752510000e-001) (12, 6.65157758915777550000e-001) (13, 2.07797010437327500000e+000) (14, 1.42188124686920010000e+000) (15, 2.36261866561228470000e+000) (16, 1.94617286283148380000e+000) (17, 1.17335298485097410000e+000) (18, 6.87607618154612470000e-001) (19, 1.22138461269180220000e+000) (20, 2.52358256588315650000e+000) (21, 1.11134969046663400000e+000) (22, 2.37189018626788690000e+000) (23, 1.38221974184245730000e+000) (24, 2.35210192145734240000e-003) (25, 1.36209681386714350000e-001) (26, 2.24897815202104920000e+000) (27, 1.65952834922911530000e+000) (28, 1.30502145527254720000e+000) (29, 1.48794083154036590000e+000) (30, 1.06627979839079010000e+000) (31, 2.10951902882636590000e+000) (32, 2.33061904223843540000e+000) (33, 1.49096695286545830000e+000) (34, 1.28287282259527520000e+000) (35, 1.92415300127442860000e+000) (36, 2.28831772924725030000e+000) (37, 3.57374080358892290000e-001) (38, 1.05604249433356270000e+000) (39, 7.56971567630282840000e-001) (40, 1.90947309356972510000e+000) (41, 1.99072767042646070000e+000) (42, 2.47819074600677070000e+000) (43, 1.70163650553997540000e+000) (44, 7.19949870567982320000e-001) (45, 1.53661631498227760000e+000) (46, 2.62762963101824810000e+000) (47, 2.53890632918894350000e+000) (48, 1.41035623160980570000e+000) (49, 2.43949502438165310000e+000) (50, 1.78083074447324430000e+000) (51, 8.98941727669191780000e-001) (52, 1.99671552751653740000e+000) (53, 1.00974927661565990000e+000) (54, 8.99456812150058570000e-001) (55, 1.44415865066668880000e+000) (56, 4.85436959414397910000e-001) (57, 2.21327391849951370000e-001) (58, 9.73157577235139070000e-001) (59, 2.15106905866261840000e+000) (60, 3.02388812026362470000e-001) (61, 1.81665886823208560000e-001) (62, 1.44555443175009460000e+000) (63, 1.80435281747916170000e+000) (64, 6.77412358902733210000e-001) (65, 7.95364565088367910000e-003) (66, 9.31950818765795890000e-001) (67, 1.29070715968951590000e+000) (68, 1.99643728403712630000e+000) (69, 4.12409802268999750000e-002) (70, 9.97666134881659780000e-001) (71, 2.12763271478317950000e+000) (72, 1.78993045201489150000e+000) (73, 9.84338323939231600000e-001) (74, 5.89470092566958740000e-002) (75, -4.02067533101611520000e-002) (76, 1.43016628288419920000e+000) (77, 1.34916924826789650000e+000) (78, 2.47492842600761250000e+000) (79, -4.22670912336283110000e-002) (80, 7.07673572153657120000e-001) (81, 7.02995767020507810000e-001) (0, 1.99760869179151190000e+000) (1, 1.65494226438497180000e+000) (2, 2.42524518140746270000e+000) (3, 1.34484959629955460000e+000) (4, 2.35295680127202990000e+000) (5, 5.96065680137343510000e-001) (6, 2.52555980517829060000e+000) (7, 2.21134373573042400000e+000) (8, 1.43395372261622440000e+000) (9, 1.76279498127152670000e+000) (10, 1.88688359102272420000e+000) (11, 1.27043508733660900000e+000) (12, 1.97940240909267210000e+000) (13, 1.50334283616868540000e+000) (14, 2.23318487732214570000e+000) (15, 9.87208956253397550000e-001) (16, 2.18202892916926360000e+000) (17, 2.19755611242473540000e+000) (18, 2.38439773666070300000e+000) (19, 7.47020826890747340000e-001) (20, 2.62928912070239650000e+000) (21, 2.68572817685091620000e+000) (22, 8.43598618176855890000e-001) (23, 2.02314912042240280000e+000) (24, 2.67541967344479390000e+000) (25, 9.72841479631114560000e-001) (26, 1.67137144168847930000e+000) (27, 1.57447150967092940000e+000) (28, 1.05569607575782330000e+000) (29, 1.09319325689759330000e+000) (30, 1.54451242164688640000e+000) (31, 9.76127315091816050000e-001) (32, 2.39354653343363650000e+000) (33, 2.29806402063442810000e+000) (34, 2.40102019840307520000e+000) (35, 6.17004827681029490000e-001) (36, 6.37235265615544550000e-001) (37, 2.56389455221980800000e+000) (38, 2.23460229654048750000e+000) (39, 2.24523294067805110000e+000) (40, 2.29928815541390510000e+000) (41, 9.17433273823207050000e-001) (42, 2.10684128245085930000e+000) (43, 8.62604921331893930000e-001) (44, 1.42409621623412000000e+000) (45, 1.01768346944774700000e+000) (46, 9.41658256827594520000e-001) (47, 6.05472189495430140000e-001) (48, 8.23110467657187760000e-001) (49, 2.60358229033337900000e+000) (50, 1.39123786162710510000e+000) (51, 1.63348769167097970000e+000) (52, 2.05980873566042580000e+000) (53, 2.24774563838329340000e+000) (54, 2.56022214788137690000e+000) (55, -4.80142075461827130000e-001) (56, 9.20476312970958000000e-001) (57, 2.69101128484655390000e+000) (58, 4.96066823279175230000e-001) (59, 1.15251321355363420000e+000) (60, 6.39483876916852050000e-001) (61, 7.29511287372541890000e-001) (62, 7.73000286117120460000e-001) (63, 1.33002587972459500000e+000) (64, 2.23530576322099920000e+000) (65, 4.92458847087032410000e-001) (66, 1.29040963965916550000e-001) (67, 4.47488000977823760000e-001) (68, 3.55291323639317200000e-001) (69, 1.34323251882356630000e+000) (70, 2.07977621808112900000e+000) (71, 2.28098170609614740000e-001) (72, 4.52050407107622400000e-001) (73, 9.16461608700224750000e-001) (74, 1.43886517800633480000e+000) (75, 2.34347948994887290000e+000) (76, 5.51818459909508290000e-001) (77, 6.06131387230515290000e-001) (78, 6.78077467433645940000e-001) (79, 6.81963315411802660000e-001) (80, 2.53992203887191390000e+000) (81, 3.92552082284918610000e-001) (82, 4.94670694151817910000e-001) (0, 1.19441666820731900000e+000) (1, 2.16422778737561750000e+000) (2, 1.12429031897968800000e-001) (3, 1.48259427258691700000e+000) (4, 4.08987640431783260000e-001) (5, 2.06849093222937520000e+000) (6, 1.30691553166199430000e+000) (7, 1.84935990822797590000e+000) (8, 1.24347777714084780000e+000) (9, 9.94110668921544090000e-001) (10, 1.78179612089244600000e+000) (11, 1.93948793751716560000e+000) (12, 1.82956784457148000000e+000) (13, 1.58864620976911810000e+000) (14, 1.41051763686065510000e+000) (15, 8.67106221353802000000e-001) (16, 1.22819856187508390000e+000) (17, 1.61598117716440880000e+000) (18, 1.99222379442600480000e+000) (19, 5.67839903785548270000e-001) (20, 1.52786790363657530000e-001) (21, 1.55705627103399440000e+000) (22, 1.61482073043536340000e+000) (23, 7.92063999542201970000e-001) (24, 1.46550991796486030000e+000) (25, 2.15773260045730690000e-001) (26, 1.76335791175316970000e+000) (27, 2.25508118717166780000e-001) (28, 7.42680544295049370000e-001) (29, 1.10635165532532100000e+000) (30, 1.09726148928113230000e+000) (31, 1.69037870634876140000e+000) (32, 5.10655667748701750000e-001) (33, 6.40819109189956550000e-001) (34, 1.57665492690231600000e+000) (35, 1.42399171277012630000e+000) (36, 4.22913001180327600000e-001) (37, 2.01730233762593070000e+000) (38, 8.61368456971299930000e-001) (39, 5.26837452692612170000e-001) (40, 1.20615007402322210000e+000) (41, 4.78356567123605970000e-001) (42, 8.88381078052966950000e-001) (43, 1.67638887633749230000e+000) (44, 2.10723695912694530000e+000) (45, 7.39134734845188550000e-001) (46, 2.13001081748566770000e-001) (47, 1.73557165951880580000e+000) (48, 9.42486998095914690000e-002) (49, 1.69269959980685210000e+000) (50, 2.13225103306414530000e+000) (51, 3.90936246868855420000e-001) (52, 1.19198304484066750000e-001) (53, 7.42616075032324630000e-001) (54, 1.95102793554489450000e+000) (55, 1.12472539520187250000e+000) (56, 3.31560055899367770000e-001) (57, 1.45699997528519430000e+000) (58, 1.97463989431903880000e-001) (59, 1.08813308231846470000e+000) (60, 1.68908932109426660000e+000) (61, 8.43832817510170030000e-001) (62, 9.21647217618933980000e-001) (63, 1.93513025599612850000e+000) (64, 1.85808948704006150000e+000) (65, 1.20576325844687360000e+000) (66, 1.74743400386015830000e+000) (67, 8.92764987918249430000e-001) (68, 1.25967577070164700000e-001) (69, 1.74769188091105730000e+000) (70, 5.28024127765903350000e-001) (71, 2.09598106649436170000e+000) (72, 1.25117584774933750000e+000) (73, 3.36099132634345430000e-001) (74, 4.38256685708816260000e-001) (75, 1.67213390499765930000e+000) (76, 1.06786350547864980000e+000) (77, 1.23703085086837360000e+000) (78, 8.99431550323143920000e-001) (79, 1.66845915702234900000e+000) (80, 4.64715311770206200000e-001) (81, 4.21107861824034810000e-001) (82, 9.90371451683509260000e-001) (83, 1.02692552364843800000e+000) (0, -3.27347976317639360000e-002) (1, 4.11100639638941830000e-001) (2, 5.91500461675421140000e-001) (3, 1.55507167186351360000e+000) (4, 8.21023549701747290000e-001) (5, 9.04020708133754680000e-001) (6, 1.39457323369333390000e+000) (7, 9.00434151545594250000e-001) (8, 1.48869189176821020000e+000) (9, 1.45153469707929390000e+000) (10, 2.99500037535078920000e-001) (11, 9.58519161762466210000e-001) (12, -1.17260125211944040000e-001) (13, 3.67747435581357420000e-001) (14, 1.16956577696600790000e+000) (15, 1.08456930719510420000e-001) (16, 1.33242632665528580000e+000) (17, 6.76394330096625530000e-001) (18, -8.00920762000448120000e-002) (19, 1.07854259077583790000e+000) (20, 9.59734374266613120000e-001) (21, 1.33701928371017800000e-001) (22, -3.58737987257926470000e-002) (23, 3.54558145816888940000e-001) (24, 4.96847237413252930000e-001) (25, 1.27980808164743360000e-001) (26, 2.85748570600913910000e-001) (27, 1.48112119102296110000e+000) (28, 1.07798204992798660000e+000) (29, -3.11987351042126990000e-001) (30, 1.51564477271953410000e+000) (31, 1.50645095118455160000e+000) (32, 1.74188978960500900000e+000) (33, 1.71776341666463630000e+000) (34, 1.34421719139404510000e+000) (35, -3.60820678089886550000e-001) (36, 2.46602642318219160000e-001) (37, 1.46669469978504980000e+000) (38, 3.60783605164367800000e-001) (39, 3.08176852172434960000e-001) (40, 1.02952171491882120000e+000) (41, -1.24974790751387150000e-002) (42, 1.32584518047893330000e+000) (43, 1.14576194911842100000e+000) (44, 5.15702364870774370000e-001) (45, 1.33683766208468800000e+000) (46, -1.58029824940060400000e-001) (47, 7.36742165315415920000e-001) (48, 1.33897932963190440000e+000) (49, 3.98489478152439620000e-001) (50, 4.24413219538144870000e-001) (51, 1.05712655762090210000e+000) (52, -2.41719598378360790000e-001) (53, 1.50521750776022300000e+000) (54, 1.03690928636147550000e+000) (55, -4.70124456719533850000e-001) (56, 6.83903982501314900000e-001) (57, 2.50285304750608130000e+000) (58, 1.73037623913827490000e+000) (59, -9.90753694644923690000e-001) (60, 4.48992231911819050000e+000) (61, 5.38261701901029440000e+000) (62, -1.47524853406531920000e+000) (63, 1.04424535794281030000e-001) (64, 2.36320728798108700000e+000) (65, 1.09538558206515700000e+000) (66, 3.55995827632973280000e+000) (67, 2.72417125150633320000e+000) (68, 2.17468043308400820000e+000) (69, 1.27596937841529940000e+000) (70, 3.56164816769286970000e+000) (71, 1.85596150958960850000e+000) (72, 3.91730165660241660000e-001) (73, 1.01061863051621990000e+000) (74, 4.26017951280253810000e+000) (75, 1.31979926199439900000e+000) (76, 1.59409695879811440000e+000) (77, 2.72087422870798430000e+000) (78, 7.49287341701853740000e-001) (79, 3.32475038590656450000e+001) (80, -1.90343382492990280000e+000) (81, 1.44200586166595510000e+001) (82, 1.43242719761918180000e+001) (83, 3.80081659210634410000e+000) (84, 4.29953581457164090000e+000) (0, 1.18213021605261350000e+000) (1, 1.89415183398284360000e-001) (2, -9.87441384177869970000e-001) (3, 1.77446477397426690000e-001) (4, -4.74262073257944120000e-001) (5, -9.04240302124561630000e-001) (6, -7.30063762435986700000e-001) (7, 9.80804899370352620000e-002) (8, 6.49740436447574400000e-001) (9, 6.63101766162400240000e-001) (10, -6.98204725072754220000e-001) (11, 6.18754429072187920000e-001) (12, -1.01433051903482930000e+000) (13, -3.59019121273276680000e-001) (14, -6.82519685842306490000e-001) (15, -3.92120543876115340000e-001) (16, -4.51656470333424600000e-001) (17, 9.42305248546745800000e-001) (18, -2.44741129708145130000e-001) (19, 1.36076413800350340000e+000) (20, -9.96204434191924950000e-001) (21, -3.03047374953566100000e-001) (22, -5.68033827871067150000e-001) (23, -1.00742305755805620000e-001) (24, -9.21543335811716100000e-001) (25, -1.51221498994716660000e+000) (26, -7.34545093648396600000e-001) (27, -2.56641251267453910000e-001) (28, 5.97899029605525770000e-001) (29, 2.45055244898277180000e-001) (30, -1.34916255598157450000e-001) (31, 4.15031561127736540000e-001) (32, 6.45480302335600940000e-001) (33, -4.65830010525898400000e-001) (34, -5.12667699654092870000e-001) (35, -7.01946793877585710000e-002) (36, 5.25421977361803740000e-001) (37, 3.91537636503056900000e-001) (38, -4.13974720824865190000e-001) (39, 1.63892133326229180000e-001) (40, -2.76216287943294060000e-001) (41, 7.11023422168852500000e-001) (42, -1.06367259389084020000e+000) (43, -2.80103233730426560000e-001) (44, -9.81928054934781300000e-001) (45, -6.47018568242527790000e-001) (46, 7.91874001819779740000e-001) (47, -1.20154562071786810000e-001) (48, 1.72980958886411740000e-001) (49, -1.06093380432035690000e+000) (50, -6.19468229482563190000e-001) (51, -7.28041279377414090000e-002) (52, 1.22934892816403350000e+000) (53, -1.16941281484640870000e+000) (54, 6.71933029879666410000e-001) (55, 8.63521711884787990000e-001) (56, 8.22688354494704450000e-001) (57, 9.42584603858895420000e-001) (58, 1.92312410844887110000e+000) (59, 2.48306329179009940000e-001) (60, 2.68645328059151780000e+000) (61, 1.65057988773469290000e+000) (62, 1.30759112345438970000e-001) (63, 1.58100002058993770000e+000) (64, 1.25664890070104950000e+000) (65, 2.14164102450050350000e-001) (66, 1.48448695579043700000e+000) (67, 8.07706559365563350000e-001) (68, 2.37470133342331740000e+000) (69, 9.15049029489985450000e-001) (70, 3.40695970988050770000e-001) (71, 1.56491360091949060000e+000) (72, 1.15453477698677660000e+000) (73, 5.28197147477248890000e-001) (74, 1.96488212927445870000e+000) (75, 1.25043776957807710000e+000) (76, 2.23394782206503930000e+000) (77, 8.72899520776066250000e-001) (78, 1.50658898675237350000e-001) (79, 1.28793985926075250000e+000) (80, 8.85021183892164330000e-001) (81, 2.46664151105995310000e+000) (82, 1.99525121682143600000e+000) (83, 8.50243352998752870000e-001) (84, 1.94819609913009280000e+000) (85, 3.17741161416717270000e-001) (0, 1.84088478820088990000e+000) (1, 1.75112795789732670000e+000) (2, 2.79843432876055330000e+000) (3, 1.86034077691124590000e+000) (4, 2.13760312583304170000e+000) (5, 1.91974449860090270000e+000) (6, 1.10437623134180600000e+000) (7, 2.51012798690476660000e+000) (8, 1.88288085605722920000e+000) (9, 2.84357907180651990000e+000) (10, 1.74770496593532920000e+000) (11, 1.44333154582091480000e+000) (12, 1.70520819780336060000e+000) (13, 2.17077675784612320000e+000) (14, 2.00798152455513760000e+000) (15, 1.33268333673163620000e+000) (16, 2.33545605493005760000e+000) (17, 1.24969396306244600000e+000) (18, 8.82870930301637440000e-001) (19, 2.07858117206392330000e+000) (20, 4.99688796722514270000e+000) (21, 8.77490748591333580000e-001) (22, 1.93100055837602100000e+000) (23, 2.83814662072737710000e+000) (24, 1.61801630138966620000e+000) (25, 2.18254574665613350000e+000) (26, 2.05781574297862720000e+000) (27, 3.16250955998982250000e+000) (28, 2.56493084691230330000e+000) (29, 1.90747613989158740000e+000) (30, 1.77153177461142270000e+000) (31, 3.23231796706710920000e+000) (32, 1.37614887617360400000e+000) (33, 1.22114750179446710000e+000) (34, 2.56908762759166590000e+000) (35, 3.28707107008456760000e+000) (36, 1.96322429003316980000e+000) (37, 2.37652051630733040000e+000) (38, 7.95015259682034460000e-001) (39, 1.79614353143529340000e+000) (40, 2.27051550109127210000e+000) (41, 9.54862525831916220000e-001) (42, 2.31338857423061130000e+000) (43, 2.76407523963257870000e+000) (44, 1.46999052373553460000e+000) (45, 1.30310351939965810000e+000) (46, 8.55466589425989740000e-001) (47, 9.46208168795922620000e-001) (48, 7.75023813537213390000e-001) (49, 1.82856507794326940000e+000) (50, 2.38984824341396120000e+000) (51, 1.78929754751129840000e+000) (52, -8.22791393085318390000e+000) (53, 2.22533904936013900000e+000) (54, 1.49614084068602480000e+000) (55, 1.65069866542740100000e+000) (56, -5.69429495054805330000e-001) (57, 4.93000581800371760000e+000) (58, -1.14934876036569980000e+001) (59, -8.68699604854131560000e-001) (60, 3.07780711313824900000e+000) (61, 1.41762993422369310000e+000) (62, 1.01354204602040280000e+000) (63, 8.14464038766582350000e-001) (64, 1.33188026198824280000e+000) (65, 3.01819339768916570000e+000) (66, 3.92634113685280950000e-001) (67, 1.61822395991982520000e+000) (68, 1.22970604413741860000e-001) (69, 7.02412148200503020000e-001) (70, 1.85051967147888050000e+000) (71, 2.33711575735341490000e+000) (72, 1.83908820983871180000e+000) (73, 2.10032574121203690000e+000) (74, 4.78443806416368540000e-002) (75, 1.39963959805253580000e+000) (76, 3.14034468067339090000e-001) (77, 1.65914043552907710000e+000) (78, 1.78313053253027600000e+000) (79, 1.18734951165469280000e+000) (80, 2.02191408298370230000e+000) (81, 2.28524253771402310000e-001) (82, 1.49774383937846320000e+000) (83, 9.07649734895042140000e-002) (84, 5.89165520107136080000e-001) (85, 1.67166938990510520000e+000) (86, 2.29364131310744150000e-001) (0, 1.56324891245378320000e+000) (1, 1.74682638981088580000e+000) (2, 2.58689810225681830000e+000) (3, 2.50993460921657930000e+000) (4, 1.52692146385292340000e+000) (5, 1.41693669042346350000e+000) (6, 2.44046714068739630000e+000) (7, 2.62315042769390820000e+000) (8, 6.64490919675736260000e-001) (9, 1.60621130932762800000e+000) (10, 1.90786167499667550000e+000) (11, 2.29998130200605330000e+000) (12, 2.25636219385982220000e+000) (13, 1.91626239212113480000e+000) (14, 8.61584667595743700000e-001) (15, 5.96445110967615880000e-001) (16, 1.46727637226926210000e+000) (17, 6.79095243292104020000e-001) (18, 9.48822883888206010000e-001) (19, 1.58398171939828950000e+000) (20, 2.45371442538365910000e+000) (21, 8.97901613933790980000e-001) (22, 1.14831810740644990000e+000) (23, 5.89466053664218890000e-001) (24, 6.16800694769190190000e-001) (25, 1.28756564670678970000e+000) (26, 1.68517805029754570000e+000) (27, 1.49144458922732200000e+000) (28, 8.56414995519153340000e-001) (29, 2.12472941860964020000e+000) (30, 1.44110490738152340000e+000) (31, 2.14204782006621790000e+000) (32, 2.28085351532266900000e+000) (33, 1.62327122718037620000e+000) (34, 7.49208920830860770000e-001) (35, 2.50592811335722180000e+000) (36, 1.58062143254850570000e+000) (37, 1.95807211504055930000e+000) (38, 2.58159918837831310000e+000) (39, 2.23329253221803770000e+000) (40, 5.75507939057424920000e-001) (41, 6.52665294800535810000e-001) (42, 2.24253332105494300000e+000) (43, 2.02482550572953280000e+000) (44, 2.38411771505256140000e+000) (45, 1.27670933534595000000e+000) (46, 2.12640956203453200000e+000) (47, 9.14509185479837510000e-001) (48, 7.81648613111465270000e-001) (49, 2.22779975563666040000e+000) (50, 1.16846932624233930000e+000) (51, 1.71290041680826160000e+000) (52, 2.25119252178323180000e+000) (53, 1.77958918659627720000e+000) (54, 1.14087620153353830000e+000) (55, 1.15044009487523050000e+000) (56, -1.79521383441253230000e-001) (57, 1.46307601370703240000e+000) (58, 2.35991009714696890000e-001) (59, 6.78571706992383560000e-001) (60, -5.86108690269426590000e-004) (61, 7.21681701310361130000e-001) (62, 1.66734396592065280000e+000) (63, 1.97671878979527250000e+000) (64, 5.97924822597573960000e-001) (65, 2.08072258505766520000e+000) (66, 1.56323907814591090000e+000) (67, 2.15432645920306110000e+000) (68, 1.25028067114172560000e+000) (69, 1.84001039694636730000e+000) (70, 5.91700846571854950000e-001) (71, 2.10344037657269430000e+000) (72, 2.27307024158581550000e+000) (73, 1.32307837661137890000e+000) (74, 1.12905186094568170000e+000) (75, 4.11759243986365710000e-001) (76, 9.96320530379223970000e-001) (77, 4.42454788273524300000e-001) (78, 2.49594772898781780000e+000) (79, 1.36963547521000550000e+000) (80, 1.81187087145299740000e+000) (81, 8.40672715638977050000e-002) (82, 1.68582554359446330000e+000) (83, 2.28033721606995110000e+000) (84, 1.68866886323658800000e+000) (85, 1.04960455075584650000e+000) (86, -1.70086731901475770000e-001) (87, 1.68576092269350600000e+000) (0, 3.63049764758437640000e+000) (1, 2.90331910402565450000e-001) (2, 5.31026921967414300000e-001) (3, 6.48267446822538670000e-001) (4, 4.23523240790055320000e-001) (5, 1.76094205731150590000e-001) (6, 4.55915889588177860000e-001) (7, 7.38127156037176050000e-001) (8, 2.52572814797568210000e-001) (9, 1.11553625493437790000e+000) (10, 1.99470912454605290000e+000) (11, -5.12172516762760100000e-001) (12, 1.97577984879663340000e+000) (13, 1.04311978075832210000e+000) (14, 1.90104182429244320000e+000) (15, 1.18187329618562290000e+000) (16, -6.74267846586280690000e-001) (17, 3.13560165444053520000e-001) (18, 1.03063833069161660000e-001) (19, 1.96727639714303690000e+000) (20, 1.28332665779362800000e+000) (21, 7.97400945618342850000e-001) (22, 1.11374627942480520000e+000) (23, 1.64981136009665130000e-001) (24, 1.26382682199352050000e+000) (25, 1.45660077360632220000e-001) (26, 1.76017829047511840000e+000) (27, -3.03065655666806680000e-002) (28, 4.24339148955428510000e-001) (29, 1.73208328232529830000e+000) (30, 1.35269656380564540000e+000) (31, 2.44811649866080840000e-001) (32, 1.79442410399682630000e+000) (33, 1.89679928700613880000e+000) (34, 1.01549400951090750000e+000) (35, 1.88913267140841130000e+000) (36, 2.32510236336811810000e-001) (37, 2.09417552927665840000e+000) (38, 1.13932965764437610000e+000) (39, 1.34265350951797750000e+000) (40, 2.31302362980517230000e+000) (41, 6.16436892469579350000e-002) (42, 5.38297037202373430000e-001) (43, 5.61628426085045150000e-001) (44, 8.66869334220647050000e-001) (45, 5.09709669628174100000e-001) (46, 7.24108917960657910000e-001) (47, 1.23377282972548570000e+000) (48, 1.11507492426774850000e+000) (49, 2.56641847013638740000e-001) (50, 5.39121147715135310000e-003) (51, 1.53508894565497100000e+000) (52, -5.55400007627606930000e+000) (53, 1.35343668687494970000e+000) (54, 1.00727917815502650000e-002) (55, -2.11454747491912660000e+000) (56, 3.60942086567607680000e-001) (57, 2.32008142990661170000e+000) (58, 1.33758037436833810000e+000) (59, 2.35917910106959150000e+000) (60, 3.14331429472415010000e+000) (61, 1.27136050781301610000e+000) (62, 1.26181272381632810000e+000) (63, -1.23884643551865200000e-001) (64, 1.46099723956266310000e+000) (65, 2.05670361382524240000e+000) (66, 1.59159231424893650000e+000) (67, 1.62291728181393770000e+000) (68, 1.11659195158671090000e-001) (69, 2.52168938671818490000e+000) (70, 1.46370052120622950000e+000) (71, 1.48101427514448950000e+000) (72, 1.21950822650887660000e+000) (73, 1.89763134606822060000e+000) (74, 1.02514053148328000000e+000) (75, 1.44356157769020090000e+000) (76, 1.78594820703767220000e+000) (77, 1.77745491093675920000e+000) (78, 7.08029056073996440000e-002) (79, 9.74321619487107830000e-001) (80, 4.99138176143668900000e-001) (81, 2.24332464934888740000e+000) (82, 2.46884472720887030000e+000) (83, 2.29669100253855740000e+000) (84, 2.34638629043512960000e+000) (85, 4.55657169484433470000e-001) (86, 3.38659376705912330000e+000) (87, 2.86835409852218340000e+000) (88, 1.19654424208021610000e+000) (0, 9.50126809557336750000e-001) (1, 2.83487210058411110000e+000) (2, 2.76125479695656790000e+000) (3, 1.02788427788800970000e+000) (4, 2.70361594148016990000e+000) (5, 1.43400855923573900000e+000) (6, 2.75886126423757050000e+000) (7, 2.12826242789197240000e+000) (8, 1.01294087091264770000e+000) (9, 1.84466114572751750000e+000) (10, 2.28300108367148310000e+000) (11, 2.81488286787680810000e+000) (12, 8.32261495665084010000e-001) (13, 2.01925965406735970000e+000) (14, 1.88845632547782220000e+000) (15, 2.28966416124058410000e+000) (16, 8.97275019518933630000e-001) (17, 8.29156372137735960000e-001) (18, 1.70810040059769010000e+000) (19, 2.49473169419252730000e+000) (20, 2.13919505031117700000e+000) (21, 1.70428368626199140000e+000) (22, 1.39771742800985880000e+000) (23, 1.12226709510469290000e+000) (24, 1.36414327987040810000e+000) (25, 1.12369027672139410000e+000) (26, 1.01345839150053910000e+000) (27, 9.07043220615382670000e-001) (28, 1.79536730973086730000e+000) (29, 2.82898530389684710000e+000) (30, 1.03157161207673550000e+000) (31, 2.41296344130569550000e+000) (32, 1.06352850837902580000e+000) (33, 2.18311961020845450000e+000) (34, 7.82644209301001760000e-001) (35, 1.57561513009750700000e+000) (36, 9.62676683813701750000e-001) (37, 2.74365909696826240000e+000) (38, 1.99066664158636230000e+000) (39, 1.60776609662025650000e+000) (40, 1.67594943407494060000e+000) (41, 9.94116059528100670000e-001) (42, 1.85003042182689010000e+000) (43, 1.17757710793557990000e+000) (44, 1.47010562024116000000e+000) (45, 1.30262301998482500000e+000) (46, 1.40826190998814480000e+000) (47, 2.38035964426854110000e+000) (48, 2.72127633154196190000e+000) (49, 1.29091411668378340000e+000) (50, 9.70051352191153350000e-001) (51, 2.53542175041548430000e+000) (52, 2.87375083474944800000e+000) (53, 1.20371189762409260000e+000) (54, 1.93031080302353430000e+000) (55, 2.57345951362549790000e+000) (56, -7.20179038132064410000e-002) (57, 7.79086255259248790000e-001) (58, 4.22745572281115480000e-001) (59, 1.08702238946519110000e+000) (60, 7.34810486779593710000e-001) (61, 6.27087917555934660000e-003) (62, 2.48328155118543140000e+000) (63, 1.68786130410859770000e+000) (64, 1.51142190596572350000e+000) (65, 4.65944407796442530000e-001) (66, 1.15541121101468060000e+000) (67, 1.56056514126011360000e+000) (68, 1.59829358767629430000e+000) (69, 6.61696570166341980000e-001) (70, 2.23358676404001730000e+000) (71, 1.13033268305723760000e+000) (72, 1.26498229372788670000e+000) (73, 1.05790936849786400000e+000) (74, 1.20038494566134000000e+000) (75, 1.90782145573520290000e+000) (76, 1.12540915049058210000e+000) (77, 8.22530226427175880000e-001) (78, 1.64885318979628790000e+000) (79, 4.33742884773806460000e-001) (80, 1.12447545411538790000e+000) (81, 1.03913094402426040000e+000) (82, 8.80769644129510310000e-001) (83, 1.40291543217371410000e+000) (84, 3.54224650885399450000e-001) (85, 1.45064280463390460000e+000) (86, 2.96211788541682790000e-001) (87, 7.73005798636458020000e-002) (88, 2.07232831261116250000e+000) (89, -3.99529951804737880000e-001) (0, 1.25950304724896390000e+000) (1, 2.29983690130827150000e-001) (2, -5.44101186590733590000e-002) (3, 1.05145074091858670000e+000) (4, -3.48637075861216170000e-002) (5, 1.34704166598537680000e+000) (6, 4.80467314352398810000e-002) (7, 5.77223741145350800000e-001) (8, 9.97924641722126470000e-001) (9, -3.07214217958272190000e-002) (10, -5.12844653856812100000e-001) (11, 2.35996549903175810000e-001) (12, 4.44152810132142690000e-001) (13, 6.28863800623053910000e-001) (14, -2.47021627568056490000e-002) (15, 7.69780087518273930000e-002) (16, -8.00711742652827070000e-002) (17, -4.56356183685119270000e-001) (18, 2.01545864791450980000e-001) (19, 3.90934321273974540000e-001) (20, 4.73186537410642050000e+000) (21, 1.41763243819376990000e-001) (22, 5.10420179374485790000e-002) (23, 2.12930528453236170000e+000) (24, -4.88412109824330250000e-001) (25, 1.41299514312051970000e+000) (26, -3.77573133517510650000e-001) (27, -4.91032930242293440000e-001) (28, 9.12627941398119870000e-001) (29, 3.42473049434404460000e+000) (30, 1.57947123042004580000e+000) (31, 1.48465171975158780000e+000) (32, -5.19506364710860540000e-002) (33, -4.13041455596906530000e-001) (34, 1.93829712778308540000e+000) (35, 2.13887437253499750000e+000) (36, 1.41415964043124090000e+000) (37, 1.87230694777321350000e+000) (38, -3.01135016043484140000e-001) (39, 1.28102398620255960000e+000) (40, 4.81239212598372380000e-001) (41, 1.40788148853032590000e+000) (42, 5.76188169697777200000e-001) (43, -6.66173951313178690000e-001) (44, 5.28357713462971450000e-001) (45, 1.79693751708034060000e-001) (46, 1.42820457818895790000e+000) (47, 2.26229743633372840000e-001) (48, 3.86081188916006230000e-001) (49, -3.05795087557565350000e-001) (50, -9.84956948664549300000e-002) (51, 1.07164438414627190000e+000) (52, -1.83741485020459510000e+000) (53, -1.75651598177199890000e-001) (54, 9.36357966870428720000e-001) (55, -1.80232049539266050000e-001) (56, 2.98994031795915700000e+000) (57, 9.01821093286403470000e-002) (58, 2.33087917293423620000e+000) (59, 2.00754442069967040000e+000) (60, 1.81481093873354430000e+000) (61, 3.60301075985241990000e+000) (62, 1.56646820752304430000e+000) (63, 1.39646607243599100000e+000) (64, 1.82253112872228940000e+000) (65, 1.29494709821542500000e+000) (66, -1.23180965902364210000e-001) (67, 1.03644345259863860000e+000) (68, 4.09454125219777700000e-001) (69, 2.06056616973049470000e+000) (70, -5.58172417062813290000e-001) (71, 3.06850361627510050000e+000) (72, -4.71825032183249950000e-001) (73, -8.80395485483740910000e-001) (74, 1.22773957006053740000e+000) (75, 1.56268960999458220000e+000) (76, -9.44179356853494520000e-002) (77, 4.84472684099985340000e+000) (78, -2.29308454451386450000e-001) (79, 1.78283309509190690000e-001) (80, -6.22271210643237430000e-001) (81, -9.12036103311156810000e-001) (82, 1.56083246601832040000e-001) (83, 1.54489164079361840000e+000) (84, -1.91169949523321140000e+000) (85, 2.53686546671532560000e+000) (86, 4.42533879856929250000e+000) (87, 2.04134531345777010000e+000) (88, -3.47903070846699360000e-001) (89, 3.11640389622864560000e+000) (90, 1.28165177297457300000e-001) (0, 1.55186151916127480000e+000) (1, 1.23760179527061600000e+000) (2, 1.41185874490519820000e+000) (3, 4.43311292031007610000e-001) (4, 7.81529072759890700000e-001) (5, 1.14772121329633130000e+000) (6, 1.07759104738988290000e+000) (7, 7.25839374994843970000e-001) (8, 1.20360517744893050000e+000) (9, 8.67459571520608150000e-001) (10, -5.71277294693122380000e-001) (11, 1.32750291779263830000e+000) (12, 9.26058810313368790000e-001) (13, -7.23526151497944640000e-001) (14, 8.79115554773757470000e-001) (15, 9.21400871797682490000e-001) (16, -4.94374623832007980000e-001) (17, -1.56873406626872690000e-001) (18, -5.51979882988678640000e-002) (19, 1.26941152694633890000e+000) (20, -3.95850429855307160000e-001) (21, 3.18278097126799410000e-002) (22, 7.59293097845177960000e-001) (23, 1.53827101095642740000e-001) (24, -2.21555634009720950000e-002) (25, -2.69143289515238420000e-001) (26, 5.75141087555916090000e-001) (27, -1.17447210240077740000e+000) (28, 1.25102949220031480000e-001) (29, 1.45578359235274850000e-001) (30, 2.66499264258192590000e-001) (31, -1.03230748287049880000e-001) (32, 5.99048179385586410000e-001) (33, -2.81601464525933210000e-001) (34, 4.36591365128455920000e-001) (35, 6.52548875284752580000e-001) (36, 2.14141710181588730000e-001) (37, 9.05193463406240300000e-001) (38, -4.18001114914209440000e-001) (39, 5.75088658254112820000e-001) (40, 1.38099950087412720000e+000) (41, 8.33356758962464360000e-002) (42, 4.37053328355387770000e-002) (43, -1.14686528482256880000e-001) (44, -3.58620355785665420000e-001) (45, -2.42967099729417100000e-001) (46, 3.07542403320395260000e-002) (47, -3.03101608219593780000e-002) (48, -4.33694112310342490000e-001) (49, 7.84309102862569610000e-001) (50, -2.37601160766653270000e-001) (51, -7.03961237391472090000e-001) (52, -9.03185705340715290000e-001) (53, -6.72943370845591420000e-001) (54, 1.09738404345333750000e+000) (55, -7.34137282924625320000e-001) (56, 3.94337859744883000000e-001) (57, 7.48221238164755280000e-001) (58, -5.14280245833168560000e-001) (59, 1.79105201398005100000e+000) (60, 1.72849273197066600000e+000) (61, 1.85905530737857700000e-001) (62, 1.81681608902214700000e+000) (63, 2.09632806236656900000e+000) (64, 2.31688516770116190000e+000) (65, 1.18791155291606380000e+000) (66, 8.39664623047315370000e-001) (67, 1.53973592832396600000e+000) (68, 1.35913445213285030000e+000) (69, 1.99134052392098520000e+000) (70, 1.80214959052830200000e+000) (71, 5.12936122395167390000e-001) (72, 1.74851441591791450000e+000) (73, 8.07016830421687370000e-001) (74, 1.12504194636192080000e+000) (75, 1.51195583490396010000e+000) (76, 2.18335960191939290000e-001) (77, 1.59019249089227980000e+000) (78, 2.46640553065406070000e+000) (79, 1.13469051027702770000e+000) (80, 1.84150326009303900000e+000) (81, 1.66154095331937630000e+000) (82, 4.54434376530730540000e-001) (83, 2.77522452932930870000e-001) (84, 1.33536768861874800000e+000) (85, 9.60452494347168950000e-001) (86, 1.96952999031977290000e+000) (87, 5.31198437630145610000e-002) (88, 9.10895631816561410000e-001) (89, 2.72924815094188640000e-001) (90, 1.74462221172932400000e+000) (91, 2.05131095864972580000e+000) (0, 6.50593560356855450000e-001) (1, 8.51359026184984820000e-001) (2, -1.14018944450213700000e+000) (3, -1.11809712086829480000e+000) (4, 6.33999067852021540000e-001) (5, 8.86903264581467180000e-001) (6, 5.83141372683205980000e-001) (7, -9.58397479350930670000e-001) (8, 4.89977849558674740000e-001) (9, 1.70189845286988940000e-001) (10, 2.56356386146255780000e-001) (11, -4.40565042709115560000e-001) (12, 7.19582526855850000000e-001) (13, -1.16416087665110000000e+000) (14, -3.98491964165780670000e-002) (15, 5.08506895187058830000e-001) (16, 9.93048185722283510000e-002) (17, -5.65797217864790980000e-001) (18, -2.93535907853299080000e-001) (19, 1.12331830290505220000e+000) (20, 1.05794511149315950000e+000) (21, 2.57480655835144460000e-002) (22, -1.12153649475917080000e-001) (23, -3.46685915536691260000e-001) (24, 1.75073513030580500000e+000) (25, -2.07220432500993760000e-001) (26, -6.35373406661277510000e-001) (27, 5.66949061235324630000e-001) (28, 2.82518705898977320000e-001) (29, 1.30907546825227760000e+000) (30, 2.45682237137321740000e-001) (31, 1.58260688204808960000e+000) (32, -4.41268660449675220000e-001) (33, -2.99579769578083410000e-001) (34, 1.29824809064021830000e-001) (35, 6.09895536708510380000e-001) (36, -7.17891247200507650000e-002) (37, 1.06672765438791780000e-001) (38, -9.81332032331517560000e-001) (39, 6.49871851694518110000e-001) (40, -1.14964832793480840000e+000) (41, -1.11595915406501980000e+000) (42, -6.03456030150326190000e-002) (43, -1.17115756971321190000e+000) (44, -4.46710757767102620000e-001) (45, -1.68386352104386960000e-001) (46, 3.73037544106812170000e-001) (47, -7.91636068695476870000e-001) (48, -1.00077713204000470000e+000) (49, -7.97579100777123100000e-002) (50, -4.36280360445185590000e-001) (51, -6.63487634244626980000e-001) (52, 1.65767184419906880000e+000) (53, -5.49017417802723280000e-001) (54, -1.11596734190757110000e+000) (55, 1.80054810175012780000e-002) (56, 2.33858030337201480000e-001) (57, 