FANN_FLO_2.1
num_layers=21
learning_rate=0.700000
connection_rate=1.000000
network_type=1
learning_momentum=0.000000
training_algorithm=2
train_error_function=1
train_stop_function=0
cascade_output_change_fraction=0.010000
quickprop_decay=-0.000100
quickprop_mu=1.750000
rprop_increase_factor=1.200000
rprop_decrease_factor=0.500000
rprop_delta_min=0.000000
rprop_delta_max=50.000000
rprop_delta_zero=0.100000
cascade_output_stagnation_epochs=12
cascade_candidate_change_fraction=0.010000
cascade_candidate_stagnation_epochs=12
cascade_max_out_epochs=150
cascade_max_cand_epochs=150
cascade_num_candidate_groups=2
bit_fail_limit=3.49999999999999980000e-001
cascade_candidate_limit=1.00000000000000000000e+003
cascade_weight_multiplier=4.00000000000000020000e-001
cascade_activation_functions_count=10
cascade_activation_functions=3 5 7 8 10 11 14 15 16 17 
cascade_activation_steepnesses_count=4
cascade_activation_steepnesses=2.50000000000000000000e-001 5.00000000000000000000e-001 7.50000000000000000000e-001 1.00000000000000000000e+000 
layer_sizes=56 1 1 1 1 1 1 1 1 1 1 1 1 1 1 1 1 1 1 1 1 
scale_included=0
neurons (num_inputs, activation_function, activation_steepness)=(0, 0, 0.00000000000000000000e+000) (0, 0, 0.00000000000000000000e+000) (0, 0, 0.00000000000000000000e+000) (0, 0, 0.00000000000000000000e+000) (0, 0, 0.00000000000000000000e+000) (0, 0, 0.00000000000000000000e+000) (0, 0, 0.00000000000000000000e+000) (0, 0, 0.00000000000000000000e+000) (0, 0, 0.00000000000000000000e+000) (0, 0, 0.00000000000000000000e+000) (0, 0, 0.00000000000000000000e+000) (0, 0, 0.00000000000000000000e+000) (0, 0, 0.00000000000000000000e+000) (0, 0, 0.00000000000000000000e+000) (0, 0, 0.00000000000000000000e+000) (0, 0, 0.00000000000000000000e+000) (0, 0, 0.00000000000000000000e+000) (0, 0, 0.00000000000000000000e+000) (0, 0, 0.00000000000000000000e+000) (0, 0, 0.00000000000000000000e+000) (0, 0, 0.00000000000000000000e+000) (0, 0, 0.00000000000000000000e+000) (0, 0, 0.00000000000000000000e+000) (0, 0, 0.00000000000000000000e+000) (0, 0, 0.00000000000000000000e+000) (0, 0, 0.00000000000000000000e+000) (0, 0, 0.00000000000000000000e+000) (0, 0, 0.00000000000000000000e+000) (0, 0, 0.00000000000000000000e+000) (0, 0, 0.00000000000000000000e+000) (0, 0, 0.00000000000000000000e+000) (0, 0, 0.00000000000000000000e+000) (0, 0, 0.00000000000000000000e+000) (0, 0, 0.00000000000000000000e+000) (0, 0, 0.00000000000000000000e+000) (0, 0, 0.00000000000000000000e+000) (0, 0, 0.00000000000000000000e+000) (0, 0, 0.00000000000000000000e+000) (0, 0, 0.00000000000000000000e+000) (0, 0, 0.00000000000000000000e+000) (0, 0, 0.00000000000000000000e+000) (0, 0, 0.00000000000000000000e+000) (0, 0, 0.00000000000000000000e+000) (0, 0, 0.00000000000000000000e+000) (0, 0, 0.00000000000000000000e+000) (0, 0, 0.00000000000000000000e+000) (0, 0, 0.00000000000000000000e+000) (0, 0, 0.00000000000000000000e+000) (0, 0, 0.00000000000000000000e+000) (0, 0, 0.00000000000000000000e+000) (0, 0, 0.00000000000000000000e+000) (0, 0, 0.00000000000000000000e+000) (0, 0, 0.00000000000000000000e+000) (0, 0, 0.00000000000000000000e+000) (0, 0, 0.00000000000000000000e+000) (0, 0, 0.00000000000000000000e+000) (56, 8, 7.50000000000000000000e-001) (57, 11, 2.50000000000000000000e-001) (58, 8, 7.50000000000000000000e-001) (59, 15, 7.50000000000000000000e-001) (60, 15, 2.50000000000000000000e-001) (61, 16, 7.50000000000000000000e-001) (62, 5, 2.50000000000000000000e-001) (63, 11, 7.50000000000000000000e-001) (64, 14, 2.50000000000000000000e-001) (65, 11, 2.50000000000000000000e-001) (66, 8, 2.50000000000000000000e-001) (67, 11, 7.50000000000000000000e-001) (68, 7, 1.00000000000000000000e+000) (69, 11, 7.50000000000000000000e-001) (70, 11, 2.50000000000000000000e-001) (71, 11, 2.50000000000000000000e-001) (72, 8, 5.00000000000000000000e-001) (73, 7, 7.50000000000000000000e-001) (74, 5, 7.50000000000000000000e-001) (75, 11, 5.00000000000000000000e-001) 
connections (connected_to_neuron, weight)=(0, 1.45215050265466770000e+000) (1, 2.51131117843093440000e-001) (2, 9.99043754714484700000e-001) (3, 1.25349181605776750000e+000) (4, 4.38828576331404150000e-001) (5, 2.80706975262841610000e-001) (6, 7.61999552667084300000e-001) (7, 1.25929859106478910000e+000) (8, 1.13465467256533350000e+000) (9, -4.93951540123187950000e-003) (10, 8.44817558860783250000e-001) (11, -7.36881993206859760000e-001) (12, 8.29613849234710380000e-001) (13, 4.82773982451878860000e-001) (14, 6.54119881282503870000e-001) (15, 1.96113291328457280000e-001) (16, -5.74372845538723360000e-001) (17, 9.69728485395761730000e-001) (18, -1.94061025301462760000e+000) (19, 4.60369822448999780000e+000) (20, -1.01260577731500550000e+000) (21, -6.33850138402955570000e-001) (22, -5.52963640700189000000e+000) (23, 2.74278283873638170000e+000) (24, 2.27397129408600440000e+000) (25, 1.59719239530720740000e+000) (26, 3.36312238328199010000e-001) (27, 3.06710145963050130000e-001) (28, 1.30831793109749350000e+000) (29, 7.69849710214780280000e+000) (30, 6.97621724177317600000e-001) (31, -1.64294743631838220000e+000) (32, 1.19885461318114750000e+000) (33, 9.53285730366232320000e-002) (34, 1.42228036477132830000e+001) (35, 7.40778594721937190000e+000) (36, 8.80309411504249020000e-001) (37, 1.52425220545189430000e+000) (38, 8.55005183814470440000e-001) (39, 4.10162648016530240000e-001) (40, 1.20582828502444530000e+000) (41, 1.27380642534041750000e+000) (42, 1.46520029800315090000e+000) (43, 1.00856433279620420000e+000) (44, 5.25061906902618450000e-001) (45, -2.63171837695126600000e+001) (46, 1.20801134751452110000e+000) (47, 6.85150793961626480000e-001) (48, -4.64726869444072930000e-001) (49, 1.20785586832034640000e-001) (50, 8.45465558928087280000e-001) (51, 2.37821992549988790000e-001) (52, -1.71681228591333050000e+001) (53, 8.82923948656328730000e-001) (54, 1.04048774408119970000e-001) (55, 1.33147565945325400000e+000) (0, 1.50405977661850350000e+000) (1, 7.88495172438414830000e-001) (2, 4.44536831790170280000e-001) (3, 9.99579144974829800000e-001) (4, 1.50111211133318450000e+000) (5, 1.00195145650068020000e+000) (6, 1.12737271703210170000e+000) (7, 1.32830523398135280000e+000) (8, 2.51539911650010550000e+000) (9, 2.19385600690773550000e+000) (10, 8.17283629221455250000e-002) (11, 2.29561743142346010000e+000) (12, 7.43009445765180910000e-001) (13, 8.24928321979264910000e-001) (14, 1.43067519295274700000e+000) (15, 8.22982310539345340000e-001) (16, 6.87309198970929900000e-001) (17, 2.11401244323043840000e+000) (18, 2.19317155460178800000e+000) (19, -5.53851422988360650000e-001) (20, -3.16924455833911360000e+000) (21, 1.30556128850254780000e+000) (22, 2.85756928827148260000e-001) (23, 7.77890951131151450000e-002) (24, -6.35837576347701110000e-001) (25, -6.94230376214174830000e-001) (26, -5.18057841393576800000e-001) (27, 1.31201534046752340000e+000) (28, 1.23335974551516130000e+000) (29, -1.28773280143779020000e+000) (30, 7.50758385369744150000e-001) (31, -2.29721875913005470000e-001) (32, 2.01504983576725570000e+000) (33, 1.01445773469819840000e+000) (34, -1.08302359680561370000e+000) (35, -1.69094884859206410000e+000) (36, 7.21248910449499790000e-001) (37, 1.50866550362681460000e+000) (38, 5.09203886654430840000e-001) (39, 1.14806778372277950000e+000) (40, 1.06258549044852590000e+000) (41, 3.78532419223742420000e-001) (42, 2.33945457971421790000e+000) (43, 1.31270717184653930000e+000) (44, 1.61852744519839490000e+000) (45, -6.31854711627649830000e+000) (46, 5.97081157973006320000e-001) (47, 1.02362019919379180000e-001) (48, 1.90302786258430690000e+000) (49, 1.96575497548732630000e-001) (50, 1.86766815689807690000e+000) (51, 9.12930067525137610000e-001) (52, -5.96994815508672170000e+000) (53, 1.48029441511682760000e-001) (54, 6.49324189351602850000e-001) (55, -1.18249149217607030000e+000) (56, 6.85947446138187370000e-001) (0, 1.42495305642018330000e+000) (1, 1.66523315973694670000e+000) (2, 7.98422720699288050000e-002) (3, 1.03026019875773470000e+000) (4, 1.42736575570683470000e+000) (5, -2.61273472130783060000e-001) (6, 1.42093189094243110000e+000) (7, 8.93849892935524190000e-001) (8, 2.02429035303129680000e+000) (9, -2.22487507772764990000e-001) (10, 1.42643779444273800000e+000) (11, 1.48110644037308890000e+000) (12, 1.47036129427664690000e+000) (13, -6.23542380822340040000e-001) (14, 1.47654770270395800000e+000) (15, 2.03744693486405000000e-001) (16, 3.92815490888820230000e-001) (17, 1.67711106391738410000e+000) (18, 1.33257831618537730000e+000) (19, 1.11522798717917620000e+000) (20, 4.89708499007749820000e-001) (21, 1.72752111693000750000e+000) (22, 1.33082199766287900000e+000) (23, 1.89120766685040500000e+000) (24, 1.68890562045337260000e+000) (25, 1.68510440985645340000e+000) (26, 4.92183062378674260000e-001) (27, 3.30385874618441930000e-001) (28, 5.44261507475571670000e-001) (29, -1.06990508876056920000e+000) (30, 1.21586912020552720000e+000) (31, 7.42536615256225500000e-001) (32, -1.09833010311429720000e-001) (33, 5.64639057947151080000e-001) (34, -7.89722651087649270000e-001) (35, -6.83563882474990670000e-001) (36, 9.95492583396245910000e-001) (37, 1.25018701834864450000e+000) (38, 1.03861185013460470000e+000) (39, 1.01256707065562490000e+000) (40, 1.09626917667714420000e+000) (41, 1.69041184203610300000e+000) (42, -2.01883951228596370000e-001) (43, 1.12330378150449370000e+000) (44, -6.45485006235124310000e-002) (45, -9.18205203058411910000e-001) (46, 1.53439062149931680000e+000) (47, 1.06075460282950520000e-001) (48, 7.71906607163260320000e-001) (49, 6.22728721363652520000e-002) (50, -4.48748271687082530000e-001) (51, -2.11199134637884630000e-002) (52, 2.11181965194224070000e+000) (53, 1.63994095309819900000e-001) (54, 1.32492438691796100000e+000) (55, -2.75443163910548130000e-001) (56, 4.59754880026176040000e-001) (57, 9.44236602027603960000e-001) (0, -1.44953258605705790000e-001) (1, 3.80850671425837340000e-001) (2, 7.43285361458224330000e-001) (3, -1.90215071788725560000e-002) (4, 1.81660844354159970000e-001) (5, 2.43353195310642460000e-003) (6, -5.42275707922267650000e-001) (7, 7.24193486056724180000e-001) (8, -9.75965450240460890000e-001) (9, 6.19592396723423700000e-001) (10, 1.04415341745971560000e+000) (11, 1.17658474631245120000e+000) (12, 3.04607546858283010000e-001) (13, 2.40597533857403430000e+000) (14, -3.83197475749507300000e-001) (15, 1.45508733557779960000e+000) (16, -2.58743567243628620000e-002) (17, 6.06468014528775080000e-001) (18, 2.71113300260481800000e-001) (19, 3.47113187972067420000e-001) (20, 7.01684440757227910000e-001) (21, 6.61757796601571080000e-001) (22, 2.96896964096940660000e-001) (23, 1.10653203760119380000e+000) (24, -2.76238318256258400000e+000) (25, -1.51666974810074240000e-001) (26, 2.91710421684249250000e-002) (27, 1.28354043414841890000e+000) (28, -7.44489878720034910000e-002) (29, 2.65464018550251920000e+000) (30, 1.82987548752642730000e-001) (31, 3.86434641829416890000e-001) (32, -1.41968209682995670000e-001) (33, 2.44960940014961960000e-001) (34, 5.06517100008806140000e+000) (35, 3.45637457532707910000e+000) (36, -1.54343725008397990000e-001) (37, -7.69823499759691440000e-001) (38, 3.96522178270065580000e-001) (39, -2.19455104635012500000e-001) (40, -3.78782090884665250000e-001) (41, -5.58817854035619340000e-001) (42, 5.97142341283874670000e-001) (43, 3.75129327657309610000e-001) (44, -5.42275707922267650000e-001) (45, 1.08906127783859910000e+000) (46, -1.79903206409103400000e-001) (47, -4.63234099989672410000e-001) (48, -4.54993244025522330000e-001) (49, 8.57898802386448560000e-001) (50, 1.68583228597021710000e+000) (51, -4.50050133914369380000e-001) (52, 5.73820757238425030000e+000) (53, -5.50502102525044500000e-001) (54, -6.63975675132296050000e-001) (55, -2.46632630416660930000e+000) (56, 2.05204200024658810000e-001) (57, 9.99985274253352710000e-001) (58, 2.26108257324170970000e+000) (0, 2.36838297038829370000e+000) (1, 2.64349950086815700000e+000) (2, 4.17587235027948900000e+000) (3, 2.52710884884490120000e+000) (4, 2.32423694518419400000e+000) (5, 3.63865187155499430000e+000) (6, 3.35483121108754020000e+000) (7, 3.20197481830163340000e+000) (8, 4.69594651840713520000e+000) (9, 4.05155164846709500000e+000) (10, 2.39413358535568580000e+000) (11, 2.23975984541890850000e+000) (12, 2.71387088757964360000e+000) (13, -8.04846738030885580000e-001) (14, 2.26329420034798320000e+000) (15, 1.35676949394313140000e+000) (16, 9.73320249804381370000e-001) (17, 3.44789153570425630000e+000) (18, 3.79187432940961600000e+000) (19, 3.62680407776457910000e+000) (20, -2.71979638299631790000e+000) (21, 2.49708059487590180000e+000) (22, 2.60427104234242620000e+000) (23, 2.71107192293332530000e+000) (24, 4.58230968454821590000e+000) (25, 4.17155648443445950000e+000) (26, -9.44909554548074900000e-001) (27, 3.89017204582281910000e+000) (28, 1.78559899778813900000e+000) (29, 1.09770222040955260000e+000) (30, 1.13273181042298950000e+000) (31, -4.57608965399175020000e+000) (32, 4.03381830878114830000e+000) (33, 1.51287724984971780000e+000) (34, 1.87091329551898130000e+000) (35, 8.03103992809915620000e-001) (36, 3.93453658307461480000e+000) (37, 4.29750807460422200000e+000) (38, 3.67440597345611500000e+000) (39, 3.98523894865556110000e+000) (40, 3.09538745617518620000e+000) (41, 4.18954700306548310000e+000) (42, 2.22922601454376590000e+000) (43, 2.50737738637743930000e+000) (44, 3.63444351782581250000e+000) (45, 1.24566493688934600000e-001) (46, 3.16319874807285560000e+000) (47, 3.35504331925369130000e+000) (48, 1.73747487767813150000e+000) (49, 4.05667183809472750000e+000) (50, -2.87395378955391910000e-001) (51, 3.98836101550167840000e+000) (52, 4.18729013751202130000e+000) (53, 2.23340989932996910000e+000) (54, 3.88717740973473180000e+000) (55, 2.51636893889425740000e+000) (56, 1.22012051036284940000e+000) (57, 2.74337888547408900000e+000) (58, 2.96912410508763770000e-001) (59, -4.51747074225781030000e-001) (0, -3.02448186594712340000e-001) (1, 4.96760929897708040000e-001) (2, 4.69947298020404910000e-001) (3, 2.92964797895682190000e-001) (4, 5.32533321958315930000e-001) (5, 7.99291369933915700000e-001) (6, -2.11670259982066900000e-001) (7, 3.48972711209488250000e-001) (8, 6.54124483120744890000e-001) (9, -1.00531514771002100000e-001) (10, 2.12711848281604440000e-001) (11, 2.92025067806524370000e-001) (12, 1.03322151346160140000e+000) (13, -2.85012329618321960000e-001) (14, 1.05940865861279930000e+000) (15, -1.02295639154316630000e+000) (16, -4.40394774350840320000e-002) (17, 2.12461253591162360000e-001) (18, 5.07577364591152990000e-001) (19, 6.58133998167818260000e-001) (20, -8.65731688475128490000e-001) (21, -2.89291965346502870000e-001) (22, 3.73411482859831030000e-002) (23, -1.54175843884380550000e-001) (24, -7.59031245664239180000e-001) (25, -9.87507324026326350000e-001) (26, -2.52530187389826740000e-001) (27, -2.25282087297322240000e-001) (28, 6.29701413177234490000e-001) (29, 1.11143349533154060000e+000) (30, 6.63515561977268410000e-002) (31, -1.74081056415754110000e-001) (32, -9.31691454294788280000e-001) (33, 3.58634785536660120000e-001) (34, 1.60654595497249050000e+000) (35, 5.08690616145714420000e-001) (36, -2.93614723756628840000e-001) (37, 5.20379479471874800000e-001) (38, 3.32934651021194790000e-001) (39, 6.50124880448264440000e-001) (40, 3.80735588223022560000e-001) (41, 3.28048054557574130000e-001) (42, 5.37733161784989200000e-001) (43, 1.61841126121861130000e-001) (44, 3.32558758985531670000e-001) (45, 1.63134103517013900000e+000) (46, -2.87663099858629310000e-001) (47, -8.80017802488978350000e-002) (48, -5.34937410652356780000e-001) (49, 9.21758021789614720000e-002) (50, 6.54717759539497850000e-001) (51, 3.08940209411365130000e-001) (52, 6.61671194822465060000e-001) (53, -5.67469137095989670000e-001) (54, -5.43594430570479010000e-002) (55, -2.30325884375693190000e+000) (56, 3.19865609014220230000e-001) (57, 7.13623181119167780000e-001) (58, 2.85041498291934530000e+000) (59, 2.77553113975764900000e+000) (60, 2.71075241227836990000e+000) (0, 6.28115760242535680000e-001) (1, 1.68457260945436270000e+000) (2, 1.97538723570326540000e+000) (3, 1.10696412517429990000e+000) (4, 3.37992203531057580000e-001) (5, 1.23908405582918050000e+000) (6, 1.31296567183019790000e+000) (7, 1.69371236399483840000e-001) (8, 1.67989389781383250000e+000) (9, 1.87524497728011760000e+000) (10, 2.57576839176208720000e-001) (11, 6.76098419959464850000e-001) (12, 2.38666663652138730000e-001) (13, 4.16247626538144230000e-001) (14, 2.58330733217035420000e-001) (15, 2.00904627959177020000e-001) (16, 6.68382872851784550000e-001) (17, 2.09635915269828880000e+000) (18, 1.22899398391498900000e+000) (19, 1.06246135855948840000e+000) (20, -4.29379327327949200000e-001) (21, 1.54132681804816100000e+000) (22, 1.35053396682422130000e+000) (23, 9.53138266531873170000e-001) (24, 1.02689635223432000000e+000) (25, 9.14654687962796590000e-001) (26, 5.68384774921339540000e-001) (27, 3.92912863467670460000e-001) (28, 4.86634978580723580000e-001) (29, 8.22219198811012800000e-001) (30, 6.28502435599072480000e-001) (31, 1.62127476287216750000e+000) (32, 1.15716090339267820000e+000) (33, 6.58895257761402230000e-001) (34, 8.28062840028375380000e-001) (35, 7.04423254931839220000e-001) (36, 9.13527479198846910000e-001) (37, 1.00079071442453830000e+000) (38, 6.83275674229689820000e-001) (39, 8.48881065197956700000e-001) (40, 4.27894067899642520000e-001) (41, 1.11293245299751130000e+000) (42, 8.14578886340341480000e-001) (43, 1.51645423835000680000e+000) (44, 1.98207683461105430000e-001) (45, -2.27661511139244640000e+000) (46, 1.88774705345716050000e+000) (47, 1.75525017578186660000e+000) (48, 1.59178081792927540000e+000) (49, 1.58047240731687480000e+000) (50, 9.95067319849519820000e-002) (51, 2.36279332522854190000e-001) (52, -8.22997044203038430000e-001) (53, 2.06767303712955640000e+000) (54, 8.87141187769912130000e-001) (55, -1.40174394468337570000e+000) (56, 3.77103851534528690000e-001) (57, 1.45790978287523450000e+000) (58, 7.49937349110886280000e-001) (59, 1.65699002871989830000e-001) (60, 1.06129422776315900000e+000) (61, 1.59071767814287250000e+000) (0, 7.06973379143293280000e-001) (1, 6.92279646619324400000e-001) (2, -3.57089704237167400000e-001) (3, -1.23921160343875990000e+000) (4, -6.84319331441527680000e-001) (5, -1.86000642255196520000e-001) (6, -9.24955283240577190000e-001) (7, -8.86665134406810610000e-001) (8, 2.16302726001007940000e-001) (9, 5.76401564622399440000e-001) (10, 6.57208941173926700000e-001) (11, -3.47951332212290630000e-001) (12, -2.75491269710430590000e-001) (13, 8.08840626967131100000e-001) (14, 2.41760666256724680000e-001) (15, 1.23246827678464020000e+000) (16, 8.60406157202065810000e-001) (17, 5.27909106395425320000e-001) (18, 2.51056372902390470000e-001) (19, -4.01445706663610120000e-001) (20, -8.00569515319592310000e-001) (21, -7.51673861107889700000e-001) (22, -1.35471829123499500000e-001) (23, 1.38035672199136020000e+000) (24, 1.31577533736842530000e+000) (25, 8.32586467969580360000e-001) (26, -1.33797871511410680000e-001) (27, 1.57908702840512370000e+000) (28, -7.56766568891700240000e-002) (29, 4.10442305573529510000e-001) (30, 8.14167280336220320000e-001) (31, 5.42631156334961840000e-001) (32, -8.63506420063079460000e-002) (33, -3.00989992340317540000e-002) (34, -2.09193255635950730000e-001) (35, 1.30465813181300790000e+000) (36, 1.39107800139883470000e-001) (37, 7.09933308411693000000e-001) (38, 5.84986506954139120000e-001) (39, -1.28845978828745310000e+000) (40, 4.38816382869974320000e-001) (41, 6.71517205140973240000e-001) (42, -5.63423112585398900000e-001) (43, 6.35182359123220770000e-003) (44, 4.28173232947430540000e-001) (45, -9.68213362734229310000e-001) (46, -5.83072004750094910000e-001) (47, -7.22558938429678550000e-001) (48, -1.03462146043286050000e+000) (49, -8.37857790087453540000e-001) (50, 7.93915026188179330000e-001) (51, -1.00016698415727930000e-001) (52, 7.50317759618746250000e-001) (53, -5.80386647105354700000e-001) (54, -4.17856111494225930000e-002) (55, -1.42022503139613260000e-001) (56, 7.09669761184782980000e-002) (57, 9.42196091086752170000e-002) (58, 7.87268816866852240000e-001) (59, 2.06401928980719030000e+000) (60, 1.63431258502886910000e+000) (61, 1.50157999250022360000e+000) (62, 1.55162319837762430000e+000) (0, 1.46308301649658530000e+000) (1, -1.23116688897807040000e-001) (2, 5.36216789885275550000e-001) (3, 1.24206398302301820000e+000) (4, 2.69252052137363420000e-001) (5, 8.35127558744541420000e-002) (6, 1.72417831674791230000e+000) (7, 6.60169211856173830000e-001) (8, 2.66467594882117310000e+000) (9, 4.19648498958468620000e-001) (10, 4.00273043996622500000e-001) (11, 2.24064997399709890000e+000) (12, -7.85594537086755920000e-002) (13, 1.27032879459058170000e+000) (14, 6.88885277027639580000e-001) (15, -1.55630334068244340000e+000) (16, 1.85538864530060970000e+000) (17, 1.59443541145337050000e+000) (18, 5.50466242041807390000e-001) (19, -2.00857052738853430000e-001) (20, 8.11456880410671650000e-001) (21, 1.80768641794077170000e+000) (22, 1.35446222247540640000e+000) (23, 4.71592319012261780000e-001) (24, 3.14073186311673780000e+000) (25, 2.55761131179438990000e+000) (26, 1.37166833661680140000e+000) (27, 3.95632347356101370000e-001) (28, -6.84990174595056070000e-001) (29, 3.15229694890664520000e-002) (30, 6.75437175383239550000e-001) (31, 3.67319977648932820000e-001) (32, 1.73560163058535260000e+000) (33, 3.52904763717578620000e-001) (34, 4.68008747241841660000e-001) (35, 1.01051989902703740000e+000) (36, 1.24673428812782800000e+000) (37, 1.27438868752124710000e-001) (38, 8.38903050461868300000e-001) (39, 1.73118377440512710000e+000) (40, 1.60994517837351010000e+000) (41, 1.79448534224464380000e+000) (42, 1.03019622306563250000e+000) (43, 1.02969132521646390000e+000) (44, 1.17705838494255730000e+000) (45, -3.84004555104738130000e-001) (46, 8.31014021568608490000e-001) (47, 6.12014579491715890000e-001) (48, 5.51805510978356950000e-001) (49, 3.87082587687092080000e-001) (50, -1.97914150791790260000e-001) (51, 1.49741607024005210000e+000) (52, 4.42124177289774930000e-001) (53, 4.70823050432058190000e-001) (54, 1.08264248714802380000e+000) (55, -1.29832954506893580000e+000) (56, 1.44792854364789340000e-001) (57, 2.62921689217244300000e+000) (58, 7.12639342056616390000e-001) (59, 7.94104827286111540000e-001) (60, 1.23714368281419460000e+000) (61, 1.21917810923504270000e+000) (62, 7.05810815912747640000e-001) (63, 9.16605667940650130000e-001) (0, -3.28087668699607820000e-001) (1, 1.39332477402477670000e-001) (2, -8.46410576924553020000e-001) (3, -1.59824004092241790000e-001) (4, 4.02319542829774060000e-001) (5, 3.11137203722738400000e-001) (6, -4.66315541992243120000e-001) (7, -1.00367165692399700000e+000) (8, -4.83568177793136710000e-001) (9, -1.58685805684525670000e-001) (10, -1.55119217482824760000e-003) (11, -2.13537707471990830000e-001) (12, 2.49800956195814220000e-001) (13, 7.94940327352948840000e-001) (14, -7.72617380157624930000e-001) (15, 6.11643176837918800000e-001) (16, -2.27891654058188590000e-001) (17, -2.57358346169061450000e-001) (18, -1.65631207816036100000e-001) (19, 6.31018829022612530000e-001) (20, -4.52379332633290400000e-002) (21, 5.34860385607998650000e-001) (22, -4.06208134001630420000e-001) (23, -2.88879743694344710000e-001) (24, 1.63811181110500130000e+000) (25, -1.23346931699761730000e-001) (26, -1.04412636323546790000e-001) (27, -3.58624091571797140000e-001) (28, -7.33144591269802140000e-001) (29, 1.31078597688488440000e+000) (30, -4.55872136958580640000e-001) (31, -8.91164470207723160000e-001) (32, -1.50808325127685650000e+000) (33, -1.95023328008442800000e-001) (34, -3.47874107238906880000e-001) (35, -2.16929219249638290000e-001) (36, -1.35493233219416550000e+000) (37, 4.79604385608226810000e-002) (38, 2.54037583602313160000e-001) (39, -5.94299629615433140000e-001) (40, -1.39968765202082850000e-001) (41, -3.55530896974540880000e-001) (42, -1.24591821803291070000e+000) (43, -7.14758961098722280000e-001) (44, -1.53508384683767770000e+000) (45, 6.18047851192429110000e-001) (46, -8.73600872219993610000e-001) (47, -1.01568597344988930000e+000) (48, 2.04434041139316870000e-001) (49, -1.37560960326767500000e+000) (50, -5.97013092038990330000e-001) (51, -1.92958224405755440000e-001) (52, -1.65089725312620940000e+000) (53, 9.90860703588751220000e-001) (54, -1.66749861412559700000e+000) (55, 2.12556574965547920000e-001) (56, -1.04397144046760790000e-001) (57, 1.33283179086392240000e+000) (58, 1.52427556921698630000e+000) (59, 1.23839204232587590000e+000) (60, 1.26887447232861270000e+000) (61, 2.39386574926664510000e+000) (62, -2.94254175203741030000e-001) (63, 1.48341688293126860000e+000) (64, 9.27503262974302700000e+000) (0, 1.63433375761891390000e+000) (1, 1.05430261483783270000e+000) (2, 6.78995798088034230000e-001) (3, 2.19485528022127240000e+000) (4, 8.54962437232496760000e-001) (5, 1.84522668246326280000e+000) (6, 1.72928479868354650000e+000) (7, 9.23182764935371550000e-001) (8, 3.79140586575000290000e+000) (9, 1.80611976386793560000e+000) (10, 1.72326722103101800000e+000) (11, 2.56556300184090370000e-001) (12, 1.50023679035151750000e+000) (13, 5.65555123144494630000e-001) (14, 1.43505692293623600000e+000) (15, 6.79828390439760180000e-001) (16, 9.96089199793716680000e-001) (17, 1.48344964672586020000e+000) (18, 8.71854139338217090000e-001) (19, 1.16492199979930970000e+000) (20, 1.34075577054589210000e+000) (21, 5.07473786223106460000e-001) (22, 9.78995031061953400000e-001) (23, 2.06531636286492350000e-001) (24, 1.98918573262783040000e+000) (25, 2.30195929137797920000e+000) (26, 5.62946017081774050000e-001) (27, 1.42848005031374650000e+000) (28, 7.27122422575173010000e-001) (29, 1.12111584242957440000e+000) (30, 5.76310964663101170000e-001) (31, 1.92489962542667950000e-001) (32, 5.13290712414198770000e-001) (33, 4.17208633098888450000e-001) (34, 8.35484326963077170000e-001) (35, 3.99703296275404130000e-001) (36, 1.53919268778630670000e+000) (37, 1.10808075617463910000e+000) (38, 1.54077626085276150000e+000) (39, 1.78185942448984740000e+000) (40, 6.07544981329591450000e-001) (41, 2.32477161459322800000e+000) (42, 6.58116968926052090000e-001) (43, 2.09268314597360570000e+000) (44, 1.43518360878155240000e+000) (45, -2.33460996952860930000e+000) (46, 2.14297742656421160000e+000) (47, 7.45062466420530420000e-001) (48, 1.30733443970608550000e+000) (49, 2.04029854893527940000e+000) (50, 1.20641994837978950000e+000) (51, 4.22393618399690530000e-001) (52, -2.07252529310684470000e+000) (53, 1.05874618861911670000e+000) (54, 2.30114226139171140000e+000) (55, 1.80352270403894970000e+000) (56, 3.02001220031442640000e-001) (57, 1.44212339898685070000e+000) (58, -1.56474577375026370000e-001) (59, -1.03814345400256730000e-001) (60, 4.07974206432139000000e-001) (61, 6.69589346188430910000e-001) (62, 1.41562742909726760000e-001) (63, 2.75786396022439370000e-001) (64, 1.41621237556056200000e+000) (65, 7.47057740599402000000e-001) (0, 5.31305228637363850000e-001) (1, -2.66618752722026010000e-001) (2, 1.61732728454717070000e+000) (3, 1.27834899320529720000e+000) (4, 7.23158722524202210000e-001) (5, 6.55971130749974480000e-001) (6, 1.60863556516323800000e+000) (7, 3.55885996147661310000e-001) (8, 1.34353814922192890000e+000) (9, 6.75679165666935940000e-003) (10, 1.49215383677710410000e+000) (11, 1.10652631093598820000e+000) (12, 1.69361731664110170000e-001) (13, 1.18750737742255150000e+000) (14, 4.00992881085556200000e-001) (15, 2.12041648376119380000e+000) (16, 4.28084558542463690000e-001) (17, 1.79200655975346910000e+000) (18, 9.48045179395376360000e-001) (19, -6.96122236754931010000e-001) (20, 2.09484776670322860000e-001) (21, 1.75526490592177040000e-001) (22, 4.77266087614511950000e-001) (23, 2.56307627990091160000e-001) (24, 9.64922880238576750000e-001) (25, 1.64424568980451170000e+000) (26, 2.70906239271325790000e-001) (27, 1.00237236159864420000e+000) (28, -5.75233477950034200000e-002) (29, -2.58089846653267400000e-001) (30, 7.42762866165134320000e-001) (31, -1.02505450979408150000e+000) (32, 4.09177054812032930000e-001) (33, 3.10191453237468720000e-001) (34, -8.01198498206816210000e-001) (35, -1.77457282792437820000e+000) (36, 1.53121505994020830000e-001) (37, -1.26981489082965830000e-001) (38, 1.46474637127448440000e+000) (39, 7.76576667602937750000e-001) (40, -2.50632299880664660000e-001) (41, 1.75770730957991310000e-001) (42, 3.05764627105388990000e-001) (43, 1.57482033573523730000e+000) (44, 9.89049203823922920000e-001) (45, -7.73473658390427250000e-001) (46, 7.01056448539731990000e-003) (47, -3.19213171475895840000e-001) (48, 1.41228837139789240000e+000) (49, 8.01192631989549930000e-001) (50, -6.02986815667574060000e-001) (51, 1.82304145929236160000e-001) (52, 2.21861812444756270000e+000) (53, 7.13325218032690890000e-001) (54, 1.05134919790813640000e+000) (55, -9.21797988658938470000e-001) (56, 5.04259399257867110000e-001) (57, 1.32549052739767340000e+000) (58, -1.74545760450031890000e-001) (59, -1.06608043552535660000e+000) (60, 9.69944655013697420000e-001) (61, -1.66941611425834460000e+000) (62, -1.16512296275829730000e+000) (63, -1.15962645589726370000e-001) (64, 2.14508115521106990000e-001) (65, 2.36998354424823140000e-001) (66, 3.46465677809770240000e+000) (0, 1.24008395626238240000e+000) (1, 3.05726578250410520000e+000) (2, 2.28117837270925070000e+000) (3, 1.14624186831584130000e+000) (4, 3.02937365209887060000e+000) (5, 1.24491266220953010000e+000) (6, 2.30964232355559500000e+000) (7, 1.51366826953103930000e+000) (8, 2.08555224624520190000e+000) (9, 3.21483408183208220000e+000) (10, 2.22507643387594280000e+000) (11, 1.63419531139602810000e+000) (12, 2.14381439563381270000e+000) (13, 1.71914241470308670000e+000) (14, 2.53017440701019500000e+000) (15, 2.30621140090893740000e+000) (16, 1.17629420927637880000e+000) (17, 2.78139418747100950000e+000) (18, 3.71548938944031670000e+000) (19, 1.49168495035060380000e+000) (20, 1.71145460655039110000e+000) (21, 2.28562586502899200000e+000) (22, 2.54243677869176740000e+000) (23, 2.73787229834211270000e+000) (24, 2.48550887699907900000e+000) (25, 2.59910528158068700000e+000) (26, 1.30635159182652760000e+000) (27, 2.99493735442315940000e+000) (28, 1.93834025046176440000e+000) (29, 2.04177621469803410000e+000) (30, 1.74392130048450240000e+000) (31, 2.05410212198417420000e+000) (32, 1.38863019974174140000e+000) (33, 1.84062249063659160000e+000) (34, 2.16065133084426190000e+000) (35, 1.92156685085588300000e+000) (36, 3.00827983138238330000e+000) (37, 2.49370496998831650000e+000) (38, 1.93579882627905510000e+000) (39, 2.95992923630633880000e+000) (40, 2.92072776828804770000e+000) (41, 2.13523708901716880000e+000) (42, 2.38982425652007360000e+000) (43, 2.58741998672572220000e+000) (44, 1.61030592407856070000e+000) (45, 1.31810567867155810000e+000) (46, 3.13414386403106170000e+000) (47, 1.28366938099584700000e+000) (48, 2.81945201460708140000e+000) (49, 1.37706671971041410000e+000) (50, 3.07658060629269590000e+000) (51, 2.95630770684597800000e+000) (52, 2.98521115053879750000e+000) (53, 1.99977918007876250000e+000) (54, 1.72416172746393760000e+000) (55, 6.33954288686213290000e-001) (56, 1.00956359872597790000e+000) (57, -5.08203898104034660000e-001) (58, 1.62796882214839030000e+000) (59, -1.09839717218110160000e-001) (60, 1.36192241606779610000e+000) (61, 1.86838754983269070000e+000) (62, -6.13168776603688400000e-001) (63, 8.12379583082529330000e-001) (64, -6.71685068410570190000e-001) (65, -7.92275645880126780000e-001) (66, 3.17140290550572730000e+000) (67, 1.69095978347298900000e+000) (0, -3.62047159805524490000e-001) (1, 8.98456071966068250000e-001) (2, -2.02421389128585290000e-001) (3, -7.30923293079695500000e-001) (4, 7.59341375049689020000e-001) (5, -7.32516696020982790000e-001) (6, -3.83487528365958340000e-001) (7, 2.43945453067272000000e-001) (8, 3.73758360421053650000e-001) (9, 6.30890027502163940000e-001) (10, 7.24413296890406570000e-001) (11, 9.72162174696034050000e-001) (12, -1.32183505179864270000e-001) (13, 9.74605787129802840000e-001) (14, -3.96466267791265480000e-001) (15, 8.93999156823310880000e-001) (16, -8.36336094440146120000e-001) (17, -7.10111491401864910000e-001) (18, 6.56784517369653490000e-001) (19, -3.08747628469090670000e-002) (20, -1.22750592197912160000e+000) (21, -2.53632932444794230000e-001) (22, 5.89320227045814660000e-001) (23, -7.52246298039290220000e-001) (24, -2.96867040524560140000e-001) (25, 9.03195317525983950000e-002) (26, -1.68341740418819910000e-002) (27, -3.61499158952244660000e-001) (28, 9.54071619696699740000e-002) (29, 9.69811430975724280000e-002) (30, -9.60081105025117340000e-001) (31, -6.85690477041381090000e-001) (32, -9.26685946078078080000e-001) (33, 1.86276130513915590000e-001) (34, -2.56498642426969180000e-001) (35, -5.54118951405335510000e-001) (36, -5.21354824124000690000e-001) (37, -3.62047159805524490000e-001) (38, -6.35361530234603710000e-002) (39, -8.46523143745298800000e-001) (40, -9.49653225159136300000e-001) (41, -4.92152660417059410000e-001) (42, -5.72445576442194630000e-001) (43, -6.96631427637339870000e-001) (44, 2.16970033869574750000e-001) (45, -2.98473906379801220000e-002) (46, -3.81578890215177880000e-001) (47, 8.24744042349766170000e-001) (48, 9.83089790388813830000e-001) (49, 3.81303778651772560000e-001) (50, 5.21813196492984630000e-001) (51, 8.61008167214594940000e-001) (52, 2.86156563282008180000e+000) (53, 5.77580545839065370000e-002) (54, 1.08284794440294040000e+000) (55, -1.40072542869756840000e-001) (56, 2.11725539505275780000e-001) (57, -1.04497199196583270000e+000) (58, 1.76041638456288770000e+000) (59, 1.19401283682591370000e+000) (60, 6.38066820782451800000e-001) (61, 1.48050749824998530000e+000) (62, 4.52746026051917990000e-001) (63, 1.43736271974970550000e-001) (64, 5.80334080858710850000e-001) (65, 9.34961377954361630000e-001) (66, 2.67716268349012900000e+000) (67, 2.40402246917428370000e+000) (68, 3.28457466227382530000e-001) (0, 3.14471956064540480000e-001) (1, 7.61207999012572410000e-001) (2, 7.18846745831274610000e-001) (3, -8.46990794694260970000e-001) (4, -8.03419219993497520000e-001) (5, -5.35451317738483420000e-001) (6, -2.20808661202294840000e-001) (7, 5.59339109792222460000e-001) (8, -9.63252683153448360000e-001) (9, -1.22518441896097510000e+000) (10, -6.10850696133251940000e-001) (11, -6.96579934864401950000e-001) (12, 1.82355807044973920000e-001) (13, -1.55785797235458310000e+000) (14, -6.35311931052978780000e-001) (15, -6.95639825771250250000e-002) (16, 4.03430519911496090000e-001) (17, 8.59581198374104180000e-001) (18, -2.49561289755688310000e-001) (19, -1.46641399725051660000e+000) (20, -3.26729343984676760000e-002) (21, 4.30484204288533680000e-001) (22, 1.54486551965847900000e-001) (23, 5.28839251148431330000e-001) (24, 2.88018763677094160000e+000) (25, 1.04439226208081610000e+000) (26, 1.33414915406935980000e-001) (27, -2.34419265202712420000e-001) (28, -2.17032805477217570000e+000) (29, 3.27875924293913430000e-001) (30, -7.16294351934825490000e-001) (31, -1.80705319729943530000e+000) (32, -4.14899729235680350000e-002) (33, -3.33923682881464790000e-001) (34, -1.31989232737884770000e+000) (35, -1.49448607722573690000e+000) (36, -1.01344185418708980000e+000) (37, 5.96922778028261100000e-001) (38, -1.85199728076963300000e-001) (39, -4.30640191998076460000e-001) (40, -7.54815255817061100000e-001) (41, -3.60632647266879050000e-001) (42, 2.13602823483196830000e-002) (43, 1.53817699638625990000e-001) (44, 4.66462858456384910000e-001) (45, -1.95290984927453920000e-001) (46, -8.38645946323208320000e-001) (47, -5.27424975030448050000e-001) (48, -1.52336107929838900000e-001) (49, -9.56110834843979850000e-001) (50, -2.02170468287846790000e-001) (51, 1.17004728003171630000e-002) (52, -4.59160659865301750000e-001) (53, -1.07360384252596110000e+000) (54, -5.45267114001534710000e-001) (55, 2.13505660888063640000e-001) (56, -4.13047082435488640000e-002) (57, 1.11303351159876420000e+000) (58, 4.00278692472986140000e-001) (59, 1.61629324149679250000e+000) (60, 3.90853454596522600000e-001) (61, 6.63484343940155760000e-001) (62, 1.44792617665550580000e+000) (63, -3.22757602061001850000e-001) (64, -4.22505459743702650000e-002) (65, 1.96165968346512810000e+000) (66, 2.14154586356488830000e+000) (67, 2.08865084769892430000e+000) (68, 2.62814178063577370000e-001) (69, 1.43854598252555290000e+000) (0, 5.53703300258984070000e-001) (1, 1.11346456916062310000e+000) (2, 1.48501800417947760000e+000) (3, 4.93435053806659920000e-001) (4, 3.02305310730834570000e-002) (5, 1.08616847447110490000e+000) (6, 4.32784151821305250000e-001) (7, 1.80377515074787810000e+000) (8, 1.17247902378888910000e+000) (9, 1.95192661795290380000e+000) (10, 2.04421037733545630000e+000) (11, 5.73760733815076970000e-001) (12, 1.09547975910818350000e+000) (13, 4.19370247985806580000e-001) (14, 4.79659454617557270000e-001) (15, -1.84549021741432170000e-001) (16, 1.31046477598012910000e+000) (17, 9.56817510410147400000e-001) (18, 5.61908639036430960000e-001) (19, 3.69321103490180490000e-001) (20, -1.48826147450354470000e-001) (21, 1.05461958442298490000e+000) (22, 1.27592910264337660000e+000) (23, 3.29786702610365480000e-002) (24, 3.51573710837601980000e+000) (25, 2.29962784376114950000e+000) (26, 1.60821440201782060000e+000) (27, 8.93365211319682500000e-001) (28, 8.78693013101393470000e-001) (29, -8.84103619058831500000e-001) (30, 2.49653304609573770000e-001) (31, 5.07096233465897830000e-001) (32, 1.91219421843988970000e+000) (33, 4.00276184573712500000e-001) (34, 1.63954140238615500000e+000) (35, 4.25534942738496680000e-001) (36, 5.55930369981109340000e-001) (37, 2.39989539096039980000e-001) (38, 1.76799685840951430000e+000) (39, 6.61670848941906530000e-001) (40, 1.83540800814507680000e+000) (41, 1.91436259979372990000e+000) (42, 4.29595355712716680000e-001) (43, 1.78540768516240790000e+000) (44, 1.41640019947653780000e+000) (45, -3.20999784589117710000e+000) (46, 8.08424333413039540000e-001) (47, 1.41850480490820630000e+000) (48, 1.08963968873764290000e+000) (49, 1.50587781828353330000e+000) (50, 1.11229564238210440000e+000) (51, 2.00326623530117900000e+000) (52, 1.79023295263373860000e+000) (53, 9.88018686398509540000e-001) (54, 9.71020458176868550000e-001) (55, -1.39886033295197270000e+000) (56, 2.30219894657281040000e-001) (57, 2.84307928236178500000e+000) (58, 5.01379318911346790000e-001) (59, -4.11149277709416730000e-001) (60, 8.26420727828981790000e-001) (61, -1.36721800106483120000e+000) (62, 1.12023640127433310000e+000) (63, 6.75399344126226820000e-001) (64, -1.11613090071118440000e+000) (65, 6.12898940397890500000e-001) (66, 1.32327554359284780000e+000) (67, 1.36517632445970130000e+000) (68, -6.87810992295389780000e-001) (69, -1.33717824695854470000e+000) (70, 1.06398603791883060000e+000) (0, 1.52649628911625810000e+000) (1, 5.50286991238172260000e-001) (2, 1.77575208368238280000e+000) (3, 1.09112864999064230000e+000) (4, 1.56901789751304070000e+000) (5, 4.49282209731100330000e-001) (6, 4.18061389151480720000e-001) (7, 2.45868029022167620000e-001) (8, 7.08037579322547630000e-001) (9, 1.01853545367361260000e+000) (10, 3.85627489653634470000e-001) (11, 9.26417439198017450000e-001) (12, 8.83947540009321740000e-001) (13, 8.12589717286003600000e-001) (14, 9.51624574394591250000e-001) (15, 2.05042211778124270000e+000) (16, 5.99077670053416720000e-001) (17, 1.45530886464468680000e-001) (18, 5.53174798744868190000e-001) (19, 2.72411859009472230000e-001) (20, 9.07307743275466040000e-001) (21, 9.33892251030809970000e-001) (22, 8.47532938646505810000e-001) (23, 5.88698240050371080000e-001) (24, 1.16933277439949430000e+000) (25, 7.86126474578834220000e-001) (26, 5.66779500531683130000e-001) (27, 8.52073663214281350000e-001) (28, 1.93216789040032060000e+000) (29, 9.22949093565314850000e-001) (30, 9.55847667845106000000e-001) (31, 2.95467037632401070000e-002) (32, 1.94194389547941730000e+000) (33, 1.61339010808266710000e-001) (34, 6.52350410012654700000e-001) (35, 8.93324429457045930000e-001) (36, 1.42472535250293770000e+000) (37, 2.91326565326235350000e-001) (38, 7.35632680691415080000e-001) (39, 1.36356063652077910000e+000) (40, 7.18202652024265480000e-001) (41, 1.63497108290925140000e+000) (42, 1.17764033073785000000e+000) (43, 1.10453636434998810000e+000) (44, 8.64857508611967420000e-001) (45, 7.95360438060005780000e-001) (46, 1.96473700989030500000e+000) (47, 5.49038687897704520000e-002) (48, 1.15905354193689750000e+000) (49, 2.03177558168703510000e+000) (50, 4.99605198758841300000e-001) (51, 1.83289448535673770000e+000) (52, 4.58695668438346350000e+000) (53, 1.48788766206722820000e-001) (54, 2.93057365390780700000e-001) (55, 5.88913977844859100000e-001) (56, 2.43668523904703310000e-001) (57, 1.12052633066685690000e+000) (58, 2.26384342816005900000e+000) (59, 1.44532467817785350000e+000) (60, 1.98363486494547690000e+000) (61, 1.07324973692549700000e+000) (62, 5.56322988395934190000e-001) (63, 2.12475124357624450000e-001) (64, 1.03788714941026110000e+000) (65, 1.12344964979331840000e+000) (66, 3.74777875610301460000e-001) (67, 1.09152854874949080000e+000) (68, -5.81720611147303220000e+000) (69, 1.24807169028219160000e+000) (70, 2.03113388994187050000e+000) (71, 2.19305173290282780000e+000) (0, 2.01247172996317980000e+000) (1, 2.95825104610503200000e+000) (2, 3.31130449537977120000e+000) (3, 2.76670484996520690000e+000) (4, 2.96636795198082700000e+000) (5, 3.19990475568283590000e+000) (6, 3.08096332391232730000e+000) (7, 1.88017255545218930000e+000) (8, 2.26415972475751780000e+000) (9, 1.97981236852592570000e+000) (10, 2.50696386193976520000e+000) (11, 2.40118843497566430000e+000) (12, 2.03311551419846960000e+000) (13, 5.45413799619129720000e-001) (14, 2.90264704522360130000e+000) (15, 2.53067545312023730000e+000) (16, 2.29713864941822840000e+000) (17, 1.49848624135574780000e+000) (18, 5.10609274418334010000e+000) (19, 2.34935164421522250000e+000) (20, 2.18355887043908000000e+000) (21, 3.27563423027931710000e+000) (22, 1.88157863363539790000e+000) (23, 1.57270756658861320000e+000) (24, 2.22660949671088510000e+000) (25, 3.96477778173547080000e+000) (26, 3.00458070414351530000e+000) (27, 3.23550409877588980000e+000) (28, 2.22785734257285960000e+000) (29, 1.16179079320618220000e+000) (30, 2.07250444807457730000e+000) (31, 2.43793820567316160000e+000) (32, 2.02429556923107020000e+000) (33, 2.31847846338241360000e+000) (34, 6.18341575396062050000e-001) (35, 1.04329674994851280000e+000) (36, 3.12340131998735030000e+000) (37, 2.49635436292100940000e+000) (38, 2.91127525225692670000e+000) (39, 1.40939201465607610000e+000) (40, 2.85260344443031370000e+000) (41, 1.41022287903706300000e+000) (42, 2.36335214931841490000e+000) (43, 3.18641918765297170000e+000) (44, 1.65801220250523170000e+000) (45, 2.01240781731848850000e+000) (46, 2.15895951159563860000e+000) (47, 2.17148638995513330000e+000) (48, 2.14688002174898300000e+000) (49, 3.30938711603903220000e+000) (50, 1.99932446990303840000e+000) (51, 2.37555946445445310000e+000) (52, 1.65417744382375380000e+000) (53, 2.39660546930415790000e+000) (54, 2.76203922690274210000e+000) (55, 1.65907599542150370000e-001) (56, 2.02733442312624710000e+000) (57, 2.12556815801677470000e+000) (58, -2.64190868871570850000e-002) (59, 2.49863017330300420000e-001) (60, 8.26175593294780300000e-001) (61, 2.28837898117972260000e+000) (62, 1.24274595260964030000e+000) (63, 1.02473992156761720000e+000) (64, 2.89169293815449650000e-001) (65, 6.59351331867457090000e-001) (66, 2.87353527368526550000e+000) (67, 2.52199406804841790000e+000) (68, 1.50306215443730370000e+000) (69, 2.11962819028359700000e-001) (70, 7.45119484674217070000e-001) (71, 2.30827018420071230000e+000) (72, 2.20268649517068480000e+000) (0, 1.98236531579095290000e+000) (1, 8.07583044665075470000e-001) (2, 2.80808703846555760000e-001) (3, 1.82837626571199040000e+000) (4, 1.34862392398280910000e+000) (5, 1.16519596824214390000e-001) (6, 1.93865987163003520000e-001) (7, 6.47004517162709130000e-001) (8, 2.50489994804283270000e+000) (9, 1.17390680899915870000e+000) (10, 5.79574330713508500000e-001) (11, 1.14011231247951120000e+000) (12, 1.03212690959476470000e-001) (13, 1.05478504181423060000e+000) (14, 6.44573447822035850000e-001) (15, 2.01844118538561740000e-001) (16, 1.71840013510658610000e+000) (17, 9.29306187068455360000e-001) (18, 1.44914882570209680000e+000) (19, 4.03633922813210750000e-001) (20, 4.32658608381992440000e-001) (21, -3.08756962124196000000e-002) (22, 1.09984821943711370000e+000) (23, 5.11610089035407830000e-001) (24, 1.91863996057972730000e+000) (25, 1.96391295869295160000e+000) (26, 4.21819865407623400000e-001) (27, 1.80438642179254270000e+000) (28, 5.38885907011713570000e-001) (29, 4.35717329874274310000e-001) (30, 6.32417814895698930000e-001) (31, 1.31855208557352870000e+000) (32, 3.33460547724821750000e-001) (33, 5.82126181968869340000e-001) (34, 4.64977181587183210000e-001) (35, 1.44441917972678780000e+000) (36, 1.83842042061950890000e+000) (37, 1.69729044784252880000e+000) (38, 1.40108384133417970000e+000) (39, 9.59396927439225000000e-001) (40, 1.02113329359053310000e+000) (41, 4.72799206250779480000e-001) (42, 2.03879171469815910000e+000) (43, 3.36073372054627380000e-002) (44, 3.77017697792282540000e-002) (45, 6.73169400325108970000e-001) (46, 3.68583102146654070000e-001) (47, 1.45213629748831850000e+000) (48, 5.84756346939680260000e-001) (49, 1.06155564371870430000e-001) (50, 1.78845617862583910000e+000) (51, 1.50901052495828010000e+000) (52, 5.76379391600079050000e+000) (53, 1.69737048745403110000e-002) (54, 1.74328883878842580000e+000) (55, -1.47819791514848940000e+000) (56, 5.98427125353604870000e-001) (57, 8.76593672139144520000e-001) (58, 1.80846494445232260000e+000) (59, 1.16604006523292680000e+000) (60, 1.41689332336112010000e+000) (61, 7.40969601860894560000e-001) (62, -2.04687429071659880000e-001) (63, 1.26553374245498550000e+000) (64, 1.43378285772790280000e+000) (65, 3.63664519268906530000e-001) (66, 1.37097835814631090000e+000) (67, 1.89877630710827190000e+000) (68, 1.79460472829098890000e+000) (69, -6.73384846288792170000e-002) (70, 1.26162476310285590000e+000) (71, 1.70077210686133020000e+000) (72, 1.59060628042345180000e+000) (73, 1.81725205846462940000e+000) (0, 1.27303879102856790000e+000) (1, 1.85125211074996440000e+000) (2, 1.31188175288942510000e+000) (3, 1.30258591060947950000e+000) (4, 1.61861550549272540000e+000) (5, 1.38974772130776620000e+000) (6, 1.27505096729819310000e+000) (7, 1.84834565013451260000e+000) (8, 7.63079158198020480000e+000) (9, 2.38468833881306170000e+000) (10, 2.10502658506600280000e+000) (11, -8.34024306701113160000e-001) (12, 1.24143119732437040000e+000) (13, -1.67133855723000100000e+000) (14, 1.29393722883997890000e+000) (15, -5.37414399241207260000e+000) (16, 9.88383911975151070000e-001) (17, 3.01179604376581920000e-001) (18, -4.99611038668114650000e+000) (19, 1.52315549195551110000e+002) (20, -6.22529186813498110000e+000) (21, -2.02291922623676900000e+001) (22, 2.74188626545131790000e+000) (23, 2.25973174935108360000e+001) (24, 2.67662967738253030000e+001) (25, 1.68476427809934930000e+001) (26, -2.38371335724766360000e+000) (27, 4.27684338717540860000e+000) (28, 5.63275378247183990000e-001) (29, 8.90053040864156260000e-001) (30, 3.60287397220096310000e+000) (31, -1.30897739842118220000e+001) (32, 1.34257004206466420000e+000) (33, -1.62951060378806760000e+000) (34, 3.85697060573325150000e-001) (35, 8.53105104635300980000e-001) (36, 1.29277774869850330000e+000) (37, 1.20741379005067430000e+000) (38, 1.75361674004777110000e+000) (39, 1.28737521482909980000e+000) (40, 1.39717819717526410000e+000) (41, 1.71905432206430510000e+000) (42, 1.42744303436947020000e+000) (43, 1.35786957204791150000e+000) (44, 1.85954060771186950000e+000) (45, -1.81363139270173900000e+001) (46, 1.25034384256309150000e+000) (47, 2.22040598462267670000e+000) (48, -1.60782677420620160000e+000) (49, 1.33247139191446820000e+000) (50, -3.91841298878219830000e-001) (51, 1.30539963135453220000e+000) (52, -3.73113243755548540000e+001) (53, 8.82505299656143330000e-001) (54, 1.00304784250777690000e+000) (55, 1.21081344830446240000e+000) (56, -9.48774789513323210000e+000) (57, -3.26034719835067010000e+001) (58, 3.24158072562777800000e+001) (59, 3.58859738644733350000e+001) (60, 2.10248085583807590000e+001) (61, 1.13885912242562010000e+002) (62, 1.97189142159021240000e+001) (63, 3.35882868227538940000e+001) (64, 1.92783056320304990000e+000) (65, 1.40912803455744290000e+001) (66, -1.12516744561199070000e+000) (67, 1.87285747771725970000e+000) (68, 1.50000000000000000000e+003) (69, 3.35605483327149590000e+001) (70, 3.16219324880301150000e+001) (71, -1.31322138331557370000e+000) (72, -1.15438711185335500000e+001) (73, 1.50000000000000000000e+003) (74, -7.78364099703790950000e-001) 
